
\data\
ngram 1=5371
ngram 2=63240
ngram 3=51665

\1-grams:
-5.187448	'bout	-0.1554059
-3.451288	'cause	-0.391313
-5.187448	'em	-0.1443498
-5.187448	'till	-0.1563758
-5.187448	25th	-0.1527693
-5.187448	4	-0.1591969
-5.187448	420	-0.1596436
-1.459484	</s>
-99	<s>	-1.055292
-1.038028	<unk>
-2.013268	_garbled	-0.159187
-2.178392	a	-0.2998282
-4.807446	aaron	-0.2557503
-4.663644	ab	-0.1592465
-5.187448	abam	-0.1443498
-5.187448	abass	-0.1574954
-5.187448	abbas	-0.1574954
-4.663644	abbey	-0.1942292
-5.187448	abbeydale	-0.159623
-5.187448	abbie	-0.1592176
-5.187448	abby	-0.1568046
-5.187448	abdul	-0.1527693
-5.187448	abel	-0.1592176
-5.187448	ability	-0.1569705
-3.933408	able	-0.5907957
-2.929583	about	-0.2946935
-4.425881	above	-0.1986128
-5.187448	abso	-0.1572261
-5.187448	absolute	-0.158378
-3.643475	absolutely	-0.1242939
-5.187448	abubakar	-0.1582815
-5.187448	abubaker	-0.1582815
-5.187448	academy	-0.1563204
-5.187448	accent	-0.1577714
-5.187448	accept	-0.1587292
-5.187448	acceptable	-0.1577714
-4.807446	accepting	-0.2574779
-5.187448	access	-0.1554891
-5.187448	accompany	-0.1556902
-4.425881	according	-0.4525591
-5.187448	accordingly	-0.1577714
-3.996717	account	-0.1503063
-5.187448	account's	-0.1571294
-5.187448	accross	-0.1587498
-4.807446	accurate	-0.1858712
-4.663644	acres	-0.1744388
-3.614262	across	-0.4761842
-4.663644	act	-0.1513103
-4.663644	activated	-0.2171081
-4.273107	actual	-0.154008
-2.774165	actually	-0.1626657
-4.425881	ad	-0.1490492
-4.160314	adam	-0.3173676
-5.187448	adams	-0.158378
-3.081893	add	-0.2960117
-5.187448	addable	-0.1591832
-3.614262	added	-0.2012569
-3.674796	adding	-0.2489549
-4.663644	addition	-0.2179485
-3.414101	additional	-0.1943415
-4.807446	additionally	-0.1561656
-3.173913	address	-0.1669515
-5.187448	addresses	-0.1577714
-5.187448	adin	-0.1582815
-5.187448	adjust	-0.156611
-5.187448	adrian	-0.1443498
-5.187448	ads	-0.156611
-5.187448	adults	-0.1571778
-5.187448	advance	-0.1519566
-4.807446	advertised	-0.1540418
-4.807446	advertisement	-0.1411553
-5.187448	advertising	-0.1556902
-5.187448	af	-0.1554267
-4.425881	afford	-0.2119605
-5.187448	afraid	-0.1554059
-5.187448	afte	-0.1443498
-2.770101	after	-0.6078203
-4.070858	afternoon	-0.1539256
-4.663644	afterwards	-0.1326561
-2.85962	again	-0.2932334
-4.663644	against	-0.1554701
-4.663644	agent	-0.1875579
-5.187448	agius	-0.1568046
-3.82916	ago	-0.2270863
-4.663644	agree	-0.1854336
-3.042292	ah	-0.05685734
-4.273107	ahead	-0.1254113
-4.807446	ahh	-0.1382584
-5.187448	ahmad	-0.1582815
-5.187448	aid	-0.1595886
-4.663644	aim	-0.3276203
-5.187448	airgate	-0.1594444
-3.878164	airport	-0.3554841
-3.996717	ajax	-0.2153816
-4.807446	akash	-0.1556391
-4.425881	al	-0.1358954
-5.187448	alaa	-0.1568046
-4.273107	alan	-0.1780268
-5.187448	albean	-0.1527693
-4.160314	albert	-0.2326789
-5.187448	alberta	-0.1443498
-5.187448	alberto	-0.1564355
-4.807446	albion	-0.1423264
-4.160314	alcona	-0.2040452
-5.187448	aldwych	-0.158378
-5.187448	ale	-0.03898142
-5.187448	ale's	-0.1494932
-5.187448	alejandro	-0.1554614
-5.187448	ales	-0.1049914
-4.273107	alex	-0.2342714
-5.187448	alexander	-0.158378
-4.070858	alexandra	-0.2909908
-5.187448	alfred	-0.1569265
-5.187448	alfredo	-0.1443498
-5.187448	alfus	-0.1574954
-5.187448	algonquin	-0.1593069
-4.273107	ali	-0.2293252
-5.187448	alice	-0.1582815
-4.807446	alicia	-0.1383891
-5.187448	alise	-0.1588737
-5.187448	alisha	-0.1527693
-2.393819	all	-0.427998
-5.187448	allandale	-0.1592176
-5.187448	allen	-0.1586259
-4.425881	allergy	-0.2061938
-4.807446	alliance	-0.1885597
-5.187448	allison	-0.1568046
-4.807446	allister	-0.1433714
-4.663644	alliston	-0.1745904
-4.160314	allow	-0.3288321
-4.807446	allowed	-0.1969265
-4.663644	allowing	-0.2215763
-5.187448	allows	-0.1556902
-5.187448	alma	-0.1588737
-3.614262	almost	-0.2292527
-4.273107	alone	-0.1694639
-3.674796	along	-0.8515419
-4.425881	alpha	-0.1891168
-5.187448	alphabets	-0.1579162
-3.205805	already	-0.2095046
-3.674796	alright	-0.1523437
-4.663644	alrighty	-0.1522964
-2.803728	also	-0.2145189
-5.187448	alternate	-0.1590869
-4.807446	alternative	-0.1563525
-4.425881	although	-0.1518395
-3.513818	altogether	-0.27041
-4.807446	alton	-0.257581
-4.807446	alvin	-0.2575879
-3.674796	always	-0.1338788
-3.471147	am	-0.3357926
-5.187448	amad	-0.1582815
-4.663644	amanda	-0.2026952
-5.187448	amanda's	-0.1443498
-4.807446	amar	-0.2561983
-4.807446	amari	-0.2561983
-4.425881	amazing	-0.1905812
-5.187448	amber	-0.1443498
-5.187448	amberlea	-0.1592176
-5.187448	amend	-0.1551883
-5.187448	amended	-0.1554059
-4.273107	amex	-0.2333292
-5.187448	amia	-0.1556902
-4.807446	amir	-0.2205705
-4.807446	amit	-0.1417426
-5.187448	ammat	-0.1568046
-5.187448	among	-0.1591969
-5.187448	amore	-0.1287966
-3.933408	amount	-0.2263118
-4.273107	amy	-0.2004341
-2.735143	an	-0.5457817
-4.807446	ancaster	-0.1442618
-3.708553	anchovies	-0.2472296
-1.80083	and	-0.3040344
-4.807446	anderson	-0.1440625
-5.187448	andes	-0.1413559
-5.187448	andova	-0.1594581
-4.273107	andrea	-0.1681752
-4.663644	andrew	-0.2036644
-5.187448	andrew's	-0.1592107
-4.807446	andrews	-0.2559916
-4.807446	andy	-0.2026952
-4.807446	angel	-0.1425292
-4.807446	angela	-0.1580281
-5.187448	angelico	-0.158378
-5.187448	angelina	-0.1588737
-5.187448	angelo	-0.1443498
-4.070858	angus	-0.2622532
-5.187448	anil	-0.1443498
-5.187448	anisha	-0.1582815
-4.160314	ann	-0.1563085
-5.187448	anna	-0.1443498
-4.663644	anne	-0.2062669
-5.187448	annes	-0.1593413
-5.187448	annette	-0.1580748
-4.807446	anniversary	-0.1405071
-5.187448	announcement	-0.1579162
-5.187448	annoying	-0.1554059
-5.187448	ano	-0.1592588
-2.999094	another	-0.2631063
-4.807446	ans	-0.1561379
-4.160314	answer	-0.1387489
-4.807446	answered	-0.1538191
-5.187448	answering	-0.1568046
-3.933408	anthony	-0.2080238
-5.187448	antler	-0.1580748
-5.187448	antoine	-0.1431146
-4.425881	antrim	-0.1777479
-2.799379	any	-0.3366963
-4.663644	anybody	-0.2209661
-5.187448	anybody's	-0.1593481
-3.82916	anymore	-0.282275
-4.070858	anyone	-0.174096
-5.187448	anythi	-0.1443498
-2.774165	anything	-0.4727743
-4.663644	anytime	-0.1530336
-3.614262	anyway	-0.186776
-4.160314	anyways	-0.145154
-4.663644	anywhere	-0.1542688
-5.187448	apa	-0.1561612
-5.187448	apache	-0.1591282
-5.187448	apar	-0.1568046
-4.807446	apart	-0.1516113
-2.953592	apartment	-0.4166141
-4.663644	apartments	-0.14083
-4.663644	apologies	-0.1723389
-4.273107	apologize	-0.1785468
-4.807446	apology	-0.2158827
-5.187448	apostrophe	-0.1568046
-4.160314	app	-0.1900769
-4.160314	apparently	-0.1726317
-4.807446	appartment	-0.2037504
-5.187448	appealing	-0.1443498
-5.187448	appears	-0.1550104
-5.187448	appetite	-0.1566318
-4.425881	appetizers	-0.1374767
-3.614262	apple	-0.2611938
-5.187448	applebee	-0.1595474
-5.187448	appleby	-0.1527693
-5.187448	appleview	-0.1583091
-4.070858	applied	-0.1571612
-3.996717	apply	-0.2384871
-5.187448	applying	-0.156394
-4.160314	appreciate	-0.3022602
-5.187448	approval	-0.1583918
-5.187448	approved	-0.1562789
-5.187448	approx	-0.1584744
-5.187448	approximate	-0.1591488
-4.070858	approximately	-0.1484983
-4.807446	aquitaine	-0.2562948
-5.187448	aran	-0.1582815
-5.187448	arc	-0.1527693
-5.187448	ardwold	-0.1568046
-2.58253	are	-0.2719443
-3.471147	area	-0.2675555
-4.807446	aren't	-0.1554865
-5.187448	arena	-0.1443498
-4.807446	argentia	-0.1558331
-4.807446	argentina	-0.1491178
-5.187448	argentinia	-0.1443498
-4.273107	argyle	-0.5505733
-5.187448	arjay	-0.1568046
-4.807446	arjun	-0.1417426
-4.807446	arjun's	-0.2575329
-5.187448	arlene	-0.1443498
-5.187448	arlington	-0.158378
-5.187448	armen	-0.1574954
-5.187448	armstrong	-0.1591282
-5.187448	arn	-0.1443498
-5.187448	arnold	-0.1586259
-4.663644	arnprior	-0.1727892
-5.187448	arnpry	-0.1443498
-4.663644	arone	-0.1383413
-3.27761	around	-0.2858899
-5.187448	arr	-0.1592313
-4.663644	arrival	-0.1442526
-4.160314	arrive	-0.2326927
-4.807446	arrived	-0.1415278
-4.807446	arrives	-0.1729777
-4.807446	arriving	-0.2215901
-5.187448	arti	-0.1554614
-3.78513	artichoke	-0.2668275
-3.674796	artichokes	-0.3201291
-2.482152	as	-0.5263063
-5.187448	asad	-0.1582815
-5.187448	ascoli	-0.1586259
-5.187448	ascot	-0.158378
-5.187448	aserb	-0.1582815
-4.273107	ash	-0.2111018
-4.663644	ashley	-0.1873645
-5.187448	ashton	-0.1583091
-5.187448	asid	-0.1582815
-4.807446	aside	-0.2566666
-5.187448	asima	-0.1568046
-5.187448	asin	-0.1574954
-3.513818	ask	-0.252842
-3.82916	asked	-0.2230803
-3.708553	asking	-0.210485
-5.187448	aslo	-0.1574333
-5.187448	ass	-0.1443498
-4.425881	assist	-0.4512787
-5.187448	assistance	-0.1596874
-4.807446	associate	-0.2542926
-4.273107	associated	-0.3718447
-5.187448	assort	-0.1550104
-4.273107	assorted	-0.2959894
-4.807446	assume	-0.1367922
-5.187448	assuming	-0.1477576
-5.187448	assure	-0.1554614
-5.187448	asum	-0.1582815
-2.438562	at	-0.4182702
-5.187448	atkins	-0.1587292
-5.187448	attach	-0.1569705
-5.187448	attached	-0.1569705
-5.187448	attempted	-0.1569705
-5.187448	attwenty	-0.1589769
-4.807446	aubrietia	-0.1565669
-5.187448	august	-0.1589769
-5.187448	aunt	-0.1555975
-4.663644	aurora	-0.1328918
-5.187448	australia	-0.156445
-5.187448	authorize	-0.1563758
-4.807446	authorized	-0.2157014
-4.273107	automated	-0.2313262
-4.425881	automatic	-0.2350466
-4.807446	automatically	-0.1594239
-5.187448	ava	-0.1568046
-5.187448	avail	-0.1582264
-3.379849	available	-0.2205725
-4.807446	avalon	-0.143243
-4.425881	ave	-0.1993009
-2.519114	avenue	-0.5032778
-5.187448	average	-0.1596436
-5.187448	avery	-0.1582815
-4.273107	avondale	-0.2679835
-5.187448	aw	-0.1574264
-5.187448	aware	-0.1548204
-3.996717	away	-0.1881791
-3.708553	awesome	-0.3061392
-5.187448	awful	-0.1568046
-4.273107	ay	-0.2391241
-5.187448	ayl	-0.1596779
-4.425881	aylmar	-0.1866218
-4.425881	aylmer	-0.1289265
-5.187448	azem	-0.1554267
-2.941422	b	-0.4941472
-3.878164	ba	-0.1551535
-5.187448	bab	-0.1591969
-4.425881	babe	-0.1328726
-4.663644	baby	-0.1570552
-5.187448	babysitter	-0.1595543
-4.160314	bac	-0.1743052
-3.049929	back	-0.2461222
-5.187448	background	-0.1571778
-4.807446	backyard	-0.1537583
-5.187448	baco	-0.1554059
-2.659944	bacon	-0.5694396
-5.187448	bacons	-0.1592863
-3.996717	bad	-0.1397939
-3.432296	bag	-0.7728692
-3.674796	bags	-0.3640638
-5.187448	baguettes	-0.1443498
-5.187448	bahaman	-0.1566318
-5.187448	bairdmore	-0.1593069
-4.807446	bake	-0.1558747
-3.396637	baked	-0.359966
-4.070858	balance	-0.1422861
-5.187448	balcony	-0.1579369
-5.187448	ball	-0.1554614
-4.425881	balls	-0.1827098
-5.187448	balmoral	-0.158378
-5.187448	balsam	-0.1580748
-3.996717	balsamic	-0.1711281
-3.586891	banana	-0.8023167
-3.708553	bancroft	-0.3183597
-3.708553	bank	-0.217153
-4.273107	banks	-0.5505733
-4.273107	bar	-0.1283244
-5.187448	barb	-0.1527693
-4.663644	barbara	-0.1417397
-5.187448	barbe	-0.1579231
-2.992295	barbecue	-0.558768
-3.414101	barbeque	-0.3864836
-4.425881	barbequed	-0.4551772
-4.807446	barclay	-0.2559916
-4.663644	barely	-0.2221403
-5.187448	barks	-0.1591669
-5.187448	barnhill	-0.1554614
-5.187448	barq	-0.1577507
-3.708553	barq's	-0.5084081
-5.187448	barqs	-0.1498332
-4.807446	barrhaven	-0.1371738
-4.070858	barrie	-0.2413941
-4.807446	barriefield	-0.1573936
-4.663644	barry	-0.1529176
-4.425881	barry's	-0.2769426
-4.663644	bart's	-0.221934
-4.425881	barton	-0.1877585
-3.27761	base	-0.2388482
-3.82916	based	-0.1997745
-5.187448	baseline	-0.1429148
-4.807446	basement	-0.1585313
-4.160314	basic	-0.1626064
-3.933408	basically	-0.1254906
-5.187448	basics	-0.1562789
-5.187448	basinview	-0.1586259
-4.663644	basis	-0.1362996
-4.807446	basket	-0.1556807
-4.663644	baskin	-0.2213902
-5.187448	batch	-0.1443498
-4.663644	bath	-0.3289589
-4.807446	bathurst	-0.1577137
-5.187448	batter	-0.1580748
-5.187448	batter's	-0.1554267
-5.187448	batters	-0.1408112
-5.187448	baxters	-0.1574954
-3.933408	bay	-0.250316
-4.273107	bayfield	-0.1820124
-4.807446	bayley	-0.2559916
-4.807446	bayly	-0.2559916
-3.78513	bayview	-0.5073367
-2.906831	be	-0.1248993
-4.425881	beach	-0.1580645
-4.807446	beaconwood	-0.2565427
-5.187448	beale	-0.1580748
-5.187448	beans	-0.1590112
-3.745156	bear	-0.7865463
-4.807446	beat	-0.1574859
-4.425881	beautiful	-0.2027114
-5.187448	beauty	-0.1554863
-4.160314	beaverwood	-0.2416015
-2.653711	because	-0.4314227
-5.187448	become	-0.1587498
-5.187448	becoming	-0.1596642
-5.187448	bedford	-0.1429148
-4.663644	beech	-0.2203428
-4.807446	beechborough	-0.1586302
-5.187448	beechnut	-0.1591969
-3.745156	beef	-0.1025934
-3.513818	been	-0.1509051
-4.663644	beep	-0.19968
-3.878164	beer	-0.09102556
-4.807446	beers	-0.1125986
-2.869677	before	-0.4629857
-5.187448	beg	-0.1534013
-4.425881	begin	-0.4520958
-4.807446	beginning	-0.1562045
-5.187448	behalf	-0.1579162
-4.425881	behind	-0.1390735
-3.491959	being	-0.15795
-5.187448	belalen	-0.1582815
-4.807446	beland	-0.1425435
-5.187448	belcot	-0.1591969
-4.807446	belgrave	-0.2562948
-4.160314	believe	-0.1075141
-5.187448	belinda	-0.1443498
-3.674796	bell	-0.3365324
-4.663644	belleville	-0.2584774
-5.187448	bellevue	-0.158378
-5.187448	bellomo	-0.1591969
-4.425881	bells	-0.2656463
-4.663644	ben	-0.1582762
-5.187448	benefit	-0.1443498
-4.663644	benlight	-0.1978929
-4.807446	benson	-0.2206464
-4.663644	berkley	-0.2765473
-4.663644	bern	-0.2201772
-5.187448	bernard	-0.1582815
-4.807446	besh	-0.1411768
-3.933408	beside	-0.1900022
-4.663644	besides	-0.1403492
-3.996717	best	-0.214772
-4.273107	bet	-0.1579619
-5.187448	bethany	-0.1583091
-3.30445	better	-0.2444442
-4.807446	betty	-0.1573824
-3.451288	between	-0.2173739
-5.187448	beverage	-0.156445
-4.425881	beverages	-0.2155915
-4.807446	bi	-0.1537008
-5.187448	bia	-0.1596711
-5.187448	bianca	-0.1443498
-3.451288	big	-0.2843307
-3.933408	bigger	-0.2095821
-5.187448	biggest	-0.1561033
-4.807446	bilal	-0.1566015
-3.933408	bill	-0.2007635
-5.187448	billy	-0.1596874
-4.160314	bingo	-0.1761632
-5.187448	birchbark	-0.1586259
-4.425881	birchmount	-0.2122439
-4.807446	birchpark	-0.1550842
-5.187448	birth	-0.1521662
-5.187448	birthday	-0.1590869
-4.807446	bit	-0.1179451
-4.425881	bite	-0.1876943
-3.471147	bites	-0.1298226
-4.070858	bits	-0.1978231
-3.065617	black	-0.5996354
-5.187448	blackthorne	-0.158378
-5.187448	blainville	-0.1443498
-5.187448	blairwood	-0.1596874
-4.807446	blanc	-0.1532454
-4.273107	blanca	-0.1047756
-5.187448	blanco	-0.1586302
-3.996717	blend	-0.2035145
-5.187448	blended	-0.1596504
-5.187448	blends	-0.1433785
-5.187448	blessed	-0.1596299
-4.425881	block	-0.1655162
-4.663644	bloomfield	-0.2200045
-5.187448	bloomingfield	-0.1443498
-3.78513	bloor	-0.4283354
-4.807446	blu	-0.1394966
-3.379849	blue	-0.6493527
-4.807446	bluejay	-0.2210668
-5.187448	bo	-0.1556902
-5.187448	board	-0.1447899
-5.187448	boarders	-0.1443498
-3.933408	bob	-0.3450963
-5.187448	bobbie	-0.1588737
-4.807446	bobby	-0.1574583
-4.273107	bocci	-0.2266457
-5.187448	boiling	-0.1596914
-5.187448	bold	-0.1540766
-4.807446	bolsom	-0.2559916
-5.187448	bolten	-0.1443498
-4.663644	bolton	-0.1487129
-5.187448	bolwood	-0.1587498
-5.187448	bonanza	-0.1593344
-5.187448	bond	-0.1443498
-4.807446	bone	-0.1443187
-3.745156	boneless	-0.427967
-3.996717	bonnel	-0.2297125
-4.807446	bonnie	-0.1409833
-4.663644	bonshaw	-0.212275
-4.663644	bonus	-0.2308537
-5.187448	boo	-0.1561584
-4.807446	book	-0.1520894
-5.187448	booked	-0.1596874
-4.807446	bookstore	-0.1413559
-4.273107	booth	-0.254742
-4.663644	borden	-0.1424095
-5.187448	border	-0.1594512
-5.187448	bordern	-0.1527693
-5.187448	bore	-0.1443498
-4.807446	boston	-0.1574235
-5.187448	botany	-0.159623
-3.02741	both	-0.3177657
-4.807446	bother	-0.1524736
-5.187448	bothering	-0.1443498
-4.663644	bottle	-0.2052749
-5.187448	bottled	-0.1595474
-3.708553	bottles	-0.322026
-4.160314	bottom	-0.09284019
-5.187448	bottomline	-0.1443498
-4.807446	bought	-0.1496382
-5.187448	bouleva	-0.1593069
-3.049929	boulevard	-0.3894824
-5.187448	bout	-0.1482188
-3.878164	bovaird	-0.1744557
-4.663644	bowl	-0.328566
-5.187448	bowman	-0.158378
-3.82916	bowmanville	-0.1980578
-4.663644	bowood	-0.1634199
-3.348102	box	-0.2586026
-4.070858	boxes	-0.2919701
-4.807446	boy	-0.1324917
-5.187448	boylston	-0.1580748
-4.663644	boys	-0.1417042
-4.807446	br	-0.1555628
-5.187448	brace	-0.1591969
-4.425881	bracebridge	-0.2373712
-4.663644	brad	-0.177124
-5.187448	bradbury	-0.1593894
-4.807446	braddle	-0.2562259
-3.996717	bradford	-0.1819107
-4.070858	bradshaw	-0.2896417
-5.187448	bradwell	-0.1594512
-4.425881	brady	-0.1394625
-4.807446	braemar	-0.1585889
-4.070858	bramalea	-0.2217636
-5.187448	bramelea	-0.1527693
-5.187448	brampt	-0.1563204
-5.187448	bramptom	-0.1596367
-3.264787	brampton	-0.2586368
-5.187448	bran	-0.1527693
-4.807446	brand	-0.1562071
-4.425881	brandon	-0.1869649
-5.187448	brands	-0.1579162
-4.663644	brant	-0.2054392
-4.425881	brantford	-0.219906
-5.187448	braun	-0.1580748
-5.187448	braxton	-0.1443498
-5.187448	brea	-0.1443498
-3.414101	bread	-0.1958829
-3.163783	breaded	-0.410947
-5.187448	breading	-0.1411553
-5.187448	breads	-0.1410478
-5.187448	breadsticks	-0.1443498
-5.187448	break	-0.1563758
-5.187448	breakdown	-0.1554267
-4.425881	breaking	-0.1369777
-5.187448	breast	-0.1550104
-5.187448	breasts	-0.1565073
-4.807446	brenda	-0.1408112
-5.187448	bri	-0.1443498
-4.807446	brian	-0.1428863
-5.187448	briarfield	-0.1586259
-5.187448	briarwood	-0.1437634
-4.807446	brick	-0.1584581
-4.663644	bridge	-0.205682
-5.187448	brief	-0.1575066
-5.187448	brilliant	-0.158502
-5.187448	brimley	-0.1583091
-3.536836	bring	-0.3114566
-4.807446	bringing	-0.1546189
-3.996717	brings	-0.3191637
-3.82916	brio	-0.1686712
-5.187448	brios	-0.1430861
-4.425881	britannia	-0.2505239
-5.187448	brittan	-0.1527693
-5.187448	bro	-0.1596367
-5.187448	broad	-0.159465
-4.425881	broadview	-0.1600562
-3.878164	broadway	-0.4017306
-3.173913	broccoli	-0.3426631
-5.187448	broccolis	-0.1443498
-5.187448	broch	-0.1563204
-4.070858	brock	-0.2916848
-5.187448	brocks	-0.1580748
-4.425881	brockville	-0.1391359
-5.187448	brocolli	-0.1594031
-4.663644	broke	-0.2796997
-5.187448	broken	-0.1594993
-4.663644	bronte	-0.2354122
-4.425881	brook	-0.1904317
-4.807446	brookdale	-0.152285
-5.187448	brookfield	-0.1537704
-5.187448	brookland	-0.1586259
-4.807446	brooklyn	-0.2564601
-5.187448	brooks	-0.1382331
-4.425881	brought	-0.248373
-4.425881	brown	-0.2055337
-4.807446	brown's	-0.2574642
-5.187448	browner	-0.1527693
-3.78513	brownie	-0.1881125
-3.414101	brownies	-0.2034529
-4.663644	browns	-0.3301972
-5.187448	browser	-0.1521497
-5.187448	brumwell	-0.1580748
-5.187448	brunswick	-0.158378
-3.745156	bruschetta	-0.1834428
-5.187448	bruschetta's	-0.1527693
-4.663644	brushed	-0.2191404
-5.187448	bryan	-0.1443498
-5.187448	bryant	-0.1594581
-5.187448	brynne	-0.1574954
-4.663644	bu	-0.1429024
-4.807446	bucket	-0.1571821
-4.663644	buckhorn	-0.3299911
-3.82916	bucks	-0.2327839
-4.807446	bud	-0.1417927
-4.425881	buddy	-0.1389225
-5.187448	budea	-0.1586302
-5.187448	budget	-0.1562789
-5.187448	buena	-0.1596848
-3.163783	buffalo	-0.5966834
-5.187448	bug	-0.1596914
-4.273107	build	-0.1854742
-3.536836	building	-0.2236313
-5.187448	buildings	-0.1443498
-4.807446	built	-0.1554241
-5.187448	bullshit	-0.1587292
-4.425881	bump	-0.1863887
-5.187448	bumpies	-0.156611
-5.187448	bun	-0.1563758
-4.807446	bunch	-0.1509627
-5.187448	bund	-0.1563758
-3.153883	bundle	-0.1847118
-5.187448	bundled	-0.156611
-4.070858	bundles	-0.1875407
-4.807446	bundling	-0.1427078
-4.663644	bur	-0.2207084
-4.425881	burbank	-0.1326022
-5.187448	burdon	-0.1443498
-4.663644	burger	-0.1887026
-5.187448	burl	-0.1584055
-5.187448	burli	-0.1595886
-3.614262	burlington	-0.4018279
-5.187448	burn	-0.1580748
-4.807446	burned	-0.1562348
-4.807446	burnham	-0.1528365
-3.82916	burnhamthorpe	-0.4601826
-4.273107	burnt	-0.210329
-5.187448	burntwood	-0.158378
-4.807446	burton	-0.1554199
-4.807446	bus	-0.159627
-4.160314	business	-0.2430912
-4.663644	busy	-0.1525478
-2.354809	but	-0.4819207
-4.807446	butter	-0.1408515
-5.187448	butterfly	-0.1563204
-5.187448	buttery	-0.1594993
-4.663644	button	-0.1348986
-5.187448	buttons	-0.1443498
-3.996717	buy	-0.1895674
-3.614262	buzz	-0.382831
-3.491959	buzzer	-0.3037371
-4.807446	buzzes	-0.2137299
-2.854677	by	-0.360714
-2.992295	bye	-0.6370602
-5.187448	byr	-0.1580748
-2.854677	c	-0.3297667
-3.878164	ca	-0.1814251
-5.187448	caarleton	-0.1593413
-5.187448	cab	-0.1588599
-5.187448	caches	-0.1563473
-3.471147	caesar	-0.3524462
-4.663644	cairncroft	-0.2003552
-5.187448	cajun	-0.1554614
-4.807446	cake	-0.1436642
-5.187448	cakes	-0.1443498
-5.187448	cal	-0.1594925
-4.663644	calamari	-0.3301491
-4.663644	calculate	-0.214423
-4.807446	caledon	-0.2506861
-4.663644	caledonia	-0.2041231
-4.663644	cali	-0.2220922
-3.081893	call	-0.3241751
-3.318519	called	-0.1734335
-3.536836	calling	-0.1783253
-4.663644	calls	-0.1515903
-5.187448	calories	-0.1427934
-5.187448	calum	-0.1443498
-5.187448	calvert	-0.1593413
-5.187448	cambrian	-0.1596711
-3.996717	cambridge	-0.3101416
-3.745156	came	-0.2259683
-5.187448	camila	-0.1589631
-5.187448	campaign	-0.1596914
-5.187448	camping	-0.1586397
-2.296695	can	-0.4821858
-3.708553	can't	-0.1786003
-5.187448	canad	-0.1550104
-3.414101	canada	-0.6274191
-4.273107	canada's	-0.5521352
-3.363686	canadian	-0.2548337
-4.807446	canard	-0.257368
-5.187448	canberra	-0.1591282
-3.536836	cancel	-0.3593357
-5.187448	canceled	-0.1550104
-4.273107	cancelled	-0.1625394
-4.807446	cancelling	-0.1407726
-4.663644	cancer	-0.1665405
-5.187448	canda	-0.1443498
-5.187448	candey	-0.1437206
-4.807446	candles	-0.2506861
-5.187448	cane	-0.1596848
-5.187448	cani	-0.1592176
-5.187448	cannen	-0.1443498
-4.807446	cannon	-0.1409833
-4.425881	cannot	-0.1596899
-3.451288	cans	-0.4330658
-5.187448	canterbury	-0.1592107
-5.187448	canvas	-0.1596914
-5.187448	cape	-0.1596914
-4.425881	capicola	-0.196261
-5.187448	capicollo	-0.1595062
-4.663644	capital	-0.2217208
-4.807446	capocollo	-0.1590706
-5.187448	capri	-0.1583091
-4.807446	car	-0.1554239
-5.187448	cara	-0.1443498
-4.160314	caramel	-0.3612301
-3.614262	caramelized	-0.6078837
-5.187448	carb	-0.1563204
-4.070858	carbs	-0.3076255
-3.491959	card	-0.2200641
-5.187448	card's	-0.1582057
-5.187448	cardboard	-0.1571294
-4.663644	cardholder	-0.1592331
-4.160314	care	-0.1234614
-4.807446	careful	-0.139964
-5.187448	carina	-0.1588737
-5.187448	carl	-0.1596367
-5.187448	carla	-0.1443498
-4.807446	carleton	-0.2572581
-3.878164	carling	-0.3042879
-4.807446	carlisle	-0.2559916
-4.663644	carlos	-0.1403708
-5.187448	carlson	-0.158378
-4.807446	carlton	-0.2559916
-4.807446	carly	-0.2554122
-5.187448	carmelita	-0.1443498
-5.187448	carmen	-0.1588737
-4.807446	carmen's	-0.2506861
-5.187448	carol	-0.1443498
-5.187448	caromont	-0.1527693
-5.187448	carport	-0.1443498
-4.807446	carriage	-0.2573406
-4.807446	carrie	-0.1548481
-5.187448	carried	-0.156611
-3.996717	carry	-0.1619951
-5.187448	cart	-0.1575343
-4.807446	carter	-0.139928
-5.187448	cartier	-0.1590869
-4.425881	case	-0.1400747
-5.187448	caser	-0.1595543
-5.187448	cases	-0.1579162
-5.187448	casey	-0.1572236
-2.953592	cash	-0.3892007
-4.160314	cass	-0.161911
-4.807446	cassandra	-0.1434968
-5.187448	cassy	-0.1556902
-4.807446	cat	-0.1371395
-4.425881	catch	-0.1883658
-5.187448	categories	-0.1582471
-4.425881	catering	-0.128528
-5.187448	catharine's	-0.1566318
-4.807446	catharines	-0.1539424
-4.273107	catherine	-0.156402
-4.807446	catherine's	-0.2045599
-4.807446	cats	-0.1375832
-4.663644	cattail	-0.1572279
-5.187448	catwalk	-0.1595818
-4.663644	cau	-0.1511231
-5.187448	caught	-0.1563204
-3.240225	cauli	-0.5148562
-5.187448	cauliblanca	-0.1527693
-4.807446	caulicrust	-0.1576792
-5.187448	caulificurst	-0.156611
-4.807446	caulifl	-0.1525685
-4.663644	cauliflo	-0.1419904
-2.912408	cauliflower	-0.4676818
-5.187448	cauliflowers	-0.156611
-5.187448	caulifrower	-0.1596848
-5.187448	caulipesto	-0.158061
-3.173913	cause	-0.3256063
-5.187448	caused	-0.1568046
-5.187448	causes	-0.1596779
-4.807446	cavell	-0.1429862
-5.187448	cawthra	-0.1369731
-5.187448	cea	-0.1550104
-5.187448	ceasar	-0.1589975
-4.807446	cecil	-0.1417972
-4.807446	cecile	-0.1420717
-5.187448	ced	-0.1596711
-4.807446	cedar	-0.1575066
-5.187448	cedarbrae	-0.1527693
-5.187448	celebrate	-0.1568021
-5.187448	celiac	-0.156034
-5.187448	celine	-0.1560756
-4.273107	cell	-0.3456182
-4.663644	cellphone	-0.1346777
-3.78513	cent	-0.2449661
-4.807446	centennial	-0.2576042
-3.491959	center	-0.2449144
-4.663644	centerfield	-0.2060102
-3.745156	central	-0.3795428
-4.807446	centralized	-0.1560271
-3.708553	centre	-0.2044849
-3.348102	cents	-0.3766796
-4.070858	certain	-0.2214563
-3.78513	certainly	-0.1617415
-5.187448	cesar	-0.1595543
-4.273107	ch	-0.1332322
-5.187448	chadia	-0.1443498
-5.187448	chalk	-0.1596711
-4.807446	champagne	-0.1441479
-4.663644	chance	-0.1843439
-5.187448	chaney	-0.1582815
-3.205805	change	-0.3172981
-3.878164	changed	-0.1836524
-4.807446	changes	-0.142872
-4.425881	changing	-0.1520003
-5.187448	chantal	-0.1590869
-3.27761	charge	-0.2194076
-3.996717	charged	-0.2176085
-4.160314	charges	-0.1155451
-4.070858	charging	-0.143137
-4.807446	charlene	-0.2561983
-4.273107	charlie	-0.1723457
-5.187448	charm	-0.1574954
-5.187448	charmaine	-0.1443498
-5.187448	chateau	-0.1580748
-4.160314	che	-0.2613391
-4.807446	cheap	-0.1515063
-3.318519	cheaper	-0.275429
-4.807446	cheapest	-0.1997845
-3.451288	check	-0.2047707
-4.807446	checked	-0.154021
-4.425881	checking	-0.1362791
-5.187448	checks	-0.159355
-3.184286	cheddar	-0.4535268
-4.663644	cheddars	-0.1689157
-4.807446	chee	-0.1566292
-5.187448	chees	-0.1574195
-2.650629	cheese	-0.3346855
-4.273107	cheeseburger	-0.2010108
-5.187448	cheesecake	-0.1596504
-5.187448	cheesegub	-0.1596711
-5.187448	cheesey	-0.1595268
-3.614262	cheesy	-0.5415577
-4.160314	cheetos	-0.1451827
-4.807446	chela	-0.1588462
-5.187448	chelsea	-0.1432573
-4.160314	chemong	-0.2257905
-5.187448	cherie	-0.1588737
-5.187448	cherry	-0.1592932
-5.187448	chester	-0.1596874
-5.187448	chestnut	-0.1580748
-4.807446	cheval	-0.2576042
-5.187448	chevony	-0.1582815
-4.273107	chi	-0.1832747
-5.187448	chic	-0.1587567
-4.663644	chick	-0.2173096
-5.187448	chicke	-0.1595474
-2.666267	chicken	-0.3705659
-5.187448	chicken's	-0.1568046
-4.807446	chickens	-0.1523199
-5.187448	chico	-0.1443498
-5.187448	child	-0.1596642
-5.187448	children	-0.1554614
-3.333059	chili	-0.2922852
-4.807446	chilies	-0.1446308
-3.745156	chilli	-0.5246329
-5.187448	chimo	-0.1596573
-5.187448	chin	-0.1587223
-4.663644	chingacousy	-0.1959228
-4.160314	chingcousy	-0.2633249
-4.807446	chinguacousy	-0.1513619
-5.187448	chintsy	-0.156611
-4.273107	chip	-0.2168113
-3.379849	chipotle	-0.4417347
-3.107511	chips	-0.1928291
-5.187448	chisholm	-0.1443498
-5.187448	cho	-0.1554059
-4.273107	chocolate	-0.3328792
-3.996717	choice	-0.1705573
-4.160314	choices	-0.1905154
-3.643475	choose	-0.2500241
-5.187448	choosen	-0.1563204
-4.807446	choosing	-0.1888241
-3.674796	chorizo	-0.4684964
-4.663644	chose	-0.1900278
-3.878164	chris	-0.200708
-5.187448	chrissy	-0.1582815
-5.187448	christ	-0.1590112
-5.187448	christ's	-0.1596914
-5.187448	christie	-0.1580748
-4.663644	christine	-0.3295235
-5.187448	chua	-0.1588737
-4.663644	chunks	-0.1372263
-4.663644	church	-0.1777551
-5.187448	churchill	-0.1523758
-5.187448	ci	-0.1554891
-5.187448	cilan	-0.1582264
-3.78513	cilantro	-0.177098
-4.807446	cin	-0.1596545
-4.663644	cinco	-0.2207636
-4.070858	cindy	-0.1768331
-5.187448	cinema	-0.1443498
-3.78513	circle	-0.3595712
-5.187448	circuit	-0.1443498
-4.807446	citibank	-0.1371738
-5.187448	cities	-0.1590594
-3.561142	city	-0.1990547
-5.187448	clair	-0.158378
-4.273107	claire	-0.1638941
-5.187448	clamark	-0.1583091
-4.807446	claredale	-0.1540279
-5.187448	clarence	-0.1580748
-4.663644	clarify	-0.1689742
-4.273107	clarington	-0.1662213
-5.187448	clarity	-0.1443498
-4.807446	clark	-0.1303717
-5.187448	clarkson	-0.1580748
-5.187448	class	-0.1443498
-3.020156	classic	-0.3950976
-4.070858	classics	-0.1825238
-5.187448	classing	-0.1591007
-5.187448	claude	-0.1582815
-4.807446	claudette	-0.1434997
-4.663644	clean	-0.1514545
-3.78513	clear	-0.1657217
-5.187448	clearing	-0.1550104
-4.807446	clearly	-0.1437776
-4.663644	click	-0.1946631
-5.187448	clicked	-0.156611
-5.187448	clicking	-0.156611
-4.663644	clifton	-0.2222983
-5.187448	clinton	-0.1574954
-4.425881	clock	-0.1790002
-3.471147	close	-0.4654045
-4.425881	closed	-0.1846397
-4.160314	closer	-0.2887971
-4.425881	closest	-0.1431852
-4.807446	clowes	-0.1574652
-3.82916	club	-0.4299915
-5.187448	clubhouse	-0.1586259
-5.187448	clue	-0.158853
-4.807446	clydesdale	-0.1590156
-4.273107	co	-0.1429283
-4.663644	coated	-0.1827968
-4.663644	cobourg	-0.2064736
-5.187448	coby	-0.1585157
-3.414101	coca	-0.9155949
-5.187448	cod	-0.1588324
-3.586891	code	-0.2215938
-5.187448	codes	-0.1546814
-5.187448	coincidences	-0.1563204
-5.187448	coka	-0.1591832
-2.929583	coke	-0.426538
-4.663644	coke's	-0.1571865
-3.78513	cokes	-0.1884264
-4.070858	cola	-0.1311979
-4.807446	colas	-0.1212114
-5.187448	colberrie	-0.1557985
-4.663644	colby	-0.1416585
-4.807446	cold	-0.1547578
-5.187448	cole	-0.1596914
-5.187448	colin	-0.1588737
-5.187448	collect	-0.156611
-5.187448	collecting	-0.1550104
-3.82916	college	-0.2578579
-4.807446	collier	-0.2570449
-3.708553	collingwood	-0.1934036
-5.187448	collins	-0.1594581
-5.187448	colt	-0.1443498
-5.187448	com	-0.1527109
-4.070858	combination	-0.5082617
-5.187448	combination's	-0.1589631
-4.663644	combine	-0.1490826
-4.070858	combined	-0.1326045
-3.491959	combo	-0.1886212
-4.663644	combos	-0.1370527
-2.835452	come	-0.472456
-5.187448	comeback	-0.1563204
-2.895887	comes	-0.5491589
-4.807446	comfort	-0.2575741
-3.451288	coming	-0.3483889
-5.187448	comment	-0.1569705
-4.807446	commercial	-0.2545278
-4.807446	common	-0.1527083
-5.187448	community	-0.1595543
-5.187448	company	-0.1527693
-5.187448	compare	-0.1593
-5.187448	compared	-0.1569705
-5.187448	compensate	-0.156362
-4.807446	compensation	-0.2158548
-5.187448	complain	-0.1577714
-5.187448	complained	-0.1522501
-4.807446	complaining	-0.2422666
-4.160314	complaint	-0.136393
-4.070858	complete	-0.2164185
-5.187448	completed	-0.1562789
-4.273107	completely	-0.195004
-5.187448	complex	-0.1443498
-5.187448	complicated	-0.1565695
-5.187448	complicating	-0.1582264
-4.807446	complimentary	-0.1438702
-4.273107	computer	-0.1917156
-4.807446	con	-0.1596846
-5.187448	concern	-0.1554059
-5.187448	concerns	-0.1443498
-5.187448	concession	-0.1583091
-4.807446	concierge	-0.1537982
-5.187448	concluded	-0.1574333
-5.187448	concordion	-0.1586259
-5.187448	condiment	-0.1554614
-4.807446	condiments	-0.1574166
-4.160314	condo	-0.1793291
-4.807446	condominium	-0.2069863
-4.807446	conestoga	-0.1425435
-5.187448	confederation	-0.1596874
-5.187448	confident	-0.156611
-5.187448	confidential	-0.1577507
-5.187448	configure	-0.1563758
-3.471147	confirm	-0.2422904
-4.425881	confirmation	-0.1315228
-4.807446	confirmed	-0.1413559
-3.933408	confirming	-0.1834283
-5.187448	confu	-0.1584055
-4.807446	confuse	-0.1551883
-4.160314	confused	-0.1714062
-5.187448	confusing	-0.1556183
-5.187448	confusion	-0.1443498
-5.187448	congra	-0.1443498
-4.273107	congratulations	-0.4505451
-5.187448	conlin	-0.1571294
-4.663644	connect	-0.1521916
-5.187448	connecting	-0.1563758
-4.663644	connection	-0.2070147
-5.187448	connectivity	-0.1587498
-5.187448	connie	-0.1443498
-5.187448	conrad	-0.1593413
-3.745156	conservation	-0.3098274
-4.807446	conservatory	-0.255833
-5.187448	consider	-0.1563758
-4.070858	considered	-0.2029571
-4.807446	considering	-0.1564978
-5.187448	constantly	-0.1595612
-5.187448	constr	-0.1568046
-5.187448	construct	-0.1556902
-5.187448	construction	-0.1563204
-5.187448	consumer	-0.1596299
-4.425881	contact	-0.1811529
-5.187448	contain	-0.1590044
-5.187448	container	-0.1433785
-4.663644	contains	-0.2196384
-4.807446	contamination	-0.1409833
-4.663644	continue	-0.1486487
-4.160314	convenience	-0.1872815
-4.807446	convenient	-0.1591325
-5.187448	convention	-0.1596092
-5.187448	conversation	-0.1591832
-5.187448	converted	-0.1563204
-5.187448	conway	-0.1443498
-3.82916	cooked	-0.147534
-4.807446	cooking	-0.1527625
-4.070858	cool	-0.2059951
-4.807446	cooper	-0.2422666
-4.425881	cooperage	-0.1346459
-5.187448	cooperate	-0.1574264
-5.187448	cope	-0.1565073
-5.187448	cora	-0.1443498
-4.807446	core	-0.15905
-5.187448	corect	-0.1443498
-4.663644	corn	-0.2041943
-3.78513	corner	-0.4123023
-5.187448	cornerbroo	-0.1443498
-4.425881	cornerbrook	-0.2472033
-4.807446	corners	-0.2422666
-4.663644	cornwall	-0.2039225
-5.187448	corporate	-0.1596642
-2.754216	correct	-0.4952807
-4.663644	correctly	-0.1400404
-5.187448	corresponds	-0.1569705
-5.187448	corry	-0.1580748
-5.187448	corsair	-0.1583091
-5.187448	cory	-0.1443498
-5.187448	cosca	-0.1443498
-3.27761	cost	-0.3292347
-4.425881	costing	-0.4512787
-3.78513	costs	-0.3379867
-4.425881	cote	-0.2042738
-5.187448	coto	-0.1596779
-4.807446	cottage	-0.2575604
-5.187448	cottonwood	-0.1586259
-5.187448	cottrell	-0.1593069
-3.996717	cottrelle	-0.2589794
-5.187448	cou	-0.1554891
-2.826149	could	-0.5032352
-4.070858	couldn't	-0.1827409
-4.425881	count	-0.1730139
-5.187448	countdown	-0.1596367
-5.187448	counted	-0.1582609
-3.933408	country	-0.2263738
-4.663644	countryside	-0.2041158
-5.187448	counts	-0.1582609
-5.187448	county	-0.1572261
-4.807446	couple	-0.1712632
-4.807446	coupon	-0.1443401
-5.187448	coupons	-0.1592932
-5.187448	course	-0.07447144
-3.264787	court	-0.354627
-4.425881	courtice	-0.1521052
-5.187448	courtney	-0.1596779
-4.807446	courts	-0.1422004
-5.187448	cove	-0.1443498
-4.273107	cover	-0.1742077
-5.187448	covered	-0.1574333
-5.187448	cowrywise	-0.1594237
-3.996717	coz	-0.1723917
-4.273107	cr	-0.220593
-5.187448	crack	-0.1596367
-5.187448	craig	-0.1574954
-5.187448	crap	-0.1576196
-5.187448	crash	-0.1443498
-5.187448	crashed	-0.1443498
-4.807446	craving	-0.1540836
-4.273107	crazy	-0.1635104
-4.070858	cre	-0.1342402
-5.187448	crea	-0.157799
-3.205805	cream	-0.6563073
-5.187448	creams	-0.1443498
-2.774165	creamy	-0.7245719
-4.663644	create	-0.2197904
-3.144204	credit	-0.2845346
-5.187448	credited	-0.1550104
-5.187448	crediton	-0.1596914
-4.160314	credits	-0.1587752
-4.160314	creditview	-0.198555
-4.663644	creek	-0.124184
-4.807446	creme	-0.2575535
-2.885212	crescent	-0.6088474
-5.187448	cresent	-0.1443498
-4.807446	cresthaven	-0.2196314
-4.807446	crisp	-0.1399927
-3.471147	crispy	-0.2769631
-5.187448	cristen	-0.1592107
-5.187448	crombie	-0.1565695
-4.425881	cross	-0.1410354
-3.996717	crossing	-0.1889912
-5.187448	crosswalk	-0.1581093
-4.663644	cru	-0.154783
-5.187448	crum	-0.1443498
-3.643475	crumble	-0.06063284
-5.187448	crumble's	-0.1594856
-3.561142	crumbled	-0.5681738
-4.160314	crumbles	-0.1326961
-4.273107	crumbs	-0.2838588
-5.187448	crunch	-0.1569705
-3.643475	crunchy	-0.5258888
-3.708553	crush	-0.197298
-4.663644	crushes	-0.199941
-3.173913	crust	-0.1315029
-4.807446	crusted	-0.2559778
-4.663644	crusts	-0.1531338
-5.187448	crutches	-0.1443498
-5.187448	cry	-0.1590731
-4.663644	crystal	-0.2181702
-5.187448	cu	-0.1596711
-5.187448	cubical	-0.1443498
-5.187448	cul	-0.1596367
-5.187448	cunchy	-0.1596161
-5.187448	cundles	-0.1562833
-5.187448	cup	-0.1579162
-5.187448	cure	-0.1596914
-5.187448	curiosity	-0.1417426
-4.807446	curious	-0.1526551
-5.187448	curr	-0.1443498
-3.708553	current	-0.3304972
-4.070858	currently	-0.1682424
-5.187448	curtis	-0.1588737
-4.807446	cushman	-0.1429148
-5.187448	custom	-0.158061
-3.333059	customer	-0.555688
-5.187448	customer's	-0.1593
-4.070858	customers	-0.1422891
-4.273107	customize	-0.1453057
-5.187448	customized	-0.158061
-3.561142	cut	-0.2535027
-5.187448	cute	-0.1402011
-4.807446	cutler	-0.1525085
-5.187448	cuts	-0.1563204
-3.878164	cutting	-0.2823116
-3.318519	cuz	-0.4372055
-5.187448	cvv	-0.156611
-5.187448	cyr	-0.1554267
-3.194912	d	-0.380882
-5.187448	da	-0.1596161
-4.070858	dad	-0.1343667
-4.807446	daddy	-0.1431717
-3.27761	dairy	-0.824111
-5.187448	daisy	-0.1582815
-5.187448	dalal	-0.1527693
-4.425881	dale	-0.1551207
-5.187448	dallas	-0.159623
-5.187448	damian	-0.158378
-4.663644	damn	-0.1529709
-4.273107	dan	-0.183447
-5.187448	dandy	-0.1582815
-5.187448	dane	-0.158378
-3.745156	danforth	-0.2079783
-4.425881	daniel	-0.1597324
-5.187448	daniels	-0.1596711
-4.663644	danny	-0.1432546
-5.187448	danrilk	-0.1443498
-4.807446	dar	-0.1576585
-5.187448	darco	-0.1589218
-5.187448	darius	-0.1596914
-5.187448	dark	-0.1594856
-4.425881	darren	-0.1537095
-5.187448	darryl	-0.1443498
-4.807446	daryl	-0.1861256
-5.187448	dasani	-0.1596779
-5.187448	dashi	-0.1582815
-4.807446	data	-0.1594487
-4.663644	database	-0.1538792
-4.273107	date	-0.2171813
-4.807446	daughter	-0.1796566
-5.187448	dave	-0.1431146
-5.187448	daventry	-0.1591282
-3.996717	david	-0.1542181
-4.807446	davis	-0.143243
-5.187448	davisville	-0.1431146
-5.187448	dawford	-0.1593413
-4.807446	dawn	-0.156961
-4.663644	dawson	-0.1833755
-3.82916	day	-0.2589804
-4.425881	days	-0.2014303
-3.878164	de	-0.1278993
-5.187448	dead	-0.1596367
-3.090266	deal	-0.2458083
-5.187448	dealership	-0.1566318
-5.187448	dealing	-0.1565073
-3.674796	deals	-0.1655212
-4.807446	dean	-0.2574161
-4.160314	dear	-0.2121664
-4.663644	deb	-0.1439032
-5.187448	debbie	-0.1588737
-3.065617	debit	-0.3549856
-5.187448	debit's	-0.1594856
-4.807446	debits	-0.1413559
-5.187448	debt	-0.1443498
-4.425881	decarie	-0.1360459
-4.070858	decide	-0.1402784
-4.807446	decided	-0.2548873
-5.187448	decision	-0.1556902
-3.205805	deep	-1.030989
-5.187448	deeper	-0.1595612
-4.807446	deer	-0.1594349
-5.187448	def	-0.1582264
-5.187448	default	-0.1516559
-5.187448	defect	-0.1563758
-3.674796	definitely	-0.1468505
-4.807446	deidre	-0.1529944
-5.187448	del	-0.1589631
-4.273107	delaware	-0.2857221
-4.663644	delay	-0.1332085
-5.187448	delayed	-0.1571294
-4.425881	delete	-0.2465889
-4.070858	deli	-0.3333956
-3.878164	delicious	-0.2906569
-5.187448	delight	-0.1347359
-5.187448	delightful	-0.1595268
-4.807446	deliv	-0.1501229
-3.333059	deliver	-0.3639632
-3.451288	delivered	-0.2538542
-5.187448	deliveries	-0.1443498
-4.273107	delivering	-0.2051416
-5.187448	delivers	-0.1569705
-2.774165	delivery	-0.3273354
-5.187448	delivery's	-0.1589356
-4.273107	delta	-0.1970096
-3.745156	deluxe	-0.2355141
-5.187448	denison	-0.142672
-5.187448	denmanvale	-0.156445
-4.807446	denmar	-0.2562259
-5.187448	denmark	-0.1583091
-5.187448	dennis	-0.1586259
-4.273107	dennison	-0.5505733
-5.187448	denpass	-0.1527693
-5.187448	dental	-0.1596779
-4.160314	department	-0.1334246
-5.187448	departments	-0.1583849
-4.273107	depending	-0.3593689
-3.933408	depends	-0.2600714
-5.187448	depot	-0.1443498
-3.78513	derry	-0.4527172
-5.187448	dery	-0.1589631
-5.187448	describe	-0.1563758
-5.187448	desert	-0.156611
-4.807446	deserts	-0.1371738
-5.187448	deserve	-0.1568046
-4.807446	desired	-0.1571934
-5.187448	desk	-0.1323097
-3.878164	dessert	-0.2668685
-4.070858	desserts	-0.1720382
-4.807446	detail	-0.1415278
-4.663644	details	-0.1248652
-5.187448	deven	-0.1584055
-4.807446	devere	-0.1571752
-5.187448	devon	-0.1587498
-5.187448	devonhurst	-0.1443498
-5.187448	dew	-0.1443498
-4.070858	di	-0.1664263
-5.187448	dial	-0.1568046
-4.807446	diameter	-0.135301
-5.187448	diamond	-0.1586259
-5.187448	diana	-0.1588737
-4.807446	diane	-0.1434997
-5.187448	diary	-0.1593963
-5.187448	dicese	-0.1583091
-5.187448	dick	-0.1554059
-2.766075	did	-0.6314535
-5.187448	didding	-0.1590181
-3.643475	didn't	-0.1763872
-3.173913	diet	-0.6517621
-5.187448	diets	-0.1443498
-5.187448	dif	-0.1592588
-5.187448	diff	-0.1550104
-3.878164	difference	-0.1898965
-3.333059	different	-0.1675228
-5.187448	differently	-0.1574264
-4.273107	difficult	-0.1347432
-4.160314	digit	-0.2433601
-4.663644	digits	-0.1802204
-5.187448	dilan	-0.1443498
-3.745156	dill	-0.2499429
-4.663644	dinner	-0.2212968
-3.318519	dip	-0.2234567
-5.187448	dipper	-0.1579369
-2.795074	dipping	-0.7714132
-4.663644	dippings	-0.2200391
-3.363686	dips	-0.257053
-5.187448	direction	-0.1569705
-3.933408	directly	-0.1912217
-5.187448	directory	-0.1443498
-5.187448	dirinks	-0.1594375
-4.807446	disappeared	-0.1519566
-5.187448	disappointed	-0.1563204
-5.187448	disappointing	-0.1443498
-4.663644	disconnect	-0.214423
-4.273107	disconnected	-0.1528939
-5.187448	discontinue	-0.1563758
-4.160314	discontinued	-0.2020684
-4.273107	discount	-0.1328083
-5.187448	discounts	-0.156445
-5.187448	discuss	-0.1565073
-4.807446	dish	-0.1288796
-5.187448	dishes	-0.1555186
-5.187448	disney	-0.1594581
-5.187448	distance	-0.1565073
-5.187448	distinctly	-0.1596299
-5.187448	district	-0.1596874
-5.187448	divide	-0.1591969
-4.807446	divided	-0.1434926
-4.160314	division	-0.2193348
-5.187448	dixi	-0.1596161
-3.745156	dixie	-0.3720695
-5.187448	dixon	-0.1549245
-2.36903	do	-0.4057706
-4.663644	dobson	-0.3234192
-5.187448	doe	-0.1584055
-3.034787	does	-0.4844632
-3.30445	doesn't	-0.2415047
-3.491959	doing	-0.3075795
-5.187448	dokey	-0.1545121
-4.807446	dol	-0.158341
-4.663644	doll	-0.1532523
-5.187448	dolla	-0.1583573
-3.173913	dollar	-0.3413129
-3.30445	dollars	-0.3503955
-4.807446	dominic	-0.1408972
-3.878164	don	-0.3324957
-3.090266	don't	-0.2642538
-4.807446	donair	-0.2569349
-5.187448	donald	-0.158378
-5.187448	donate	-0.1506868
-5.187448	donating	-0.1568046
-4.663644	donation	-0.1385288
-3.363686	done	-0.09234431
-5.187448	dong	-0.1588599
-4.807446	donna	-0.1552481
-4.807446	donovan	-0.1553991
-5.187448	donway	-0.1595062
-3.586891	door	-0.1568473
-4.663644	door's	-0.1500033
-4.273107	doorbell	-0.141589
-5.187448	doorbell's	-0.1594993
-5.187448	doors	-0.1590869
-5.187448	dor	-0.1596642
-5.187448	dori	-0.1554891
-5.187448	dorit	-0.1596367
-3.878164	dorito	-0.3219953
-3.27761	doritos	-0.4185221
-4.663644	dot	-0.1407154
-2.929583	double	-0.4877172
-5.187448	doubling	-0.1589975
-5.187448	doubt	-0.1563758
-3.471147	dough	-0.2121144
-5.187448	doughnut	-0.1592038
-5.187448	douglas	-0.1443498
-3.348102	down	-0.1879088
-4.663644	downey's	-0.3303209
-5.187448	download	-0.1563758
-4.807446	downs	-0.1557292
-3.708553	downstairs	-0.2504341
-3.878164	downtown	-0.3151655
-5.187448	dozen	-0.1443498
-5.187448	dr	-0.1594306
-5.187448	drake	-0.1443498
-5.187448	dress	-0.1261552
-4.425881	dressed	-0.1123203
-3.586891	dressing	-0.2016283
-4.807446	dressings	-0.1528339
-4.807446	dri	-0.1553201
-5.187448	dried	-0.1433804
-5.187448	dries	-0.1531016
-3.333059	drink	-0.1840595
-4.663644	drinking	-0.2222571
-2.972512	drinks	-0.3369394
-2.609619	drive	-0.4432643
-3.996717	driver	-0.1250168
-4.807446	driver's	-0.1529734
-4.807446	drivers	-0.1568159
-5.187448	drives	-0.1443498
-5.187448	driveway	-0.1443498
-4.663644	driving	-0.1485827
-5.187448	drizzle	-0.1443498
-5.187448	drizzled	-0.156611
-4.663644	drop	-0.1545955
-4.663644	drug	-0.3303373
-5.187448	drummond	-0.1527693
-4.807446	drums	-0.1566499
-4.160314	dry	-0.1059295
-5.187448	dry's	-0.1443498
-5.187448	drys	-0.1527693
-5.187448	du	-0.1596846
-4.807446	due	-0.1550703
-4.273107	dufferin	-0.1978426
-5.187448	duh	-0.1589631
-5.187448	dumb	-0.1596779
-5.187448	dumped	-0.1574195
-4.663644	duncan	-0.1417397
-5.187448	dundamar	-0.158378
-3.264787	dundas	-0.7393621
-5.187448	dundeman	-0.1527693
-4.160314	dundurn	-0.2191873
-5.187448	dunno	-0.1428658
-4.807446	duplex	-0.2055963
-4.807446	duplicate	-0.1516559
-4.807446	dupont	-0.2054392
-4.807446	durham	-0.1511239
-5.187448	dust	-0.1577507
-4.807446	dustin	-0.1396378
-5.187448	dusty	-0.1596092
-4.663644	dutch	-0.3303412
-3.034787	e	-0.4521968
-3.333059	each	-0.1745923
-5.187448	eagle's	-0.1596711
-4.663644	eaglemount	-0.329778
-4.807446	eagles	-0.2575879
-5.187448	eagleson	-0.1429148
-4.807446	earl	-0.1592864
-4.160314	earlier	-0.1423087
-4.160314	earls	-0.455467
-4.663644	early	-0.1855187
-5.187448	earned	-0.1394148
-4.273107	easier	-0.147882
-5.187448	easiest	-0.1584055
-5.187448	easily	-0.159623
-3.561142	east	-0.1979815
-4.425881	eastdale	-0.2761378
-3.264787	easy	-0.7488584
-3.82916	eat	-0.2145562
-4.425881	eating	-0.1978159
-5.187448	eats	-0.1554059
-4.663644	ecclestom	-0.1360486
-5.187448	eccleston	-0.156445
-5.187448	ecclestone	-0.1556902
-4.425881	echo	-0.1900081
-5.187448	echoing	-0.156611
-4.807446	economical	-0.140404
-4.807446	ed	-0.1434754
-5.187448	eddie	-0.1554614
-4.663644	eden	-0.152547
-5.187448	eder	-0.1443498
-4.807446	edge	-0.1379922
-5.187448	edgemont	-0.1580748
-5.187448	edgewater	-0.1596779
-5.187448	edison	-0.1443498
-3.82916	edmonton	-0.2763338
-5.187448	edmund	-0.1580748
-5.187448	edna	-0.1582815
-5.187448	ednon	-0.1586397
-4.425881	edward	-0.2296488
-5.187448	effort	-0.1569705
-5.187448	efren	-0.1588737
-4.807446	egg	-0.1405933
-4.663644	eglington	-0.182391
-4.070858	eglinton	-0.2307462
-3.30445	eh	-0.2342177
-5.187448	ei	-0.1554267
-5.187448	eigh	-0.1583918
-2.782408	eight	-0.4097534
-2.992295	eighteen	-0.3818476
-4.807446	eighth	-0.2574642
-3.184286	eighty	-0.6527585
-5.187448	eighy	-0.1589769
-5.187448	eighyt	-0.1586741
-3.396637	either	-0.1530459
-5.187448	elaine	-0.1592932
-5.187448	elcid	-0.1582815
-4.807446	ele	-0.257155
-5.187448	elephan	-0.1594169
-5.187448	elephant	-0.1439628
-2.979007	eleven	-0.4235279
-5.187448	eleventh	-0.158378
-4.070858	elgin	-0.2236923
-5.187448	eli	-0.1588737
-5.187448	elington	-0.1527693
-4.663644	elizabeth	-0.1755711
-5.187448	elle	-0.1588737
-5.187448	ellington	-0.158378
-5.187448	ellis	-0.1591282
-3.996717	elm	-0.5031933
-4.807446	elmer	-0.1540766
-3.708553	else	-0.09116541
-4.807446	else's	-0.1590293
-4.273107	elsinore	-0.2371985
-5.187448	elwin	-0.1583091
-5.187448	em	-0.1587498
-3.82916	email	-0.1855768
-5.187448	emailed	-0.1589562
-5.187448	emar	-0.1582815
-5.187448	emelena	-0.1591282
-5.187448	emergency	-0.1577783
-5.187448	emilio	-0.1554614
-4.425881	emily	-0.211975
-4.807446	emma	-0.1544773
-5.187448	employer	-0.1596848
-3.878164	end	-0.2381638
-5.187448	ends	-0.1586397
-5.187448	ener	-0.1596914
-5.187448	energy	-0.1566318
-5.187448	eng	-0.1574954
-5.187448	englinton	-0.1443498
-4.160314	english	-0.1622441
-5.187448	enjo	-0.1443498
-5.187448	enjor	-0.1574264
-3.252332	enjoy	-0.7669219
-5.187448	enjoying	-0.1550104
-3.708553	enough	-0.229189
-5.187448	enrolin	-0.1596874
-5.187448	ensure	-0.1557638
-5.187448	ent	-0.1443498
-4.663644	enter	-0.1469849
-4.273107	entered	-0.1450004
-5.187448	enterprise	-0.1593069
-4.663644	entire	-0.2790862
-5.187448	entitled	-0.1569705
-4.807446	entitles	-0.256873
-4.807446	entrance	-0.164528
-4.807446	entree	-0.2212321
-5.187448	entrees	-0.1593413
-3.996717	entry	-0.7562003
-5.187448	environment	-0.1590731
-5.187448	epress	-0.1596092
-5.187448	epsom	-0.1596874
-4.425881	equestrian	-0.2180485
-3.379849	er	-0.1682659
-5.187448	eramosa	-0.1596024
-5.187448	eric	-0.1443498
-5.187448	erie	-0.1392132
-3.878164	erin	-0.2715374
-4.425881	erindale	-0.2655938
-4.807446	eringate	-0.1581481
-4.273107	error	-0.1421809
-4.807446	errors	-0.1562763
-5.187448	erskine	-0.158378
-5.187448	erson	-0.1592176
-5.187448	eslan	-0.1560756
-4.663644	especially	-0.1514013
-5.187448	esquimault	-0.1592932
-3.996717	essa	-0.2874517
-5.187448	essas	-0.1527693
-4.807446	essentially	-0.1534013
-4.663644	esso	-0.3303071
-5.187448	est	-0.1443498
-5.187448	estimate	-0.1579162
-4.807446	eta	-0.1408972
-5.187448	ethan	-0.1588737
-3.745156	etobicoke	-0.2748596
-5.187448	europe	-0.156445
-4.663644	eva	-0.1556157
-5.187448	evelyn	-0.1443498
-3.264787	even	-0.1757029
-3.933408	evening	-0.2196073
-4.663644	evenly	-0.2061457
-4.273107	ever	-0.169639
-4.807446	everett	-0.2034564
-5.187448	everson	-0.1586259
-3.643475	every	-0.3508394
-3.933408	everybody	-0.1716901
-5.187448	everyone	-0.1596914
-3.153883	everything	-0.1914039
-4.663644	everything's	-0.1907726
-5.187448	everywhere	-0.1574195
-5.187448	ewan	-0.1588737
-3.708553	ex	-0.2088931
-3.878164	exact	-0.217251
-3.318519	exactly	-0.1876021
-5.187448	example	-0.1256904
-3.78513	excellent	-0.1987623
-3.82916	except	-0.1744003
-5.187448	exchange	-0.1577714
-5.187448	exclude	-0.156611
-5.187448	excluding	-0.1594375
-3.674796	excuse	-0.8814564
-5.187448	exhausted	-0.1554059
-5.187448	exist	-0.1588324
-5.187448	exists	-0.1443498
-5.187448	exit	-0.1587567
-4.663644	exlarge	-0.2032668
-5.187448	expect	-0.1550104
-5.187448	expecting	-0.1569705
-5.187448	expen	-0.1568046
-4.273107	expensive	-0.140862
-5.187448	experience	-0.156611
-4.807446	expiry	-0.1424837
-4.070858	explain	-0.2039119
-4.807446	explained	-0.1532689
-5.187448	explaining	-0.156611
-4.807446	express	-0.157044
-5.187448	ext	-0.1583573
-4.663644	extension	-0.2037915
-5.187448	extr	-0.1556902
-2.512358	extra	-0.5163084
-4.663644	extras	-0.1501203
-4.807446	extremely	-0.1574169
-4.807446	ey	-0.1554935
-4.807446	eyes	-0.158341
-5.187448	ezran	-0.1582815
-3.216978	f	-0.3705469
-5.187448	fa	-0.1593963
-5.187448	fabulous	-0.158502
-5.187448	faces	-0.156611
-5.187448	fact	-0.1416317
-5.187448	fade	-0.159355
-5.187448	fading	-0.1443498
-5.187448	fadre	-0.1594306
-4.663644	fair	-0.1570372
-4.663644	fairfax	-0.3301079
-4.663644	fairfield	-0.2206808
-4.807446	fairly	-0.1587885
-4.070858	fairview	-0.2223276
-5.187448	falconer	-0.1586259
-5.187448	fallingbrook	-0.1595543
-4.273107	falls	-0.209784
-4.425881	familiar	-0.2389646
-4.160314	family	-0.1431465
-3.586891	fan	-0.4536978
-5.187448	fancy	-0.158061
-5.187448	fans	-0.1592794
-5.187448	fant	-0.1593963
-3.163783	fanta	-0.5787914
-4.807446	fantas	-0.1347922
-4.425881	fantastic	-0.1723859
-3.878164	far	-0.1390137
-4.807446	farhan	-0.1562763
-4.273107	farm	-0.1462507
-4.807446	farnham	-0.1429148
-5.187448	farren	-0.1443498
-5.187448	farther	-0.1577714
-4.807446	fast	-0.1408972
-4.070858	faster	-0.2132887
-4.807446	fat	-0.2573199
-5.187448	father's	-0.1443498
-4.807446	fatima	-0.1574583
-5.187448	fault	-0.1417927
-5.187448	fav	-0.1443498
-5.187448	favor	-0.1383675
-4.807446	favorite	-0.08920951
-5.187448	favorites	-0.1443498
-5.187448	favourite	-0.1547509
-5.187448	faye	-0.1588737
-4.070858	fee	-0.2259065
-4.807446	feed	-0.141993
-5.187448	feedback	-0.1561612
-4.807446	feeding	-0.1411123
-4.663644	feel	-0.2756236
-4.663644	feeling	-0.1385144
-5.187448	fees	-0.156362
-4.807446	female	-0.1394966
-5.187448	females	-0.1554059
-5.187448	fennel	-0.158378
-4.070858	fennell	-0.2040447
-4.807446	fenside	-0.2542372
-4.663644	fergus	-0.1661995
-5.187448	ferhan	-0.1587498
-5.187448	fern	-0.1580748
-5.187448	ferndale	-0.143243
-5.187448	fernwood	-0.1581136
-5.187448	ferrara	-0.1580748
-4.807446	ferry	-0.1429148
-5.187448	fest	-0.158061
-3.318519	feta	-0.6002792
-5.187448	fetta	-0.1587223
-4.425881	few	-0.1624264
-3.996717	fi	-0.2748983
-5.187448	fibers	-0.1443498
-5.187448	fiddlers	-0.1588943
-5.187448	fidin	-0.1574954
-5.187448	field	-0.1443498
-5.187448	fields	-0.1443498
-4.807446	fieldstone	-0.2575604
-5.187448	fiesta	-0.1594444
-4.807446	fif	-0.1568661
-5.187448	fift	-0.1579231
-4.807446	fifte	-0.156394
-2.864619	fifteen	-0.4134135
-5.187448	fifth	-0.1591832
-2.844958	fifty	-0.4530737
-5.187448	fighting	-0.156362
-3.878164	figure	-0.3171076
-4.807446	figured	-0.1998402
-4.425881	file	-0.1114385
-4.273107	fill	-0.3742337
-4.425881	filled	-0.1994816
-5.187448	filomena	-0.1594306
-4.807446	final	-0.203398
-5.187448	finalize	-0.1574264
-5.187448	finally	-0.1593413
-5.187448	financial	-0.1527693
-4.070858	finch	-0.1469517
-3.414101	find	-0.3629644
-4.070858	finding	-0.198982
-5.187448	finds	-0.1596504
-3.318519	fine	-0.2161827
-5.187448	finger	-0.1593963
-5.187448	fingers	-0.1338166
-4.160314	finish	-0.1737197
-3.996717	finished	-0.115716
-5.187448	finishing	-0.1581963
-4.807446	fiona	-0.1565393
-4.807446	fir	-0.1575066
-3.451288	fire	-0.7507826
-2.885212	first	-0.2569786
-5.187448	firstly	-0.1578335
-4.663644	fischer	-0.3303412
-5.187448	fish	-0.1561612
-4.807446	fit	-0.1551328
-5.187448	fitness	-0.1527693
-5.187448	fits	-0.1586741
-5.187448	fiv	-0.1583918
-2.62964	five	-0.3255349
-4.160314	fix	-0.2258598
-5.187448	fixed	-0.1590869
-4.807446	fixing	-0.1516559
-4.663644	flakes	-0.1373976
-5.187448	flaps	-0.1556902
-4.273107	flat	-0.1363549
-3.82916	flavor	-0.1885795
-5.187448	flavor's	-0.1586534
-5.187448	flavored	-0.1584744
-3.933408	flavors	-0.1707931
-5.187448	fleet	-0.1596874
-4.663644	fleming	-0.1365776
-5.187448	flexibility	-0.1563204
-4.663644	floor	-0.1443399
-5.187448	floors	-0.1589975
-4.807446	flour	-0.1579688
-5.187448	flower	-0.1595474
-3.996717	flyer	-0.1493493
-4.807446	flyers	-0.1399065
-4.273107	fo	-0.132616
-5.187448	foakes	-0.1586259
-4.425881	follow	-0.1889597
-5.187448	following	-0.1582264
-5.187448	fon	-0.1563758
-5.187448	font	-0.1595818
-3.996717	food	-0.1388483
-5.187448	foods	-0.1596642
-5.187448	foor	-0.1594306
-2.11671	for	-0.5745203
-5.187448	forces	-0.159465
-4.425881	ford	-0.2366743
-3.933408	forest	-0.2539429
-5.187448	forestview	-0.1593069
-3.614262	forget	-0.4405514
-5.187448	forgetting	-0.1561725
-5.187448	forgive	-0.1589562
-4.663644	forgot	-0.1150943
-5.187448	forgotten	-0.1571778
-4.273107	form	-0.1198106
-5.187448	formerly	-0.1596874
-4.425881	fort	-0.2422637
-5.187448	forteen	-0.1443498
-5.187448	forth	-0.1577714
-4.663644	fortinos	-0.1406435
-2.758133	forty	-0.7595462
-5.187448	fortyish	-0.1443498
-4.807446	forward	-0.2536069
-4.807446	forwarded	-0.2529272
-5.187448	forwarding	-0.1556902
-4.807446	fou	-0.1580791
-4.663644	found	-0.1413624
-5.187448	foundation	-0.1443498
-2.521389	four	-0.3984438
-5.187448	fours	-0.156445
-5.187448	fourt	-0.1594787
-5.187448	fourtee	-0.1443498
-2.966114	fourteen	-0.525057
-5.187448	fourteenth	-0.1427765
-4.425881	fourth	-0.2509343
-4.807446	fourty	-0.1588161
-5.187448	fox	-0.1443498
-5.187448	frame	-0.1554267
-5.187448	france	-0.1565073
-4.807446	frances	-0.1419832
-4.807446	francis	-0.1410496
-4.663644	frank	-0.1757943
-4.425881	frank's	-0.1941484
-5.187448	frankly	-0.1556902
-4.807446	franks	-0.1371738
-5.187448	freaks	-0.159355
-5.187448	fred	-0.1384035
-3.163783	free	-0.1793929
-5.187448	freeman	-0.1588642
-4.807446	freeport	-0.2565427
-5.187448	frees	-0.1416925
-5.187448	freeze	-0.1563758
-3.30445	french	-0.6712236
-5.187448	fres	-0.1596779
-5.187448	fresca	-0.1574195
-4.425881	fresco	-0.1963582
-3.333059	fresh	-0.6462142
-5.187448	freshly	-0.1595543
-4.807446	fri	-0.1511589
-4.425881	friday	-0.1483141
-3.745156	fried	-0.1670863
-5.187448	friend	-0.1398796
-5.187448	friendly	-0.1554891
-3.163783	fries	-0.2105293
-5.187448	fries'	-0.1593894
-5.187448	friggin	-0.158061
-5.187448	frills	-0.1591282
-4.663644	frizzell	-0.140088
-2.663094	from	-0.2995773
-3.116398	front	-0.5112761
-5.187448	frontenac	-0.1580748
-5.187448	frontonac	-0.1580748
-4.807446	froze	-0.1570785
-4.663644	frozen	-0.151954
-4.807446	fruit	-0.2576016
-5.187448	frustation	-0.156362
-4.807446	frustrated	-0.1519566
-4.663644	frustrating	-0.2044597
-4.160314	fry	-0.2170621
-4.425881	fuck	-0.1477029
-4.663644	fucking	-0.1596105
-4.160314	full	-0.1376294
-4.663644	fully	-0.2223876
-5.187448	fulton	-0.1580748
-4.663644	fun	-0.159597
-5.187448	fund	-0.1577714
-5.187448	fundraising	-0.156362
-3.561142	funnel	-0.6768011
-4.425881	funny	-0.1309196
-4.807446	further	-0.149531
-5.187448	fusilier	-0.1594306
-4.807446	fussy	-0.1408972
-5.187448	fwo	-0.1565695
-3.205805	g	-0.3459751
-5.187448	ga	-0.1589631
-5.187448	gabbie	-0.1443498
-5.187448	gabriel	-0.1443498
-4.425881	gage	-0.2758432
-4.807446	gail	-0.1434997
-5.187448	gainsborough	-0.1443498
-5.187448	gal	-0.1554059
-5.187448	galaxy	-0.1596874
-5.187448	gale	-0.1591282
-5.187448	galleria	-0.1596367
-5.187448	galluzzo	-0.1594237
-5.187448	game	-0.1554267
-4.070858	gar	-0.158057
-5.187448	garage	-0.1527693
-3.491959	garden	-0.3781786
-4.160314	gardens	-0.1576694
-5.187448	garl	-0.1592244
-5.187448	garland	-0.1499333
-4.807446	garli	-0.1506964
-2.774165	garlic	-0.2794176
-5.187448	garlic's	-0.1443498
-5.187448	garlicky	-0.1561612
-4.273107	garlics	-0.1215902
-4.807446	garrison	-0.2562259
-4.070858	garth	-0.2426135
-4.807446	gary	-0.1565324
-4.070858	gas	-0.6982633
-3.78513	gate	-0.2081248
-5.187448	gates	-0.1372869
-5.187448	gather	-0.1443498
-4.663644	gatineau	-0.2381623
-4.070858	gauge	-0.3199665
-4.070858	gave	-0.2492986
-5.187448	gawaiian	-0.1591419
-5.187448	gazebo	-0.1581093
-5.187448	ge	-0.1574954
-5.187448	geez	-0.1536172
-4.807446	gen	-0.1596846
-5.187448	general	-0.1578335
-4.425881	generally	-0.1503335
-5.187448	generation	-0.1593069
-5.187448	geneve	-0.1371738
-5.187448	geniv	-0.1582815
-5.187448	geno	-0.1594237
-5.187448	genuine	-0.1595886
-4.160314	george	-0.2992859
-5.187448	georges	-0.1596914
-4.663644	georgetown	-0.1710315
-5.187448	gerald	-0.1587498
-5.187448	gerald's	-0.1443498
-4.425881	gerard	-0.1816727
-5.187448	germaine	-0.1574954
-5.187448	gerrard	-0.1580748
-2.959808	get	-0.244
-3.996717	gets	-0.1679996
-3.27761	getting	-0.1929611
-5.187448	ghost	-0.1399757
-4.807446	gi	-0.1580998
-4.807446	giant	-0.2576082
-5.187448	gibb	-0.1580748
-5.187448	gie	-0.1582815
-4.663644	gift	-0.3302041
-5.187448	gigantic	-0.1596914
-5.187448	gilbert	-0.1588737
-4.273107	gimme	-0.1367099
-4.807446	gin	-0.1544243
-3.153883	ginger	-0.7936106
-4.070858	gingerale	-0.228395
-4.807446	girl	-0.1552923
-5.187448	girls	-0.1443498
-5.187448	gist	-0.1579162
-2.885212	give	-0.8003046
-3.82916	given	-0.2010939
-4.160314	gives	-0.2175283
-3.878164	giving	-0.3870718
-5.187448	glad	-0.1569705
-5.187448	gladly	-0.1569705
-5.187448	glamorgan	-0.158378
-3.745156	glen	-0.2823003
-5.187448	glenashton	-0.1586259
-4.663644	glendale	-0.1424908
-4.663644	glenhill	-0.2796239
-5.187448	glenhills	-0.1586259
-4.807446	glenhollow	-0.2565427
-4.273107	glenvale	-0.2043693
-4.663644	glenwood	-0.1900224
-5.187448	glenwoods	-0.158378
-5.187448	glitch	-0.1519985
-5.187448	gloria	-0.1588737
-5.187448	glou	-0.1596711
-4.273107	gloucester	-0.2159743
-3.228446	gluten	-0.6918319
-5.187448	gmg	-0.1596779
-5.187448	gmo	-0.1567134
-2.923782	go	-0.3380274
-3.614262	goat	-1.0827
-4.425881	god	-0.1047
-3.643475	goes	-0.2115447
-3.020156	going	-0.4544213
-5.187448	gol	-0.1596367
-4.273107	golden	-0.1395749
-4.807446	goldenville	-0.1417927
-4.663644	goldwin	-0.177454
-5.187448	golf	-0.1596874
-5.187448	gon	-0.1591282
-4.160314	gone	-0.1885517
-3.098803	gonna	-0.401524
-5.187448	goo	-0.1596161
-3.006002	good	-0.2288817
-3.745156	goodbye	-0.7571294
-5.187448	goodlife	-0.1596914
-5.187448	goodness	-0.1406839
-5.187448	goodnight	-0.1592519
-4.160314	google	-0.1919654
-5.187448	googled	-0.1563758
-3.878164	goreway	-0.2718268
-5.187448	gormandev	-0.1443498
-4.425881	gosh	-0.1896933
-3.173913	got	-0.2008201
-4.425881	gotcha	-0.1707815
-5.187448	gotham	-0.1443498
-4.070858	gotta	-0.1667518
-4.273107	gotten	-0.1441088
-4.807446	gourmet	-0.2559778
-4.807446	gr	-0.1399927
-4.160314	grab	-0.1645179
-5.187448	grace	-0.1582815
-5.187448	graced	-0.1583091
-5.187448	gracia	-0.1574954
-4.663644	graham	-0.1429832
-4.425881	grain	-0.1173925
-4.425881	grams	-0.1800491
-5.187448	granby	-0.1443498
-3.561142	grand	-0.5442035
-5.187448	granddaughter	-0.1583918
-5.187448	grandma	-0.1443498
-5.187448	grandma's	-0.156611
-5.187448	grandson	-0.1527693
-5.187448	granolas	-0.139964
-4.273107	grant	-0.1834294
-4.425881	grantbrook	-0.1979565
-4.807446	grantham	-0.143856
-4.425881	grape	-0.2015962
-4.807446	grapes	-0.2422666
-5.187448	grated	-0.1595612
-4.160314	gravenhurst	-0.1606548
-4.425881	gravy	-0.135792
-5.187448	gray	-0.1583091
-3.318519	great	-0.2570407
-5.187448	greater	-0.1595268
-5.187448	greatly	-0.1596642
-5.187448	gree	-0.1588943
-3.996717	greek	-0.3369504
-3.996717	greely	-0.2529156
-2.735143	green	-0.9349848
-5.187448	greenbush	-0.1593413
-4.663644	greencrest	-0.2224492
-4.663644	greens	-0.2204463
-4.807446	greenville	-0.2068724
-5.187448	greenway	-0.1562763
-4.273107	greenwood	-0.2126294
-4.663644	greg	-0.2028725
-5.187448	grenadier	-0.1594512
-4.663644	grenoble	-0.1521706
-4.807446	grey	-0.1443428
-5.187448	greystone	-0.1591282
-5.187448	greyton	-0.1591282
-5.187448	gri	-0.1554891
-5.187448	gril	-0.1565073
-5.187448	grill	-0.1596367
-3.090266	grilled	-0.7308643
-4.807446	grimsby	-0.1367587
-5.187448	gro	-0.1527693
-4.807446	grocery	-0.1593044
-5.187448	grou	-0.1594031
-3.173913	ground	-1.207886
-4.160314	grove	-0.2079487
-5.187448	groven	-0.1596024
-5.187448	gst	-0.1527693
-4.807446	guaran	-0.1442191
-3.536836	guarantee	-0.1614625
-3.78513	guaranteed	-0.2386222
-5.187448	guarantees	-0.1589356
-5.187448	guaratee	-0.1577507
-5.187448	guard	-0.1540462
-5.187448	gue	-0.1554059
-3.471147	guelph	-0.3863358
-4.425881	guess	-0.035893
-5.187448	guest	-0.1443498
-5.187448	guests	-0.1554891
-4.807446	gulf	-0.1596231
-5.187448	gulo	-0.1443498
-5.187448	gurjot	-0.1594237
-4.273107	guy	-0.1372073
-3.82916	guys	-0.08021919
-5.187448	gwilim	-0.1443498
-5.187448	gwillimbury	-0.1595749
-4.807446	gym	-0.2542372
-3.153883	h	-0.394617
-3.82916	ha	-0.1796189
-5.187448	habanero	-0.156445
-5.187448	hackberry	-0.1595955
-4.807446	hacking	-0.2571343
-3.491959	had	-0.2118538
-5.187448	haddington	-0.1580748
-4.807446	hadn't	-0.1587653
-5.187448	haircutters	-0.1596914
-5.187448	hal	-0.1562789
-4.807446	halal	-0.2564601
-2.746486	half	-0.3489108
-4.273107	halfmoon	-0.4560112
-5.187448	halfs	-0.1443498
-4.425881	halifax	-0.1906103
-4.070858	hall	-0.1945627
-5.187448	halla	-0.1596711
-5.187448	hallman	-0.1443498
-5.187448	halved	-0.1595199
-4.425881	halves	-0.1196628
-3.049929	ham	-0.342433
-4.425881	hamburger	-0.2379344
-3.586891	hamilton	-0.287215
-5.187448	hammond	-0.1594306
-5.187448	hams	-0.158557
-4.425881	hand	-0.132029
-5.187448	handball	-0.1563204
-5.187448	handheld	-0.1551813
-5.187448	hands	-0.146131
-5.187448	handy	-0.158502
-5.187448	haneen	-0.1593894
-3.491959	hang	-0.7854038
-5.187448	hanging	-0.1589975
-5.187448	hannah	-0.1583091
-5.187448	hansen	-0.1583091
-5.187448	hanson	-0.1583091
-4.425881	happen	-0.1516786
-4.425881	happened	-0.1363587
-4.807446	happening	-0.1522082
-4.807446	happens	-0.2047602
-4.273107	happy	-0.2288329
-5.187448	harbour	-0.1561656
-3.996717	hard	-0.4051999
-4.807446	harder	-0.1544243
-4.807446	hardly	-0.1588711
-4.807446	hargrove	-0.2562259
-4.070858	harmony	-0.2287089
-5.187448	harns	-0.1594169
-5.187448	harrow	-0.1586259
-4.807446	harry	-0.1429933
-4.807446	hartsville	-0.2422666
-5.187448	harvey's	-0.1443498
-3.996717	harwood	-0.2911206
-3.057702	has	-0.2430278
-5.187448	hasan	-0.1574954
-4.807446	hasn't	-0.1594874
-5.187448	hasnain	-0.1574954
-4.807446	hasting	-0.1580653
-5.187448	hasty	-0.1596848
-4.807446	hate	-0.1547414
-4.425881	hav	-0.1356732
-2.716873	have	-0.1476697
-4.663644	haven't	-0.1738498
-5.187448	havendale	-0.1593069
-3.78513	having	-0.2371812
-5.187448	hawai	-0.156611
-3.098803	hawaiian	-0.2881606
-5.187448	hawaiian's	-0.1428506
-5.187448	hawaiians	-0.1578335
-4.807446	hawkesbury	-0.1902147
-4.807446	hawkesville	-0.2506861
-4.807446	hawkridge	-0.2562948
-4.807446	hazel	-0.2559916
-3.933408	hazeldean	-0.4709308
-4.807446	hazelwood	-0.2562948
-2.972512	he	-0.2498041
-4.807446	he'd	-0.2553363
-4.160314	he'll	-0.2913499
-3.643475	he's	-0.2421052
-4.160314	head	-0.1900638
-5.187448	headquarter	-0.1572261
-4.807446	heads	-0.2569143
-5.187448	health	-0.1596914
-5.187448	healthier	-0.1443498
-3.674796	hear	-0.2881475
-4.160314	heard	-0.1205902
-3.996717	hearing	-0.2560487
-3.82916	heart	-0.591914
-4.663644	heartlake	-0.1525478
-5.187448	hearts	-0.1443498
-4.425881	heat	-0.1368763
-5.187448	heatherdale	-0.1583091
-4.663644	heatherington	-0.3289589
-4.663644	heavy	-0.14344
-5.187448	hebe	-0.1593894
-4.273107	heights	-0.1563491
-5.187448	hel	-0.1590112
-4.807446	helen	-0.1496971
-5.187448	hell	-0.1518936
-2.803728	hello	-0.4680112
-5.187448	helm	-0.1443498
-3.561142	help	-0.35701
-4.807446	helpful	-0.2422666
-5.187448	hemmingford	-0.1593413
-5.187448	hence	-0.1550104
-4.273107	henderson	-0.1725862
-4.425881	henry	-0.1549541
-4.663644	heping	-0.1420476
-3.396637	her	-0.2057243
-4.807446	herb	-0.1520824
-5.187448	herbs	-0.1399927
-2.615246	here	-0.3272023
-4.425881	here's	-0.1772779
-5.187448	heritage	-0.159623
-5.187448	heron	-0.1586259
-5.187448	hers	-0.1554059
-3.878164	hespeler	-0.5836148
-5.187448	hewitt	-0.1594512
-5.187448	hex	-0.1594925
-4.070858	hey	-0.1721997
-3.432296	hi	-0.2007058
-4.807446	hickory	-0.2422666
-3.82916	high	-0.1966604
-5.187448	highest	-0.1596436
-3.674796	highland	-0.3215452
-4.807446	highlands	-0.2422666
-5.187448	highpoint	-0.1443498
-3.396637	highway	-0.4237331
-4.807446	hilary	-0.144034
-3.78513	hill	-0.1527761
-5.187448	hillcroft	-0.1580748
-4.807446	hillfair	-0.2572581
-4.663644	hills	-0.132392
-3.614262	him	-0.1552248
-5.187448	hindu	-0.1596914
-5.187448	hine	-0.1593894
-4.070858	his	-0.1813189
-4.807446	history	-0.1375471
-5.187448	hit	-0.1595474
-5.187448	hitting	-0.1545216
-4.425881	hm	-0.172869
-3.708553	hmm	-0.04845485
-4.160314	ho	-0.2174365
-5.187448	hobiland	-0.1592176
-2.992295	hold	-0.595952
-5.187448	holder	-0.157718
-4.425881	holding	-0.1470402
-4.273107	holiday	-0.5521559
-3.614262	holland	-0.685169
-4.273107	hollow	-0.138473
-4.663644	holly	-0.2202186
-5.187448	holmwood	-0.158378
-4.807446	holy	-0.2533782
-3.674796	home	-0.1751409
-4.807446	homemade	-0.1529202
-5.187448	homer	-0.1596914
-4.807446	homestyle	-0.2571962
-4.807446	hon	-0.1573341
-4.807446	honest	-0.137417
-4.663644	honestly	-0.1416254
-2.966114	honey	-0.6347162
-4.663644	hope	-0.1149954
-4.807446	hopedale	-0.1371738
-4.273107	hopefully	-0.1874355
-4.663644	hoping	-0.1495565
-5.187448	horrible	-0.1561612
-5.187448	horse	-0.1527693
-4.663644	horseshoe	-0.1876081
-5.187448	horton	-0.1371738
-5.187448	horton's	-0.1339478
-5.187448	hortons	-0.1566318
-4.663644	hospital	-0.1813531
-2.85962	hot	-0.7272325
-5.187448	hote	-0.1571294
-3.708553	hotel	-0.212457
-5.187448	hotel's	-0.1592176
-5.187448	hou	-0.1568046
-3.933408	hour	-0.1365496
-4.663644	hours	-0.1515282
-3.205805	house	-0.275281
-5.187448	housing	-0.1562789
-2.461795	how	-0.8607012
-4.807446	how'd	-0.2536069
-4.807446	how's	-0.1518936
-4.663644	howard	-0.1581248
-4.663644	howe	-0.1539879
-3.78513	however	-0.1536168
-4.807446	hu	-0.1583617
-5.187448	huah	-0.157799
-5.187448	huffman	-0.1591282
-4.807446	hughson	-0.1577688
-3.82916	huh	-0.09077375
-4.663644	humberwood	-0.3299567
-5.187448	humongous	-0.1577714
-5.187448	hun	-0.1568046
-3.745156	hundred	-0.1738043
-4.273107	hung	-0.551496
-4.273107	hungry	-0.1506369
-4.425881	hunt	-0.4552184
-4.807446	huntingwood	-0.2506861
-4.160314	huntsville	-0.177156
-5.187448	hupfield	-0.1554614
-4.663644	hurontario	-0.1490078
-4.807446	hurry	-0.2569143
-4.807446	huruntario	-0.2506861
-5.187448	husband	-0.129067
-5.187448	husband's	-0.1577456
-5.187448	hutton	-0.1593413
-4.807446	hyde	-0.2574161
-5.187448	hypnosis	-0.1594787
-2.00764	i	-0.6813752
-5.187448	i'	-0.1581368
-3.153883	i'd	-0.5903838
-5.187448	i'l	-0.1587223
-2.650629	i'll	-0.6468553
-2.354809	i'm	-0.618015
-3.116398	i've	-0.4893366
-5.187448	ibrahim	-0.1443498
-4.160314	ice	-0.6313508
-3.27761	iced	-0.9601839
-5.187448	ices	-0.1596711
-5.187448	ick	-0.1589975
-4.663644	id	-0.1848128
-5.187448	ida	-0.1580748
-4.425881	idea	-0.1722743
-5.187448	idiot	-0.141993
-5.187448	idris	-0.1550104
-2.402406	if	-0.8416176
-5.187448	ig	-0.1556902
-5.187448	iglington	-0.158378
-5.187448	ignore	-0.1585157
-5.187448	ii	-0.1595612
-5.187448	ill	-0.1574264
-5.187448	im	-0.1596914
-5.187448	immediately	-0.1443498
-4.425881	important	-0.1508849
-2.111353	in	-0.3571935
-5.187448	inasfil	-0.1583091
-4.663644	inaudible	-0.1415825
-4.425881	inch	-0.1819337
-4.425881	inches	-0.1867816
-3.878164	include	-0.1584708
-3.348102	included	-0.2190747
-4.160314	includes	-0.1762206
-3.134736	including	-0.7341658
-4.663644	inconvenience	-0.1185602
-5.187448	increase	-0.1550104
-4.807446	indeed	-0.1509978
-5.187448	india	-0.1596874
-4.807446	indicate	-0.1546745
-4.807446	individual	-0.1573479
-5.187448	individually	-0.1593275
-4.070858	inform	-0.4396682
-3.643475	information	-0.2069156
-4.807446	informed	-0.2529272
-5.187448	informing	-0.1556902
-5.187448	ing	-0.1582264
-4.663644	inglewood	-0.1518561
-5.187448	ingram	-0.1443498
-5.187448	ingredient	-0.156362
-4.663644	ingredients	-0.1368149
-5.187448	ingrid	-0.1588737
-5.187448	initially	-0.1595612
-4.807446	initials	-0.1523846
-5.187448	inkerman	-0.1580748
-4.070858	inn	-0.2105866
-5.187448	inner	-0.1583091
-4.273107	innes	-0.5508077
-3.996717	innisfil	-0.2183103
-5.187448	inquire	-0.1591282
-5.187448	inquiring	-0.1550104
-5.187448	ins	-0.1589012
-4.807446	insert	-0.1527179
-3.745156	inside	-0.2341298
-5.187448	inst	-0.1572261
-5.187448	installed	-0.1579714
-5.187448	instance	-0.1579714
-2.895887	instead	-0.719566
-5.187448	instruction	-0.156362
-4.807446	instructions	-0.1541462
-4.663644	interac	-0.2071072
-4.663644	intercom	-0.2173305
-5.187448	interest	-0.1556902
-4.160314	interested	-0.3882916
-4.425881	interesting	-0.1858281
-5.187448	international	-0.1594693
-5.187448	internet	-0.1527693
-5.187448	interrupt	-0.1542296
-4.807446	interrupted	-0.2150103
-4.807446	interrupting	-0.1527711
-5.187448	intersec	-0.1554059
-5.187448	intersect	-0.1443498
-3.471147	intersection	-0.2596637
-4.160314	intersections	-0.1595388
-5.187448	intervals	-0.1579162
-3.513818	into	-0.3341938
-5.187448	introduce	-0.1563758
-4.807446	introduced	-0.2534059
-5.187448	invalid	-0.1594031
-5.187448	investigate	-0.156362
-5.187448	investigating	-0.1571778
-5.187448	involved	-0.1566318
-4.807446	involves	-0.1520544
-5.187448	iona	-0.1592176
-5.187448	ire	-0.1443498
-4.663644	irene	-0.1443371
-2.091407	is	-0.204574
-4.663644	isabel	-0.1397457
-5.187448	island	-0.1594444
-4.160314	islington	-0.2155514
-3.674796	isn't	-0.3288365
-5.187448	isnt	-0.156611
-4.273107	issue	-0.1580497
-4.807446	issued	-0.1548759
-4.160314	issues	-0.1713785
-2.118511	it	-0.3220404
-4.807446	it'	-0.1593044
-3.674796	it'd	-0.6979636
-3.098803	it'll	-0.560241
-2.178392	it's	-0.3427229
-4.807446	ital	-0.2534059
-3.020156	italian	-0.5291722
-3.586891	italiano	-0.5538714
-3.471147	item	-0.234698
-5.187448	itemize	-0.1563758
-3.674796	items	-0.1693525
-3.396637	its	-0.161097
-5.187448	its'	-0.158933
-4.160314	itself	-0.1024642
-4.807446	ivan	-0.1434997
-5.187448	ivy	-0.143856
-3.379849	j	-0.3875715
-5.187448	ja	-0.1568712
-5.187448	jace	-0.1593481
-4.425881	jack	-0.1425852
-5.187448	jackie	-0.1596874
-4.807446	jackson	-0.1441621
-5.187448	jacob	-0.1443498
-5.187448	jade	-0.1595131
-5.187448	jaden	-0.1443498
-5.187448	jal	-0.1593963
-5.187448	jala	-0.1568046
-5.187448	jalape	-0.1581368
-5.187448	jalapen	-0.1554891
-3.153883	jalapeno	-0.338779
-4.070858	jalapenos	-0.2454825
-3.536836	jalapeo	-0.2775664
-4.070858	jalapeos	-0.1606634
-3.82916	james	-0.2958551
-4.663644	jamie	-0.1882165
-5.187448	jan	-0.1588737
-3.414101	jane	-0.6638191
-4.807446	janice	-0.1387739
-5.187448	jasmine	-0.1520544
-4.273107	jason	-0.1747636
-5.187448	jasper	-0.158378
-4.663644	jay	-0.1673296
-5.187448	jean	-0.1582815
-4.807446	jeanne	-0.2573337
-5.187448	jeavons	-0.158378
-5.187448	jeez	-0.1554059
-3.996717	jeff	-0.1369939
-5.187448	jeffries	-0.1596848
-5.187448	jena	-0.1443498
-4.425881	jennifer	-0.1673079
-4.807446	jenny	-0.2561983
-4.807446	jerri	-0.139928
-4.663644	jerry	-0.1327146
-5.187448	jerson	-0.1574954
-5.187448	jess	-0.158192
-4.663644	jesse	-0.2045098
-4.807446	jessica	-0.143243
-4.663644	jessie	-0.1415368
-4.807446	jessy	-0.2545485
-4.663644	jesus	-0.1377537
-4.807446	jill	-0.1436539
-5.187448	jillian	-0.1443498
-4.663644	jim	-0.1868266
-5.187448	jimi	-0.1595131
-4.663644	jimmy	-0.134523
-5.187448	joanna	-0.1588737
-4.425881	joanne	-0.1714243
-4.663644	job	-0.2034564
-5.187448	jody	-0.1588737
-4.070858	joe	-0.2244826
-4.807446	johan	-0.1569472
-3.643475	john	-0.3699925
-5.187448	john's	-0.1583091
-5.187448	johnell	-0.1596161
-5.187448	johnny	-0.1443498
-4.807446	johns	-0.2562259
-4.807446	johnson	-0.1371738
-5.187448	join	-0.1592932
-5.187448	joke	-0.1436138
-4.807446	jordan	-0.2065377
-4.807446	jordanray	-0.1591256
-4.070858	joseph	-0.173362
-5.187448	joseph's	-0.1443498
-5.187448	josh	-0.1420002
-5.187448	joshua	-0.1588737
-5.187448	joy	-0.1580748
-4.807446	joyce	-0.139928
-4.160314	ju	-0.178584
-5.187448	juan	-0.1574954
-5.187448	judd	-0.1595131
-4.807446	judy	-0.1433117
-5.187448	juice	-0.1427622
-5.187448	julie	-0.1588737
-5.187448	julien	-0.1595131
-4.807446	julio	-0.1422004
-4.807446	july	-0.1430861
-4.273107	june	-0.1913009
-4.663644	jus	-0.1564399
-2.283305	just	-0.3142781
-4.273107	justin	-0.2143529
-4.807446	jut	-0.1569196
-3.240225	k	-0.4118277
-3.708553	kalamata	-0.8244972
-4.807446	kam	-0.1569265
-4.160314	kanata	-0.2229458
-4.807446	kandivali	-0.2567905
-4.663644	karam	-0.1395011
-4.160314	karen	-0.1781943
-4.807446	karla	-0.1434997
-5.187448	karwatki	-0.1399065
-5.187448	kashik	-0.1582815
-4.273107	kasia	-0.1725862
-4.425881	kate	-0.1871136
-5.187448	katherine	-0.1582815
-5.187448	kathy	-0.1443498
-4.663644	katrina	-0.1567814
-3.745156	kay	-0.1289299
-4.807446	kayla	-0.1430147
-4.807446	keelan	-0.2576042
-4.807446	keele	-0.1371738
-3.674796	keep	-0.2070979
-4.425881	keeps	-0.1543331
-4.663644	kelly	-0.2131729
-5.187448	kelsey's	-0.1562789
-5.187448	kem	-0.1596779
-5.187448	kemble	-0.1590731
-4.425881	kempsford	-0.237685
-4.160314	ken	-0.1536625
-4.807446	kendall	-0.1551328
-4.807446	kendleton	-0.143243
-5.187448	kendra	-0.1588737
-3.333059	kennedy	-0.4610812
-5.187448	kent	-0.1594444
-4.663644	kept	-0.2222365
-5.187448	kerry	-0.1443498
-3.996717	keswick	-0.1652479
-4.663644	ketchup	-0.1275828
-5.187448	ketchups	-0.1443498
-4.273107	kevin	-0.234916
-5.187448	key	-0.1595543
-5.187448	keys	-0.1443498
-5.187448	kfc	-0.1527693
-5.187448	khan	-0.1582815
-5.187448	ki	-0.1443498
-4.807446	kid	-0.1406892
-5.187448	kidd	-0.1591282
-5.187448	kiddies	-0.1443498
-4.807446	kidding	-0.256873
-3.933408	kids	-0.1341962
-5.187448	kiki	-0.1443498
-5.187448	kill	-0.1589562
-5.187448	killa	-0.1443498
-4.807446	killamarsh	-0.143243
-5.187448	kilometer	-0.1596504
-5.187448	kilpatrick	-0.1586259
-4.663644	kim	-0.1869342
-5.187448	kimbercroft	-0.1594581
-4.663644	kimberly	-0.1859072
-3.348102	kind	-0.4757257
-4.273107	kinda	-0.1894213
-4.273107	kindly	-0.1507438
-4.070858	kinds	-0.2916322
-3.451288	king	-0.609741
-5.187448	king's	-0.1580748
-4.663644	kings	-0.1534126
-5.187448	kingsbury	-0.1591282
-3.586891	kingston	-0.3394636
-4.807446	kingsway	-0.2174556
-5.187448	kinknid	-0.1579162
-3.996717	kipling	-0.2241573
-5.187448	kitchen	-0.1586096
-4.663644	kitchener	-0.1327247
-5.187448	kite	-0.1593069
-5.187448	kittens	-0.1428122
-4.425881	klondike	-0.2783337
-5.187448	knew	-0.1563758
-5.187448	knife	-0.156611
-3.996717	knock	-0.2603771
-4.663644	knocked	-0.216036
-5.187448	knocking	-0.1590456
-3.432296	know	-0.128688
-4.807446	known	-0.1551674
-4.663644	ksush	-0.2222021
-4.807446	kyle	-0.1417426
-3.065617	l	-0.4094905
-5.187448	l-	-0.1443498
-3.878164	la	-0.1564891
-5.187448	labatte	-0.1583091
-5.187448	labelle	-0.1561612
-5.187448	lacrosse	-0.156362
-4.807446	lactose	-0.257313
-4.663644	lady	-0.1561532
-4.663644	lafontaine	-0.1390738
-5.187448	lag	-0.1563758
-5.187448	lagimo	-0.1593069
-4.160314	lake	-0.1310388
-5.187448	lakes	-0.1586259
-4.070858	lakeshore	-0.2927366
-5.187448	lakeside	-0.1586259
-4.807446	lalcazar	-0.1527179
-5.187448	lamar	-0.1582815
-5.187448	lambertania	-0.1563204
-5.187448	lambs	-0.1572261
-4.807446	lambsdowne	-0.2565427
-5.187448	lamont	-0.1566318
-5.187448	lamstone	-0.1580748
-5.187448	lanark	-0.159623
-4.663644	lancaster	-0.2053106
-4.273107	landing	-0.157238
-3.674796	lane	-0.3683771
-5.187448	lanes	-0.1593069
-5.187448	laneway	-0.1594306
-5.187448	langstaff	-0.1443498
-4.663644	lansdowne	-0.14083
-4.425881	lar	-0.1191482
-5.187448	larcher	-0.1593207
-4.807446	larg	-0.1423577
-2.750334	large	-0.2412791
-4.160314	larger	-0.1682618
-3.82916	larges	-0.2072671
-4.663644	largest	-0.131411
-4.807446	larry	-0.1551328
-4.070858	lasagna	-0.179836
-5.187448	lasagnas	-0.1443498
-2.947464	last	-0.7186064
-4.273107	late	-0.1491522
-4.663644	lately	-0.1389036
-3.933408	later	-0.3896381
-5.187448	latesha	-0.1523898
-4.807446	latest	-0.1430005
-4.807446	latham	-0.2207705
-5.187448	latter	-0.1592725
-4.663644	lauderdale	-0.27861
-5.187448	laugh	-0.1554891
-4.807446	laughter	-0.1595105
-5.187448	laura	-0.1588737
-4.663644	lauren	-0.2045098
-4.807446	laurent	-0.2023016
-4.273107	laurier	-0.2451269
-5.187448	laury	-0.1596914
-5.187448	law	-0.1584951
-5.187448	law's	-0.1592176
-4.807446	lawn	-0.1413363
-3.78513	lawrence	-0.2493632
-5.187448	lawton	-0.1595405
-5.187448	lawyer	-0.158378
-5.187448	lay	-0.1443498
-3.348102	lay's	-0.3873491
-5.187448	layer	-0.1391269
-5.187448	layman	-0.1423863
-3.290823	lays	-0.4624524
-5.187448	lazy	-0.1569705
-5.187448	lcbo	-0.1527693
-4.807446	le	-0.1570301
-5.187448	leads	-0.1569705
-4.807446	leah	-0.1593178
-5.187448	lease	-0.1595474
-4.663644	least	-0.1289341
-3.78513	leave	-0.2999026
-4.663644	leaves	-0.1511493
-5.187448	leaving	-0.1554614
-5.187448	lebel	-0.1596848
-4.807446	lebovic	-0.2565427
-4.273107	lee	-0.1909743
-5.187448	leeda	-0.1566318
-5.187448	leeuwen	-0.1441168
-3.643475	left	-0.2156871
-5.187448	leftover	-0.1443498
-5.187448	legion	-0.1583091
-5.187448	leibovich	-0.158378
-5.187448	leigh	-0.1588737
-4.160314	leila	-0.2001833
-5.187448	lemme	-0.1592176
-5.187448	lemonade	-0.1594169
-5.187448	leslie	-0.1443498
-3.451288	less	-0.3212439
-2.786589	let	-0.9514472
-3.163783	let's	-0.5968788
-5.187448	lets	-0.1556902
-5.187448	letter	-0.1592038
-4.663644	letters	-0.1763985
-4.273107	letting	-0.2527137
-5.187448	lettuce	-0.1590112
-4.807446	level	-0.2422666
-4.807446	lewis	-0.1548274
-5.187448	lezze	-0.1587541
-4.273107	liberty	-0.2069763
-5.187448	libety	-0.1580748
-5.187448	life	-0.1443498
-5.187448	lifted	-0.1563758
-3.491959	light	-0.3099564
-5.187448	light's	-0.1592932
-3.432296	lightly	-0.6546314
-5.187448	lik	-0.1443498
-2.281989	like	-0.2227241
-5.187448	likely	-0.1576196
-5.187448	likes	-0.1591969
-5.187448	likings	-0.1443498
-5.187448	lilian	-0.1588737
-5.187448	lillian	-0.1593207
-4.807446	lima	-0.1596506
-5.187448	limbo	-0.1554267
-5.187448	limerick	-0.158378
-5.187448	linda	-0.1443498
-5.187448	linden	-0.158378
-4.807446	linderwood	-0.143243
-5.187448	lindsay	-0.1443498
-3.471147	line	-0.1452242
-5.187448	line's	-0.1596848
-4.807446	lines	-0.1399065
-4.663644	link	-0.217525
-4.807446	linked	-0.2001325
-4.807446	links	-0.2125361
-5.187448	linsmore	-0.1591282
-4.425881	lisa	-0.1874433
-5.187448	lisgar	-0.1527693
-5.187448	lising	-0.1574954
-5.187448	lismore	-0.1591282
-5.187448	list	-0.1568574
-5.187448	liste	-0.1577714
-4.663644	listed	-0.1396018
-3.82916	listen	-0.2618964
-4.160314	listening	-0.3210507
-4.663644	liter	-0.1395075
-4.425881	literally	-0.1544814
-4.807446	liters	-0.1404856
-5.187448	litrif	-0.1586259
-3.745156	little	-0.1480988
-5.187448	littler	-0.1596914
-4.273107	live	-0.1479098
-5.187448	lived	-0.1586397
-5.187448	liverpool	-0.1580748
-5.187448	living	-0.156611
-4.807446	livingston	-0.2562259
-4.807446	liz	-0.1434997
-4.807446	lo	-0.1567537
-5.187448	load	-0.1559093
-4.807446	loaded	-0.153659
-3.996717	loading	-0.1842817
-5.187448	lob	-0.1554614
-3.996717	lobby	-0.1935421
-4.663644	loblaws	-0.2034564
-4.273107	local	-0.1847158
-3.643475	located	-0.2708507
-5.187448	locating	-0.156362
-2.992295	location	-0.2940752
-3.933408	locations	-0.1600881
-4.807446	locust	-0.1593044
-4.425881	lodge	-0.1400826
-3.78513	log	-0.6650774
-5.187448	logan	-0.158378
-4.807446	logged	-0.2542372
-4.807446	logging	-0.1535267
-5.187448	lon	-0.1582815
-3.78513	london	-0.3062593
-3.78513	long	-0.1260465
-4.273107	longer	-0.1795572
-4.807446	longsworth	-0.1484329
-3.878164	longworth	-0.2092792
-3.471147	look	-0.1829311
-5.187448	looked	-0.1581093
-3.708553	looking	-0.4414355
-3.878164	looks	-0.4880813
-4.807446	loren	-0.1410595
-5.187448	lorimar	-0.1586259
-5.187448	lorne	-0.1580748
-4.807446	lose	-0.1551119
-4.160314	lost	-0.1852443
-4.425881	lot	-0.1441602
-3.78513	lots	-0.6444551
-4.425881	loud	-0.1393042
-4.160314	louder	-0.1855492
-4.807446	loudly	-0.2422666
-5.187448	louie	-0.1443498
-5.187448	lounge	-0.1443498
-4.160314	love	-0.1438855
-4.663644	lovely	-0.1519933
-4.807446	lover	-0.1081376
-5.187448	lover's	-0.1392682
-5.187448	lovers	-0.09449726
-4.807446	low	-0.174944
-4.663644	lowell	-0.2207843
-5.187448	lower	-0.1567537
-5.187448	loy	-0.158192
-4.807446	loyalist	-0.2575947
-4.273107	loyalty	-0.2342421
-5.187448	ls	-0.1443498
-5.187448	luck	-0.1443498
-5.187448	lucky	-0.1590869
-5.187448	luke	-0.1443498
-5.187448	lulud	-0.1582815
-5.187448	luna	-0.1582815
-5.187448	lunch	-0.1568046
-4.070858	lundy's	-0.698229
-5.187448	luxury	-0.1587817
-5.187448	lying	-0.1569705
-5.187448	lyle	-0.1574954
-4.807446	lyn	-0.1524081
-4.807446	lynn	-0.1434997
-2.947464	m	-0.3894418
-3.996717	ma	-0.1443029
-2.521389	ma'am	-0.4049451
-5.187448	mabelle	-0.158378
-4.663644	mac	-0.156064
-5.187448	macalister	-0.1588161
-5.187448	macaroni	-0.1527693
-4.425881	macarthur	-0.1313138
-4.160314	maccallum	-0.3260773
-4.663644	machine	-0.1181736
-5.187448	macintosh	-0.1586259
-5.187448	mack	-0.1527693
-5.187448	macken	-0.1595131
-4.807446	mackenzie	-0.1351855
-5.187448	mackinac	-0.1591282
-4.663644	macklin	-0.153329
-4.663644	macpherson	-0.2066089
-3.674796	madam	-0.2474869
-5.187448	madame	-0.1563204
-5.187448	madden	-0.1593413
-3.491959	made	-0.1688935
-5.187448	mae	-0.1443498
-5.187448	maggie	-0.1578335
-5.187448	magic	-0.1596436
-4.807446	magnolia	-0.1429862
-5.187448	mahir	-0.1592038
-5.187448	mahmoud	-0.1582815
-5.187448	maid	-0.1595886
-5.187448	mail	-0.1443498
-3.471147	main	-0.4068561
-5.187448	maine	-0.1527693
-5.187448	mains	-0.1580748
-5.187448	maitland	-0.158378
-3.30445	major	-0.5882146
-2.966114	make	-0.5119079
-4.160314	makes	-0.2171281
-3.78513	making	-0.2241749
-5.187448	malcolm	-0.1591282
-5.187448	male	-0.156445
-5.187448	males	-0.158557
-4.807446	malia	-0.1438133
-5.187448	malik	-0.1592038
-3.240225	mall	-0.2792501
-4.807446	mallisa	-0.144034
-4.273107	malton	-0.1661463
-5.187448	mam	-0.1582815
-5.187448	mama	-0.1579231
-3.745156	man	-0.2748207
-4.425881	manager	-0.1331776
-5.187448	managers	-0.1562789
-5.187448	manchester	-0.156445
-5.187448	mandeep	-0.1596874
-5.187448	manice	-0.1443498
-4.807446	manitoba	-0.1838746
-5.187448	manly	-0.1580748
-4.425881	mannering	-0.280271
-4.807446	manny	-0.2026952
-4.425881	manor	-0.1347178
-3.996717	manotick	-0.1831291
-4.807446	manually	-0.1550078
-4.160314	many	-0.08311489
-4.663644	map	-0.1527546
-5.187448	mapel	-0.1566318
-3.996717	maple	-0.1308028
-4.807446	maples	-0.1582721
-5.187448	mapping	-0.1386442
-5.187448	mar	-0.1582815
-5.187448	marc	-0.1582815
-4.807446	march	-0.2559916
-4.807446	mareus	-0.1572788
-5.187448	margaret	-0.1590912
-5.187448	margo	-0.1592038
-4.663644	maria	-0.174381
-4.425881	marie	-0.1900435
-4.663644	marilyn	-0.2029682
-5.187448	marina	-0.1592038
-3.471147	marinara	-0.3159063
-5.187448	marinaras	-0.1554727
-4.273107	mario	-0.1582266
-3.536836	mark	-0.2058353
-5.187448	marked	-0.1596874
-4.663644	market	-0.2071072
-5.187448	marketplace	-0.1554614
-3.586891	markham	-0.3310967
-5.187448	marking	-0.1590044
-5.187448	marla	-0.1399927
-5.187448	marsh	-0.1592176
-5.187448	marsha	-0.157113
-4.807446	mart	-0.1388526
-4.160314	martin	-0.4417135
-5.187448	martindale	-0.1591282
-5.187448	martins	-0.1575826
-4.807446	marvin	-0.2574711
-3.878164	mary	-0.1651335
-4.070858	maryhill	-0.2919504
-5.187448	maryl	-0.1592038
-5.187448	master	-0.156445
-3.674796	mastercard	-0.2716371
-5.187448	match	-0.156445
-5.187448	matches	-0.1568046
-5.187448	mathers	-0.158378
-4.807446	mathew	-0.2550946
-5.187448	matt	-0.1443498
-4.663644	matter	-0.1562452
-4.807446	matters	-0.1550356
-4.807446	matthew	-0.1596807
-4.807446	maureen	-0.1556252
-4.160314	max	-0.3330274
-4.273107	maximum	-0.1626599
-2.488451	may	-1.028535
-5.187448	maya	-0.1443498
-2.941422	maybe	-0.2372279
-4.425881	mayfield	-0.1702229
-5.187448	mayonnaise	-0.1568046
-4.425881	mc	-0.2058043
-3.933408	mcarthur	-0.2287109
-4.425881	mccabe	-0.2655582
-5.187448	mccavanagh	-0.1443498
-4.425881	mccowan	-0.2122024
-5.187448	mcdonald	-0.1443498
-4.425881	mcdonald's	-0.1953462
-5.187448	mcdonalds	-0.1527693
-5.187448	mcdonnell	-0.1595062
-5.187448	mcewen	-0.143243
-5.187448	mcfarlane	-0.1580748
-5.187448	mcgill	-0.1580748
-5.187448	mcglocklin	-0.1364183
-4.807446	mcivor	-0.2572237
-5.187448	mckavanagh	-0.1594237
-4.807446	mckenzie	-0.1822532
-5.187448	mcla	-0.1577714
-5.187448	mclaighlin	-0.1563204
-5.187448	mclaugh	-0.1592038
-3.708553	mclaughlin	-0.270993
-5.187448	mcleese	-0.1586259
-5.187448	mclevin	-0.1527693
-5.187448	mcphillip	-0.158557
-4.663644	mcphillip's	-0.1833469
-4.273107	mcphillips	-0.291204
-2.770101	me	-0.1499967
-4.807446	meadow	-0.1595792
-5.187448	meadowacres	-0.1586259
-5.187448	meadowland	-0.1586259
-4.807446	meadowvale	-0.2506861
-4.807446	meadowville	-0.1495942
-3.996717	meal	-0.2383488
-5.187448	meals	-0.1592519
-4.160314	mean	-0.06151083
-5.187448	meaning	-0.1579714
-4.273107	means	-0.1201183
-4.663644	meant	-0.1370524
-5.187448	meantime	-0.1553478
-3.184286	meat	-0.4407772
-3.933408	meatball	-0.1910699
-3.708553	meatballs	-0.3215365
-5.187448	meatlover	-0.1443498
-3.996717	meatlovers	-0.2924447
-4.807446	meats	-0.1431717
-4.425881	med	-0.1369415
-4.807446	medhurst	-0.143243
-4.425881	medi	-0.1344403
-5.187448	medical	-0.1595543
-3.745156	mediterranean	-0.3105605
-3.933408	mediterranian	-0.1850651
-5.187448	mediu	-0.1554891
-2.774165	medium	-0.3039436
-4.807446	medium's	-0.154862
-4.070858	mediums	-0.1056415
-5.187448	medley	-0.1551883
-5.187448	medliro	-0.1594581
-3.996717	meet	-0.1985491
-4.807446	meeting	-0.1589949
-3.643475	mega	-0.7688707
-4.807446	mel	-0.1547301
-5.187448	melania	-0.1596779
-4.425881	melanie	-0.1383558
-5.187448	melissa	-0.1574264
-5.187448	melrose	-0.158378
-5.187448	melt	-0.1338166
-5.187448	melton	-0.1443498
-4.807446	men	-0.1439842
-5.187448	mena	-0.1574195
-4.160314	mention	-0.1831515
-4.070858	mentioned	-0.1683395
-5.187448	mentioning	-0.159135
-3.708553	menu	-0.1972867
-5.187448	mer	-0.1574954
-4.807446	mercer	-0.1586371
-5.187448	merchant	-0.158378
-5.187448	meridene	-0.1591282
-4.663644	merivale	-0.2208256
-4.663644	merlin	-0.3287246
-4.807446	message	-0.1525783
-5.187448	messed	-0.1589975
-5.187448	messes	-0.1589562
-5.187448	meters	-0.1596504
-4.807446	method	-0.1425077
-4.663644	metro	-0.1578421
-5.187448	mew	-0.1594444
-4.807446	mews	-0.1440456
-5.187448	meyer	-0.1443498
-4.807446	mhm	-0.2422666
-4.807446	mi	-0.1484118
-4.425881	michael	-0.1371847
-4.425881	michelle	-0.1773679
-5.187448	microphone's	-0.1595612
-5.187448	mid	-0.1595474
-4.663644	middle	-0.1278749
-4.160314	midland	-0.213142
-3.643475	might	-0.3139637
-5.187448	might've	-0.1595612
-5.187448	miguel	-0.1443498
-5.187448	miikan	-0.1596024
-4.160314	mike	-0.3170657
-5.187448	mikhael	-0.1588737
-3.153883	mild	-0.4519222
-5.187448	milgate	-0.1592038
-5.187448	military	-0.1596914
-4.807446	milk	-0.1175312
-5.187448	milks	-0.1371738
-4.070858	mill	-0.215358
-5.187448	millcroft	-0.1594993
-4.807446	milliliter	-0.1578309
-5.187448	millimeter	-0.1596874
-4.273107	mills	-0.1941284
-4.273107	millstone	-0.2384755
-5.187448	millvervue	-0.1591282
-4.273107	milton	-0.1921225
-4.070858	mind	-0.1263063
-4.273107	mine	-0.1444104
-4.807446	minet's	-0.257526
-4.807446	mini	-0.1579689
-4.425881	minimum	-0.1794562
-5.187448	minister	-0.1595749
-4.807446	minowan	-0.2576082
-4.663644	minus	-0.150158
-3.745156	minute	-0.1352784
-3.513818	minutes	-0.1916727
-4.807446	minutes'	-0.2570656
-4.663644	miriam	-0.1384783
-5.187448	mis	-0.1574264
-5.187448	mishav	-0.1586397
-5.187448	mishem	-0.1586397
-5.187448	mishiv	-0.1586397
-5.187448	mispronounce	-0.1563758
-3.228446	miss	-0.2853586
-4.663644	missed	-0.1698214
-4.663644	missing	-0.1527921
-5.187448	missisauga	-0.1443498
-5.187448	mississ	-0.1554614
-5.187448	mississa	-0.1571778
-3.240225	mississauga	-0.3246769
-5.187448	missy	-0.1592038
-5.187448	mist	-0.1574333
-4.807446	mistake	-0.1494244
-4.663644	mistaken	-0.1400978
-5.187448	mistakes	-0.1562789
-5.187448	mister	-0.1554614
-5.187448	misunderstanding	-0.1554267
-4.807446	misunderstood	-0.1513619
-5.187448	mitch	-0.1443498
-5.187448	mitchell	-0.158192
-4.273107	mix	-0.2151867
-3.996717	mixed	-0.3198435
-4.663644	mixing	-0.2186419
-4.807446	mixture	-0.1872283
-3.057702	mm	-0.4921874
-4.273107	mmm	-0.1323108
-5.187448	mo	-0.1554891
-4.807446	mobile	-0.1580051
-5.187448	mock	-0.1594237
-5.187448	mode	-0.1577783
-5.187448	model	-0.1443498
-4.807446	modified	-0.1371738
-5.187448	modify	-0.1518936
-4.663644	mohawk	-0.1704343
-4.807446	mohib	-0.1417426
-5.187448	moira	-0.1575826
-5.187448	molten	-0.156445
-3.745156	mom	-0.1563264
-4.807446	mom's	-0.155334
-5.187448	momen	-0.1587223
-3.878164	moment	-0.02944589
-5.187448	moments	-0.1596299
-5.187448	mommy	-0.1561612
-5.187448	mommy's	-0.1592176
-4.807446	moms	-0.1370699
-5.187448	mona	-0.1582815
-4.663644	monaco	-0.2222185
-5.187448	monarch	-0.1594993
-5.187448	monday	-0.159135
-3.643475	money	-0.2402226
-5.187448	monica	-0.1588737
-5.187448	monico	-0.1592038
-4.663644	monique	-0.3295235
-5.187448	monlith	-0.1443498
-4.663644	mono	-0.3149996
-5.187448	monoyo	-0.1592176
-5.187448	montego	-0.1591282
-4.807446	monterey	-0.2570449
-4.807446	month	-0.1367659
-4.425881	months	-0.1691716
-4.070858	montreal	-0.2563475
-5.187448	mood	-0.1595886
-5.187448	moon	-0.131528
-5.187448	moore	-0.1438417
-2.941422	more	-0.1832947
-5.187448	morgan	-0.1586259
-4.663644	morning	-0.1586234
-5.187448	morningside	-0.1527693
-4.807446	mosley	-0.2559916
-3.674796	most	-0.3166214
-4.160314	mostly	-0.1509915
-4.807446	motel	-0.1535267
-4.663644	mother	-0.1371639
-5.187448	mother's	-0.1527693
-4.807446	motherland	-0.139928
-3.996717	mount	-0.2124905
-3.878164	mountain	-0.1808751
-5.187448	mountainview	-0.1583091
-5.187448	mounty	-0.1596914
-4.273107	move	-0.1862405
-4.663644	moved	-0.1389612
-5.187448	moxley	-0.1578171
-5.187448	moz	-0.1443498
-5.187448	mozz	-0.1596711
-3.432296	mozzarella	-0.437735
-5.187448	mr	-0.159568
-5.187448	ms	-0.1596874
-4.160314	mu	-0.1411991
-3.643475	much	-0.03769928
-3.878164	mud	-0.8516033
-5.187448	muffling	-0.1563204
-5.187448	mug's	-0.1594237
-5.187448	mukesh	-0.1443498
-5.187448	mulock	-0.1586259
-4.425881	multi	-0.2341564
-3.745156	multigrain	-0.2865244
-4.807446	multiple	-0.1521802
-5.187448	mum's	-0.1593
-4.663644	mumtaz	-0.3149996
-4.663644	munch	-0.06831262
-5.187448	munser	-0.1592038
-5.187448	muriel	-0.1443498
-5.187448	murphy	-0.1443498
-5.187448	murray	-0.1554614
-4.663644	mush	-0.1386802
-2.947464	mushroom	-0.4512777
-2.901325	mushrooms	-0.4386632
-5.187448	music	-0.1443498
-4.273107	muskoka	-0.3695755
-3.933408	must	-0.4549478
-4.663644	mustard	-0.1274931
-2.567052	my	-0.4051648
-3.78513	myself	-0.1784198
-5.187448	mystic	-0.158378
-3.065617	n	-0.3717539
-4.273107	na	-0.1505974
-4.160314	nacho	-0.2769913
-4.807446	nachos	-0.1363359
-4.663644	nadia	-0.2206739
-4.807446	nah	-0.2547214
-3.042292	name	-0.2977082
-4.663644	name's	-0.1550716
-5.187448	names	-0.1423577
-5.187448	nan	-0.1588737
-3.878164	nancy	-0.1428308
-4.425881	nantes	-0.1906961
-4.807446	nanwood	-0.1315191
-4.160314	napkins	-0.1246408
-5.187448	narrowing	-0.1594993
-4.807446	nash	-0.1429148
-4.273107	natalie	-0.1550855
-4.425881	nate	-0.2788309
-5.187448	national	-0.1596092
-4.807446	native	-0.2575879
-5.187448	natural	-0.1596914
-4.807446	navaho	-0.2565427
-4.807446	navneet	-0.1443428
-5.187448	navy	-0.1399927
-4.807446	naz	-0.1560686
-5.187448	nazir	-0.156445
-5.187448	nd	-0.1583849
-4.807446	ne	-0.143628
-3.290823	near	-0.2496241
-4.273107	nearby	-0.1361879
-4.160314	nearest	-0.1744557
-3.491959	need	-0.2103488
-4.273107	needed	-0.2131304
-4.425881	needs	-0.2444817
-5.187448	neighborhood	-0.1443498
-5.187448	nelly	-0.1527693
-4.807446	nelson	-0.145098
-5.187448	nepean	-0.1443498
-5.187448	nephew	-0.1443498
-5.187448	nes	-0.1527693
-4.425881	ness	-0.1381366
-5.187448	nest	-0.1596914
-3.153883	nestea	-0.389032
-4.425881	nestea's	-0.1726102
-4.273107	nesteas	-0.218136
-4.807446	nestle	-0.1591394
-3.414101	never	-0.2490982
-3.134736	new	-0.4216421
-5.187448	newcastle	-0.1443498
-5.187448	newly	-0.1596874
-4.160314	newmarket	-0.2292396
-3.363686	next	-0.2979759
-4.807446	neyagawa	-0.152697
-4.160314	ni	-0.1776392
-3.708553	niagara	-0.6265095
-5.187448	niagra	-0.1596711
-3.878164	nice	-0.1698211
-4.807446	nicholas	-0.1576999
-5.187448	nick	-0.1443498
-4.807446	nicole	-0.2422666
-5.187448	nielsen	-0.1574195
-3.996717	night	-0.2454428
-5.187448	nin	-0.1565695
-4.807446	nina	-0.1568021
-5.187448	nina's	-0.1593207
-2.766075	nine	-0.3066524
-2.929583	nineteen	-0.5411949
-3.116398	ninety	-0.6572722
-4.273107	nino	-0.1780479
-4.663644	ninth	-0.2206946
-5.187448	nia	-0.1588737
-2.446169	no	-0.2110282
-5.187448	no's	-0.1371738
-5.187448	noah	-0.1554614
-4.425881	noble	-0.2490471
-4.663644	nobody	-0.1571171
-5.187448	nobody's	-0.1592313
-5.187448	noel	-0.1593207
-4.807446	noise	-0.195121
-4.807446	noisy	-0.15656
-3.933408	non	-0.3106471
-4.273107	nondairy	-0.2987103
-4.273107	none	-0.3745383
-3.878164	nope	-0.1777467
-4.807446	nor	-0.15952
-4.807446	noreen	-0.2554122
-5.187448	norika	-0.1593207
-4.807446	norland	-0.1592494
-5.187448	norma	-0.1443498
-3.78513	normal	-0.1385757
-3.674796	normally	-0.1693591
-5.187448	norman	-0.1595268
-3.216978	north	-0.340873
-4.425881	northbay	-0.1830357
-5.187448	northeast	-0.1592219
-5.187448	northern	-0.1592932
-4.807446	northgate	-0.2571343
-5.187448	northmount	-0.1593207
-4.070858	northwest	-0.2514686
-4.425881	northwood	-0.1773823
-5.187448	norton	-0.1572261
-2.666267	not	-0.1438154
-5.187448	nota	-0.159623
-5.187448	notated	-0.156611
-5.187448	notation	-0.156611
-3.996717	note	-0.1654976
-4.807446	noted	-0.15741
-4.663644	notes	-0.1772055
-5.187448	noth	-0.1596874
-3.396637	nothing	-0.1737252
-4.807446	nothing's	-0.1595338
-5.187448	notification	-0.1596914
-5.187448	notify	-0.1556902
-5.187448	nova	-0.1561612
-5.187448	november	-0.1593069
-2.574722	now	-0.3039275
-5.187448	nu	-0.1545286
-5.187448	nugget	-0.1520096
-4.807446	nuggets	-0.2543618
-4.807446	num	-0.1535476
-5.187448	numb	-0.1593
-5.187448	numbe	-0.1577783
-2.854677	number	-0.2261982
-4.807446	number's	-0.1800408
-4.160314	numbers	-0.1478455
-5.187448	nuno	-0.1593207
-4.425881	nut	-0.2055779
-4.807446	nutritional	-0.2576042
-4.807446	nuts	-0.1520126
-3.049929	o	-0.339202
-4.807446	o'	-0.1565531
-4.663644	o'clock	-0.1367894
-4.663644	oak	-0.1486124
-5.187448	oakfield	-0.1596367
-5.187448	oakland	-0.1586259
-4.807446	oakley	-0.2506861
-4.807446	oakridge	-0.1593731
-5.187448	oaks	-0.1594777
-3.78513	oakville	-0.2588699
-4.807446	oakwood	-0.1573341
-5.187448	oaky	-0.1579507
-4.663644	observation	-0.2216314
-4.807446	observatory	-0.1443187
-4.160314	obviously	-0.1418438
-5.187448	occan	-0.1554059
-5.187448	oesto	-0.1565073
-2.388747	of	-0.2657242
-3.264787	off	-0.1836259
-3.451288	offer	-0.2593241
-4.663644	offered	-0.1950998
-4.160314	offering	-0.1375534
-4.807446	offers	-0.1525757
-4.425881	office	-0.1467713
-5.187448	offices	-0.1527693
-4.807446	officially	-0.1576309
-5.187448	often	-0.1592794
-4.807446	ogilvie	-0.1513619
-5.187448	ogilvy	-0.1583091
-2.528287	oh	-0.2290581
-4.160314	oil	-0.1053442
-5.187448	oils	-0.1592725
-5.187448	oily	-0.1525992
-3.674796	ok	-0.1910014
-5.187448	oka	-0.137323
-2.009742	okay	-0.3472539
-4.807446	okey	-0.2576082
-4.663644	ol	-0.1519889
-3.586891	old	-0.2808301
-5.187448	olds	-0.1443498
-5.187448	oli	-0.1588943
-3.264787	olive	-0.3307306
-5.187448	oliver	-0.1443498
-3.348102	olives	-0.1621981
-5.187448	olsen	-0.1582815
-4.273107	omar	-0.1738101
-2.150323	on	-0.4477161
-3.363686	once	-0.4785968
-2.144537	one	-0.3782919
-3.996717	one's	-0.1624877
-3.30445	ones	-0.265755
-5.187448	ongoing	-0.1593413
-5.187448	oni	-0.1581368
-3.013022	onion	-0.3831433
-3.057702	onions	-0.3325264
-5.187448	onle	-0.157799
-3.290823	online	-0.2391227
-2.738892	only	-0.2343829
-5.187448	ont	-0.1443498
-2.844958	ontario	-0.4647518
-5.187448	onto	-0.1574264
-5.187448	ooh	-0.1520265
-4.807446	oops	-0.1534031
-3.878164	open	-0.1677125
-4.807446	opened	-0.1558608
-5.187448	opening	-0.1527693
-5.187448	opposed	-0.1569705
-4.070858	opposite	-0.2391555
-3.536836	option	-0.2926918
-3.82916	options	-0.2741895
-2.127628	or	-0.2961601
-3.30445	orange	-0.2452814
-4.807446	oranges	-0.1453084
-4.070858	orangeville	-0.3601183
-3.996717	orchard	-0.1497315
-5.187448	ord	-0.1554059
-5.187448	orde	-0.1556902
-2.666267	order	-0.2546375
-4.425881	order's	-0.1484762
-3.536836	ordered	-0.1688152
-3.586891	ordering	-0.1934922
-3.513818	orders	-0.2109829
-4.807446	oregano	-0.1371738
-5.187448	oregon	-0.1443498
-5.187448	organized	-0.158061
-5.187448	origin	-0.1579162
-3.996717	original	-0.2508452
-4.160314	orillia	-0.2833785
-5.187448	orion	-0.1594581
-5.187448	orlean	-0.1593069
-3.745156	orleans	-0.332824
-5.187448	osborne	-0.158378
-4.425881	oscar	-0.1738351
-3.878164	oshawa	-0.2982357
-5.187448	osman	-0.1574954
-5.187448	oth	-0.156611
-5.187448	othe	-0.1527693
-3.12547	other	-0.2070793
-4.807446	others	-0.1367369
-3.561142	otherwise	-0.2507032
-3.586891	ottawa	-0.2675213
-4.807446	ottawasca	-0.1594075
-4.807446	otter	-0.1576861
-5.187448	ottowa	-0.1443498
-5.187448	ou	-0.1574954
-5.187448	ought	-0.1569705
-5.187448	ould	-0.1554059
-5.187448	ounce	-0.1554891
-3.034787	our	-0.1987757
-4.807446	ours	-0.1559232
-3.107511	out	-0.2399843
-5.187448	outport	-0.1580748
-3.933408	outside	-0.2020022
-3.163783	over	-0.2986249
-4.807446	overall	-0.1417426
-5.187448	overhill	-0.1554059
-4.807446	overlea	-0.1367659
-5.187448	override	-0.1550104
-4.160314	owen	-0.4548669
-4.070858	own	-0.1584664
-4.807446	owner	-0.1575204
-5.187448	ownership	-0.1585157
-3.057702	p	-0.4502842
-4.425881	p.m	-0.1837373
-4.663644	pa	-0.1536007
-5.187448	pablo	-0.1523828
-3.78513	pack	-0.1907555
-3.878164	package	-0.1758896
-4.807446	packets	-0.255833
-4.663644	packs	-0.2057328
-4.425881	page	-0.1285182
-3.933408	paid	-0.3434005
-5.187448	pal	-0.1443498
-5.187448	palomino	-0.1586259
-5.187448	pamela	-0.1586259
-5.187448	pampero	-0.1593138
-3.878164	pan	-0.2025037
-5.187448	panda	-0.1527693
-4.807446	pans	-0.1516139
-5.187448	panz	-0.1563204
-5.187448	panzero	-0.1587223
-5.187448	panzerott	-0.1595474
-3.471147	panzerotti	-0.2141183
-3.745156	panzerottis	-0.187471
-4.663644	panzo	-0.1524195
-4.663644	panzos	-0.187113
-3.933408	paper	-0.6177834
-5.187448	paprika	-0.1527693
-5.187448	par	-0.1443498
-5.187448	paramount	-0.1376555
-5.187448	pard	-0.1594925
-3.333059	pardon	-0.5058503
-3.348102	park	-0.2627633
-5.187448	parkdale	-0.1592176
-4.663644	parkedale	-0.2141991
-5.187448	parker	-0.1443498
-4.273107	parking	-0.3746421
-4.807446	parkland	-0.1581317
-5.187448	parklawn	-0.1443498
-5.187448	parks	-0.1554614
-4.273107	parkside	-0.245239
-4.425881	parkway	-0.183769
-3.643475	parkwood	-0.4988962
-4.663644	parkwoods	-0.3300942
-4.160314	parliament	-0.3279542
-5.187448	parmbelle	-0.1591282
-3.586891	parmesan	-0.3511793
-3.78513	part	-0.4313181
-5.187448	participate	-0.1563204
-5.187448	participated	-0.1563204
-4.273107	particular	-0.1886446
-5.187448	particularly	-0.1577714
-5.187448	parties	-0.1443498
-4.807446	parts	-0.139928
-5.187448	partway	-0.1594581
-3.30445	party	-0.5212166
-3.996717	pass	-0.1920006
-5.187448	passcode	-0.1569705
-4.663644	password	-0.2051249
-4.425881	past	-0.1486435
-4.807446	pasta	-0.1367731
-5.187448	pastas	-0.1443498
-4.663644	patch	-0.1526385
-4.807446	patience	-0.1184621
-4.807446	patient	-0.1531504
-5.187448	patio	-0.1587292
-4.663644	patricia	-0.2652592
-4.425881	patrick	-0.1645863
-5.187448	patsie	-0.1443498
-4.663644	patty	-0.3149996
-4.425881	paul	-0.1290297
-5.187448	paulette	-0.1443498
-5.187448	pauline	-0.1574954
-3.333059	pay	-0.2856522
-3.333059	paying	-0.4005551
-3.82916	payment	-0.1802087
-4.807446	payment's	-0.2576042
-4.807446	payments	-0.1400691
-5.187448	pays	-0.1574333
-4.807446	pe	-0.1589468
-4.807446	peach	-0.2575947
-4.807446	peakview	-0.1559163
-5.187448	peanut	-0.1596779
-4.807446	peanuts	-0.2422666
-4.663644	peek	-0.2162311
-4.807446	pembina	-0.2574367
-4.807446	pembroke	-0.1574514
-5.187448	pendrith	-0.1580748
-5.187448	pennies	-0.1596299
-3.432296	people	-0.1417833
-3.708553	pep	-0.2331605
-5.187448	peper	-0.1592038
-3.82916	peperoni	-0.2248295
-5.187448	pepp	-0.1554891
-5.187448	peppe	-0.1572261
-3.216978	pepper	-0.2244753
-3.491959	peppercorn	-0.9279137
-4.663644	peppero	-0.1540949
-5.187448	pepperon	-0.1579507
-2.577309	pepperoni	-0.4691563
-4.807446	pepperoni's	-0.139964
-4.070858	pepperonis	-0.1562474
-3.451288	peppers	-0.1716831
-5.187448	peps	-0.1574307
-3.614262	pepsi	-0.3245398
-4.807446	pepsis	-0.2422666
-3.745156	per	-0.195406
-3.933408	percent	-0.1262744
-5.187448	percentage	-0.1554059
-5.187448	percentages	-0.1561612
-5.187448	percentagewise	-0.158192
-5.187448	percy	-0.1586397
-5.187448	perf	-0.159135
