
\data\
ngram 1=5371
ngram 2=63240

\1-grams:
-5.187448	'bout	-0.1740683
-3.451288	'cause	-0.4099147
-5.187448	'em	-0.1630122
-5.187448	'till	-0.1750382
-5.187448	25th	-0.1714317
-5.187448	4	-0.1778593
-5.187448	420	-0.178306
-1.459484	</s>
-99	<s>	-1.051123
-1.038028	<unk>
-2.013268	_garbled	-0.417082
-2.178392	a	-0.7490389
-4.807446	aaron	-0.2665448
-4.663644	ab	-0.1779089
-5.187448	abam	-0.1630122
-5.187448	abass	-0.2662067
-5.187448	abbas	-0.1761578
-4.663644	abbey	-0.2546734
-5.187448	abbeydale	-0.2683343
-5.187448	abbie	-0.1778799
-5.187448	abby	-0.175467
-5.187448	abdul	-0.1714317
-5.187448	abel	-0.1778799
-5.187448	ability	-0.2656819
-3.933408	able	-1.428447
-2.929583	about	-0.5833247
-4.425881	above	-0.2137652
-5.187448	abso	-0.1758885
-5.187448	absolute	-0.2670893
-3.643475	absolutely	-0.2308012
-5.187448	abubakar	-0.3078857
-5.187448	abubaker	-0.1769439
-5.187448	academy	-0.1749828
-5.187448	accent	-0.1764338
-5.187448	accept	-0.1773915
-5.187448	acceptable	-0.1764338
-4.807446	accepting	-0.2682725
-5.187448	access	-0.1741515
-5.187448	accompany	-0.1743525
-4.425881	according	-0.4315134
-5.187448	accordingly	-0.1764338
-3.996717	account	-0.3117489
-5.187448	account's	-0.1757918
-5.187448	accross	-0.1774122
-4.807446	accurate	-0.2010236
-4.663644	acres	-0.214452
-3.614262	across	-0.5856133
-4.663644	act	-0.1699727
-4.663644	activated	-0.2309162
-4.273107	actual	-0.1726704
-2.774165	actually	-0.2203421
-4.425881	ad	-0.1677116
-4.160314	adam	-0.3825449
-5.187448	adams	-0.1770404
-3.081893	add	-0.6400684
-5.187448	addable	-0.1778455
-3.614262	added	-0.2517807
-3.674796	adding	-0.3053755
-4.663644	addition	-0.2317566
-3.414101	additional	-0.2466449
-4.807446	additionally	-0.1748279
-3.173913	address	-0.8138687
-5.187448	addresses	-0.1764338
-5.187448	adin	-0.1769439
-5.187448	adjust	-0.1752734
-5.187448	adrian	-0.1630122
-5.187448	ads	-0.1752734
-5.187448	adults	-0.1758401
-5.187448	advance	-0.2285319
-4.807446	advertised	-0.1727042
-4.807446	advertisement	-0.1598177
-5.187448	advertising	-0.1743525
-5.187448	af	-0.1740891
-4.425881	afford	-0.2141809
-5.187448	afraid	-0.1740683
-5.187448	afte	-0.1630122
-2.770101	after	-0.9793462
-4.070858	afternoon	-0.4018243
-4.663644	afterwards	-0.1513184
-2.85962	again	-0.4811013
-4.663644	against	-0.1741325
-4.663644	agent	-0.2337645
-5.187448	agius	-0.175467
-3.82916	ago	-0.4047657
-4.663644	agree	-0.2254467
-3.042292	ah	-0.1926169
-4.273107	ahead	-0.6221126
-4.807446	ahh	-0.1569208
-5.187448	ahmad	-0.2669929
-5.187448	aid	-0.178251
-4.663644	aim	-0.4315134
-5.187448	airgate	-0.1781067
-3.878164	airport	-0.3975447
-3.996717	ajax	-0.3684327
-4.807446	akash	-0.1743014
-4.425881	al	-0.1545578
-5.187448	alaa	-0.175467
-4.273107	alan	-0.1944304
-5.187448	albean	-0.1714317
-4.160314	albert	-0.3018461
-5.187448	alberta	-0.1630122
-5.187448	alberto	-0.1750979
-4.807446	albion	-0.1609888
-4.160314	alcona	-0.2089518
-5.187448	aldwych	-0.1770404
-5.187448	ale	-0.6147768
-5.187448	ale's	-0.1681556
-5.187448	alejandro	-0.1741237
-5.187448	ales	-0.539668
-4.273107	alex	-0.3786299
-5.187448	alexander	-0.2670893
-4.070858	alexandra	-0.4615934
-5.187448	alfred	-0.2335018
-5.187448	alfredo	-0.1630122
-5.187448	alfus	-0.1761578
-5.187448	algonquin	-0.1779693
-4.273107	ali	-0.307327
-5.187448	alice	-0.1769439
-4.807446	alicia	-0.1570514
-5.187448	alise	-0.177536
-5.187448	alisha	-0.1714317
-2.393819	all	-0.9952274
-5.187448	allandale	-0.1778799
-5.187448	allen	-0.1772883
-4.425881	allergy	-0.2084142
-4.807446	alliance	-0.3139475
-5.187448	allison	-0.175467
-4.807446	allister	-0.1620337
-4.663644	alliston	-0.2146036
-4.160314	allow	-0.530268
-4.807446	allowed	-0.2120789
-4.663644	allowing	-0.2915914
-5.187448	allows	-0.1743525
-5.187448	alma	-0.177536
-3.614262	almost	-0.2696317
-4.273107	alone	-0.1853775
-3.674796	along	-1.009556
-4.425881	alpha	-0.2042692
-5.187448	alphabets	-0.1765786
-3.205805	already	-0.2761196
-3.674796	alright	-0.283879
-4.663644	alrighty	-0.1709587
-2.803728	also	-0.4325157
-5.187448	alternate	-0.2677982
-4.807446	alternative	-0.2329278
-4.425881	although	-0.1705018
-3.513818	altogether	-0.3506281
-4.807446	alton	-0.2683755
-4.807446	alvin	-0.2683824
-3.674796	always	-0.1881329
-3.471147	am	-0.4888151
-5.187448	amad	-0.1769439
-4.663644	amanda	-0.2529142
-5.187448	amanda's	-0.1630122
-4.807446	amar	-0.3078857
-4.807446	amari	-0.2669929
-4.425881	amazing	-0.1974194
-5.187448	amber	-0.1630122
-5.187448	amberlea	-0.2679289
-5.187448	amend	-0.1738506
-5.187448	amended	-0.1740683
-4.273107	amex	-0.3107409
-5.187448	amia	-0.1743525
-4.807446	amir	-0.2665147
-4.807446	amit	-0.160405
-5.187448	ammat	-0.175467
-5.187448	among	-0.1778593
-5.187448	amore	-0.3537305
-3.933408	amount	-0.2440029
-4.273107	amy	-0.2485104
-2.735143	an	-1.091517
-4.807446	ancaster	-0.2572479
-3.708553	anchovies	-0.3612052
-1.80083	and	-0.7405282
-4.807446	anderson	-0.2206378
-5.187448	andes	-0.1600183
-5.187448	andova	-0.3090623
-4.273107	andrea	-0.1845788
-4.663644	andrew	-0.2538833
-5.187448	andrew's	-0.177873
-4.807446	andrews	-0.4326177
-4.807446	andy	-0.2529142
-4.807446	angel	-0.1611915
-4.807446	angela	-0.1766904
-5.187448	angelico	-0.3079822
-5.187448	angelina	-0.7855991
-5.187448	angelo	-0.1630122
-4.070858	angus	-0.2671598
-5.187448	anil	-0.1630122
-5.187448	anisha	-0.1769439
-4.160314	ann	-0.1919002
-5.187448	anna	-0.1630122
-4.663644	anne	-0.4325771
-5.187448	annes	-0.2680526
-5.187448	annette	-0.1767372
-4.807446	anniversary	-0.2018642
-5.187448	announcement	-0.1765786
-5.187448	annoying	-0.1740683
-5.187448	ano	-0.1779212
-2.999094	another	-0.3526884
-4.807446	ans	-0.1748002
-4.160314	answer	-0.1557461
-4.807446	answered	-0.1724815
-5.187448	answering	-0.175467
-3.933408	anthony	-0.3935952
-5.187448	antler	-0.1767372
-5.187448	antoine	-0.161777
-4.425881	antrim	-0.1936616
-2.799379	any	-0.5971282
-4.663644	anybody	-0.2669103
-5.187448	anybody's	-0.1780105
-3.82916	anymore	-0.3445185
-4.070858	anyone	-0.2080085
-5.187448	anythi	-0.1630122
-2.774165	anything	-1.071053
-4.663644	anytime	-0.1716959
-3.614262	anyway	-0.1946939
-4.160314	anyways	-0.1638163
-4.663644	anywhere	-0.1729311
-5.187448	apa	-0.1748236
-5.187448	apache	-0.1777905
-5.187448	apar	-0.175467
-4.807446	apart	-0.1702736
-2.953592	apartment	-0.8424357
-4.663644	apartments	-0.1594924
-4.663644	apologies	-0.2578611
-4.273107	apologize	-0.4496411
-4.807446	apology	-0.2296908
-5.187448	apostrophe	-0.175467
-4.160314	app	-0.2564743
-4.160314	apparently	-0.189377
-4.807446	appartment	-0.3508794
-5.187448	appealing	-0.1630122
-5.187448	appears	-0.1736728
-5.187448	appetite	-0.1752941
-4.425881	appetizers	-0.2075086
-3.614262	apple	-0.3701656
-5.187448	applebee	-0.1782098
-5.187448	appleby	-0.1714317
-5.187448	appleview	-0.2670205
-4.070858	applied	-0.1912032
-3.996717	apply	-0.2547776
-5.187448	applying	-0.1750563
-4.160314	appreciate	-0.5504488
-5.187448	approval	-0.1770541
-5.187448	approved	-0.1749413
-5.187448	approx	-0.1771368
-5.187448	approximate	-0.1778112
-4.070858	approximately	-0.1656888
-4.807446	aquitaine	-0.2670893
-5.187448	aran	-0.1769439
-5.187448	arc	-0.2614807
-5.187448	ardwold	-0.175467
-2.58253	are	-0.6266406
-3.471147	area	-0.4379652
-4.807446	aren't	-0.1741489
-5.187448	arena	-0.1630122
-4.807446	argentia	-0.2324084
-4.807446	argentina	-0.1677801
-5.187448	argentinia	-0.1630122
-4.273107	argyle	-0.608709
-5.187448	arjay	-0.175467
-4.807446	arjun	-0.160405
-4.807446	arjun's	-0.2683274
-5.187448	arlene	-0.1630122
-5.187448	arlington	-0.1770404
-5.187448	armen	-0.1761578
-5.187448	armstrong	-0.1777905
-5.187448	arn	-0.1630122
-5.187448	arnold	-0.1772883
-4.663644	arnprior	-0.1887029
-5.187448	arnpry	-0.1630122
-4.663644	arone	-0.1570036
-3.27761	around	-0.3121169
-5.187448	arr	-0.1778937
-4.663644	arrival	-0.2589092
-4.160314	arrive	-0.4199574
-4.807446	arrived	-0.1601902
-4.807446	arrives	-0.2914138
-4.807446	arriving	-0.2675343
-5.187448	arti	-0.1741237
-3.78513	artichoke	-0.307541
-3.674796	artichokes	-0.4369467
-2.482152	as	-0.8544683
-5.187448	asad	-0.1769439
-5.187448	ascoli	-0.2673372
-5.187448	ascot	-0.2670893
-5.187448	aserb	-0.1769439
-4.273107	ash	-0.2133222
-4.663644	ashley	-0.2025169
-5.187448	ashton	-0.2670205
-5.187448	asid	-0.1769439
-4.807446	aside	-0.2674612
-5.187448	asima	-0.175467
-5.187448	asin	-0.1761578
-3.513818	ask	-0.4070699
-3.82916	asked	-0.4731708
-3.708553	asking	-0.3711949
-5.187448	aslo	-0.1760956
-5.187448	ass	-0.1630122
-4.425881	assist	-0.6732711
-5.187448	assistance	-0.1783498
-4.807446	associate	-0.2650871
-4.273107	associated	-0.3635273
-5.187448	assort	-0.1736728
-4.273107	assorted	-0.2886916
-4.807446	assume	-0.1554545
-5.187448	assuming	-0.1664199
-5.187448	assure	-0.1741237
-5.187448	asum	-0.1769439
-2.438562	at	-0.6389888
-5.187448	atkins	-0.1773915
-5.187448	attach	-0.1756329
-5.187448	attached	-0.1756329
-5.187448	attempted	-0.1756329
-5.187448	attwenty	-0.1776392
-4.807446	aubrietia	-0.1752293
-5.187448	august	-0.1776392
-5.187448	aunt	-0.1742598
-4.663644	aurora	-0.3120682
-5.187448	australia	-0.1751073
-5.187448	authorize	-0.30598
-4.807446	authorized	-0.2295095
-4.273107	automated	-0.2439844
-4.425881	automatic	-0.2332771
-4.807446	automatically	-0.1780862
-5.187448	ava	-0.265516
-5.187448	avail	-0.1768888
-3.379849	available	-0.272678
-4.807446	avalon	-0.1619054
-4.425881	ave	-0.2621994
-2.519114	avenue	-0.6000776
-5.187448	average	-0.178306
-5.187448	avery	-0.1769439
-4.273107	avondale	-0.2829194
-5.187448	aw	-0.1760887
-5.187448	aware	-0.1734827
-3.996717	away	-0.295432
-3.708553	awesome	-0.5254503
-5.187448	awful	-0.175467
-4.273107	ay	-0.3080178
-5.187448	ayl	-0.1783403
-4.425881	aylmar	-0.2025355
-4.425881	aylmer	-0.1475889
-5.187448	azem	-0.1740891
-2.941422	b	-0.5952184
-3.878164	ba	-0.1713361
-5.187448	bab	-0.1778593
-4.425881	babe	-0.1515349
-4.663644	baby	-0.2184123
-5.187448	babysitter	-0.1782167
-4.160314	bac	-0.1907088
-3.049929	back	-0.631424
-5.187448	background	-0.1758401
-4.807446	backyard	-0.1724206
-5.187448	baco	-0.1740683
-2.659944	bacon	-1.084336
-5.187448	bacons	-0.1779487
-3.996717	bad	-0.1526663
-3.432296	bag	-1.749913
-3.674796	bags	-1.446025
-5.187448	baguettes	-0.1630122
-5.187448	bahaman	-0.1752941
-5.187448	bairdmore	-0.1779693
-4.807446	bake	-0.174537
-3.396637	baked	-0.4039643
-4.070858	balance	-0.1899427
-5.187448	balcony	-0.1765993
-5.187448	ball	-0.1741237
-4.425881	balls	-0.2289164
-5.187448	balmoral	-0.1770404
-5.187448	balsam	-0.307679
-3.996717	balsamic	-0.1865772
-3.586891	banana	-1.452428
-3.708553	bancroft	-0.4368773
-3.708553	bank	-0.2956167
-4.273107	banks	-0.6756558
-4.273107	bar	-0.1469867
-5.187448	barb	-0.1714317
-4.663644	barbara	-0.160402
-5.187448	barbe	-0.1765855
-2.992295	barbecue	-0.788183
-3.414101	barbeque	-0.5053977
-4.425881	barbequed	-0.4341315
-4.807446	barclay	-0.2667862
-4.663644	barely	-0.6245417
-5.187448	barks	-0.2357422
-5.187448	barnhill	-0.1741237
-5.187448	barq	-0.1764131
-3.708553	barq's	-0.7258603
-5.187448	barqs	-0.1684955
-4.807446	barrhaven	-0.2501599
-4.070858	barrie	-0.4518904
-4.807446	barriefield	-0.2187507
-4.663644	barry	-0.17158
-4.425881	barry's	-0.2686252
-4.663644	bart's	-0.2357422
-4.425881	barton	-0.2029109
-3.27761	base	-0.4510015
-3.82916	based	-0.210828
-5.187448	baseline	-0.1615772
-4.807446	basement	-0.1771936
-4.160314	basic	-0.1793517
-3.933408	basically	-0.1425904
-5.187448	basics	-0.1749413
-5.187448	basinview	-0.1772883
-4.663644	basis	-0.1887754
-4.807446	basket	-0.174343
-4.663644	baskin	-0.2351984
-5.187448	batch	-0.1630122
-4.663644	bath	-0.3079133
-4.807446	bathurst	-0.176376
-5.187448	batter	-0.1767372
-5.187448	batter's	-0.1740891
-5.187448	batters	-0.1594735
-5.187448	baxters	-0.1761578
-3.933408	bay	-0.4760059
-4.273107	bayfield	-0.2220256
-4.807446	bayley	-0.2667862
-4.807446	bayly	-0.2667862
-3.78513	bayview	-0.5833402
-2.906831	be	-0.6746897
-4.425881	beach	-0.2662581
-4.807446	beaconwood	-0.2673372
-5.187448	beale	-0.1767372
-5.187448	beans	-0.1776736
-3.745156	bear	-1.062226
-4.807446	beat	-0.1761483
-4.425881	beautiful	-0.2165195
-5.187448	beauty	-0.1741486
-4.160314	beaverwood	-0.2429923
-2.653711	because	-0.46079
-5.187448	become	-0.1774122
-5.187448	becoming	-0.1783265
-5.187448	bedford	-0.1615772
-4.663644	beech	-0.234151
-4.807446	beechborough	-0.1772926
-5.187448	beechnut	-0.1778593
-3.745156	beef	-0.4959998
-3.513818	been	-0.2204621
-4.663644	beep	-0.4500065
-3.878164	beer	-0.678723
-4.807446	beers	-0.5588756
-2.869677	before	-0.6442345
-5.187448	beg	-0.3632974
-4.425881	begin	-1.373058
-4.807446	beginning	-0.1748669
-5.187448	behalf	-0.2666276
-4.425881	behind	-0.1577358
-3.491959	being	-0.1808198
-5.187448	belalen	-0.1769439
-4.807446	beland	-0.1612058
-5.187448	belcot	-0.1778593
-4.807446	belgrave	-0.2670893
-4.160314	believe	-0.2718535
-5.187448	belinda	-0.1630122
-3.674796	bell	-0.3787974
-4.663644	belleville	-0.3470699
-5.187448	bellevue	-0.1770404
-5.187448	bellomo	-0.2679083
-4.425881	bells	-0.2573289
-4.663644	ben	-0.1769385
-5.187448	benefit	-0.1630122
-4.663644	benlight	-0.2130453
-4.807446	benson	-0.2344545
-4.663644	berkley	-0.2682299
-4.663644	bern	-0.2339853
-5.187448	bernard	-0.1769439
-4.807446	besh	-0.1598392
-3.933408	beside	-0.2440539
-4.663644	besides	-0.1590116
-3.996717	best	-0.4025533
-4.273107	bet	-0.1743655
-5.187448	bethany	-0.1769715
-3.30445	better	-0.3571442
-4.807446	betty	-0.1760447
-3.451288	between	-0.2981684
-5.187448	beverage	-0.1751073
-4.425881	beverages	-0.2293996
-4.807446	bi	-0.1723631
-5.187448	bia	-0.1783334
-5.187448	bianca	-0.1630122
-3.451288	big	-0.5627458
-3.933408	bigger	-0.2750134
-5.187448	biggest	-0.1747656
-4.807446	bilal	-0.1752639
-3.933408	bill	-0.5312149
-5.187448	billy	-0.1783498
-4.160314	bingo	-0.3472546
-5.187448	birchbark	-0.1772883
-4.425881	birchmount	-0.2591198
-4.807446	birchpark	-0.1737465
-5.187448	birth	-0.1708286
-5.187448	birthday	-0.1777493
-4.807446	bit	-0.378908
-4.425881	bite	-0.825874
-3.471147	bites	-0.4606365
-4.070858	bits	-0.3959468
-3.065617	black	-1.006291
-5.187448	blackthorne	-0.1770404
-5.187448	blainville	-0.2530611
-5.187448	blairwood	-0.3092916
-4.807446	blanc	-0.1719077
-4.273107	blanca	-0.3011369
-5.187448	blanco	-0.1772926
-3.996717	blend	-0.8799463
-5.187448	blended	-0.1783128
-5.187448	blends	-0.1620409
-5.187448	blessed	-0.1782922
-4.425881	block	-0.1814299
-4.663644	bloomfield	-0.2338127
-5.187448	bloomingfield	-0.1630122
-3.78513	bloor	-0.4817361
-4.807446	blu	-0.1581589
-3.379849	blue	-1.107859
-4.807446	bluejay	-0.3681958
-5.187448	bo	-0.1743525
-5.187448	board	-0.1634522
-5.187448	boarders	-0.1630122
-3.933408	bob	-0.3820389
-5.187448	bobbie	-0.267585
-4.807446	bobby	-0.7052139
-4.273107	bocci	-0.2549861
-5.187448	boiling	-0.3092956
-5.187448	bold	-0.172739
-4.807446	bolsom	-0.2667862
-5.187448	bolten	-0.1630122
-4.663644	bolton	-0.3121527
-5.187448	bolwood	-0.1774122
-5.187448	bonanza	-0.1779968
-5.187448	bond	-0.1630122
-4.807446	bone	-0.162981
-3.745156	boneless	-0.5159584
-3.996717	bonnel	-0.2987954
-4.807446	bonnie	-0.1596456
-4.663644	bonshaw	-0.2615551
-4.663644	bonus	-0.2435119
-5.187448	boo	-0.1748207
-4.807446	book	-0.1707517
-5.187448	booked	-0.1783498
-4.807446	bookstore	-0.254342
-4.273107	booth	-0.2529313
-4.663644	borden	-0.1610719
-5.187448	border	-0.1781136
-5.187448	bordern	-0.1714317
-5.187448	bore	-0.1630122
-4.807446	boston	-0.1760859
-5.187448	botany	-0.1782853
-3.02741	both	-0.4609599
-4.807446	bother	-0.2290489
-5.187448	bothering	-0.1630122
-4.663644	bottle	-0.2190831
-5.187448	bottled	-0.1782098
-3.708553	bottles	-0.4472493
-4.160314	bottom	-0.4020032
-5.187448	bottomline	-0.1630122
-4.807446	bought	-0.2262135
-5.187448	bouleva	-0.1779693
-3.049929	boulevard	-0.4516453
-5.187448	bout	-0.2095759
-3.878164	bovaird	-0.251038
-4.663644	bowl	-0.4324591
-5.187448	bowman	-0.1770404
-3.82916	bowmanville	-0.3769741
-4.663644	bowood	-0.3164841
-3.348102	box	-0.8501773
-4.070858	boxes	-0.3665601
-4.807446	boy	-0.171977
-5.187448	boylston	-0.2667862
-4.663644	boys	-0.2030613
-4.807446	br	-0.1742252
-5.187448	brace	-0.1778593
-4.425881	bracebridge	-0.3216937
-4.663644	brad	-0.2352085
-5.187448	bradbury	-0.1780518
-4.807446	braddle	-0.2670205
-3.996717	bradford	-0.2496894
-4.070858	bradshaw	-0.442608
-5.187448	bradwell	-0.1781136
-4.425881	brady	-0.1919382
-4.807446	braemar	-0.2351642
-4.070858	bramalea	-0.2613867
-5.187448	bramelea	-0.1714317
-5.187448	brampt	-0.1749828
-5.187448	bramptom	-0.1782991
-3.264787	brampton	-0.5536494
-5.187448	bran	-0.1714317
-4.807446	brand	-0.1748695
-4.425881	brandon	-0.306245
-5.187448	brands	-0.1765786
-4.663644	brant	-0.2556581
-4.425881	brantford	-0.3470652
-5.187448	braun	-0.2667862
-5.187448	braxton	-0.1630122
-5.187448	brea	-0.1630122
-3.414101	bread	-0.5508906
-3.163783	breaded	-0.8626334
-5.187448	breading	-0.2177306
-5.187448	breads	-0.2497591
-5.187448	breadsticks	-0.1630122
-5.187448	break	-0.2650871
-5.187448	breakdown	-0.1740891
-4.425881	breaking	-0.1836319
-5.187448	breast	-0.1736728
-5.187448	breasts	-0.1751696
-4.807446	brenda	-0.1594735
-5.187448	bri	-0.1630122
-4.807446	brian	-0.2194615
-5.187448	briarfield	-0.2673372
-5.187448	briarwood	-0.1624257
-4.807446	brick	-0.1771204
-4.663644	bridge	-0.2559009
-5.187448	brief	-0.2340819
-5.187448	brilliant	-0.1771643
-5.187448	brimley	-0.2670205
-3.536836	bring	-0.4217307
-4.807446	bringing	-0.1732813
-3.996717	brings	-0.3334795
-3.82916	brio	-0.1983371
-5.187448	brios	-0.1617484
-4.425881	britannia	-0.3234518
-5.187448	brittan	-0.1714317
-5.187448	bro	-0.2683481
-5.187448	broad	-0.1781273
-4.425881	broadview	-0.1764598
-3.878164	broadway	-0.3848746
-3.173913	broccoli	-0.4847386
-5.187448	broccolis	-0.1630122
-5.187448	broch	-0.1749828
-4.070858	brock	-0.4008357
-5.187448	brocks	-0.1767372
-4.425881	brockville	-0.1577982
-5.187448	brocolli	-0.1780655
-4.663644	broke	-0.3682922
-5.187448	broken	-0.2682107
-4.663644	bronte	-0.3777267
-4.425881	brook	-0.2304449
-4.807446	brookdale	-0.1709474
-5.187448	brookfield	-0.1724328
-5.187448	brookland	-0.1772883
-4.807446	brooklyn	-0.2672546
-5.187448	brooks	-0.1568954
-4.425881	brought	-0.2466034
-4.425881	brown	-0.2206861
-4.807446	brown's	-0.3091516
-5.187448	browner	-0.1714317
-3.78513	brownie	-0.2872506
-3.414101	brownies	-0.5353013
-4.663644	browns	-0.3091516
-5.187448	browser	-0.170812
-5.187448	brumwell	-0.2667862
-5.187448	brunswick	-0.1770404
-3.745156	bruschetta	-0.4081709
-5.187448	bruschetta's	-0.1714317
-4.663644	brushed	-0.2329485
-5.187448	bryan	-0.2530611
-5.187448	bryant	-0.1781205
-5.187448	brynne	-0.1761578
-4.663644	bu	-0.1953781
-4.807446	bucket	-0.1758445
-4.663644	buckhorn	-0.3089454
-3.82916	bucks	-0.2834857
-4.807446	bud	-0.160455
-4.425881	buddy	-0.1575848
-5.187448	budea	-0.2352055
-5.187448	budget	-0.1749413
-5.187448	buena	-0.1783472
-3.163783	buffalo	-0.8026618
-5.187448	bug	-0.1783538
-4.273107	build	-0.2000625
-3.536836	building	-0.5274295
-5.187448	buildings	-0.1630122
-4.807446	built	-0.1740865
-5.187448	bullshit	-0.1773915
-4.425881	bump	-0.2015411
-5.187448	bumpies	-0.1752734
-5.187448	bun	-0.1750382
-4.807446	bunch	-0.227538
-5.187448	bund	-0.1750382
-3.153883	bundle	-0.6266147
-5.187448	bundled	-0.1752734
-4.070858	bundles	-0.1943789
-4.807446	bundling	-0.1613701
-4.663644	bur	-0.3678374
-4.425881	burbank	-0.2118191
-5.187448	burdon	-0.1630122
-4.663644	burger	-0.3789932
-5.187448	burl	-0.1770679
-5.187448	burli	-0.178251
-3.614262	burlington	-0.6005881
-5.187448	burn	-0.1767372
-4.807446	burned	-0.1748971
-4.807446	burnham	-0.1714989
-3.82916	burnhamthorpe	-0.569472
-4.273107	burnt	-0.3374882
-5.187448	burntwood	-0.1770404
-4.807446	burton	-0.1740822
-4.807446	bus	-0.2362023
-4.160314	business	-0.4252835
-4.663644	busy	-0.1712101
-2.354809	but	-0.5780576
-4.807446	butter	-0.1595139
-5.187448	butterfly	-0.1749828
-5.187448	buttery	-0.1781617
-4.663644	button	-0.1535609
-5.187448	buttons	-0.1630122
-3.996717	buy	-0.2072478
-3.614262	buzz	-0.539364
-3.491959	buzzer	-0.6704676
-4.807446	buzzes	-0.227538
-2.854677	by	-0.6018767
-2.992295	bye	-1.868597
-5.187448	byr	-0.1767372
-2.854677	c	-0.4714348
-3.878164	ca	-0.2255879
-5.187448	caarleton	-0.1780036
-5.187448	cab	-0.1775223
-5.187448	caches	-0.1750096
-3.471147	caesar	-0.5585082
-4.663644	cairncroft	-0.2155076
-5.187448	cajun	-0.1741237
-4.807446	cake	-0.7333168
-5.187448	cakes	-0.1630122
-5.187448	cal	-0.1781548
-4.663644	calamari	-0.3091035
-4.663644	calculate	-0.2282312
-4.807446	caledon	-0.2614807
-4.663644	caledonia	-0.4304333
-4.663644	cali	-0.2359003
-3.081893	call	-0.5394903
-3.318519	called	-0.2920808
-3.536836	calling	-1.160122
-4.663644	calls	-0.1702526
-5.187448	calories	-0.1614558
-5.187448	calum	-0.1630122
-5.187448	calvert	-0.1780036
-5.187448	cambrian	-0.1783334
-3.996717	cambridge	-0.4029587
-3.745156	came	-0.3376486
-5.187448	camila	-0.1776255
-5.187448	campaign	-0.4342343
-5.187448	camping	-0.177302
-2.296695	can	-1.24251
-3.708553	can't	-0.4744459
-5.187448	canad	-0.1736728
-3.414101	canada	-1.016418
-4.273107	canada's	-0.6102709
-3.363686	canadian	-0.3413364
-4.807446	canard	-0.5309042
-5.187448	canberra	-0.1777905
-3.536836	cancel	-0.4323064
-5.187448	canceled	-0.1736728
-4.273107	cancelled	-0.1795365
-4.807446	cancelling	-0.159435
-4.663644	cancer	-0.2020997
-5.187448	canda	-0.1630122
-5.187448	candey	-0.162383
-4.807446	candles	-0.2614807
-5.187448	cane	-0.1783472
-5.187448	cani	-0.1778799
-5.187448	cannen	-0.1630122
-4.807446	cannon	-0.1596456
-4.425881	cannot	-0.3656832
-3.451288	cans	-1.50344
-5.187448	canterbury	-0.177873
-5.187448	canvas	-0.1783538
-5.187448	cape	-0.1783538
-4.425881	capicola	-0.2108493
-5.187448	capicollo	-0.1781686
-4.663644	capital	-0.235529
-4.807446	capocollo	-0.1777329
-5.187448	capri	-0.2670205
-4.807446	car	-0.1740862
-5.187448	cara	-0.1630122
-4.160314	caramel	-0.675132
-3.614262	caramelized	-0.7172358
-5.187448	carb	-0.1749828
-4.070858	carbs	-0.4258409
-3.491959	card	-0.4938771
-5.187448	card's	-0.1768681
-5.187448	cardboard	-0.1757918
-4.663644	cardholder	-0.1778954
-4.160314	care	-0.8934266
-4.807446	careful	-0.1586263
-5.187448	carina	-0.177536
-5.187448	carl	-0.1782991
-5.187448	carla	-0.1630122
-4.807446	carleton	-0.3089454
-3.878164	carling	-0.4235097
-4.807446	carlisle	-0.307679
-4.663644	carlos	-0.1590331
-5.187448	carlson	-0.1770404
-4.807446	carlton	-0.2667862
-4.807446	carly	-0.2662067
-5.187448	carmelita	-0.1630122
-5.187448	carmen	-0.177536
-4.807446	carmen's	-0.2614807
-5.187448	carol	-0.1630122
-5.187448	caromont	-0.1714317
-5.187448	carport	-0.1630122
-4.807446	carriage	-0.3090279
-4.807446	carrie	-0.1735105
-5.187448	carried	-0.1752734
-3.996717	carry	-0.1896642
-5.187448	cart	-0.1761966
-4.807446	carter	-0.1585904
-5.187448	cartier	-0.1777493
-4.425881	case	-0.250374
-5.187448	caser	-0.1782167
-5.187448	cases	-0.1765786
-5.187448	casey	-0.2337989
-2.953592	cash	-0.8638026
-4.160314	cass	-0.1786562
-4.807446	cassandra	-0.235908
-5.187448	cassy	-0.1743525
-4.807446	cat	-0.1558018
-4.425881	catch	-0.2035183
-5.187448	categories	-0.1769095
-4.425881	catering	-0.1471904
-5.187448	catharine's	-0.1752941
-4.807446	catharines	-0.2686823
-4.273107	catherine	-0.1919611
-4.807446	catherine's	-0.218368
-4.807446	cats	-0.2299944
-4.663644	cattail	-0.1758903
-5.187448	catwalk	-0.2682931
-4.663644	cau	-0.1697854
-5.187448	caught	-0.1749828
-3.240225	cauli	-0.9281631
-5.187448	cauliblanca	-0.1714317
-4.807446	caulicrust	-0.1763415
-5.187448	caulificurst	-0.1752734
-4.807446	caulifl	-0.1712308
-4.663644	cauliflo	-0.1606527
-2.912408	cauliflower	-0.958969
-5.187448	cauliflowers	-0.1752734
-5.187448	caulifrower	-0.1783472
-5.187448	caulipesto	-0.1767234
-3.173913	cause	-0.3342821
-5.187448	caused	-0.175467
-5.187448	causes	-0.1783403
-4.807446	cavell	-0.2195615
-5.187448	cawthra	-0.1894489
-5.187448	cea	-0.1736728
-5.187448	ceasar	-0.1776599
-4.807446	cecil	-0.230943
-4.807446	cecile	-0.1607341
-5.187448	ced	-0.1783334
-4.807446	cedar	-0.2340819
-5.187448	cedarbrae	-0.1714317
-5.187448	celebrate	-0.1754644
-5.187448	celiac	-0.1746964
-5.187448	celine	-0.1747379
-4.273107	cell	-0.5272162
-4.663644	cellphone	-0.2047096
-3.78513	cent	-0.3316151
-4.807446	centennial	-0.2683988
-3.491959	center	-0.340178
-4.663644	centerfield	-0.2519543
-3.745156	central	-0.4620941
-4.807446	centralized	-0.1746894
-3.708553	centre	-0.2737965
-3.348102	cents	-0.8108073
-4.070858	certain	-0.2263628
-3.78513	certainly	-0.228828
-5.187448	cesar	-0.2682656
-4.273107	ch	-0.1518946
-5.187448	chadia	-0.1630122
-5.187448	chalk	-0.1783334
-4.807446	champagne	-0.1628103
-4.663644	chance	-0.3097317
-5.187448	chaney	-0.1769439
-3.205805	change	-0.4446824
-3.878164	changed	-0.1915704
-4.807446	changes	-0.1615343
-4.425881	changing	-0.1706626
-5.187448	chantal	-0.1777493
-3.27761	charge	-0.5198271
-3.996717	charged	-0.3246583
-4.160314	charges	-0.3023697
-4.070858	charging	-0.1826223
-4.807446	charlene	-0.3078857
-4.273107	charlie	-0.212127
-5.187448	charm	-0.1761578
-5.187448	charmaine	-0.1630122
-5.187448	chateau	-0.1767372
-4.160314	che	-0.2595284
-4.807446	cheap	-0.1701687
-3.318519	cheaper	-0.4625861
-4.807446	cheapest	-0.245991
-3.451288	check	-0.4152574
-4.807446	checked	-0.1726833
-4.425881	checking	-0.2068131
-5.187448	checks	-0.1780174
-3.184286	cheddar	-0.8428981
-4.663644	cheddars	-0.1848294
-4.807446	chee	-0.1752915
-5.187448	chees	-0.1760818
-2.650629	cheese	-0.7967767
-4.273107	cheeseburger	-0.384896
-5.187448	cheesecake	-0.1783128
-5.187448	cheesegub	-0.1783334
-5.187448	cheesey	-0.1781892
-3.614262	cheesy	-0.84403
-4.160314	cheetos	-0.1621798
-4.807446	chela	-0.1775086
-5.187448	chelsea	-0.1619196
-4.160314	chemong	-0.2280109
-5.187448	cherie	-0.177536
-5.187448	cherry	-0.1779555
-5.187448	chester	-0.1783498
-5.187448	chestnut	-0.1767372
-4.807446	cheval	-0.2683988
-5.187448	chevony	-0.1769439
-4.273107	chi	-0.1996782
-5.187448	chic	-0.1774191
-4.663644	chick	-0.2311178
-5.187448	chicke	-0.1782098
-2.666267	chicken	-0.717173
-5.187448	chicken's	-0.175467
-4.807446	chickens	-0.1709823
-5.187448	chico	-0.1630122
-5.187448	child	-0.1783265
-5.187448	children	-0.1741237
-3.333059	chili	-0.6187973
-4.807446	chilies	-0.1632932
-3.745156	chilli	-0.5683463
-5.187448	chimo	-0.1783197
-5.187448	chin	-0.1773846
-4.663644	chingacousy	-0.2110752
-4.160314	chingcousy	-0.2614825
-4.807446	chinguacousy	-0.2279372
-5.187448	chintsy	-0.1752734
-4.273107	chip	-0.2190318
-3.379849	chipotle	-0.5445912
-3.107511	chips	-0.6390936
-5.187448	chisholm	-0.1630122
-5.187448	cho	-0.1740683
-4.273107	chocolate	-0.5715328
-3.996717	choice	-0.2669361
-4.160314	choices	-0.2295975
-3.643475	choose	-0.3110758
-5.187448	choosen	-0.1749828
-4.807446	choosing	-1.067089
-3.674796	chorizo	-0.5528443
-4.663644	chose	-0.2059415
-3.878164	chris	-0.3833502
-5.187448	chrissy	-0.1769439
-5.187448	christ	-0.1776736
-5.187448	christ's	-0.1783538
-5.187448	christie	-0.1767372
-4.663644	christine	-0.3084778
-5.187448	chua	-0.177536
-4.663644	chunks	-0.1897021
-4.663644	church	-0.2650653
-5.187448	churchill	-0.2289511
-5.187448	ci	-0.1741515
-5.187448	cilan	-0.1768888
-3.78513	cilantro	-0.185016
-4.807446	cin	-0.1783169
-4.663644	cinco	-0.2345717
-4.070858	cindy	-0.2320043
-5.187448	cinema	-0.1630122
-3.78513	circle	-0.4038013
-5.187448	circuit	-0.2530611
-4.807446	citibank	-0.1558362
-5.187448	cities	-0.1777218
-3.561142	city	-0.8669145
-5.187448	clair	-0.1770404
-4.273107	claire	-0.2014575
-5.187448	clamark	-0.1769715
-4.807446	claredale	-0.1726903
-5.187448	clarence	-0.1767372
-4.663644	clarify	-0.1848879
-4.273107	clarington	-0.1826249
-5.187448	clarity	-0.1630122
-4.807446	clark	-0.1770259
-5.187448	clarkson	-0.1767372
-5.187448	class	-0.1630122
-3.020156	classic	-0.8186876
-4.070858	classics	-0.1915281
-5.187448	classing	-0.177763
-5.187448	claude	-0.1769439
-4.807446	claudette	-0.1621621
-4.663644	clean	-0.2039302
-3.78513	clear	-0.1761266
-5.187448	clearing	-0.1736728
-4.807446	clearly	-0.16244
-4.663644	click	-0.2098156
-5.187448	clicked	-0.1752734
-5.187448	clicking	-0.1752734
-4.663644	clifton	-0.2361064
-5.187448	clinton	-0.1761578
-4.425881	clock	-0.2886018
-3.471147	close	-0.588434
-4.425881	closed	-0.2275809
-4.160314	closer	-0.3490095
-4.425881	closest	-0.2887065
-4.807446	clowes	-0.1761276
-3.82916	club	-0.6408507
-5.187448	clubhouse	-0.2673372
-5.187448	clue	-0.1775154
-4.807446	clydesdale	-0.1776779
-4.273107	co	-0.1895825
-4.663644	coated	-0.1979492
-4.663644	cobourg	-0.3536025
-5.187448	coby	-0.1771781
-3.414101	coca	-1.155734
-5.187448	cod	-0.1774947
-3.586891	code	-0.4974528
-5.187448	codes	-0.1733438
-5.187448	coincidences	-0.1749828
-5.187448	coka	-0.1778455
-2.929583	coke	-0.8472518
-4.663644	coke's	-0.1758488
-3.78513	cokes	-0.6002968
-4.070858	cola	-0.3373221
-4.807446	colas	-0.1991055
-5.187448	colberrie	-0.1744608
-4.663644	colby	-0.2208754
-4.807446	cold	-0.1734202
-5.187448	cole	-0.2684028
-5.187448	colin	-0.177536
-5.187448	collect	-0.1752734
-5.187448	collecting	-0.1736728
-3.82916	college	-0.2924631
-4.807446	collier	-0.2678395
-3.708553	collingwood	-0.2975222
-5.187448	collins	-0.1781205
-5.187448	colt	-0.2530611
-5.187448	com	-0.1713733
-4.070858	combination	-0.4999442
-5.187448	combination's	-0.1776255
-4.663644	combine	-0.2015584
-4.070858	combined	-0.5332041
-3.491959	combo	-0.257508
-4.663644	combos	-0.155715
-2.835452	come	-0.7556349
-5.187448	comeback	-0.1749828
-2.895887	comes	-1.211678
-4.807446	comfort	-0.2683687
-3.451288	coming	-0.4485575
-5.187448	comment	-0.1756329
-4.807446	commercial	-0.2653224
-4.807446	common	-0.3243008
-5.187448	community	-0.1782167
-5.187448	company	-0.1714317
-5.187448	compare	-0.1779624
-5.187448	compared	-0.1756329
-5.187448	compensate	-0.1750243
-4.807446	compensation	-0.2296629
-5.187448	complain	-0.1764338
-5.187448	complained	-0.1709124
-4.807446	complaining	-0.2530611
-4.160314	complaint	-0.1550554
-4.070858	complete	-0.2662367
-5.187448	completed	-0.1749413
-4.273107	completely	-0.2109176
-5.187448	complex	-0.1630122
-5.187448	complicated	-0.1752319
-5.187448	complicating	-0.1768888
-4.807446	complimentary	-0.1625326
-4.273107	computer	-0.1992836
-4.807446	con	-0.2362599
-5.187448	concern	-0.2641172
-5.187448	concerns	-0.1630122
-5.187448	concession	-0.1769715
-4.807446	concierge	-0.1724606
-5.187448	concluded	-0.1760956
-5.187448	concordion	-0.1772883
-5.187448	condiment	-0.1741237
-4.807446	condiments	-0.176079
-4.160314	condo	-0.2152893
-4.807446	condominium	-0.2207944
-4.807446	conestoga	-0.1612058
-5.187448	confederation	-0.2683988
-5.187448	confident	-0.1752734
-5.187448	confidential	-0.1764131
-5.187448	configure	-0.1750382
-3.471147	confirm	-0.6166306
-4.425881	confirmation	-0.1839986
-4.807446	confirmed	-0.1600183
-3.933408	confirming	-0.2714427
-5.187448	confu	-0.1770679
-4.807446	confuse	-0.1738506
-4.160314	confused	-0.1881514
-5.187448	confusing	-0.1742806
-5.187448	confusion	-0.1630122
-5.187448	congra	-0.1630122
-4.273107	congratulations	-0.4422277
-5.187448	conlin	-0.1757918
-4.663644	connect	-0.1708539
-5.187448	connecting	-0.1750382
-4.663644	connection	-0.2208228
-5.187448	connectivity	-0.1774122
-5.187448	connie	-0.1630122
-5.187448	conrad	-0.1780036
-3.745156	conservation	-0.3452217
-4.807446	conservatory	-0.5293692
-5.187448	consider	-0.1750382
-4.070858	considered	-0.2227018
-4.807446	considering	-0.1751601
-5.187448	constantly	-0.1782235
-5.187448	constr	-0.175467
-5.187448	construct	-0.1743525
-5.187448	construction	-0.1749828
-5.187448	consumer	-0.1782922
-4.425881	contact	-0.1970666
-5.187448	contain	-0.1776667
-5.187448	container	-0.2199538
-4.663644	contains	-0.2334465
-4.807446	contamination	-0.1596456
-4.663644	continue	-0.1673111
-4.160314	convenience	-0.3589582
-4.807446	convenient	-0.2721186
-5.187448	convention	-0.1782716
-5.187448	conversation	-0.1778455
-5.187448	converted	-0.1749828
-5.187448	conway	-0.1630122
-3.82916	cooked	-0.176369
-4.807446	cooking	-0.1714248
-4.070858	cool	-0.310282
-4.807446	cooper	-0.2530611
-4.425881	cooperage	-0.1533083
-5.187448	cooperate	-0.1760887
-5.187448	cope	-0.1751696
-5.187448	cora	-0.1630122
-4.807446	core	-0.1777123
-5.187448	corect	-0.1630122
-4.663644	corn	-0.9985889
-3.78513	corner	-0.6993294
-5.187448	cornerbroo	-0.1630122
-4.425881	cornerbrook	-0.4038666
-4.807446	corners	-0.4188927
-4.663644	cornwall	-0.2177306
-5.187448	corporate	-0.1783265
-2.754216	correct	-0.9623302
-4.663644	correctly	-0.1587027
-5.187448	corresponds	-0.2656819
-5.187448	corry	-0.1767372
-5.187448	corsair	-0.1769715
-5.187448	cory	-0.1630122
-5.187448	cosca	-0.1630122
-3.27761	cost	-0.7053413
-4.425881	costing	-0.6063243
-3.78513	costs	-0.4515346
-4.425881	cote	-0.2194262
-5.187448	coto	-0.1783403
-4.807446	cottage	-0.2683549
-5.187448	cottonwood	-0.1772883
-5.187448	cottrell	-0.1779693
-3.996717	cottrelle	-0.284076
-5.187448	cou	-0.1741515
-2.826149	could	-0.8849816
-4.070858	couldn't	-0.2635486
-4.425881	count	-0.2826155
-5.187448	countdown	-0.1782991
-5.187448	counted	-0.1769232
-3.933408	country	-0.2319052
-4.663644	countryside	-0.2192682
-5.187448	counts	-0.1769232
-5.187448	county	-0.1758885
-4.807446	couple	-0.5151402
-4.807446	coupon	-0.1630024
-5.187448	coupons	-0.1779555
-5.187448	course	-0.3767373
-3.264787	court	-0.4339263
-4.425881	courtice	-0.2045809
-5.187448	courtney	-0.1783403
-4.807446	courts	-0.1608628
-5.187448	cove	-0.1630122
-4.273107	cover	-0.2142208
-5.187448	covered	-0.1760956
-5.187448	cowrywise	-0.1780861
-3.996717	coz	-0.1885743
-4.273107	cr	-0.2344011
-5.187448	crack	-0.1782991
-5.187448	craig	-0.1761578
-5.187448	crap	-0.176282
-5.187448	crash	-0.1630122
-5.187448	crashed	-0.1630122
-4.807446	craving	-0.1727459
-4.273107	crazy	-0.1802557
-4.070858	cre	-0.1529025
-5.187448	crea	-0.1764614
-3.205805	cream	-1.037363
-5.187448	creams	-0.1630122
-2.774165	creamy	-1.651152
-4.663644	create	-0.3669194
-3.144204	credit	-0.5925675
-5.187448	credited	-0.1736728
-5.187448	crediton	-0.1783538
-4.160314	credits	-0.1757724
-4.160314	creditview	-0.2601575
-4.663644	creek	-0.3375766
-4.807446	creme	-0.2683481
-2.885212	crescent	-0.6868304
-5.187448	cresent	-0.1630122
-4.807446	cresthaven	-0.2334396
-4.807446	crisp	-0.1586551
-3.471147	crispy	-0.5487896
-5.187448	cristen	-0.177873
-5.187448	crombie	-0.1752319
-4.425881	cross	-0.1596977
-3.996717	crossing	-0.2670289
-5.187448	crosswalk	-0.1767716
-4.663644	cru	-0.1734454
-5.187448	crum	-0.1630122
-3.643475	crumble	-0.6911654
-5.187448	crumble's	-0.178148
-3.561142	crumbled	-0.6822448
-4.160314	crumbles	-0.2856034
-4.273107	crumbs	-0.3440711
-5.187448	crunch	-0.1756329
-3.643475	crunchy	-0.8239852
-3.708553	crush	-0.3699704
-4.663644	crushes	-0.2137491
-3.173913	crust	-0.6341092
-4.807446	crusted	-0.2667724
-4.663644	crusts	-0.1717962
-5.187448	crutches	-0.1630122
-5.187448	cry	-0.1777355
-4.663644	crystal	-0.2319784
-5.187448	cu	-0.1783334
-5.187448	cubical	-0.2530611
-5.187448	cul	-0.1782991
-5.187448	cunchy	-0.1782785
-5.187448	cundles	-0.1749456
-5.187448	cup	-0.1765786
-5.187448	cure	-0.1783538
-5.187448	curiosity	-0.160405
-4.807446	curious	-0.1713174
-5.187448	curr	-0.1630122
-3.708553	current	-0.4373921
-4.070858	currently	-0.4199751
-5.187448	curtis	-0.177536
-4.807446	cushman	-0.2194901
-5.187448	custom	-0.1767234
-3.333059	customer	-1.269918
-5.187448	customer's	-0.1779624
-4.070858	customers	-0.1609514
-4.273107	customize	-0.1639681
-5.187448	customized	-0.1767234
-3.561142	cut	-0.3194668
-5.187448	cute	-0.1588634
-4.807446	cutler	-0.1711708
-5.187448	cuts	-0.1749828
-3.878164	cutting	-0.3404496
-3.318519	cuz	-0.4509991
-5.187448	cvv	-0.1752734
-5.187448	cyr	-0.1740891
-3.194912	d	-0.6024632
-5.187448	da	-0.1782785
-4.070858	dad	-0.153029
-4.807446	daddy	-0.161834
-3.27761	dairy	-1.183678
-5.187448	daisy	-0.1769439
-5.187448	dalal	-0.1714317
-4.425881	dale	-0.173783
-5.187448	dallas	-0.1782853
-5.187448	damian	-0.2670893
-4.663644	damn	-0.1716332
-4.273107	dan	-0.2613344
-5.187448	dandy	-0.1769439
-5.187448	dane	-0.1770404
-3.745156	danforth	-0.2603908
-4.425881	daniel	-0.4789395
-5.187448	daniels	-0.1783334
-4.663644	danny	-0.161917
-5.187448	danrilk	-0.1630122
-4.807446	dar	-0.1763208
-5.187448	darco	-0.1775842
-5.187448	darius	-0.1783538
-5.187448	dark	-0.178148
-4.425881	darren	-0.1723718
-5.187448	darryl	-0.1630122
-4.807446	daryl	-0.2012781
-5.187448	dasani	-0.1783403
-5.187448	dashi	-0.1769439
-4.807446	data	-0.178111
-4.663644	database	-0.1725415
-4.273107	date	-0.2522502
-4.807446	daughter	-0.2258632
-5.187448	dave	-0.3530107
-5.187448	daventry	-0.1777905
-3.996717	david	-0.1964263
-4.807446	davis	-0.1619054
-5.187448	davisville	-0.161777
-5.187448	dawford	-0.1780036
-4.807446	dawn	-0.1756234
-4.663644	dawson	-0.1985279
-3.82916	day	-1.131976
-4.425881	days	-0.2152384
-3.878164	de	-0.1465617
-5.187448	dead	-0.2683481
-3.090266	deal	-0.3657914
-5.187448	dealership	-0.1752941
-5.187448	dealing	-0.1751696
-3.674796	deals	-0.2075747
-4.807446	dean	-0.2682107
-4.160314	dear	-0.4894397
-4.663644	deb	-0.1625655
-5.187448	debbie	-0.267585
-3.065617	debit	-0.7541376
-5.187448	debit's	-0.178148
-4.807446	debits	-0.1600183
-5.187448	debt	-0.1630122
-4.425881	decarie	-0.1547082
-4.070858	decide	-0.1774001
-4.807446	decided	-0.2656819
-5.187448	decision	-0.1743525
-3.205805	deep	-1.283273
-5.187448	deeper	-0.1782235
-4.807446	deer	-0.1780973
-5.187448	def	-0.1768888
-5.187448	default	-0.1703182
-5.187448	defect	-0.1750382
-3.674796	definitely	-0.1765996
-4.807446	deidre	-0.2143515
-5.187448	del	-0.1776255
-4.273107	delaware	-0.3423814
-4.663644	delay	-0.1518708
-5.187448	delayed	-0.1757918
-4.425881	delete	-0.2448193
-4.070858	deli	-0.3356161
-3.878164	delicious	-0.4428014
-5.187448	delight	-0.1533982
-5.187448	delightful	-0.2682382
-4.807446	deliv	-0.1687852
-3.333059	deliver	-0.5828927
-3.451288	delivered	-0.8551088
-5.187448	deliveries	-0.1630122
-4.273107	delivering	-0.4228331
-5.187448	delivers	-0.1756329
-2.774165	delivery	-1.138964
-5.187448	delivery's	-0.1775979
-4.273107	delta	-0.211598
-3.745156	deluxe	-0.2514324
-5.187448	denison	-0.1613344
-5.187448	denmanvale	-0.1751073
-4.807446	denmar	-0.529762
-5.187448	denmark	-0.1769715
-5.187448	dennis	-0.5300788
-4.273107	dennison	-0.5295277
-5.187448	denpass	-0.1714317
-5.187448	dental	-0.1783403
-4.160314	department	-0.1622673
-5.187448	departments	-0.1770472
-4.273107	depending	-0.4302327
-3.933408	depends	-0.3605909
-5.187448	depot	-0.1630122
-3.78513	derry	-0.5935621
-5.187448	dery	-0.1776255
-5.187448	describe	-0.1750382
-5.187448	desert	-0.1752734
-4.807446	deserts	-0.1558362
-5.187448	deserve	-0.175467
-4.807446	desired	-0.3287858
-5.187448	desk	-0.1509721
-3.878164	dessert	-0.5765092
-4.070858	desserts	-0.2618293
-4.807446	detail	-0.1601902
-4.663644	details	-0.1643505
-5.187448	deven	-0.1770679
-4.807446	devere	-0.2701613
-5.187448	devon	-0.1774122
-5.187448	devonhurst	-0.1630122
-5.187448	dew	-0.1630122
-4.070858	di	-0.2038968
-5.187448	dial	-0.175467
-4.807446	diameter	-0.1539634
-5.187448	diamond	-0.1772883
-5.187448	diana	-0.177536
-4.807446	diane	-0.1621621
-5.187448	diary	-0.1780586
-5.187448	dicese	-0.1769715
-5.187448	dick	-0.1740683
-2.766075	did	-1.014293
-5.187448	didding	-0.1776805
-3.643475	didn't	-0.4270705
-3.173913	diet	-1.281423
-5.187448	diets	-0.1630122
-5.187448	dif	-0.1779212
-5.187448	diff	-0.1736728
-3.878164	difference	-0.3580874
-3.333059	different	-0.2472414
-5.187448	differently	-0.1760887
-4.273107	difficult	-0.1534055
-4.160314	digit	-1.249924
-4.663644	digits	-0.5296457
-5.187448	dilan	-0.1630122
-3.745156	dill	-0.5611336
-4.663644	dinner	-0.2351049
-3.318519	dip	-0.411861
-5.187448	dipper	-0.1765993
-2.795074	dipping	-1.822639
-4.663644	dippings	-0.2338472
-3.363686	dips	-0.5680495
-5.187448	direction	-0.1756329
-3.933408	directly	-0.2050298
-5.187448	directory	-0.1630122
-5.187448	dirinks	-0.1780999
-4.807446	disappeared	-0.1706189
-5.187448	disappointed	-0.1749828
-5.187448	disappointing	-0.1630122
-4.663644	disconnect	-0.2282312
-4.273107	disconnected	-0.1868064
-5.187448	discontinue	-0.1750382
-4.160314	discontinued	-0.2744454
-4.273107	discount	-0.1503791
-5.187448	discounts	-0.1751073
-5.187448	discuss	-0.1751696
-4.807446	dish	-0.2008642
-5.187448	dishes	-0.174181
-5.187448	disney	-0.1781205
-5.187448	distance	-0.1751696
-5.187448	distinctly	-0.1782922
-5.187448	district	-0.1783498
-5.187448	divide	-0.1778593
-4.807446	divided	-0.1621549
-4.160314	division	-0.2236068
-5.187448	dixi	-0.1782785
-3.745156	dixie	-0.5169574
-5.187448	dixon	-0.1735869
-2.36903	do	-0.9221148
-4.663644	dobson	-0.4273123
-5.187448	doe	-0.1770679
-3.034787	does	-0.6392425
-3.30445	doesn't	-0.3802511
-3.491959	doing	-0.3857338
-5.187448	dokey	-0.1731744
-4.807446	dol	-0.1770033
-4.663644	doll	-0.1719147
-5.187448	dolla	-0.1770197
-3.173913	dollar	-0.7470365
-3.30445	dollars	-0.8798532
-4.807446	dominic	-0.1595596
-3.878164	don	-0.5020612
-3.090266	don't	-0.9109888
-4.807446	donair	-0.3086223
-5.187448	donald	-0.3079822
-5.187448	donate	-0.389226
-5.187448	donating	-0.175467
-4.663644	donation	-0.1571912
-3.363686	done	-0.5111699
-5.187448	dong	-0.1775223
-4.807446	donna	-0.2476593
-4.807446	donovan	-0.1740614
-5.187448	donway	-0.1781686
-3.586891	door	-0.7882929
-4.663644	door's	-0.2292202
-4.273107	doorbell	-0.1583343
-5.187448	doorbell's	-0.1781617
-5.187448	doors	-0.1777493
-5.187448	dor	-0.1783265
-5.187448	dori	-0.1741515
-5.187448	dorit	-0.1782991
-3.878164	dorito	-0.3690236
-3.27761	doritos	-0.7677418
-4.663644	dot	-0.1931911
-2.929583	double	-0.7642206
-5.187448	doubling	-0.1776599
-5.187448	doubt	-0.1750382
-3.471147	dough	-0.4028306
-5.187448	doughnut	-0.1778662
-5.187448	douglas	-0.1630122
-3.348102	down	-0.2862608
-4.663644	downey's	-0.3092752
-5.187448	download	-0.1750382
-4.807446	downs	-0.1743915
-3.708553	downstairs	-0.3538153
-3.878164	downtown	-0.313396
-5.187448	dozen	-0.1630122
-5.187448	dr	-0.178093
-5.187448	drake	-0.1630122
-5.187448	dress	-0.3780635
-4.425881	dressed	-0.6125695
-3.586891	dressing	-0.2448272
-4.807446	dressings	-0.1714963
-4.807446	dri	-0.1739824
-5.187448	dried	-1.043473
-5.187448	dries	-0.1717639
-3.333059	drink	-0.3519646
-4.663644	drinking	-0.2360652
-2.972512	drinks	-0.747034
-2.609619	drive	-0.5231726
-3.996717	driver	-0.3216171
-4.807446	driver's	-0.1716358
-4.807446	drivers	-0.1754782
-5.187448	drives	-0.1630122
-5.187448	driveway	-0.1630122
-4.663644	driving	-0.167245
-5.187448	drizzle	-0.1630122
-5.187448	drizzled	-0.1752734
-4.663644	drop	-0.1732578
-4.663644	drug	-0.9461137
-5.187448	drummond	-0.1714317
-4.807446	drums	-0.1753123
-4.160314	dry	-0.4675213
-5.187448	dry's	-0.1630122
-5.187448	drys	-0.1714317
-5.187448	du	-0.2362599
-4.807446	due	-0.1737326
-4.273107	dufferin	-0.2180524
-5.187448	duh	-0.1776255
-5.187448	dumb	-0.1783403
-5.187448	dumped	-0.1760818
-4.663644	duncan	-0.160402
-5.187448	dundamar	-0.1770404
-3.264787	dundas	-0.8781557
-5.187448	dundeman	-0.1714317
-4.160314	dundurn	-0.2240938
-5.187448	dunno	-0.1992664
-4.807446	duplex	-0.3527253
-4.807446	duplicate	-0.1703182
-4.807446	dupont	-0.3525682
-4.807446	durham	-0.1697862
-5.187448	dust	-0.1764131
-4.807446	dustin	-0.1583001
-5.187448	dusty	-0.1782716
-4.663644	dutch	-0.4342343
-3.034787	e	-0.7273361
-3.333059	each	-0.4935099
-5.187448	eagle's	-0.1783334
-4.663644	eaglemount	-0.4336711
-4.807446	eagles	-0.2683824
-5.187448	eagleson	-0.2559009
-4.807446	earl	-0.1779487
-4.160314	earlier	-0.160971
-4.160314	earls	-0.5140964
-4.663644	early	-0.2006711
-5.187448	earned	-0.2007719
-4.273107	easier	-0.217914
-5.187448	easiest	-0.1770679
-5.187448	easily	-0.1782853
-3.561142	east	-0.4799307
-4.425881	eastdale	-0.2678203
-3.264787	easy	-1.061851
-3.82916	eat	-0.2182629
-4.425881	eating	-0.2129684
-5.187448	eats	-0.1740683
-4.663644	ecclestom	-0.2284598
-5.187448	eccleston	-0.1751073
-5.187448	ecclestone	-0.1743525
-4.425881	echo	-0.2051606
-5.187448	echoing	-0.1752734
-4.807446	economical	-0.1590663
-4.807446	ed	-0.1621378
-5.187448	eddie	-0.1741237
-4.663644	eden	-0.1950902
-5.187448	eder	-0.1630122
-4.807446	edge	-0.190468
-5.187448	edgemont	-0.1767372
-5.187448	edgewater	-0.1783402
-5.187448	edison	-0.1630122
-3.82916	edmonton	-0.3336095
-5.187448	edmund	-0.2667862
-5.187448	edna	-0.1769439
-5.187448	ednon	-0.177302
-4.425881	edward	-0.3070605
-5.187448	effort	-0.1756329
-5.187448	efren	-0.177536
-4.807446	egg	-0.2019504
-4.663644	eglington	-0.3726816
-4.070858	eglinton	-0.3641301
-3.30445	eh	-0.281693
-5.187448	ei	-0.1740891
-5.187448	eigh	-0.1770541
-2.782408	eight	-1.015444
-2.992295	eighteen	-0.6217325
-4.807446	eighth	-0.2682588
-3.184286	eighty	-0.9282129
-5.187448	eighy	-0.1776392
-5.187448	eighyt	-0.1773365
-3.396637	either	-0.1669746
-5.187448	elaine	-0.1779555
-5.187448	elcid	-0.1769439
-4.807446	ele	-0.2679495
-5.187448	elephan	-0.1780792
-5.187448	elephant	-0.1626252
-2.979007	eleven	-0.7567821
-5.187448	eleventh	-0.1770404
-4.070858	elgin	-0.2415264
-5.187448	eli	-0.6095079
-5.187448	elington	-0.1714317
-4.663644	elizabeth	-0.1914847
-5.187448	elle	-0.177536
-5.187448	ellington	-0.1770404
-5.187448	ellis	-0.1777905
-3.996717	elm	-0.5885738
-4.807446	elmer	-0.172739
-3.708553	else	-0.8282946
-4.807446	else's	-0.2356046
-4.273107	elsinore	-0.3197574
-5.187448	elwin	-0.1769715
-5.187448	em	-0.1774122
-3.82916	email	-0.2224868
-5.187448	emailed	-0.1776186
-5.187448	emar	-0.1769439
-5.187448	emelena	-0.1777905
-5.187448	emergency	-0.1764407
-5.187448	emilio	-0.1741237
-4.425881	emily	-0.3902867
-4.807446	emma	-0.2436231
-5.187448	employer	-0.1783472
-3.878164	end	-0.255359
-5.187448	ends	-0.177302
-5.187448	ener	-0.1783538
-5.187448	energy	-0.1752941
-5.187448	eng	-0.1761578
-5.187448	englinton	-0.1630122
-4.160314	english	-0.1789894
-5.187448	enjo	-0.1630122
-5.187448	enjor	-0.1760887
-3.252332	enjoy	-1.408953
-5.187448	enjoying	-0.1736728
-3.708553	enough	-0.2936018
-5.187448	enrolin	-0.1783498
-5.187448	ensure	-0.1744262
-5.187448	ent	-0.1630122
-4.663644	enter	-0.2170168
-4.273107	entered	-0.1916546
-5.187448	enterprise	-0.1779693
-4.663644	entire	-1.16007
-5.187448	entitled	-0.1756329
-4.807446	entitles	-0.2676676
-4.807446	entrance	-0.1809316
-4.807446	entree	-0.2714511
-5.187448	entrees	-0.1780036
-3.996717	entry	-0.9112459
-5.187448	environment	-0.2677845
-5.187448	epress	-0.1782716
-5.187448	epsom	-0.1783498
-4.425881	equestrian	-0.2531175
-3.379849	er	-0.1805682
-5.187448	eramosa	-0.1782647
-5.187448	eric	-0.1630122
-5.187448	erie	-0.3108057
-3.878164	erin	-0.3315073
-4.425881	erindale	-0.3541864
-4.807446	eringate	-0.1768104
-4.273107	error	-0.1608433
-4.807446	errors	-0.1749387
-5.187448	erskine	-0.2670893
-5.187448	erson	-0.1778799
-5.187448	eslan	-0.1747379
-4.663644	especially	-0.1700637
-5.187448	esquimault	-0.1779555
-3.996717	essa	-0.4199057
-5.187448	essas	-0.1714317
-4.807446	essentially	-0.1720636
-4.663644	esso	-0.3092615
-5.187448	est	-0.1630122
-5.187448	estimate	-0.1765786
-4.807446	eta	-0.1595596
-5.187448	ethan	-0.177536
-3.745156	etobicoke	-0.4856402
-5.187448	europe	-0.1751073
-4.663644	eva	-0.3921109
-5.187448	evelyn	-0.1630122
-3.264787	even	-0.2210141
-3.933408	evening	-0.758975
-4.663644	evenly	-0.2199538
-4.273107	ever	-0.1863843
-4.807446	everett	-0.2172645
-5.187448	everson	-0.1772883
-3.643475	every	-0.3583436
-3.933408	everybody	-0.1888806
-5.187448	everyone	-0.1783538
-3.153883	everything	-0.5960864
-4.663644	everything's	-0.2066863
-5.187448	everywhere	-0.1760818
-5.187448	ewan	-0.177536
-3.708553	ex	-0.2380003
-3.878164	exact	-0.3551783
-3.318519	exactly	-0.3029522
-5.187448	example	-0.1651757
-3.78513	excellent	-0.486922
-3.82916	except	-0.1900998
-5.187448	exchange	-0.1764338
-5.187448	exclude	-0.1752734
-5.187448	excluding	-0.2681488
-3.674796	excuse	-1.454349
-5.187448	exhausted	-0.1740683
-5.187448	exist	-0.1774947
-5.187448	exists	-0.1630122
-5.187448	exit	-0.1774191
-4.663644	exlarge	-0.2184192
-5.187448	expect	-0.1736728
-5.187448	expecting	-0.1756329
-5.187448	expen	-0.175467
-4.273107	expensive	-0.1582057
-5.187448	experience	-0.1752734
-4.807446	expiry	-0.2316295
-4.070858	explain	-0.2177199
-4.807446	explained	-0.1719312
-5.187448	explaining	-0.1752734
-4.807446	express	-0.2700301
-5.187448	ext	-0.1770197
-4.663644	extension	-0.218944
-5.187448	extr	-0.1743525
-2.512358	extra	-1.214692
-4.663644	extras	-0.1687826
-4.807446	extremely	-0.2339922
-4.807446	ey	-0.1741558
-4.807446	eyes	-0.1770033
-5.187448	ezran	-0.1769439
-3.216978	f	-0.3933932
-5.187448	fa	-0.1780586
-5.187448	fabulous	-0.1771643
-5.187448	faces	-0.1752734
-5.187448	fact	-0.1602941
-5.187448	fade	-0.1780174
-5.187448	fading	-0.1630122
-5.187448	fadre	-0.178093
-4.663644	fair	-0.2183942
-4.663644	fairfax	-0.530911
-4.663644	fairfield	-0.234489
-4.807446	fairly	-0.1774509
-4.070858	fairview	-0.2278589
-5.187448	falconer	-0.1772883
-5.187448	fallingbrook	-0.1782167
-4.273107	falls	-0.3948507
-4.425881	familiar	-0.2497591
-4.160314	family	-0.1618089
-3.586891	fan	-0.7153131
-5.187448	fancy	-0.1767234
-5.187448	fans	-0.1779418
-5.187448	fant	-0.1780586
-3.163783	fanta	-1.019665
-4.807446	fantas	-0.1534546
-4.425881	fantastic	-0.2285401
-3.878164	far	-0.2456558
-4.807446	farhan	-0.2328516
-4.273107	farm	-0.2596085
-4.807446	farnham	-0.1615772
-5.187448	farren	-0.1630122
-5.187448	farther	-0.1764338
-4.807446	fast	-0.1595596
-4.070858	faster	-0.2194219
-4.807446	fat	-0.2681145
-5.187448	father's	-0.1630122
-4.807446	fatima	-0.2704444
-5.187448	fault	-0.160455
-5.187448	fav	-0.1630122
-5.187448	favor	-0.1570298
-4.807446	favorite	-0.1615072
-5.187448	favorites	-0.1630122
-5.187448	favourite	-0.1734132
-5.187448	faye	-0.177536
-4.070858	fee	-0.4351116
-4.807446	feed	-0.1606554
-5.187448	feedback	-0.1748236
-4.807446	feeding	-0.1597747
-4.663644	feel	-0.3642161
-4.663644	feeling	-0.1571767
-5.187448	fees	-0.1750243
-4.807446	female	-0.1581589
-5.187448	females	-0.1740683
-5.187448	fennel	-0.2670893
-4.070858	fennell	-0.2366477
-4.807446	fenside	-0.2650318
-4.663644	fergus	-0.2059809
-5.187448	ferhan	-0.1774122
-5.187448	fern	-0.1767372
-5.187448	ferndale	-0.1619054
-5.187448	fernwood	-0.1767759
-5.187448	ferrara	-0.2667862
-4.807446	ferry	-0.2194901
-5.187448	fest	-0.1767234
-3.318519	feta	-0.9091868
-5.187448	fetta	-0.1773846
-4.425881	few	-0.3755814
-3.996717	fi	-0.2798049
-5.187448	fibers	-0.2530611
-5.187448	fiddlers	-0.1775567
-5.187448	fidin	-0.1761578
-5.187448	field	-0.1630122
-5.187448	fields	-0.1630122
-4.807446	fieldstone	-0.2683549
-5.187448	fiesta	-0.1781067
-4.807446	fif	-0.1755284
-5.187448	fift	-0.1765855
-4.807446	fifte	-0.1750563
-2.864619	fifteen	-0.8196806
-5.187448	fifth	-0.3087873
-2.844958	fifty	-0.7424658
-5.187448	fighting	-0.4309049
-3.878164	figure	-0.5273216
-4.807446	figured	-0.2149926
-4.425881	file	-0.1301008
-4.273107	fill	-0.4450975
-4.425881	filled	-0.4055371
-5.187448	filomena	-0.178093
-4.807446	final	-0.2687499
-5.187448	finalize	-0.2661377
-5.187448	finally	-0.1780036
-5.187448	financial	-0.1714317
-4.070858	finch	-0.240583
-3.414101	find	-0.5343644
-4.070858	finding	-0.2380016
-5.187448	finds	-0.1783128
-3.318519	fine	-0.7431962
-5.187448	finger	-0.1780586
-5.187448	fingers	-0.1524789
-4.160314	finish	-0.1904649
-3.996717	finished	-0.1343783
-5.187448	finishing	-0.1768586
-4.807446	fiona	-0.1752016
-4.807446	fir	-0.176169
-3.451288	fire	-1.064357
-2.885212	first	-0.7510597
-5.187448	firstly	-0.1764959
-4.663644	fischer	-0.3092956
-5.187448	fish	-0.1748236
-4.807446	fit	-0.1737951
-5.187448	fitness	-0.1714317
-5.187448	fits	-0.1773365
-5.187448	fiv	-0.1770541
-2.62964	five	-0.8809322
-4.160314	fix	-0.2301318
-5.187448	fixed	-0.1777493
-4.807446	fixing	-0.1703182
-4.663644	flakes	-0.3673036
-5.187448	flaps	-0.1743525
-4.273107	flat	-0.1550172
-3.82916	flavor	-0.4369317
-5.187448	flavor's	-0.1773158
-5.187448	flavored	-0.1771368
-3.933408	flavors	-0.2881664
-5.187448	fleet	-0.3092916
-4.663644	fleming	-0.2289888
-5.187448	flexibility	-0.1749828
-4.663644	floor	-0.1630022
-5.187448	floors	-0.1776599
-4.807446	flour	-0.1766312
-5.187448	flower	-0.1782098
-3.996717	flyer	-0.1654482
-4.807446	flyers	-0.1585688
-4.273107	fo	-0.1512784
-5.187448	foakes	-0.2673372
-4.425881	follow	-0.2041122
-5.187448	following	-0.1768888
-5.187448	fon	-0.1750382
-5.187448	font	-0.1782441
-3.996717	food	-0.1744039
-5.187448	foods	-0.1783265
-5.187448	foor	-0.178093
-2.11671	for	-1.084118
-5.187448	forces	-0.1781273
-4.425881	ford	-0.3933377
-3.933408	forest	-0.4463246
-5.187448	forestview	-0.1779693
-3.614262	forget	-0.5487813
-5.187448	forgetting	-0.1748348
-5.187448	forgive	-0.1776186
-4.663644	forgot	-0.327634
-5.187448	forgotten	-0.1758401
-4.273107	form	-0.138473
-5.187448	formerly	-0.1783498
-4.425881	fort	-0.4812491
-5.187448	forteen	-0.1630122
-5.187448	forth	-0.1764338
-4.663644	fortinos	-0.1593059
-2.758133	forty	-1.295469
-5.187448	fortyish	-0.1630122
-4.807446	forward	-0.2644015
-4.807446	forwarded	-0.2637217
-5.187448	forwarding	-0.1743525
-4.807446	fou	-0.1767415
-4.663644	found	-0.2321378
-5.187448	foundation	-0.1630122
-2.521389	four	-0.9800134
-5.187448	fours	-0.1751073
-5.187448	fourt	-0.1781411
-5.187448	fourtee	-0.1630122
-2.966114	fourteen	-0.8580985
-5.187448	fourteenth	-0.1614389
-4.425881	fourth	-0.2526956
-4.807446	fourty	-0.1774784
-5.187448	fox	-0.1630122
-5.187448	frame	-0.1740891
-5.187448	france	-0.1751696
-4.807446	frances	-0.2033403
-4.807446	francis	-0.3452053
-4.663644	frank	-0.2942304
-4.425881	frank's	-0.2093008
-5.187448	frankly	-0.1743525
-4.807446	franks	-0.1558362
-5.187448	freaks	-0.1780174
-5.187448	fred	-0.1570659
-3.163783	free	-0.7145299
-5.187448	freeman	-0.1775266
-4.807446	freeport	-0.5300788
-5.187448	frees	-0.1603549
-5.187448	freeze	-0.1750382
-3.30445	french	-1.014201
-5.187448	fres	-0.1783403
-5.187448	fresca	-0.1760818
-4.425881	fresco	-0.2115107
-3.333059	fresh	-0.8297066
-5.187448	freshly	-0.1782167
-4.807446	fri	-0.1698212
-4.425881	friday	-0.1854359
-3.745156	fried	-0.5302343
-5.187448	friend	-0.1923553
-5.187448	friendly	-0.1741515
-3.163783	fries	-0.5273317
-5.187448	fries'	-0.1780518
-5.187448	friggin	-0.1767234
-5.187448	frills	-0.1777905
-4.663644	frizzell	-0.1587503
-2.663094	from	-0.6141726
-3.116398	front	-1.222953
-5.187448	frontenac	-0.2667862
-5.187448	frontonac	-0.1767372
-4.807446	froze	-0.1757409
-4.663644	frozen	-0.1706163
-4.807446	fruit	-0.2683961
-5.187448	frustation	-0.1750243
-4.807446	frustrated	-0.1706189
-4.663644	frustrating	-0.2182678
-4.160314	fry	-0.2348962
-4.425881	fuck	-0.1663653
-4.663644	fucking	-0.2209676
-4.160314	full	-0.171336
-4.663644	fully	-0.2361957
-5.187448	fulton	-0.2667862
-4.663644	fun	-0.1782594
-5.187448	fund	-0.1764338
-5.187448	fundraising	-0.1750243
-3.561142	funnel	-1.183748
-4.425881	funny	-0.149582
-4.807446	further	-0.1681933
-5.187448	fusilier	-0.178093
-4.807446	fussy	-0.1595596
-5.187448	fwo	-0.1752319
-3.205805	g	-0.480239
-5.187448	ga	-0.1776255
-5.187448	gabbie	-0.1630122
-5.187448	gabriel	-0.1630122
-4.425881	gage	-0.387208
-4.807446	gail	-0.1621621
-5.187448	gainsborough	-0.1630122
-5.187448	gal	-0.1740683
-5.187448	galaxy	-0.1783498
-5.187448	gale	-0.3087323
-5.187448	galleria	-0.3092409
-5.187448	galluzzo	-0.1780861
-5.187448	game	-0.1740891
-4.070858	gar	-0.1752475
-5.187448	garage	-0.1714317
-3.491959	garden	-0.6468849
-4.160314	gardens	-0.1746665
-5.187448	garl	-0.1778868
-5.187448	garland	-0.2469396
-4.807446	garli	-0.1693587
-2.774165	garlic	-0.9039346
-5.187448	garlic's	-0.293954
-5.187448	garlicky	-0.1748236
-4.273107	garlics	-0.4097293
-4.807446	garrison	-0.2670205
-4.070858	garth	-0.2517447
-4.807446	gary	-0.1751947
-4.070858	gas	-0.9113009
-3.78513	gate	-0.2564378
-5.187448	gates	-0.1559492
-5.187448	gather	-0.1630122
-4.663644	gatineau	-0.315574
-4.070858	gauge	-0.3574066
-4.070858	gave	-0.6152105
-5.187448	gawaiian	-0.1778043
-5.187448	gazebo	-0.1767716
-5.187448	ge	-0.1761578
-5.187448	geez	-0.1722796
-4.807446	gen	-0.178347
-5.187448	general	-0.1764959
-4.425881	generally	-0.2028092
-5.187448	generation	-0.3089111
-5.187448	geneve	-0.1558362
-5.187448	geniv	-0.1769439
-5.187448	geno	-0.1780861
-5.187448	genuine	-0.178251
-4.160314	george	-0.3015064
-5.187448	georges	-0.1783538
-4.663644	georgetown	-0.2136863
-5.187448	gerald	-0.1774122
-5.187448	gerald's	-0.1630122
-4.425881	gerard	-0.1968251
-5.187448	germaine	-0.1761578
-5.187448	gerrard	-0.1767372
-2.959808	get	-0.8338796
-3.996717	gets	-0.2848059
-3.27761	getting	-0.5226315
-5.187448	ghost	-0.158638
-4.807446	gi	-0.1767622
-4.807446	giant	-0.2684028
-5.187448	gibb	-0.1767372
-5.187448	gie	-0.1769439
-4.663644	gift	-0.5310072
-5.187448	gigantic	-0.1783538
-5.187448	gilbert	-0.177536
-4.273107	gimme	-0.1553722
-4.807446	gin	-0.1730867
-3.153883	ginger	-1.504018
-4.070858	gingerale	-0.2461362
-4.807446	girl	-0.1739547
-5.187448	girls	-0.1630122
-5.187448	gist	-0.1765786
-2.885212	give	-1.555349
-3.82916	given	-0.2243507
-4.160314	gives	-0.3315793
-3.878164	giving	-0.6705379
-5.187448	glad	-0.1756329
-5.187448	gladly	-0.1756329
-5.187448	glamorgan	-0.3079822
-3.745156	glen	-0.3383594
-5.187448	glenashton	-0.2673372
-4.663644	glendale	-0.1611532
-4.663644	glenhill	-0.4473977
-5.187448	glenhills	-0.1772883
-4.807446	glenhollow	-0.3082301
-4.273107	glenvale	-0.2768013
-4.663644	glenwood	-0.2329635
-5.187448	glenwoods	-0.1770404
-5.187448	glitch	-0.1706609
-5.187448	gloria	-0.177536
-5.187448	glou	-0.1783334
-4.273107	gloucester	-0.4271345
-3.228446	gluten	-1.132255
-5.187448	gmg	-0.1783403
-5.187448	gmo	-0.1753757
-2.923782	go	-0.729858
-3.614262	goat	-1.399407
-4.425881	god	-0.2233018
-3.643475	goes	-0.3547858
-3.020156	going	-1.174433
-5.187448	gol	-0.1782991
-4.273107	golden	-0.1582372
-4.807446	goldenville	-0.160455
-4.663644	goldwin	-0.2870556
-5.187448	golf	-0.4342304
-5.187448	gon	-0.1777905
-4.160314	gone	-0.2206816
-3.098803	gonna	-0.9268718
-5.187448	goo	-0.1782785
-3.006002	good	-0.7797762
-3.745156	goodbye	-0.9887136
-5.187448	goodlife	-0.1783538
-5.187448	goodness	-0.1931596
-5.187448	goodnight	-0.1779143
-4.160314	google	-0.2065537
-5.187448	googled	-0.1750382
-3.878164	goreway	-0.3547511
-5.187448	gormandev	-0.293954
-4.425881	gosh	-0.205607
-3.173913	got	-0.5078553
-4.425881	gotcha	-0.1875267
-5.187448	gotham	-0.1630122
-4.070858	gotta	-0.1943884
-4.273107	gotten	-0.1627712
-4.807446	gourmet	-0.2667724
-4.807446	gr	-0.1586551
-4.160314	grab	-0.2872599
-5.187448	grace	-0.3078857
-5.187448	graced	-0.1769715
-5.187448	gracia	-0.1761578
-4.663644	graham	-0.2043403
-4.425881	grain	-0.5845628
-4.425881	grams	-0.313282
-5.187448	granby	-0.1630122
-3.561142	grand	-1.332136
-5.187448	granddaughter	-0.1770541
-5.187448	grandma	-0.1630122
-5.187448	grandma's	-0.1752734
-5.187448	grandson	-0.1714317
-5.187448	granolas	-0.1586263
-4.273107	grant	-0.199343
-4.425881	grantbrook	-0.2117646
-4.807446	grantham	-0.2204313
-4.425881	grape	-0.2065028
-4.807446	grapes	-0.2530611
-5.187448	grated	-0.1782235
-4.160314	gravenhurst	-0.1962139
-4.425881	gravy	-0.1544543
-5.187448	gray	-0.1769715
-3.318519	great	-0.7946684
-5.187448	greater	-0.1781892
-5.187448	greatly	-0.1783265
-5.187448	gree	-0.1775567
-3.996717	greek	-0.4326584
-3.996717	greely	-0.2673556
-2.735143	green	-1.598728
-5.187448	greenbush	-0.1780036
-4.663644	greencrest	-0.2362573
-4.663644	greens	-0.2342545
-4.807446	greenville	-0.2206805
-5.187448	greenway	-0.2328516
-4.273107	greenwood	-0.2680539
-4.663644	greg	-0.3351712
-5.187448	grenadier	-0.1781136
-4.663644	grenoble	-0.170833
-4.807446	grey	-0.1630051
-5.187448	greystone	-0.1777905
-5.187448	greyton	-0.1777905
-5.187448	gri	-0.1741515
-5.187448	gril	-0.1751696
-5.187448	grill	-0.1782991
-3.090266	grilled	-1.194383
-4.807446	grimsby	-0.1981158
-5.187448	gro	-0.1714317
-4.807446	grocery	-0.1779667
-5.187448	grou	-0.1780655
-3.173913	ground	-1.751561
-4.160314	grove	-0.4312657
-5.187448	groven	-0.1782647
-5.187448	gst	-0.1714317
-4.807446	guaran	-0.1628814
-3.536836	guarantee	-0.414179
-3.78513	guaranteed	-0.7645146
-5.187448	guarantees	-0.1775979
-5.187448	guaratee	-0.1764131
-5.187448	guard	-0.1727085
-5.187448	gue	-0.1740683
-3.471147	guelph	-0.5500879
-4.425881	guess	-0.3351046
-5.187448	guest	-0.1630122
-5.187448	guests	-0.1741515
-4.807446	gulf	-0.2361984
-5.187448	gulo	-0.1630122
-5.187448	gurjot	-0.1780861
-4.273107	guy	-0.1772381
-3.82916	guys	-0.4745671
-5.187448	gwilim	-0.1630122
-5.187448	gwillimbury	-0.1782373
-4.807446	gym	-0.2650318
-3.153883	h	-0.5960101
-3.82916	ha	-0.2341435
-5.187448	habanero	-0.1751073
-5.187448	hackberry	-0.2683069
-4.807446	hacking	-0.2679289
-3.491959	had	-0.3814849
-5.187448	haddington	-0.2667862
-4.807446	hadn't	-0.1774277
-5.187448	haircutters	-0.1783538
-5.187448	hal	-0.1749413
-4.807446	halal	-0.3081475
-2.746486	half	-0.7449927
-4.273107	halfmoon	-0.7109353
-5.187448	halfs	-0.1630122
-4.425881	halifax	-0.3357513
-4.070858	hall	-0.2841058
-5.187448	halla	-0.1783334
-5.187448	hallman	-0.293954
-5.187448	halved	-0.1781823
-4.425881	halves	-0.1383252
-3.049929	ham	-0.6285811
-4.425881	hamburger	-0.4402848
-3.586891	hamilton	-0.6034161
-5.187448	hammond	-0.178093
-5.187448	hams	-0.1772194
-4.425881	hand	-0.1506913
-5.187448	handball	-0.1749828
-5.187448	handheld	-0.1738437
-5.187448	hands	-0.1647934
-5.187448	handy	-0.1771643
-5.187448	haneen	-0.1780518
-3.491959	hang	-0.9303148
-5.187448	hanging	-0.1776599
-5.187448	hannah	-0.2670205
-5.187448	hansen	-0.1769715
-5.187448	hanson	-0.1769715
-4.425881	happen	-0.170341
-4.425881	happened	-0.1938377
-4.807446	happening	-0.1708705
-4.807446	happens	-0.2185683
-4.273107	happy	-0.2639018
-5.187448	harbour	-0.1748279
-3.996717	hard	-0.6172808
-4.807446	harder	-0.1730867
-4.807446	hardly	-0.4479485
-4.807446	hargrove	-0.2670205
-4.070858	harmony	-0.299468
-5.187448	harns	-0.1780792
-5.187448	harrow	-0.2673372
-4.807446	harry	-0.1616557
-4.807446	hartsville	-0.2530611
-5.187448	harvey's	-0.1630122
-3.996717	harwood	-0.2948636
-3.057702	has	-0.3752628
-5.187448	hasan	-0.1761578
-4.807446	hasn't	-0.2208444
-5.187448	hasnain	-0.1761578
-4.807446	hasting	-0.1767277
-5.187448	hasty	-0.1783472
-4.807446	hate	-0.1734037
-4.425881	hav	-0.1543355
-2.716873	have	-0.8326037
-4.663644	haven't	-0.2302004
-5.187448	havendale	-0.1779693
-3.78513	having	-0.3508267
-5.187448	hawai	-0.1752734
-3.098803	hawaiian	-0.4571088
-5.187448	hawaiian's	-0.1615129
-5.187448	hawaiians	-0.1764959
-4.807446	hawkesbury	-0.2364212
-4.807446	hawkesville	-0.2614807
-4.807446	hawkridge	-0.2670893
-4.807446	hazel	-0.2667862
-3.933408	hazeldean	-0.5105128
-4.807446	hazelwood	-0.3079822
-2.972512	he	-0.3008377
-4.807446	he'd	-0.2661308
-4.160314	he'll	-0.3825836
-3.643475	he's	-0.3189403
-4.160314	head	-0.2480545
-5.187448	headquarter	-0.1758885
-4.807446	heads	-0.6765785
-5.187448	health	-0.1783538
-5.187448	healthier	-0.1630122
-3.674796	hear	-0.7885501
-4.160314	heard	-0.1657101
-3.996717	hearing	-0.3763962
-3.82916	heart	-0.8275054
-4.663644	heartlake	-0.1712101
-5.187448	hearts	-0.293954
-4.425881	heat	-0.1835305
-5.187448	heatherdale	-0.2670205
-4.663644	heatherington	-0.3079133
-4.663644	heavy	-0.1621024
-5.187448	hebe	-0.1780518
-4.273107	heights	-0.2471245
-5.187448	hel	-0.2677226
-4.807446	helen	-0.3359921
-5.187448	hell	-0.170556
-2.803728	hello	-0.9460441
-5.187448	helm	-0.1630122
-3.561142	help	-0.9955743
-4.807446	helpful	-0.2530611
-5.187448	hemmingford	-0.1780036
-5.187448	hence	-0.1736728
-4.273107	henderson	-0.2330304
-4.425881	henry	-0.1736164
-4.663644	heping	-0.1607099
-3.396637	her	-0.2144271
-4.807446	herb	-0.1707447
-5.187448	herbs	-0.1586551
-2.615246	here	-0.4012565
-4.425881	here's	-0.2170592
-5.187448	heritage	-0.1782853
-5.187448	heron	-0.1772883
-5.187448	hers	-0.1740683
-3.878164	hespeler	-0.6865806
-5.187448	hewitt	-0.1781136
-5.187448	hex	-0.1781548
-4.070858	hey	-0.1878992
-3.432296	hi	-0.8416568
-4.807446	hickory	-0.2530611
-3.82916	high	-0.233887
-5.187448	highest	-0.178306
-3.674796	highland	-0.4195786
-4.807446	highlands	-0.2530611
-5.187448	highpoint	-0.1630122
-3.396637	highway	-0.5186267
-4.807446	hilary	-0.1626964
-3.78513	hill	-0.3843463
-5.187448	hillcroft	-0.2667862
-4.807446	hillfair	-0.2680526
-4.663644	hills	-0.1749353
-3.614262	him	-0.2243914
-5.187448	hindu	-0.1783538
-5.187448	hine	-0.1780518
-4.070858	his	-0.2152314
-4.807446	history	-0.1989042
-5.187448	hit	-0.1782098
-5.187448	hitting	-0.173184
-4.425881	hm	-0.5693433
-3.708553	hmm	-1.036461
-4.160314	ho	-0.2312446
-5.187448	hobiland	-0.1778799
-2.992295	hold	-0.9377435
-5.187448	holder	-0.1763803
-4.425881	holding	-0.2055642
-4.273107	holiday	-0.7352302
-3.614262	holland	-0.7919131
-4.273107	hollow	-0.206287
-4.663644	holly	-0.2340267
-5.187448	holmwood	-0.2670893
-4.807446	holy	-0.2641727
-3.674796	home	-0.2347241
-4.807446	homemade	-0.1715826
-5.187448	homer	-0.2684028
-4.807446	homestyle	-0.2679908
-4.807446	hon	-0.1759964
-4.807446	honest	-0.1560793
-4.663644	honestly	-0.1602878
-2.966114	honey	-1.213247
-4.663644	hope	-0.1474282
-4.807446	hopedale	-0.1558362
-4.273107	hopefully	-0.2033492
-4.663644	hoping	-0.1682188
-5.187448	horrible	-0.1748236
-5.187448	horse	-0.1714317
-4.663644	horseshoe	-0.2027605
-5.187448	horton	-0.2137491
-5.187448	horton's	-0.2230936
-5.187448	hortons	-0.2653431
-4.663644	hospital	-0.1965055
-2.85962	hot	-1.082739
-5.187448	hote	-0.1757918
-3.708553	hotel	-0.4141969
-5.187448	hotel's	-0.6098517
-5.187448	hou	-0.175467
-3.933408	hour	-0.3046686
-4.663644	hours	-0.2401513
-3.205805	house	-0.9801236
-5.187448	housing	-0.1749413
-2.461795	how	-1.335754
-4.807446	how'd	-0.4302331
-4.807446	how's	-0.170556
-4.663644	howard	-0.2194819
-4.663644	howe	-0.1726503
-3.78513	however	-0.1700204
-4.807446	hu	-0.177024
-5.187448	huah	-0.1764614
-5.187448	huffman	-0.1777905
-4.807446	hughson	-0.1764312
-3.82916	huh	-0.7706627
-4.663644	humberwood	-0.4338498
-5.187448	humongous	-0.1764338
-5.187448	hun	-0.175467
-3.745156	hundred	-0.303519
-4.273107	hung	-0.5304504
-4.273107	hungry	-0.1692992
-4.425881	hunt	-0.610264
-4.807446	huntingwood	-0.2614807
-4.160314	huntsville	-0.2067586
-5.187448	hupfield	-0.1741237
-4.663644	hurontario	-0.2103649
-4.807446	hurry	-0.2677088
-4.807446	huruntario	-0.2614807
-5.187448	husband	-0.1614998
-5.187448	husband's	-0.1764079
-5.187448	hutton	-0.1780036
-4.807446	hyde	-0.2682107
-5.187448	hypnosis	-0.1781411
-2.00764	i	-1.220247
-5.187448	i'	-0.1767992
-3.153883	i'd	-1.196622
-5.187448	i'l	-0.1773846
-2.650629	i'll	-0.9900553
-2.354809	i'm	-0.9273707
-3.116398	i've	-0.6175935
-5.187448	ibrahim	-0.1630122
-4.160314	ice	-0.677252
-3.27761	iced	-1.6246
-5.187448	ices	-0.1783334
-5.187448	ick	-0.1776599
-4.663644	id	-0.1999652
-5.187448	ida	-0.1767372
-4.425881	idea	-0.2327185
-5.187448	idiot	-0.1606554
-5.187448	idris	-0.1736728
-2.402406	if	-1.13513
-5.187448	ig	-0.1743525
-5.187448	iglington	-0.1770404
-5.187448	ignore	-0.1771781
-5.187448	ii	-0.1782235
-5.187448	ill	-0.1760887
-5.187448	im	-0.1783538
-5.187448	immediately	-0.1630122
-4.425881	important	-0.1695472
-2.111353	in	-0.60324
-5.187448	inasfil	-0.1769715
-4.663644	inaudible	-0.1602448
-4.425881	inch	-0.1983372
-4.425881	inches	-0.2179451
-3.878164	include	-0.1923833
-3.348102	included	-0.3323341
-4.160314	includes	-0.2444174
-3.134736	including	-1.049721
-4.663644	inconvenience	-0.1489989
-5.187448	increase	-0.1736728
-4.807446	indeed	-0.1696601
-5.187448	india	-0.1783498
-4.807446	indicate	-0.1733368
-4.807446	individual	-0.1760102
-5.187448	individually	-0.1779899
-4.070858	inform	-0.5322621
-3.643475	information	-0.2133868
-4.807446	informed	-0.2637217
-5.187448	informing	-0.1743525
-5.187448	ing	-0.1768888
-4.663644	inglewood	-0.1705184
-5.187448	ingram	-0.2530611
-5.187448	ingredient	-0.1750243
-4.663644	ingredients	-0.1554772
-5.187448	ingrid	-0.177536
-5.187448	initially	-0.1782235
-4.807446	initials	-0.1710469
-5.187448	inkerman	-0.1767372
-4.070858	inn	-0.3053124
-5.187448	inner	-0.1769715
-4.273107	innes	-0.529762
-3.996717	innisfil	-0.323487
-5.187448	inquire	-0.1777905
-5.187448	inquiring	-0.1736728
-5.187448	ins	-0.1775635
-4.807446	insert	-0.1713803
-3.745156	inside	-0.2439166
-5.187448	inst	-0.1758885
-5.187448	installed	-0.1766338
-5.187448	instance	-0.1766338
-2.895887	instead	-0.9069228
-5.187448	instruction	-0.2650733
-4.807446	instructions	-0.1728085
-4.663644	interac	-0.2530514
-4.663644	intercom	-0.2311386
-5.187448	interest	-0.1743525
-4.160314	interested	-0.7150231
-4.425881	interesting	-0.2009805
-5.187448	international	-0.2724554
-5.187448	internet	-0.1714317
-5.187448	interrupt	-0.172892
-4.807446	interrupted	-0.2288184
-4.807446	interrupting	-0.2141282
-5.187448	intersec	-0.1740683
-5.187448	intersect	-0.1630122
-3.471147	intersection	-0.453744
-4.160314	intersections	-0.2376291
-5.187448	intervals	-0.1765786
-3.513818	into	-0.5096341
-5.187448	introduce	-0.1750382
-4.807446	introduced	-0.2642005
-5.187448	invalid	-0.1780655
-5.187448	investigate	-0.1750243
-5.187448	investigating	-0.1758401
-5.187448	involved	-0.1752941
-4.807446	involves	-0.1707168
-5.187448	iona	-0.1778799
-5.187448	ire	-0.1630122
-4.663644	irene	-0.1629995
-2.091407	is	-0.6069157
-4.663644	isabel	-0.158408
-5.187448	island	-0.1781067
-4.160314	islington	-0.2177719
-3.674796	isn't	-0.4031006
-5.187448	isnt	-0.1752734
-4.273107	issue	-0.187572
-4.807446	issued	-0.1735383
-4.160314	issues	-0.1869578
-2.118511	it	-0.7082347
-4.807446	it'	-0.1779667
-3.674796	it'd	-0.7403272
-3.098803	it'll	-0.9695571
-2.178392	it's	-0.6776305
-4.807446	ital	-0.2642005
-3.020156	italian	-0.9532095
-3.586891	italiano	-0.973442
-3.471147	item	-0.3207683
-5.187448	itemize	-0.1750382
-3.674796	items	-0.2397952
-3.396637	its	-0.1965761
-5.187448	its'	-0.1775954
-4.160314	itself	-0.172374
-4.807446	ivan	-0.1621621
-5.187448	ivy	-0.1625183
-3.379849	j	-0.4524127
-5.187448	ja	-0.1755335
-5.187448	jace	-0.1780105
-4.425881	jack	-0.1612476
-5.187448	jackie	-0.1783498
-4.807446	jackson	-0.1628245
-5.187448	jacob	-0.1630122
-5.187448	jade	-0.1781754
-5.187448	jaden	-0.1630122
-5.187448	jal	-0.1780586
-5.187448	jala	-0.175467
-5.187448	jalape	-0.1767992
-5.187448	jalapen	-0.1741515
-3.153883	jalapeno	-0.6006937
-4.070858	jalapenos	-0.2516158
-3.536836	jalapeo	-0.4851646
-4.070858	jalapeos	-0.1710064
-3.82916	james	-0.3462824
-4.663644	jamie	-0.4896955
-5.187448	jan	-0.177536
-3.414101	jane	-0.9005938
-4.807446	janice	-0.1574362
-5.187448	jasmine	-0.1707168
-4.273107	jason	-0.2931998
-5.187448	jasper	-0.2670893
-4.663644	jay	-0.2071109
-5.187448	jean	-0.1769439
-4.807446	jeanne	-0.2681282
-5.187448	jeavons	-0.1770404
-5.187448	jeez	-0.1740683
-3.996717	jeff	-0.1757692
-5.187448	jeffries	-0.1783472
-5.187448	jena	-0.1630122
-4.425881	jennifer	-0.4584862
-4.807446	jenny	-0.4328245
-4.807446	jerri	-0.1585904
-4.663644	jerry	-0.1513769
-5.187448	jerson	-0.1761578
-5.187448	jess	-0.1768543
-4.663644	jesse	-0.2547287
-4.807446	jessica	-0.1619054
-4.663644	jessie	-0.1601992
-4.807446	jessy	-0.2653431
-4.663644	jesus	-0.156416
-4.807446	jill	-0.1623162
-5.187448	jillian	-0.1630122
-4.663644	jim	-0.2330332
-5.187448	jimi	-0.1781754
-4.663644	jimmy	-0.1531854
-5.187448	joanna	-0.177536
-4.425881	joanne	-0.2140791
-4.663644	job	-0.2172645
-5.187448	jody	-0.177536
-4.070858	joe	-0.2287546
-4.807446	johan	-0.2335225
-3.643475	john	-0.5235602
-5.187448	john's	-0.1769715
-5.187448	johnell	-0.1782785
-5.187448	johnny	-0.2530611
-4.807446	johns	-0.2670205
-4.807446	johnson	-0.2137491
-5.187448	join	-0.1779555
-5.187448	joke	-0.1622761
-4.807446	jordan	-0.2203458
-4.807446	jordanray	-0.177788
-4.070858	joseph	-0.3565126
-5.187448	joseph's	-0.2530611
-5.187448	josh	-0.1606625
-5.187448	joshua	-0.4334166
-5.187448	joy	-0.1767372
-4.807446	joyce	-0.1585904
-4.160314	ju	-0.2183654
-5.187448	juan	-0.1761578
-5.187448	judd	-0.1781754
-4.807446	judy	-0.161974
-5.187448	juice	-0.2041193
-5.187448	julie	-0.177536
-5.187448	julien	-0.1781754
-4.807446	julio	-0.1608628
-4.807446	july	-0.2196614
-4.273107	june	-0.2072145
-4.663644	jus	-0.1751022
-2.283305	just	-0.6577086
-4.273107	justin	-0.2165734
-4.807446	jut	-0.1755819
-3.240225	k	-0.5684583
-3.708553	kalamata	-0.9488053
-4.807446	kam	-0.1755888
-4.160314	kanata	-0.3475694
-4.807446	kandivali	-0.267585
-4.663644	karam	-0.1581635
-4.160314	karen	-0.2560817
-4.807446	karla	-0.1621621
-5.187448	karwatki	-0.1585688
-5.187448	kashik	-0.2669929
-4.273107	kasia	-0.1884999
-4.425881	kate	-0.202266
-5.187448	katherine	-0.5297345
-5.187448	kathy	-0.1630122
-4.663644	katrina	-0.1754438
-3.745156	kay	-0.3450747
-4.807446	kayla	-0.1616771
-4.807446	keelan	-0.3092916
-4.807446	keele	-0.1558362
-3.674796	keep	-0.2673331
-4.425881	keeps	-0.2009873
-4.663644	kelly	-0.2331827
-5.187448	kelsey's	-0.1749413
-5.187448	kem	-0.1783403
-5.187448	kemble	-0.1777355
-4.425881	kempsford	-0.2359154
-4.160314	ken	-0.1723249
-4.807446	kendall	-0.1737951
-4.807446	kendleton	-0.2198183
-5.187448	kendra	-0.177536
-3.333059	kennedy	-0.6141816
-5.187448	kent	-0.1781067
-4.663644	kept	-0.2360446
-5.187448	kerry	-0.1630122
-3.996717	keswick	-0.1746787
-4.663644	ketchup	-0.1462452
-5.187448	ketchups	-0.1630122
-4.273107	kevin	-0.309301
-5.187448	key	-0.1782167
-5.187448	keys	-0.1630122
-5.187448	kfc	-0.1714317
-5.187448	khan	-0.2669929
-5.187448	ki	-0.1630122
-4.807446	kid	-0.1593516
-5.187448	kidd	-0.1777905
-5.187448	kiddies	-0.1630122
-4.807446	kidding	-0.2676676
-3.933408	kids	-0.1570196
-5.187448	kiki	-0.1630122
-5.187448	kill	-0.1776186
-5.187448	killa	-0.1630122
-4.807446	killamarsh	-0.2198183
-5.187448	kilometer	-0.1783128
-5.187448	kilpatrick	-0.1772883
-4.663644	kim	-0.2522861
-5.187448	kimbercroft	-0.1781205
-4.663644	kimberly	-0.2010596
-3.348102	kind	-1.202236
-4.273107	kinda	-0.205335
-4.273107	kindly	-0.1694062
-4.070858	kinds	-0.6881618
-3.451288	king	-0.9306002
-5.187448	king's	-0.1767372
-4.663644	kings	-0.172075
-5.187448	kingsbury	-0.1777905
-3.586891	kingston	-0.5198268
-4.807446	kingsway	-0.2312637
-5.187448	kinknid	-0.1765786
-3.996717	kipling	-0.3467267
-5.187448	kitchen	-0.1772719
-4.663644	kitchener	-0.4438513
-5.187448	kite	-0.1779693
-5.187448	kittens	-0.5362534
-4.425881	klondike	-0.2700163
-5.187448	knew	-0.1750382
-5.187448	knife	-0.2653224
-3.996717	knock	-0.4035864
-4.663644	knocked	-0.2298442
-5.187448	knocking	-0.177708
-3.432296	know	-0.6706043
-4.807446	known	-0.1738298
-4.663644	ksush	-0.2360102
-4.807446	kyle	-0.160405
-3.065617	l	-0.6569633
-5.187448	l-	-0.1630122
-3.878164	la	-0.1728927
-5.187448	labatte	-0.1769715
-5.187448	labelle	-0.1748236
-5.187448	lacrosse	-0.1750243
-4.807446	lactose	-0.2681076
-4.663644	lady	-0.1748156
-4.663644	lafontaine	-0.3432294
-5.187448	lag	-0.1750382
-5.187448	lagimo	-0.1779693
-4.160314	lake	-0.2666937
-5.187448	lakes	-0.2673372
-4.070858	lakeshore	-0.3372622
-5.187448	lakeside	-0.1772883
-4.807446	lalcazar	-0.1713803
-5.187448	lamar	-0.1769439
-5.187448	lambertania	-0.1749828
-5.187448	lambs	-0.1758885
-4.807446	lambsdowne	-0.2673372
-5.187448	lamont	-0.1752941
-5.187448	lamstone	-0.1767372
-5.187448	lanark	-0.2683343
-4.663644	lancaster	-0.2191188
-4.273107	landing	-0.4268562
-3.674796	lane	-0.4650961
-5.187448	lanes	-0.1779693
-5.187448	laneway	-0.178093
-5.187448	langstaff	-0.1630122
-4.663644	lansdowne	-0.1594924
-4.425881	lar	-0.1467849
-5.187448	larcher	-0.177983
-4.807446	larg	-0.16102
-2.750334	large	-0.9104994
-4.160314	larger	-0.2080431
-3.82916	larges	-0.3354309
-4.663644	largest	-0.1500734
-4.807446	larry	-0.1737951
-4.070858	lasagna	-0.4099788
-5.187448	lasagnas	-0.1630122
-2.947464	last	-1.106219
-4.273107	late	-0.1886375
-4.663644	lately	-0.1575659
-3.933408	later	-0.4285686
-5.187448	latesha	-0.1710521
-4.807446	latest	-0.1616628
-4.807446	latham	-0.2345786
-5.187448	latter	-0.1779349
-4.663644	lauderdale	-0.2702926
-5.187448	laugh	-0.1741515
-4.807446	laughter	-0.1781729
-5.187448	laura	-0.177536
-4.663644	lauren	-0.2183179
-4.807446	laurent	-0.3914427
-4.273107	laurier	-0.2433573
-5.187448	laury	-0.1783538
-5.187448	law	-0.1771574
-5.187448	law's	-0.1778799
-4.807446	lawn	-0.2179116
-3.78513	lawrence	-0.3757387
-5.187448	lawton	-0.1782029
-5.187448	lawyer	-0.1770404
-5.187448	lay	-0.1630122
-3.348102	lay's	-0.5490175
-5.187448	layer	-0.2004839
-5.187448	layman	-0.1610486
-3.290823	lays	-0.7336462
-5.187448	lazy	-0.1756329
-5.187448	lcbo	-0.1714317
-4.807446	le	-0.1756925
-5.187448	leads	-0.1756329
-4.807446	leah	-0.1779802
-5.187448	lease	-0.1782098
-4.663644	least	-0.1475964
-3.78513	leave	-0.4977851
-4.663644	leaves	-0.1698116
-5.187448	leaving	-0.1741237
-5.187448	lebel	-0.1783472
-4.807446	lebovic	-0.3082301
-4.273107	lee	-0.5346591
-5.187448	leeda	-0.1752941
-5.187448	leeuwen	-0.2332626
-3.643475	left	-0.2723741
-5.187448	leftover	-0.1630122
-5.187448	legion	-0.2670205
-5.187448	leibovich	-0.1770404
-5.187448	leigh	-0.267585
-4.160314	leila	-0.2601501
-5.187448	lemme	-0.2679289
-5.187448	lemonade	-0.1780792
-5.187448	leslie	-0.1630122
-3.451288	less	-0.507714
-2.786589	let	-1.642994
-3.163783	let's	-0.8088942
-5.187448	lets	-0.1743525
-5.187448	letter	-0.2679152
-4.663644	letters	-0.2190533
-4.273107	letting	-0.389709
-5.187448	lettuce	-0.1776736
-4.807446	level	-0.2530611
-4.807446	lewis	-0.1734897
-5.187448	lezze	-0.3686503
-4.273107	liberty	-0.2965194
-5.187448	libety	-0.1767372
-5.187448	life	-0.1630122
-5.187448	lifted	-0.1750382
-3.491959	light	-0.3394876
-5.187448	light's	-0.1779555
-3.432296	lightly	-1.008617
-5.187448	lik	-0.1630122
-2.281989	like	-0.7567492
-5.187448	likely	-0.176282
-5.187448	likes	-0.1778593
-5.187448	likings	-0.1630122
-5.187448	lilian	-0.177536
-5.187448	lillian	-0.177983
-4.807446	lima	-0.1783129
-5.187448	limbo	-0.1740891
-5.187448	limerick	-0.1770404
-5.187448	linda	-0.2530611
-5.187448	linden	-0.1770404
-4.807446	linderwood	-0.1619054
-5.187448	lindsay	-0.1630122
-3.471147	line	-0.4220759
-5.187448	line's	-0.1783472
-4.807446	lines	-0.1585688
-4.663644	link	-0.2313331
-4.807446	linked	-0.215285
-4.807446	links	-0.2447599
-5.187448	linsmore	-0.2678395
-4.425881	lisa	-0.3128311
-5.187448	lisgar	-0.1714317
-5.187448	lising	-0.1761578
-5.187448	lismore	-0.1777905
-5.187448	list	-0.1755197
-5.187448	liste	-0.1764338
-4.663644	listed	-0.1582642
-3.82916	listen	-0.2991674
-4.160314	listening	-0.3192401
-4.663644	liter	-0.1820507
-4.425881	literally	-0.2069572
-4.807446	liters	-0.159148
-5.187448	litrif	-0.1772883
-3.745156	little	-0.5290945
-5.187448	littler	-0.1783538
-4.273107	live	-0.2415961
-5.187448	lived	-0.177302
-5.187448	liverpool	-0.1767372
-5.187448	living	-0.1752734
-4.807446	livingston	-0.3079133
-4.807446	liz	-0.1621621
-4.807446	lo	-0.175416
-5.187448	load	-0.1745717
-4.807446	loaded	-0.1723213
-3.996717	loading	-0.1986394
-5.187448	lob	-0.1741237
-3.996717	lobby	-0.4523695
-4.663644	loblaws	-0.2172645
-4.273107	local	-0.2011194
-3.643475	located	-0.4514302
-5.187448	locating	-0.1750243
-2.992295	location	-0.7221841
-3.933408	locations	-0.1711416
-4.807446	locust	-0.2358797
-4.425881	lodge	-0.158745
-3.78513	log	-0.7534844
-5.187448	logan	-0.1770404
-4.807446	logged	-0.2650318
-4.807446	logging	-0.172189
-5.187448	lon	-0.1769439
-3.78513	london	-0.4583327
-3.78513	long	-0.2749366
-4.273107	longer	-0.1954709
-4.807446	longsworth	-0.1670953
-3.878164	longworth	-0.2720591
-3.471147	look	-0.2461846
-5.187448	looked	-0.1767716
-3.708553	looking	-0.9490139
-3.878164	looks	-0.6798481
-4.807446	loren	-0.1597218
-5.187448	lorimar	-0.1772883
-5.187448	lorne	-0.1767372
-4.807446	lose	-0.1737743
-4.160314	lost	-0.2546809
-4.425881	lot	-0.4400549
-3.78513	lots	-0.6748703
-4.425881	loud	-0.1579665
-4.160314	louder	-0.3035267
-4.807446	loudly	-0.2530611
-5.187448	louie	-0.1630122
-5.187448	lounge	-0.1630122
-4.160314	love	-0.1833708
-4.663644	lovely	-0.1706556
-4.807446	lover	-0.261566
-5.187448	lover's	-0.1917439
-5.187448	lovers	-0.2871279
-4.807446	low	-0.2353882
-4.663644	lowell	-0.2710032
-5.187448	lower	-0.175416
-5.187448	loy	-0.1768543
-4.807446	loyalist	-0.2683893
-4.273107	loyalty	-0.2896666
-5.187448	ls	-0.1630122
-5.187448	luck	-0.1630122
-5.187448	lucky	-0.1777493
-5.187448	luke	-0.1630122
-5.187448	lulud	-0.1769439
-5.187448	luna	-0.1769439
-5.187448	lunch	-0.175467
-4.070858	lundy's	-0.6771833
-5.187448	luxury	-0.177444
-5.187448	lying	-0.1756329
-5.187448	lyle	-0.1761578
-4.807446	lyn	-0.1710705
-4.807446	lynn	-0.1621621
-2.947464	m	-0.6320094
-3.996717	ma	-0.1629653
-2.521389	ma'am	-0.6968093
-5.187448	mabelle	-0.1770404
-4.663644	mac	-0.2210415
-5.187448	macalister	-0.1774784
-5.187448	macaroni	-0.1714317
-4.425881	macarthur	-0.1499762
-4.160314	maccallum	-0.3243077
-4.663644	machine	-0.1859511
-5.187448	macintosh	-0.1772883
-5.187448	mack	-0.1714317
-5.187448	macken	-0.1781754
-4.807446	mackenzie	-0.5121869
-5.187448	mackinac	-0.3087323
-4.663644	macklin	-0.1719913
-4.663644	macpherson	-0.2568279
-3.674796	madam	-0.3019118
-5.187448	madame	-0.1749828
-5.187448	madden	-0.1780036
-3.491959	made	-0.2787195
-5.187448	mae	-0.2530611
-5.187448	maggie	-0.1764959
-5.187448	magic	-0.178306
-4.807446	magnolia	-0.1616485
-5.187448	mahir	-0.1778662
-5.187448	mahmoud	-0.1769439
-5.187448	maid	-0.2683
-5.187448	mail	-0.1630122
-3.471147	main	-0.6579568
-5.187448	maine	-0.1714317
-5.187448	mains	-0.1767372
-5.187448	maitland	-0.2670893
-3.30445	major	-0.8524716
-2.966114	make	-0.8696043
-4.160314	makes	-0.3548228
-3.78513	making	-0.3428511
-5.187448	malcolm	-0.1777905
-5.187448	male	-0.1751073
-5.187448	males	-0.1772194
-4.807446	malia	-0.1624756
-5.187448	malik	-0.1778662
-3.240225	mall	-0.3403848
-4.807446	mallisa	-0.1626964
-4.273107	malton	-0.2017055
-5.187448	mam	-0.1769439
-5.187448	mama	-0.1765855
-3.745156	man	-0.2770412
-4.425881	manager	-0.1518399
-5.187448	managers	-0.1749413
-5.187448	manchester	-0.1751073
-5.187448	mandeep	-0.2683988
-5.187448	manice	-0.1630122
-4.807446	manitoba	-0.2300811
-5.187448	manly	-0.2667862
-4.425881	mannering	-0.4480448
-4.807446	manny	-0.2529142
-4.425881	manor	-0.1699579
-3.996717	manotick	-0.2257187
-4.807446	manually	-0.1736702
-4.160314	many	-0.5443883
-4.663644	map	-0.1714169
-5.187448	mapel	-0.1752941
-3.996717	maple	-0.1999599
-4.807446	maples	-0.1769345
-5.187448	mapping	-0.1573065
-5.187448	mar	-0.1769439
-5.187448	marc	-0.1769439
-4.807446	march	-0.2667862
-4.807446	mareus	-0.1759412
-5.187448	margaret	-0.2678026
-5.187448	margo	-0.1778662
-4.663644	maria	-0.2170358
-4.425881	marie	-0.2051959
-4.663644	marilyn	-0.2167764
-5.187448	marina	-0.1778662
-3.471147	marinara	-0.4892102
-5.187448	marinaras	-0.174135
-4.273107	mario	-0.1749718
-3.536836	mark	-0.4050084
-5.187448	marked	-0.1783498
-4.663644	market	-0.2209153
-5.187448	marketplace	-0.1741237
-3.586891	markham	-0.4779834
-5.187448	marking	-0.1776667
-5.187448	marla	-0.1586551
-5.187448	marsh	-0.2679289
-5.187448	marsha	-0.1757754
-4.807446	mart	-0.2637623
-4.160314	martin	-0.6552448
-5.187448	martindale	-0.2678395
-5.187448	martins	-0.1762449
-4.807446	marvin	-0.2682656
-3.878164	mary	-0.1901965
-4.070858	maryhill	-0.2937118
-5.187448	maryl	-0.1778662
-5.187448	master	-0.1751073
-3.674796	mastercard	-0.4998414
-5.187448	match	-0.1751073
-5.187448	matches	-0.175467
-5.187448	mathers	-0.1770404
-4.807446	mathew	-0.2658891
-5.187448	matt	-0.1630122
-4.663644	matter	-0.3432745
-4.807446	matters	-0.1736979
-4.807446	matthew	-0.178343
-4.807446	maureen	-0.1742876
-4.160314	max	-0.3982047
-4.273107	maximum	-0.2117167
-2.488451	may	-1.824229
-5.187448	maya	-0.1630122
-2.941422	maybe	-0.3326656
-4.425881	mayfield	-0.2102361
-5.187448	mayonnaise	-0.175467
-4.425881	mc	-0.2209567
-3.933408	mcarthur	-0.2749783
-4.425881	mccabe	-0.3541508
-5.187448	mccavanagh	-0.2530611
-4.425881	mccowan	-0.2472714
-5.187448	mcdonald	-0.1630122
-4.425881	mcdonald's	-0.2104986
-5.187448	mcdonalds	-0.1714317
-5.187448	mcdonnell	-0.1781686
-5.187448	mcewen	-0.1619054
-5.187448	mcfarlane	-0.1767372
-5.187448	mcgill	-0.2667862
-5.187448	mcglocklin	-0.1550806
-4.807446	mcivor	-0.2680182
-5.187448	mckavanagh	-0.1780861
-4.807446	mckenzie	-0.2476051
-5.187448	mcla	-0.1764338
-5.187448	mclaighlin	-0.1749828
-5.187448	mclaugh	-0.1778662
-3.708553	mclaughlin	-0.3114482
-5.187448	mcleese	-0.1772883
-5.187448	mclevin	-0.1714317
-5.187448	mcphillip	-0.1772194
-4.663644	mcphillip's	-0.1984993
-4.273107	mcphillips	-0.2839061
-2.770101	me	-0.698962
-4.807446	meadow	-0.1782416
-5.187448	meadowacres	-0.1772883
-5.187448	meadowland	-0.1772883
-4.807446	meadowvale	-0.2614807
-4.807446	meadowville	-0.1682566
-3.996717	meal	-1.064481
-5.187448	meals	-0.1779143
-4.160314	mean	-0.2573476
-5.187448	meaning	-0.1766338
-4.273107	means	-0.1525511
-4.663644	meant	-0.1557148
-5.187448	meantime	-0.1740102
-3.184286	meat	-0.5987456
-3.933408	meatball	-0.2058654
-3.708553	meatballs	-0.4032025
-5.187448	meatlover	-0.1630122
-3.996717	meatlovers	-0.2927293
-4.807446	meats	-0.161834
-4.425881	med	-0.1556038
-4.807446	medhurst	-0.1619054
-4.425881	medi	-0.1531026
-5.187448	medical	-0.2682656
-3.745156	mediterranean	-0.3634961
-3.933408	mediterranian	-0.196156
-5.187448	mediu	-0.1741515
-2.774165	medium	-0.7714369
-4.807446	medium's	-0.1735244
-4.070858	mediums	-0.3398555
-5.187448	medley	-0.1738506
-5.187448	medliro	-0.1781205
-3.996717	meet	-0.224727
-4.807446	meeting	-0.1776573
-3.643475	mega	-1.447348
-4.807446	mel	-0.1733924
-5.187448	melania	-0.1783403
-4.425881	melanie	-0.1570182
-5.187448	melissa	-0.1760887
-5.187448	melrose	-0.1770404
-5.187448	melt	-0.1524789
-5.187448	melton	-0.1630122
-4.807446	men	-0.1626465
-5.187448	mena	-0.1760818
-4.160314	mention	-0.2054665
-4.070858	mentioned	-0.219163
-5.187448	mentioning	-0.1777974
-3.708553	menu	-0.2215102
-5.187448	mer	-0.1761578
-4.807446	mercer	-0.2352124
-5.187448	merchant	-0.2670893
-5.187448	meridene	-0.1777905
-4.663644	merivale	-0.2346338
-4.663644	merlin	-0.307679
-4.807446	message	-0.1712407
-5.187448	messed	-0.1776599
-5.187448	messes	-0.1776186
-5.187448	meters	-0.1783128
-4.807446	method	-0.1611701
-4.663644	metro	-0.1765045
-5.187448	mew	-0.1781067
-4.807446	mews	-0.2054027
-5.187448	meyer	-0.1630122
-4.807446	mhm	-1.396616
-4.807446	mi	-0.1670741
-4.425881	michael	-0.3124848
-4.425881	michelle	-0.3449615
-5.187448	microphone's	-0.1782235
-5.187448	mid	-0.1782098
-4.663644	middle	-0.4573178
-4.160314	midland	-0.230746
-3.643475	might	-0.4884914
-5.187448	might've	-0.1782235
-5.187448	miguel	-0.1630122
-5.187448	miikan	-0.3092065
-4.160314	mike	-0.3152962
-5.187448	mikhael	-0.177536
-3.153883	mild	-0.7427474
-5.187448	milgate	-0.1778662
-5.187448	military	-0.1783538
-4.807446	milk	-0.2128971
-5.187448	milks	-0.1558362
-4.070858	mill	-0.329409
-5.187448	millcroft	-0.1781617
-4.807446	milliliter	-0.1764933
-5.187448	millimeter	-0.1783498
-4.273107	mills	-0.4008889
-4.273107	millstone	-0.3493813
-5.187448	millvervue	-0.1777905
-4.273107	milton	-0.3737277
-4.070858	mind	-0.2788772
-4.273107	mine	-0.1630727
-4.807446	minet's	-0.2683206
-4.807446	mini	-0.219326
-4.425881	minimum	-0.1962015
-5.187448	minister	-0.1782373
-4.807446	minowan	-0.3092956
-4.663644	minus	-0.1688203
-3.745156	minute	-0.3015406
-3.513818	minutes	-0.8825303
-4.807446	minutes'	-0.2678601
-4.663644	miriam	-0.1998354
-5.187448	mis	-0.1760887
-5.187448	mishav	-0.177302
-5.187448	mishem	-0.177302
-5.187448	mishiv	-0.267351
-5.187448	mispronounce	-0.1750382
-3.228446	miss	-0.3486564
-4.663644	missed	-0.3139801
-4.663644	missing	-0.1714544
-5.187448	missisauga	-0.1630122
-5.187448	mississ	-0.1741237
-5.187448	mississa	-0.1758401
-3.240225	mississauga	-0.5581402
-5.187448	missy	-0.1778662
-5.187448	mist	-0.1760956
-4.807446	mistake	-0.1850162
-4.663644	mistaken	-0.1587602
-5.187448	mistakes	-0.1749413
-5.187448	mister	-0.1741237
-5.187448	misunderstanding	-0.1740891
-4.807446	misunderstood	-0.1700243
-5.187448	mitch	-0.1630122
-5.187448	mitchell	-0.1768543
-4.273107	mix	-0.2289948
-3.996717	mixed	-0.4436738
-4.663644	mixing	-0.23245
-4.807446	mixture	-0.2334348
-3.057702	mm	-1.661084
-4.273107	mmm	-0.1509731
-5.187448	mo	-0.1741515
-4.807446	mobile	-0.237222
-5.187448	mock	-0.1780861
-5.187448	mode	-0.1764407
-5.187448	model	-0.1630122
-4.807446	modified	-0.2137491
-5.187448	modify	-0.170556
-4.663644	mohawk	-0.2308785
-4.807446	mohib	-0.160405
-5.187448	moira	-0.1762449
-5.187448	molten	-0.1751073
-3.745156	mom	-0.1691988
-4.807446	mom's	-0.1739963
-5.187448	momen	-0.1773846
-3.878164	moment	-0.577531
-5.187448	moments	-0.1782922
-5.187448	mommy	-0.1748236
-5.187448	mommy's	-0.1778799
-4.807446	moms	-0.1557322
-5.187448	mona	-0.4328245
-4.663644	monaco	-0.2360266
-5.187448	monarch	-0.2682107
-5.187448	monday	-0.1777974
-3.643475	money	-0.2781711
-5.187448	monica	-0.4334166
-5.187448	monico	-0.1778662
-4.663644	monique	-0.5303266
-5.187448	monlith	-0.1630122
-4.663644	mono	-0.293954
-5.187448	monoyo	-0.1778799
-5.187448	montego	-0.2678395
-4.807446	monterey	-0.2678395
-4.807446	month	-0.1554283
-4.425881	months	-0.1850853
-4.070858	montreal	-0.3863328
-5.187448	mood	-0.178251
-5.187448	moon	-0.6341292
-5.187448	moore	-0.1625041
-2.941422	more	-0.3325163
-5.187448	morgan	-0.1772883
-4.663644	morning	-0.2510346
-5.187448	morningside	-0.1714317
-4.807446	mosley	-0.2667862
-3.674796	most	-0.4141767
-4.160314	mostly	-0.1696538
-4.807446	motel	-0.172189
-4.663644	mother	-0.1558263
-5.187448	mother's	-0.1714317
-4.807446	motherland	-0.1585904
-3.996717	mount	-0.3162387
-3.878164	mountain	-0.2874207
-5.187448	mountainview	-0.1769715
-5.187448	mounty	-0.1783538
-4.273107	move	-0.2081448
-4.663644	moved	-0.1576236
-5.187448	moxley	-0.1764795
-5.187448	moz	-0.1630122
-5.187448	mozz	-0.1783334
-3.432296	mozzarella	-0.6819707
-5.187448	mr	-0.1782304
-5.187448	ms	-0.1783498
-4.160314	mu	-0.1598614
-3.643475	much	-0.8098246
-3.878164	mud	-0.909739
-5.187448	muffling	-0.1749828
-5.187448	mug's	-0.1780861
-5.187448	mukesh	-0.1630122
-5.187448	mulock	-0.1772883
-4.425881	multi	-0.2323869
-3.745156	multigrain	-0.2885023
-4.807446	multiple	-0.1708426
-5.187448	mum's	-0.1779624
-4.663644	mumtaz	-0.293954
-4.663644	munch	-0.356706
-5.187448	munser	-0.1778662
-5.187448	muriel	-0.1630122
-5.187448	murphy	-0.1630122
-5.187448	murray	-0.1741237
-4.663644	mush	-0.1573426
-2.947464	mushroom	-0.7641563
-2.901325	mushrooms	-0.794909
-5.187448	music	-0.5158027
-4.273107	muskoka	-0.3633254
-3.933408	must	-0.5876095
-4.663644	mustard	-0.3214643
-2.567052	my	-0.6905678
-3.78513	myself	-0.1984646
-5.187448	mystic	-0.2670893
-3.065617	n	-0.6960276
-4.273107	na	-0.1692597
-4.160314	nacho	-1.086378
-4.807446	nachos	-0.2824996
-4.663644	nadia	-0.2344821
-4.807446	nah	-0.265516
-3.042292	name	-1.002887
-4.663644	name's	-0.2017258
-5.187448	names	-0.16102
-5.187448	nan	-0.177536
-3.878164	nancy	-0.2635488
-4.425881	nantes	-0.2066098
-4.807446	nanwood	-0.1501814
-4.160314	napkins	-0.1550564
-5.187448	narrowing	-0.1781617
-4.807446	nash	-0.1615772
-4.273107	natalie	-0.2076221
-4.425881	nate	-0.2705134
-5.187448	national	-0.1782716
-4.807446	native	-0.2683824
-5.187448	natural	-0.1783538
-4.807446	navaho	-0.2673372
-4.807446	navneet	-0.1630051
-5.187448	navy	-0.1586551
-4.807446	naz	-0.174731
-5.187448	nazir	-0.1751073
-5.187448	nd	-0.1770472
-4.807446	ne	-0.1622904
-3.290823	near	-0.3026492
-4.273107	nearby	-0.1548502
-4.160314	nearest	-0.2400208
-3.491959	need	-0.6490345
-4.273107	needed	-0.2257886
-4.425881	needs	-0.3888402
-5.187448	neighborhood	-0.1630122
-5.187448	nelly	-0.1714317
-4.807446	nelson	-0.1637603
-5.187448	nepean	-0.1630122
-5.187448	nephew	-0.1630122
-5.187448	nes	-0.1714317
-4.425881	ness	-0.1906123
-5.187448	nest	-0.1783538
-3.153883	nestea	-0.5565436
-4.425881	nestea's	-0.2029808
-4.273107	nesteas	-0.3777827
-4.807446	nestle	-0.1778017
-3.414101	never	-0.3194592
-3.134736	new	-0.6740593
-5.187448	newcastle	-0.1630122
-5.187448	newly	-0.1783498
-4.160314	newmarket	-0.3196244
-3.363686	next	-0.7945266
-4.807446	neyagawa	-0.1713593
-4.160314	ni	-0.1943845
-3.708553	niagara	-0.9140732
-5.187448	niagra	-0.1783334
-3.878164	nice	-0.7858329
-4.807446	nicholas	-0.270686
-5.187448	nick	-0.1630122
-4.807446	nicole	-0.293954
-5.187448	nielsen	-0.1760818
-3.996717	night	-0.8971232
-5.187448	nin	-0.1752319
-4.807446	nina	-0.1754644
-5.187448	nina's	-0.177983
-2.766075	nine	-1.00318
-2.929583	nineteen	-0.799926
-3.116398	ninety	-1.516165
-4.273107	nino	-0.1944515
-4.663644	ninth	-0.2709136
-5.187448	nia	-0.177536
-2.446169	no	-0.7324752
-5.187448	no's	-0.1558362
-5.187448	noah	-0.1741237
-4.425881	noble	-0.2472775
-4.663644	nobody	-0.1757795
-5.187448	nobody's	-0.1778937
-5.187448	noel	-0.177983
-4.807446	noise	-0.2102734
-4.807446	noisy	-0.1752224
-3.933408	non	-0.3474486
-4.273107	nondairy	-0.2914125
-4.273107	none	-0.4454021
-3.878164	nope	-0.5136467
-4.807446	nor	-0.1781824
-4.807446	noreen	-0.3070996
-5.187448	norika	-0.177983
-4.807446	norland	-0.2358247
-5.187448	norma	-0.2530611
-3.78513	normal	-0.2046412
-3.674796	normally	-0.1960633
-5.187448	norman	-0.1781892
-3.216978	north	-0.6014243
-4.425881	northbay	-0.1981881
-5.187448	northeast	-0.2357972
-5.187448	northern	-0.1779555
-4.807446	northgate	-0.2679289
-5.187448	northmount	-0.177983
-4.070858	northwest	-0.3091518
-4.425881	northwood	-0.1932959
-5.187448	norton	-0.1758885
-2.666267	not	-0.3193225
-5.187448	nota	-0.1782853
-5.187448	notated	-0.1752734
-5.187448	notation	-0.1752734
-3.996717	note	-0.3898977
-4.807446	noted	-0.1760724
-4.663644	notes	-0.2127646
-5.187448	noth	-0.1783498
-3.396637	nothing	-0.2569687
-4.807446	nothing's	-0.1781961
-5.187448	notification	-0.2684028
-5.187448	notify	-0.3052943
-5.187448	nova	-0.2648726
-5.187448	november	-0.1779693
-2.574722	now	-0.6409348
-5.187448	nu	-0.1731909
-5.187448	nugget	-0.170672
-4.807446	nuggets	-0.2651563
-4.807446	num	-0.1722099
-5.187448	numb	-0.1779624
-5.187448	numbe	-0.1764407
-2.854677	number	-0.9649307
-4.807446	number's	-0.2493705
-4.160314	numbers	-0.1651892
-5.187448	nuno	-0.177983
-4.425881	nut	-0.248519
-4.807446	nutritional	-0.3092916
-4.807446	nuts	-0.1706749
-3.049929	o	-0.6923757
-4.807446	o'	-0.1752155
-4.663644	o'clock	-0.2553019
-4.663644	oak	-0.1672748
-5.187448	oakfield	-0.1782991
-5.187448	oakland	-0.1772883
-4.807446	oakley	-0.3023735
-4.807446	oakridge	-0.2359484
-5.187448	oaks	-0.17814
-3.78513	oakville	-0.4528421
-4.807446	oakwood	-0.1759964
-5.187448	oaky	-0.1766131
-4.663644	observation	-0.2354395
-4.807446	observatory	-0.162981
-4.160314	obviously	-0.1605062
-5.187448	occan	-0.1740683
-5.187448	oesto	-0.1751696
-2.388747	of	-0.8258879
-3.264787	off	-0.2580392
-3.451288	offer	-0.9682272
-4.663644	offered	-0.2102523
-4.160314	offering	-0.332214
-4.807446	offers	-0.1712381
-4.425881	office	-0.1639618
-5.187448	offices	-0.1714317
-4.807446	officially	-0.1762932
-5.187448	often	-0.1779418
-4.807446	ogilvie	-0.1700243
-5.187448	ogilvy	-0.1769715
-2.528287	oh	-0.7772942
-4.160314	oil	-0.3500751
-5.187448	oils	-0.1779349
-5.187448	oily	-0.1712616
-3.674796	ok	-0.2707251
-5.187448	oka	-0.1559854
-2.009742	okay	-1.008192
-4.807446	okey	-0.3092956
-4.663644	ol	-0.1706513
-3.586891	old	-0.3370712
-5.187448	olds	-0.1630122
-5.187448	oli	-0.1775567
-3.264787	olive	-0.5789049
-5.187448	oliver	-0.1630122
-3.348102	olives	-0.6694083
-5.187448	olsen	-0.1769439
-4.273107	omar	-0.2164649
-2.150323	on	-0.9144843
-3.363686	once	-0.7634307
-2.144537	one	-0.8575708
-3.996717	one's	-0.1913303
-3.30445	ones	-0.3149786
-5.187448	ongoing	-0.1780036
-5.187448	oni	-0.1767992
-3.013022	onion	-0.7009245
-3.057702	onions	-0.6429154
-5.187448	onle	-0.1764614
-3.290823	online	-0.3273815
-2.738892	only	-0.4017175
-5.187448	ont	-0.1630122
-2.844958	ontario	-0.6338782
-5.187448	onto	-0.2661377
-5.187448	ooh	-0.1706888
-4.807446	oops	-0.1720654
-3.878164	open	-0.1900275
-4.807446	opened	-0.1745232
-5.187448	opening	-0.1714317
-5.187448	opposed	-0.2656819
-4.070858	opposite	-0.3232463
-3.536836	option	-0.3366523
-3.82916	options	-0.3852191
-2.127628	or	-0.7410161
-3.30445	orange	-0.5865813
-4.807446	oranges	-0.1977841
-4.070858	orangeville	-0.4691257
-3.996717	orchard	-0.2624961
-5.187448	ord	-0.1740683
-5.187448	orde	-0.1743525
-2.666267	order	-0.9242916
-4.425881	order's	-0.1879615
-3.536836	ordered	-0.4483224
-3.586891	ordering	-0.2946426
-3.513818	orders	-0.3020002
-4.807446	oregano	-0.1558362
-5.187448	oregon	-0.1630122
-5.187448	organized	-0.1767234
-5.187448	origin	-0.1765786
-3.996717	original	-0.2925441
-4.160314	orillia	-0.369398
-5.187448	orion	-0.1781205
-5.187448	orlean	-0.1779693
-3.745156	orleans	-0.4888197
-5.187448	osborne	-0.1770404
-4.425881	oscar	-0.1902386
-3.878164	oshawa	-0.4629915
-5.187448	osman	-0.1761578
-5.187448	oth	-0.1752734
-5.187448	othe	-0.1714317
-3.12547	other	-0.7976369
-4.807446	others	-0.1553993
-3.561142	otherwise	-0.3909231
-3.586891	ottawa	-0.5276567
-4.807446	ottawasca	-0.1780698
-4.807446	otter	-0.1763484
-5.187448	ottowa	-0.1630122
-5.187448	ou	-0.1761578
-5.187448	ought	-0.1756329
-5.187448	ould	-0.1740683
-5.187448	ounce	-0.1741515
-3.034787	our	-0.2728626
-4.807446	ours	-0.1745855
-3.107511	out	-0.399009
-5.187448	outport	-0.1767372
-3.933408	outside	-0.2089391
-3.163783	over	-0.4756802
-4.807446	overall	-0.160405
-5.187448	overhill	-0.1740683
-4.807446	overlea	-0.1554283
-5.187448	override	-0.1736728
-4.160314	owen	-0.5714883
-4.070858	own	-0.357541
-4.807446	owner	-0.1761828
-5.187448	ownership	-0.1771781
-3.057702	p	-0.7967392
-4.425881	p.m	-0.1988897
-4.663644	pa	-0.172263
-5.187448	pablo	-0.1710452
-3.78513	pack	-0.3773148
-3.878164	package	-0.1874118
-4.807446	packets	-0.2666276
-4.663644	packs	-0.3368047
-4.425881	page	-0.1471805
-3.933408	paid	-0.4164805
-5.187448	pal	-0.1630122
-5.187448	palomino	-0.2673372
-5.187448	pamela	-0.1772883
-5.187448	pampero	-0.1779761
-3.878164	pan	-0.4197836
-5.187448	panda	-0.1714317
-4.807446	pans	-0.1702762
-5.187448	panz	-0.1749828
-5.187448	panzero	-0.1773846
-5.187448	panzerott	-0.1782098
-3.471147	panzerotti	-0.3119935
-3.745156	panzerottis	-0.3133959
-4.663644	panzo	-0.1710818
-4.663644	panzos	-0.2030267
-3.933408	paper	-0.6552235
-5.187448	paprika	-0.1714317
-5.187448	par	-0.1630122
-5.187448	paramount	-0.1563178
-5.187448	pard	-0.1781548
-3.333059	pardon	-1.295035
-3.348102	park	-0.4339172
-5.187448	parkdale	-0.1778799
-4.663644	parkedale	-0.2280072
-5.187448	parker	-0.1630122
-4.273107	parking	-0.5704447
-4.807446	parkland	-0.1767941
-5.187448	parklawn	-0.1630122
-5.187448	parks	-0.1741237
-4.273107	parkside	-0.3226506
-4.425881	parkway	-0.2417597
-3.643475	parkwood	-0.5750582
-4.663644	parkwoods	-0.3090485
-4.160314	parliament	-0.3850878
-5.187448	parmbelle	-0.1777905
-3.586891	parmesan	-0.6154609
-3.78513	part	-0.4915156
-5.187448	participate	-0.1749828
-5.187448	participated	-0.1749828
-4.273107	particular	-0.2037971
-5.187448	particularly	-0.1764338
-5.187448	parties	-0.1630122
-4.807446	parts	-0.1585904
-5.187448	partway	-0.1781205
-3.30445	party	-0.9755899
-3.996717	pass	-0.2117147
-5.187448	passcode	-0.1756329
-4.663644	password	-0.218933
-4.425881	past	-0.1952977
-4.807446	pasta	-0.1554355
-5.187448	pastas	-0.1630122
-4.663644	patch	-0.1713009
-4.807446	patience	-0.2419326
-4.807446	patient	-0.1718127
-5.187448	patio	-0.1773915
-4.663644	patricia	-0.2569418
-4.425881	patrick	-0.1809899
-5.187448	patsie	-0.1630122
-4.663644	patty	-0.293954
-4.425881	paul	-0.1476921
-5.187448	paulette	-0.2530611
-5.187448	pauline	-0.2662067
-3.333059	pay	-0.8310077
-3.333059	paying	-0.8146871
-3.82916	payment	-0.2651791
-4.807446	payment's	-0.2683988
-4.807446	payments	-0.1587314
-5.187448	pays	-0.1760956
-4.807446	pe	-0.1776091
-4.807446	peach	-0.2683893
-4.807446	peakview	-0.1745786
-5.187448	peanut	-0.2683893
-4.807446	peanuts	-0.2530611
-4.663644	peek	-0.2300393
-4.807446	pembina	-0.2682313
-4.807446	pembroke	-0.2340267
-5.187448	pendrith	-0.1767372
-5.187448	pennies	-0.1782922
-3.432296	people	-0.1656406
-3.708553	pep	-0.2407745
-5.187448	peper	-0.1778662
-3.82916	peperoni	-0.2415478
-5.187448	pepp	-0.1741515
-5.187448	peppe	-0.1758885
-3.216978	pepper	-0.7125521
-3.491959	peppercorn	-1.199145
-4.663644	peppero	-0.1727572
-5.187448	pepperon	-0.1766131
-2.577309	pepperoni	-0.9044235
-4.807446	pepperoni's	-0.1586263
-4.070858	pepperonis	-0.1729927
-3.451288	peppers	-0.7638811
-5.187448	peps	-0.1760931
-3.614262	pepsi	-0.5015802
-4.807446	pepsis	-0.2530611
-3.745156	per	-0.2163841
-3.933408	percent	-0.1961842
-5.187448	percentage	-0.1740683
-5.187448	percentages	-0.1748236
-5.187448	percentagewise	-0.1768543
-5.187448	percy	-0.177302
-5.187448	perf	-0.1777974
-2.890517	perfect	-0.7471384
