
\data\
ngram 1=6539
ngram 2=57666
ngram 3=40855

\1-grams:
-4.617284	'	-0.1467731
-4.617284	'cause	-0.1475273
-4.617284	'd	-0.1465693
-4.617284	'em	-0.1476102
-4.617284	'nduja	-0.146675
-4.617284	'no	-0.1477538
-4.617284	'nono'	-0.1276297
-4.617284	'pie'	-0.1453668
-4.024064	'za	-0.148454
-3.600878	1	-0.1737595
-4.617284	1a	-0.1276297
-4.617284	1large	-0.1476403
-4.617284	1o	-0.1467957
-4.370732	1pm	-0.1272279
-4.111997	1st	-0.1412192
-4.617284	1topping	-0.1425177
-4.617284	1up	-0.1276297
-3.494787	2	-0.2386733
-4.617284	2garlic	-0.1477081
-4.617284	2hr	-0.1475348
-4.024064	2l	-0.2360778
-4.617284	2letier	-0.1476478
-3.888427	2liter	-0.2349154
-4.222375	2liters	-0.2972077
-3.888427	2nd	-0.1316567
-4.617284	2rd	-0.1432108
-4.024064	2topping	-0.2292788
-4.617284	2toppings	-0.1276297
-4.617284	2x1	-0.1477307
-3.571829	3	-0.2582145
-4.617284	3cheese	-0.147678
-3.833766	3rd	-0.1743855
-4.47778	3topping	-0.1411093
-4.617284	3yearolds	-0.1276297
-3.701895	4	-0.2049418
-3.950971	4th	-0.1457797
-3.665549	5	-0.1408264
-4.47778	5pm	-0.1438689
-4.370732	5th	-0.16334
-4.370732	6	-0.1439263
-4.617284	6pc	-0.1462897
-4.617284	6pm	-0.1276297
-4.111997	7	-0.1215941
-4.617284	7ocklock	-0.1469618
-4.617284	7oclock	-0.1469618
-4.47778	7pm	-0.1267891
-4.47778	7th	-0.1306227
-4.617284	7up	-0.1276297
-4.024064	8	-0.3013471
-4.47778	8corner	-0.1426743
-4.617284	8piece	-0.1477538
-4.222375	8pm	-0.2522334
-4.617284	8th	-0.1472333
-4.617284	8ths	-0.1450411
-4.47778	9	-0.1274999
-4.47778	9th	-0.1706961
-1.343871	</s>
-99	<s>	-1.080833
-2.125983	a	-0.3582832
-4.617284	a2	-0.1477307
-4.617284	aaron	-0.1475876
-4.617284	abbott	-0.1428723
-4.617284	abby	-0.1432032
-4.617284	abc	-0.1276297
-4.47778	abc's	-0.122859
-4.617284	abd	-0.1464333
-4.617284	abgout	-0.1432032
-4.47778	ability	-0.1435953
-3.950971	able	-0.568365
-4.617284	abll	-0.1431803
-4.617284	abosuolutely	-0.1276297
-4.617284	abother	-0.1461688
-4.617284	abour	-0.1477498
-2.790314	about	-0.2055076
-4.617284	above	-0.1386244
-4.617284	abracadabra	-0.1273973
-3.888427	absolutely	-0.08560645
-4.617284	absolutley	-0.1462066
-4.370732	accept	-0.1248447
-4.47778	acceptable	-0.2395264
-4.617284	accepted	-0.1276297
-4.47778	accepting	-0.2593788
-4.47778	accepts	-0.1473505
-4.617284	access	-0.1276297
-4.617284	accompany	-0.1476252
-4.617284	accomplice	-0.143766
-4.617284	accont	-0.1443357
-4.111997	according	-0.5466005
-3.187401	account	-0.2582873
-4.024064	accurate	-0.3054594
-4.617284	aces	-0.1276297
-4.47778	achovies	-0.138809
-4.617284	acknowledged	-0.1476403
-4.370732	across	-0.3241889
-4.617284	acted	-0.1477538
-4.617284	acting	-0.1465693
-4.370732	action	-0.1250035
-4.617284	actual	-0.1465693
-3.032925	actually	-0.1181545
-4.617284	acv	-0.1471504
-4.617284	ad	-0.1477498
-4.617284	adams	-0.1472333
-2.871866	add	-0.3108886
-2.951658	added	-0.353179
-3.741564	adding	-0.1863889
-4.222375	addition	-0.1363812
-3.338399	additional	-0.2330423
-4.617284	additionally	-0.1454577
-4.47778	additions	-0.1198139
-4.617284	additives	-0.143766
-4.617284	additonal	-0.1476554
-4.617284	addons	-0.1276297
-4.617284	addrees	-0.1276297
-3.355134	address	-0.2811424
-4.617284	addresses	-0.1462822
-4.47778	adds	-0.1419497
-4.617284	addwingsandsoda	-0.1475725
-4.617284	adjust	-0.1408722
-4.47778	adjusted	-0.1431769
-4.47778	adjustment	-0.1445523
-4.617284	adress	-0.1459722
-4.617284	adrress	-0.1473992
-4.370732	adults	-0.1267228
-4.617284	advance	-0.1418887
-4.617284	adventurist	-0.1468033
-4.370732	adventurous	-0.1245668
-4.617284	advertised	-0.1276297
-4.617284	advertising	-0.1438724
-4.617284	advised	-0.1457756
-4.617284	aeropostale	-0.1276297
-4.370732	affect	-0.2527689
-4.617284	afford	-0.1391513
-4.617284	afloat	-0.1276297
-4.617284	afraid	-0.1342308
-4.617284	afreaid	-0.1444495
-4.617284	afredo	-0.1394425
-3.26322	after	-0.3587182
-4.222375	afterbake	-0.1151148
-4.111997	afternoon	-0.199315
-4.617284	afterwards	-0.1276297
-3.084631	again	-0.3909759
-4.617284	aged	-0.143766
-4.024064	ago	-0.1846866
-4.370732	agostinos	-0.1902182
-4.617284	agreat	-0.1475876
-4.370732	agree	-0.1739325
-4.617284	agreed	-0.1477232
-4.617284	agreement	-0.1276297
-4.222375	ah	-0.1429287
-4.617284	ah'	-0.1425177
-4.617284	aha	-0.1276297
-3.950971	ahead	-0.1274298
-4.617284	ahhh	-0.1470146
-4.617284	ahhhh	-0.1477538
-4.222375	ahi	-0.1997392
-4.617284	ahthey	-0.1477156
-4.47778	ai	-0.1356467
-4.370732	ain't	-0.1464154
-4.617284	air	-0.1477538
-4.617284	akso	-0.145488
-4.617284	al	-0.1276297
-4.617284	ala	-0.1477538
-4.617284	alamia	-0.1432564
-4.617284	alamitos	-0.1227799
-4.617284	alarm	-0.1433097
-4.617284	alba's	-0.1425177
-4.617284	albania	-0.1425177
-4.617284	albums	-0.1276297
-4.617284	alcohol	-0.1276297
-4.617284	ale	-0.1133775
-4.47778	alert	-0.1467621
-4.370732	alex	-0.1773738
-4.222375	alexa	-0.1443729
-4.47778	alexander	-0.2395264
-4.617284	alexandria	-0.1477006
-4.617284	alfonzos	-0.1425177
-4.370732	alfrado	-0.1780241
-4.617284	alfred	-0.1477538
-3.338399	alfredo	-0.3422658
-4.47778	alfredo's	-0.1211612
-4.47778	alice	-0.1456738
-2.499762	all	-0.3299205
-4.617284	alla	-0.1477307
-4.617284	allen	-0.1477538
-4.617284	allergens	-0.1276297
-4.47778	allergic	-0.1224244
-4.617284	allergies	-0.1276297
-4.370732	allergy	-0.1947499
-4.617284	allesandro's	-0.147369
-4.617284	alley	-0.1276297
-4.617284	alliance	-0.1477232
-4.617284	allie	-0.145488
-4.617284	allmeat	-0.1463729
-4.617284	allopenos	-0.1477232
-3.833766	allow	-0.1968014
-4.47778	allowed	-0.2556627
-4.47778	allowing	-0.258783
-4.370732	allows	-0.2179957
-4.617284	allright	-0.118132
-4.617284	allsausage	-0.1425177
-4.617284	allston	-0.1472333
-4.617284	allthank	-0.1443357
-4.617284	alma	-0.1477307
-4.617284	almalfi's	-0.1394425
-4.370732	almond	-0.1983879
-3.785223	almost	-0.1892596
-4.617284	aloes	-0.1471051
-4.47778	aloha	-0.1474711
-4.617284	alondra	-0.1476704
-4.111997	alone	-0.224076
-3.291749	along	-0.7707322
-4.47778	aloo	-0.1394318
-4.617284	alot	-0.127271
-4.617284	alpha	-0.1477538
-3.291749	already	-0.2062662
-4.617284	alreight	-0.1471504
-3.132983	alright	-0.06533066
-4.617284	alrighty	-0.1334106
-2.680092	also	-0.2157616
-4.617284	alteration	-0.1276297
-4.222375	alternative	-0.2241395
-4.370732	alternatives	-0.1983748
-4.617284	although	-0.1464862
-4.47778	altogether	-0.141461
-4.47778	alu	-0.259636
-4.617284	alvyn	-0.1477538
-3.665549	always	-0.1192123
-4.370732	am	-0.1609357
-4.617284	amarillo	-0.1276297
-3.888427	amazing	-0.1454394
-4.47778	amazonas	-0.2544143
-3.665549	american	-0.4466363
-4.617284	americano	-0.1474971
-4.222375	amex	-0.1232435
-4.617284	amherst	-0.1472333
-4.617284	amoment	-0.1276297
-4.370732	amore	-0.2166271
-3.571829	amount	-0.3572226
-4.47778	amounts	-0.1236283
-4.617284	amy	-0.1431587
-2.638849	an	-0.4829825
-4.617284	anaything	-0.1476026
-4.370732	anchovie	-0.1340436
-3.041126	anchovies	-0.3090913
-3.632011	anchovy	-0.216572
-1.721722	and	-0.3028239
-4.617284	andbbq	-0.146841
-4.370732	andor	-0.1462375
-4.617284	andrea's	-0.1469618
-4.47778	andrew	-0.1268523
-4.617284	andrews	-0.1471202
-4.617284	andy's	-0.147678
-4.617284	anemic	-0.1475198
-4.370732	angel	-0.3287396
-4.617284	angeles	-0.1473389
-4.617284	angelo	-0.1431803
-4.617284	angelos	-0.1276297
-4.47778	angie	-0.1454391
-4.617284	angrea	-0.1473238
-4.617284	anly	-0.1474595
-4.370732	ann	-0.1393669
-4.47778	anne	-0.1252451
-4.617284	annie's	-0.1425177
-4.617284	annoying	-0.127271
-2.951658	another	-0.2679174
-4.47778	answer	-0.127121
-4.617284	answering	-0.1451244
-4.370732	anthony's	-0.2557823
-4.617284	anthoy's	-0.1276297
-4.617284	antica	-0.1276297
-4.617284	anticipate	-0.1445937
-4.47778	antico	-0.1248642
-4.024064	antipasto	-0.2669733
-4.617284	antiqua	-0.1276297
-4.47778	antonio	-0.1275946
-4.47778	antonio's	-0.143253
-4.47778	antonios	-0.146241
-2.65556	any	-0.3130668
-4.617284	anyhting	-0.1476026
-3.701895	anymore	-0.2599306
-4.111997	anyone	-0.1978148
-4.617284	anyplace	-0.1475499
-4.617284	anystreet	-0.1477538
-4.617284	anyther	-0.1476026
-4.617284	anythiing	-0.1476026
-4.617284	anythin	-0.1476026
-2.495028	anything	-0.7458904
-4.617284	anythingelse	-0.1276297
-4.370732	anythings	-0.3285884
-4.617284	anythng	-0.1476026
-4.024064	anytime	-0.1590514
-4.617284	anyting	-0.1477081
-4.617284	anytown	-0.1477498
-3.600878	anyway	-0.3600055
-4.370732	anyways	-0.1942718
-4.222375	anywhere	-0.1179913
-4.47778	aokay	-0.2395264
-4.617284	apart	-0.1464182
-4.111997	apartment	-0.1735602
-4.617284	aparts	-0.1476252
-4.617284	apiece	-0.1276297
-4.617284	apoligize	-0.1433097
-4.47778	apologies	-0.1559813
-4.47778	apologize	-0.1481448
-3.785223	app	-0.2516496
-4.024064	apparently	-0.1547369
-4.617284	appatizers	-0.1276297
-4.617284	appealing	-0.1276297
-4.370732	appear	-0.2145164
-4.47778	appears	-0.1108452
-4.617284	appetit	-0.1276297
-4.47778	appetites	-0.1247769
-4.370732	appetizer	-0.1529296
-3.888427	appetizers	-0.1378607
-4.617284	appetizing	-0.1276297
-3.833766	apple	-0.3807885
-4.617284	apples	-0.1348004
-4.222375	applewood	-0.2751389
-4.617284	applicable	-0.1477307
-4.47778	applied	-0.1444537
-4.617284	apply	-0.1423007
-3.665549	appreciate	-0.5005225
-4.47778	appreciated	-0.1469282
-4.617284	approaching	-0.1276297
-4.617284	approved	-0.1443357
-4.370732	approx	-0.1471174
-4.617284	approximate	-0.1475122
-3.950971	approximately	-0.2395041
-4.47778	april	-0.145424
-4.47778	arabian	-0.2544143
-4.617284	arancini	-0.1475348
-4.617284	arden	-0.1476102
-2.467655	are	-0.2193592
-3.665549	area	-0.2384413
-3.701895	aren't	-0.2029068
-4.47778	arent	-0.1462032
-4.617284	arge	-0.1464333
-4.617284	argh	-0.1471353
-4.617284	ari's	-0.1477232
-4.617284	aright	-0.1457983
-4.617284	arizmendi	-0.1445558
-4.47778	arizona	-0.1726741
-4.617284	armandos	-0.1425177
-4.617284	armargosa	-0.1475499
-4.617284	army	-0.1276297
-4.370732	arnold	-0.2190524
-3.291749	around	-0.2007621
-4.617284	arrabbiata	-0.1474143
-4.617284	arrange	-0.1444495
-4.617284	arrangements	-0.1459722
-4.617284	arrgggh	-0.1453668
-4.617284	arrival	-0.1431803
-3.785223	arrive	-0.292033
-4.617284	arrived	-0.1276297
-4.47778	arrives	-0.1420302
-4.47778	arriving	-0.1464713
-4.617284	art	-0.1438724
-4.617284	artechokes	-0.1477498
-4.617284	arthor	-0.1473841
-4.617284	arthur's	-0.1473696
-3.518981	artichoke	-0.2597828
-3.544601	artichokes	-0.3448749
-4.617284	arty	-0.1476026
-4.617284	arugla	-0.1471654
-3.701895	arugula	-0.1968994
-2.385337	as	-0.4597602
-4.617284	asada	-0.1086497
-3.950971	asap	-0.3791572
-4.617284	ashley	-0.1453668
-3.950971	asiago	-0.1569714
-4.370732	asian	-0.3271999
-4.370732	aside	-0.2144555
-4.47778	asilyn	-0.1450528
-3.338399	ask	-0.4399162
-4.617284	ask's	-0.1453668
-4.024064	asked	-0.2217987
-3.833766	asking	-0.1652661
-4.617284	aspaghetti	-0.1476704
-4.222375	asparagus	-0.298763
-4.617284	aspecial	-0.14758
-4.617284	aspects	-0.145435
-4.617284	aspen	-0.1477232
-4.617284	ass	-0.1477006
-4.617284	assembled	-0.1276297
-4.111997	assist	-0.2903675
-4.111997	assistance	-0.1756878
-3.372538	assistant	-0.3467496
-4.617284	assisting	-0.1468863
-4.617284	assistnce	-0.1445558
-4.617284	assisty	-0.1443357
-4.222375	associated	-0.2301552
-4.617284	assortment	-0.145435
-4.47778	assume	-0.1408305
-4.617284	assumed	-0.1443357
-4.47778	assuming	-0.2136403
-4.617284	astoria	-0.1450411
-4.617284	aswell	-0.1276297
-2.376287	at	-0.4773893
-4.370732	ate	-0.1257489
-4.47778	atlanta	-0.2596465
-4.617284	atlantic	-0.1476704
-4.47778	atlas	-0.1188973
-4.617284	atm	-0.1276297
-4.617284	ato	-0.1459722
-4.617284	atop	-0.1445027
-4.47778	attached	-0.2395264
-4.617284	attack	-0.1346339
-4.617284	attempted	-0.143766
-4.617284	attending	-0.1476704
-4.617284	attention	-0.1444495
-4.617284	auburn	-0.1275709
-4.370732	audio	-0.1455265
-4.47778	auggie's	-0.2592129
-4.111997	aunt	-0.219697
-4.47778	aurelios	-0.1419192
-4.47778	aurora	-0.1276103
-4.47778	austin	-0.122097
-4.617284	austintown	-0.1470976
-4.617284	authorize	-0.1432032
-4.617284	auto	-0.1477538
-4.617284	autocorrect	-0.147007
-4.47778	automatic	-0.1392624
-4.370732	automatically	-0.1187846
-4.617284	autumn	-0.1477538
-4.47778	avacado	-0.2592129
-4.617284	avaialable	-0.1477458
-4.617284	avaialble	-0.1477538
-4.617284	availabe	-0.143766
-4.47778	availability	-0.1443474
-2.894894	available	-0.3925541
-4.370732	avaliable	-0.1948614
-4.617284	avalon	-0.1476704
-3.355134	ave	-0.3645589
-3.450104	avenue	-0.2902006
-4.024064	average	-0.1184131
-4.617284	averages	-0.1459344
-4.617284	avialable	-0.1432032
-3.665549	avocado	-0.1349518
-4.47778	avoid	-0.1921971
-4.47778	aw	-0.1413329
-4.47778	aware	-0.1241571
-3.544601	away	-0.175332
-3.494787	awesome	-0.1442447
-4.617284	awesomeand	-0.1453668
-4.617284	awesomei	-0.145488
-4.617284	awesomevery	-0.1477538
-4.617284	awesomeyour	-0.1462897
-4.617284	awful	-0.1468184
-4.617284	aww	-0.1427698
-4.617284	ayour	-0.1475348
-4.617284	az	-0.1276297
-4.617284	azzip	-0.1431803
-4.617284	azzuria	-0.1276297
-4.024064	b	-0.2124996
-4.617284	babina	-0.1474143
-4.617284	babini	-0.1474143
-3.741564	baby	-0.2480745
-4.617284	babysit	-0.1471579
-4.617284	babysitting	-0.1463124
-4.47778	baccon	-0.118909
-3.249628	back	-0.387657
-4.47778	backed	-0.1982879
-4.47778	background	-0.1467475
-4.617284	backyard	-0.1276297
-2.772112	bacon	-0.3144369
-4.617284	baconranch	-0.1276297
-4.617284	bacons	-0.1394425
-4.617284	baconwait	-0.1465693
-4.47778	bacopa	-0.2395264
-3.701895	bad	-0.1749298
-4.617284	badokay	-0.1451244
-4.024064	bag	-0.2475073
-4.47778	bags	-0.1249479
-4.617284	baguette	-0.118909
-4.617284	bahama	-0.1476478
-4.617284	baja	-0.1477538
-3.888427	bake	-0.2515227
-3.27725	baked	-0.3580172
-4.617284	baking	-0.1432108
-4.47778	baklava	-0.1584938
-4.617284	bal	-0.1477538
-4.617284	balance	-0.1445937
-4.024064	ball	-0.153667
-4.617284	balle	-0.147678
-4.617284	ballerina's	-0.1276297
-4.47778	balloon	-0.2395264
-4.222375	balls	-0.1970895
-4.370732	balsamic	-0.1171771
-4.47778	bamboo	-0.1477393
-3.211233	banana	-1.03168
-4.47778	bananas	-0.1235523
-4.617284	banchie	-0.1425177
-4.617284	band	-0.1475876
-4.617284	bangor	-0.1476524
-4.222375	bank	-0.1448347
-4.617284	bannana	-0.147271
-4.617284	banquet	-0.1474745
-4.222375	bar	-0.1430294
-4.617284	barbacue	-0.1229068
-2.986726	barbecue	-0.3839236
-4.111997	barbecued	-0.2408232
-4.222375	barbecues	-0.112439
-3.409592	barbeque	-0.2559868
-4.617284	barbequed	-0.145999
-4.617284	barbequwe	-0.146841
-4.47778	barber	-0.2581109
-4.47778	barbque	-0.1409487
-4.617284	barbra	-0.1477498
-4.617284	barcelona	-0.1276297
-4.617284	barely	-0.1476629
-4.370732	barley	-0.2186069
-4.617284	barlic	-0.1475273
-4.617284	barn	-0.1241217
-4.617284	barqs	-0.1475198
-4.47778	barque	-0.1390626
-4.617284	barrel	-0.1380087
-4.617284	barro's	-0.1477538
-4.370732	barry's	-0.3235035
-3.833766	base	-0.1628997
-4.617284	baseball	-0.1477156
-3.888427	based	-0.389732
-4.617284	basel	-0.1394425
-4.617284	basement	-0.1276297
-4.617284	basic	-0.146675
-4.47778	basically	-0.1470338
-3.429376	basil	-0.2625104
-4.617284	basilis	-0.1444495
-4.617284	basils	-0.1463426
-4.47778	basket	-0.1440361
-4.617284	bath	-0.1471504
-4.47778	battered	-0.1463967
-4.47778	bay	-0.1472148
-4.617284	bbg	-0.1276297
-2.92551	bbq	-0.3476399
-4.617284	bbqsauce	-0.1276297
-2.794986	be	-0.1477371
-4.47778	beach	-0.1235523
-4.617284	beacon	-0.1394425
-4.617284	beacuse	-0.146456
-3.600878	bean	-0.2994654
-3.494787	beans	-0.3089198
-4.617284	bear	-0.1459722
-4.617284	beat	-0.1473992
-4.47778	beau	-0.2596505
-4.370732	beautiful	-0.1397048
-4.617284	bebe	-0.1425177
-4.617284	becase	-0.1445937
-4.617284	becasue	-0.1433097
-3.27725	because	-0.3270369
-4.47778	becky	-0.1420261
-4.617284	become	-0.1474293
-4.617284	becomes	-0.1475198
-4.47778	bedford	-0.1439035
-2.87751	beef	-0.2449869
-3.409592	been	-0.245351
-3.833766	beer	-0.2158007
-4.617284	beeradded	-0.1475876
-4.47778	beers	-0.1276103
-4.617284	beersis	-0.1444495
-3.001586	before	-0.4408226
-4.617284	beg	-0.1471579
-4.617284	beggars	-0.120961
-4.370732	begin	-0.1214333
-4.617284	beibg	-0.1445027
-3.39067	being	-0.2161383
-4.111997	bela	-0.299678
-4.617284	belaluna	-0.1276297
-4.617284	belarina	-0.1276297
-4.617284	bele	-0.147678
-4.024064	believe	-0.1477589
-3.103331	bell	-0.9543645
-2.986726	bella	-0.7576102
-4.47778	bella's	-0.1200628
-4.370732	bellagios	-0.137049
-4.617284	belle	-0.1477538
-4.47778	belleville	-0.2188179
-4.47778	bello	-0.1476595
-4.370732	bellpeppers	-0.1184786
-4.47778	belluno	-0.1244353
-4.370732	belly	-0.1173783
-4.47778	bellybuster	-0.1424303
-4.47778	belmont	-0.1379086
-4.617284	bend	-0.1276297
-4.617284	benevento's	-0.1473163
-4.617284	benji's	-0.1476855
-4.617284	bennett	-0.1276297
-4.617284	benny	-0.1276297
-3.950971	benny's	-0.2813179
-4.617284	beoh	-0.1475122
-4.617284	beppo	-0.1276297
-4.617284	berbecue	-0.1475273
-4.617284	berkshire	-0.1476403
-4.47778	berry	-0.1473882
-4.617284	berttuccis	-0.1276297
-4.617284	bertucci	-0.1456545
-4.617284	bertucci's	-0.1276297
-4.111997	bertuccis	-0.222162
-3.888427	besides	-0.1503903
-3.785223	best	-0.117227
-4.617284	bestlets	-0.1451244
-4.370732	bet	-0.1098019
-4.617284	betcha	-0.1271525
-4.617284	beto's	-0.1430779
-3.27725	better	-0.2536467
-4.617284	betty	-0.1477538
-3.888427	between	-0.1716243
-4.47778	beverage	-0.1247769
-4.222375	beverages	-0.1767067
-4.617284	beyond	-0.1432032
-4.617284	bf	-0.1394425
-4.617284	bi	-0.1473992
-4.617284	biago's	-0.1445558
-4.370732	bianco	-0.1364519
-4.617284	biased	-0.1438724
-3.306749	big	-0.1037117
-3.833766	bigger	-0.1925938
-4.370732	biggest	-0.1543373
-4.617284	biggie	-0.1276297
-4.617284	bigs	-0.1422397
-3.544601	bill	-0.1753329
-4.47778	bill's	-0.2544143
-4.222375	billed	-0.1756086
-4.617284	billie	-0.1477498
-4.024064	billion	-0.1997976
-4.617284	biography	-0.1477538
-4.617284	biopic	-0.1477382
-4.617284	biopics	-0.1276297
-4.617284	bird	-0.1477307
-4.617284	birmingham	-0.1477538
-3.741564	birthday	-0.2940764
-4.370732	biryani	-0.1108557
-4.617284	biscuit	-0.1276297
-4.617284	biscuits	-0.1276297
-4.617284	bismarck	-0.1276297
-4.617284	bison	-0.1469618
-4.370732	bit	-0.1024829
-4.617284	bite	-0.1467957
-4.222375	bites	-0.1817992
-3.950971	bits	-0.2366668
-4.47778	bla	-0.218528
-2.919211	black	-0.7375047
-4.370732	blaine	-0.1799218
-4.617284	blakely	-0.1276297
-4.617284	blanc	-0.1276297
-4.47778	blanco	-0.1474636
-4.617284	blast	-0.1386091
-4.617284	blastoff	-0.1276297
-4.024064	blaze	-0.3129447
-4.617284	blech	-0.1394425
-3.701895	blend	-0.1758044
-4.47778	blended	-0.1430475
-4.617284	bless	-0.1443357
-4.617284	bleu	-0.1469165
-4.617284	blk	-0.1475951
-4.617284	block	-0.1476403
-4.617284	blocked	-0.1477156
-4.47778	blocks	-0.2188782
-4.617284	blood	-0.1477498
-4.617284	bloomingdale	-0.1475725
-4.617284	blow	-0.1276297
-4.617284	blows	-0.1466372
-3.741564	blt	-0.2469546
-4.617284	blts	-0.134847
-3.701895	blue	-0.6056748
-4.617284	blueberry	-0.1477538
-3.665549	blvd	-0.1823887
-4.617284	boardman	-0.1276297
-4.222375	boardwalk	-0.4484422
-4.617284	boat	-0.1385706
-4.024064	bob	-0.1307656
-4.47778	bobby	-0.2588132
-4.370732	boerewors	-0.1989037
-4.617284	bogo	-0.1476855
-4.47778	bohemian	-0.2596505
-4.617284	boil	-0.1432564
-4.47778	boli’s	-0.1255032
-4.370732	bomb	-0.1989278
-4.617284	bon	-0.1477538
-4.222375	bone	-0.1946517
-3.785223	boneless	-0.2345887
-4.47778	bonus	-0.1441424
-4.024064	book	-0.1686952
-4.222375	booked	-0.171847
-4.47778	booking	-0.1437093
-4.617284	boom	-0.1433097
-4.47778	boring	-0.1274447
-4.617284	born	-0.1431803
-4.617284	boro	-0.1276297
-3.355134	boss	-0.2805655
-4.47778	bosses	-0.1385783
-4.370732	boston	-0.1422368
-4.617284	bot	-0.1464182
-2.834291	both	-0.3323832
-4.617284	bother	-0.139792
-3.471871	bottle	-0.3158828
-4.024064	bottled	-0.195904
-3.888427	bottles	-0.2833417
-4.617284	bottom	-0.1430246
-4.617284	bought	-0.1454577
-4.617284	boulder	-0.1477006
-4.47778	boulevard	-0.122859
-4.47778	bourbon	-0.2581109
-4.47778	bourdeux	-0.2593863
-4.617284	bout	-0.1451437
-4.617284	boutique	-0.1476026
-3.450104	bowl	-0.2872998
-3.888427	bowls	-0.2725196
-4.111997	box	-0.1261066
-4.617284	boxed	-0.1242684
-4.024064	boy	-0.1449631
-4.617284	boyfriend	-0.1468904
-4.617284	boylston	-0.1476704
-4.222375	boys	-0.1317182
-4.617284	br	-0.1475876
-4.617284	bragg	-0.1226842
-4.617284	brambleton	-0.1476102
-4.47778	brand	-0.2395264
-4.617284	branded	-0.1477382
-4.47778	brands	-0.1427809
-4.617284	branson	-0.1472333
-4.617284	brass	-0.1477498
-2.972357	bread	-0.3550457
-4.617284	breadcrumbs	-0.1473238
-4.617284	breaded	-0.1477382
-3.888427	breads	-0.1477109
-4.47778	breadstick	-0.2160662
-3.153939	breadsticks	-0.3612136
-4.222375	break	-0.1382789
-3.175958	breakfast	-0.5828447
-4.617284	breaking	-0.1269788
-4.617284	breaksticks	-0.1432108
-4.617284	breast	-0.1477307
-4.47778	breath	-0.1477433
-4.617284	breather	-0.1457983
-4.617284	bredsticks	-0.1462066
-4.617284	brian	-0.1447151
-3.785223	brick	-0.3292078
-4.617284	brickoven	-0.1425177
-4.617284	bridge	-0.1477006
-4.617284	brief	-0.1470749
-4.617284	briefly	-0.1477458
-4.47778	brilliant	-0.1443211
-4.617284	brilliantly	-0.1477538
-3.701895	bring	-0.2280604
-4.024064	bringing	-0.1683768
-4.47778	brings	-0.1376507
-4.617284	brinking	-0.1454577
-4.47778	brioche	-0.2190404
-4.370732	brisket	-0.2069331
-4.617284	british	-0.1476855
-4.617284	bro	-0.1454577
-4.370732	broad	-0.1271332
-4.222375	broadway	-0.1857602
-3.322286	broccoli	-0.2263674
-4.47778	broccolionion	-0.1424574
-4.617284	broccolli	-0.1475876
-4.617284	brocholi	-0.1394425
-4.617284	brococlli	-0.1477156
-4.617284	brocolli	-0.1425177
-4.370732	broke	-0.2180561
-4.47778	brook	-0.1221215
-3.544601	brooklyn	-0.6231382
-4.370732	brooklyn's	-0.1210651
-4.617284	brooklynstyle	-0.1467957
-4.617284	brother	-0.1348004
-4.024064	brother's	-0.373264
-4.370732	brothers	-0.2735439
-3.701895	brown	-0.248801
-4.617284	brown's	-0.1477538
-3.741564	brownie	-0.2311442
-3.888427	brownies	-0.2580166
-4.617284	browns	-0.1031422
-4.617284	browse	-0.1432032
-4.370732	brunos	-0.1567122
-4.370732	brunswick	-0.3287356
-4.024064	bruschetta	-0.2120914
-4.617284	bruschettas	-0.1276297
-4.617284	brush	-0.1470825
-4.617284	brushed	-0.1477081
-4.47778	brussel	-0.2596425
-4.617284	brussels	-0.1477458
-4.617284	brussle	-0.1477458
-4.617284	bu	-0.1432032
-4.617284	buca	-0.1477307
-4.47778	bucket	-0.2573317
-4.617284	buckle	-0.1477382
-3.833766	bucks	-0.1730979
-4.617284	bud	-0.1433097
-4.47778	buddies	-0.145757
-4.222375	buddy	-0.1161727
-4.47778	budget	-0.2395264
-4.617284	buds	-0.1461688
-4.370732	budweiser	-0.148332
-4.617284	budweisers	-0.1477538
-2.994092	buffalo	-0.5872675
-4.617284	buffet	-0.1462142
-4.617284	bufflo	-0.1462142
-4.617284	buggers	-0.1433097
-4.617284	bugs	-0.1443357
-3.785223	build	-0.5673847
-4.617284	building	-0.1432108
-4.222375	buildyourown	-0.1408127
-4.617284	built	-0.1394425
-4.617284	bulk	-0.1432564
-4.024064	bummer	-0.1268096
-4.370732	bun	-0.2348035
-4.617284	bunch	-0.1126847
-4.617284	bundle	-0.1470836
-4.617284	bunny	-0.1440775
-4.47778	buns	-0.1941362
-3.322286	burger	-0.2908517
-3.355134	burgers	-0.2953659
-4.617284	buritto	-0.1276297
-4.617284	burke	-0.1264491
-4.617284	burn	-0.1445937
-4.47778	burning	-0.1470413
-4.617284	burnt	-0.1276297
-4.370732	burrata	-0.1169936
-3.153939	burrito	-0.3725535
-3.153939	burritos	-0.3582909
-4.617284	burst	-0.1276297
-3.785223	business	-0.1734247
-4.617284	buster	-0.1472786
-3.571829	busy	-0.2354826
-2.4357	but	-0.3183488
-4.617284	butchering	-0.145435
-4.370732	butchers	-0.3285733
-4.617284	butler	-0.1472333
-3.26322	butter	-0.3019661
-4.617284	buttercrust	-0.1276297
-4.47778	buttered	-0.2581109
-4.617284	buttery	-0.147678
-4.617284	butty	-0.1394425
-3.544601	buy	-0.3359858
-4.111997	buying	-0.1817724
-4.617284	buzzfeed	-0.1475876
-4.617284	bway	-0.1425177
-2.906883	by	-0.2960326
-2.979482	bye	-0.6857306
-3.632011	byebye	-0.5806972
-4.617284	byee	-0.1276297
-4.617284	byeeeee	-0.1276297
-4.617284	byesee	-0.1443357
-4.617284	bypass	-0.1276297
-4.47778	c	-0.1400144
-3.888427	ca	-0.423279
-4.617284	cabbage	-0.1473163
-4.617284	cads	-0.1276297
-3.471871	caesar	-0.6384907
-4.222375	caesar's	-0.158712
-4.617284	caesars	-0.09871572
-4.111997	cafe	-0.1610188
-4.617284	cafora's	-0.1445558
-4.617284	cah	-0.1470448
-4.617284	cahuenga	-0.1476704
-3.665549	cajun	-0.2157138
-3.888427	cake	-0.2075569
-4.47778	cakes	-0.1159981
-4.47778	cal	-0.1376816
-4.47778	calabrese	-0.2585717
-4.47778	calabria	-0.1744717
-4.222375	calabrian	-0.2757727
-4.370732	calamari	-0.1947462
-4.47778	calculate	-0.2121813
-4.617284	calculator	-0.1475951
-4.47778	calda	-0.1348004
-4.617284	calendar	-0.1276297
-4.370732	cali	-0.3271999
-3.665549	california	-0.3352551
-4.47778	californian	-0.1212653
-4.47778	californiastyle	-0.1934417
-3.322286	call	-0.2762934
-3.322286	called	-0.2137606
-3.785223	calling	-0.1058517
-4.617284	calls	-0.1445937
-4.47778	calm	-0.1473546
-4.47778	calories	-0.1430551
-4.222375	calzone	-0.2511024
-4.222375	calzones	-0.1416608
-4.024064	came	-0.2090302
-4.617284	cameron	-0.1472333
-4.47778	campfire	-0.1424303
-4.617284	camping	-0.1474067
-4.47778	campisis	-0.1441045
-2.281696	can	-0.5050278
-3.571829	can't	-0.2520299
-3.075574	canadian	-1.19826
-4.617284	canale	-0.1276297
-4.617284	canali's	-0.1432108
-4.024064	cancel	-0.3858954
-4.617284	candace	-0.1470749
-4.617284	candian	-0.1470297
-4.617284	candied	-0.1470297
-4.617284	cane	-0.1476704
-4.617284	caneries	-0.1276297
-4.617284	cannelloni	-0.1394425
-4.47778	cannoli	-0.1239228
-4.617284	cannoli's	-0.1469618
-4.370732	cannolis	-0.1902172
-4.024064	cannot	-0.1674967
-4.617284	canny	-0.145435
-4.617284	canolli	-0.1431803
-4.370732	cans	-0.1964987
-4.617284	cant	-0.1476629
-4.617284	canyes	-0.1433097
-4.222375	can’t	-0.2429726
-4.111997	capers	-0.1182624
-4.617284	capicola	-0.147678
-4.47778	capital	-0.2559742
-4.47778	capozzi's	-0.1241571
-4.617284	caprese	-0.1426362
-4.617284	capri's	-0.1276297
-4.47778	capsicum	-0.1417325
-4.47778	capsicums	-0.2395264
-4.617284	captain	-0.1431803
-4.222375	car	-0.1811425
-4.47778	caramalized	-0.2589867
-4.222375	caramel	-0.1999357
-3.833766	caramelized	-0.501295
-4.617284	carbb	-0.1276297
-4.617284	carbohydrated	-0.1474519
-4.47778	carbohydrates	-0.2593486
-4.617284	carbonara	-0.1276297
-4.47778	carciofi	-0.1340937
-3.211233	card	-0.2752306
-4.617284	cardinfo	-0.143766
-4.222375	cards	-0.1193325
-3.785223	care	-0.188679
-4.617284	careful	-0.1229068
-4.47778	carl's	-0.2124185
-4.47778	carlisle	-0.2594466
-4.024064	carlos	-0.3032731
-4.47778	carly	-0.1457651
-4.47778	carmalized	-0.2592582
-4.370732	carnalicious	-0.1414804
-3.888427	carne	-0.7547083
-4.617284	carnitas	-0.1474595
-4.370732	carnivore	-0.2166996
-4.617284	carnivores	-0.145435
-4.47778	carolina	-0.1262988
-4.617284	carp	-0.1425177
-4.111997	carrie	-0.1379703
-4.47778	carries	-0.2164453
-4.617284	carrollton	-0.1477307
-4.617284	carrot	-0.1474595
-4.111997	carrots	-0.1362866
-3.571829	carry	-0.2732886
-4.617284	carrying	-0.1468712
-3.600878	carryout	-0.2547428
-4.617284	carson	-0.134847
-4.47778	cart	-0.1963956
-4.617284	cartufo	-0.1394425
-4.47778	caruso's	-0.1453785
-4.617284	carvan	-0.1445558
-4.617284	carving	-0.1445027
-4.111997	casa	-0.2942609
-4.617284	casalinga	-0.1477307
-4.617284	cascade	-0.1425177
-4.111997	case	-0.1200603
-4.617284	cases	-0.145435
-4.617284	casey	-0.147693
-4.024064	casey's	-0.2432122
-3.518981	cash	-0.4072304
-4.370732	cashew	-0.1875708
-4.617284	cashier	-0.1423277
-4.617284	casino	-0.1388705
-4.47778	cassano's	-0.1242684
-4.617284	casso	-0.1394425
-4.47778	cast	-0.2395264
-4.617284	castro	-0.1472333
-4.617284	casual	-0.1475574
-4.617284	catalan	-0.1476026
-4.47778	catch	-0.2590395
-4.617284	catching	-0.1438724
-4.617284	catchup	-0.1394425
-4.617284	cattleman	-0.147678
-4.617284	caught	-0.1444495
-4.111997	cauliflower	-0.1168165
-4.47778	caviar	-0.2395264
-4.222375	ceasar	-0.2751464
-4.617284	ceasar's	-0.1431803
-4.617284	ceasars	-0.1392701
-4.617284	cedar	-0.1477382
-4.617284	celebrate	-0.1455072
-4.47778	celebrating	-0.1447461
-4.617284	celery	-0.1476704
-4.617284	celiac	-0.1276297
-4.370732	cell	-0.1952522
-4.617284	cellphone	-0.1225761
-4.617284	cent	-0.1273815
-4.617284	centennial	-0.1394277
-4.222375	center	-0.1356791
-4.617284	central	-0.1276297
-4.617284	centralia	-0.1276297
-4.024064	cents	-0.2428112
-4.222375	certain	-0.1398358
-4.111997	certainly	-0.08581904
-4.617284	certainlywould	-0.1443357
-4.617284	cesaer	-0.147565
-4.47778	cesar	-0.1471399
-4.617284	cesars	-0.1276297
-4.617284	cesears	-0.1276297
-4.617284	ch'i	-0.1276297
-4.617284	cha	-0.1475951
-4.024064	chad	-0.1181613
-4.370732	chai	-0.124984
-4.617284	chain	-0.1477458
-4.617284	chains	-0.1476704
-4.222375	chance	-0.1485923
-4.47778	chandler	-0.1430932
-3.291749	change	-0.4119808
-3.888427	changed	-0.2068198
-3.741564	changes	-0.1969877
-4.617284	channello's	-0.1431803
-4.47778	channellos	-0.2395264
-4.111997	chapel	-0.2303186
-4.617284	chapos	-0.1473163
-4.617284	char	-0.1461688
-4.617284	character	-0.1476554
-4.47778	chardonnay	-0.118909
-3.175958	charge	-0.4101247
-3.571829	charged	-0.2816616
-3.950971	charges	-0.2110162
-4.47778	charging	-0.1451664
-4.617284	charles	-0.1432108
-4.617284	charlies	-0.1425177
-4.370732	charlotte	-0.1798744
-4.617284	charter	-0.1276297
-4.47778	chase	-0.1476896
-4.47778	chat	-0.1276036
-4.47778	chatham	-0.1272631
-4.617284	chatterton	-0.147678
-4.617284	chavez	-0.1474896
-4.370732	cheap	-0.1261016
-3.833766	cheaper	-0.1457771
-4.617284	cheapest	-0.1471504
-3.306749	check	-0.2754009
-4.111997	checked	-0.1598696
-4.617284	checki	-0.1475198
-4.617284	checki'm	-0.1474067
-3.833766	checking	-0.1522147
-4.617284	checkingoh	-0.1474067
-4.617284	checkok	-0.1445937
-4.47778	checkout	-0.1374152
-4.617284	checkyeah	-0.1456545
-3.39067	cheddar	-0.3170238
-4.47778	cheddarbacon	-0.2589566
-4.617284	cheddarmozzarella	-0.147678
-4.617284	cheers	-0.1276297
-4.47778	cheerwine	-0.122859
-4.617284	chees	-0.1438724
-4.617284	cheesburger	-0.1387859
-2.48571	cheese	-0.2554032
-3.471871	cheeseburger	-0.3798947
-4.024064	cheeseburgers	-0.1808294
-4.370732	cheesecake	-0.1422022
-4.617284	cheesecorrect	-0.1276297
-3.701895	cheeses	-0.1507601
-4.617284	cheesestake	-0.1425177
-4.370732	cheesesteak	-0.1343553
-4.47778	cheesesteaks	-0.1379779
-4.47778	cheesesticks	-0.1437701
-4.617284	cheesewill	-0.1451244
-4.617284	cheeseyou	-0.1444495
-4.617284	cheesteak	-0.1425177
-3.429376	cheesy	-0.480559
-4.617284	cheesystuffed	-0.1467957
-4.617284	cheetos	-0.1276297
-4.617284	cheeze	-0.1425177
-4.47778	cheezy	-0.1466036
-4.617284	cheezybread	-0.1267733
-4.47778	chef	-0.1511061
-4.370732	chef's	-0.1467738
-4.617284	chelmsford	-0.1477382
-4.617284	chelsea	-0.1477307
-4.617284	cherries	-0.1394425
-3.571829	cherry	-0.3043889
-4.617284	cheryl	-0.1433097
-4.617284	chese	-0.14632
-4.370732	chesse	-0.1235487
-4.617284	chester	-0.1477232
-4.370732	chestertown	-0.3287165
-4.617284	chestnut	-0.1474896
-4.617284	chewy	-0.1463426
-3.409592	chicago	-0.2506157
-4.617284	chicago's	-0.1447151
-3.888427	chicagostyle	-0.2499138
-4.617284	chicekn	-0.1477307
-4.370732	chick	-0.2104947
-2.448202	chicken	-0.3447546
-4.47778	chickenmeatball	-0.2513391
-4.47778	chickens	-0.1262434
-4.617284	chief	-0.1477458
-4.617284	chika	-0.1431803
-4.617284	chiken	-0.1276297
-4.617284	chiladas	-0.1374811
-4.617284	childhood	-0.1470825
-4.370732	children	-0.1092248
-4.617284	children's	-0.1477498
-4.47778	chile	-0.1216462
-4.617284	chiles	-0.1476026
-3.39067	chili	-0.2914624
-4.617284	chilicheese	-0.1477156
-4.617284	chill	-0.1477307
-3.833766	chilli	-0.1492133
-4.617284	chim	-0.122859
-4.617284	chimed	-0.1445558
-4.370732	chimichanga	-0.1193602
-4.47778	chimichangas	-0.1902182
-4.617284	chin	-0.1477458
-4.617284	china	-0.1276297
-3.372538	chinese	-0.4869271
-4.370732	chino	-0.2185993
-4.370732	chip	-0.133774
-4.617284	chipotle	-0.1462142
-3.429376	chips	-0.3791196
-4.370732	chives	-0.117325
-4.617284	chix	-0.1472484
-4.617284	chobbies	-0.1394425
-3.494787	chocolate	-0.3043315
-4.617284	chocolatey	-0.1450411
-4.617284	chocolte	-0.1477081
-4.617284	chocs	-0.143766
-3.39067	choice	-0.2369088
-3.600878	choices	-0.3031402
-3.741564	choose	-0.1989041
-4.617284	chooses	-0.1276297
-4.47778	choosing	-0.125983
-4.617284	chop	-0.1476704
-3.701895	chopped	-0.2551482
-4.617284	chops	-0.1394425
-4.47778	chopsticks	-0.2395264
-3.632011	chorizo	-0.2271636
-4.370732	chose	-0.1364662
-4.617284	chosen	-0.1276297
-4.617284	chovy	-0.1276297
-3.833766	chow	-0.3110556
-4.47778	chowder	-0.1109103
-4.617284	chowmein	-0.1394425
-4.222375	chris	-0.1176288
-4.617284	christine's	-0.1477538
-4.617284	christos	-0.1473163
-4.617284	chuck	-0.1252134
-4.47778	chuckle	-0.1272157
-4.617284	chucky	-0.1475574
-4.617284	chunks	-0.1394425
-4.617284	church	-0.1474896
-4.617284	churros	-0.1276297
-4.617284	chutney	-0.1264491
-4.222375	ciabatta	-0.2000221
-4.111997	ciao	-0.2153196
-4.47778	cicero's	-0.1426438
-4.617284	cilanto	-0.1475047
-4.024064	cilantro	-0.1110323
-4.617284	cindy	-0.1433097
-4.617284	cinema	-0.1447151
-4.370732	cinna	-0.2190404
-4.47778	cinnabon	-0.1450907
-4.617284	cinnamin	-0.1477156
-3.701895	cinnamon	-0.2659421
-4.47778	cinnasquares	-0.1260772
-4.617284	circle	-0.145435
-4.617284	circles	-0.1394425
-4.617284	cisco	-0.118909
-4.617284	cittrel	-0.1394425
-3.665549	city	-0.2631629
-4.617284	cken	-0.1474821
-4.47778	claim	-0.139999
-4.617284	claire	-0.145488
-3.701895	clam	-0.6790563
-3.950971	clams	-0.1396398
-4.370732	clare	-0.1403328
-4.370732	clarify	-0.1513244
-4.617284	clarifying	-0.1457983
-4.617284	clarion	-0.1477307
-4.47778	clark	-0.1470413
-4.617284	clarksville	-0.1276297
-3.322286	classic	-0.2527321
-4.617284	classico	-0.1276297
-4.47778	classics	-0.1229068
-4.617284	clean	-0.1463124
-4.617284	cleaners	-0.1476554
-4.617284	cleaning	-0.1477081
-4.370732	clear	-0.1274258
-4.47778	clearly	-0.1450983
-4.617284	clever	-0.1276297
-4.617284	clianro	-0.1394425
-4.617284	click	-0.1476403
-4.617284	client	-0.1477538
-4.370732	clients	-0.1369796
-4.47778	cliff	-0.2594466
-3.39067	close	-0.4000258
-4.370732	closed	-0.1372153
-3.950971	closer	-0.1882021
-4.370732	closes	-0.1422591
-3.665549	closest	-0.3373702
-4.617284	closet	-0.1440775
-4.617284	closets	-0.1432108
-4.617284	closing	-0.1444495
-4.47778	closter	-0.1476976
-4.617284	cloves	-0.1240421
-3.741564	club	-0.1921208
-4.617284	clue	-0.1453668
-4.617284	clump	-0.1463729
-4.617284	clumps	-0.1276297
-4.617284	cn	-0.1443357
-4.617284	coach	-0.1276297
-4.024064	coal	-0.2504906
-4.47778	coast	-0.127563
-4.617284	cob	-0.118909
-4.617284	cobb	-0.1471504
-3.833766	coca	-0.5047596
-3.701895	cocacola	-0.3493565
-4.47778	cocacolas	-0.1902182
-4.617284	cocke	-0.1458663
-4.617284	cocktail	-0.1475273
-4.47778	coco	-0.122859
-4.370732	coconut	-0.1468156
-4.024064	code	-0.1432903
-4.617284	codes	-0.1276297
-4.617284	coeliac	-0.1457983
-3.518981	coffee	-0.2841653
-3.833766	coffees	-0.2023967
-3.249628	coke	-0.2859178
-3.494787	cokes	-0.2806675
-3.785223	cola	-0.1968952
-4.617284	colas	-0.1175107
-4.111997	cold	-0.1600056
-4.47778	cole	-0.2596123
-3.632011	coleslaw	-0.2684585
-4.370732	collard	-0.328724
-4.617284	collared	-0.1477382
-4.617284	colleague	-0.1394425
-4.222375	college	-0.173257
-4.617284	colloquial	-0.1477538
-4.617284	color	-0.1394425
-4.222375	colorado	-0.2140081
-4.617284	colseslaw	-0.1276297
-4.370732	columbia	-0.2156641
-4.47778	columbus	-0.1473807
-4.617284	coma	-0.1394425
-3.741564	combination	-0.2434683
-4.617284	combinations	-0.14182
-4.617284	combined	-0.1470523
-3.571829	combo	-0.2220707
-4.617284	combos	-0.14758
-3.153939	come	-0.4854792
-4.617284	comeback	-0.1475951
-3.066703	comes	-0.6576737
-4.617284	comfortable	-0.1432564
-3.494787	coming	-0.2615826
-4.617284	commerce	-0.1470976
-4.222375	commercial	-0.1983349
-4.617284	communications	-0.1433097
-4.617284	commuting	-0.1477156
-4.222375	company	-0.145769
-4.617284	company's	-0.1477538
-4.370732	compared	-0.3247518
-4.617284	comparisson	-0.143766
-4.617284	compete	-0.1454577
-4.617284	competitors	-0.1276297
-4.617284	compile	-0.146388
-4.617284	complain	-0.1457983
-4.617284	complaining	-0.1470599
-4.370732	complet	-0.1347819
-3.372538	complete	-0.3733397
-3.741564	completed	-0.1699069
-4.222375	completely	-0.1868593
-4.370732	completes	-0.226489
-4.617284	completing	-0.1432032
-4.617284	completion	-0.1469618
-4.617284	complicated	-0.1457983
-4.617284	compliment	-0.1432032
-4.617284	composing	-0.1454577
-4.617284	compromise	-0.1276297
-4.222375	computer	-0.2067113
-4.617284	con	-0.1477498
-4.617284	concludes	-0.141736
-4.617284	concord	-0.1474143
-4.617284	concretious	-0.1276297
-4.222375	condiments	-0.1641943
-4.617284	conditioning	-0.1276297
-4.111997	coney	-0.27026
-4.370732	conference	-0.1989471
-3.429376	confirm	-0.2827945
-3.494787	confirmation	-0.2907028
-3.450104	confirmed	-0.3385368
-4.617284	confirmedthey	-0.1462822
-3.665549	confirming	-0.1916591
-4.47778	conform	-0.2583829
-4.617284	conformation	-0.1475047
-4.47778	confused	-0.125998
-4.617284	conmtact	-0.1471579
-4.617284	connected	-0.1432564
-4.617284	connecticut	-0.1276297
-4.617284	connection	-0.1477498
-4.617284	connie	-0.1462822
-4.617284	connor	-0.1438724
-4.47778	consider	-0.139999
-4.370732	considered	-0.2553931
-4.47778	consisting	-0.2573317
-4.617284	consists	-0.145435
-4.617284	construction	-0.1457983
-4.024064	contact	-0.1180931
-4.47778	contacted	-0.1425073
-4.617284	contacting	-0.1432032
-4.47778	contain	-0.1462032
-4.111997	container	-0.2347912
-4.617284	containers	-0.1464937
-4.47778	containing	-0.1459915
-4.617284	containsroasted	-0.1471654
-4.617284	contamination	-0.1276297
-4.617284	contemplating	-0.1445027
-4.024064	continue	-0.1373947
-4.617284	convection	-0.1477538
-4.370732	convenient	-0.1981852
-4.47778	conversation	-0.1384475
-3.888427	cook	-0.1657823
-3.429376	cooked	-0.2784228
-3.833766	cookie	-0.285551
-3.888427	cookies	-0.1454677
-4.370732	cooking	-0.1409223
-3.632011	cool	-0.1338867
-4.617284	coolyeah	-0.1472258
-4.617284	coop	-0.1425177
-4.617284	cooperation	-0.1276297
-4.617284	cop	-0.1394425
-4.617284	coppola	-0.1221326
-4.222375	copy	-0.2374018
-4.47778	coral	-0.2596425
-3.600878	corn	-0.1579834
-4.617284	corned	-0.1471881
-4.47778	corner	-0.1219139
-4.617284	cornonthecob	-0.1394425
-4.617284	coronas	-0.1385783
-4.47778	corporate	-0.2187727
-2.676502	correct	-0.4247386
-4.617284	correcting	-0.1444495
-4.617284	correction	-0.1276297
-4.024064	correctly	-0.2694166
-4.222375	cosaro's	-0.3630142
-4.617284	cosmo's	-0.1438724
-4.617284	cosmopolitan	-0.1276297
-3.26322	cost	-0.2377794
-4.617284	costa	-0.1276297
-3.888427	costco	-0.1238215
-4.617284	costing	-0.14632
-4.024064	costs	-0.1390723
-4.617284	cotta	-0.1228271
-4.617284	cottage	-0.1276297
-4.617284	couch	-0.1431803
-2.799709	could	-0.5670313
-4.47778	couldn't	-0.1474711
-4.47778	count	-0.1257525
-4.617284	counter	-0.1268761
-4.617284	countries	-0.1425177
-4.47778	country	-0.1476218
-4.617284	counts	-0.1459722
-3.950971	couple	-0.1696423
-3.701895	coupon	-0.2485341
-3.950971	coupons	-0.1384033
-4.617284	courgette	-0.1477006
-4.617284	course	-0.02123034
-4.617284	courses	-0.145435
-4.370732	cover	-0.2726417
-4.024064	covered	-0.2174595
-4.617284	covers	-0.1441424
-4.617284	coversation	-0.1394425
-4.370732	cow	-0.2188104
-4.370732	cowboy	-0.1660928
-4.617284	coworkers	-0.1461688
-4.370732	cpk	-0.1218732
-3.741564	crab	-0.1728723
-4.47778	crabs	-0.147064
-4.47778	cracked	-0.2590621
-4.47778	cracker	-0.1263779
-3.950971	crackers	-0.1979259
-4.617284	crafted	-0.1420566
-4.617284	craig	-0.145488
-4.617284	craig's	-0.1476177
-4.617284	cranberries	-0.1394425
-4.370732	cranberry	-0.1979717
-4.617284	cranberry's	-0.1276297
-4.617284	crane	-0.1477538
-4.370732	crap	-0.1233336
-4.617284	crape's	-0.1476177
-4.617284	crashed	-0.1276297
-3.785223	craving	-0.1832277
-4.617284	cravings	-0.1477498
-4.617284	crawford’s	-0.1394425
-3.833766	crazy	-0.2934722
-3.471871	cream	-0.1705215
-4.617284	creamer	-0.1432564
-4.617284	creammedium	-0.1425177
-4.47778	creamy	-0.2589792
-3.741564	create	-0.4714348
-4.617284	createyourown	-0.1425177
-4.617284	creation	-0.145435
-3.355134	credit	-0.5575306
-4.111997	crepe	-0.168483
-4.47778	crepe's	-0.1448301
-4.222375	crepes	-0.4535422
-4.111997	crest	-0.1595109
-4.617284	crete's	-0.1476177
-4.617284	crews	-0.1276297
-4.617284	crib	-0.1477382
-4.617284	cribbs'	-0.1476177
-4.617284	cripsy	-0.1276297
-4.47778	crisp	-0.1178739
-4.617284	crisped	-0.1276297
-4.617284	crisper	-0.1467957
-3.741564	crispy	-0.2131967
-4.617284	cross	-0.1477538
-4.617284	crossed	-0.1432564
-4.47778	crossing	-0.1229634
-4.617284	crossings	-0.1476704
-4.617284	crosswalk	-0.1276297
-4.617284	crout	-0.142819
-4.370732	croutons	-0.1140898
-4.111997	crowd	-0.1260916
-4.617284	cruise	-0.122859
-4.617284	cruist	-0.1477538
-4.617284	crumb	-0.1477081
-4.617284	crumble	-0.146675
-4.47778	crumbled	-0.1466605
-4.617284	crumbly	-0.1476554
-4.617284	crumbs	-0.1276297
-4.617284	crunch	-0.1276297
-4.617284	crunchier	-0.1467957
-3.785223	crunchy	-0.6690841
-4.617284	crus	-0.1469618
-4.617284	cruse	-0.1463729
-4.111997	crush	-0.1139647
-3.950971	crushed	-0.3543971
-4.617284	crusr	-0.1276297
-2.652166	crust	-0.2760684
-4.222375	crusted	-0.1920202
-4.370732	crustless	-0.1985169
-3.494787	crusts	-0.2618693
-4.617284	crustsbilled	-0.143766
-4.617284	crusttomato	-0.1477498
-4.024064	crusty	-0.5184786
-4.47778	crystal	-0.1269393
-4.617284	crêpe's	-0.1476177
-4.617284	cto	-0.1276297
-4.617284	cubes	-0.1470674
-4.617284	cucina	-0.1477498
-3.833766	cucumber	-0.2173784
-4.024064	cucumbers	-0.1369732
-4.47778	cues	-0.118909
-3.888427	cuisine	-0.3347907
-3.950971	cup	-0.156137
-4.617284	cupcakes	-0.1450411
-3.741564	cups	-0.3510427
-4.617284	curious	-0.1463275
-4.617284	curly	-0.1477498
-4.111997	current	-0.1394309
-3.372538	currently	-0.2244219
-3.518981	curry	-0.2858744
-4.617284	curry's	-0.1475198
-4.617284	curst	-0.1465844
-4.617284	custard	-0.1276297
-3.741564	custom	-0.2025399
-4.111997	customer	-0.1349295
-4.47778	customers	-0.1229627
-4.47778	customizations	-0.1413158
-4.222375	customize	-0.1451625
-4.222375	customized	-0.1715978
-3.355134	cut	-0.2739719
-4.47778	cute	-0.146664
-3.950971	cuts	-0.1666982
-4.111997	cuz	-0.1820674
-4.617284	cynthia	-0.1272674
-4.617284	d'	-0.1477458
-4.617284	d'angelo's	-0.1438724
-4.47778	dad	-0.1454735
-4.617284	dade	-0.1477498
-4.47778	dads	-0.1452463
-4.47778	daiya	-0.1473505
-4.617284	dakota	-0.1445558
-4.47778	dallas	-0.1229627
-4.617284	damage	-0.1276297
-4.617284	dammit	-0.1471127
-4.617284	damn	-0.1470146
-4.222375	dan	-0.1729067
-4.617284	dan's	-0.1387097
-4.370732	dang	-0.1344955
-4.617284	danny	-0.145488
-4.617284	dapper	-0.1476328
-4.370732	dark	-0.1149679
-4.47778	darn	-0.1525239
-4.617284	darnestown	-0.1276297
-4.617284	data	-0.1475876
-4.024064	date	-0.147656
-4.617284	dates	-0.1394425
-4.47778	daughter	-0.1797531
-4.617284	daughter's	-0.1476855
-4.617284	daughters	-0.1477081
-4.47778	dauphin	-0.2596199
-4.617284	dave	-0.1276297
-4.47778	davis	-0.1213213
-4.617284	davlo	-0.1469618
-4.617284	dawn	-0.1471277
-3.355134	day	-0.3160771
-4.370732	days	-0.1272674
-4.47778	dayton	-0.1473807
-4.617284	dc	-0.1447151
-4.47778	de	-0.1476901
-4.617284	dead	-0.1276297
-3.355134	deal	-0.2330355
-3.741564	deals	-0.2186589
-4.111997	dear	-0.138967
-3.950971	debit	-0.2522013
-4.617284	debt	-0.1474971
-4.47778	decaf	-0.1355489
-4.47778	decatur	-0.1437819
-4.222375	decide	-0.2217668
-4.222375	decided	-0.1764856
-4.47778	deciding	-0.1423007
-4.47778	decision	-0.2395264
-4.617284	decisions	-0.1476629
-4.617284	decrust	-0.1464182
-2.979482	deep	-0.8436663
-4.024064	deepdish	-0.1055981
-4.222375	default	-0.1400694
-4.617284	definately	-0.1473087
-4.617284	definetly	-0.1276297
-3.544601	definitely	-0.1175107
-4.47778	degree	-0.142503
-4.47778	degrees	-0.1244353
-4.617284	delaney	-0.1472333
-4.617284	delay	-0.1445937
-4.370732	delayed	-0.1973942
-4.617284	delays	-0.1458663
-4.617284	deleiver	-0.1474293
-4.47778	delete	-0.2563462
-4.617284	delfina	-0.1447151
-4.47778	deli	-0.1275078
-4.617284	delicios	-0.1433097
-3.741564	delicious	-0.1347913
-4.47778	deliever	-0.1413616
-4.617284	delievered	-0.143766
-4.370732	delievery	-0.1239626
-3.950971	delight	-0.1818606
-4.617284	delighted	-0.1234408
-4.617284	delite	-0.1259584
-3.372538	deliver	-0.2873021
-3.322286	delivered	-0.3626694
-4.617284	deliveries	-0.1259584
-4.024064	delivering	-0.1080185
-4.617284	delivers	-0.1276297
-2.931901	delivery	-0.3486055
-4.617284	deliveryor	-0.1477081
-4.617284	delivery”	-0.1276297
-4.370732	della	-0.147649
-4.617284	delmonte	-0.14758
-4.617284	delorenzos	-0.1474067
-4.370732	delux	-0.136095
-3.571829	deluxe	-0.2915402
-4.617284	delvered	-0.1464182
-4.617284	demoines	-0.1477498
-4.617284	demos	-0.1473163
-4.617284	denver	-0.1276025
-4.617284	department	-0.127563
-4.370732	depends	-0.1814582
-4.617284	deposit	-0.147678
-4.47778	depot	-0.1419879
-4.47778	derango's	-0.1366552
-4.47778	describe	-0.1392896
-4.617284	describes	-0.1445937
-4.617284	descriptive	-0.1470448
-4.024064	desert	-0.1409748
-4.370732	deserts	-0.196086
-4.111997	deserve	-0.3664138
-4.47778	desire	-0.1274999
-4.617284	desired	-0.1476259
-4.47778	desires	-0.2395264
-4.617284	desiring	-0.1276297
-4.47778	desk	-0.1241571
-3.429376	dessert	-0.31391
-3.701895	desserts	-0.2112066
-4.617284	detail	-0.143766
-4.617284	detailed	-0.1462897
-3.372538	details	-0.2911638
-4.617284	determine	-0.1472635
-4.617284	detour	-0.1394425
-4.617284	devein	-0.1476026
-4.47778	deveined	-0.1426362
-4.617284	device	-0.07504071
-4.617284	devilry	-0.1276297
-4.222375	dew	-0.1110296
-4.370732	dewey's	-0.2098874
-4.111997	di	-0.1452404
-4.617284	diabetes	-0.1276297
-4.222375	diablo	-0.1829244
-4.617284	dialing	-0.1467882
-4.617284	diameter	-0.1276297
-4.47778	diana	-0.1370912
-4.47778	diavola	-0.118909
-3.785223	diced	-0.5868527
-4.617284	dick	-0.147271
-4.617284	dickson	-0.1472333
-2.635582	did	-0.7786668
-4.617284	didis	-0.1444495
-3.600878	didn't	-0.1774959
-4.617284	didnt	-0.1455527
-4.617284	didn’t	-0.1471127
-4.617284	die	-0.1431803
-4.47778	diedre	-0.2552064
-3.26322	diet	-0.6178202
-4.024064	difference	-0.2427097
-3.306749	different	-0.2378542
-4.617284	digit	-0.1477232
-4.617284	digital	-0.1475348
-4.47778	digitally	-0.2395264
-4.617284	digits	-0.143766
-4.617284	dijon	-0.1477458
-4.617284	dimley	-0.1477538
-3.888427	dine	-0.5728817
-4.024064	dinein	-0.1731296
-4.617284	diner	-0.1276297
-4.47778	ding	-0.1276146
-3.888427	dining	-0.3064773
-4.47778	diningin	-0.1770007
-3.249628	dinner	-0.3131358
-4.617284	dinners	-0.1276297
-4.370732	dion's	-0.1368097
-4.024064	dip	-0.1861195
-4.47778	dipped	-0.1400144
-4.617284	dippin	-0.146841
-3.571829	dipping	-0.7058226
-4.47778	dips	-0.1427504
-4.111997	directions	-0.3686249
-4.370732	directly	-0.2066756
-4.47778	director	-0.1435801
-4.370732	disappointing	-0.1265642
-4.617284	disappoints	-0.1276297
-4.617284	disaster	-0.1474293
-4.617284	disclosing	-0.1432032
-4.47778	disconnect	-0.1267101
-4.617284	disconnected	-0.1276297
-4.617284	disconnecting	-0.1394425
-4.47778	disconnection	-0.1275867
-4.47778	discontinued	-0.2563462
-3.950971	discount	-0.1064737
-4.47778	discounted	-0.1442032
-4.47778	discounts	-0.2578311
-4.47778	discover	-0.1473053
-4.617284	discuss	-0.1454577
-4.617284	discussed	-0.1276297
-4.617284	discussions	-0.1463275
-4.617284	disgh	-0.1394425
-4.617284	disgusting	-0.1276297
-3.409592	dish	-0.0897774
-3.544601	dishes	-0.3075744
-4.617284	disount	-0.1438724
-4.617284	dissolve	-0.1276297
-4.617284	distance	-0.1473464
-4.617284	divine	-0.1468637
-4.617284	divisadero	-0.1474896
-4.617284	divisidero	-0.1276297
-4.370732	division	-0.17914
-4.617284	dixon	-0.1470976
-2.217527	do	-0.4958227
-4.370732	doable	-0.1229554
-4.617284	dobble	-0.1471428
-4.617284	doc	-0.1447151
-4.617284	dock	-0.1475499
-4.47778	doe	-0.161907
-2.725667	does	-0.6099405
-3.26322	doesn't	-0.302764
-4.47778	doesnt	-0.146241
-3.518981	dog	-0.2163419
-4.617284	doggone	-0.1445937
-3.950971	dogs	-0.09420136
-3.544601	doing	-0.1379335
-4.617284	doke	-0.1235523
-4.617284	dokey	-0.1276297
-4.617284	dokie	-0.1215053
-3.833766	dollar	-0.1328455
-3.322286	dollars	-0.3328264
-4.617284	dollarsdid	-0.1443357
-4.617284	domain	-0.1450411
-4.617284	domenico's	-0.1276297
-4.617284	dominick's	-0.1432564
-4.617284	dominioes	-0.1394425
-4.617284	dominios	-0.1276297
-4.617284	domino	-0.1221326
-3.291749	domino's	-0.2298002
-3.632011	dominoes	-0.2677917
-3.355134	dominos	-0.1967613
-4.47778	dominoz	-0.1455678
-4.617284	domino’s	-0.1276297
-4.617284	domios	-0.146924
-4.47778	don	-0.1470378
-3.112992	don't	-0.3091267
-4.617284	donate	-0.1435953
-4.47778	donatello's	-0.2544143
-4.47778	donates	-0.1274131
-4.617284	donating	-0.143766
-4.617284	donation	-0.1276297
-4.222375	donato's	-0.1626649
-4.111997	donatos	-0.1254643
-3.322286	done	-0.1753481
-4.617284	doneness	-0.1433097
-4.617284	donkey	-0.1469618
-4.111997	donna	-0.1648
-3.888427	dont	-0.1835939
-4.617284	dont'	-0.1475951
-4.370732	don’t	-0.1446895
-4.222375	door	-0.1696893
-4.617284	dope	-0.1451244
-4.617284	doritos	-0.1394425
-4.47778	dosa	-0.1391318
-4.617284	dosaks	-0.1447151
-3.187401	double	-0.4355187
-4.617284	doublecheck	-0.1443357
-4.617284	doublechecked	-0.1276297
-4.617284	doublecheckyes	-0.1475273
-4.222375	doublecheese	-0.1865846
-4.617284	doublecrust	-0.1471805
-4.617284	doubt	-0.1466372
-3.450104	dough	-0.1406997
-4.617284	doughroom	-0.1229068
-4.617284	doughs	-0.1276297
-4.47778	doughy	-0.1415374
-4.617284	douglas	-0.1475499
-4.617284	dover	-0.1276187
-3.041126	down	-0.3081845
-4.617284	downey	-0.1276297
-4.47778	downstairs	-0.1459688
-3.950971	downtown	-0.1365731
-4.111997	dozen	-0.1335394
-3.544601	dr	-0.4299111
-4.617284	drat	-0.1470146
-4.617284	drawer	-0.145435
-4.617284	dream	-0.1348709
-4.111997	dressed	-0.2220302
-3.518981	dressing	-0.2012822
-4.617284	dressings	-0.118909
-4.222375	dried	-0.2047173
-3.372538	drink	-0.2738539
-4.617284	drinkdo	-0.1457756
-3.143335	drinks	-0.3562978
-3.429376	drive	-0.2621612
-4.222375	driver	-0.195995
-4.617284	drivers	-0.1276297
-4.222375	driving	-0.1216137
-4.222375	drizzle	-0.1155773
-4.370732	drizzled	-0.2147295
-4.617284	drizzles	-0.1438724
-4.111997	drop	-0.1571922
-4.617284	dropped	-0.1473992
-4.47778	dropping	-0.144226
-4.617284	drove	-0.1477458
-4.47778	drpeppers	-0.118909
-4.111997	drunken	-0.3726822
-4.111997	dry	-0.1265975
-4.617284	dryrub	-0.1474745
-4.617284	dryrubbed	-0.1462142
-4.617284	dubuque	-0.1477498
-3.888427	duck	-0.2033869
-4.617284	ducks	-0.1432564
-4.47778	dude	-0.1426971
-3.950971	due	-0.1923593
-4.617284	dummys	-0.1464182
-4.47778	dumpling	-0.2395264
-4.222375	dumplings	-0.1989946
-4.617284	dunan	-0.1477538
-4.617284	duper	-0.1453407
-4.617284	durango	-0.1274604
-4.47778	durham	-0.1275472
-4.370732	during	-0.1373465
-4.47778	duty	-0.1704865
-4.617284	dying	-0.143766
-4.617284	dylan	-0.1276297
-3.950971	e	-0.1393458
-3.26322	each	-0.2741768
-4.47778	eagan	-0.1276146
-4.617284	eagg	-0.147678
-4.617284	eagle	-0.1473163
-4.617284	ear	-0.1466372
-4.47778	earbuds	-0.1242684
-3.888427	earlier	-0.1557514
-4.617284	earliest	-0.1445937
-4.617284	earlobes	-0.1276297
-4.222375	early	-0.1176201
-4.617284	earn	-0.1477498
-4.617284	ears	-0.1468712
-4.617284	earth	-0.1477538
-4.617284	ease	-0.145435
-4.024064	easier	-0.1467423
-4.617284	easiest	-0.1440775
-3.888427	east	-0.1483117
-4.617284	eastman	-0.1474896
-4.47778	eastside	-0.1434169
-3.632011	easy	-0.308867
-3.450104	eat	-0.1129175
-4.47778	eaten	-0.1467017
-4.617284	eater	-0.1252415
-4.370732	eaters	-0.3086155
-3.701895	eating	-0.1861923
-4.222375	eats	-0.1430329
-4.617284	eb	-0.1475574
-4.617284	echo	-0.1451244
-4.617284	economic	-0.1477538
-4.617284	economical	-0.1276297
-4.370732	edgar	-0.3287396
-4.617284	edge	-0.145435
-4.370732	edit	-0.3254353
-4.617284	edited	-0.1438724
-4.370732	edmond	-0.1986511
-4.617284	eew	-0.1465693
-4.617284	effective	-0.1476102
-4.617284	effort	-0.1276297
-3.27725	egg	-0.3506
-3.544601	eggplant	-0.2178603
-4.617284	eggroll	-0.1394425
-3.741564	eggs	-0.2667518
-4.617284	eh	-0.1465693
-4.617284	ehh	-0.1472786
-3.049486	eight	-0.448846
-3.785223	eighteen	-0.3625436
-4.111997	eighty	-0.1983172
-3.306749	either	-0.2294655
-4.370732	el	-0.2185541
-4.47778	elaina	-0.2395264
-4.617284	elarge	-0.1276297
-4.617284	electric	-0.1450411
-4.47778	electronic	-0.1466001
-4.47778	electronically	-0.1276146
-4.024064	eleven	-0.1915396
-4.617284	elgin	-0.1276297
-4.617284	elko	-0.1477382
-4.47778	ella	-0.1262592
-4.617284	eller	-0.1468486
-4.222375	elm	-0.2140039
-4.617284	elona	-0.1276297
-4.47778	elpaso	-0.1275946
-3.429376	else	-0.1463221
-4.617284	elsea	-0.14758
-4.617284	elton	-0.1476328
-4.617284	elvis	-0.1276297
-3.39067	email	-0.2522407
-4.111997	emailed	-0.4453044
-4.617284	emailing	-0.1432032
-4.370732	emily	-0.1899975
-4.617284	emmons	-0.1475725
-4.617284	emoji	-0.1276297
-4.617284	empire	-0.1275157
-4.617284	employee	-0.147554
-4.47778	employees	-0.1257129
-4.47778	emporium	-0.1244353
-4.617284	empty	-0.1276297
-3.950971	enchilada	-0.1575229
-3.785223	enchiladas	-0.2716995
-4.617284	enchollatas	-0.1432564
-4.617284	encinitas	-0.1276297
-4.617284	enclosed	-0.1276297
-4.617284	enclosing	-0.1445027
-4.617284	encrust	-0.1438724
-3.833766	end	-0.1552745
-4.370732	ended	-0.1098251
-4.222375	ending	-0.2388473
-4.370732	ends	-0.2152388
-4.617284	energy	-0.1477081
-4.47778	england	-0.1988485
-4.47778	english	-0.1453634
-4.617284	enhance	-0.1432032
-4.617284	enhancement	-0.143766
-2.979482	enjoy	-0.7362583
-4.370732	enjoyed	-0.1418394
-4.617284	eno's	-0.1445558
-3.338399	enough	-0.3653919
-4.370732	ensure	-0.1958094
-4.47778	enter	-0.1421787
-4.617284	entered	-0.1432032
-4.47778	entering	-0.1395429
-4.47778	entire	-0.2123343
-4.617284	entirely	-0.147271
-4.617284	entrance	-0.1432108
-4.47778	entree	-0.1186682
-4.617284	environment	-0.1276297
-4.617284	environmentally	-0.1477458
-4.617284	eola	-0.1475499
-4.617284	equal	-0.1450411
-4.617284	er	-0.1445937
-4.617284	eric	-0.1464937
-4.617284	erica	-0.1433097
-4.617284	errand	-0.1271762
-4.47778	errands	-0.1406349
-4.617284	error'sorry	-0.146456
-4.617284	es	-0.1471428
-4.617284	esle	-0.1451244
-4.111997	especially	-0.1818872
-4.617284	espresso	-0.1477538
-4.617284	essex	-0.1276297
-4.222375	establishment	-0.1778095
-4.370732	estimate	-0.1383831
-3.950971	estimated	-0.2230452
-4.617284	et	-0.1443357
-4.617284	eta	-0.1431803
-4.111997	etc	-0.4291511
-4.617284	eternity	-0.1276297
-4.617284	ethel	-0.1471127
-4.370732	eureka	-0.118003
-4.617284	eureka's	-0.1425177
-4.47778	euro	-0.1440057
-4.370732	euros	-0.1167959
-4.370732	evan's	-0.121818
-4.617284	eve	-0.1276297
-3.632011	even	-0.1623961
-3.888427	evening	-0.2035359
-4.617284	evening's	-0.1471127
-4.617284	eveningi	-0.1453365
-4.617284	evenings	-0.1276297
-4.024064	event	-0.2466357
-3.950971	ever	-0.1419714
-4.617284	evergreen	-0.1276187
-3.741564	every	-0.2105351
-4.47778	everybody	-0.1452801
-4.617284	everyday	-0.1472032
-3.471871	everyone	-0.2633992
-4.617284	everyoneduh	-0.1475574
-2.986726	everything	-0.2730094
-4.617284	everything's	-0.1458182
-4.617284	everything’s	-0.1475951
-4.617284	evidently	-0.1433097
-4.617284	evil	-0.1477538
-4.617284	evoo	-0.1470825
-4.47778	ewallet	-0.127421
-4.617284	ewww	-0.1276297
-4.617284	ex	-0.1276297
-4.617284	exacly	-0.1470146
-4.370732	exact	-0.1468836
-3.494787	exactly	-0.2466349
-4.617284	exactlyl	-0.1276297
-3.785223	excellent	-0.1490017
-4.111997	except	-0.1331501
-4.111997	exchange	-0.5460377
-4.111997	excited	-0.3078776
-4.617284	excitement	-0.1276297
-4.617284	exciting	-0.1407574
-4.617284	exclude	-0.1432032
-4.617284	excluding	-0.1472032
-4.370732	excuse	-0.3278721
-4.617284	exercise	-0.1276297
-4.617284	exist	-0.1276297
-4.617284	existing	-0.1474821
-4.617284	exoists	-0.147678
-4.617284	exotic	-0.1453668
-3.833766	expect	-0.1626609
-4.47778	expected	-0.2556627
-4.617284	expecting	-0.1477382
-4.617284	expedited	-0.1477458
-4.617284	expense	-0.1474821
-4.617284	expenses	-0.1276297
-3.785223	expensive	-0.1799633
-4.617284	experation	-0.1477538
-4.222375	experience	-0.2522334
-4.47778	experiencing	-0.2158012
-4.617284	expired	-0.1477498
-4.222375	express	-0.2270831
-4.617284	extea	-0.1463426
-4.617284	exteme	-0.1459722
-2.478851	extra	-0.4283617
-4.47778	extracheese	-0.1261722
-4.111997	extralarge	-0.1431673
-4.617284	extralong	-0.1475876
-4.111997	extramostbestest	-0.3315416
-4.222375	extras	-0.1875266
-4.47778	extravaganza	-0.1225123
-4.47778	extravaganzza	-0.1411552
-4.617284	extravagazza	-0.1477081
-4.617284	extraveganzza	-0.1425177
-4.617284	extre	-0.1463426
-4.47778	extreme	-0.1875004
-4.617284	extremely	-0.1477538
-4.617284	eye	-0.1429713
-4.617284	eyour	-0.1462897
-4.47778	f	-0.1476675
-4.617284	fabian	-0.1276297
-4.617284	fabulous	-0.1466674
-4.617284	face	-0.1477538
-4.617284	facial	-0.1276297
-4.222375	fact	-0.1390941
-4.617284	factors	-0.147007
-4.617284	facts	-0.1276297
-4.617284	factual	-0.1476554
-4.617284	fails	-0.143766
-4.617284	faint	-0.147693
-4.47778	fair	-0.127421
-4.370732	fairly	-0.2182297
-4.617284	fairview	-0.1476102
-4.617284	faith	-0.1477538
-4.47778	fajita	-0.1855578
-4.222375	fajitas	-0.112231
-4.222375	fake	-0.1983425
-4.617284	fakeville	-0.1276297
-4.47778	falafel	-0.1474334
-4.47778	fallon	-0.2596349
-4.617284	fam	-0.1431803
-4.617284	familiar	-0.1432564
-3.306749	family	-0.2626096
-4.617284	family's	-0.1475198
-4.370732	familysize	-0.1157189
-4.222375	famous	-0.1165091
-4.222375	fan	-0.2735439
-4.111997	fancy	-0.1601152
-4.617284	faneuil	-0.1477498
-4.024064	fanta	-0.1402124
-3.471871	fantastic	-0.2683499
-3.950971	far	-0.1343885
-4.617284	farmer's	-0.1477307
-4.47778	farmers	-0.2596274
-4.370732	farmville	-0.1377243
-3.701895	fast	-0.1813467
-3.950971	faster	-0.3711802
-3.950971	fat	-0.1578648
-4.617284	fathom	-0.1459722
-4.617284	fatted	-0.1463426
-4.024064	favor	-0.1513583
-3.701895	favorite	-0.1962588
-4.617284	favorites	-0.1276297
-4.617284	favortie	-0.1474745
-4.617284	favrote	-0.1474745
-4.47778	fazoli's	-0.2596505
-4.370732	feast	-0.1338984
-4.47778	feather	-0.2582393
-4.617284	feature	-0.1438724
-4.617284	february	-0.1455375
-4.617284	fed	-0.1276297
-4.617284	federal	-0.1431803
-4.47778	federici's	-0.1271604
-4.222375	fee	-0.1831589
-3.833766	feed	-0.1807685
-4.617284	feedback	-0.1466674
-4.370732	feeding	-0.1253208
-4.370732	feeds	-0.1421412
-3.833766	feel	-0.3720501
-3.950971	feeling	-0.2318411
-4.222375	fees	-0.1903828
-4.47778	fellini’s	-0.1430703
-4.617284	female	-0.1276297
-4.617284	fennel	-0.1471504
-4.370732	fernando's	-0.2098874
-3.211233	feta	-0.4101779
-4.47778	fetch	-0.139999
-4.617284	fetta	-0.1394425
-3.701895	fettuccine	-0.4198037
-4.47778	fettucine	-0.2594616
-4.024064	few	-0.1456593
-4.617284	field	-0.1476704
-4.617284	fields	-0.1276297
-3.833766	fiery	-0.8054308
-4.47778	fiesta	-0.2591752
-3.544601	fifteen	-0.238655
-3.338399	fifty	-0.3553499
-4.47778	fiftyfive	-0.2594315
-3.950971	figure	-0.2582695
-4.47778	figured	-0.1397383
-4.617284	figures	-0.1474745
-4.617284	fiji	-0.1476102
-4.617284	fil	-0.1276297
-4.111997	file	-0.07697854
-4.47778	filet	-0.2596505
-4.222375	fill	-0.2578882
-4.370732	filling	-0.1253525
-4.617284	fillingi	-0.1475198
-4.47778	fillmore	-0.1221326
-4.617284	fin	-0.1476629
-4.024064	final	-0.3390734
-4.47778	finalize	-0.1370455
-4.617284	finalized	-0.1467882
-4.47778	finalizing	-0.1431926
-4.222375	finally	-0.1812312
-4.617284	financial	-0.14758
-4.617284	fincertainly	-0.1471051
-3.471871	find	-0.2644705
-4.111997	finding	-0.2239683
-4.617284	findings	-0.1476855
-3.249628	fine	-0.2238502
-4.47778	fineanything	-0.2594993
-4.617284	finewhen	-0.1458663
-4.47778	finger	-0.1224448
-3.888427	finish	-0.1560275
-4.222375	finished	-0.1319213
-4.617284	finishes	-0.1463124
-4.222375	finishing	-0.2387168
-4.617284	fiona	-0.1276297
-4.617284	fior	-0.1477307
-4.617284	fiori's	-0.127563
-4.617284	fircrest	-0.1469618
-4.024064	fire	-0.1644341
-4.222375	fired	-0.2017131
-4.617284	fires	-0.1394425
-3.249628	first	-0.1443496
-4.617284	firstly	-0.1445027
-3.665549	fish	-0.1474348
-4.47778	fisherman	-0.2588132
-4.617284	fisherman's	-0.1469165
-4.617284	fishtown	-0.1425177
-4.617284	fist	-0.1476177
-4.617284	fistful	-0.145435
-2.829179	five	-0.3756931
-4.617284	fivecheese	-0.1424303
-4.47778	fix	-0.1412546
-4.617284	fixed	-0.1444495
-4.617284	fixings	-0.1379702
-4.47778	fl	-0.1275946
-4.47778	flakes	-0.1381597
-4.617284	flan	-0.1394425
-4.111997	flat	-0.1451713
-4.222375	flatbread	-0.1396239
-4.617284	flatter	-0.1468863
-4.617284	flavoed	-0.1394425
-3.600878	flavor	-0.2238452
-3.600878	flavored	-0.4690365
-4.617284	flavorful	-0.1476554
-4.222375	flavoring	-0.1179839
-4.111997	flavors	-0.1749746
-4.617284	flee	-0.1467957
-4.617284	flexibility	-0.1229627
-4.617284	flies	-0.1276297
-4.617284	flint	-0.1477382
-4.617284	flipping	-0.1425177
-4.617284	float	-0.1454577
-4.617284	floats	-0.1454577
-4.617284	floor	-0.1276297
-4.617284	florence	-0.1340937
-4.222375	florentine	-0.1466688
-4.47778	florida	-0.1444689
-4.617284	floridian	-0.1445937
-4.47778	flour	-0.1228271
-4.617284	flower	-0.1477538
-4.617284	floyd	-0.1394425
-4.617284	flushing	-0.1276297
-4.617284	flying	-0.1473313
-4.222375	focaccia	-0.2577747
-4.617284	foind	-0.1468712
-4.617284	fold	-0.1473163
-4.47778	folk	-0.1274058
-4.47778	folks	-0.1380087
-4.617284	follow	-0.1473313
-4.617284	followed	-0.1472258
-4.47778	following	-0.1259949
-4.617284	follows	-0.1447799
-4.47778	folsom	-0.1269314
-4.617284	fom	-0.1432032
-4.617284	fond	-0.145435
-4.617284	fontina	-0.1276297
-3.009211	food	-0.3228343
-4.617284	foodcourt	-0.1445558
-4.370732	foods	-0.1249638
-4.617284	fool	-0.1276297
-4.111997	foot	-0.5504597
-4.617284	foothill	-0.1476704
-4.370732	footlong	-0.2418763
-1.978837	for	-0.5695145
-4.617284	forcing	-0.1471579
-4.617284	forever	-0.1458663
-3.701895	forget	-0.2140905
-3.833766	forgot	-0.1438791
-4.617284	fork	-0.146924
-4.617284	forkate	-0.1477498
-4.617284	forks	-0.1276297
-3.888427	form	-0.1458863
-4.617284	forrester	-0.1269551
-4.617284	forsure	-0.1276297
-4.370732	fort	-0.2000567
-4.617284	forth	-0.1440775
-4.111997	fortune	-0.2996629
-3.494787	forty	-0.4879031
-4.370732	forward	-0.2104716
-4.617284	forwarded	-0.143766
-4.024064	found	-0.134773
-4.617284	founded	-0.14758
-4.47778	fountain	-0.2395264
-2.698504	four	-0.4360768
-4.47778	fourcheese	-0.2544143
-4.617284	fourmedium	-0.1472786
-4.617284	fourmediumthin	-0.1467957
-3.544601	fourteen	-0.649193
-4.024064	fourth	-0.1352768
-4.617284	fourty	-0.1471202
-4.617284	frame	-0.1260772
-4.617284	francino	-0.1425177
-4.617284	francisco	-0.1233821
-4.617284	frank	-0.1464937
-4.617284	frank's	-0.1424685
-4.617284	frankenstein's	-0.1431803
-4.47778	frankie	-0.1242127
-4.370732	frankie's	-0.2511667
-4.617284	franklin	-0.1477498
-4.617284	frankly	-0.1457756
-4.370732	franks	-0.1221289
-4.617284	franzones	-0.1276297
-4.617284	frapachino	-0.1447151
-4.617284	frappe	-0.1464182
-4.47778	frappucino	-0.2583149
-4.617284	fratelli	-0.1425177
-4.617284	fred	-0.1463275
-4.47778	freddie	-0.1475469
-4.617284	fredericksburg	-0.146924
-3.249628	free	-0.154958
-4.617284	freedom	-0.1476403
-4.617284	freeway	-0.1433097
-4.617284	freind	-0.1462066
-3.494787	french	-0.4809678
-4.617284	frequentpizza	-0.1474821
-4.617284	fresca	-0.142918
-3.175958	fresh	-0.3347823
-4.617284	freshcut	-0.14709
-4.617284	freshest	-0.1472032
-4.617284	freshly	-0.1475348
-4.47778	fresno	-0.2596048
-4.617284	fretta	-0.1477006
-4.024064	friday	-0.1179193
-4.617284	fridays	-0.1276297
-4.617284	fridge	-0.1475424
-3.199153	fried	-0.4287713
-4.222375	friend	-0.1413874
-4.47778	friend's	-0.1470495
-4.370732	friendly	-0.122748
-3.701895	friends	-0.2840328
-3.153939	fries	-0.306085
-4.617284	frisco	-0.1445558
-4.617284	fro	-0.1471353
-2.509389	from	-0.2270942
-4.222375	front	-0.2670969
-4.617284	froom	-0.1276297
-4.617284	frost	-0.1276297
-4.617284	frosting	-0.1431803
-4.617284	froze	-0.1276297
-4.47778	frozen	-0.2395264
-3.888427	fruit	-0.3042289
-4.617284	fruita	-0.1244353
-4.47778	fruits	-0.1367514
-4.617284	fruity	-0.1276297
-3.950971	fry	-0.1490928
-4.617284	ft	-0.1477538
-4.617284	fucking	-0.147693
-4.617284	fudge	-0.1477081
-4.617284	fulbright	-0.1276297
-3.471871	full	-0.1826557
-4.47778	fully	-0.1477393
-4.47778	fultano's	-0.1934417
-3.950971	fun	-0.1325603
-4.47778	funghi	-0.1920969
-4.370732	funny	-0.124527
-4.47778	funtastic	-0.2395264
-4.617284	furious	-0.1276297
-4.47778	further	-0.1457233
-4.222375	future	-0.1529729
-4.47778	fyre	-0.2544143
-4.617284	g	-0.1458251
-4.47778	ga	-0.2395264
-4.617284	gai	-0.1473238
-4.617284	gail	-0.1470749
-4.617284	gainesville	-0.1477498
-4.617284	gallatin	-0.1477498
-4.617284	galleria	-0.1276297
-4.617284	gallo	-0.1125534
-4.370732	gallon	-0.1248019
-4.370732	gallons	-0.1417783
-4.617284	gambino's	-0.1445558
-4.222375	game	-0.1958484
-4.370732	games	-0.1273621
-4.617284	gang	-0.1458663
-4.617284	garbage	-0.1276297
-3.450104	garden	-0.292388
-2.804484	garlic	-0.4210468
-4.617284	garlice	-0.1477458
-4.617284	garlicfree	-0.1476252
-4.47778	garlicrolled	-0.2586924
-4.370732	garlics	-0.1185511
-4.617284	garnish	-0.1432564
-4.617284	gaspares	-0.1276297
-4.617284	gate	-0.1379548
-4.617284	gather	-0.1463124
-4.370732	gathering	-0.2169904
-4.222375	gave	-0.2076748
-4.617284	gaylord	-0.1477382
-4.47778	gazpacho	-0.2069932
-4.47778	geary	-0.1469584
-4.47778	gee	-0.1409793
-4.617284	geewhat	-0.147467
-4.617284	geez	-0.1387091
-4.370732	gelato	-0.1941362
-4.617284	gelsosomos	-0.1276297
-4.617284	gem	-0.1477458
-4.617284	gencarelli's	-0.1445558
-3.741564	general	-0.3401811
-4.370732	generally	-0.1451251
-4.370732	generous	-0.1964987
-4.617284	generousim	-0.147271
-4.370732	geno's	-0.1955775
-4.47778	george	-0.2395264
-4.47778	georgia	-0.1474184
-4.47778	germantown	-0.2596274
-2.824126	get	-0.2530423
-4.617284	get's	-0.1471051
-4.111997	gets	-0.1468555
-4.617284	getta	-0.1425177
-3.306749	getting	-0.2039604
-4.47778	gettogether	-0.1267891
-4.222375	gf	-0.1828587
-4.47778	ghost	-0.2591677
-4.617284	giannis	-0.1276297
-4.370732	giant	-0.1849624
-4.617284	gift	-0.1474971
-4.617284	gifts	-0.1276297
-4.47778	gigante	-0.2544143
-4.617284	giletto	-0.1276297
-4.47778	gimme	-0.2563993
-4.222375	gina's	-0.1911446
-4.024064	ginger	-0.5106654
-3.833766	gino's	-0.167998
-4.47778	ginos	-0.1750982
-4.47778	gio's	-0.1230228
-4.47778	gionino's	-0.1399377
-4.617284	giordano's	-0.1256415
-4.47778	giordanos	-0.1274726
-4.370732	giorgio's	-0.1696552
-4.617284	giovanna's	-0.1276297
-4.111997	giovanni's	-0.1121337
-4.617284	giovannies	-0.1425177
-4.111997	giovannis	-0.1211915
-4.370732	girl	-0.131214
-4.617284	girl's	-0.1475876
-4.370732	girlfriend	-0.1166591
-4.617284	girls	-0.141813
-2.972357	give	-0.6683183
-4.617284	given	-0.1276297
-4.617284	giver	-0.1468863
-4.024064	gives	-0.2140145
-4.024064	giving	-0.2105414
-3.632011	glad	-0.4035441
-4.617284	gladly	-0.143766
-4.617284	gladys	-0.1433097
-4.617284	glass	-0.1431803
-4.47778	glasses	-0.1439905
-4.617284	glaze	-0.1363341
-4.617284	glenmont	-0.1431769
-4.47778	glenstone	-0.1245747
-4.47778	glenwood	-0.139746
-4.617284	glue	-0.1394425
-4.617284	glued	-0.1445558
-3.024876	gluten	-0.9333434
-3.153939	glutenfree	-0.4766759
-4.617284	glutten	-0.1475198
-4.617284	glutton	-0.1475198
-4.617284	gluttonfree	-0.1394425
-4.617284	gnocchi	-0.1477538
-2.87751	go	-0.4208822
-4.617284	goar	-0.1473163
-3.833766	goat	-0.6641289
-4.47778	god	-0.1942718
-4.617284	godfather	-0.1425177
-4.617284	godzilla	-0.122859
-4.370732	goes	-0.1274095
-3.001586	going	-0.4825512
-4.617284	gold	-0.1474971
-3.950971	golden	-0.2016802
-4.617284	golooney's	-0.1276297
-4.47778	gone	-0.1475088
-3.741564	gonna	-0.2566147
-4.47778	goo	-0.1212781
-2.767678	good	-0.1895656
-3.164809	goodbye	-0.8984614
-4.47778	goodness	-0.1274841
-3.833766	goodnight	-0.5601469
-4.47778	goods	-0.1244353
-4.617284	goodwhat	-0.1472786
-3.701895	google	-0.278385
-4.617284	googlexa	-0.1276297
-4.617284	goong	-0.1464408
-4.617284	gorgeous	-0.147369
-4.111997	gorgonzola	-0.1791716
-4.617284	gosh	-0.1471353
-2.776592	got	-0.4257707
-4.617284	gotcha	-0.1425107
-4.47778	gotham	-0.2544143
-4.47778	gotta	-0.1450645
-4.47778	gotten	-0.1435877
-4.47778	gouda	-0.1167356
-4.617284	gound	-0.1471881
-4.111997	gourmet	-0.182874
-4.47778	gps	-0.1459617
-3.785223	grab	-0.2559066
-4.617284	grabbing	-0.1445027
-4.617284	graciela	-0.1267496
-4.47778	gracious	-0.1424497
-4.617284	graham	-0.1472333
-4.47778	grain	-0.1425412
-4.617284	gram	-0.1276297
-4.617284	grams	-0.1469618
-4.111997	grand	-0.1209709
-4.111997	grande	-0.1212191
-3.833766	grandma	-0.1843337
-4.617284	grandma's	-0.1469165
-4.617284	grandpa	-0.1476403
-4.47778	grandview	-0.1276146
-4.617284	grant	-0.118909
-4.47778	grape	-0.1466152
-4.617284	grass	-0.1432108
-4.111997	grated	-0.1762006
-4.111997	grateful	-0.306131
-4.617284	gratiot	-0.1276297
-4.47778	gratiuty	-0.1234408
-4.617284	gratuitous	-0.1477538
-4.370732	gravy	-0.1235217
-4.617284	grazie	-0.1466674
-4.47778	greasy	-0.1257525
-3.041126	great	-0.07181916
-4.617284	greatand	-0.1453668
-4.617284	greatcan	-0.1443357
-4.617284	greatest	-0.1276297
-4.617284	greati	-0.1453365
-4.617284	greatif	-0.1470523
-4.617284	greatly	-0.1477307
-4.617284	greatthanks	-0.1276297
-4.617284	greatyour	-0.147467
-4.617284	grecian	-0.1425177
-3.223658	greek	-0.3888081
-4.617284	greeklover's	-0.1425177
-4.617284	greekstyle	-0.1425177
-2.819131	green	-0.6470631
-4.617284	greeneville	-0.1276297
-4.617284	greenfield	-0.1276297
-4.617284	greenpeppers	-0.1276297
-4.222375	greens	-0.1316126
-4.370732	greg	-0.1248289
-4.617284	greg's	-0.1276297
-4.617284	grigio	-0.1477498
-4.024064	grill	-0.160737
-3.471871	grilled	-0.5492257
-4.47778	grimaldi's	-0.1271095
-4.617284	grimaldis	-0.1453668
-4.617284	grits	-0.1394425
-4.617284	grocery	-0.1475424
-4.370732	gross	-0.1791005
-4.617284	grotto	-0.1276297
-4.617284	grotto's	-0.1425177
-3.322286	ground	-0.7096955
-4.370732	group	-0.1231829
-4.47778	grove	-0.1275946
-4.617284	grr	-0.1470146
-4.617284	gryo	-0.1394425
-4.617284	gryos	-0.1440775
-4.617284	gte	-0.1445937
-3.518981	guacamole	-0.2832929
-4.47778	guarantee	-0.2123573
-4.370732	guess	-0.05576896
-4.617284	guessing	-0.1399607
-4.222375	guests	-0.1154357
-4.47778	guide	-0.1468758
-4.47778	guinevere's	-0.2595069
-4.370732	gumbo	-0.1984695
-4.617284	gun	-0.1477232
-4.370732	guy	-0.1127783
-4.370732	guys	-0.1275878
-4.617284	gwendolyn	-0.1433097
-4.617284	gym	-0.1276297
-3.450104	gyro	-0.3120119
-4.617284	gyro's	-0.1394425
-3.409592	gyros	-0.3109987
-4.617284	h	-0.1433097
-3.888427	ha	-0.2582427
-4.47778	habanero	-0.2596199
-4.617284	habit	-0.1276297
-3.494787	had	-0.1590688
-4.617284	haddock	-0.1474595
-4.617284	haddonfield	-0.1475499
-4.617284	hadn't	-0.1477382
-4.617284	hah	-0.1465507
-3.833766	haha	-0.2301297
-4.222375	hahaha	-0.2063069
-4.617284	hahahaha	-0.1442335
-4.617284	hair	-0.118535
-4.617284	halal	-0.1425177
-4.47778	halepenyos	-0.118909
-4.47778	haley	-0.1229627
-2.844699	half	-0.3428312
-4.47778	halfandhalf	-0.1172684
-4.617284	halfhalf	-0.1450411
-4.617284	halfpint	-0.1477538
-4.370732	halfs	-0.1947499
-4.47778	hall	-0.1475394
-4.617284	hallandale	-0.1477498
-4.370732	halves	-0.1146599
-2.834291	ham	-0.3540932
-4.47778	hamburg	-0.1221326
-3.409592	hamburger	-0.2708155
-4.222375	hamburgers	-0.1161415
-4.617284	hamhave	-0.1443357
-4.617284	hami	-0.1453365
-4.47778	hams	-0.1463014
-4.617284	hamthat	-0.1475273
-4.47778	hanasaki	-0.118909
-4.617284	hancock	-0.1474896
-2.979482	hand	-0.9349398
-4.617284	handcut	-0.1474595
-4.617284	handled	-0.1473163
-4.617284	handmade	-0.1473238
-4.617284	handpicked	-0.1477498
-4.370732	handtoss	-0.1198387
-3.471871	handtossed	-0.3168994
-3.888427	hang	-0.4993838
-4.617284	hanger	-0.1276297
-4.47778	hangover	-0.1430475
-4.617284	hangovers	-0.1462822
-4.47778	hank	-0.1229627
-4.47778	hankering	-0.255077
-4.617284	hannah	-0.1276297
-4.617284	hanndtossed	-0.1467957
-4.617284	hansaki	-0.1463729
-4.222375	happen	-0.2079968
-4.47778	happening	-0.1266073
-4.47778	happens	-0.1425599
-4.617284	happpend	-0.1458663
-3.544601	happy	-0.3245282
-4.617284	happy's	-0.1425177
-4.47778	happys	-0.1436789
-3.833766	hard	-0.1592785
-4.617284	hardboiled	-0.1475348
-4.617284	hardcrusted	-0.1473012
-4.617284	hardshell	-0.1476478
-4.024064	harrisburg	-0.2780216
-4.617284	harrison	-0.1276297
-2.713817	has	-0.2511629
-4.617284	hasbuffalo	-0.146841
-3.665549	hash	-0.5639729
-4.617284	hashbrown	-0.1476855
-4.47778	hashbrowns	-0.1167959
-4.47778	hasn't	-0.1475389
-4.617284	hassle	-0.1276297
-4.47778	hate	-0.1286059
-4.47778	hates	-0.1459764
-2.509389	have	-0.1712234
-4.617284	haveing	-0.1464862
-4.617284	haven	-0.1469165
-4.47778	haven't	-0.1439819
-4.617284	haveone	-0.1465844
-3.372538	having	-0.2093358
-4.617284	hawa	-0.1276297
-4.111997	hawaian	-0.3472382
-4.370732	hawaii	-0.1217257
-3.001586	hawaiian	-0.3905078
-4.370732	hawaiians	-0.1140898
-4.617284	hawaiianstyle	-0.1476478
-3.701895	hawaiin	-0.2747717
-4.47778	hawain	-0.1420566
-4.370732	hawiaan	-0.1391667
-4.617284	hawian	-0.1425177
-4.617284	hawiann	-0.1425177
-4.47778	hawiian	-0.2092639
-4.617284	hawthorne	-0.1276297
-4.617284	haze	-0.1457983
-3.471871	he	-0.2197556
-4.617284	he'd	-0.1477156
-4.617284	he'll	-0.1464182
-4.222375	he's	-0.1466043
-3.833766	head	-0.260207
-4.47778	headed	-0.1385867
-4.370732	heading	-0.1462416
-4.222375	headphones	-0.1333088
-4.617284	headquarter	-0.1276297
-4.617284	heads	-0.1276297
-4.617284	headset	-0.1450305
-4.47778	healthier	-0.1273499
-4.222375	healthy	-0.139605
-4.617284	heap	-0.1432108
-3.632011	hear	-0.2308417
-4.111997	heard	-0.1433348
-4.47778	hearing	-0.1410481
-3.888427	heart	-0.2186736
-4.47778	heartburn	-0.1268365
-4.617284	heartedly	-0.1477458
-4.617284	hearthbaked	-0.1465768
-4.617284	hearts	-0.1074607
-4.111997	hearty	-0.3725356
-4.370732	heat	-0.142343
-4.024064	heavy	-0.2251354
-4.47778	heck	-0.14623
-4.617284	heights	-0.1475725
-4.47778	heineken	-0.2395264
-4.47778	heirloom	-0.1466791
-4.617284	hell	-0.1464299
-4.617284	hellapenos	-0.1431803
-4.222375	hello	-0.07152586
-4.617284	hellow	-0.1467731
-3.26322	help	-0.2751839
-4.370732	helped	-0.1790056
-4.222375	helpful	-0.1634518
-4.370732	helping	-0.1182815
-4.617284	helps	-0.1445027
-4.617284	henderson	-0.1226363
-4.370732	henrietta	-0.1430826
-4.617284	heping	-0.1468863
-3.494787	her	-0.1358433
-4.370732	herb	-0.2584549
-4.617284	herbed	-0.1477538
-4.617284	herbs	-0.118909
-2.819131	here	-0.3153918
-4.111997	here's	-0.1968399
-4.617284	hermes	-0.147565
-4.024064	hero	-0.1652351
-3.785223	hey	-0.06608421
-4.370732	hfc	-0.3235035
-4.024064	hi	-0.08729648
-4.370732	hic	-0.1187122
-4.617284	hickory	-0.1477382
-4.617284	hickorysmoked	-0.1470297
-4.617284	hidden	-0.1477538
-4.47778	hide	-0.259537
-4.47778	hideaway	-0.1418429
-4.617284	hie	-0.1433097
-4.024064	high	-0.2285445
-4.617284	highest	-0.1477202
-4.47778	highly	-0.1477012
-3.833766	highway	-0.2310318
-4.617284	hihow	-0.1439981
-4.617284	hii	-0.1473992
-4.617284	hii'd	-0.1465693
-4.47778	hilary	-0.144613
-4.024064	hill	-0.2537848
-4.222375	hills	-0.2070044
-4.617284	hills'	-0.1473163
-4.617284	hillsboro	-0.1476704
-3.888427	him	-0.1444251
-4.617284	hippie	-0.1477538
-4.617284	hira	-0.1433097
-4.617284	hire	-0.1432032
-4.617284	hireing	-0.1276297
-3.785223	his	-0.140578
-4.617284	history	-0.145435
-4.370732	hit	-0.1390745
-4.617284	hiya	-0.1410099
-4.617284	hiyes	-0.1433097
-4.47778	hm	-0.1473013
-4.111997	hmm	-0.09015634
-4.617284	hmmchicken	-0.1432564
-4.617284	hmmi	-0.1475198
-4.617284	hmmi'm	-0.1470523
-4.617284	hmmlet	-0.1468863
-4.47778	hmmm	-0.1454167
-4.617284	hmmmany	-0.1470221
-4.617284	hmmmhow	-0.1470599
-4.617284	hmmmm	-0.1459612
-4.617284	hmmmpizzas	-0.1462822
-4.617284	hmmmwhat's	-0.1432032
-4.617284	hmmseems	-0.1465693
-4.617284	hoa	-0.1477081
-4.617284	hoagie	-0.1432564
-4.370732	hoagies	-0.2132589
-4.617284	hobnobs	-0.1276297
-4.617284	hoe	-0.1476855
-4.617284	hog	-0.147693
-4.617284	hoisin	-0.1394425
-3.409592	hold	-0.4451646
-4.617284	holder	-0.1276297
-4.617284	holders	-0.1450907
-4.47778	holding	-0.1414533
-4.370732	holiday	-0.3285583
-4.47778	hollywood	-0.2395264
-4.617284	holy	-0.1477538
-4.617284	holywhy	-0.1469467
-3.338399	home	-0.2319414
-4.617284	homecoming	-0.1477538
-4.222375	homemade	-0.1468237
-4.617284	homer	-0.1477538
-4.617284	homestyle	-0.1467957
-4.617284	hometown	-0.1425177
-4.617284	honest	-0.1276297
-3.600878	honey	-0.2474583
-4.617284	honeymustard	-0.1438724
-4.617284	honking	-0.1459344
-3.833766	honolulu	-0.6734334
-4.617284	honor	-0.145435
-4.617284	hook	-0.1468863
-3.888427	hope	-0.2179584
-4.47778	hopefully	-0.1417859
-3.950971	hoping	-0.4038258
-4.47778	horizon	-0.1766118
-4.617284	horny	-0.1477538
-4.617284	hos	-0.1371957
-4.47778	hospital	-0.2395264
-4.617284	host	-0.1477232
-2.790314	hot	-0.5913665
-4.111997	hotdog	-0.3095801
-4.111997	hotdogs	-0.2059311
-4.370732	hotel	-0.2359345
-4.617284	hotwings	-0.1440775
-4.47778	hounddog's	-0.1384979
-3.833766	hour	-0.2036947
-4.617284	hourly	-0.1394425
-3.833766	hours	-0.2032583
-3.26322	house	-0.1876637
-4.617284	housemade	-0.1471956
-2.481126	how	-0.7605526
-4.222375	how's	-0.3651047
-4.617284	howdy	-0.1274052
-3.544601	however	-0.1563845
-4.370732	howie	-0.3282869
-4.617284	howie's	-0.1463275
-4.370732	howies	-0.1094648
-4.617284	howlin'	-0.1470599
-4.617284	hows	-0.1445937
-4.617284	how’re	-0.1443357
-4.617284	hr	-0.143766
-4.617284	hrm	-0.1473389
-4.617284	hting	-0.1447151
-4.617284	huaraches	-0.1394425
-4.617284	hubby	-0.1445027
-4.617284	hudson	-0.1276297
-4.222375	huge	-0.1467242
-3.833766	huh	-0.1594808
-4.222375	hula	-0.294098
-4.617284	hum	-0.1472258
-4.617284	humdinger's	-0.1425177
-4.617284	humm	-0.1472635
-4.024064	hummus	-0.2668038
-4.617284	hun	-0.1470749
-3.833766	hundred	-0.2808521
-4.617284	hung	-0.1471428
-4.617284	hunger	-0.1394425
-3.223658	hungry	-0.3957736
-4.617284	hunt	-0.1394425
-4.617284	huntingdon	-0.140543
-4.617284	huntley	-0.1276297
-4.617284	huron	-0.1276025
-4.370732	hurricane	-0.1735877
-4.370732	hurry	-0.1784518
-4.47778	husband	-0.1709924
-4.370732	hush	-0.3287396
-3.741564	hut	-0.02611531
-4.47778	hut's	-0.1466345
-4.617284	huts	-0.1475013
-4.370732	hwy	-0.1421065
-4.617284	hydration	-0.1432108
-1.991206	i	-0.7026398
-4.617284	i''ll	-0.1465693
-2.64214	i'd	-0.7911891
-4.617284	i'dlike	-0.1477538
-4.370732	i'l	-0.144257
-2.683713	i'll	-0.5983222
-4.617284	i'llorder	-0.1443357
-2.534434	i'm	-0.4959297
-4.617284	i's	-0.1456545
-4.617284	i'tll	-0.1477232
-3.122872	i've	-0.4211423
-4.47778	ia	-0.1226878
-4.617284	iam	-0.1477538
-3.494787	ice	-0.4357105
-3.632011	iced	-0.502149
-4.617284	icedtea	-0.1276297
-4.617284	ices	-0.1477081
-4.47778	icing	-0.1435649
-3.833766	id	-0.2078108
-4.024064	idea	-0.1010522
-4.617284	ideal	-0.1459722
-4.617284	ideas	-0.1276297
-4.617284	idiappam	-0.1276297
-2.60724	if	-0.6956438
-4.617284	igreat	-0.1394425
-4.024064	il	-0.2011841
-3.888427	ill	-0.1972051
-4.617284	illegald	-0.1276297
-4.370732	illinois	-0.3086155
-3.571829	im	-0.1844738
-4.47778	imagine	-0.144188
-4.617284	imbecile	-0.1465693
-4.47778	immediate	-0.259032
-3.833766	immediately	-0.2147353
-4.370732	imo's	-0.1332189
-4.47778	imola	-0.1269393
-4.617284	impasto	-0.1276297
-4.617284	impersonal	-0.1394425
-4.024064	important	-0.1963158
-4.617284	imported	-0.1477006
-4.617284	improved	-0.147693
-2.133087	in	-0.2815114
-4.47778	inbox	-0.139247
-3.665549	inch	-0.209156
-3.785223	inches	-0.2824765
-4.617284	inclduing	-0.1463124
-3.39067	include	-0.2139484
-3.600878	included	-0.3035491
-4.111997	includes	-0.190308
-3.665549	including	-0.3817141
-4.617284	inconvenienc	-0.1464937
-4.617284	inconvenience	-0.1276297
-4.617284	inconvenince	-0.1276297
-4.617284	incorrect	-0.1466146
-4.47778	increase	-0.1408722
-4.617284	increased	-0.143766
-4.47778	indeed	-0.1131907
-3.409592	indian	-0.5135142
-4.617284	indiana	-0.1276297
-3.888427	individual	-0.2343304
-4.370732	individually	-0.3086155
-4.617284	individuals	-0.1276297
-4.617284	industry	-0.1276297
-4.617284	inferno	-0.1473163
-4.617284	inflation	-0.1470146
-3.741564	info	-0.2318226
-4.370732	inform	-0.2147599
-3.518981	information	-0.2824209
-4.617284	informationokay	-0.1475876
-4.617284	informatoin	-0.1276297
-4.222375	informed	-0.2955833
-4.47778	informing	-0.258783
-4.617284	infront	-0.145435
-4.47778	ingrediants	-0.1385783
-4.222375	ingredient	-0.3014348
-3.571829	ingredients	-0.228072
-4.617284	initially	-0.146758
-4.617284	inner	-0.1471428
-4.617284	inoh	-0.1457756
-4.370732	input	-0.2121813
-4.617284	insalata	-0.1477393
-4.617284	insert	-0.1454577
-3.888427	inside	-0.1298556
-4.47778	inspired	-0.1235892
-4.617284	instea	-0.145435
-2.662429	instead	-0.9384725
-4.617284	instore	-0.1276297
-4.370732	instruction	-0.2086533
-4.222375	instructions	-0.1224893
-4.617284	int	-0.1476177
-4.222375	interest	-0.4502602
-3.741564	interested	-0.5785333
-4.024064	interesting	-0.1278692
-4.617284	intern	-0.1432108
-4.47778	internet	-0.1276025
-4.617284	interrupted	-0.1464182
-4.47778	interrupting	-0.1468451
-3.372538	into	-0.2828777
-4.617284	intolerant	-0.1394425
-4.617284	investigators	-0.1242684
-4.617284	invited	-0.1473163
-4.617284	invoice	-0.146924
-4.617284	io	-0.1475574
-4.47778	iowa	-0.1235523
-4.617284	iphone	-0.1443474
-1.981716	is	-0.3805367
-4.617284	isabell's	-0.1473163
-4.370732	island	-0.1909447
-4.617284	islands	-0.1276297
-3.544601	isn't	-0.2265614
-4.370732	isnt	-0.1397696
-4.617284	isn’t	-0.1467656
-4.617284	issorry	-0.146924
-4.47778	issue	-0.1583888
-4.024064	issues	-0.1483971
-2.138234	it	-0.2982111
-4.617284	it'd	-0.1470674
-3.066703	it'll	-0.8970157
-2.713817	it's	-0.2818339
-4.617284	italaina	-0.146675
-2.894894	italian	-0.4607872
-4.617284	italianstyle	-0.1394425
-4.617284	itallian	-0.146675
-4.617284	italo's	-0.1394425
-4.617284	italos'	-0.1467882
-4.47778	italy	-0.1466077
-4.617284	itbye	-0.1477498
-4.617284	itching	-0.1431803
-3.571829	item	-0.3092981
-3.518981	items	-0.2298083
-4.617284	itlalian	-0.1440775
-4.370732	itll	-0.3280532
-3.223658	its	-0.1520612
-4.617284	itsalian	-0.1467957
-4.617284	itsee	-0.1443357
-4.370732	itself	-0.3086155
-4.617284	itwell	-0.1445558
-4.47778	it’ll	-0.2589641
-3.741564	it’s	-0.1506216
-4.617284	ive	-0.1477156
-4.617284	izzas	-0.1276297
-4.111997	i’d	-0.5494038
-3.741564	i’ll	-0.2204598
-3.950971	i’m	-0.1416172
-4.370732	i’ve	-0.2182071
-4.47778	j	-0.1177536
-4.617284	jacey	-0.1433097
-4.024064	jack	-0.1874575
-4.617284	jacket	-0.1467882
-4.370732	jacks	-0.1237962
-4.111997	jackson	-0.1694943
-4.617284	jacksonville	-0.1470976
-4.617284	jaime	-0.145488
-4.47778	jairo	-0.118909
-4.617284	jairos	-0.1440775
-3.450104	jalapeno	-0.2251145
-4.222375	jalapeno's	-0.1584615
-3.164809	jalapenos	-0.2788709
-3.950971	jalapeño	-0.2044948
-3.571829	jalapeños	-0.2966917
-4.617284	jalaplarge	-0.1463426
-3.950971	jalepeno	-0.4802767
-4.47778	jalepeno's	-0.135475
-3.785223	jalepenos	-0.1783796
-4.617284	jalepenyo	-0.1462142
-4.617284	jalepeños	-0.1250865
-4.617284	jalopeno	-0.1432564
-4.47778	jam	-0.1353665
-4.222375	jamie	-0.124047
-4.47778	jan	-0.1409793
-3.950971	jane	-0.1527972
-4.617284	jane's	-0.1475725
-4.617284	janine	-0.1464937
-4.617284	janna	-0.145488
-4.617284	jansen's	-0.1433097
-4.47778	japanese	-0.2595295
-4.617284	jar	-0.145435
-4.617284	jardiniere	-0.1276297
-4.617284	jasmine	-0.1475047
-4.617284	jason	-0.1475273
-4.617284	jaunt	-0.1276297
-4.47778	jaylos	-0.1409952
-4.111997	jeff	-0.2283726
-4.617284	jelly	-0.1394425
-4.47778	jen	-0.1454774
-4.617284	jenna	-0.1276297
-4.47778	jennifer	-0.1469357
-4.47778	jenny	-0.144795
-4.47778	jerry	-0.2395264
-4.617284	jerry’s	-0.1477382
-4.47778	jess	-0.1451513
-4.617284	jessepi	-0.1477538
-4.222375	jessica	-0.1371543
-4.370732	jet	-0.2189691
-3.741564	jet's	-0.1639699
-4.222375	jets	-0.1880807
-4.617284	jhons	-0.1276297
-4.47778	jill's	-0.2588132
-4.222375	jim	-0.1749625
-4.370732	jim's	-0.1984695
-4.617284	jimmy	-0.1432834
-4.222375	jimmy's	-0.4484422
-4.617284	jims	-0.1425177
-4.370732	joan	-0.1965542
-4.222375	job	-0.1942388
-4.370732	joe	-0.1252341
-3.888427	joe's	-0.242494
-4.222375	joes	-0.1849274
-4.370732	joey's	-0.1171516
-4.617284	joey'swhat	-0.147467
-4.47778	joeys	-0.1276187
-4.617284	joh'ns	-0.1276297
-4.617284	johanson	-0.1276297
-3.518981	john	-0.1673049
-4.024064	john's	-0.06681289
-4.370732	johnathon	-0.1423354
-4.617284	johnlet	-0.1468863
-4.370732	johnny's	-0.1430364
-4.222375	johns	-0.06144036
-4.617284	johns'	-0.1474821
-4.617284	johnsdo	-0.1443357
-4.222375	johnson	-0.17914
-4.617284	john’s	-0.1242684
-4.47778	join	-0.218041
-4.47778	joining	-0.1432952
-4.111997	joint	-0.1661855
-4.222375	joking	-0.1258245
-4.617284	jolly	-0.1477538
-4.47778	jonathan	-0.1209529
-4.222375	jones	-0.2247822
-4.617284	jordan	-0.1276297
-4.617284	jose	-0.1276297
-4.370732	joseph	-0.1414163
-4.47778	josh	-0.1228271
-4.617284	joy	-0.1438724
-4.370732	joyce	-0.1389439
-4.617284	joyce's	-0.1475424
-4.47778	jp	-0.1454774
-4.617284	jude	-0.1276297
-4.617284	judes	-0.1477538
-4.617284	judging	-0.1468863
-4.111997	juice	-0.1376147
-4.370732	juices	-0.1315546
-4.617284	juicy	-0.1475574
-4.617284	julia's	-0.1425177
-4.617284	julianna's	-0.1276297
-4.222375	julie	-0.1729067
-4.370732	jumbo	-0.1460758
-4.617284	jumbosize	-0.1471428
-4.617284	jump	-0.1464182
-4.617284	jumping	-0.1476554
-4.617284	jumps	-0.1468712
-4.617284	junior	-0.1477081
-4.617284	junkies	-0.1256415
-4.617284	junkiez	-0.1274762
-4.617284	jurel	-0.1475951
-2.446093	just	-0.2832415
-4.617284	jut	-0.1476478
-4.47778	k	-0.140788
-4.617284	kabab	-0.1276297
-4.617284	kababs	-0.146241
-4.617284	kahala	-0.1477232
-4.222375	kai	-0.2341085
-4.617284	kakulya	-0.1276297
-4.111997	kalamata	-0.5499774
-4.370732	kale	-0.1698248
-4.617284	kamehameha	-0.1477458
-4.617284	kansas	-0.1477232
-4.617284	kara	-0.1433097
-4.617284	karma	-0.1440775
-4.47778	kate	-0.1464792
-4.617284	katella	-0.1475725
-4.370732	kathy	-0.1429755
-4.617284	katie	-0.1471051
-4.617284	katlin	-0.1276297
-4.47778	kay	-0.1465623
-4.617284	keany	-0.1394425
-4.47778	kearney	-0.25913
-4.222375	kebab	-0.2511024
-4.47778	kebabs	-0.1331721
-4.617284	keen	-0.143766
-3.571829	keep	-0.3535263
-4.47778	keilbasa	-0.1443854
-4.617284	kelly	-0.1476102
-4.47778	ken	-0.1229627
-4.617284	kenneth	-0.1276297
-4.47778	kentucky	-0.2395264
-4.617284	kentwood	-0.1477307
-4.617284	kept	-0.1432032
-3.236449	ketchup	-0.3673824
-4.617284	keto	-0.1467957
-4.47778	kevin	-0.2596505
-4.370732	key	-0.1207089
-4.617284	keying	-0.1432682
-4.370732	khanom	-0.3287396
-4.617284	khao	-0.1475951
-4.617284	kick	-0.1476855
-4.222375	kid	-0.1451899
-4.024064	kidding	-0.1218986
-4.617284	kiddos	-0.1457983
-4.47778	kidney	-0.2595219
-3.632011	kids	-0.1569057
-4.617284	kie	-0.143766
-4.370732	kim	-0.1220331
-4.617284	kimchi	-0.147693
-3.164809	kind	-0.4391741
-4.370732	kinda	-0.1397083
-4.370732	kindly	-0.1749306
-3.950971	kinds	-0.3162891
-4.111997	king	-0.1070633
-4.47778	kingsbridge	-0.1475469
-4.617284	kingsburg	-0.1266073
-4.617284	kingsize	-0.1474595
-4.47778	kingsized	-0.1471545
-4.617284	kins	-0.145435
-4.617284	kisha	-0.1276297
-4.47778	kitchen	-0.1722153
-4.47778	klamata	-0.2590395
-4.47778	knew	-0.144226
-4.617284	kniw	-0.1453668
-4.617284	knock	-0.1438724
-4.617284	knot	-0.1476554
-4.617284	knots	-0.1041766
-3.409592	know	-0.1601819
-4.617284	knowim	-0.1477538
-4.617284	knowing	-0.1463275
-4.617284	known	-0.1459722
-4.47778	knows	-0.1454659
-4.47778	kobe	-0.2590848
-4.617284	kokomo	-0.14211
-4.111997	korean	-0.3362715
-4.617284	kosmic	-0.1477538
-4.617284	krau	-0.1477538
-4.47778	kraut	-0.1690084
-4.617284	krebs	-0.1476177
-4.617284	krips	-0.1276297
-4.617284	krunked	-0.1462142
-3.950971	kung	-0.4988524
-4.370732	l	-0.1120249
-3.833766	la	-0.22442
-4.617284	lack	-0.145435
-4.617284	lacking	-0.1470674
-4.617284	lads	-0.1276297
-4.222375	lady	-0.4335542
-4.47778	lag	-0.1443019
-4.617284	laid	-0.1475198
-4.222375	lake	-0.1438323
-4.47778	lakes	-0.144393
-4.47778	lakeside	-0.2596199
-4.370732	lakewood	-0.1268329
-3.450104	lamb	-0.223156
-4.617284	lamp	-0.1477006
-4.47778	lampo	-0.1468602
-4.111997	lancaster	-0.2069807
-4.617284	land	-0.1276297
-4.47778	landmark	-0.1367514
-4.111997	lane	-0.3472382
-4.617284	langosi	-0.1394425
-4.617284	lanie	-0.1433097
-4.617284	laptop	-0.1276297
-4.370732	larb	-0.1708733
-2.566528	large	-0.1514554
-4.617284	largefamily	-0.147678
-4.222375	larger	-0.1320498
-3.571829	larges	-0.2085528
-4.222375	largest	-0.1774239
-4.617284	largethen	-0.1276297
-4.617284	larosa's	-0.1442639
-4.222375	larry's	-0.4536477
-4.617284	larze	-0.147678
-4.617284	las	-0.1477538
-3.39067	lasagna	-0.3821377
-4.370732	lasagne	-0.1717505
-4.47778	lasalle	-0.1460142
-4.617284	lasange	-0.1394425
-4.617284	lassi	-0.1247769
-3.199153	last	-0.3329328
-4.47778	lastly	-0.1322925
-3.701895	late	-0.1595939
-4.617284	lately	-0.1276297
-3.518981	later	-0.2819044
-4.617284	laterokay	-0.1445937
-4.617284	latest	-0.1228271
-4.617284	latta	-0.1464182
-4.024064	latte	-0.1166105
-4.617284	lauderdale	-0.1276297
-4.617284	laughs	-0.1276297
-4.617284	laurel	-0.1477081
-4.617284	lauren	-0.145488
-4.370732	lava	-0.2758893
-4.47778	law	-0.1431962
-4.617284	lawrence	-0.1475725
-4.617284	lawrenceburg	-0.1477498
-4.617284	lay	-0.1432032
-4.47778	layer	-0.2573317
-4.222375	lb	-0.1411941
-4.617284	lea	-0.1464182
-4.617284	leaf	-0.147565
-4.222375	lean	-0.1980172
-4.47778	learn	-0.2395264
-4.47778	least	-0.1084976
-3.518981	leave	-0.3361818
-4.370732	leaves	-0.1260657
-4.370732	leaving	-0.1230032
-4.617284	lee	-0.1462822
-4.617284	leehman	-0.1475499
-4.617284	leeks	-0.1477538
-3.741564	left	-0.2468905
-4.370732	leftover	-0.2091869
-4.111997	leftovers	-0.245454
-4.617284	legal	-0.1276297
-3.950971	lemon	-0.2487472
-3.785223	lemonade	-0.2061446
-4.370732	lemonades	-0.1452697
-4.617284	lemonpepper	-0.1477006
-4.617284	lemony	-0.1477538
-4.617284	lena	-0.1276297
-4.617284	lenguisa	-0.1453365
-4.617284	lenior	-0.1276297
-4.370732	lentil	-0.328302
-4.617284	lenzini's	-0.1228271
-4.617284	leone's	-0.1425177
-4.47778	lequint	-0.1429028
-3.741564	less	-0.1722185
-4.617284	lesser	-0.1472786
-2.834291	let	-0.9313875
-2.906883	let's	-0.5963275
-3.306749	lets	-0.4057554
-4.370732	letting	-0.2147599
-3.164809	lettuce	-0.4216306
-4.370732	let’s	-0.182279
-4.617284	leucadia	-0.1425177
-4.370732	level	-0.1241296
-4.617284	levers	-0.1432564
-4.47778	lexington	-0.14612
-4.617284	lg	-0.1463426
-4.370732	lia	-0.1417859
-4.617284	liberty	-0.1276146
-4.47778	library	-0.1257129
-4.617284	lie	-0.1457756
-4.617284	liek	-0.143766
-4.617284	lies	-0.1477081
-4.617284	lieu	-0.145435
-4.47778	life	-0.1431697
-4.617284	life's	-0.1477307
-4.617284	lifesaver	-0.1276297
-3.211233	light	-0.4108648
-4.617284	lighter	-0.1276297
-4.47778	lightly	-0.2596048
-2.561012	like	-0.1220725
-4.111997	liked	-0.1401482
-4.617284	likeit	-0.1475574
-4.617284	likely	-0.1432108
-3.701895	likes	-0.1545644
-4.47778	liketo	-0.1461351
-4.617284	likewise	-0.1466674
-4.617284	liking	-0.1432032
-4.617284	limburg	-0.147678
-4.47778	lime	-0.1389858
-4.222375	limited	-0.1403446
-4.617284	lina	-0.1475198
-4.47778	lincoln	-0.1274052
-4.222375	linda	-0.1176766
-4.617284	lindburg	-0.147678
-4.617284	linds	-0.1433097
-4.222375	line	-0.1259879
-4.617284	line's	-0.1474896
-4.617284	lines	-0.1276297
-4.47778	lineup	-0.1274289
-4.111997	linguica	-0.1984183
-4.47778	linguicia	-0.2395264
-3.833766	linguine	-0.378633
-4.47778	linguini	-0.1140898
-4.370732	linguisa	-0.2127166
-4.370732	linguiça	-0.118841
-4.222375	linked	-0.271692
-4.47778	linos	-0.2395264
-4.617284	lion's	-0.1477458
-4.370732	lisa	-0.1247653
-3.701895	list	-0.2830587
-3.785223	listed	-0.2135763
-4.47778	listen	-0.1424456
-4.617284	listening	-0.1276297
-4.617284	lit	-0.1276297
-4.617284	lite	-0.1476252
-4.111997	liter	-0.1587564
-4.617284	literally	-0.146388
-4.47778	liters	-0.108852
-4.370732	litre	-0.2052982
-4.617284	litres	-0.1450493
-4.47778	litter	-0.2573317
-3.338399	little	-0.212858
-4.222375	live	-0.1384832
-4.617284	lives	-0.1432032
-4.47778	living	-0.1266943
-4.617284	liz	-0.1276297
-4.47778	ln	-0.2395264
-4.617284	lne	-0.1464333
-4.024064	lo	-0.6297656
-4.617284	load	-0.1445937
-3.950971	loaded	-0.2305919
-4.47778	loaf	-0.2573317
-4.617284	lobby	-0.1476102
-4.111997	lobo	-0.5453522
-3.950971	lobster	-0.1430502
-4.617284	loca	-0.1242684
-3.701895	local	-0.2521617
-4.617284	locate	-0.1454577
-3.471871	located	-0.427754
-2.814194	location	-0.4320549
-3.950971	locations	-0.130059
-4.617284	locaton	-0.1276297
-4.47778	loco	-0.2596505
-4.617284	locus	-0.1475499
-4.617284	locust	-0.1475499
-4.222375	log	-0.1419657
-4.370732	logged	-0.2158083
-4.47778	logging	-0.1475239
-4.47778	login	-0.1275078
-4.47778	logo	-0.2395264
-4.617284	logs	-0.1276297
-4.370732	lol	-0.1789424
-4.617284	lola	-0.1268445
-4.617284	lonely	-0.1444495
-3.494787	long	-0.1502574
-3.785223	longer	-0.1526726
-4.617284	longwood	-0.1470187
-3.450104	look	-0.3062947
-4.47778	looked	-0.1427504
-3.306749	looking	-0.5944726
-4.617284	lookoh	-0.1477458
-4.617284	lookout	-0.1431803
-3.409592	looks	-0.4893181
-4.617284	lookup	-0.1454577
-4.617284	loop	-0.1475951
-4.617284	lorenzo	-0.1425177
-4.370732	los	-0.2759389
-4.47778	lose	-0.1422931
-4.617284	loss	-0.1276297
-4.47778	lost	-0.1242127
-4.370732	lot	-0.1021503
-4.617284	lotal	-0.1477307
-3.741564	lots	-0.8906922
-4.617284	lotsa	-0.1477538
-4.111997	lou	-0.1906474
-4.47778	loud	-0.1384244
-4.617284	louie's	-0.1431803
-4.617284	louies	-0.1437093
-4.222375	louis	-0.179053
-4.617284	louise	-0.1276297
-4.617284	louisstyle	-0.1423007
-3.571829	love	-0.1541194
-4.47778	love's	-0.2544143
-4.47778	loved	-0.1425294
-4.370732	lovely	-0.1431484
-3.950971	lover	-0.1775767
-3.833766	lover's	-0.1376114
-3.518981	lovers	-0.1156487
-4.47778	lovers'	-0.1365315
-4.617284	loversextra	-0.1463426
-4.617284	lover’s	-0.1198825
-4.111997	loves	-0.1427296
-3.888427	low	-0.1917741
-4.617284	lower	-0.1432032
-4.47778	lowfat	-0.1460747
-4.617284	lowsodium	-0.1475876
-4.47778	loyalty	-0.2593938
-4.47778	lua	-0.2544143
-4.617284	luce	-0.146924
-4.617284	luchetti's	-0.1438724
-4.222375	luck	-0.1149854
-4.370732	lucky	-0.1145579
-4.617284	lucky's	-0.1425177
-4.617284	lucy	-0.1458663
-4.47778	luigi	-0.1225522
-4.222375	luigi's	-0.1536584
-4.617284	luigis	-0.1438724
-4.617284	luma	-0.1276297
-4.617284	lumaca	-0.1477538
-3.701895	luna	-0.05432212
-4.370732	luna's	-0.1269813
-4.47778	lunas	-0.1097916
-3.322286	lunch	-0.2274007
-4.47778	lunchtime	-0.1452346
-4.617284	lune	-0.146924
-4.617284	lusad	-0.1440775
-4.617284	lzrge	-0.1425177
-4.370732	m	-0.03731815
-4.222375	ma	-0.177763
-3.785223	ma'am	-0.1924619
-4.617284	ma'm	-0.1443357
-4.617284	ma'mthats	-0.1468486
-4.617284	maam	-0.1453365
-4.617284	maby	-0.1433097
-3.888427	mac	-0.3962758
-3.741564	macaroni	-0.5969512
-4.617284	macedonia	-0.1472333
-4.47778	machine	-0.1431962
-4.47778	macho	-0.2595747
-4.617284	mackin	-0.1463426
-4.617284	macon	-0.1276297
-4.617284	macoronian	-0.1463426
-4.617284	macy	-0.1433097
-4.222375	mad	-0.4535573
-4.222375	madam	-0.1773976
-4.370732	maddy	-0.3235035
-3.429376	made	-0.212095
-4.222375	madison	-0.1255039
-4.617284	madisot	-0.1474896
-4.617284	magnificio	-0.1440775
-4.617284	magnifico	-0.118909
-4.617284	magnolia	-0.1276297
-4.47778	magpie	-0.1273657
-4.617284	magpies	-0.1477307
-4.617284	mahimahi	-0.1276297
-4.617284	maialina	-0.1447151
-4.617284	maiden	-0.1475876
-4.617284	mail	-0.1276297
-3.450104	main	-0.2636655
-4.617284	maine	-0.1276297
-4.617284	mainly	-0.1462066
-4.617284	mainstream	-0.1468033
-4.617284	maize	-0.1229068
-4.47778	major	-0.147562
-2.758945	make	-0.6339434
-4.617284	maker	-0.143766
-4.617284	makers	-0.143766
-3.785223	makes	-0.2181055
-3.665549	making	-0.2065393
-4.370732	malcolm	-0.2164983
-4.47778	male	-0.1247769
-4.024064	mall	-0.2389341
-4.024064	malnati	-0.3949136
-4.617284	malnati's	-0.1235412
-4.47778	malnatti's	-0.1111918
-4.47778	mam	-0.1178659
-4.47778	mama	-0.1477313
-4.47778	mama's	-0.1194604
-4.617284	mamit	-0.1475273
-3.701895	man	-0.2243885
-4.617284	manage	-0.1444495
-4.47778	manager	-0.2395264
-4.617284	manati	-0.1276297
-4.617284	mancino's	-0.1276297
-4.47778	mandarins	-0.140394
-4.47778	mando	-0.2395264
-4.617284	mando's	-0.1463124
-4.617284	mandy	-0.1475574
-4.222375	mango	-0.226934
-4.47778	mangos	-0.1250865
-4.617284	mankato	-0.1477307
-3.741564	many	-0.07905246
-4.617284	map	-0.1477307
-4.47778	maple	-0.2596465
-4.617284	maranara	-0.146841
-4.47778	maranera	-0.1266626
-4.617284	marbled	-0.1477006
-4.617284	marco	-0.145488
-3.741564	marco's	-0.2180752
-4.024064	marcos	-0.163006
-3.833766	margarita	-0.3033276
-4.47778	marge	-0.2544143
-4.47778	margerita	-0.1347927
-4.617284	margeritte's	-0.1276297
-4.617284	margetarita	-0.1425177
-4.617284	margharita	-0.1394425
-3.600878	margherita	-0.2462729
-4.47778	margheritas	-0.1237673
-4.617284	margin	-0.145435
-4.370732	maria	-0.09643576
-4.617284	mariachi	-0.1422244
-4.617284	mariano	-0.1471353
-4.617284	marie	-0.1453365
-4.617284	marietta	-0.1475725
-4.617284	marina	-0.146841
-3.132983	marinara	-0.4465488
-4.617284	marinara's	-0.1276297
-4.617284	marinare	-0.1276297
-4.617284	marine	-0.1476704
-4.617284	marinera	-0.1276297
-4.617284	mario's	-0.1445558
-4.617284	marios	-0.1425177
-4.617284	mariposa	-0.1475499
-4.617284	maritime	-0.1433097
-4.47778	mark	-0.1272157
-4.111997	mark's	-0.1618509
-4.47778	marked	-0.139884
-4.111997	market	-0.1673421
-4.617284	marketing	-0.1477538
-4.617284	marketplace	-0.1276297
-4.47778	marks	-0.1452195
-4.617284	marky	-0.1477498
-4.617284	marley	-0.1477498
-4.617284	marlton	-0.1477081
-4.617284	marmalade	-0.1477307
-4.617284	marsh	-0.1477498
-4.47778	martha	-0.1269077
-4.617284	martha's	-0.1469618
-4.617284	marvel	-0.1086445
-4.222375	mary	-0.124488
-4.222375	mary's	-0.2674657
-4.617284	marysville	-0.1477382
-4.617284	marzcapon	-0.1463426
-4.47778	marzonnis	-0.1417131
-4.617284	masak	-0.1394425
-4.617284	masaka	-0.1276297
-3.833766	masala	-0.2253726
-4.617284	masami	-0.1471881
-4.617284	mash	-0.147693
-4.024064	mashed	-0.6297088
-4.617284	mashroom	-0.1394425
-4.47778	massachusetts	-0.2395264
-4.617284	massey's	-0.1425177
-4.617284	mastcard	-0.1474821
-4.222375	master	-0.254144
-4.370732	mastercard	-0.1736357
-4.617284	masterful	-0.1477156
-4.617284	mastitis	-0.1471504
-4.617284	matar	-0.1440775
-4.617284	matchbox	-0.1276297
-4.617284	matched	-0.1276297
-4.617284	material	-0.1276297
-4.617284	mates	-0.1276297
-4.617284	math	-0.1457983
-4.617284	matsedel	-0.1463426
-4.617284	matt	-0.1394425
-4.617284	mattar	-0.14632
-4.370732	matter	-0.1207539
-4.617284	matzah	-0.1477232
-4.617284	mau	-0.1476102
-4.222375	maui	-0.4536783
-4.617284	mauro	-0.1463275
-4.222375	max	-0.1590592
-4.617284	maximum	-0.145435
-4.47778	maximus	-0.1730109
-4.617284	maxiums	-0.1276297
-3.306749	may	-0.3737168
-2.944972	maybe	-0.2370488
-3.833766	mayo	-0.2244691
-3.665549	mayonnaise	-0.2014634
-4.617284	mazzio	-0.1432108
-4.47778	mazzio's	-0.1441728
-4.617284	mazzios	-0.1276297
-4.617284	mcdonald	-0.1476102
-4.617284	mckenzie	-0.1476102
-4.617284	mclendon	-0.1276297
-4.617284	mcuh	-0.1432108
-4.111997	md	-0.2284112
-2.694759	me	-0.1057662
-4.617284	meaballs	-0.1467505
-4.617284	meail	-0.1276297
-3.741564	meal	-0.2220148
-4.370732	meals	-0.1204159
-4.111997	mean	-0.08725069
-4.47778	means	-0.1243081
-4.370732	meant	-0.1160762
-4.617284	meantime	-0.1265757
-4.617284	measurements	-0.1276297
-2.733751	meat	-0.4231196
-3.39067	meatball	-0.2829596
-3.291749	meatballs	-0.2861198
-4.617284	meatless	-0.1477232
-4.111997	meatlover	-0.1802028
-4.370732	meatlover's	-0.2358819
-3.450104	meatlovers	-0.272645
-4.617284	meatlovers'	-0.1463729
-3.600878	meats	-0.1864385
-4.370732	meatsa	-0.2124185
-3.888427	meatzza	-0.1962395
-4.024064	med	-0.1621191
-4.617284	medallions	-0.1394425
-4.617284	medford	-0.1477498
-4.617284	media	-0.1456545
-4.617284	median	-0.1469618
-4.617284	mediant	-0.1276297
-4.617284	mediterannean	-0.1440775
-3.785223	mediterranean	-0.2907987
-4.617284	mediterrannean	-0.1462142
-4.617284	meditterannean	-0.1425177
-2.794986	medium	-0.2726487
-4.617284	medium's	-0.1475198
-4.617284	mediume	-0.1475198
-4.617284	mediumonions	-0.1394425
-3.785223	mediums	-0.215491
-4.617284	mediumsize	-0.1463729
-4.47778	mediumsized	-0.1397236
-4.617284	mediumwell	-0.1276297
-4.47778	meduim	-0.127121
-4.617284	meduium	-0.1425177
-3.518981	meeting	-0.2761938
-4.617284	meetlovers	-0.1394425
-4.370732	mega	-0.2188933
-4.617284	meim	-0.14758
-4.47778	mein	-0.1409104
-4.617284	melanzane	-0.1425177
-4.47778	melazane	-0.1379548
-4.617284	melissa	-0.1440775
-4.370732	mellow	-0.3282267
-4.617284	melon	-0.1477382
-4.617284	melt	-0.1432564
-4.47778	melted	-0.2582393
-4.617284	melts	-0.1477538
-4.617284	member	-0.145435
-4.617284	memorable	-0.1276297
