
\data\
ngram 1=5371
ngram 2=63260
ngram 3=51616

\1-grams:
-4.627112	'bout	-0.1553402
-3.431036	'cause	-0.391135
-4.627112	'em	-0.1442235
-4.627112	'till	-0.1563029
-4.627112	25th	-0.1527045
-4.627112	4	-0.1591301
-4.627112	420	-0.1595766
-1.457633	</s>
-99	<s>	-1.013429
-2.011938	_garbled	-0.1490915
-2.176386	a	-0.288002
-4.486485	aaron	-0.2554207
-4.412435	ab	-0.1591649
-4.627112	abam	-0.1442235
-4.627112	abass	-0.1574291
-4.627112	abbas	-0.1574291
-4.412435	abbey	-0.1940516
-4.627112	abbeydale	-0.159556
-4.627112	abbie	-0.1591507
-4.627112	abby	-0.1567316
-4.627112	abdul	-0.1527045
-4.627112	abel	-0.1591439
-4.627112	ability	-0.1568975
-3.874409	able	-0.5909051
-2.923485	about	-0.2937517
-4.263645	above	-0.1984123
-4.627112	abso	-0.157153
-4.627112	absolute	-0.1583114
-3.612275	absolutely	-0.1236371
-4.627112	abubakar	-0.158215
-4.627112	abubaker	-0.158215
-4.627112	academy	-0.1562476
-4.627112	accent	-0.157705
-4.627112	accept	-0.1586625
-4.627112	acceptable	-0.1576981
-4.486485	accepting	-0.2571548
-4.627112	access	-0.1554165
-4.627112	accompany	-0.1556175
-4.263645	according	-0.4529044
-4.627112	accordingly	-0.157705
-3.929128	account	-0.1500119
-4.627112	account's	-0.1570563
-4.627112	accross	-0.1586831
-4.486485	accurate	-0.1856164
-4.412435	acres	-0.174194
-3.585033	across	-0.4761744
-4.412435	act	-0.1512238
-4.412435	activated	-0.2168707
-4.153028	actual	-0.1538979
-2.769933	actually	-0.1607496
-4.263645	ad	-0.1489336
-4.064945	adam	-0.3174365
-4.627112	adams	-0.1583114
-3.073203	add	-0.2948364
-4.627112	addable	-0.1591164
-3.585033	added	-0.2010275
-3.641341	adding	-0.2488353
-4.412435	addition	-0.217711
-3.395487	additional	-0.193995
-4.486485	additionally	-0.1560853
-3.163166	address	-0.1654681
-4.627112	addresses	-0.1576981
-4.627112	adin	-0.158215
-4.627112	adjust	-0.156545
-4.627112	adrian	-0.1442235
-4.627112	ads	-0.1565381
-4.627112	adults	-0.1571047
-4.627112	advance	-0.1518774
-4.486485	advertised	-0.1539621
-4.486485	advertisement	-0.1410218
-4.627112	advertising	-0.1556175
-4.627112	af	-0.1553541
-4.263645	afford	-0.2119736
-4.627112	afraid	-0.1553402
-4.627112	afte	-0.1442235
-2.76591	after	-0.6074183
-3.991748	afternoon	-0.1535535
-4.412435	afterwards	-0.132516
-2.854444	again	-0.2922918
-4.412435	against	-0.1553826
-4.412435	agent	-0.187303
-4.627112	agius	-0.1567316
-3.782123	ago	-0.2268441
-4.412435	agree	-0.185237
-3.034364	ah	-0.0563133
-4.153028	ahead	-0.1250364
-4.486485	ahh	-0.1380793
-4.627112	ahmad	-0.158215
-4.627112	aid	-0.1595217
-4.412435	aim	-0.3279657
-4.627112	airgate	-0.1593775
-3.825819	airport	-0.3553942
-3.929128	ajax	-0.2151336
-4.486485	akash	-0.155552
-4.263645	al	-0.1357242
-4.627112	alaa	-0.1567316
-4.153028	alan	-0.1778458
-4.627112	albean	-0.1527045
-4.064945	albert	-0.2327594
-4.627112	alberta	-0.1442235
-4.627112	alberto	-0.1563621
-4.486485	albion	-0.1421851
-4.064945	alcona	-0.204015
-4.627112	aldwych	-0.1583114
-4.627112	ale	-0.038261
-4.627112	ale's	-0.1494072
-4.627112	alejandro	-0.1553887
-4.627112	ales	-0.1046988
-4.153028	alex	-0.2343265
-4.627112	alexander	-0.1583114
-4.064945	alexandra	-0.2817172
-4.627112	alfred	-0.1568529
-4.627112	alfredo	-0.1442235
-4.627112	alfus	-0.1574291
-4.627112	algonquin	-0.1592401
-4.153028	ali	-0.2293995
-4.627112	alice	-0.158215
-4.486485	alicia	-0.1382261
-4.627112	alise	-0.1588069
-4.627112	alisha	-0.1527045
-2.392131	all	-0.4259889
-4.627112	allandale	-0.1591507
-4.627112	allen	-0.1585592
-4.263645	allergy	-0.2062074
-4.486485	alliance	-0.1882974
-4.627112	allison	-0.1567316
-4.486485	allister	-0.1432376
-4.412435	alliston	-0.1743384
-4.064945	allow	-0.328962
-4.486485	allowed	-0.1967194
-4.412435	allowing	-0.2213447
-4.627112	allows	-0.1556175
-4.627112	alma	-0.1588069
-3.585033	almost	-0.2291801
-4.153028	alone	-0.169205
-3.641341	along	-0.8517486
-4.263645	alpha	-0.1888616
-4.627112	alphabets	-0.1578498
-3.194239	already	-0.2092863
-3.641341	alright	-0.1518838
-4.412435	alrighty	-0.1522166
-2.799191	also	-0.2130346
-4.627112	alternate	-0.1590201
-4.486485	alternative	-0.1562791
-4.263645	although	-0.1517454
-3.490492	altogether	-0.2702364
-4.486485	alton	-0.2572578
-4.486485	alvin	-0.2572646
-3.641341	always	-0.133541
-3.449964	am	-0.3354102
-4.627112	amad	-0.158215
-4.412435	amanda	-0.2023972
-4.627112	amanda's	-0.1442235
-4.486485	amar	-0.2558756
-4.486485	amari	-0.2558756
-4.263645	amazing	-0.1905234
-4.627112	amber	-0.1442235
-4.627112	amberlea	-0.1591507
-4.627112	amend	-0.1551083
-4.627112	amended	-0.1553402
-4.153028	amex	-0.2333916
-4.627112	amia	-0.1556175
-4.486485	amir	-0.2203323
-4.486485	amit	-0.1416019
-4.627112	ammat	-0.1567316
-4.627112	among	-0.1591301
-4.627112	amore	-0.1286338
-3.874409	amount	-0.2262631
-4.153028	amy	-0.2001135
-2.731286	an	-0.5452126
-4.486485	ancaster	-0.1441278
-3.672493	anchovies	-0.2471214
-1.800501	and	-0.2822835
-4.486485	anderson	-0.1439286
-4.627112	andes	-0.1412152
-4.627112	andova	-0.1593912
-4.153028	andrea	-0.1679385
-4.412435	andrew	-0.2033734
-4.627112	andrew's	-0.1591439
-4.486485	andrews	-0.2556689
-4.486485	andy	-0.2023972
-4.486485	angel	-0.1423955
-4.486485	angela	-0.1579467
-4.627112	angelico	-0.1583114
-4.627112	angelina	-0.1588069
-4.627112	angelo	-0.1442235
-3.991748	angus	-0.2622374
-4.627112	anil	-0.1442235
-4.627112	anisha	-0.158215
-4.064945	ann	-0.1560611
-4.627112	anna	-0.1442235
-4.412435	anne	-0.2059755
-4.627112	annes	-0.1592813
-4.627112	annette	-0.1580083
-4.486485	anniversary	-0.1403732
-4.627112	announcement	-0.1578498
-4.627112	annoying	-0.1553402
-4.627112	ano	-0.159192
-2.991924	another	-0.2623392
-4.486485	ans	-0.1560645
-4.064945	answer	-0.1385094
-4.486485	answered	-0.1537464
-4.627112	answering	-0.1567316
-3.874409	anthony	-0.207848
-4.627112	antler	-0.1580083
-4.627112	antoine	-0.1429737
-4.263645	antrim	-0.1775028
-2.794888	any	-0.3357448
-4.412435	anybody	-0.2207347
-4.627112	anybody's	-0.1592813
-3.782123	anymore	-0.2821117
-3.991748	anyone	-0.1739255
-4.627112	anythi	-0.1442235
-2.769933	anything	-0.4721299
-4.412435	anytime	-0.1529392
-3.585033	anyway	-0.186586
-4.064945	anyways	-0.1450249
-4.412435	anywhere	-0.1541815
-4.627112	apa	-0.1560884
-4.627112	apache	-0.1590614
-4.627112	apar	-0.1567316
-4.486485	apart	-0.1515177
-2.947143	apartment	-0.4159796
-4.412435	apartments	-0.1406817
-4.412435	apologies	-0.1722143
-4.153028	apologize	-0.1783112
-4.486485	apology	-0.2156457
-4.627112	apostrophe	-0.1567316
-4.064945	app	-0.1899453
-4.064945	apparently	-0.1724544
-4.486485	appartment	-0.2034523
-4.627112	appealing	-0.1442235
-4.627112	appears	-0.1549448
-4.627112	appetite	-0.1565657
-4.263645	appetizers	-0.1373059
-3.585033	apple	-0.2611733
-4.627112	applebee	-0.1594805
-4.627112	appleby	-0.1527045
-4.627112	appleview	-0.1582426
-3.991748	applied	-0.1569557
-3.929128	apply	-0.2383843
-4.627112	applying	-0.1563136
-4.064945	appreciate	-0.3023944
-4.627112	approval	-0.1583183
-4.627112	approved	-0.156206
-4.627112	approx	-0.1584078
-4.627112	approximate	-0.1590889
-3.991748	approximately	-0.1482567
-4.486485	aquitaine	-0.255972
-4.627112	aran	-0.158215
-4.627112	arc	-0.1527045
-4.627112	ardwold	-0.1567316
-2.577251	are	-0.2708436
-3.449964	area	-0.2672661
-4.486485	aren't	-0.1554064
-4.627112	arena	-0.1442235
-4.486485	argentia	-0.1557529
-4.486485	argentina	-0.1490173
-4.627112	argentinia	-0.1442235
-4.153028	argyle	-0.5509253
-4.627112	arjay	-0.1567316
-4.486485	arjun	-0.1416019
-4.486485	arjun's	-0.2572097
-4.627112	arlene	-0.1442235
-4.627112	arlington	-0.1583114
-4.627112	armen	-0.1574291
-4.627112	armstrong	-0.1590614
-4.627112	arn	-0.1442235
-4.627112	arnold	-0.1585592
-4.412435	arnprior	-0.1725446
-4.627112	arnpry	-0.1442235
-4.412435	arone	-0.138186
-3.263973	around	-0.2856233
-4.627112	arr	-0.1591645
-4.412435	arrival	-0.1439869
-4.064945	arrive	-0.2326558
-4.486485	arrived	-0.1413871
-4.486485	arrives	-0.1727258
-4.486485	arriving	-0.2213516
-4.627112	arti	-0.1553887
-3.742424	artichoke	-0.2665975
-3.641341	artichokes	-0.3199636
-2.480054	as	-0.5253114
-4.627112	asad	-0.158215
-4.627112	ascoli	-0.1585592
-4.627112	ascot	-0.1583114
-4.627112	aserb	-0.158215
-4.153028	ash	-0.211115
-4.412435	ashley	-0.1871023
-4.627112	ashton	-0.1582426
-4.627112	asid	-0.158215
-4.486485	aside	-0.2563437
-4.627112	asima	-0.1567316
-4.627112	asin	-0.1574291
-3.490492	ask	-0.2524632
-3.782123	asked	-0.222863
-3.672493	asking	-0.2101386
-4.627112	aslo	-0.157367
-4.627112	ass	-0.1442235
-4.263645	assist	-0.4516245
-4.627112	assistance	-0.1596204
-4.486485	associate	-0.2539635
-4.153028	associated	-0.3720382
-4.627112	assort	-0.1549448
-4.153028	assorted	-0.2960302
-4.486485	assume	-0.1366365
-4.627112	assuming	-0.1476433
-4.627112	assure	-0.1553887
-4.627112	asum	-0.158215
-2.434805	at	-0.41813
-4.627112	atkins	-0.1586625
-4.627112	attach	-0.1568975
-4.627112	attached	-0.1568975
-4.627112	attempted	-0.1568975
-4.627112	attwenty	-0.1589101
-4.486485	aubrietia	-0.1564866
-4.627112	august	-0.1589101
-4.627112	aunt	-0.1555174
-4.412435	aurora	-0.1327213
-4.627112	australia	-0.1563721
-4.627112	authorize	-0.1563029
-4.486485	authorized	-0.2154575
-4.153028	automated	-0.2310506
-4.263645	automatic	-0.2351088
-4.486485	automatically	-0.1593496
-4.627112	ava	-0.1567316
-4.627112	avail	-0.158153
-3.362629	available	-0.2202665
-4.486485	avalon	-0.1431092
-4.263645	ave	-0.1992637
-2.516817	avenue	-0.5023276
-4.627112	average	-0.1595766
-4.627112	avery	-0.158215
-4.153028	avondale	-0.2679909
-4.627112	aw	-0.1573601
-4.627112	aware	-0.1547474
-3.929128	away	-0.1879484
-3.672493	awesome	-0.3059718
-4.627112	awful	-0.1567316
-4.153028	ay	-0.2390528
-4.627112	ayl	-0.159611
-4.263645	aylmar	-0.1864391
-4.263645	aylmer	-0.128741
-4.627112	azem	-0.1553541
-2.935153	b	-0.4938805
-3.825819	ba	-0.1548712
-4.627112	bab	-0.1591301
-4.263645	babe	-0.1327173
-4.412435	baby	-0.1569742
-4.627112	babysitter	-0.1594874
-4.064945	bac	-0.1741321
-3.041859	back	-0.2452037
-4.627112	background	-0.1571047
-4.486485	backyard	-0.1536567
-4.627112	baco	-0.1553402
-2.656719	bacon	-0.5684433
-4.627112	bacons	-0.1592194
-3.929128	bad	-0.1395289
-3.412897	bag	-0.7727724
-3.641341	bags	-0.3638443
-4.627112	baguettes	-0.1442235
-4.627112	bahaman	-0.1565657
-4.627112	bairdmore	-0.1592401
-4.486485	bake	-0.1557945
-3.378747	baked	-0.3597094
-3.991748	balance	-0.1420279
-4.627112	balcony	-0.1578705
-4.627112	ball	-0.1553887
-4.263645	balls	-0.1824555
-4.627112	balmoral	-0.1583114
-4.627112	balsam	-0.1580083
-3.929128	balsamic	-0.1708067
-3.5594	banana	-0.8025107
-3.672493	bancroft	-0.3182436
-3.672493	bank	-0.217029
-4.153028	banks	-0.5509253
-4.153028	bar	-0.1281616
-4.627112	barb	-0.1527045
-4.412435	barbara	-0.1415912
-4.627112	barbe	-0.1578567
-2.985237	barbecue	-0.5584459
-3.395487	barbeque	-0.3861834
-4.263645	barbequed	-0.4555287
-4.486485	barclay	-0.2556689
-4.412435	barely	-0.2219085
-4.627112	barks	-0.1590927
-4.627112	barnhill	-0.1553887
-4.627112	barq	-0.1576843
-3.672493	barq's	-0.50842
-4.627112	barqs	-0.1497546
-4.486485	barrhaven	-0.1370409
-3.991748	barrie	-0.2413466
-4.486485	barriefield	-0.1573056
-4.412435	barry	-0.1528307
-4.263645	barry's	-0.2771426
-4.412435	bart's	-0.2217023
-4.263645	barton	-0.1874963
-3.263973	base	-0.2380483
-3.782123	based	-0.1995838
-4.627112	baseline	-0.142781
-4.486485	basement	-0.1584498
-4.064945	basic	-0.1623732
-3.874409	basically	-0.1251564
-4.627112	basics	-0.156206
-4.627112	basinview	-0.1585592
-4.412435	basis	-0.1361513
-4.486485	basket	-0.1556005
-4.412435	baskin	-0.2211586
-4.627112	batch	-0.1442235
-4.412435	bath	-0.3293108
-4.486485	bathurst	-0.1576399
-4.627112	batter	-0.1580083
-4.627112	batter's	-0.1553541
-4.627112	batters	-0.1406706
-4.627112	baxters	-0.1574291
-3.874409	bay	-0.250143
-4.153028	bayfield	-0.1818237
-4.486485	bayley	-0.2556689
-4.486485	bayly	-0.2556689
-3.742424	bayview	-0.5075176
-2.90105	be	-0.1208747
-4.263645	beach	-0.1577823
-4.486485	beaconwood	-0.2562198
-4.627112	beale	-0.1580083
-4.627112	beans	-0.1589445
-3.706053	bear	-0.7867469
-4.486485	beat	-0.1574053
-4.263645	beautiful	-0.2023907
-4.627112	beauty	-0.1554061
-4.064945	beaverwood	-0.2414509
-2.650534	because	-0.4306604
-4.627112	become	-0.1586831
-4.627112	becoming	-0.1595972
-4.627112	bedford	-0.142781
-4.412435	beech	-0.2201115
-4.486485	beechborough	-0.1585562
-4.627112	beechnut	-0.1591301
-3.706053	beef	-0.1019724
-3.490492	been	-0.1504111
-4.412435	beep	-0.1994722
-3.825819	beer	-0.09037945
-4.486485	beers	-0.1123024
-2.864377	before	-0.4626098
-4.627112	beg	-0.1533148
-4.263645	begin	-0.4524482
-4.486485	beginning	-0.1561237
-4.627112	behalf	-0.1578498
-4.263645	behind	-0.1389248
-3.469756	being	-0.1576531
-4.627112	belalen	-0.158215
-4.486485	beland	-0.1424098
-4.627112	belcot	-0.1591301
-4.486485	belgrave	-0.255972
-4.064945	believe	-0.1071243
-4.627112	belinda	-0.1442235
-3.641341	bell	-0.3365773
-4.412435	belleville	-0.2586245
-4.627112	bellevue	-0.1583114
-4.627112	bellomo	-0.1591301
-4.263645	bells	-0.2657924
-4.412435	ben	-0.1581948
-4.627112	benefit	-0.1442235
-4.412435	benlight	-0.1976995
-4.486485	benson	-0.220415
-4.412435	berkley	-0.2767474
-4.412435	bern	-0.2199459
-4.627112	bernard	-0.158215
-4.486485	besh	-0.1410433
-3.874409	beside	-0.1899717
-4.412435	besides	-0.1402081
-3.929128	best	-0.2146137
-4.153028	bet	-0.157726
-4.627112	bethany	-0.1582426
-3.28995	better	-0.2440703
-4.486485	betty	-0.1573087
-3.431036	between	-0.2170602
-4.627112	beverage	-0.1563721
-4.263645	beverages	-0.2153326
-4.486485	bi	-0.1536212
-4.627112	bia	-0.1596041
-4.627112	bianca	-0.1442235
-3.431036	big	-0.2840069
-3.874409	bigger	-0.2095246
-4.627112	biggest	-0.156023
-4.486485	bilal	-0.1565211
-3.874409	bill	-0.2005371
-4.627112	billy	-0.1596204
-4.064945	bingo	-0.1759177
-4.627112	birchbark	-0.1585592
-4.263645	birchmount	-0.2122643
-4.486485	birchpark	-0.1550042
-4.627112	birth	-0.152094
-4.627112	birthday	-0.1590132
-4.486485	bit	-0.1174954
-4.263645	bite	-0.1875253
-3.449964	bites	-0.1290154
-3.991748	bits	-0.1977163
-3.057248	black	-0.5993636
-4.627112	blackthorne	-0.1583114
-4.627112	blainville	-0.1442235
-4.627112	blairwood	-0.1596204
-4.486485	blanc	-0.1531514
-4.153028	blanca	-0.1043233
-4.627112	blanco	-0.1585493
-3.929128	blend	-0.2033548
-4.627112	blended	-0.1595835
-4.627112	blends	-0.1432447
-4.627112	blessed	-0.1595629
-4.263645	block	-0.1652723
-4.412435	bloomfield	-0.2197734
-4.627112	bloomingfield	-0.1442235
-3.742424	bloor	-0.4284128
-4.486485	blu	-0.1393633
-3.362629	blue	-0.6492351
-4.486485	bluejay	-0.2208353
-4.627112	bo	-0.1556175
-4.627112	board	-0.1447045
-4.627112	boarders	-0.1442235
-3.874409	bob	-0.3450156
-4.627112	bobbie	-0.1588069
-4.486485	bobby	-0.1573846
-4.153028	bocci	-0.2262845
-4.627112	boiling	-0.1596244
-4.627112	bold	-0.1540038
-4.486485	bolsom	-0.2556689
-4.627112	bolten	-0.1442235
-4.412435	bolton	-0.1484657
-4.627112	bolwood	-0.1586831
-4.627112	bonanza	-0.1592675
-4.627112	bond	-0.1442235
-4.486485	bone	-0.1441848
-3.706053	boneless	-0.4281931
-3.929128	bonnel	-0.2295646
-4.486485	bonnie	-0.1408426
-4.412435	bonshaw	-0.2119394
-4.412435	bonus	-0.2305713
-4.627112	boo	-0.1560781
-4.486485	book	-0.1520102
-4.627112	booked	-0.1596204
-4.486485	bookstore	-0.1412152
-4.153028	booth	-0.2546955
-4.412435	borden	-0.1422605
-4.627112	border	-0.1593843
-4.627112	bordern	-0.1527045
-4.627112	bore	-0.1442235
-4.486485	boston	-0.1573429
-4.627112	botany	-0.159556
-3.019752	both	-0.3168462
-4.486485	bother	-0.1523943
-4.627112	bothering	-0.1442235
-4.412435	bottle	-0.2049837
-4.627112	bottled	-0.1594805
-3.672493	bottles	-0.3219731
-4.064945	bottom	-0.09235963
-4.627112	bottomline	-0.1442235
-4.486485	bought	-0.1495376
-4.627112	bouleva	-0.1592401
-3.041859	boulevard	-0.3890551
-4.627112	bout	-0.1481331
-3.825819	bovaird	-0.174295
-4.412435	bowl	-0.328918
-4.627112	bowman	-0.1583114
-3.782123	bowmanville	-0.1977842
-4.412435	bowood	-0.1631836
-3.332083	box	-0.2581085
-3.991748	boxes	-0.2920539
-4.486485	boy	-0.1323129
-4.627112	boylston	-0.1580083
-4.412435	boys	-0.1415629
-4.486485	br	-0.1554896
-4.627112	brace	-0.1591301
-4.263645	bracebridge	-0.2374402
-4.412435	brad	-0.1768861
-4.627112	bradbury	-0.1593225
-4.486485	braddle	-0.2559031
-3.929128	bradford	-0.1816806
-3.991748	bradshaw	-0.2895911
-4.627112	bradwell	-0.1593843
-4.263645	brady	-0.1393066
-4.486485	braemar	-0.1585149
-3.991748	bramalea	-0.221796
-4.627112	bramelea	-0.1527045
-4.627112	brampt	-0.1562476
-4.627112	bramptom	-0.1595698
-3.251546	brampton	-0.2580447
-4.627112	bran	-0.1527045
-4.486485	brand	-0.1561268
-4.263645	brandon	-0.1866796
-4.627112	brands	-0.1578498
-4.412435	brant	-0.205148
-4.263645	brantford	-0.2199254
-4.627112	braun	-0.1580083
-4.627112	braxton	-0.1442235
-4.627112	brea	-0.1442235
-3.395487	bread	-0.1953997
-3.153283	breaded	-0.4103632
-4.627112	breading	-0.1410147
-4.627112	breads	-0.1409143
-4.627112	breadsticks	-0.1442235
-4.627112	break	-0.1563029
-4.627112	breakdown	-0.1553541
-4.263645	breaking	-0.1368431
-4.627112	breast	-0.1549448
-4.627112	breasts	-0.1564412
-4.486485	brenda	-0.1406706
-4.627112	bri	-0.1442235
-4.486485	brian	-0.1427525
-4.627112	briarfield	-0.1585592
-4.627112	briarwood	-0.1436295
-4.486485	brick	-0.1583703
-4.412435	bridge	-0.2053907
-4.627112	brief	-0.1574329
-4.627112	brilliant	-0.1584285
-4.627112	brimley	-0.1582426
-3.512269	bring	-0.3113919
-4.486485	bringing	-0.154546
-3.929128	brings	-0.3191899
-3.782123	brio	-0.1684953
-4.627112	brios	-0.1429523
-4.263645	britannia	-0.2504779
-4.627112	brittan	-0.1527045
-4.627112	bro	-0.1595698
-4.627112	broad	-0.1593981
-4.263645	broadview	-0.1598202
-3.825819	broadway	-0.40194
-3.163166	broccoli	-0.3422199
-4.627112	broccolis	-0.1442235
-4.627112	broch	-0.1562476
-3.991748	brock	-0.2915713
-4.627112	brocks	-0.1580083
-4.263645	brockville	-0.1389795
-4.627112	brocolli	-0.1593362
-4.412435	broke	-0.1889972
-4.627112	broken	-0.1594324
-4.412435	bronte	-0.2354815
-4.263645	brook	-0.1902481
-4.486485	brookdale	-0.1522128
-4.627112	brookfield	-0.1536977
-4.627112	brookland	-0.1585592
-4.486485	brooklyn	-0.2561372
-4.627112	brooks	-0.138085
-4.263645	brought	-0.2485311
-4.263645	brown	-0.2053383
-4.486485	brown's	-0.2571411
-4.627112	browner	-0.1527045
-3.742424	brownie	-0.1878602
-3.395487	brownies	-0.2026065
-4.412435	browns	-0.3305487
-4.627112	browser	-0.15207
-4.627112	brumwell	-0.1580083
-4.627112	brunswick	-0.1583114
-3.706053	bruschetta	-0.1831536
-4.627112	bruschetta's	-0.1527045
-4.412435	brushed	-0.2189025
-4.627112	bryan	-0.1442235
-4.627112	bryant	-0.1593912
-4.627112	brynne	-0.1574291
-4.412435	bu	-0.1427533
-4.486485	bucket	-0.1571085
-4.412435	buckhorn	-0.3303495
-3.782123	bucks	-0.2325995
-4.486485	bud	-0.141652
-4.263645	buddy	-0.1387667
-4.627112	budea	-0.1585562
-4.627112	budget	-0.156206
-4.627112	buena	-0.1596178
-3.153283	buffalo	-0.5965111
-4.627112	bug	-0.1596244
-4.153028	build	-0.1851643
-3.512269	building	-0.2233775
-4.627112	buildings	-0.1442235
-4.486485	built	-0.1553371
-4.627112	bullshit	-0.1586625
-4.263645	bump	-0.1861698
-4.627112	bumpies	-0.1565381
-4.627112	bun	-0.1563029
-4.486485	bunch	-0.1508909
-4.627112	bund	-0.1563029
-3.14362	bundle	-0.1835985
-4.627112	bundled	-0.156545
-3.991748	bundles	-0.1874903
-4.486485	bundling	-0.1425669
-4.412435	bur	-0.220477
-4.263645	burbank	-0.1324469
-4.627112	burdon	-0.1442235
-4.412435	burger	-0.1884475
-4.627112	burl	-0.158339
-4.627112	burli	-0.1595217
-3.585033	burlington	-0.4017377
-4.627112	burn	-0.1580083
-4.486485	burned	-0.1561614
-4.486485	burnham	-0.1527502
-3.782123	burnhamthorpe	-0.4603938
-4.153028	burnt	-0.2103349
-4.627112	burntwood	-0.1583114
-4.486485	burton	-0.1553398
-4.486485	bus	-0.1595526
-4.064945	business	-0.2431608
-4.412435	busy	-0.152461
-2.353278	but	-0.4792988
-4.486485	butter	-0.1407104
-4.627112	butterfly	-0.1562476
-4.627112	buttery	-0.1594324
-4.412435	button	-0.1347286
-4.627112	buttons	-0.1442235
-3.929128	buy	-0.1893749
-3.585033	buzz	-0.3827159
-3.469756	buzzer	-0.3034455
-4.486485	buzzes	-0.2134935
-2.844733	by	-0.3626328
-2.985237	bye	-0.6392943
-4.627112	byr	-0.1580083
-2.849562	c	-0.3291519
-3.825819	ca	-0.1813684
-4.627112	caarleton	-0.1592813
-4.627112	cab	-0.1587863
-4.627112	caches	-0.156266
-3.449964	caesar	-0.3522439
-4.412435	cairncroft	-0.2001542
-4.627112	cajun	-0.1553887
-4.486485	cake	-0.1434186
-4.627112	cakes	-0.1442235
-4.627112	cal	-0.1594255
-4.412435	calamari	-0.3305007
-4.412435	calculate	-0.2141864
-4.486485	caledon	-0.250365
-4.412435	caledonia	-0.2038249
-4.412435	cali	-0.2218604
-3.073203	call	-0.3235165
-3.303545	called	-0.1727519
-3.512269	calling	-0.1798452
-4.412435	calls	-0.1514967
-4.627112	calories	-0.1426526
-4.627112	calum	-0.1442235
-4.627112	calvert	-0.1592813
-4.627112	cambrian	-0.1596041
-3.929128	cambridge	-0.3100135
-3.706053	came	-0.2258369
-4.627112	camila	-0.1588963
-4.627112	campaign	-0.1596244
-4.627112	camping	-0.158573
-2.295372	can	-0.4801827
-3.672493	can't	-0.1780175
-4.627112	canad	-0.1549448
-3.395487	canada	-0.6273455
-4.153028	canada's	-0.5524868
-3.347088	canadian	-0.2544166
-4.486485	canard	-0.2570449
-4.627112	canberra	-0.1590614
-3.512269	cancel	-0.3590953
-4.627112	canceled	-0.1549448
-4.153028	cancelled	-0.1623495
-4.486485	cancelling	-0.1406243
-4.412435	cancer	-0.1662998
-4.627112	canda	-0.1442235
-4.627112	candey	-0.1435868
-4.486485	candles	-0.250365
-4.627112	cane	-0.1596178
-4.627112	cani	-0.1591507
-4.627112	cannen	-0.1442235
-4.486485	cannon	-0.1408426
-4.263645	cannot	-0.1593938
-3.431036	cans	-0.4328341
-4.627112	canterbury	-0.1591439
-4.627112	canvas	-0.1596244
-4.627112	cape	-0.1596244
-4.263645	capicola	-0.196022
-4.627112	capicollo	-0.1594393
-4.412435	capital	-0.2214892
-4.486485	capocollo	-0.1589964
-4.627112	capri	-0.1582426
-4.486485	car	-0.1553437
-4.627112	cara	-0.1442235
-4.064945	caramel	-0.3613611
-3.585033	caramelized	-0.6080147
-4.627112	carb	-0.1562476
-3.991748	carbs	-0.3075289
-3.469756	card	-0.2194101
-4.627112	card's	-0.1581392
-4.627112	cardboard	-0.1570563
-4.412435	cardholder	-0.1591583
-4.064945	care	-0.1230409
-4.486485	careful	-0.1398235
-4.627112	carina	-0.1588069
-4.627112	carl	-0.1595698
-4.627112	carla	-0.1442235
-4.486485	carleton	-0.2569419
-3.825819	carling	-0.3041453
-4.486485	carlisle	-0.2556689
-4.412435	carlos	-0.1402225
-4.627112	carlson	-0.1583114
-4.486485	carlton	-0.2556689
-4.486485	carly	-0.2550896
-4.627112	carmelita	-0.1442235
-4.627112	carmen	-0.1588069
-4.486485	carmen's	-0.250365
-4.627112	carol	-0.1442235
-4.627112	caromont	-0.1527045
-4.627112	carport	-0.1442235
-4.486485	carriage	-0.2570174
-4.486485	carrie	-0.1547682
-4.627112	carried	-0.156545
-3.929128	carry	-0.1617196
-4.627112	cart	-0.1574605
-4.486485	carter	-0.1397875
-4.627112	cartier	-0.1590201
-4.263645	case	-0.1397809
-4.627112	caser	-0.1594874
-4.627112	cases	-0.1578498
-4.627112	casey	-0.1571499
-2.947143	cash	-0.3884358
-4.064945	cass	-0.1616777
-4.486485	cassandra	-0.1433553
-4.627112	cassy	-0.1556175
-4.486485	cat	-0.1369766
-4.263645	catch	-0.1881735
-4.627112	categories	-0.1581737
-4.263645	catering	-0.1283572
-4.627112	catharine's	-0.1565657
-4.486485	catharines	-0.1537023
-4.153028	catherine	-0.1561617
-4.486485	catherine's	-0.2042616
-4.486485	cats	-0.1374353
-4.412435	cattail	-0.1571468
-4.627112	catwalk	-0.1595148
-4.412435	cau	-0.1510146
-4.627112	caught	-0.1562476
-3.227708	cauli	-0.5145622
-4.627112	cauliblanca	-0.1527045
-4.486485	caulicrust	-0.1576054
-4.627112	caulificurst	-0.156545
-4.486485	caulifl	-0.1524746
-4.412435	cauliflo	-0.1418491
-2.906551	cauliflower	-0.4670224
-4.627112	cauliflowers	-0.1565381
-4.627112	caulifrower	-0.1596178
-4.627112	caulipesto	-0.1579945
-3.163166	cause	-0.3253881
-4.627112	caused	-0.1567316
-4.627112	causes	-0.159611
-4.486485	cavell	-0.1428524
-4.627112	cawthra	-0.1368247
-4.627112	cea	-0.1549448
-4.627112	ceasar	-0.1589307
-4.486485	cecil	-0.1416559
-4.486485	cecile	-0.1419381
-4.627112	ced	-0.1596041
-4.486485	cedar	-0.1574329
-4.627112	cedarbrae	-0.1527045
-4.627112	celebrate	-0.1567216
-4.627112	celiac	-0.1559538
-4.627112	celine	-0.1560022
-4.153028	cell	-0.34554
-4.412435	cellphone	-0.1345072
-3.742424	cent	-0.2446714
-4.486485	centennial	-0.257281
-3.469756	center	-0.2445667
-4.412435	centerfield	-0.2057189
-3.706053	central	-0.3795819
-4.486485	centralized	-0.1559538
-3.672493	centre	-0.2043253
-3.332083	cents	-0.3777948
-3.991748	certain	-0.2215012
-3.742424	certainly	-0.1614289
-4.627112	cesar	-0.1594874
-4.153028	ch	-0.1330612
-4.627112	chadia	-0.1442235
-4.627112	chalk	-0.1596041
-4.486485	champagne	-0.144014
-4.412435	chance	-0.1840749
-4.627112	chaney	-0.158215
-3.194239	change	-0.3167519
-3.825819	changed	-0.1835249
-4.486485	changes	-0.1427382
-4.263645	changing	-0.1519061
-4.627112	chantal	-0.1590201
-3.263973	charge	-0.2185139
-3.929128	charged	-0.2173995
-4.064945	charges	-0.1151304
-3.991748	charging	-0.1430006
-4.486485	charlene	-0.2558756
-4.153028	charlie	-0.1721159
-4.627112	charm	-0.1574291
-4.627112	charmaine	-0.1442235
-4.627112	chateau	-0.1580083
-4.064945	che	-0.2613482
-4.486485	cheap	-0.1514198
-3.303545	cheaper	-0.2748955
-4.486485	cheapest	-0.1995767
-3.431036	check	-0.2039769
-4.486485	checked	-0.1539412
-4.263645	checking	-0.1360117
-4.627112	checks	-0.1592882
-3.173279	cheddar	-0.453177
-4.412435	cheddars	-0.1686715
-4.486485	chee	-0.1565557
-4.627112	chees	-0.1573532
-2.647475	cheese	-0.3313998
-4.153028	cheeseburger	-0.200751
-4.627112	cheesecake	-0.1595835
-4.627112	cheesegub	-0.1596041
-4.627112	cheesey	-0.1594599
-3.585033	cheesy	-0.5417343
-4.064945	cheetos	-0.1449429
-4.486485	chela	-0.1587721
-4.627112	chelsea	-0.1431235
-4.064945	chemong	-0.2258586
-4.627112	cherie	-0.1588069
-4.627112	cherry	-0.1592263
-4.627112	chester	-0.1596204
-4.627112	chestnut	-0.1580083
-4.486485	cheval	-0.257281
-4.627112	chevony	-0.158215
-4.153028	chi	-0.1831066
-4.627112	chic	-0.15869
-4.412435	chick	-0.2170723
-4.627112	chicke	-0.1594805
-2.662993	chicken	-0.368738
-4.627112	chicken's	-0.1567316
-4.486485	chickens	-0.1522477
-4.627112	chico	-0.1442235
-4.627112	child	-0.1595972
-4.627112	children	-0.1553887
-3.31758	chili	-0.2918162
-4.486485	chilies	-0.1445237
-3.706053	chilli	-0.5247165
-4.627112	chimo	-0.1595904
-4.627112	chin	-0.1586556
-4.412435	chingacousy	-0.195723
-4.064945	chingcousy	-0.2631899
-4.486485	chinguacousy	-0.15129
-4.627112	chintsy	-0.1565381
-4.153028	chip	-0.2168168
-3.362629	chipotle	-0.4415737
-3.098291	chips	-0.1914033
-4.627112	chisholm	-0.1442235
-4.627112	cho	-0.1553402
-4.153028	chocolate	-0.3330079
-3.929128	choice	-0.1703606
-4.064945	choices	-0.190286
-3.612275	choose	-0.2496605
-4.627112	choosen	-0.1562476
-4.486485	choosing	-0.2051337
-3.641341	chorizo	-0.4684169
-4.412435	chose	-0.1898513
-3.825819	chris	-0.200513
-4.627112	chrissy	-0.158215
-4.627112	christ	-0.1589514
-4.627112	christ's	-0.1596244
-4.627112	christie	-0.1580083
-4.412435	christine	-0.3298752
-4.627112	chua	-0.1588069
-4.412435	chunks	-0.1370706
-4.412435	church	-0.1775172
-4.627112	churchill	-0.1523035
-4.627112	ci	-0.1554165
-4.627112	cilan	-0.158153
-3.742424	cilantro	-0.1769252
-4.486485	cin	-0.1595733
-4.412435	cinco	-0.2205322
-3.929128	cindy	-0.1913213
-4.627112	cinema	-0.1442235
-3.742424	circle	-0.3595003
-4.627112	circuit	-0.1442235
-4.486485	citibank	-0.1370409
-4.627112	cities	-0.1589926
-3.535195	city	-0.1985275
-4.627112	clair	-0.1583114
-4.153028	claire	-0.1636505
-4.627112	clamark	-0.1582426
-4.486485	claredale	-0.1539482
-4.627112	clarence	-0.1580083
-4.412435	clarify	-0.1687227
-4.153028	clarington	-0.1659775
-4.627112	clarity	-0.1442235
-4.486485	clark	-0.1302088
-4.627112	clarkson	-0.1580083
-4.627112	class	-0.1442235
-3.012626	classic	-0.3943112
-3.991748	classics	-0.1823319
-4.627112	classing	-0.1590339
-4.627112	claude	-0.158215
-4.486485	claudette	-0.1433659
-4.412435	clean	-0.1514093
-3.742424	clear	-0.1655416
-4.627112	clearing	-0.1549448
-4.486485	clearly	-0.1436438
-4.412435	click	-0.1944566
-4.627112	clicked	-0.1565381
-4.627112	clicking	-0.1565381
-4.412435	clifton	-0.2220665
-4.627112	clinton	-0.1574291
-4.263645	clock	-0.178755
-3.449964	close	-0.4651984
-4.263645	closed	-0.1843779
-4.064945	closer	-0.2888732
-4.263645	closest	-0.1429197
-4.486485	clowes	-0.1573915
-3.782123	club	-0.4299692
-4.627112	clubhouse	-0.1585592
-4.627112	clue	-0.1587863
-4.486485	clydesdale	-0.1589414
-4.153028	co	-0.1428286
-4.412435	coated	-0.1825352
-4.412435	cobourg	-0.2061822
-4.627112	coby	-0.1584491
-3.395487	coca	-0.9158427
-4.627112	cod	-0.1587657
-3.5594	code	-0.2209858
-4.627112	codes	-0.1546085
-4.627112	coincidences	-0.1562476
-4.627112	coka	-0.1591164
-2.923485	coke	-0.4255213
-4.412435	coke's	-0.1571054
-3.742424	cokes	-0.1877935
-3.991748	cola	-0.1308781
-4.486485	colas	-0.1210175
-4.627112	colberrie	-0.1557252
-4.412435	colby	-0.1415096
-4.486485	cold	-0.1546779
-4.627112	cole	-0.1596244
-4.627112	colin	-0.1588069
-4.627112	collect	-0.156545
-4.627112	collecting	-0.1549448
-3.782123	college	-0.2577492
-4.486485	collier	-0.2567219
-3.672493	collingwood	-0.1931379
-4.627112	collins	-0.1593912
-4.627112	colt	-0.1442235
-4.627112	com	-0.1526386
-3.991748	combination	-0.5084078
-4.627112	combination's	-0.1588963
-4.412435	combine	-0.1489962
-3.991748	combined	-0.1322787
-3.469756	combo	-0.188183
-4.412435	combos	-0.136897
-2.830562	come	-0.4722286
-4.627112	comeback	-0.1562476
-2.890252	comes	-0.5487956
-4.486485	comfort	-0.2572509
-3.431036	coming	-0.34836
-4.627112	comment	-0.1568975
-4.486485	commercial	-0.2542055
-4.486485	common	-0.1526215
-4.627112	community	-0.1594874
-4.627112	company	-0.1527045
-4.627112	compare	-0.1592332
-4.627112	compared	-0.1568975
-4.627112	compensate	-0.156296
-4.486485	compensation	-0.2156178
-4.627112	complain	-0.157705
-4.627112	complained	-0.1521779
-4.486485	complaining	-0.2418841
-4.064945	complaint	-0.1361995
-3.991748	complete	-0.216298
-4.627112	completed	-0.156206
-4.153028	completely	-0.1948261
-4.627112	complex	-0.1442235
-4.627112	complicated	-0.1564966
-4.627112	complicating	-0.158153
-4.486485	complimentary	-0.1437363
-4.153028	computer	-0.1915729
-4.486485	con	-0.1596102
-4.627112	concern	-0.1553402
-4.627112	concerns	-0.1442235
-4.627112	concession	-0.1582426
-4.486485	concierge	-0.1537325
-4.627112	concluded	-0.157367
-4.627112	concordion	-0.1585592
-4.627112	condiment	-0.1553887
-4.486485	condiments	-0.1573429
-4.064945	condo	-0.1790134
-4.486485	condominium	-0.2066948
-4.486485	conestoga	-0.1424098
-4.627112	confederation	-0.1596204
-4.627112	confident	-0.156545
-4.627112	confidential	-0.1576843
-4.627112	configure	-0.1563029
-3.449964	confirm	-0.2416963
-4.263645	confirmation	-0.1313215
-4.486485	confirmed	-0.1412152
-3.874409	confirming	-0.1832724
-4.627112	confu	-0.158339
-4.486485	confuse	-0.1551083
-4.064945	confused	-0.1712363
-4.627112	confusing	-0.1555451
-4.627112	confusion	-0.1442235
-4.627112	congra	-0.1442235
-4.153028	congratulations	-0.4507388
-4.627112	conlin	-0.1570563
-4.412435	connect	-0.1520979
-4.627112	connecting	-0.1563029
-4.412435	connection	-0.2067232
-4.627112	connectivity	-0.1586831
-4.627112	connie	-0.1442235
-4.627112	conrad	-0.1592813
-3.706053	conservation	-0.3096354
-4.486485	conservatory	-0.2555104
-4.627112	consider	-0.1563029
-3.991748	considered	-0.2028653
-4.486485	considering	-0.1564243
-4.627112	constantly	-0.1594942
-4.627112	constr	-0.1567316
-4.627112	construct	-0.1556175
-4.627112	construction	-0.1562476
-4.627112	consumer	-0.1595629
-4.263645	contact	-0.1809786
-4.627112	contain	-0.1589376
-4.627112	container	-0.1432447
-4.412435	contains	-0.2194004
-4.486485	contamination	-0.1408426
-4.412435	continue	-0.1485699
-4.064945	convenience	-0.1872008
-4.486485	convenient	-0.1590514
-4.627112	convention	-0.1595423
-4.627112	conversation	-0.1591164
-4.627112	converted	-0.1562476
-4.627112	conway	-0.1442235
-3.782123	cooked	-0.1472431
-4.486485	cooking	-0.1526901
-3.991748	cool	-0.2059066
-4.486485	cooper	-0.2418841
-4.263645	cooperage	-0.1344675
-4.627112	cooperate	-0.1573601
-4.627112	cope	-0.1564412
-4.627112	cora	-0.1442235
-4.486485	core	-0.1589827
-4.627112	corect	-0.1442235
-4.412435	corn	-0.2039992
-3.742424	corner	-0.4122635
-4.627112	cornerbroo	-0.1442235
-4.263645	cornerbrook	-0.24718
-4.486485	corners	-0.2418841
-4.412435	cornwall	-0.2036243
-4.627112	corporate	-0.1595972
-2.75018	correct	-0.4946136
-4.412435	correctly	-0.1398921
-4.627112	corresponds	-0.1568975
-4.627112	corry	-0.1580083
-4.627112	corsair	-0.1582426
-4.627112	cory	-0.1442235
-4.627112	cosca	-0.1442235
-3.263973	cost	-0.3288014
-4.263645	costing	-0.4516245
-3.742424	costs	-0.337943
-4.263645	cote	-0.2040787
-4.627112	coto	-0.159611
-4.486485	cottage	-0.2572372
-4.627112	cottonwood	-0.1585592
-4.627112	cottrell	-0.1592401
-3.929128	cottrelle	-0.2588916
-4.627112	cou	-0.1554165
-2.812359	could	-0.5030671
-3.991748	couldn't	-0.1825232
-4.263645	count	-0.1727692
-4.627112	countdown	-0.1595698
-4.627112	counted	-0.1581943
-3.874409	country	-0.2262057
-4.412435	countryside	-0.2039208
-4.627112	counts	-0.1581943
-4.627112	county	-0.157153
-4.486485	couple	-0.1710918
-4.486485	coupon	-0.1442061
-4.627112	coupons	-0.1592263
-4.627112	course	-0.07402349
-3.251546	court	-0.3542663
-4.263645	courtice	-0.152004
-4.627112	courtney	-0.159611
-4.486485	courts	-0.1420596
-4.627112	cove	-0.1442235
-4.153028	cover	-0.1739629
-4.627112	covered	-0.157367
-4.627112	cowrywise	-0.1593569
-3.929128	coz	-0.17216
-4.153028	cr	-0.2203467
-4.627112	crack	-0.1595698
-4.627112	craig	-0.1574291
-4.627112	crap	-0.1575464
-4.627112	crash	-0.1442235
-4.627112	crashed	-0.1442235
-4.486485	craving	-0.1539969
-4.153028	crazy	-0.1632843
-3.991748	cre	-0.1340461
-4.627112	crea	-0.1577326
-3.194239	cream	-0.6563048
-4.627112	creams	-0.1442235
-2.769933	creamy	-0.724266
-4.412435	create	-0.2195524
-3.134168	credit	-0.2836207
-4.627112	credited	-0.1549448
-4.627112	crediton	-0.1596244
-4.064945	credits	-0.1585423
-4.064945	creditview	-0.1984419
-4.412435	creek	-0.123951
-4.486485	creme	-0.2572303
-2.879717	crescent	-0.6084304
-4.627112	cresent	-0.1442235
-4.486485	cresthaven	-0.2194004
-4.486485	crisp	-0.1398522
-3.449964	crispy	-0.2767857
-4.627112	cristen	-0.1591439
-4.627112	crombie	-0.1564966
-4.263645	cross	-0.1408788
-3.929128	crossing	-0.1889357
-4.627112	crosswalk	-0.1580359
-4.412435	cru	-0.1546957
-4.627112	crum	-0.1442235
-3.612275	crumble	-0.05943923
-4.627112	crumble's	-0.1594187
-3.535195	crumbled	-0.5680489
-4.064945	crumbles	-0.1323911
-4.153028	crumbs	-0.2838714
-4.627112	crunch	-0.1568975
-3.612275	crunchy	-0.5259723
-3.672493	crush	-0.1970248
-4.412435	crushes	-0.1996506
-3.163166	crust	-0.1294396
-4.486485	crusted	-0.2556551
-4.412435	crusts	-0.1530329
-4.627112	crutches	-0.1442235
-4.627112	cry	-0.1590064
-4.412435	crystal	-0.2179395
-4.627112	cu	-0.1596041
-4.627112	cubical	-0.1442235
-4.627112	cul	-0.1595698
-4.627112	cunchy	-0.1595492
-4.627112	cundles	-0.1562029
-4.627112	cup	-0.1578498
-4.627112	cure	-0.1596244
-4.627112	curiosity	-0.1416019
-4.486485	curious	-0.1525758
-4.627112	curr	-0.1442235
-3.672493	current	-0.3303776
-3.991748	currently	-0.1680658
-4.627112	curtis	-0.1588069
-4.486485	cushman	-0.142781
-4.627112	custom	-0.1579945
-3.31758	customer	-0.5555102
-4.627112	customer's	-0.1592401
-3.991748	customers	-0.1421445
-4.153028	customize	-0.1451842
-4.627112	customized	-0.1579945
-3.535195	cut	-0.2533626
-4.627112	cute	-0.1400605
-4.486485	cutler	-0.1524222
-4.627112	cuts	-0.1562476
-3.825819	cutting	-0.2823097
-3.303545	cuz	-0.4371931
-4.627112	cvv	-0.1565381
-4.627112	cyr	-0.1553541
-3.183632	d	-0.3805577
-4.627112	da	-0.1595492
-3.991748	dad	-0.1341805
-4.486485	daddy	-0.1430308
-3.263973	dairy	-0.824051
-4.627112	daisy	-0.158215
-4.627112	dalal	-0.1527045
-4.263645	dale	-0.1550327
-4.627112	dallas	-0.159556
-4.627112	damian	-0.1583114
-4.412435	damn	-0.1528625
-4.153028	dan	-0.1831619
-4.627112	dandy	-0.158215
-4.627112	dane	-0.1583114
-3.706053	danforth	-0.2077673
-4.263645	daniel	-0.1594964
-4.627112	daniels	-0.1596041
-4.412435	danny	-0.1431132
-4.627112	danrilk	-0.1442235
-4.486485	dar	-0.1575847
-4.627112	darco	-0.1588551
-4.627112	darius	-0.1596244
-4.627112	dark	-0.1594187
-4.263645	darren	-0.1536149
-4.627112	darryl	-0.1442235
-4.486485	daryl	-0.1858636
-4.627112	dasani	-0.159611
-4.627112	dashi	-0.158215
-4.486485	data	-0.1593744
-4.412435	database	-0.1537851
-4.153028	date	-0.216845
-4.486485	daughter	-0.1793954
-4.627112	dave	-0.1429737
-4.627112	daventry	-0.1590614
-3.929128	david	-0.1540645
-4.486485	davis	-0.1431092
-4.627112	davisville	-0.1429737
-4.627112	dawford	-0.1592813
-4.486485	dawn	-0.1568875
-4.412435	dawson	-0.183121
-3.782123	day	-0.2586049
-4.263645	days	-0.2011169
-3.825819	de	-0.1276967
-4.627112	dead	-0.1595698
-3.081406	deal	-0.2507521
-4.627112	dealership	-0.1565657
-4.627112	dealing	-0.1564412
-3.641341	deals	-0.1651659
-4.486485	dean	-0.257093
-4.064945	dear	-0.2120623
-4.412435	deb	-0.1437616
-4.627112	debbie	-0.1588069
-3.057248	debit	-0.3541625
-4.627112	debit's	-0.1594187
-4.486485	debits	-0.1412152
-4.627112	debt	-0.1442235
-4.263645	decarie	-0.1359048
-3.991748	decide	-0.1401346
-4.486485	decided	-0.254558
-4.627112	decision	-0.1556175
-3.194239	deep	-1.03118
-4.627112	deeper	-0.1594942
-4.486485	deer	-0.1593607
-4.627112	def	-0.158153
-4.627112	default	-0.1515768
-4.627112	defect	-0.1563029
-3.641341	definitely	-0.1464069
-4.486485	deidre	-0.1529144
-4.627112	del	-0.1588963
-4.153028	delaware	-0.2856447
-4.412435	delay	-0.1330459
-4.627112	delayed	-0.1570563
-4.263645	delete	-0.2467126
-3.991748	deli	-0.3334164
-3.825819	delicious	-0.2905512
-4.627112	delight	-0.1345654
-4.627112	delightful	-0.1594599
-4.486485	deliv	-0.1500151
-3.31758	deliver	-0.3635811
-3.431036	delivered	-0.2534169
-4.627112	deliveries	-0.1442235
-4.153028	delivering	-0.2051466
-4.627112	delivers	-0.1568975
-2.769933	delivery	-0.3255833
-4.627112	delivery's	-0.1588688
-4.153028	delta	-0.1967207
-3.706053	deluxe	-0.2353139
-4.627112	denison	-0.1425383
-4.627112	denmanvale	-0.1563721
-4.486485	denmar	-0.2559031
-4.627112	denmark	-0.1582426
-4.627112	dennis	-0.1585592
-4.153028	dennison	-0.5509253
-4.627112	denpass	-0.1527045
-4.627112	dental	-0.159611
-4.064945	department	-0.1331583
-4.627112	departments	-0.1583114
-4.153028	depending	-0.3595083
-3.874409	depends	-0.2599824
-4.627112	depot	-0.1442235
-3.742424	derry	-0.4527222
-4.627112	dery	-0.1588963
-4.627112	describe	-0.1563029
-4.627112	desert	-0.1565381
-4.486485	deserts	-0.1370409
-4.627112	deserve	-0.1567316
-4.486485	desired	-0.1571123
-4.627112	desk	-0.1321545
-3.825819	dessert	-0.2666967
-3.991748	desserts	-0.171683
-4.486485	detail	-0.1413871
-4.412435	details	-0.1246793
-4.627112	deven	-0.158339
-4.486485	devere	-0.1570947
-4.627112	devon	-0.1586831
-4.627112	devonhurst	-0.1442235
-4.627112	dew	-0.1442235
-3.991748	di	-0.166243
-4.627112	dial	-0.1567316
-4.486485	diameter	-0.1351606
-4.627112	diamond	-0.1585592
-4.627112	diana	-0.1588069
-4.486485	diane	-0.1433659
-4.627112	diary	-0.1593294
-4.627112	dicese	-0.1582426
-4.627112	dick	-0.1553402
-2.761924	did	-0.6310074
-4.627112	didding	-0.1589514
-3.612275	didn't	-0.1758053
-3.163166	diet	-0.6516486
-4.627112	diets	-0.1442235
-4.627112	dif	-0.159192
-4.627112	diff	-0.1549448
-3.825819	difference	-0.1897148
-3.31758	different	-0.1669128
-4.627112	differently	-0.1573601
-4.153028	difficult	-0.1345726
-4.064945	digit	-0.2432173
-4.412435	digits	-0.1799751
-4.627112	dilan	-0.1442235
-3.706053	dill	-0.2497322
-4.412435	dinner	-0.2210583
-3.303545	dip	-0.2228142
-4.627112	dipper	-0.1578705
-2.790629	dipping	-0.7710186
-4.412435	dippings	-0.2198079
-3.347088	dips	-0.2563986
-4.627112	direction	-0.1568975
-3.874409	directly	-0.1908713
-4.627112	directory	-0.1442235
-4.627112	dirinks	-0.1593706
-4.486485	disappeared	-0.1518774
-4.627112	disappointed	-0.1562476
-4.627112	disappointing	-0.1442235
-4.412435	disconnect	-0.2141864
-4.153028	disconnected	-0.152654
-4.627112	discontinue	-0.1563029
-4.064945	discontinued	-0.201896
-4.153028	discount	-0.1325321
-4.627112	discounts	-0.1563721
-4.627112	discuss	-0.1564412
-4.486485	dish	-0.1286861
-4.627112	dishes	-0.155438
-4.627112	disney	-0.1593912
-4.627112	distance	-0.1564412
-4.627112	distinctly	-0.1595629
-4.627112	district	-0.1596204
-4.627112	divide	-0.1591301
-4.486485	divided	-0.1433588
-4.064945	division	-0.2192374
-4.627112	dixi	-0.1595492
-3.706053	dixie	-0.3720291
-4.627112	dixon	-0.1548446
-2.365847	do	-0.4036313
-4.412435	dobson	-0.3237727
-4.627112	doe	-0.158339
-3.019752	does	-0.4840117
-3.28995	doesn't	-0.2410781
-3.469756	doing	-0.3072867
-4.627112	dokey	-0.1544178
-4.486485	dol	-0.158267
-4.412435	doll	-0.1531654
-4.627112	dolla	-0.1582908
-3.163166	dollar	-0.340474
-3.28995	dollars	-0.3491158
-4.486485	dominic	-0.1407638
-3.825819	don	-0.3324521
-3.081406	don't	-0.2632318
-4.486485	donair	-0.2566119
-4.627112	donald	-0.1583114
-4.627112	donate	-0.1505934
-4.627112	donating	-0.1567316
-4.412435	donation	-0.1383807
-3.347088	done	-0.09118527
-4.627112	dong	-0.1587863
-4.486485	donna	-0.1551676
-4.486485	donovan	-0.1553259
-4.627112	donway	-0.1594393
-3.5594	door	-0.155982
-4.412435	door's	-0.1499025
-4.153028	doorbell	-0.1412776
-4.627112	doorbell's	-0.1594324
-4.627112	doors	-0.1590132
-4.627112	dor	-0.1595972
-4.627112	dori	-0.1554165
-4.627112	dorit	-0.1595698
-3.825819	dorito	-0.3219046
-3.263973	doritos	-0.4181914
-4.412435	dot	-0.1405593
-2.923485	double	-0.4872131
-4.627112	doubling	-0.158972
-4.627112	doubt	-0.1563029
-3.449964	dough	-0.2115427
-4.627112	doughnut	-0.159137
-4.627112	douglas	-0.1442235
-3.332083	down	-0.1875519
-4.412435	downey's	-0.3306723
-4.627112	download	-0.1563029
-4.486485	downs	-0.155649
-3.672493	downstairs	-0.2502724
-3.825819	downtown	-0.3152116
-4.627112	dozen	-0.1442235
-4.627112	dr	-0.1593637
-4.627112	drake	-0.1442235
-4.627112	dress	-0.1259613
-4.263645	dressed	-0.1119052
-3.5594	dressing	-0.2013449
-4.486485	dressings	-0.152754
-4.486485	dri	-0.15524
-4.627112	dried	-0.1432312
-4.627112	dries	-0.1530151
-3.31758	drink	-0.1834432
-4.412435	drinking	-0.2220253
-2.965773	drinks	-0.3354239
-2.606761	drive	-0.4419142
-3.929128	driver	-0.1244594
-4.486485	driver's	-0.1528865
-4.486485	drivers	-0.1567354
-4.627112	drives	-0.1442235
-4.627112	driveway	-0.1442235
-4.412435	driving	-0.1484823
-4.627112	drizzle	-0.1442235
-4.627112	drizzled	-0.1565381
-4.412435	drop	-0.1545151
-4.412435	drug	-0.3306887
-4.627112	drummond	-0.1527045
-4.486485	drums	-0.1565695
-4.064945	dry	-0.105514
-4.627112	dry's	-0.1442235
-4.627112	drys	-0.1527045
-4.627112	du	-0.1596102
-4.486485	due	-0.1549972
-4.153028	dufferin	-0.197722
-4.627112	duh	-0.1588963
-4.627112	dumb	-0.159611
-4.627112	dumped	-0.1573532
-4.412435	duncan	-0.1415912
-4.627112	dundamar	-0.1583114
-3.251546	dundas	-0.7393509
-4.627112	dundeman	-0.1527045
-4.064945	dundurn	-0.2192188
-4.627112	dunno	-0.1427223
-4.486485	duplex	-0.2052979
-4.486485	duplicate	-0.1515768
-4.486485	dupont	-0.205148
-4.486485	durham	-0.151052
-4.627112	dust	-0.1576843
-4.486485	dustin	-0.1394896
-4.627112	dusty	-0.1595423
-4.412435	dutch	-0.3306926
-3.026997	e	-0.4515578
-3.31758	each	-0.1737927
-4.627112	eagle's	-0.1596041
-4.412435	eaglemount	-0.3301296
-4.486485	eagles	-0.2572646
-4.627112	eagleson	-0.142781
-4.486485	earl	-0.1592121
-4.064945	earlier	-0.1421937
-4.064945	earls	-0.4556732
-4.412435	early	-0.1852568
-4.627112	earned	-0.1392666
-4.153028	easier	-0.1477742
-4.627112	easiest	-0.158339
-4.627112	easily	-0.159556
-3.535195	east	-0.1974804
-4.263645	eastdale	-0.2763379
-3.251546	easy	-0.748835
-3.782123	eat	-0.2144677
-4.263645	eating	-0.1976156
-4.627112	eats	-0.1553402
-4.412435	ecclestom	-0.135908
-4.627112	eccleston	-0.1563721
-4.627112	ecclestone	-0.1556175
-4.263645	echo	-0.1897528
-4.627112	echoing	-0.1565381
-4.486485	economical	-0.1402552
-4.486485	ed	-0.1433339
-4.627112	eddie	-0.1553887
-4.412435	eden	-0.1524376
-4.627112	eder	-0.1442235
-4.486485	edge	-0.1378365
-4.627112	edgemont	-0.1580083
-4.627112	edgewater	-0.159596
-4.627112	edison	-0.1442235
-3.782123	edmonton	-0.2762679
-4.627112	edmund	-0.1580083
-4.627112	edna	-0.158215
-4.627112	ednon	-0.158573
-4.263645	edward	-0.2297188
-4.627112	effort	-0.1568975
-4.627112	efren	-0.1588069
-4.486485	egg	-0.140445
-4.412435	eglington	-0.1821367
-3.991748	eglinton	-0.2307168
-3.28995	eh	-0.2338388
-4.627112	ei	-0.1553541
-4.627112	eigh	-0.1583252
-2.778093	eight	-0.4078307
-2.985237	eighteen	-0.3812318
-4.486485	eighth	-0.2571411
-3.173279	eighty	-0.6525497
-4.627112	eighy	-0.1589101
-4.627112	eighyt	-0.1586074
-3.378747	either	-0.1525671
-4.627112	elaine	-0.1592263
-4.627112	elcid	-0.158215
-4.486485	ele	-0.2568319
-4.627112	elephan	-0.15935
-4.627112	elephant	-0.1438289
-2.972164	eleven	-0.4229385
-4.627112	eleventh	-0.1583114
-3.991748	elgin	-0.2236192
-4.627112	eli	-0.1588069
-4.627112	elington	-0.1527045
-4.412435	elizabeth	-0.1753262
-4.627112	elle	-0.1588069
-4.627112	ellington	-0.1583114
-4.627112	ellis	-0.1590614
-3.929128	elm	-0.5033236
-4.486485	elmer	-0.1540038
-3.672493	else	-0.09000086
-4.486485	else's	-0.158962
-4.153028	elsinore	-0.2372758
-4.627112	elwin	-0.1582426
-4.627112	em	-0.1586831
-3.782123	email	-0.1853574
-4.627112	emailed	-0.1588895
-4.627112	emar	-0.158215
-4.627112	emelena	-0.1590614
-4.627112	emergency	-0.1577119
-4.627112	emilio	-0.1553887
-4.263645	emily	-0.2119808
-4.486485	emma	-0.15439
-4.627112	employer	-0.1596178
-3.825819	end	-0.2380286
-4.627112	ends	-0.158573
-4.627112	ener	-0.1596244
-4.627112	energy	-0.1565657
-4.627112	eng	-0.1574291
-4.627112	englinton	-0.1442235
-4.064945	english	-0.1620036
-4.627112	enjo	-0.1442235
-4.627112	enjor	-0.1573532
-3.239463	enjoy	-0.7669758
-4.627112	enjoying	-0.1549448
-3.672493	enough	-0.2290074
-4.627112	enrolin	-0.1596204
-4.627112	ensure	-0.1556906
-4.627112	ent	-0.1442235
-4.412435	enter	-0.1468772
-4.153028	entered	-0.1448931
-4.627112	enterprise	-0.1592401
-4.412435	entire	-0.2792924
-4.627112	entitled	-0.1568975
-4.486485	entitles	-0.25655
-4.486485	entrance	-0.1642917
-4.486485	entree	-0.2209937
-4.627112	entrees	-0.1592744
-3.929128	entry	-0.7565518
-4.627112	environment	-0.1590064
-4.627112	epress	-0.1595423
-4.627112	epsom	-0.1596204
-4.263645	equestrian	-0.2177122
-3.362629	er	-0.1679765
-4.627112	eramosa	-0.1595354
-4.627112	eric	-0.1442235
-4.627112	erie	-0.1390723
-3.825819	erin	-0.2715338
-4.263645	erindale	-0.2657399
-4.486485	eringate	-0.1580741
-4.153028	error	-0.1420171
-4.486485	errors	-0.156196
-4.627112	erskine	-0.1583114
-4.627112	erson	-0.1591439
-4.627112	eslan	-0.1560022
-4.412435	especially	-0.1513218
-4.627112	esquimault	-0.1592263
-3.929128	essa	-0.287331
-4.627112	essas	-0.1527045
-4.486485	essentially	-0.1533148
-4.412435	esso	-0.3306586
-4.627112	est	-0.1442235
-4.627112	estimate	-0.1578498
-4.486485	eta	-0.1407638
-4.627112	ethan	-0.1588069
-3.706053	etobicoke	-0.2745815
-4.627112	europe	-0.1563721
-4.412435	eva	-0.1555281
-4.627112	evelyn	-0.1442235
-3.251546	even	-0.1752289
-3.874409	evening	-0.2192242
-4.412435	evenly	-0.2058543
-4.153028	ever	-0.1694124
-4.486485	everett	-0.2031583
-4.627112	everson	-0.1585592
-3.612275	every	-0.3506866
-3.874409	everybody	-0.1715112
-4.627112	everyone	-0.1596244
-3.14362	everything	-0.1907203
-4.412435	everything's	-0.190582
-4.627112	everywhere	-0.1573532
-4.627112	ewan	-0.1588069
-3.672493	ex	-0.2087803
-3.825819	exact	-0.2169865
-3.303545	exactly	-0.1870836
-4.627112	example	-0.125497
-3.742424	excellent	-0.198503
-3.782123	except	-0.1741451
-4.627112	exchange	-0.1576981
-4.627112	exclude	-0.156545
-4.627112	excluding	-0.1593706
-3.641341	excuse	-0.8816626
-4.627112	exhausted	-0.1553402
-4.627112	exist	-0.1587657
-4.627112	exists	-0.1442235
-4.627112	exit	-0.1586969
-4.412435	exlarge	-0.203072
-4.627112	expect	-0.1549448
-4.627112	expecting	-0.1568975
-4.627112	expen	-0.1567316
-4.153028	expensive	-0.1406099
-4.627112	experience	-0.1565381
-4.486485	expiry	-0.1423423
-3.991748	explain	-0.2036258
-4.486485	explained	-0.1531894
-4.627112	explaining	-0.156545
-4.486485	express	-0.1569635
-4.627112	ext	-0.1582908
-4.412435	extension	-0.2035966
-4.627112	extr	-0.1556175
-2.510099	extra	-0.5148814
-4.412435	extras	-0.150005
-4.486485	extremely	-0.1573432
-4.486485	ey	-0.1554134
-4.486485	eyes	-0.1582601
-4.627112	ezran	-0.158215
-3.205112	f	-0.3703451
-4.627112	fa	-0.1593294
-4.627112	fabulous	-0.1584285
-4.627112	faces	-0.156545
-4.627112	fact	-0.1415103
-4.627112	fade	-0.1592882
-4.627112	fading	-0.1442235
-4.627112	fadre	-0.1593637
-4.412435	fair	-0.1569492
-4.412435	fairfax	-0.3304594
-4.412435	fairfield	-0.2204495
-4.486485	fairly	-0.1587144
-3.991748	fairview	-0.2221526
-4.627112	falconer	-0.1585592
-4.627112	fallingbrook	-0.1594874
-4.153028	falls	-0.209528
-4.263645	familiar	-0.2385749
-4.064945	family	-0.142982
-3.5594	fan	-0.4536315
-4.627112	fancy	-0.1579945
-4.627112	fans	-0.1592126
-4.627112	fant	-0.1593294
-3.153283	fanta	-0.578569
-4.486485	fantas	-0.1346519
-4.263645	fantastic	-0.1721489
-3.825819	far	-0.1386327
-4.486485	farhan	-0.156196
-4.153028	farm	-0.146011
-4.486485	farnham	-0.142781
-4.627112	farren	-0.1442235
-4.627112	farther	-0.1576981
-4.486485	fast	-0.1407638
-3.991748	faster	-0.2132177
-4.486485	fat	-0.2569968
-4.627112	father's	-0.1442235
-4.486485	fatima	-0.1573846
-4.627112	fault	-0.141652
-4.627112	fav	-0.1442235
-4.627112	favor	-0.1382117
-4.486485	favorite	-0.08887178
-4.627112	favorites	-0.1442235
-4.627112	favourite	-0.154671
-4.627112	faye	-0.1588069
-3.991748	fee	-0.2257078
-4.486485	feed	-0.1418594
-4.627112	feedback	-0.1560884
-4.486485	feeding	-0.1409717
-4.412435	feel	-0.2758308
-4.412435	feeling	-0.1383735
-4.627112	fees	-0.156296
-4.486485	female	-0.1393633
-4.627112	females	-0.1553402
-4.627112	fennel	-0.1583114
-3.991748	fennell	-0.2039439
-4.486485	fenside	-0.2539081
-4.412435	fergus	-0.1659558
-4.627112	ferhan	-0.1586831
-4.627112	fern	-0.1580083
-4.627112	ferndale	-0.1431092
-4.627112	fernwood	-0.1580397
-4.627112	ferrara	-0.1580083
-4.486485	ferry	-0.142781
-4.627112	fest	-0.1579945
-3.303545	feta	-0.6001908
-4.627112	fetta	-0.1586556
-4.263645	few	-0.1622303
-3.929128	fi	-0.2749302
-4.627112	fibers	-0.1442235
-4.627112	fiddlers	-0.1588276
-4.627112	fidin	-0.1574291
-4.627112	field	-0.1442235
-4.627112	fields	-0.1442235
-4.486485	fieldstone	-0.2572372
-4.627112	fiesta	-0.1593775
-4.486485	fif	-0.1567776
-4.627112	fift	-0.1578567
-4.486485	fifte	-0.1563136
-2.859382	fifteen	-0.4127674
-4.627112	fifth	-0.1591164
-2.839958	fifty	-0.4519287
-4.627112	fighting	-0.156296
-3.825819	figure	-0.3172035
-4.486485	figured	-0.1996324
-4.263645	file	-0.1112116
-4.153028	fill	-0.3744405
-4.263645	filled	-0.1992491
-4.627112	filomena	-0.1593637
-4.486485	final	-0.2032101
-4.627112	finalize	-0.1573532
-4.627112	finally	-0.1592813
-4.627112	financial	-0.1527045
-3.991748	finch	-0.146775
-3.395487	find	-0.3627186
-3.991748	finding	-0.1987059
-4.627112	finds	-0.1595835
-3.303545	fine	-0.2152428
-4.627112	finger	-0.1593294
-4.627112	fingers	-0.1336763
-4.064945	finish	-0.1735422
-3.929128	finished	-0.1155139
-4.627112	finishing	-0.1581637
-4.486485	fiona	-0.1564589
-4.486485	fir	-0.1574329
-3.431036	fire	-0.750746
-2.879717	first	-0.2559383
-4.627112	firstly	-0.1577602
-4.412435	fischer	-0.3306926
-4.627112	fish	-0.1560884
-4.486485	fit	-0.1550528
-4.627112	fitness	-0.1527045
-4.627112	fits	-0.1586074
-4.627112	fiv	-0.1583252
-2.626641	five	-0.3214942
-4.064945	fix	-0.2258189
-4.627112	fixed	-0.1590132
-4.486485	fixing	-0.1515768
-4.412435	flakes	-0.1370857
-4.627112	flaps	-0.1556175
-4.153028	flat	-0.1361915
-3.782123	flavor	-0.1882973
-4.627112	flavor's	-0.1585799
-4.627112	flavored	-0.1584078
-3.874409	flavors	-0.1705537
-4.627112	fleet	-0.1596204
-4.412435	fleming	-0.136437
-4.627112	flexibility	-0.1562476
-4.412435	floor	-0.1441982
-4.627112	floors	-0.158972
-4.486485	flour	-0.157895
-4.627112	flower	-0.1594805
-3.929128	flyer	-0.1490087
-4.486485	flyers	-0.1397732
-4.153028	fo	-0.1324371
-4.627112	foakes	-0.1585592
-4.263645	follow	-0.1887474
-4.627112	following	-0.158153
-4.627112	fon	-0.1563029
-4.627112	font	-0.1595148
-3.929128	food	-0.1385723
-4.627112	foods	-0.1595972
-4.627112	foor	-0.1593637
-2.115883	for	-0.5661016
-4.627112	forces	-0.1593981
-4.263645	ford	-0.2365962
-3.874409	forest	-0.2538507
-4.627112	forestview	-0.1592401
-3.585033	forget	-0.4406744
-4.627112	forgetting	-0.1560922
-4.627112	forgive	-0.1588895
-4.412435	forgot	-0.1148683
-4.627112	forgotten	-0.1571047
-4.153028	form	-0.1196167
-4.627112	formerly	-0.1596204
-4.263645	fort	-0.2418734
-4.627112	forteen	-0.1442235
-4.627112	forth	-0.157705
-4.412435	fortinos	-0.1404952
-2.75406	forty	-0.7591024
-4.627112	fortyish	-0.1442235
-4.486485	forward	-0.253278
-4.486485	forwarded	-0.2526054
-4.627112	forwarding	-0.1556175
-4.486485	fou	-0.1580052
-4.412435	found	-0.1412338
-4.627112	foundation	-0.1442235
-2.51908	four	-0.3947796
-4.627112	fours	-0.1563721
-4.627112	fourt	-0.1594118
-4.627112	fourtee	-0.1442235
-2.959474	fourteen	-0.5247197
-4.627112	fourteenth	-0.1426351
-4.263645	fourth	-0.2509172
-4.486485	fourty	-0.158742
-4.627112	fox	-0.1442235
-4.627112	frame	-0.1553541
-4.627112	france	-0.1564412
-4.486485	frances	-0.1418419
-4.486485	francis	-0.1409007
-4.412435	frank	-0.1755494
-4.263645	frank's	-0.193949
-4.627112	frankly	-0.1556175
-4.486485	franks	-0.1370409
-4.627112	freaks	-0.1592882
-4.627112	fred	-0.1382405
-3.153283	free	-0.1782942
-4.627112	freeman	-0.1587901
-4.486485	freeport	-0.2562198
-4.627112	frees	-0.1415518
-4.627112	freeze	-0.1563029
-3.28995	french	-0.6711751
-4.627112	fres	-0.159611
-4.627112	fresca	-0.1573532
-4.263645	fresco	-0.1961653
-3.31758	fresh	-0.6461771
-4.627112	freshly	-0.1594874
-4.486485	fri	-0.15108
-4.263645	friday	-0.1481835
-3.706053	fried	-0.1666798
-4.627112	friend	-0.1397236
-4.627112	friendly	-0.1554165
-3.153283	fries	-0.2095489
-4.627112	fries'	-0.1593225
-4.627112	friggin	-0.1579945
-4.627112	frills	-0.1590614
-4.412435	frizzell	-0.139932
-2.659845	from	-0.2982736
-3.106986	front	-0.5110412
-4.627112	frontenac	-0.1580083
-4.627112	frontonac	-0.1580083
-4.486485	froze	-0.1570463
-4.412435	frozen	-0.1518743
-4.486485	fruit	-0.2572784
-4.627112	frustation	-0.156296
-4.486485	frustrated	-0.1518774
-4.412435	frustrating	-0.2041614
-4.064945	fry	-0.2169668
-4.263645	fuck	-0.1476228
-4.412435	fucking	-0.1595287
-4.064945	full	-0.1374415
-4.412435	fully	-0.2221557
-4.627112	fulton	-0.1580083
-4.412435	fun	-0.1595152
-4.627112	fund	-0.157705
-4.627112	fundraising	-0.156296
-3.535195	funnel	-0.6767647
-4.263645	funny	-0.1307487
-4.486485	further	-0.1494595
-4.627112	fusilier	-0.1593637
-4.486485	fussy	-0.1407638
-4.627112	fwo	-0.1564966
-3.194239	g	-0.3457201
-4.627112	ga	-0.1588963
-4.627112	gabbie	-0.1442235
-4.627112	gabriel	-0.1442235
-4.263645	gage	-0.2758566
-4.486485	gail	-0.1433659
-4.627112	gainsborough	-0.1442235
-4.627112	gal	-0.1553402
-4.627112	galaxy	-0.1596204
-4.627112	gale	-0.1590614
-4.627112	galleria	-0.1595698
-4.627112	galluzzo	-0.1593569
-4.627112	game	-0.1553541
-3.991748	gar	-0.1578804
-4.627112	garage	-0.1527045
-3.469756	garden	-0.3780506
-4.064945	gardens	-0.1574366
-4.627112	garl	-0.1591576
-4.627112	garland	-0.1498396
-4.486485	garli	-0.1506176
-2.769933	garlic	-0.2771997
-4.627112	garlic's	-0.1442235
-4.627112	garlicky	-0.1560884
-4.153028	garlics	-0.1211744
-4.486485	garrison	-0.2559031
-3.991748	garth	-0.2425953
-4.486485	gary	-0.156452
-3.991748	gas	-0.6986148
-3.742424	gate	-0.2078201
-4.627112	gates	-0.1371317
-4.627112	gather	-0.1442235
-4.412435	gatineau	-0.2382312
-3.991748	gauge	-0.3201464
-3.991748	gave	-0.2493068
-4.627112	gawaiian	-0.1590751
-4.627112	gazebo	-0.1580359
-4.627112	ge	-0.1574291
-4.627112	geez	-0.1535446
-4.486485	gen	-0.1596102
-4.627112	general	-0.1577602
-4.263645	generally	-0.1502397
-4.627112	generation	-0.1592401
-4.627112	geneve	-0.1370409
-4.627112	geniv	-0.158215
-4.627112	geno	-0.1593569
-4.627112	genuine	-0.1595217
-4.064945	george	-0.2993665
-4.627112	georges	-0.1596244
-4.412435	georgetown	-0.1707798
-4.627112	gerald	-0.1586831
-4.627112	gerald's	-0.1442235
-4.263645	gerard	-0.1814185
-4.627112	germaine	-0.1574291
-4.627112	gerrard	-0.1580083
-2.953265	get	-0.2429449
-3.929128	gets	-0.1678637
-3.263973	getting	-0.1919948
-4.627112	ghost	-0.1398274
-4.486485	gi	-0.1580259
-4.486485	giant	-0.2572849
-4.627112	gibb	-0.1580083
-4.627112	gie	-0.158215
-4.412435	gift	-0.3305556
-4.627112	gigantic	-0.1596244
-4.627112	gilbert	-0.1588069
-4.153028	gimme	-0.1365392
-4.486485	gin	-0.1543445
-3.14362	ginger	-0.7935457
-3.991748	gingerale	-0.2283249
-4.486485	girl	-0.1552123
-4.627112	girls	-0.1442235
-4.627112	gist	-0.1578498
-2.879717	give	-0.8001853
-3.782123	given	-0.2008498
-4.064945	gives	-0.2175672
-3.825819	giving	-0.38716
-4.627112	glad	-0.1568975
-4.627112	gladly	-0.1568975
-4.627112	glamorgan	-0.1583114
-3.706053	glen	-0.2823074
-4.627112	glenashton	-0.1585592
-4.412435	glendale	-0.1423494
-4.412435	glenhill	-0.27983
-4.627112	glenhills	-0.1585592
-4.486485	glenhollow	-0.2562198
-4.153028	glenvale	-0.2043535
-4.412435	glenwood	-0.1897671
-4.627112	glenwoods	-0.1583114
-4.627112	glitch	-0.1519194
-4.627112	gloria	-0.1588069
-4.627112	glou	-0.1596041
-4.153028	gloucester	-0.2156382
-3.216263	gluten	-0.691616
-4.627112	gmg	-0.159611
-4.627112	gmo	-0.1566249
-2.917767	go	-0.3366233
-3.585033	goat	-1.083051
-4.263645	god	-0.1042477
-3.612275	goes	-0.211384
-3.012626	going	-0.454036
-4.627112	gol	-0.1595698
-4.153028	golden	-0.1394113
-4.486485	goldenville	-0.141652
-4.412435	goldwin	-0.1772161
-4.627112	golf	-0.1596204
-4.627112	gon	-0.1590614
-4.064945	gone	-0.1883164
-3.089766	gonna	-0.4023857
-4.627112	goo	-0.1595492
-2.991924	good	-0.2295128
-3.706053	goodbye	-0.7571098
-4.627112	goodlife	-0.1596244
-4.627112	goodness	-0.1405279
-4.627112	goodnight	-0.1591851
-4.064945	google	-0.1916697
-4.627112	googled	-0.1563029
-3.825819	goreway	-0.2716678
-4.627112	gormandev	-0.1442235
-4.263645	gosh	-0.1895168
-3.163166	got	-0.1993313
-4.263645	gotcha	-0.1705975
-4.627112	gotham	-0.1442235
-3.991748	gotta	-0.1665542
-4.153028	gotten	-0.1439728
-4.486485	gourmet	-0.2556551
-4.486485	gr	-0.1398522
-4.064945	grab	-0.1643421
-4.627112	grace	-0.158215
-4.627112	graced	-0.1582426
-4.627112	gracia	-0.1574291
-4.412435	graham	-0.1428418
-4.263645	grain	-0.1169479
-4.263645	grams	-0.1799686
-4.627112	granby	-0.1442235
-3.535195	grand	-0.5442259
-4.627112	granddaughter	-0.1583183
-4.627112	grandma	-0.1442235
-4.627112	grandma's	-0.1565381
-4.627112	grandson	-0.1527045
-4.627112	granolas	-0.1398235
-4.153028	grant	-0.1832474
-4.263645	grantbrook	-0.1976507
-4.486485	grantham	-0.1437221
-4.263645	grape	-0.2015734
-4.486485	grapes	-0.2418841
-4.627112	grated	-0.1594942
-4.064945	gravenhurst	-0.1604217
-4.263645	gravy	-0.1356437
-4.627112	gray	-0.1582426
-3.303545	great	-0.2564677
-4.627112	greater	-0.1594599
-4.627112	greatly	-0.1595972
-4.627112	gree	-0.1588276
-3.929128	greek	-0.3367826
-3.929128	greely	-0.2528859
-2.731286	green	-0.9347854
-4.627112	greenbush	-0.1592813
-4.412435	greencrest	-0.2222172
-4.412435	greens	-0.2202081
-4.486485	greenville	-0.2065809
-4.627112	greenway	-0.156196
-4.153028	greenwood	-0.2125326
-4.412435	greg	-0.2026778
-4.627112	grenadier	-0.1593843
-4.412435	grenoble	-0.1520909
-4.486485	grey	-0.1442088
-4.627112	greystone	-0.1590614
-4.627112	greyton	-0.1590614
-4.627112	gri	-0.1554165
-4.627112	gril	-0.1564412
-4.627112	grill	-0.1595698
-3.081406	grilled	-0.7307245
-4.486485	grimsby	-0.1366108
-4.627112	gro	-0.1527045
-4.486485	grocery	-0.1592232
-4.627112	grou	-0.1593362
-3.163166	ground	-1.208015
-4.064945	grove	-0.2077255
-4.627112	groven	-0.1595354
-4.627112	gst	-0.1527045
-4.486485	guaran	-0.1440851
-3.512269	guarantee	-0.1608525
-3.742424	guaranteed	-0.2384171
-4.627112	guarantees	-0.1588688
-4.627112	guaratee	-0.1576843
-4.627112	guard	-0.153966
-4.627112	gue	-0.1553402
-3.449964	guelph	-0.3862185
-4.263645	guess	-0.03509668
-4.627112	guest	-0.1442235
-4.627112	guests	-0.1554165
-4.486485	gulf	-0.1595487
-4.627112	gulo	-0.1442235
-4.627112	gurjot	-0.1593569
-4.153028	guy	-0.1368917
-3.782123	guys	-0.07940495
-4.627112	gwilim	-0.1442235
-4.627112	gwillimbury	-0.159508
-4.486485	gym	-0.2539081
-3.14362	h	-0.3941944
-3.782123	ha	-0.1792881
-4.627112	habanero	-0.1563721
-4.627112	hackberry	-0.1595286
-4.486485	hacking	-0.2568113
-3.469756	had	-0.2113034
-4.627112	haddington	-0.1580083
-4.486485	hadn't	-0.158677
-4.627112	haircutters	-0.1596244
-4.627112	hal	-0.156206
-4.486485	halal	-0.2561372
-2.742523	half	-0.346615
-4.153028	halfmoon	-0.4562173
-4.627112	halfs	-0.1442235
-4.263645	halifax	-0.1905452
-3.991748	hall	-0.19443
-4.627112	halla	-0.1596041
-4.627112	hallman	-0.1442235
-4.627112	halved	-0.159453
-4.263645	halves	-0.1194695
-3.041859	ham	-0.3417282
-4.263645	hamburger	-0.2380033
-3.5594	hamilton	-0.2870045
-4.627112	hammond	-0.1593637
-4.627112	hams	-0.1584835
-4.263645	hand	-0.1318586
-4.627112	handball	-0.1562476
-4.627112	handheld	-0.1551013
-4.627112	hands	-0.1460312
-4.627112	handy	-0.1584285
-4.627112	haneen	-0.1593225
-3.469756	hang	-0.7856246
-4.627112	hanging	-0.158972
-4.627112	hannah	-0.1582426
-4.627112	hansen	-0.1582426
-4.627112	hanson	-0.1582426
-4.263645	happen	-0.1515705
-4.263645	happened	-0.1361001
-4.486485	happening	-0.152129
-4.486485	happens	-0.2044691
-4.153028	happy	-0.228551
-4.627112	harbour	-0.1560853
-3.929128	hard	-0.4052812
-4.486485	harder	-0.1543514
-4.486485	hardly	-0.158797
-4.486485	hargrove	-0.2559031
-3.991748	harmony	-0.2286721
-4.627112	harns	-0.15935
-4.627112	harrow	-0.1585592
-4.486485	harry	-0.1428524
-4.486485	hartsville	-0.2418841
-4.627112	harvey's	-0.1442235
-3.929128	harwood	-0.2910304
-3.049486	has	-0.2422981
-4.627112	hasan	-0.1574291
-4.486485	hasn't	-0.1594057
-4.627112	hasnain	-0.1574291
-4.486485	hasting	-0.1579915
-4.627112	hasty	-0.1596178
-4.486485	hate	-0.154654
-4.263645	hav	-0.1354953
-2.709647	have	-0.1407344
-4.412435	haven't	-0.1736816
-4.627112	havendale	-0.1592401
-3.742424	having	-0.2368701
-4.627112	hawai	-0.1565381
-3.089766	hawaiian	-0.2873798
-4.627112	hawaiian's	-0.1427097
-4.627112	hawaiians	-0.1577602
-4.486485	hawkesbury	-0.1899593
-4.486485	hawkesville	-0.250365
-4.486485	hawkridge	-0.255972
-4.486485	hazel	-0.2556689
-3.874409	hazeldean	-0.4708851
-4.486485	hazelwood	-0.255972
-2.965773	he	-0.2492466
-4.486485	he'd	-0.2550137
-4.064945	he'll	-0.2913199
-3.612275	he's	-0.2420385
-4.064945	head	-0.190006
-4.627112	headquarter	-0.157153
-4.486485	heads	-0.2411975
-4.627112	health	-0.1596244
-4.627112	healthier	-0.1442235
-3.641341	hear	-0.2879511
-4.064945	heard	-0.1202283
-3.929128	hearing	-0.2561808
-3.782123	heart	-0.5920439
-4.412435	heartlake	-0.152468
-4.627112	hearts	-0.1442235
-4.263645	heat	-0.1366984
-4.627112	heatherdale	-0.1582426
-4.412435	heatherington	-0.3293108
-4.412435	heavy	-0.1432986
-4.627112	hebe	-0.1593225
-4.153028	heights	-0.1562459
-4.627112	hel	-0.1589514
-4.486485	helen	-0.149618
-4.627112	hell	-0.1518075
-2.803536	hello	-0.4651758
-4.627112	helm	-0.1442235
-3.535195	help	-0.3569597
-4.486485	helpful	-0.2418841
-4.627112	hemmingford	-0.1592813
-4.627112	hence	-0.1549448
-4.153028	henderson	-0.1723416
-4.263645	henry	-0.1548661
-4.412435	heping	-0.1419063
-3.378747	her	-0.2054861
-4.486485	herb	-0.1520102
-4.627112	herbs	-0.1398522
-2.612349	here	-0.3258554
-4.263645	here's	-0.1770901
-4.627112	heritage	-0.159556
-4.627112	heron	-0.1585592
-4.627112	hers	-0.1553402
-3.825819	hespeler	-0.5837399
-4.627112	hewitt	-0.1593843
-4.627112	hex	-0.1594255
-3.991748	hey	-0.1718861
-3.412897	hi	-0.2013449
-4.486485	hickory	-0.2418841
-3.782123	high	-0.1962877
-4.627112	highest	-0.1595766
-3.641341	highland	-0.3214989
-4.486485	highlands	-0.2418841
-4.627112	highpoint	-0.1442235
-3.378747	highway	-0.4236877
-4.486485	hilary	-0.1439001
-3.742424	hill	-0.1524656
-4.627112	hillcroft	-0.1580083
-4.486485	hillfair	-0.2569419
-4.412435	hills	-0.1322138
-3.585033	him	-0.1548732
-4.627112	hindu	-0.1596244
-4.627112	hine	-0.1593225
-3.991748	his	-0.181154
-4.486485	history	-0.1373919
-4.627112	hit	-0.1594805
-4.627112	hitting	-0.1544348
-4.263645	hm	-0.1727886
-3.672493	hmm	-0.0471881
-4.064945	ho	-0.2171772
-4.627112	hobiland	-0.1591507
-2.985237	hold	-0.5956262
-4.627112	holder	-0.1576506
-4.263645	holding	-0.1466935
-4.153028	holiday	-0.5525073
-3.585033	holland	-0.6854233
-4.153028	hollow	-0.1383094
-4.412435	holly	-0.2199873
-4.627112	holmwood	-0.1583114
-4.486485	holy	-0.2530493
-3.641341	home	-0.1748826
-4.486485	homemade	-0.1528339
-4.627112	homer	-0.1596244
-4.486485	homestyle	-0.2568731
-4.486485	hon	-0.1572604
-4.486485	honest	-0.1372618
-4.412435	honestly	-0.1414842
-2.959474	honey	-0.6344302
-4.412435	hope	-0.1147465
-4.486485	hopedale	-0.1370409
-4.153028	hopefully	-0.1872526
-4.412435	hoping	-0.1494634
-4.627112	horrible	-0.1560884
-4.627112	horse	-0.1527045
-4.412435	horseshoe	-0.1873531
-4.627112	horton	-0.1370409
-4.627112	horton's	-0.1338075
-4.627112	hortons	-0.1565657
-4.412435	hospital	-0.1810917
-2.854444	hot	-0.7269085
-4.627112	hote	-0.1570563
-3.672493	hotel	-0.2121139
-4.627112	hotel's	-0.1591439
-4.627112	hou	-0.1567316
-3.874409	hour	-0.1362829
-4.412435	hours	-0.1512808
-3.194239	house	-0.2746043
-4.627112	housing	-0.156206
-2.457824	how	-0.8601729
-4.486485	how'd	-0.253278
-4.486485	how's	-0.1518215
-4.412435	howard	-0.1580435
-4.412435	howe	-0.1538933
-3.742424	however	-0.1533113
-4.486485	hu	-0.1582877
-4.627112	huah	-0.1577326
-4.627112	huffman	-0.1590614
-4.486485	hughson	-0.157695
-3.782123	huh	-0.09017248
-4.412435	humberwood	-0.3303083
-4.627112	humongous	-0.157705
-4.627112	hun	-0.1567316
-3.706053	hundred	-0.1732771
-4.153028	hung	-0.551889
-4.153028	hungry	-0.1505069
-4.263645	hunt	-0.4555699
-4.486485	huntingwood	-0.250365
-4.064945	huntsville	-0.1768771
-4.627112	hupfield	-0.1553887
-4.412435	hurontario	-0.1489219
-4.486485	hurry	-0.1435369
-4.486485	huruntario	-0.250365
-4.627112	husband	-0.1288271
-4.627112	husband's	-0.1576644
-4.627112	hutton	-0.1592813
-4.486485	hyde	-0.257093
-4.627112	hypnosis	-0.1594118
-2.007027	i	-0.6759211
-4.627112	i'	-0.1580703
-3.14362	i'd	-0.5901952
-4.627112	i'l	-0.1586556
-2.647475	i'll	-0.6429084
-2.351732	i'm	-0.6160698
-3.106986	i've	-0.4890685
-4.627112	ibrahim	-0.1442235
-4.064945	ice	-0.6317024
-3.263973	iced	-0.9603218
-4.627112	ices	-0.1596041
-4.627112	ick	-0.1442235
-4.412435	id	-0.1845509
-4.627112	ida	-0.1580083
-4.263645	idea	-0.1720152
-4.627112	idiot	-0.1418594
-4.627112	idris	-0.1549448
-2.398958	if	-0.8418075
-4.627112	ig	-0.1556175
-4.627112	iglington	-0.1583114
-4.627112	ignore	-0.1584491
-4.627112	ii	-0.1594942
-4.627112	ill	-0.1573601
-4.627112	im	-0.1596244
-4.627112	immediately	-0.1442235
-4.263645	important	-0.1507764
-2.109652	in	-0.3510127
-4.627112	inasfil	-0.1582426
-4.412435	inaudible	-0.141434
-4.263645	inch	-0.1817659
-4.263645	inches	-0.1864864
-3.825819	include	-0.1582269
-3.332083	included	-0.2184396
-4.064945	includes	-0.1759967
-3.124917	including	-0.7341373
-4.412435	inconvenience	-0.118288
-4.627112	increase	-0.1549448
-4.486485	indeed	-0.1509259
-4.627112	india	-0.1596204
-4.486485	indicate	-0.1546015
-4.486485	individual	-0.1572742
-4.627112	individually	-0.1592607
-3.991748	inform	-0.4396768
-3.612275	information	-0.2067617
-4.486485	informed	-0.2526054
-4.627112	informing	-0.1556175
-4.627112	ing	-0.158153
-4.412435	inglewood	-0.1517695
-4.627112	ingram	-0.1442235
-4.627112	ingredient	-0.156296
-4.412435	ingredients	-0.1366782
-4.627112	ingrid	-0.1588069
-4.627112	initially	-0.1594942
-4.486485	initials	-0.1522833
-4.627112	inkerman	-0.1580083
-3.991748	inn	-0.2103997
-4.627112	inner	-0.1582426
-4.153028	innes	-0.5511596
-3.929128	innisfil	-0.2183114
-4.627112	inquire	-0.1590614
-4.627112	inquiring	-0.1549448
-4.627112	ins	-0.1588413
-4.486485	insert	-0.1526386
-3.706053	inside	-0.2339068
-4.627112	inst	-0.157153
-4.627112	installed	-0.1578981
-4.627112	instance	-0.1578981
-2.890252	instead	-0.7193022
-4.627112	instruction	-0.156296
-4.486485	instructions	-0.1540734
-4.412435	interac	-0.2068157
-4.412435	intercom	-0.2170862
-4.627112	interest	-0.1556175
-4.064945	interested	-0.3882902
-4.263645	interesting	-0.1855661
-4.627112	international	-0.159395
-4.627112	internet	-0.1527045
-4.627112	interrupt	-0.1541429
-4.486485	interrupted	-0.2147665
-4.486485	interrupting	-0.1526773
-4.627112	intersec	-0.1553402
-4.627112	intersect	-0.1442235
-3.449964	intersection	-0.2592865
-4.064945	intersections	-0.159205
-4.627112	intervals	-0.1578498
-3.490492	into	-0.3341799
-4.627112	introduce	-0.1563029
-4.486485	introduced	-0.253077
-4.627112	invalid	-0.1593362
-4.627112	investigate	-0.156296
-4.627112	investigating	-0.1571047
-4.627112	involved	-0.1565657
-4.486485	involves	-0.1519753
-4.627112	iona	-0.1591507
-4.627112	ire	-0.1442235
-4.412435	irene	-0.1441955
-2.089788	is	-0.191792
-4.412435	isabel	-0.1395974
-4.627112	island	-0.1593775
-4.064945	islington	-0.2155642
-3.641341	isn't	-0.3288454
-4.627112	isnt	-0.156545
-4.153028	issue	-0.1577525
-4.486485	issued	-0.154789
-4.064945	issues	-0.1711072
-2.11678	it	-0.3153353
-4.486485	it'	-0.1592301
-3.641341	it'd	-0.6979769
-3.089766	it'll	-0.560115
-2.176386	it's	-0.336549
-4.486485	ital	-0.253077
-3.012626	italian	-0.5288078
-3.5594	italiano	-0.5538799
-3.449964	item	-0.23449
-4.627112	itemize	-0.1563029
-3.641341	items	-0.1690516
-3.378747	its	-0.1608133
-4.627112	its'	-0.1588589
-4.064945	itself	-0.1022048
-4.486485	ivan	-0.1433659
-4.627112	ivy	-0.143715
-3.362629	j	-0.3874317
-4.627112	ja	-0.1567907
-4.627112	jace	-0.1592813
-4.263645	jack	-0.1424713
-4.627112	jackie	-0.1596204
-4.486485	jackson	-0.1440282
-4.627112	jacob	-0.1442235
-4.627112	jade	-0.1594462
-4.627112	jaden	-0.1442235
-4.627112	jal	-0.1593294
-4.627112	jala	-0.1567316
-4.627112	jalape	-0.1580703
-4.627112	jalapen	-0.1554165
-3.14362	jalapeno	-0.3381309
-3.991748	jalapenos	-0.2453619
-3.512269	jalapeo	-0.2772722
-3.991748	jalapeos	-0.1605384
-3.782123	james	-0.2957321
-4.412435	jamie	-0.1879614
-4.627112	jan	-0.1588069
-3.395487	jane	-0.6638694
-4.486485	janice	-0.1386186
-4.627112	jasmine	-0.1519683
-4.153028	jason	-0.1745188
-4.627112	jasper	-0.1583114
-4.412435	jay	-0.1670858
-4.627112	jean	-0.158215
-4.486485	jeanne	-0.2570105
-4.627112	jeavons	-0.1583114
-4.627112	jeez	-0.1553402
-3.929128	jeff	-0.1367279
-4.627112	jeffries	-0.1596178
-4.627112	jena	-0.1442235
-4.263645	jennifer	-0.1670713
-4.486485	jenny	-0.2558756
-4.486485	jerri	-0.1397875
-4.412435	jerry	-0.1325671
-4.627112	jerson	-0.1574291
-4.627112	jess	-0.1581186
-4.412435	jesse	-0.2042115
-4.486485	jessica	-0.1431092
-4.412435	jessie	-0.1413807
-4.486485	jessy	-0.2542263
-4.412435	jesus	-0.1375906
-4.486485	jill	-0.1435052
-4.627112	jillian	-0.1442235
-4.412435	jim	-0.1865646
-4.627112	jimi	-0.1594462
-4.412435	jimmy	-0.1343754
-4.627112	joanna	-0.1588069
-4.263645	joanne	-0.1711726
-4.412435	job	-0.2031583
-4.627112	jody	-0.1588069
-3.991748	joe	-0.2243848
-4.486485	johan	-0.1568667
-3.585033	john	-0.3700154
-4.627112	john's	-0.1582426
-4.627112	johnell	-0.1595492
-4.627112	johnny	-0.1442235
-4.486485	johns	-0.2559031
-4.486485	johnson	-0.1370409
-4.627112	join	-0.1592263
-4.627112	joke	-0.1434728
-4.486485	jordan	-0.2062463
-4.486485	jordanray	-0.1590514
-3.991748	joseph	-0.1730799
-4.627112	joseph's	-0.1442235
-4.627112	josh	-0.1418594
-4.627112	joshua	-0.1588069
-4.627112	joy	-0.1580083
-4.486485	joyce	-0.1397875
-4.064945	ju	-0.178403
-4.627112	juan	-0.1574291
-4.627112	judd	-0.1594462
-4.486485	judy	-0.1431702
-4.627112	juice	-0.1426208
-4.627112	julie	-0.1588069
-4.627112	julien	-0.1594462
-4.486485	julio	-0.1420596
-4.486485	july	-0.1429523
-4.153028	june	-0.191124
-4.412435	jus	-0.1563521
-2.282027	just	-0.3084237
-4.153028	justin	-0.2143586
-4.486485	jut	-0.1568391
-3.227708	k	-0.4115925
-3.672493	kalamata	-0.8247031
-4.486485	kam	-0.156846
-4.064945	kanata	-0.2228727
-4.486485	kandivali	-0.2564675
-4.412435	karam	-0.1393529
-4.064945	karen	-0.177895
-4.486485	karla	-0.1433659
-4.627112	karwatki	-0.1397732
-4.627112	kashik	-0.158215
-4.153028	kasia	-0.1723489
-4.263645	kate	-0.1868515
-4.627112	katherine	-0.158215
-4.627112	kathy	-0.1442235
-4.412435	katrina	-0.1566935
-3.706053	kay	-0.1284581
-4.486485	kayla	-0.142881
-4.486485	keelan	-0.257281
-4.486485	keele	-0.1370409
-3.641341	keep	-0.2068776
-4.263645	keeps	-0.1542379
-4.412435	kelly	-0.2131858
-4.627112	kelsey's	-0.156206
-4.627112	kem	-0.159611
-4.627112	kemble	-0.1590064
-4.263645	kempsford	-0.237754
-4.064945	ken	-0.153553
-4.486485	kendall	-0.1550528
-4.486485	kendleton	-0.1431092
-4.627112	kendra	-0.1588069
-3.31758	kennedy	-0.4608601
-4.627112	kent	-0.1593775
-4.412435	kept	-0.2220047
-4.627112	kerry	-0.1442235
-3.929128	keswick	-0.1651478
-4.412435	ketchup	-0.1274047
-4.627112	ketchups	-0.1442235
-4.153028	kevin	-0.234838
-4.627112	key	-0.1594874
-4.627112	keys	-0.1442235
-4.627112	kfc	-0.1527045
-4.627112	khan	-0.158215
-4.627112	ki	-0.1442235
-4.486485	kid	-0.1405486
-4.627112	kidd	-0.1590614
-4.627112	kiddies	-0.1442235
-4.486485	kidding	-0.25655
-3.874409	kids	-0.1337972
-4.627112	kiki	-0.1442235
-4.627112	kill	-0.1588895
-4.627112	killa	-0.1442235
-4.486485	killamarsh	-0.1431092
-4.627112	kilometer	-0.1595835
-4.627112	kilpatrick	-0.1585592
-4.412435	kim	-0.1866722
-4.627112	kimbercroft	-0.1593912
-4.412435	kimberly	-0.1856452
-3.332083	kind	-0.4753879
-4.153028	kinda	-0.189238
-4.153028	kindly	-0.1506128
-3.991748	kinds	-0.2915248
-3.431036	king	-0.6098558
-4.627112	king's	-0.1580083
-4.412435	kings	-0.1533256
-4.627112	kingsbury	-0.1590614
-3.5594	kingston	-0.3392385
-4.486485	kingsway	-0.2172181
-4.627112	kinknid	-0.1578498
-3.929128	kipling	-0.2240842
-4.627112	kitchen	-0.1585355
-4.412435	kitchener	-0.1325223
-4.627112	kite	-0.1592401
-4.627112	kittens	-0.1426637
-4.263645	klondike	-0.2785333
-4.627112	knew	-0.1563029
-4.627112	knife	-0.1565381
-3.929128	knock	-0.2604121
-4.412435	knocked	-0.215792
-4.627112	knocking	-0.1589651
-3.412897	know	-0.1264878
-4.486485	known	-0.1550944
-4.412435	ksush	-0.2219703
-4.486485	kyle	-0.1416019
-3.057248	l	-0.4090151
-4.627112	l-	-0.1442235
-3.825819	la	-0.1561986
-4.627112	labatte	-0.1582426
-4.627112	labelle	-0.1560884
-4.627112	lacrosse	-0.156296
-4.486485	lactose	-0.2569899
-4.412435	lady	-0.156065
-4.412435	lafontaine	-0.1389179
-4.627112	lag	-0.1563029
-4.627112	lagimo	-0.1592401
-4.064945	lake	-0.1307647
-4.627112	lakes	-0.1585592
-3.991748	lakeshore	-0.2929927
-4.627112	lakeside	-0.1585592
-4.486485	lalcazar	-0.1526316
-4.627112	lamar	-0.158215
-4.627112	lambertania	-0.1562476
-4.627112	lambs	-0.157153
-4.486485	lambsdowne	-0.2562198
-4.627112	lamont	-0.1565657
-4.627112	lamstone	-0.1580083
-4.627112	lanark	-0.159556
-4.412435	lancaster	-0.2050194
-4.153028	landing	-0.1569483
-3.641341	lane	-0.3681888
-4.627112	lanes	-0.1592401
-4.627112	laneway	-0.1593637
-4.627112	langstaff	-0.1442235
-4.412435	lansdowne	-0.1406889
-4.263645	lar	-0.1188919
-4.627112	larcher	-0.1592538
-4.486485	larg	-0.1422169
-2.746335	large	-0.2378153
-4.064945	larger	-0.1680252
-3.782123	larges	-0.2069253
-4.412435	largest	-0.1312328
-4.486485	larry	-0.1550528
-3.991748	lasagna	-0.1797554
-4.627112	lasagnas	-0.1442235
-2.935153	last	-0.7185026
-4.153028	late	-0.1490219
-4.412435	lately	-0.1387483
-3.874409	later	-0.3895601
-4.627112	latesha	-0.1523175
-4.486485	latest	-0.1428595
-4.486485	latham	-0.2205391
-4.627112	latter	-0.1592057
-4.412435	lauderdale	-0.2788164
-4.627112	laugh	-0.1554165
-4.486485	laughter	-0.1594362
-4.627112	laura	-0.1588069
-4.412435	lauren	-0.2042115
-4.486485	laurent	-0.2019881
-4.153028	laurier	-0.245258
-4.627112	laury	-0.1596244
-4.627112	law	-0.1584353
-4.627112	law's	-0.1591439
-4.486485	lawn	-0.1411874
-3.742424	lawrence	-0.2492471
-4.627112	lawton	-0.1594736
-4.627112	lawyer	-0.1583114
-4.627112	lay	-0.1442235
-3.332083	lay's	-0.387124
-4.627112	layer	-0.1389787
-4.627112	layman	-0.1422526
-3.276767	lays	-0.4622044
-4.627112	lazy	-0.1568975
-4.627112	lcbo	-0.1527045
-4.486485	le	-0.1569565
-4.627112	leads	-0.1568975
-4.486485	leah	-0.1592436
-4.627112	lease	-0.1594805
-4.412435	least	-0.1287294
-3.742424	leave	-0.2997867
-4.412435	leaves	-0.1510558
-4.627112	leaving	-0.1553887
-4.627112	lebel	-0.1596178
-4.486485	lebovic	-0.2562198
-4.153028	lee	-0.1907905
-4.627112	leeda	-0.1565657
-4.627112	leeuwen	-0.1439752
-3.612275	left	-0.215386
-4.627112	leftover	-0.1442235
-4.627112	legion	-0.1582426
-4.627112	leibovich	-0.1583114
-4.627112	leigh	-0.1588069
-4.064945	leila	-0.2000701
-4.627112	lemme	-0.1591507
-4.627112	lemonade	-0.15935
-4.627112	leslie	-0.1442235
-3.431036	less	-0.3209568
-2.778093	let	-0.9549065
-3.153283	let's	-0.5967908
-4.627112	lets	-0.1556175
-4.627112	letter	-0.159137
-4.412435	letters	-0.1761536
-4.153028	letting	-0.2523701
-4.627112	lettuce	-0.1589514
-4.486485	level	-0.2418841
-4.486485	lewis	-0.15474
-4.627112	lezze	-0.15868
-4.153028	liberty	-0.2068663
-4.627112	libety	-0.1580083
-4.627112	life	-0.1442235
-4.627112	lifted	-0.1563029
-3.469756	light	-0.3098704
-4.627112	light's	-0.1592263
-3.412897	lightly	-0.6545252
-4.627112	lik	-0.1442235
-2.280715	like	-0.217887
-4.627112	likely	-0.1575464
-4.627112	likes	-0.1591301
-4.627112	likings	-0.1442235
-4.627112	lilian	-0.1588069
-4.627112	lillian	-0.1592538
-4.486485	lima	-0.1595762
-4.627112	limbo	-0.1553541
-4.627112	limerick	-0.1583114
-4.627112	linda	-0.1442235
-4.627112	linden	-0.1583114
-4.486485	linderwood	-0.1431092
-4.627112	lindsay	-0.1442235
-3.449964	line	-0.1444549
-4.627112	line's	-0.1596178
-4.486485	lines	-0.1397732
-4.412435	link	-0.2173292
-4.486485	linked	-0.1999247
-4.486485	links	-0.2122005
-4.627112	linsmore	-0.1590614
-4.263645	lisa	-0.1871812
-4.627112	lisgar	-0.1527045
-4.627112	lising	-0.1574291
-4.627112	lismore	-0.1590614
-4.627112	list	-0.1567838
-4.627112	liste	-0.1576981
-4.412435	listed	-0.1394608
-3.782123	listen	-0.2618658
-4.064945	listening	-0.3209972
-4.412435	liter	-0.1393433
-4.263645	literally	-0.1543936
-4.486485	liters	-0.1403445
-4.627112	litrif	-0.1585592
-3.706053	little	-0.1477685
-4.627112	littler	-0.1596244
-4.153028	live	-0.1475917
-4.627112	lived	-0.158573
-4.627112	liverpool	-0.1580083
-4.627112	living	-0.1565381
-4.486485	livingston	-0.2559031
-4.486485	liz	-0.1433659
-4.486485	lo	-0.1566732
-4.627112	load	-0.1558707
-4.486485	loaded	-0.1535864
-3.929128	loading	-0.1839413
-4.627112	lob	-0.1553887
-3.929128	lobby	-0.1933971
-4.412435	loblaws	-0.2031583
-4.153028	local	-0.1845335
-3.612275	located	-0.2705616
-4.627112	locating	-0.156296
-2.985237	location	-0.284631
-3.874409	locations	-0.1598892
-4.486485	locust	-0.1592301
-4.263645	lodge	-0.1399112
-3.742424	log	-0.6652002
-4.627112	logan	-0.1583114
-4.486485	logged	-0.2539081
-4.486485	logging	-0.1534471
-4.627112	lon	-0.158215
-3.742424	london	-0.3061634
-3.742424	long	-0.1255981
-4.153028	longer	-0.179312
-4.486485	longsworth	-0.1483547
-3.825819	longworth	-0.2091943
-3.449964	look	-0.1826821
-4.627112	looked	-0.1580359
-3.672493	looking	-0.4413643
-3.825819	looks	-0.4881197
-4.486485	loren	-0.1409111
-4.627112	lorimar	-0.1585592
-4.627112	lorne	-0.1580083
-4.486485	lose	-0.1550319
-4.064945	lost	-0.1852015
-4.263645	lot	-0.1438144
-3.742424	lots	-0.6445252
-4.263645	loud	-0.1391483
-4.064945	louder	-0.1854007
-4.486485	loudly	-0.2418841
-4.627112	louie	-0.1442235
-4.627112	lounge	-0.1442235
-4.064945	love	-0.143756
-4.412435	lovely	-0.1518922
-4.486485	lover	-0.1078695
-4.627112	lover's	-0.1391195
-4.627112	lovers	-0.09414466
-4.486485	low	-0.1746847
-4.412435	lowell	-0.2205529
-4.627112	lower	-0.1566732
-4.627112	loy	-0.1581186
-4.486485	loyalist	-0.2572715
-4.153028	loyalty	-0.2341995
-4.627112	ls	-0.1442235
-4.627112	luck	-0.1442235
-4.627112	lucky	-0.1590201
-4.627112	luke	-0.1442235
-4.627112	lulud	-0.158215
-4.627112	luna	-0.158215
-4.627112	lunch	-0.1567316
-3.991748	lundy's	-0.6985804
-4.627112	luxury	-0.1587007
-4.627112	lying	-0.1568975
-4.627112	lyle	-0.1574291
-4.486485	lyn	-0.1523284
-4.486485	lynn	-0.1433659
-2.941107	m	-0.3888072
-3.929128	ma	-0.1441581
-2.516817	ma'am	-0.4033549
-4.627112	mabelle	-0.1583114
-4.412435	mac	-0.1558238
-4.627112	macalister	-0.158742
-4.627112	macaroni	-0.1527045
-4.263645	macarthur	-0.1311587
-4.064945	maccallum	-0.3262079
-4.412435	machine	-0.1177807
-4.627112	macintosh	-0.1585592
-4.627112	mack	-0.1527045
-4.627112	macken	-0.1594462
-4.486485	mackenzie	-0.134918
-4.627112	mackinac	-0.1590614
-4.412435	macklin	-0.153235
-4.412435	macpherson	-0.2063175
-3.641341	madam	-0.247201
-4.627112	madame	-0.1562476
-4.627112	madden	-0.1592813
-3.469756	made	-0.1685752
-4.627112	mae	-0.1442235
-4.627112	maggie	-0.1577602
-4.627112	magic	-0.1595766
-4.486485	magnolia	-0.1428524
-4.627112	mahir	-0.159137
-4.627112	mahmoud	-0.158215
-4.627112	maid	-0.1595217
-4.627112	mail	-0.1442235
-3.449964	main	-0.4066515
-4.627112	maine	-0.1527045
-4.627112	mains	-0.1580083
-4.627112	maitland	-0.1583114
-3.28995	major	-0.5883375
-2.959474	make	-0.5114775
-4.064945	makes	-0.2170636
-3.742424	making	-0.2239818
-4.627112	malcolm	-0.1590614
-4.627112	male	-0.1563721
-4.627112	males	-0.1584835
-4.486485	malia	-0.1436794
-4.627112	malik	-0.159137
-3.227708	mall	-0.2787172
-4.486485	mallisa	-0.1439001
-4.153028	malton	-0.1659129
-4.627112	mam	-0.158215
-4.627112	mama	-0.1578567
-3.706053	man	-0.2747953
-4.263645	manager	-0.1330117
-4.627112	managers	-0.156206
-4.627112	manchester	-0.1563721
-4.627112	mandeep	-0.1596204
-4.627112	manice	-0.1442235
-4.486485	manitoba	-0.1836201
-4.627112	manly	-0.1580083
-4.263645	mannering	-0.2804769
-4.486485	manny	-0.2023972
-4.263645	manor	-0.1345232
-3.929128	manotick	-0.1829498
-4.486485	manually	-0.1549278
-4.064945	many	-0.08225168
-4.412435	map	-0.1526672
-4.627112	mapel	-0.1565657
-3.929128	maple	-0.1305386
-4.486485	maples	-0.1581981
-4.627112	mapping	-0.1384889
-4.627112	mar	-0.158215
-4.627112	marc	-0.158215
-4.486485	march	-0.2556689
-4.486485	mareus	-0.1571982
-4.627112	margaret	-0.159017
-4.627112	margo	-0.159137
-4.412435	maria	-0.174129
-4.263645	marie	-0.1897881
-4.412435	marilyn	-0.2026702
-4.627112	marina	-0.159137
-3.449964	marinara	-0.3155363
-4.627112	marinaras	-0.1553926
-4.153028	mario	-0.1579717
-3.512269	mark	-0.2055881
-4.627112	marked	-0.1596204
-4.412435	market	-0.2068157
-4.627112	marketplace	-0.1553887
-3.5594	markham	-0.3309329
-4.627112	marking	-0.1589376
-4.627112	marla	-0.1398522
-4.627112	marsh	-0.1591507
-4.627112	marsha	-0.1570394
-4.486485	mart	-0.138596
-4.064945	martin	-0.4418596
-4.627112	martindale	-0.1590614
-4.627112	martins	-0.1575088
-4.486485	marvin	-0.2571479
-3.825819	mary	-0.1648196
-3.991748	maryhill	-0.2918725
-4.627112	maryl	-0.159137
-4.627112	master	-0.1563721
-3.641341	mastercard	-0.271381
-4.627112	match	-0.1563721
-4.627112	matches	-0.1567316
-4.627112	mathers	-0.1583114
-4.486485	mathew	-0.2547652
-4.627112	matt	-0.1442235
-4.412435	matter	-0.1560968
-4.486485	matters	-0.1549556
-4.486485	matthew	-0.1596063
-4.486485	maureen	-0.1555451
-4.064945	max	-0.3331561
-4.153028	maximum	-0.1623704
-2.48632	may	-1.028357
-4.627112	maya	-0.1442235
-2.935153	maybe	-0.2363071
-4.263645	mayfield	-0.1699785
-4.627112	mayonnaise	-0.1567316
-4.263645	mc	-0.2056088
-3.874409	mcarthur	-0.2285197
-4.263645	mccabe	-0.2657043
-4.627112	mccavanagh	-0.1442235
-4.263645	mccowan	-0.2118668
-4.627112	mcdonald	-0.1442235
-4.263645	mcdonald's	-0.1951465
-4.627112	mcdonalds	-0.1527045
-4.627112	mcdonnell	-0.1594393
-4.627112	mcewen	-0.1431092
-4.627112	mcfarlane	-0.1580083
-4.627112	mcgill	-0.1580083
-4.627112	mcglocklin	-0.1362777
-4.486485	mcivor	-0.2569006
-4.627112	mckavanagh	-0.1593569
-4.486485	mckenzie	-0.1819989
-4.627112	mcla	-0.1576981
-4.627112	mclaighlin	-0.1562476
-4.627112	mclaugh	-0.159137
-3.672493	mclaughlin	-0.2709047
-4.627112	mcleese	-0.1585592
-4.627112	mclevin	-0.1527045
-4.627112	mcphillip	-0.1584835
-4.412435	mcphillip's	-0.1830924
-4.153028	mcphillips	-0.291253
-2.76591	me	-0.1469453
-4.486485	meadow	-0.1595049
-4.627112	meadowacres	-0.1585592
-4.627112	meadowland	-0.1585592
-4.486485	meadowvale	-0.250365
-4.486485	meadowville	-0.1495157
-3.929128	meal	-0.2381912
-4.627112	meals	-0.1591851
-4.064945	mean	-0.06044144
-4.627112	meaning	-0.1578981
-4.153028	means	-0.11987
-4.412435	meant	-0.1368967
-4.627112	meantime	-0.1552747
-3.173279	meat	-0.4404757
-3.874409	meatball	-0.1907647
-3.672493	meatballs	-0.3214478
-4.627112	meatlover	-0.1442235
-3.929128	meatlovers	-0.2923918
-4.486485	meats	-0.1430308
-4.263645	med	-0.1367636
-4.486485	medhurst	-0.1431092
-4.263645	medi	-0.1342849
-4.627112	medical	-0.1594874
-3.706053	mediterranean	-0.3105525
-3.874409	mediterranian	-0.1849961
-4.627112	mediu	-0.1554165
-2.769933	medium	-0.301741
-4.486485	medium's	-0.1547821
-3.991748	mediums	-0.1050511
-4.627112	medley	-0.1551083
-4.627112	medliro	-0.1593912
-3.929128	meet	-0.1982802
-4.486485	meeting	-0.1589208
-3.612275	mega	-0.768885
-4.486485	mel	-0.1546571
-4.627112	melania	-0.159611
-4.263645	melanie	-0.1382
-4.627112	melissa	-0.1573532
-4.627112	melrose	-0.1583114
-4.627112	melt	-0.1336763
-4.627112	melton	-0.1442235
-4.486485	men	-0.1438503
-4.627112	mena	-0.1573532
-4.064945	mention	-0.183109
-3.991748	mentioned	-0.1682245
-4.627112	mentioning	-0.1590682
-3.672493	menu	-0.1971876
-4.627112	mer	-0.1574291
-4.486485	mercer	-0.1585631
-4.627112	merchant	-0.1583114
-4.627112	meridene	-0.1590614
-4.412435	merivale	-0.2205942
-4.412435	merlin	-0.3290766
-4.486485	message	-0.152499
-4.627112	messed	-0.158972
-4.627112	messes	-0.1588895
-4.627112	meters	-0.1595835
-4.486485	method	-0.1423741
-4.412435	metro	-0.1577609
-4.627112	mew	-0.1593775
-4.486485	mews	-0.143904
-4.627112	meyer	-0.1442235
-4.486485	mhm	-0.2418841
-4.486485	mi	-0.1483406
-4.263645	michael	-0.1370135
-4.263645	michelle	-0.1771301
-4.627112	microphone's	-0.1594942
-4.627112	mid	-0.1594805
-4.412435	middle	-0.1276429
-4.064945	midland	-0.2130688
-3.612275	might	-0.3138435
-4.627112	might've	-0.1594942
-4.627112	miguel	-0.1442235
-4.627112	miikan	-0.1595354
-4.064945	mike	-0.3171347
-4.627112	mikhael	-0.1588069
-3.14362	mild	-0.4516249
-4.627112	milgate	-0.159137
-4.627112	military	-0.1596244
-4.486485	milk	-0.1173221
-4.627112	milks	-0.1370409
-3.991748	mill	-0.2154043
-4.627112	millcroft	-0.1594324
-4.486485	milliliter	-0.1577571
-4.627112	millimeter	-0.1596204
-4.153028	mills	-0.1939931
-4.153028	millstone	-0.2384043
-4.627112	millvervue	-0.1590614
-4.153028	milton	-0.1920647
-3.991748	mind	-0.1257982
-4.153028	mine	-0.1443246
-4.486485	minet's	-0.2572029
-4.486485	mini	-0.1578876
-4.263645	minimum	-0.1793056
-4.627112	minister	-0.159508
-4.486485	minowan	-0.2572849
-4.412435	minus	-0.1500713
-3.706053	minute	-0.134717
-3.490492	minutes	-0.1902427
-4.486485	minutes'	-0.2567494
-4.412435	miriam	-0.1383303
-4.627112	mis	-0.1573601
-4.627112	mishav	-0.158573
-4.627112	mishem	-0.158573
-4.627112	mishiv	-0.158573
-4.627112	mispronounce	-0.1563029
-3.205112	miss	-0.2848135
-4.412435	missed	-0.1696447
-4.412435	missing	-0.1526982
-4.627112	missisauga	-0.1442235
-4.627112	mississ	-0.1553887
-4.627112	mississa	-0.1571047
-3.227708	mississauga	-0.3242518
-4.627112	missy	-0.159137
-4.627112	mist	-0.157367
-4.486485	mistake	-0.149192
-4.412435	mistaken	-0.1399568
-4.627112	mistakes	-0.156206
-4.627112	mister	-0.1553887
-4.627112	misunderstanding	-0.1553541
-4.486485	misunderstood	-0.151283
-4.627112	mitch	-0.1442235
-4.627112	mitchell	-0.1581186
-4.153028	mix	-0.2149279
-3.929128	mixed	-0.3196681
-4.412435	mixing	-0.2184041
-4.486485	mixture	-0.1869733
-3.049486	mm	-0.4915332
-4.153028	mmm	-0.1321601
-4.627112	mo	-0.1554165
-4.486485	mobile	-0.1579233
-4.627112	mock	-0.1593569
-4.627112	mode	-0.1577119
-4.627112	model	-0.1442235
-4.486485	modified	-0.1370409
-4.627112	modify	-0.1518215
-4.412435	mohawk	-0.1701972
-4.486485	mohib	-0.1416019
-4.627112	moira	-0.1575088
-4.627112	molten	-0.1563721
-3.706053	mom	-0.1560798
-4.486485	mom's	-0.1552539
-4.627112	momen	-0.1586556
-3.825819	moment	-0.02773743
-4.627112	moments	-0.1595629
-4.627112	mommy	-0.1560884
-4.627112	mommy's	-0.1591439
-4.486485	moms	-0.1369292
-4.627112	mona	-0.158215
-4.412435	monaco	-0.2219867
-4.627112	monarch	-0.1594324
-4.627112	monday	-0.1590682
-3.612275	money	-0.2400385
-4.627112	monica	-0.1588069
-4.627112	monico	-0.159137
-4.412435	monique	-0.3298752
-4.627112	monlith	-0.1442235
-4.412435	mono	-0.3152917
-4.627112	monoyo	-0.1591439
-4.627112	montego	-0.1590614
-4.486485	monterey	-0.2567219
-4.486485	month	-0.1366253
-4.263645	months	-0.1689273
-3.991748	montreal	-0.2564721
-4.627112	mood	-0.1595217
-4.627112	moon	-0.131357
-4.627112	moore	-0.1437079
-2.935153	more	-0.1818654
-4.627112	morgan	-0.1585592
-4.412435	morning	-0.158542
-4.627112	morningside	-0.1527045
-4.486485	mosley	-0.2556689
-3.641341	most	-0.3164924
-4.064945	mostly	-0.1508819
-4.486485	motel	-0.1534471
-4.412435	mother	-0.1370088
-4.627112	mother's	-0.1527045
-4.486485	motherland	-0.1397875
-3.929128	mount	-0.2125009
-3.825819	mountain	-0.1807218
-4.627112	mountainview	-0.1582426
-4.627112	mounty	-0.1596244
-4.153028	move	-0.1861682
-4.412435	moved	-0.1388131
-4.627112	moxley	-0.1577433
-4.627112	moz	-0.1442235
-4.627112	mozz	-0.1596041
-3.412897	mozzarella	-0.4375278
-4.627112	mr	-0.1595011
-4.627112	ms	-0.1596204
-4.064945	mu	-0.14107
-3.612275	much	-0.03589486
-3.825819	mud	-0.8519554
-4.627112	muffling	-0.1562476
-4.627112	mug's	-0.1593569
-4.627112	mukesh	-0.1442235
-4.627112	mulock	-0.1585592
-4.263645	multi	-0.2342187
-3.706053	multigrain	-0.2864655
-4.486485	multiple	-0.152094
-4.627112	mum's	-0.1592401
-4.412435	mumtaz	-0.3152917
-4.412435	munch	-0.06780756
-4.627112	munser	-0.159137
-4.627112	muriel	-0.1442235
-4.627112	murphy	-0.1442235
-4.627112	murray	-0.1553887
-4.412435	mush	-0.1385393
-2.941107	mushroom	-0.4504485
-2.895617	mushrooms	-0.4377911
-4.627112	music	-0.1442235
-4.153028	muskoka	-0.3697836
-3.874409	must	-0.4551951
-4.412435	mustard	-0.1271369
-2.564473	my	-0.4027385
-3.742424	myself	-0.178259
-4.627112	mystic	-0.1583114
-3.057248	n	-0.3711149
-4.153028	na	-0.150496
-4.064945	nacho	-0.2770298
-4.486485	nachos	-0.136173
-4.412435	nadia	-0.2204426
-4.486485	nah	-0.2543922
-3.041859	name	-0.2922233
-4.412435	name's	-0.1549249
-4.627112	names	-0.1422169
-4.627112	nan	-0.1588069
-3.825819	nancy	-0.1425802
-4.263645	nantes	-0.1905124
-4.486485	nanwood	-0.1313712
-4.064945	napkins	-0.1243763
-4.627112	narrowing	-0.1594324
-4.486485	nash	-0.142781
-4.153028	natalie	-0.154838
-4.263645	nate	-0.2790303
-4.627112	national	-0.1595423
-4.486485	native	-0.2572646
-4.627112	natural	-0.1596244
-4.486485	navaho	-0.2562198
-4.486485	navneet	-0.1442088
-4.627112	navy	-0.1398522
-4.486485	naz	-0.1559884
-4.627112	nazir	-0.1563721
-4.627112	nd	-0.1583114
-4.486485	ne	-0.1434942
-3.276767	near	-0.2493493
-4.153028	nearby	-0.1360317
-4.064945	nearest	-0.1742212
-3.469756	need	-0.2095812
-4.153028	needed	-0.2127874
-4.263645	needs	-0.244599
-4.627112	neighborhood	-0.1442235
-4.627112	nelly	-0.1527045
-4.486485	nelson	-0.145006
-4.627112	nepean	-0.1442235
-4.627112	nephew	-0.1442235
-4.627112	nes	-0.1527045
-4.263645	ness	-0.137988
-4.627112	nest	-0.1596244
-3.14362	nestea	-0.3886141
-4.263645	nestea's	-0.1723258
-4.153028	nesteas	-0.218035
-4.486485	nestle	-0.1590652
-3.395487	never	-0.248801
-3.124917	new	-0.4212863
-4.627112	newcastle	-0.1442235
-4.627112	newly	-0.1596204
-4.064945	newmarket	-0.2291663
-3.332083	next	-0.3042721
-4.486485	neyagawa	-0.1526246
-4.064945	ni	-0.177468
-3.672493	niagara	-0.626765
-4.627112	niagra	-0.1596041
-3.825819	nice	-0.1695808
-4.486485	nicholas	-0.1576261
-4.627112	nick	-0.1442235
-4.486485	nicole	-0.2418841
-4.627112	nielsen	-0.1573532
-3.929128	night	-0.2451649
-4.627112	nin	-0.1564966
-4.486485	nina	-0.1567216
-4.627112	nina's	-0.1592538
-2.761924	nine	-0.3034946
-2.923485	nineteen	-0.5408433
-3.106986	ninety	-0.6569547
-4.153028	nino	-0.1778741
-4.412435	ninth	-0.2204633
-4.627112	nia	-0.1588069
-2.444248	no	-0.2054278
-4.627112	no's	-0.1370409
-4.627112	noah	-0.1553887
-4.263645	noble	-0.2491772
-4.412435	nobody	-0.1570291
-4.627112	nobody's	-0.1591645
-4.627112	noel	-0.1592538
-4.486485	noise	-0.1949073
-4.486485	noisy	-0.1564796
-3.874409	non	-0.310791
-4.153028	nondairy	-0.2987572
-4.153028	none	-0.3747381
-3.825819	nope	-0.1773961
-4.486485	nor	-0.1594457
-4.486485	noreen	-0.2550896
-4.627112	norika	-0.1592538
-4.486485	norland	-0.1591751
-4.627112	norma	-0.1442235
-3.742424	normal	-0.1382066
-3.641341	normally	-0.1691114
-4.627112	norman	-0.1594599
-3.205112	north	-0.3404881
-4.263645	northbay	-0.1827813
-4.627112	northeast	-0.1591477
-4.627112	northern	-0.1592263
-4.486485	northgate	-0.2568113
-4.627112	northmount	-0.1592538
-3.991748	northwest	-0.251377
-4.263645	northwood	-0.1771444
-4.627112	norton	-0.157153
-2.662993	not	-0.1407241
-4.627112	nota	-0.159556
-4.627112	notated	-0.156545
-4.627112	notation	-0.156545
-3.929128	note	-0.1651914
-4.486485	noted	-0.1573294
-4.412435	notes	-0.1770274
-4.627112	noth	-0.1596204
-3.378747	nothing	-0.1732427
-4.486485	nothing's	-0.1594595
-4.627112	notification	-0.1596244
-4.627112	notify	-0.1556175
-4.486485	nova	-0.253749
-4.627112	november	-0.1592401
-2.569539	now	-0.3025398
-4.627112	nu	-0.1544487
-4.627112	nugget	-0.1519159
-4.486485	nuggets	-0.2540326
-4.486485	num	-0.153461
-4.627112	numb	-0.1592401
-4.627112	numbe	-0.1577119
-2.849562	number	-0.2242556
-4.486485	number's	-0.1798665
-4.064945	numbers	-0.147601
-4.627112	nuno	-0.1592538
-4.263645	nut	-0.2053824
-4.486485	nutritional	-0.257281
-4.486485	nuts	-0.1519189
-3.041859	o	-0.3386509
-4.486485	o'	-0.1564727
-4.412435	o'clock	-0.1364696
-4.412435	oak	-0.1485109
-4.627112	oakfield	-0.1595698
-4.627112	oakland	-0.1585592
-4.486485	oakley	-0.250365
-4.486485	oakridge	-0.1592988
-4.627112	oaks	-0.1593886
-3.742424	oakville	-0.2585883
-4.486485	oakwood	-0.1572604
-4.627112	oaky	-0.1578843
-4.412435	observation	-0.2214066
-4.486485	observatory	-0.1441848
-4.064945	obviously	-0.1417147
-4.627112	occan	-0.1553402
-4.627112	oesto	-0.1564412
-2.38708	of	-0.2614902
-3.251546	off	-0.1831041
-3.431036	offer	-0.2589724
-4.412435	offered	-0.1948932
-4.064945	offering	-0.1372695
-4.486485	offers	-0.1524819
-4.263645	office	-0.1465149
-4.627112	offices	-0.1527045
-4.486485	officially	-0.1575502
-4.627112	often	-0.1592126
-4.486485	ogilvie	-0.15129
-4.627112	ogilvy	-0.1582426
-2.525939	oh	-0.225701
-4.064945	oil	-0.1048863
-4.627112	oils	-0.1592057
-4.627112	oily	-0.1525269
-3.641341	ok	-0.1906164
-4.627112	oka	-0.1371751
-2.008424	okay	-0.3393844
-4.486485	okey	-0.2572849
-4.412435	ol	-0.1518953
-3.5594	old	-0.2807604
-4.627112	olds	-0.1442235
-4.627112	oli	-0.1588276
-3.251546	olive	-0.3303199
-4.627112	oliver	-0.1442235
-3.332083	olives	-0.1611446
-4.627112	olsen	-0.158215
-4.153028	omar	-0.1735582
-2.14845	on	-0.4430758
-3.347088	once	-0.478286
-2.142691	one	-0.3679228
-3.929128	one's	-0.1622941
-3.28995	ones	-0.2653154
-4.627112	ongoing	-0.1592744
-4.627112	oni	-0.1580703
-3.005615	onion	-0.3825935
-3.049486	onions	-0.3317274
-4.627112	onle	-0.1577326
-3.276767	online	-0.2386898
-2.738745	only	-0.2313817
-4.627112	ont	-0.1442235
-2.839958	ontario	-0.4642052
-4.627112	onto	-0.1573532
-4.627112	ooh	-0.1519543
-4.486485	oops	-0.1533086
-3.825819	open	-0.1675974
-4.486485	opened	-0.1557806
-4.627112	opening	-0.1527045
-4.627112	opposed	-0.1568975
-3.991748	opposite	-0.2390275
-3.512269	option	-0.2925269
-3.782123	options	-0.274066
-2.125858	or	-0.291919
-3.28995	orange	-0.2446674
-4.486485	oranges	-0.1452158
-3.991748	orangeville	-0.3600136
-3.929128	orchard	-0.1494869
-4.627112	ord	-0.1553402
-4.627112	orde	-0.1556175
-2.666164	order	-0.2495159
-4.263645	order's	-0.1483531
-3.512269	ordered	-0.1680533
-3.5594	ordering	-0.1930788
-3.490492	orders	-0.2106725
-4.486485	oregano	-0.1370409
-4.627112	oregon	-0.1442235
-4.627112	organized	-0.1579945
-4.627112	origin	-0.1578498
-3.929128	original	-0.2506765
-4.064945	orillia	-0.2833209
-4.627112	orion	-0.1593912
-4.627112	orlean	-0.1592401
-3.706053	orleans	-0.3327097
-4.627112	osborne	-0.1583114
-4.263645	oscar	-0.1736051
-3.825819	oshawa	-0.2980586
-4.627112	osman	-0.1574291
-4.627112	oth	-0.1565381
-4.627112	othe	-0.1527045
-3.115859	other	-0.2060033
-4.486485	others	-0.1365891
-3.535195	otherwise	-0.2505896
-3.5594	ottawa	-0.2672031
-4.486485	ottawasca	-0.1593332
-4.486485	otter	-0.1576123
-4.627112	ottowa	-0.1442235
-4.627112	ou	-0.1574291
-4.627112	ought	-0.1568975
-4.627112	ould	-0.1553402
-4.627112	ounce	-0.1554165
-3.026997	our	-0.1978832
-4.486485	ours	-0.155843
-3.098291	out	-0.2393705
-4.627112	outport	-0.1580083
-3.874409	outside	-0.2018193
-3.153283	over	-0.2981588
-4.486485	overall	-0.1416019
-4.627112	overhill	-0.1553402
-4.486485	overlea	-0.1366253
-4.627112	override	-0.1549448
-4.064945	owen	-0.4550733
-3.991748	own	-0.1581247
-4.486485	owner	-0.1574536
-4.627112	ownership	-0.1584491
-3.049486	p	-0.4501819
-4.263645	p.m	-0.1834756
-4.412435	pa	-0.1535067
-4.627112	pablo	-0.1523105
-3.742424	pack	-0.1903996
-3.825819	package	-0.1756947
-4.486485	packets	-0.2555104
-4.412435	packs	-0.2056192
-4.263645	page	-0.1283174
-3.874409	paid	-0.3433357
-4.627112	pal	-0.1442235
-4.627112	palace	-0.02584383
-4.627112	palace's	-0.1590889
-4.627112	palomino	-0.1585592
-4.627112	pamela	-0.1585592
-4.627112	pampero	-0.1592469
-3.825819	pan	-0.2022344
-4.627112	panda	-0.1527045
-4.486485	pans	-0.1515348
-4.627112	panz	-0.1562476
-4.627112	panzero	-0.1586556
-4.627112	panzerott	-0.1594805
-3.449964	panzerotti	-0.2136298
-3.706053	panzerottis	-0.1871348
-4.412435	panzo	-0.1523252
-4.412435	panzos	-0.1869302
-3.874409	paper	-0.6179295
-4.627112	paprika	-0.1527045
-4.627112	par	-0.1442235
-4.627112	paramount	-0.1375075
-4.627112	pard	-0.1594255
-3.31758	pardon	-0.5056334
-3.332083	park	-0.2624461
-4.627112	parkdale	-0.1591507
-4.412435	parkedale	-0.2139696
-4.627112	parker	-0.1442235
-4.153028	parking	-0.3748419
-4.486485	parkland	-0.1580504
-4.627112	parklawn	-0.1442235
-4.627112	parks	-0.1553887
-4.153028	parkside	-0.245356
-4.263645	parkway	-0.1837189
-3.612275	parkwood	-0.4989119
-4.412435	parkwoods	-0.3304457
-4.064945	parliament	-0.3279634
-4.627112	parmbelle	-0.1590614
-3.5594	parmesan	-0.3509403
-3.742424	part	-0.4312883
-4.627112	participate	-0.1562476
-4.627112	participated	-0.1562476
-4.153028	particular	-0.1883736
-4.627112	particularly	-0.1576981
-4.627112	parties	-0.1442235
-4.486485	parts	-0.1397875
-4.627112	partway	-0.1593912
-3.28995	party	-0.5211271
-3.929128	pass	-0.1918523
-4.627112	passcode	-0.1568975
-4.412435	password	-0.2048337
-4.263645	past	-0.1485425
-4.486485	pasta	-0.1366325
-4.627112	pastas	-0.1442235
-4.412435	patch	-0.1525447
-4.486485	patience	-0.1181898
-4.486485	patient	-0.1530779
-4.627112	patio	-0.1586625
-4.412435	patricia	-0.2654054
-4.263645	patrick	-0.1643354
-4.627112	patsie	-0.1442235
-4.412435	patty	-0.3152917
-4.263645	paul	-0.1288442
-4.627112	paulette	-0.1442235
-4.627112	pauline	-0.1574291
-3.31758	pay	-0.2848841
-3.31758	paying	-0.4002961
-3.782123	payment	-0.1800564
-4.486485	payment's	-0.257281
-4.486485	payments	-0.1399352
-4.627112	pays	-0.157367
-4.486485	pe	-0.1588726
-4.486485	peach	-0.2572715
-4.486485	peakview	-0.155836
-4.627112	peanut	-0.159611
-4.486485	peanuts	-0.2418841
-4.412435	peek	-0.2159871
-4.486485	pembina	-0.2571136
-4.486485	pembroke	-0.1573777
-4.627112	pendrith	-0.1580083
-4.627112	pennies	-0.1595629
-3.412897	people	-0.1413589
-3.672493	pep	-0.2330983
-4.627112	peper	-0.159137
-3.782123	peperoni	-0.2246884
-4.627112	pepp	-0.1554165
-4.627112	peppe	-0.157153
-3.205112	pepper	-0.2235751
-3.469756	peppercorn	-0.9280443
-4.412435	peppero	-0.1540077
-4.627112	pepperon	-0.1578843
-2.574665	pepperoni	-0.4667749
-4.486485	pepperoni's	-0.1398235
-3.991748	pepperonis	-0.1560072
-3.431036	peppers	-0.1703439
-4.627112	peps	-0.157357
-3.585033	pepsi	-0.3243276
-4.486485	pepsis	-0.2418841
-3.706053	per	-0.1952829
-3.874409	percent	-0.1260479
-4.627112	percentage	-0.1553402
-4.627112	percentages	-0.1560884
-4.627112	percentagewise	-0.1581186
-4.627112	percy	-0.158573
