
\data\
ngram 1=5375
ngram 2=63343
ngram 3=51438

\1-grams:
-4.623237	'bout	-0.1548129
-3.432088	'cause	-0.3905146
-4.623237	'em	-0.1436896
-4.623237	'till	-0.1557743
-4.623237	25th	-0.1521806
-4.623237	4	-0.1586047
-4.623237	420	-0.1590506
-1.45742	</s>
-4.623237	<cont>	0.1641323
-4.623237	<cont>rea	-0.142819
-4.623237	<cont>rew	-0.1436896
-4.623237	<cont>y	-0.1392524
-99	<s>	-0.9747124
-2.011821	_garbled	-0.1463257
-2.175953	a	-0.2904541
-4.483365	aaron	-0.2522356
-4.417658	ab	-0.1586326
-4.623237	abam	-0.1436896
-4.623237	abass	-0.156899
-4.623237	abbas	-0.156899
-4.417658	abbey	-0.1925977
-4.623237	abbeydale	-0.1590301
-4.623237	abbie	-0.1586253
-4.623237	abby	-0.1562025
-4.623237	abdul	-0.1521806
-4.623237	abel	-0.1586253
-4.623237	ability	-0.1563681
-3.876322	able	-0.5923768
-2.924205	about	-0.2942241
-4.267513	above	-0.1967016
-4.623237	abso	-0.1566233
-4.623237	absolute	-0.1577871
-3.642696	absolutely	-0.120127
-4.623237	abubakar	-0.1576839
-4.623237	abubaker	-0.1576839
-4.623237	academy	-0.155719
-4.623237	accent	-0.1571746
-4.623237	accept	-0.1581308
-4.623237	acceptable	-0.1571677
-4.483365	accepting	-0.2539743
-4.623237	access	-0.154889
-4.623237	accompany	-0.1550898
-4.267513	according	-0.4563692
-4.623237	accordingly	-0.1571746
-3.931221	account	-0.1501722
-4.623237	account's	-0.1565267
-4.623237	accross	-0.1581652
-4.483365	accurate	-0.1838939
-4.417658	acres	-0.1727306
-3.613579	across	-0.4556819
-4.417658	act	-0.1506883
-4.417658	activated	-0.2147036
-4.156153	actual	-0.1533596
-2.766584	actually	-0.1607691
-4.267513	ad	-0.1483945
-4.067599	adam	-0.3189
-4.623237	adams	-0.1577871
-3.073984	add	-0.2951532
-4.623237	addable	-0.158591
-3.586293	added	-0.200398
-3.642696	adding	-0.2492643
-4.417658	addition	-0.2155497
-3.396502	additional	-0.1941393
-4.483365	additionally	-0.1555502
-3.154108	address	-0.1674748
-4.623237	addresses	-0.1571677
-4.623237	adin	-0.1576839
-4.623237	adjust	-0.1560161
-4.623237	adrian	-0.1436896
-4.623237	ads	-0.1560092
-4.623237	adults	-0.156575
-4.623237	advance	-0.1513478
-4.483365	advertised	-0.1534298
-4.483365	advertisement	-0.1404851
-4.623237	advertising	-0.1550898
-4.623237	af	-0.1548267
-4.267513	afford	-0.2130351
-4.623237	afraid	-0.1548129
-4.623237	afte	-0.1436896
-2.762597	after	-0.6078281
-3.994079	afternoon	-0.1531153
-4.417658	afterwards	-0.1319832
-2.850258	again	-0.2921451
-4.417658	against	-0.1548417
-4.417658	agent	-0.1855783
-4.623237	agius	-0.1562025
-3.783779	ago	-0.2266519
-4.417658	agree	-0.1837737
-3.027757	ah	-0.05169331
-4.156153	ahead	-0.1238538
-4.483365	ahh	-0.1375401
-4.623237	ahmad	-0.1576839
-4.623237	aid	-0.1590026
-4.417658	aim	-0.3314305
-4.623237	airgate	-0.1588517
-3.82759	airport	-0.355439
-3.931221	ajax	-0.2148104
-4.483365	akash	-0.1550176
-4.267513	al	-0.1351879
-4.623237	alaa	-0.1562025
-4.156153	alan	-0.176549
-4.623237	albean	-0.1521806
-4.067599	albert	-0.2338435
-4.623237	alberta	-0.1436896
-4.623237	alberto	-0.1558336
-4.483365	albion	-0.141647
-4.067599	alcona	-0.2048121
-4.623237	aldwych	-0.1577871
-4.623237	ale	-0.03763065
-4.623237	ale's	-0.148874
-4.623237	alejandro	-0.1548614
-4.623237	ales	-0.1041127
-4.267513	alex	-0.2357881
-4.623237	alexander	-0.1577871
-4.067599	alexandra	-0.2827824
-4.623237	alfred	-0.1563169
-4.623237	alfredo	-0.1436896
-4.623237	alfus	-0.156899
-4.623237	algonquin	-0.1587145
-4.156153	ali	-0.2304672
-4.623237	alice	-0.1576839
-4.483365	alicia	-0.1376789
-4.623237	alise	-0.158282
-4.623237	alisha	-0.1521806
-2.392745	all	-0.4243845
-4.623237	allandale	-0.1586253
-4.623237	allen	-0.1580346
-4.267513	allergy	-0.2072763
-4.483365	alliance	-0.1865787
-4.623237	allison	-0.1562025
-4.483365	allister	-0.1427122
-4.483365	alliston	-0.1728747
-4.156153	allow	-0.2512577
-4.483365	allowed	-0.1950039
-4.417658	allowing	-0.2191855
-4.623237	allows	-0.1550898
-4.623237	alma	-0.158282
-3.586293	almost	-0.2298916
-4.156153	alone	-0.1677406
-3.642696	along	-0.8538893
-4.267513	alpha	-0.1871421
-4.623237	alphabets	-0.1573261
-3.195089	already	-0.2091988
-3.642696	alright	-0.1508602
-4.417658	alrighty	-0.1516798
-2.79557	also	-0.2176752
-4.623237	alternate	-0.1585017
-4.483365	alternative	-0.1557507
-4.267513	although	-0.1512093
-3.491616	altogether	-0.2708312
-4.483365	alton	-0.2540772
-4.483365	alvin	-0.254084
-3.642696	always	-0.132838
-3.451039	am	-0.3349843
-4.623237	amad	-0.1576839
-4.417658	amanda	-0.2002276
-4.623237	amanda's	-0.1436896
-4.483365	amar	-0.2526899
-4.483365	amari	-0.2526899
-4.267513	amazing	-0.1911144
-4.623237	amber	-0.1436896
-4.623237	amberlea	-0.1586253
-4.623237	amend	-0.1545745
-4.623237	amended	-0.1548129
-4.156153	amex	-0.2348688
-4.623237	amia	-0.1550898
-4.483365	amir	-0.2181744
-4.483365	amit	-0.1410644
-4.623237	ammat	-0.1562025
-4.623237	among	-0.1586047
-4.623237	amore	-0.1280916
-3.876322	amount	-0.2271874
-4.156153	amy	-0.1979398
-2.731952	an	-0.5475831
-4.483365	ancaster	-0.1435942
-3.673906	anchovies	-0.2479799
-1.800648	and	-0.3054978
-4.483365	anderson	-0.1433952
-4.623237	andes	-0.1406782
-4.623237	andova	-0.1588655
-4.267513	andrea	-0.1381037
-4.483365	andrew	-0.1402273
-4.623237	andrew's	-0.1586116
-4.483365	andrews	-0.2524903
-4.623237	andy	-0.1436896
-4.483365	angel	-0.1418641
-4.483365	angela	-0.157416
-4.623237	angelico	-0.1577871
-4.623237	angelina	-0.158282
-4.623237	angelo	-0.1436896
-3.994079	angus	-0.2630414
-4.623237	anil	-0.1436896
-4.623237	anisha	-0.1576839
-4.067599	ann	-0.1549682
-4.623237	anna	-0.1436896
-4.417658	anne	-0.2038084
-4.623237	annes	-0.1587488
-4.623237	annette	-0.1574844
-4.483365	anniversary	-0.1398446
-4.623237	announcement	-0.1573261
-4.623237	annoying	-0.1548129
-4.623237	ano	-0.1586596
-2.98598	another	-0.2651642
-4.483365	ans	-0.1555364
-4.067599	answer	-0.1374093
-4.483365	answered	-0.1532144
-4.623237	answering	-0.1562025
-3.876322	anthony	-0.2076598
-4.623237	antler	-0.1574844
-4.623237	antoine	-0.1424416
-4.267513	antrim	-0.1760423
-2.791308	any	-0.3373678
-4.417658	anybody	-0.218576
-4.623237	anybody's	-0.1587557
-3.783779	anymore	-0.2822816
-3.994079	anyone	-0.1728449
-4.623237	anythi	-0.1436896
-2.766584	anything	-0.4727187
-4.417658	anytime	-0.1524086
-3.586293	anyway	-0.186724
-4.067599	anyways	-0.1444837
-4.417658	anywhere	-0.1536422
-4.623237	apa	-0.1555601
-4.623237	apache	-0.158536
-4.623237	apar	-0.1562025
-4.483365	apart	-0.1509957
-2.941833	apartment	-0.4169735
-4.417658	apartments	-0.1401456
-4.417658	apologies	-0.1724575
-4.156153	apologize	-0.1780048
-4.483365	apology	-0.2134801
-4.623237	apostrophe	-0.1562025
-4.067599	app	-0.1902675
-4.067599	apparently	-0.171267
-4.483365	appartment	-0.2012885
-4.623237	appealing	-0.1436896
-4.623237	appears	-0.154418
-4.623237	appetite	-0.1560437
-4.267513	appetizers	-0.1367673
-3.586293	apple	-0.2620698
-4.623237	applebee	-0.1589546
-4.623237	appleby	-0.1521806
-4.623237	appleview	-0.1577183
-3.994079	applied	-0.1559235
-3.931221	apply	-0.2377821
-4.623237	applying	-0.1557783
-4.067599	appreciate	-0.3039615
-4.623237	approval	-0.1577871
-4.623237	approved	-0.1556776
-4.623237	approx	-0.1578765
-4.623237	approximate	-0.1585566
-3.994079	approximately	-0.1472137
-4.483365	aquitaine	-0.252793
-4.623237	aran	-0.1576839
-4.623237	arc	-0.1521806
-4.623237	ardwold	-0.1562025
-2.575302	are	-0.271788
-3.451039	area	-0.2666728
-4.483365	aren't	-0.1548792
-4.623237	arena	-0.1436896
-4.483365	argentia	-0.1552252
-4.483365	argentina	-0.1484988
-4.623237	argentinia	-0.1436896
-4.156153	argyle	-0.5543956
-4.623237	arjay	-0.1562025
-4.483365	arjun	-0.1410644
-4.483365	arjun's	-0.2540292
-4.623237	arlene	-0.1436896
-4.623237	arlington	-0.1577871
-4.623237	armen	-0.156899
-4.623237	armstrong	-0.158536
-4.623237	arn	-0.1436896
-4.623237	arnold	-0.1580346
-4.417658	arnprior	-0.1710833
-4.623237	arnpry	-0.1436896
-4.483365	arone	-0.1376459
-3.264872	around	-0.285843
-4.623237	arr	-0.158639
-4.417658	arrival	-0.1436311
-4.067599	arrive	-0.2334862
-4.483365	arrived	-0.1408499
-4.483365	arrives	-0.1712642
-4.483365	arriving	-0.2191855
-4.623237	arti	-0.1548614
-3.743985	artichoke	-0.2660018
-3.642696	artichokes	-0.3196758
-2.480678	as	-0.5244903
-4.623237	asad	-0.1576839
-4.623237	ascoli	-0.1580346
-4.623237	ascot	-0.1577871
-4.623237	aserb	-0.1576839
-4.156153	ash	-0.2121849
-4.417658	ashley	-0.1853851
-4.623237	ashton	-0.1577183
-4.623237	asid	-0.1576839
-4.483365	aside	-0.2531711
-4.623237	asima	-0.1562025
-4.623237	asin	-0.156899
-3.491616	ask	-0.2526103
-3.783779	asked	-0.2225331
-3.673906	asking	-0.2102857
-4.623237	aslo	-0.156837
-4.623237	ass	-0.1436896
-4.267513	assist	-0.4550909
-4.623237	assistance	-0.1590941
-4.483365	associate	-0.2507803
-4.156153	associated	-0.3741754
-4.623237	assort	-0.154418
-4.156153	assorted	-0.2965439
-4.483365	assume	-0.1360986
-4.623237	assuming	-0.1471055
-4.623237	assure	-0.1548614
-4.623237	asum	-0.1576839
-2.433558	at	-0.4176181
-4.623237	atkins	-0.1581308
-4.623237	attach	-0.1563681
-4.623237	attached	-0.1563681
-4.623237	attempted	-0.1563681
-4.623237	attwenty	-0.1583781
-4.483365	aubrietia	-0.1559579
-4.623237	august	-0.1583781
-4.623237	aunt	-0.1549899
-4.417658	aurora	-0.132174
-4.623237	australia	-0.1558503
-4.623237	authorize	-0.1557743
-4.483365	authorized	-0.2132921
-4.156153	automated	-0.2284943
-4.267513	automatic	-0.2365766
-4.483365	automatically	-0.1588237
-4.623237	ava	-0.1562025
-4.623237	avail	-0.157622
-3.363611	available	-0.2197794
-4.483365	avalon	-0.1425769
-4.267513	ave	-0.2000669
-2.517446	avenue	-0.5027626
-4.623237	average	-0.1590506
-4.623237	avery	-0.1576839
-4.156153	avondale	-0.2682863
-4.623237	aw	-0.1568301
-4.623237	aware	-0.154221
-3.931221	away	-0.1881753
-3.707533	awesome	-0.2754513
-4.623237	awful	-0.1562025
-4.156153	ay	-0.2391951
-4.623237	ayl	-0.1590849
-4.267513	aylmar	-0.1849812
-4.267513	aylmer	-0.128199
-4.623237	azem	-0.1548267
-2.935877	b	-0.4912053
-3.783779	ba	-0.1534901
-4.623237	bab	-0.1586047
-4.267513	babe	-0.1321771
-4.417658	baby	-0.1564519
-4.623237	babysitter	-0.1589615
-4.067599	bac	-0.172833
-3.042626	back	-0.2451265
-4.623237	background	-0.156575
-4.483365	backyard	-0.1531321
-4.623237	baco	-0.1548129
-2.654266	bacon	-0.5721743
-4.623237	bacons	-0.1586939
-3.931221	bad	-0.1391936
-3.413931	bag	-0.7728145
-3.642696	bags	-0.3637542
-4.623237	baguettes	-0.1436896
-4.623237	bahaman	-0.1560437
-4.623237	bairdmore	-0.1587145
-4.483365	bake	-0.1552667
-3.379745	baked	-0.3597674
-3.994079	balance	-0.14115
-4.623237	balcony	-0.1573467
-4.623237	ball	-0.1548614
-4.267513	balls	-0.1807443
-4.623237	balmoral	-0.1577871
-4.623237	balsam	-0.1574844
-3.931221	balsamic	-0.1691705
-3.536379	banana	-0.8236538
-3.673906	bancroft	-0.3186368
-3.673906	bank	-0.2173731
-4.156153	banks	-0.5543956
-4.156153	bar	-0.1276201
-4.623237	barb	-0.1521806
-4.417658	barbara	-0.1410536
-4.623237	barbe	-0.1573261
-2.98598	barbecue	-0.5499517
-3.379745	barbeque	-0.3941253
-4.267513	barbequed	-0.4589969
-4.483365	barclay	-0.2524903
-4.417658	barely	-0.2197486
-4.623237	barks	-0.1585812
-4.623237	barnhill	-0.1548614
-4.623237	barq	-0.1571539
-3.673906	barq's	-0.509455
-4.623237	barqs	-0.1492278
-4.483365	barrhaven	-0.1365093
-3.994079	barrie	-0.2424011
-4.483365	barriefield	-0.156776
-4.417658	barry	-0.152307
-4.267513	barry's	-0.279284
-4.417658	bart's	-0.2195564
-4.267513	barton	-0.1857786
-3.264872	base	-0.2380946
-3.783779	based	-0.1993337
-4.623237	baseline	-0.1422492
-4.483365	basement	-0.1579257
-4.067599	basic	-0.1611987
-3.876322	basically	-0.124069
-4.623237	basics	-0.1556776
-4.623237	basinview	-0.1580346
-4.417658	basis	-0.1356212
-4.483365	basket	-0.155073
-4.417658	baskin	-0.2189994
-4.623237	batch	-0.1436896
-4.417658	bath	-0.3327807
-4.483365	bathurst	-0.1571097
-4.623237	batter	-0.1574844
-4.623237	batter's	-0.1548267
-4.623237	batters	-0.1401342
-4.623237	baxters	-0.156899
-3.876322	bay	-0.2500829
-4.156153	bayfield	-0.1803718
-4.483365	bayley	-0.2524903
-4.483365	bayly	-0.2524903
-3.743985	bayview	-0.5096621
-2.901762	be	-0.1212541
-4.267513	beach	-0.1563975
-4.483365	beaconwood	-0.2530406
-4.623237	beale	-0.1574844
-4.623237	beans	-0.1584125
-3.743985	bear	-0.7541223
-4.483365	beat	-0.1568754
-4.267513	beautiful	-0.2002144
-4.623237	beauty	-0.1548786
-4.067599	beaverwood	-0.2408447
-2.648124	because	-0.428975
-4.623237	become	-0.1581652
-4.623237	becoming	-0.1590712
-4.623237	bedford	-0.1422492
-4.417658	beech	-0.217954
-4.483365	beechborough	-0.1580317
-4.623237	beechnut	-0.1586047
-3.707533	beef	-0.1012826
-3.491616	been	-0.1500707
-4.417658	beep	-0.1977602
-3.82759	beer	-0.08963086
-4.483365	beers	-0.1114529
-2.865078	before	-0.4633396
-4.623237	beg	-0.1527833
-4.267513	begin	-0.4559136
-4.483365	beginning	-0.1556026
-4.623237	behalf	-0.1573261
-4.267513	behind	-0.1383836
-3.470854	being	-0.1565754
-4.623237	belalen	-0.1576839
-4.483365	beland	-0.1418712
-4.623237	belcot	-0.1586047
-4.483365	belgrave	-0.252793
-4.067599	believe	-0.1061634
-4.623237	belinda	-0.1436896
-3.642696	bell	-0.3377538
-4.417658	belleville	-0.2607619
-4.623237	bellevue	-0.1577871
-4.623237	bellomo	-0.1586047
-4.267513	bells	-0.2679273
-4.417658	ben	-0.1576706
-4.623237	benefit	-0.1436896
-4.417658	benlight	-0.1959968
-4.483365	benson	-0.2182571
-4.417658	berkley	-0.2788894
-4.417658	bern	-0.2177817
-4.623237	bernard	-0.1576839
-4.483365	besh	-0.1405137
-3.931221	beside	-0.190448
-4.417658	besides	-0.1396726
-3.931221	best	-0.2144545
-4.156153	bet	-0.1564262
-4.623237	bethany	-0.1577183
-3.290869	better	-0.2442118
-4.483365	betty	-0.1567858
-3.413931	between	-0.2166947
-4.623237	beverage	-0.1558503
-4.267513	beverages	-0.2131609
-4.483365	bi	-0.1530893
-4.623237	bia	-0.1590781
-4.623237	bianca	-0.1436896
-3.451039	big	-0.2748562
-3.876322	bigger	-0.2094307
-4.623237	biggest	-0.1554949
-4.483365	bilal	-0.1559924
-3.876322	bill	-0.2006452
-4.623237	billy	-0.1590941
-4.067599	bingo	-0.1756082
-4.623237	birchbark	-0.1580346
-4.156153	birchmount	-0.2305684
-4.483365	birchpark	-0.1544774
-4.623237	birth	-0.1515711
-4.623237	birthday	-0.1584811
-4.483365	bit	-0.1165449
-4.267513	bite	-0.1862437
-3.451039	bites	-0.1279263
-3.994079	bits	-0.1981992
-3.050256	black	-0.5990741
-4.623237	blackthorne	-0.1577871
-4.623237	blainville	-0.1436896
-4.623237	blairwood	-0.1590941
-4.483365	blanc	-0.1526203
-4.156153	blanca	-0.1036065
-4.623237	blanco	-0.1580179
-3.931221	blend	-0.2037645
-4.623237	blended	-0.1590575
-4.623237	blends	-0.1427051
-4.623237	blessed	-0.1590369
-4.267513	block	-0.163813
-4.417658	bloomfield	-0.2176163
-4.623237	bloomingfield	-0.1436896
-3.743985	bloor	-0.4301724
-4.483365	blu	-0.1388287
-3.363611	blue	-0.6494996
-4.483365	bluejay	-0.21867
-4.623237	bo	-0.1550898
-4.623237	board	-0.1441776
-4.623237	boarders	-0.1436896
-3.876322	bob	-0.3454909
-4.623237	bobbie	-0.158282
-4.483365	bobby	-0.1568548
-4.156153	bocci	-0.223554
-4.623237	boiling	-0.159098
-4.623237	bold	-0.1534784
-4.483365	bolsom	-0.2524903
-4.623237	bolten	-0.1436896
-4.417658	bolton	-0.1473678
-4.623237	bolwood	-0.1581652
-4.623237	bonanza	-0.158742
-4.623237	bond	-0.1436896
-4.483365	bone	-0.143651
-3.707533	boneless	-0.430848
-3.931221	bonnel	-0.2297427
-4.483365	bonnie	-0.1403133
-4.417658	bonshaw	-0.2093866
-4.417658	bonus	-0.2280156
-4.623237	boo	-0.1555496
-4.483365	book	-0.1514804
-4.623237	booked	-0.1590941
-4.483365	bookstore	-0.1406782
-4.156153	booth	-0.2549871
-4.417658	borden	-0.1417297
-4.623237	border	-0.1588586
-4.623237	bordern	-0.1521806
-4.623237	bore	-0.1436896
-4.483365	boston	-0.1568128
-4.623237	botany	-0.1590301
-3.020509	both	-0.3144996
-4.483365	bother	-0.151864
-4.623237	bothering	-0.1436896
-4.417658	bottle	-0.2028179
-4.623237	bottled	-0.1589546
-3.673906	bottles	-0.3226585
-4.067599	bottom	-0.09186866
-4.623237	bottomline	-0.1436896
-4.483365	bought	-0.1490114
-4.623237	bouleva	-0.1587145
-3.042626	boulevard	-0.3895306
-4.623237	bout	-0.1476015
-3.82759	bovaird	-0.1741277
-4.417658	bowl	-0.3323885
-4.623237	bowman	-0.1577871
-3.783779	bowmanville	-0.1969516
-4.417658	bowood	-0.1618841
-3.333037	box	-0.2579848
-3.994079	boxes	-0.2938082
-4.483365	boy	-0.1317738
-4.623237	boylston	-0.1574844
-4.417658	boys	-0.1410185
-4.483365	br	-0.1549553
-4.623237	brace	-0.1586047
-4.267513	bracebridge	-0.2389122
-4.417658	brad	-0.1754264
-4.623237	bradbury	-0.1587968
-4.483365	braddle	-0.2527243
-3.994079	bradford	-0.1632811
-4.067599	bradshaw	-0.2902083
-4.623237	bradwell	-0.1588586
-4.267513	brady	-0.1387724
-4.483365	braemar	-0.1579904
-3.994079	bramalea	-0.2232671
-4.623237	bramelea	-0.1521806
-4.623237	brampt	-0.155719
-4.623237	bramptom	-0.1590438
-3.252435	brampton	-0.2572454
-4.623237	bran	-0.1521806
-4.483365	brand	-0.1555986
-4.267513	brandon	-0.1849632
-4.623237	brands	-0.1573261
-4.417658	brant	-0.2029819
-4.267513	brantford	-0.2210054
-4.623237	braun	-0.1574844
-4.623237	braxton	-0.1436896
-4.623237	brea	-0.1436896
-3.396502	bread	-0.195381
-3.154108	breaded	-0.410426
-4.623237	breading	-0.1404779
-4.623237	breads	-0.1403777
-4.623237	breadsticks	-0.1436896
-4.623237	break	-0.1557743
-4.623237	breakdown	-0.1548267
-4.267513	breaking	-0.1362979
-4.623237	breast	-0.154418
-4.623237	breasts	-0.1559125
-4.483365	brenda	-0.1401342
-4.623237	bri	-0.1436896
-4.483365	brian	-0.1422135
-4.623237	briarfield	-0.1580346
-4.623237	briarwood	-0.1430965
-4.483365	brick	-0.1578323
-4.417658	bridge	-0.2032244
-4.623237	brief	-0.156903
-4.623237	brilliant	-0.157904
-4.623237	brimley	-0.1577183
-3.513421	bring	-0.3116572
-4.483365	bringing	-0.1540198
-3.931221	brings	-0.3199936
-3.783779	brio	-0.1682541
-4.623237	brios	-0.1424131
-4.267513	britannia	-0.2507678
-4.623237	brittan	-0.1521806
-4.623237	bro	-0.1590369
-4.623237	broad	-0.1588723
-4.267513	broadview	-0.158525
-3.783779	broadway	-0.4049564
-3.163996	broccoli	-0.3419572
-4.623237	broccolis	-0.1436896
-4.623237	broch	-0.155719
-3.994079	brock	-0.291537
-4.623237	brocks	-0.1574844
-4.267513	brockville	-0.1384531
-4.623237	brocolli	-0.1588106
-4.417658	broke	-0.1872776
-4.623237	broken	-0.1589066
-4.417658	bronte	-0.236956
-4.267513	brook	-0.1887922
-4.483365	brookdale	-0.1516897
-4.623237	brookfield	-0.1531727
-4.623237	brookland	-0.1580346
-4.483365	brooklyn	-0.2529512
-4.623237	brooks	-0.1375523
-4.267513	brought	-0.2500027
-4.267513	brown	-0.2036321
-4.483365	brown's	-0.2539606
-4.623237	browner	-0.1521806
-3.743985	brownie	-0.1881342
-3.396502	brownies	-0.2018866
-4.417658	browns	-0.334017
-4.623237	browser	-0.1515542
-4.623237	brumwell	-0.1574844
-4.623237	brunswick	-0.1577871
-3.673906	bruschetta	-0.1959622
-4.623237	bruschetta's	-0.1521806
-4.417658	brushed	-0.2167328
-4.623237	bryan	-0.1436896
-4.623237	bryant	-0.1588655
-4.623237	brynne	-0.156899
-4.417658	bu	-0.1422147
-4.483365	bucket	-0.156579
-4.417658	buckhorn	-0.3338112
-3.783779	bucks	-0.2325443
-4.483365	bud	-0.1411144
-4.267513	buddy	-0.1382332
-4.623237	budea	-0.1580317
-4.623237	budget	-0.1556776
-4.623237	buena	-0.1590918
-3.154108	buffalo	-0.5971406
-4.623237	bug	-0.159098
-4.156153	build	-0.1832469
-3.513421	building	-0.2243799
-4.623237	buildings	-0.1436896
-4.483365	built	-0.154803
-4.623237	bullshit	-0.1581308
-4.267513	bump	-0.1844537
-4.623237	bumpies	-0.1560092
-4.623237	bun	-0.1557743
-4.483365	bunch	-0.1503695
-4.623237	bund	-0.1557743
-3.154108	bundle	-0.1840993
-4.623237	bundled	-0.1560161
-3.994079	bundles	-0.1880997
-4.483365	bundling	-0.1420282
-4.417658	bur	-0.2183121
-4.267513	burbank	-0.1319144
-4.623237	burdon	-0.1436896
-4.417658	burger	-0.1867285
-4.623237	burl	-0.1578146
-4.623237	burli	-0.1589958
-3.586293	burlington	-0.4024642
-4.623237	burn	-0.1574844
-4.483365	burned	-0.1556332
-4.483365	burnham	-0.1522194
-3.783779	burnhamthorpe	-0.4632938
-4.156153	burnt	-0.2113986
-4.623237	burntwood	-0.1577871
-4.483365	burton	-0.1548123
-4.483365	bus	-0.1590266
-4.067599	business	-0.2449119
-4.417658	busy	-0.1519238
-2.352342	but	-0.4766837
-4.483365	butter	-0.1401742
-4.623237	butterfly	-0.155719
-4.623237	buttery	-0.1589066
-4.417658	button	-0.1341931
-4.623237	buttons	-0.1436896
-3.931221	buy	-0.1884927
-3.586293	buzz	-0.3825065
-3.451039	buzzer	-0.3041603
-4.483365	buzzes	-0.2113308
-2.840651	by	-0.3622514
-2.98598	bye	-0.6391721
-4.623237	byr	-0.1574844
-2.850258	c	-0.3294982
-3.82759	ca	-0.1817162
-4.623237	caarleton	-0.1587488
-4.623237	cab	-0.1582614
-4.623237	caches	-0.155738
-3.451039	caesar	-0.3521205
-4.417658	cairncroft	-0.1984482
-4.623237	cajun	-0.1548614
-4.483365	cake	-0.1425184
-4.623237	cakes	-0.1436896
-4.623237	cal	-0.1588998
-4.417658	calamari	-0.3339621
-4.417658	calculate	-0.2120228
-4.483365	caledon	-0.2471865
-4.417658	caledonia	-0.2016535
-4.417658	cali	-0.2196937
-3.073984	call	-0.3243528
-3.304475	called	-0.172019
-3.513421	calling	-0.1792318
-4.417658	calls	-0.1509678
-4.623237	calories	-0.1421137
-4.623237	calum	-0.1436896
-4.623237	calvert	-0.1587488
-4.623237	cambrian	-0.1590781
-3.931221	cambridge	-0.3099151
-3.707533	came	-0.2261294
-4.623237	camila	-0.1583713
-4.623237	campaign	-0.159098
-4.623237	camping	-0.1580483
-2.294624	can	-0.481589
-3.673906	can't	-0.1777071
-4.623237	canad	-0.154418
-3.396502	canada	-0.6279218
-4.156153	canada's	-0.5559549
-3.348055	canadian	-0.2544891
-4.483365	canard	-0.2538646
-4.623237	canberra	-0.158536
-3.536379	cancel	-0.3586785
-4.623237	canceled	-0.154418
-4.156153	cancelled	-0.1612413
-4.483365	cancelling	-0.1400811
-4.417658	cancer	-0.1651124
-4.623237	canda	-0.1436896
-4.623237	candey	-0.1430538
-4.483365	candles	-0.2471865
-4.623237	cane	-0.1590918
-4.623237	cani	-0.1586322
-4.623237	cannen	-0.1436896
-4.483365	cannon	-0.1403133
-4.267513	cannot	-0.1588219
-3.432088	cans	-0.4329027
-4.623237	canterbury	-0.1586116
-4.623237	canvas	-0.159098
-4.623237	cape	-0.159098
-4.267513	capicola	-0.1941124
-4.623237	capicollo	-0.1589135
-4.417658	capital	-0.2193298
-4.483365	capocollo	-0.1584713
-4.623237	capri	-0.1577183
-4.483365	car	-0.1548163
-4.623237	cara	-0.1436896
-4.067599	caramel	-0.3634841
-3.586293	caramelized	-0.60975
-4.623237	carb	-0.155719
-3.994079	carbs	-0.3075601
-3.470854	card	-0.219786
-4.623237	card's	-0.1576151
-4.623237	cardboard	-0.1565267
-4.417658	cardholder	-0.1586332
-4.067599	care	-0.1219403
-4.483365	careful	-0.1392882
-4.623237	carina	-0.158282
-4.623237	carl	-0.1590438
-4.623237	carla	-0.1436896
-4.483365	carleton	-0.2537548
-3.82759	carling	-0.3040473
-4.483365	carlisle	-0.2524903
-4.417658	carlos	-0.1396941
-4.623237	carlson	-0.1577871
-4.483365	carlton	-0.2524903
-4.483365	carly	-0.251905
-4.623237	carmelita	-0.1436896
-4.623237	carmen	-0.158282
-4.483365	carmen's	-0.2471865
-4.623237	carol	-0.1436896
-4.623237	caromont	-0.1521806
-4.623237	carport	-0.1436896
-4.483365	carriage	-0.253844
-4.483365	carrie	-0.1542418
-4.623237	carried	-0.1560161
-3.931221	carry	-0.1604301
-4.623237	cart	-0.1569375
-4.483365	carter	-0.1392524
-4.623237	cartier	-0.1584949
-4.267513	case	-0.1386979
-4.623237	caser	-0.1589615
-4.623237	cases	-0.1573261
-4.623237	casey	-0.1566204
-2.947871	cash	-0.3877434
-4.067599	cass	-0.1604969
-4.483365	cassandra	-0.1428225
-4.623237	cassy	-0.1550898
-4.483365	cat	-0.1364382
-4.267513	catch	-0.1864554
-4.623237	categories	-0.1576426
-4.267513	catering	-0.1278227
-4.623237	catharine's	-0.1560437
-4.483365	catharines	-0.1525244
-4.156153	catherine	-0.154966
-4.483365	catherine's	-0.2020896
-4.483365	cats	-0.1368961
-4.417658	cattail	-0.1566244
-4.623237	catwalk	-0.1589889
-4.417658	cau	-0.1504796
-4.623237	caught	-0.155719
-3.22858	cauli	-0.5143924
-4.623237	cauliblanca	-0.1521806
-4.483365	caulicrust	-0.1570752
-4.623237	caulificurst	-0.1560161
-4.483365	caulifl	-0.1519441
-4.417658	cauliflo	-0.1413114
-2.907265	cauliflower	-0.4645584
-4.623237	cauliflowers	-0.1560092
-4.623237	caulifrower	-0.1590918
-4.623237	caulipesto	-0.1574637
-3.163996	cause	-0.3258432
-4.623237	caused	-0.1562025
-4.623237	causes	-0.1590849
-4.483365	cavell	-0.1423204
-4.623237	cawthra	-0.1362865
-4.623237	cea	-0.154418
-4.623237	ceasar	-0.1583987
-4.483365	cecil	-0.1411185
-4.483365	cecile	-0.1414001
-4.623237	ced	-0.1590781
-4.483365	cedar	-0.1569099
-4.623237	cedarbrae	-0.1521806
-4.623237	celebrate	-0.1561857
-4.623237	celiac	-0.1554189
-4.623237	celine	-0.1554673
-4.156153	cell	-0.3456929
-4.417658	cellphone	-0.1339721
-3.743985	cent	-0.2444318
-4.483365	centennial	-0.2541001
-3.470854	center	-0.2441121
-4.417658	centerfield	-0.2035521
-3.707533	central	-0.3810597
-4.483365	centralized	-0.1554189
-3.673906	centre	-0.204734
-3.333037	cents	-0.3780367
-3.994079	certain	-0.222304
-3.783779	certainly	-0.1606304
-4.623237	cesar	-0.1589615
-4.156153	ch	-0.1325137
-4.623237	chadia	-0.1436896
-4.623237	chalk	-0.1590781
-4.483365	champagne	-0.1434805
-4.417658	chance	-0.1823616
-4.623237	chaney	-0.1576839
-3.195089	change	-0.3165372
-3.82759	changed	-0.1836773
-4.483365	changes	-0.1421993
-4.267513	changing	-0.1513838
-4.623237	chantal	-0.1584949
-3.264872	charge	-0.2188035
-3.931221	charged	-0.2171168
-4.067599	charges	-0.1143789
-3.994079	charging	-0.1424622
-4.483365	charlene	-0.2526899
-4.156153	charlie	-0.1708191
-4.623237	charm	-0.156899
-4.623237	charmaine	-0.1436896
-4.623237	chateau	-0.1574844
-4.067599	che	-0.2616453
-4.483365	cheap	-0.150884
-3.304475	cheaper	-0.2749844
-4.483365	cheapest	-0.1978645
-3.432088	check	-0.2042421
-4.483365	checked	-0.153409
-4.267513	checking	-0.1350259
-4.623237	checks	-0.1587625
-3.184475	cheddar	-0.4488806
-4.417658	cheddars	-0.1672078
-4.483365	chee	-0.15602
-4.623237	chees	-0.1568232
-2.648124	cheese	-0.333564
-4.156153	cheeseburger	-0.1998779
-4.623237	cheesecake	-0.1590575
-4.623237	cheesegub	-0.1590781
-4.623237	cheesey	-0.1589341
-3.586293	cheesy	-0.5438676
-4.067599	cheetos	-0.1438496
-4.483365	chela	-0.1582402
-4.623237	chelsea	-0.1425911
-4.067599	chemong	-0.2269379
-4.623237	cherie	-0.158282
-4.623237	cherry	-0.1587008
-4.623237	chester	-0.1590941
-4.623237	chestnut	-0.1574844
-4.483365	cheval	-0.2541001
-4.623237	chevony	-0.1576839
-4.156153	chi	-0.1818031
-4.623237	chic	-0.1581583
-4.417658	chick	-0.2149049
-4.623237	chicke	-0.1589615
-2.660496	chicken	-0.3681442
-4.623237	chicken's	-0.1562025
-4.483365	chickens	-0.1517246
-4.623237	chico	-0.1436896
-4.623237	child	-0.1590712
-4.623237	children	-0.1548614
-3.304475	chili	-0.2971449
-4.483365	chilies	-0.1439971
-3.707533	chilli	-0.5264822
-4.623237	chimo	-0.1590644
-4.623237	chin	-0.1581308
-4.417658	chingacousy	-0.1940158
-4.067599	chingcousy	-0.2625719
-4.483365	chinguacousy	-0.1507681
-4.623237	chintsy	-0.1560092
-4.156153	chip	-0.2178794
-3.379745	chipotle	-0.4421234
-3.099085	chips	-0.1916619
-4.623237	chisholm	-0.1436896
-4.623237	cho	-0.1548129
-4.156153	chocolate	-0.3344859
-3.931221	choice	-0.1705136
-4.067599	choices	-0.1900249
-3.586293	choose	-0.2583607
-4.623237	choosen	-0.155719
-4.483365	choosing	-0.2029606
-3.642696	chorizo	-0.4683184
-4.417658	chose	-0.188382
-3.82759	chris	-0.2002874
-4.623237	chrissy	-0.1576839
-4.623237	christ	-0.1584262
-4.623237	christ's	-0.159098
-4.623237	christie	-0.1574844
-4.417658	christine	-0.3333443
-4.623237	chua	-0.158282
-4.417658	chunks	-0.1365321
-4.417658	church	-0.1760638
-4.623237	churchill	-0.1517804
-4.623237	ci	-0.154889
-4.623237	cilan	-0.157622
-3.743985	cilantro	-0.1770783
-4.483365	cin	-0.1590471
-4.417658	cinco	-0.2183741
-3.931221	cindy	-0.1912145
-4.623237	cinema	-0.1436896
-3.743985	circle	-0.3604164
-4.623237	circuit	-0.1436896
-4.483365	citibank	-0.1365093
-4.623237	cities	-0.1584674
-3.536379	city	-0.198858
-4.623237	clair	-0.1577871
-4.156153	claire	-0.162365
-4.623237	clamark	-0.1577183
-4.483365	claredale	-0.1534228
-4.623237	clarence	-0.1574844
-4.417658	clarify	-0.1672589
-4.156153	clarington	-0.1646817
-4.623237	clarity	-0.1436896
-4.483365	clark	-0.1296719
-4.623237	clarkson	-0.1574844
-4.623237	class	-0.1436896
-3.020509	classic	-0.392072
-3.994079	classics	-0.1817401
-4.623237	classing	-0.1585017
-4.623237	claude	-0.1576839
-4.483365	claudette	-0.1428332
-4.417658	clean	-0.1508804
-3.743985	clear	-0.1653119
-4.623237	clearing	-0.154418
-4.483365	clearly	-0.1431036
-4.417658	click	-0.192744
-4.623237	clicked	-0.1560092
-4.623237	clicking	-0.1560092
-4.417658	clifton	-0.2199132
-4.623237	clinton	-0.156899
-4.267513	clock	-0.1772929
-3.451039	close	-0.464925
-4.267513	closed	-0.182657
-4.067599	closer	-0.2899435
-4.267513	closest	-0.142026
-4.483365	clowes	-0.1568685
-3.783779	club	-0.4307841
-4.623237	clubhouse	-0.1580346
-4.623237	clue	-0.1582545
-4.483365	clydesdale	-0.1584164
-4.156153	co	-0.1422972
-4.417658	coated	-0.1808166
-4.417658	cobourg	-0.2040148
-4.623237	coby	-0.1579177
-3.413931	coca	-0.9032738
-4.623237	cod	-0.1582339
-3.560619	code	-0.220619
-4.623237	codes	-0.1540753
-4.623237	coincidences	-0.155719
-4.623237	coka	-0.1585978
-2.930001	coke	-0.4252149
-4.417658	coke's	-0.1565761
-3.743985	cokes	-0.1875944
-3.994079	cola	-0.1306072
-4.483365	colas	-0.120478
-4.623237	colberrie	-0.1551975
-4.417658	colby	-0.1409726
-4.483365	cold	-0.1541447
-4.623237	cole	-0.159098
-4.623237	colin	-0.158282
-4.623237	collect	-0.1560161
-4.623237	collecting	-0.154418
-3.783779	college	-0.2578924
-4.483365	collier	-0.253542
-3.673906	collingwood	-0.1929617
-4.623237	collins	-0.1588655
-4.623237	colt	-0.1436896
-4.623237	com	-0.152108
-3.994079	combination	-0.5105436
-4.623237	combination's	-0.1583644
-4.417658	combine	-0.1484637
-3.994079	combined	-0.1316955
-3.470854	combo	-0.1874513
-4.417658	combos	-0.1363515
-2.831253	come	-0.4718039
-4.623237	comeback	-0.155719
-2.890961	comes	-0.5491008
-4.483365	comfort	-0.2540703
-3.432088	coming	-0.3499252
-4.623237	comment	-0.1563681
-4.483365	commercial	-0.251022
-4.483365	common	-0.1520911
-4.623237	community	-0.1589615
-4.623237	company	-0.1521806
-4.623237	compare	-0.1587008
-4.623237	compared	-0.1563681
-4.623237	compensate	-0.1557674
-4.483365	compensation	-0.2134593
-4.623237	complain	-0.1571746
-4.623237	complained	-0.1516548
-4.483365	complaining	-0.2386955
-4.067599	complaint	-0.1356555
-3.994079	complete	-0.2157172
-4.623237	completed	-0.1556776
-4.156153	completely	-0.1933847
-4.623237	complex	-0.1436896
-4.623237	complicated	-0.1559677
-4.623237	complicating	-0.157622
-4.483365	complimentary	-0.1431961
-4.156153	computer	-0.1914806
-4.483365	con	-0.1590838
-4.623237	concern	-0.1548129
-4.623237	concerns	-0.1436896
-4.623237	concession	-0.1577183
-4.483365	concierge	-0.1532005
-4.623237	concluded	-0.156837
-4.623237	concordion	-0.1580346
-4.623237	condiment	-0.1548614
-4.483365	condiments	-0.1568128
-4.067599	condo	-0.1772999
-4.483365	condominium	-0.2045268
-4.483365	conestoga	-0.1418712
-4.623237	confederation	-0.1590941
-4.623237	confident	-0.1560161
-4.623237	confidential	-0.1571539
-4.623237	configure	-0.1557743
-3.451039	confirm	-0.2421837
-4.267513	confirmation	-0.1307839
-4.483365	confirmed	-0.1406782
-3.876322	confirming	-0.1831075
-4.623237	confu	-0.1578146
-4.483365	confuse	-0.1545814
-4.067599	confused	-0.1700574
-4.623237	confusing	-0.1550176
-4.623237	confusion	-0.1436896
-4.623237	congra	-0.1436896
-4.156153	congratulations	-0.4528766
-4.623237	conlin	-0.1565267
-4.417658	connect	-0.1515682
-4.623237	connecting	-0.1557743
-4.417658	connection	-0.2045552
-4.623237	connectivity	-0.1581652
-4.623237	connie	-0.1436896
-4.623237	conrad	-0.1587488
-3.707533	conservation	-0.3090667
-4.483365	conservatory	-0.252332
-4.623237	consider	-0.1557743
-3.994079	considered	-0.2027264
-4.483365	considering	-0.1558957
-4.623237	constantly	-0.1589683
-4.623237	constr	-0.1562025
-4.623237	construct	-0.1550898
-4.623237	construction	-0.155719
-4.623237	consumer	-0.1590369
-4.267513	contact	-0.1795278
-4.623237	contain	-0.1584056
-4.623237	container	-0.1427051
-4.417658	contains	-0.2172368
-4.483365	contamination	-0.1403133
-4.417658	continue	-0.1480378
-4.067599	convenience	-0.187666
-4.483365	convenient	-0.1585194
-4.623237	convention	-0.1590164
-4.623237	conversation	-0.158591
-4.623237	converted	-0.155719
-4.623237	conway	-0.1436896
-3.783779	cooked	-0.1459275
-4.483365	cooking	-0.1521661
-3.994079	cool	-0.206585
-4.483365	cooper	-0.2386955
-4.267513	cooperage	-0.1339328
-4.623237	cooperate	-0.1568301
-4.623237	cope	-0.1559125
-4.623237	cora	-0.1436896
-4.483365	core	-0.1584645
-4.623237	corect	-0.1436896
-4.417658	corn	-0.2022879
-3.743985	corner	-0.4129632
-4.623237	cornerbroo	-0.1436896
-4.267513	cornerbrook	-0.2473259
-4.483365	corners	-0.2386955
-4.417658	cornwall	-0.2014531
-4.623237	corporate	-0.1590712
-2.75085	correct	-0.4944357
-4.417658	correctly	-0.139357
-4.623237	corresponds	-0.1563681
-4.623237	corry	-0.1574844
-4.623237	corsair	-0.1577183
-4.623237	cory	-0.1436896
-4.623237	cosca	-0.1436896
-3.264872	cost	-0.3287711
-4.267513	costing	-0.4550909
-3.743985	costs	-0.338306
-4.267513	cote	-0.2023738
-4.623237	coto	-0.1590849
-4.483365	cottage	-0.2540566
-4.623237	cottonwood	-0.1580346
-4.623237	cottrell	-0.1587145
-3.994079	cottrelle	-0.2593623
-4.623237	cou	-0.154889
-2.80861	could	-0.5076773
-3.994079	couldn't	-0.1819493
-4.267513	count	-0.1713148
-4.623237	countdown	-0.1590438
-4.623237	counted	-0.1576702
-3.876322	country	-0.2256131
-4.417658	countryside	-0.2022167
-4.623237	counts	-0.1576702
-4.623237	county	-0.1566233
-4.483365	couple	-0.1701514
-4.483365	coupon	-0.1436723
-4.623237	coupons	-0.1587008
-4.623237	course	-0.07339324
-3.252435	court	-0.3539764
-4.267513	courtice	-0.1514746
-4.623237	courtney	-0.1590849
-4.483365	courts	-0.1415215
-4.623237	cove	-0.1436896
-4.156153	cover	-0.1724925
-4.623237	covered	-0.156837
-4.623237	cowrywise	-0.1588312
-3.931221	coz	-0.1707719
-4.156153	cr	-0.2181824
-4.623237	crack	-0.1590438
-4.623237	craig	-0.156899
-4.623237	crap	-0.1570162
-4.623237	crash	-0.1436896
-4.623237	crashed	-0.1436896
-4.483365	craving	-0.1534645
-4.156153	crazy	-0.1621014
-4.067599	cre	-0.1335123
-4.623237	crea	-0.1572021
-3.205968	cream	-0.6505103
-4.623237	creams	-0.1436896
-2.766584	creamy	-0.727564
-4.417658	create	-0.2173818
-3.134982	credit	-0.2833017
-4.623237	credited	-0.154418
-4.623237	crediton	-0.159098
-4.067599	credits	-0.1574459
-4.067599	creditview	-0.1984157
-4.417658	creek	-0.1234161
-4.483365	creme	-0.2540497
-2.880422	crescent	-0.6079957
-4.623237	cresent	-0.1436896
-4.483365	cresthaven	-0.2172438
-4.483365	crisp	-0.139317
-3.451039	crispy	-0.2775382
-4.623237	cristen	-0.1586116
-4.623237	crombie	-0.1559677
-4.267513	cross	-0.1403567
-3.931221	crossing	-0.1891443
-4.623237	crosswalk	-0.157505
-4.417658	cru	-0.1541695
-4.623237	crum	-0.1436896
-3.642696	crumble	-0.05903911
-4.623237	crumble's	-0.1588929
-3.513421	crumbled	-0.5844972
-4.067599	crumbles	-0.1319644
-4.156153	crumbs	-0.2849267
-4.623237	crunch	-0.1563681
-3.613579	crunchy	-0.5277292
-3.673906	crush	-0.1964313
-4.417658	crushes	-0.1974845
-3.163996	crust	-0.1293288
-4.483365	crusted	-0.2524697
-4.417658	crusts	-0.152495
-4.623237	crutches	-0.1436896
-4.623237	cry	-0.1584743
-4.417658	crystal	-0.2157776
-4.623237	cu	-0.1590781
-4.623237	cubical	-0.1436896
-4.623237	cul	-0.1590438
-4.623237	cunchy	-0.1590232
-4.623237	cundles	-0.1556747
-4.623237	cup	-0.1573261
-4.623237	cure	-0.159098
-4.623237	curiosity	-0.1410644
-4.483365	curious	-0.1520452
-4.623237	curr	-0.1436896
-3.673906	current	-0.3302408
-3.994079	currently	-0.1669856
-4.623237	curtis	-0.158282
-4.483365	cushman	-0.1422492
-4.623237	custom	-0.1574637
-3.318521	customer	-0.5555024
-4.623237	customer's	-0.1587145
-3.994079	customers	-0.1416076
-4.156153	customize	-0.1446427
-4.623237	customized	-0.1574637
-3.536379	cut	-0.2530161
-4.623237	cute	-0.139525
-4.483365	cutler	-0.1518919
-4.623237	cuts	-0.155719
-3.82759	cutting	-0.282522
-3.304475	cuz	-0.441105
-4.623237	cvv	-0.1560092
-4.623237	cyr	-0.1548267
-3.195089	d	-0.3812481
-4.623237	da	-0.1590164
-3.994079	dad	-0.133639
-4.483365	daddy	-0.1424914
-3.264872	dairy	-0.8239546
-4.623237	daisy	-0.1576839
-4.623237	dalal	-0.1521806
-4.267513	dale	-0.1545063
-4.623237	dallas	-0.1590369
-4.623237	damian	-0.1577871
-4.417658	damn	-0.152339
-4.156153	dan	-0.1814428
-4.623237	dandy	-0.1576839
-4.623237	dane	-0.1577871
-3.673906	danforth	-0.207693
-4.267513	daniel	-0.1582016
-4.623237	daniels	-0.1590781
-4.417658	danny	-0.1425739
-4.623237	danrilk	-0.1436896
-4.483365	dar	-0.1570684
-4.623237	darco	-0.15833
-4.623237	darius	-0.159098
-4.623237	dark	-0.1588929
-4.267513	darren	-0.1530904
-4.623237	darryl	-0.1436896
-4.483365	daryl	-0.1841477
-4.623237	dasani	-0.1590849
-4.623237	dashi	-0.1576839
-4.483365	data	-0.1588488
-4.417658	database	-0.1532462
-4.156153	date	-0.2142859
-4.483365	daughter	-0.1776809
-4.623237	dave	-0.1424416
-4.623237	daventry	-0.158536
-3.931221	david	-0.1541645
-4.483365	davis	-0.1425769
-4.623237	davisville	-0.1424416
-4.623237	dawford	-0.1587488
-4.483365	dawn	-0.1563583
-4.417658	dawson	-0.1814086
-3.783779	day	-0.2574935
-4.267513	days	-0.1989421
-3.82759	de	-0.1271633
-4.623237	dead	-0.1590438
-3.082191	deal	-0.2509837
-4.623237	dealership	-0.1560437
-4.623237	dealing	-0.1559125
-3.642696	deals	-0.1641852
-4.483365	dean	-0.2539126
-4.067599	dear	-0.2121063
-4.417658	deb	-0.1432287
-4.623237	debbie	-0.158282
-3.058022	debit	-0.3522317
-4.623237	debit's	-0.1588929
-4.483365	debits	-0.1406782
-4.623237	debt	-0.1436896
-4.267513	decarie	-0.1353751
-3.994079	decide	-0.1395858
-4.483365	decided	-0.251374
-4.623237	decision	-0.1550898
-3.195089	deep	-1.033323
-4.623237	deeper	-0.1589683
-4.483365	deer	-0.1588351
-4.623237	def	-0.157622
-4.623237	default	-0.1510476
-4.623237	defect	-0.1557743
-3.642696	definitely	-0.1451101
-4.483365	deidre	-0.1523976
-4.623237	del	-0.1583644
-4.156153	delaware	-0.2857874
-4.417658	delay	-0.1325053
-4.623237	delayed	-0.1565267
-4.267513	delete	-0.2481866
-3.994079	deli	-0.3344824
-3.82759	delicious	-0.2902625
-4.623237	delight	-0.1340157
-4.623237	delightful	-0.1589341
-4.483365	deliv	-0.1494743
-3.318521	deliver	-0.363851
-3.432088	delivered	-0.252681
-4.623237	deliveries	-0.1436896
-4.156153	delivering	-0.2057548
-4.623237	delivers	-0.1563681
-2.766584	delivery	-0.3246236
-4.623237	delivery's	-0.1583369
-4.156153	delta	-0.1948172
-3.707533	deluxe	-0.2347258
-4.623237	denison	-0.1420068
-4.623237	denmanvale	-0.1558503
-4.483365	denmar	-0.2527243
-4.623237	denmark	-0.1577183
-4.623237	dennis	-0.1580346
-4.156153	dennison	-0.5543956
-4.623237	denpass	-0.1521806
-4.623237	dental	-0.1590849
-4.067599	department	-0.1322618
-4.623237	departments	-0.1577802
-4.156153	depending	-0.3616405
-3.876322	depends	-0.2602144
-4.623237	depot	-0.1436896
-3.743985	derry	-0.4257129
-4.623237	dery	-0.1583644
-4.623237	describe	-0.1557743
-4.623237	desert	-0.1560092
-4.483365	deserts	-0.1365093
-4.623237	deserve	-0.1562025
-4.483365	desired	-0.1565761
-4.623237	desk	-0.1316297
-3.82759	dessert	-0.2666781
-3.994079	desserts	-0.169844
-4.483365	detail	-0.1408499
-4.417658	details	-0.1241278
-4.623237	deven	-0.1578146
-4.483365	devere	-0.1565652
-4.623237	devon	-0.1581652
-4.623237	devonhurst	-0.1436896
-4.623237	dew	-0.1436896
-3.994079	di	-0.1650635
-4.623237	dial	-0.1562025
-4.483365	diameter	-0.1346316
-4.623237	diamond	-0.1580346
-4.623237	diana	-0.158282
-4.483365	diane	-0.1428332
-4.623237	diary	-0.1587968
-4.623237	dicese	-0.1577183
-4.623237	dick	-0.1548129
-2.758646	did	-0.6334693
-4.623237	didding	-0.1584262
-3.613579	didn't	-0.1746041
-3.163996	diet	-0.6519104
-4.623237	diets	-0.1436896
-4.623237	dif	-0.1586596
-4.623237	diff	-0.154418
-3.82759	difference	-0.1898567
-3.318521	different	-0.1662065
-4.623237	differently	-0.1568301
-4.156153	difficult	-0.134023
-4.067599	digit	-0.2431335
-4.417658	digits	-0.1785256
-4.623237	dilan	-0.1436896
-3.707533	dill	-0.2503986
-4.417658	dinner	-0.2188924
-3.304475	dip	-0.2232545
-4.623237	dipper	-0.1573467
-2.787089	dipping	-0.7751506
-4.417658	dippings	-0.2176438
-3.348055	dips	-0.255996
-4.623237	direction	-0.1563681
-3.876322	directly	-0.1886954
-4.623237	directory	-0.1436896
-4.623237	dirinks	-0.1588449
-4.483365	disappeared	-0.1513478
-4.623237	disappointed	-0.155719
-4.623237	disappointing	-0.1436896
-4.417658	disconnect	-0.2120228
-4.156153	disconnected	-0.1515505
-4.623237	discontinue	-0.1557743
-4.067599	discontinued	-0.2016761
-4.156153	discount	-0.1316235
-4.623237	discounts	-0.1558503
-4.623237	discuss	-0.1559125
-4.483365	dish	-0.128137
-4.623237	dishes	-0.154897
-4.623237	disney	-0.1588655
-4.623237	distance	-0.1559125
-4.623237	distinctly	-0.1590369
-4.623237	district	-0.1590941
-4.623237	divide	-0.1586047
-4.483365	divided	-0.142819
-4.067599	division	-0.2192722
-4.623237	dixi	-0.1590164
-3.673906	dixie	-0.3730971
-4.623237	dixon	-0.154318
-2.364866	do	-0.4047118
-4.417658	dobson	-0.327243
-4.623237	doe	-0.1578146
-3.027757	does	-0.4752554
-3.290869	doesn't	-0.2408565
-3.470854	doing	-0.3068724
-4.623237	dokey	-0.153892
-4.483365	dol	-0.1577429
-4.417658	doll	-0.1526412
-4.623237	dolla	-0.1577596
-3.174115	dollar	-0.3407276
-3.290869	dollars	-0.3501231
-4.483365	dominic	-0.1402273
-3.82759	don	-0.3330599
-3.082191	don't	-0.2633439
-4.483365	donair	-0.2534321
-4.623237	donald	-0.1577871
-4.623237	donate	-0.1500587
-4.623237	donating	-0.1562025
-4.417658	donation	-0.1378404
-3.348055	done	-0.09010183
-4.623237	dong	-0.1582614
-4.483365	donna	-0.1546339
-4.483365	donovan	-0.1547985
-4.623237	donway	-0.1589135
-3.560619	door	-0.1565617
-4.417658	door's	-0.1493685
-4.156153	doorbell	-0.1400793
-4.623237	doorbell's	-0.1589066
-4.623237	doors	-0.1584811
-4.623237	dor	-0.1590712
-4.623237	dori	-0.154889
-4.623237	dorit	-0.1590438
-3.82759	dorito	-0.321946
-3.264872	doritos	-0.4195539
-4.417658	dot	-0.1400232
-2.924205	double	-0.4925958
-4.623237	doubling	-0.1584468
-4.623237	doubt	-0.1557743
-3.451039	dough	-0.2112931
-4.623237	doughnut	-0.1586116
-4.623237	douglas	-0.1436896
-3.333037	down	-0.1878551
-4.417658	downey's	-0.3341404
-4.623237	download	-0.1557743
-4.483365	downs	-0.1551214
-3.673906	downstairs	-0.2505128
-3.82759	downtown	-0.3166789
-4.623237	dozen	-0.1436896
-4.623237	dr	-0.1588312
-4.623237	drake	-0.1436896
-4.623237	dress	-0.1254158
-4.267513	dressed	-0.1115653
-3.560619	dressing	-0.2009264
-4.483365	dressings	-0.1522165
-4.483365	dri	-0.1547061
-4.623237	dried	-0.142692
-4.623237	dries	-0.152484
-3.318521	drink	-0.183353
-4.417658	drinking	-0.2198652
-2.960206	drinks	-0.336451
-2.607403	drive	-0.4418346
-3.931221	driver	-0.1237416
-4.483365	driver's	-0.1523558
-4.483365	drivers	-0.1562064
-4.623237	drives	-0.1436896
-4.623237	driveway	-0.1436896
-4.417658	driving	-0.1479505
-4.623237	drizzle	-0.1436896
-4.623237	drizzled	-0.1560092
-4.417658	drop	-0.1539822
-4.417658	drug	-0.3341565
-4.623237	drummond	-0.1521806
-4.483365	drums	-0.1560338
-4.067599	dry	-0.1044468
-4.623237	dry's	-0.1436896
-4.623237	drys	-0.1521806
-4.623237	du	-0.1590838
-4.483365	due	-0.1544636
-4.067599	dufferin	-0.2213206
-4.623237	duh	-0.1583644
-4.623237	dumb	-0.1590849
-4.623237	dumped	-0.1568232
-4.417658	duncan	-0.1410536
-4.623237	dundamar	-0.1577871
-3.264872	dundas	-0.7313778
-4.623237	dundeman	-0.1521806
-4.067599	dundurn	-0.2200177
-4.623237	dunno	-0.1421843
-4.483365	duplex	-0.2031246
-4.483365	duplicate	-0.1510476
-4.483365	dupont	-0.2029819
-4.483365	durham	-0.1505304
-4.623237	dust	-0.1571539
-4.483365	dustin	-0.1389622
-4.623237	dusty	-0.1590164
-4.417658	dutch	-0.3341604
-3.027757	e	-0.4523711
-3.318521	each	-0.1741331
-4.623237	eagle's	-0.1590781
-4.417658	eaglemount	-0.3335984
-4.483365	eagles	-0.254084
-4.623237	eagleson	-0.1422492
-4.483365	earl	-0.1586865
-4.067599	earlier	-0.1416564
-4.067599	earls	-0.4578184
-4.417658	early	-0.1835419
-4.623237	earned	-0.1387251
-4.156153	easier	-0.1472293
-4.623237	easiest	-0.1578146
-4.623237	easily	-0.1590301
-3.536379	east	-0.1974434
-4.267513	eastdale	-0.2784805
-3.264872	easy	-0.7391989
-3.783779	eat	-0.2147771
-4.267513	eating	-0.195899
-4.623237	eats	-0.1548129
-4.417658	ecclestom	-0.1353781
-4.623237	eccleston	-0.1558503
-4.623237	ecclestone	-0.1550898
-4.267513	echo	-0.1880393
-4.623237	echoing	-0.1560092
-4.483365	economical	-0.139727
-4.483365	ed	-0.142794
-4.623237	eddie	-0.1548614
-4.417658	eden	-0.1519081
-4.623237	eder	-0.1436896
-4.483365	edge	-0.137297
-4.623237	edgemont	-0.1574844
-4.623237	edgewater	-0.1590695
-4.623237	edison	-0.1436896
-3.783779	edmonton	-0.2768485
-4.623237	edmund	-0.1574844
-4.623237	edna	-0.1576839
-4.623237	ednon	-0.1580483
-4.267513	edward	-0.2311937
-4.623237	effort	-0.1563681
-4.623237	efren	-0.158282
-4.483365	egg	-0.1399091
-4.417658	eglington	-0.1804186
-3.994079	eglinton	-0.231557
-3.290869	eh	-0.2333618
-4.623237	ei	-0.1548267
-4.623237	eigh	-0.157794
-2.77467	eight	-0.4076501
-2.992669	eighteen	-0.3814238
-4.483365	eighth	-0.2539606
-3.174115	eighty	-0.6538311
-4.623237	eighy	-0.1583781
-4.623237	eighyt	-0.1580827
-3.379745	either	-0.1515772
-4.623237	elaine	-0.1587008
-4.623237	elcid	-0.1576839
-4.483365	ele	-0.2536587
-4.623237	elephan	-0.1588312
-4.623237	elephant	-0.1432957
-2.979391	eleven	-0.4175825
-4.623237	eleventh	-0.1577871
-3.994079	elgin	-0.2240895
-4.623237	eli	-0.158282
-4.623237	elington	-0.1521806
-4.417658	elizabeth	-0.1738756
-4.623237	elle	-0.158282
-4.623237	ellington	-0.1577871
-4.623237	ellis	-0.158536
-3.931221	elm	-0.5048028
-4.483365	elmer	-0.1534784
-3.673906	else	-0.08963226
-4.483365	else's	-0.1584439
-4.156153	elsinore	-0.2390345
-4.623237	elwin	-0.1577183
-4.623237	em	-0.1581652
-3.783779	email	-0.1850574
-4.623237	emailed	-0.1583644
-4.623237	emar	-0.1576839
-4.623237	emelena	-0.158536
-4.623237	emergency	-0.1571815
-4.623237	emilio	-0.1548614
-4.267513	emily	-0.2130424
-4.483365	emma	-0.1538643
-4.623237	employer	-0.1590918
-3.82759	end	-0.2378083
-4.623237	ends	-0.1580483
-4.623237	ener	-0.159098
-4.623237	energy	-0.1560437
-4.623237	eng	-0.156899
-4.623237	englinton	-0.1436896
-4.067599	english	-0.1608292
-4.623237	enjo	-0.1436896
-4.623237	enjor	-0.1568232
-3.240344	enjoy	-0.7688236
-4.623237	enjoying	-0.154418
-3.673906	enough	-0.2293878
-4.623237	enrolin	-0.1590941
-4.623237	ensure	-0.155156
-4.623237	ent	-0.1436896
-4.417658	enter	-0.1463406
-4.156153	entered	-0.1443519
-4.623237	enterprise	-0.1587145
-4.417658	entire	-0.2814311
-4.623237	entitled	-0.1563681
-4.483365	entitles	-0.2533703
-4.483365	entrance	-0.162998
-4.483365	entree	-0.2188281
-4.623237	entrees	-0.158742
-3.931221	entry	-0.76002
-4.623237	environment	-0.1584743
-4.623237	epress	-0.1590164
-4.623237	epsom	-0.1590941
-4.267513	equestrian	-0.2151591
-3.363611	er	-0.1676509
-4.623237	eramosa	-0.1590095
-4.623237	eric	-0.1436896
-4.623237	erie	-0.1385454
-3.876322	erin	-0.2399402
-4.267513	erindale	-0.2678752
-4.483365	eringate	-0.1575503
-4.156153	error	-0.1414792
-4.483365	errors	-0.1556677
-4.623237	erskine	-0.1577871
-4.623237	erson	-0.1586253
-4.623237	eslan	-0.1554673
-4.417658	especially	-0.1507931
-4.623237	esquimault	-0.1587008
-3.931221	essa	-0.2872952
-4.623237	essas	-0.1521806
-4.483365	essentially	-0.1527833
-4.417658	esso	-0.3341267
-4.623237	est	-0.1436896
-4.623237	estimate	-0.1573261
-4.483365	eta	-0.1402273
-4.623237	ethan	-0.158282
-3.743985	etobicoke	-0.2742492
-4.623237	europe	-0.1558503
-4.417658	eva	-0.1550009
-4.623237	evelyn	-0.1436896
-3.252435	even	-0.1740137
-3.876322	evening	-0.2186027
-4.417658	evenly	-0.2036803
-4.156153	ever	-0.1682356
-4.483365	everett	-0.2009877
-4.623237	everson	-0.1580346
-3.613579	every	-0.3497123
-3.876322	everybody	-0.1704744
-4.623237	everyone	-0.159098
-3.14444	everything	-0.1909697
-4.417658	everything's	-0.1891326
-4.623237	everywhere	-0.1568232
-4.623237	ewan	-0.158282
-3.673906	ex	-0.2089365
-3.82759	exact	-0.215915
-3.318521	exactly	-0.1863043
-4.623237	example	-0.1249445
-3.783779	excellent	-0.1750735
-3.783779	except	-0.1725853
-4.623237	exchange	-0.1571677
-4.623237	exclude	-0.1560161
-4.623237	excluding	-0.1588449
-3.673906	excuse	-0.8557722
-4.623237	exhausted	-0.1548129
-4.623237	exist	-0.1582339
-4.623237	exists	-0.1436896
-4.623237	exit	-0.1581652
-4.417658	exlarge	-0.2013622
-4.623237	expect	-0.154418
-4.623237	expecting	-0.1563681
-4.623237	expen	-0.1562025
-4.156153	expensive	-0.1396183
-4.623237	experience	-0.1560092
-4.483365	expiry	-0.1418111
-3.994079	explain	-0.2014482
-4.483365	explained	-0.1526581
-4.623237	explaining	-0.1560161
-4.483365	express	-0.1564341
-4.623237	ext	-0.1577596
-4.417658	extension	-0.2018999
-4.623237	extr	-0.1550898
-2.50851	extra	-0.5154724
-4.417658	extras	-0.1494713
-4.483365	extremely	-0.1568065
-4.483365	ey	-0.1548861
-4.483365	eyes	-0.1577291
-4.623237	ezran	-0.1576839
-3.205968	f	-0.3707941
-4.623237	fa	-0.1588037
-4.623237	fabulous	-0.157904
-4.623237	faces	-0.1560161
-4.623237	fact	-0.1409665
-4.623237	fade	-0.1587625
-4.623237	fading	-0.1436896
-4.623237	fadre	-0.158838
-4.417658	fair	-0.1564198
-4.417658	fairfax	-0.3339278
-4.417658	fairfield	-0.2182846
-4.483365	fairly	-0.1581897
-3.994079	fairview	-0.2215585
-4.623237	falconer	-0.1580346
-4.623237	fallingbrook	-0.1589615
-4.156153	falls	-0.2089497
-4.267513	familiar	-0.2353837
-4.067599	family	-0.1424432
-3.560619	fan	-0.454204
-4.623237	fancy	-0.1574637
-4.623237	fans	-0.1586871
-4.623237	fant	-0.1588037
-3.154108	fanta	-0.5788021
-4.483365	fantas	-0.1341163
-4.267513	fantastic	-0.1708523
-3.82759	far	-0.1378723
-4.483365	farhan	-0.1556747
-4.156153	farm	-0.1449163
-4.483365	farnham	-0.1422492
-4.623237	farren	-0.1436896
-4.623237	farther	-0.1571677
-4.483365	fast	-0.1402273
-3.994079	faster	-0.2131724
-4.483365	fat	-0.2538165
-4.623237	father's	-0.1436896
-4.483365	fatima	-0.1568548
-4.623237	fault	-0.1411144
-4.623237	fav	-0.1436896
-4.623237	favor	-0.1376645
-4.483365	favorite	-0.08830498
-4.623237	favorites	-0.1436896
-4.623237	favourite	-0.1541447
-4.623237	faye	-0.158282
-3.994079	fee	-0.2251229
-4.483365	feed	-0.1413216
-4.623237	feedback	-0.1555601
-4.483365	feeding	-0.140435
-4.417658	feel	-0.2779671
-4.417658	feeling	-0.1378332
-4.623237	fees	-0.1557674
-4.483365	female	-0.1388287
-4.623237	females	-0.1548129
-4.623237	fennel	-0.1577871
-3.994079	fennell	-0.2043384
-4.483365	fenside	-0.250725
-4.417658	fergus	-0.16466
-4.623237	ferhan	-0.1581652
-4.623237	fern	-0.1574844
-4.623237	ferndale	-0.1425769
-4.623237	fernwood	-0.1575159
-4.623237	ferrara	-0.1574844
-4.483365	ferry	-0.1422492
-4.623237	fest	-0.1574637
-3.304475	feta	-0.5912521
-4.623237	fetta	-0.1581308
-4.267513	few	-0.1614451
-3.931221	fi	-0.275746
-4.623237	fibers	-0.1436896
-4.623237	fiddlers	-0.1582957
-4.623237	fidin	-0.156899
-4.623237	field	-0.1436896
-4.623237	fields	-0.1436896
-4.483365	fieldstone	-0.2540566
-4.623237	fiesta	-0.1588517
-4.483365	fif	-0.1562559
-4.623237	fift	-0.1573261
-4.483365	fifte	-0.1557783
-2.860082	fifteen	-0.4115397
-4.623237	fifth	-0.158591
-2.840651	fifty	-0.4525864
-4.623237	fighting	-0.1557674
-3.82759	figure	-0.3186682
-4.483365	figured	-0.1979132
-4.267513	file	-0.1106552
-4.156153	fill	-0.3765814
-4.267513	filled	-0.1973495
-4.623237	filomena	-0.158838
-4.483365	final	-0.201507
-4.623237	finalize	-0.1568232
-4.623237	finally	-0.1587488
-4.623237	financial	-0.1521806
-3.994079	finch	-0.146862
-3.396502	find	-0.3633228
-3.994079	finding	-0.196719
-4.623237	finds	-0.1590575
-3.304475	fine	-0.2113505
-4.623237	finger	-0.1588037
-4.623237	fingers	-0.133142
-4.067599	finish	-0.1723675
-3.931221	finished	-0.1149743
-4.623237	finishing	-0.1576397
-4.483365	fiona	-0.1559303
-4.483365	fir	-0.1569168
-3.432088	fire	-0.7507904
-2.885659	first	-0.2518237
-4.623237	firstly	-0.1572297
-4.417658	fischer	-0.3341604
-4.623237	fish	-0.1555601
-4.483365	fit	-0.154519
-4.623237	fitness	-0.1521806
-4.623237	fits	-0.1580827
-4.623237	fiv	-0.157794
-2.627286	five	-0.3203592
-4.067599	fix	-0.2258524
-4.623237	fixed	-0.1584811
-4.483365	fixing	-0.1510476
-4.417658	flakes	-0.1358926
-4.623237	flaps	-0.1550898
-4.156153	flat	-0.135647
-3.783779	flavor	-0.1876861
-4.623237	flavor's	-0.1580483
-4.623237	flavored	-0.1578765
-3.876322	flavors	-0.1699625
-4.623237	fleet	-0.1590941
-4.417658	fleming	-0.1359064
-4.623237	flexibility	-0.155719
-4.417658	floor	-0.143664
-4.623237	floors	-0.1584468
-4.483365	flour	-0.1573645
-4.623237	flower	-0.1589546
-3.931221	flyer	-0.1475786
-4.483365	flyers	-0.139238
-4.156153	fo	-0.1318979
-4.623237	foakes	-0.1580346
-4.267513	follow	-0.1870281
-4.623237	following	-0.157622
-4.623237	fon	-0.1557743
-4.623237	font	-0.1589889
-3.931221	food	-0.1377899
-4.623237	foods	-0.1590712
-4.623237	foor	-0.158838
-2.11558	for	-0.5671574
-4.623237	forces	-0.1588723
-4.267513	ford	-0.2367345
-3.876322	forest	-0.2532632
-4.623237	forestview	-0.1587145
-3.586293	forget	-0.4425325
-4.623237	forgetting	-0.1555641
-4.623237	forgive	-0.1583644
-4.417658	forgot	-0.1143148
-4.623237	forgotten	-0.156575
-4.156153	form	-0.1190717
-4.623237	formerly	-0.1590941
-4.267513	fort	-0.2386848
-4.623237	forteen	-0.1436896
-4.623237	forth	-0.1571746
-4.417658	fortinos	-0.1399593
-2.75085	forty	-0.7626683
-4.623237	fortyish	-0.1436896
-4.483365	forward	-0.2500957
-4.483365	forwarded	-0.249424
-4.623237	forwarding	-0.1550898
-4.483365	fou	-0.1574746
-4.417658	found	-0.1406973
-4.623237	foundation	-0.1436896
-2.517446	four	-0.3951837
-4.623237	fours	-0.1558503
-4.623237	fourt	-0.158886
-4.623237	fourtee	-0.1436896
-2.953995	fourteen	-0.5287499
-4.623237	fourteenth	-0.1421036
-4.267513	fourth	-0.251072
-4.483365	fourty	-0.1582172
-4.623237	fox	-0.1436896
-4.623237	frame	-0.1548267
-4.623237	france	-0.1559125
-4.483365	frances	-0.1413043
-4.483365	francis	-0.1403717
-4.417658	frank	-0.1740913
-4.267513	frank's	-0.1922371
-4.623237	frankly	-0.1550898
-4.483365	franks	-0.1365093
-4.623237	freaks	-0.1587625
-4.623237	fred	-0.1377077
-3.14444	free	-0.1782953
-4.623237	freeman	-0.1582653
-4.483365	freeport	-0.2530406
-4.623237	frees	-0.1410143
-4.623237	freeze	-0.1557743
-3.290869	french	-0.6720993
-4.623237	fres	-0.1590849
-4.623237	fresca	-0.1568232
-4.267513	fresco	-0.1944506
-3.318521	fresh	-0.6473509
-4.623237	freshly	-0.1589615
-4.483365	fri	-0.1505514
-4.267513	friday	-0.1476454
-3.707533	fried	-0.1662153
-4.623237	friend	-0.1391818
-4.623237	friendly	-0.154889
-3.154108	fries	-0.2092499
-4.623237	fries'	-0.1588037
-4.623237	friggin	-0.1574637
-4.623237	frills	-0.1585429
-4.417658	frizzell	-0.1393899
-2.663645	from	-0.2952334
-3.107785	front	-0.5117385
-4.623237	frontenac	-0.1574844
-4.623237	frontonac	-0.1574844
-4.483365	froze	-0.1565169
-4.417658	frozen	-0.1513449
-4.483365	fruit	-0.2540977
-4.623237	frustation	-0.1557674
-4.483365	frustrated	-0.1513478
-4.417658	frustrating	-0.2019895
-4.067599	fry	-0.2174308
-4.267513	fuck	-0.1470784
-4.417658	fucking	-0.1590025
-4.067599	full	-0.1368965
-4.417658	fully	-0.2199955
-4.623237	fulton	-0.1574844
-4.417658	fun	-0.1589894
-4.623237	fund	-0.1571746
-4.623237	fundraising	-0.1557674
-3.536379	funnel	-0.6768107
-4.267513	funny	-0.1302042
-4.483365	further	-0.1489331
-4.623237	fusilier	-0.158838
-4.483365	fussy	-0.1402273
-4.623237	fwo	-0.1559677
-3.195089	g	-0.3464485
-4.623237	ga	-0.1583644
-4.623237	gabbie	-0.1436896
-4.623237	gabriel	-0.1436896
-4.267513	gage	-0.2769293
-4.483365	gail	-0.1428332
-4.623237	gainsborough	-0.1436896
-4.623237	gal	-0.1548129
-4.623237	galaxy	-0.1590941
-4.623237	gale	-0.158536
-4.623237	galleria	-0.1590438
-4.623237	galluzzo	-0.1588312
-4.623237	game	-0.1548267
-3.994079	gar	-0.1568542
-4.623237	garage	-0.1521806
-3.491616	garden	-0.3785257
-4.067599	gardens	-0.1563346
-4.623237	garl	-0.1586253
-4.623237	garland	-0.1493131
-4.483365	garli	-0.1500896
-2.770608	garlic	-0.2772882
-4.623237	garlic's	-0.1436896
-4.623237	garlicky	-0.1555601
-4.156153	garlics	-0.1198531
-4.483365	garrison	-0.2527243
-3.931221	garth	-0.243655
-4.483365	gary	-0.1559234
-3.994079	gas	-0.7020829
-3.743985	gate	-0.2067271
-4.623237	gates	-0.1365929
-4.623237	gather	-0.1436896
-4.417658	gatineau	-0.2397022
-3.994079	gauge	-0.3222849
-3.994079	gave	-0.2502234
-4.623237	gawaiian	-0.1585498
-4.623237	gazebo	-0.157505
-4.623237	ge	-0.156899
-4.623237	geez	-0.1530128
-4.483365	gen	-0.1590838
-4.623237	general	-0.1572297
-4.267513	generally	-0.1497126
-4.623237	generation	-0.1587145
-4.623237	geneve	-0.1365093
-4.623237	geniv	-0.1576839
-4.623237	geno	-0.1588312
-4.623237	genuine	-0.1589958
-4.067599	george	-0.300458
-4.623237	georges	-0.159098
-4.417658	georgetown	-0.1693207
-4.623237	gerald	-0.1581652
-4.623237	gerald's	-0.1436896
-4.267513	gerard	-0.1797086
-4.623237	germaine	-0.156899
-4.623237	gerrard	-0.1574844
-2.960206	get	-0.2424491
-3.931221	gets	-0.1669277
-3.264872	getting	-0.192058
-4.623237	ghost	-0.1392924
-4.483365	gi	-0.1574884
-4.483365	giant	-0.254104
-4.623237	gibb	-0.1574844
-4.623237	gie	-0.1576839
-4.417658	gift	-0.3340239
-4.623237	gigantic	-0.159098
-4.623237	gilbert	-0.158282
-4.156153	gimme	-0.1359943
-4.483365	gin	-0.1538186
-3.14444	ginger	-0.7941875
-3.994079	gingerale	-0.2284594
-4.483365	girl	-0.1546853
-4.623237	girls	-0.1436896
-4.623237	gist	-0.1573261
-2.875247	give	-0.8039494
-3.783779	given	-0.1998675
-4.067599	gives	-0.2183681
-3.82759	giving	-0.3886279
-4.623237	glad	-0.1563681
-4.623237	gladly	-0.1563681
-4.623237	glamorgan	-0.1577871
-3.707533	glen	-0.2831272
-4.623237	glenashton	-0.1580346
-4.417658	glendale	-0.1418183
-4.417658	glenhill	-0.2819748
-4.623237	glenhills	-0.1580346
-4.483365	glenhollow	-0.2530406
-4.156153	glenvale	-0.2051573
-4.417658	glenwood	-0.1880536
-4.623237	glenwoods	-0.1577871
-4.623237	glitch	-0.1513897
-4.623237	gloria	-0.158282
-4.623237	glou	-0.1590781
-4.156153	gloucester	-0.2130878
-3.217127	gluten	-0.6910252
-4.623237	gmg	-0.1590849
-4.623237	gmo	-0.156089
-2.912838	go	-0.336603
-3.586293	goat	-1.086521
-4.267513	god	-0.1031948
-3.613579	goes	-0.211642
-3.01338	going	-0.4540932
-4.623237	gol	-0.1590438
-4.156153	golden	-0.1388627
-4.483365	goldenville	-0.1411144
-4.417658	goldwin	-0.1757559
-4.623237	golf	-0.1590941
-4.623237	gon	-0.1585292
-4.067599	gone	-0.1866125
-3.090556	gonna	-0.4023557
-4.623237	goo	-0.1590301
-2.992669	good	-0.2259701
-3.743985	goodbye	-0.7276599
-4.623237	goodlife	-0.159098
-4.623237	goodness	-0.1399778
-4.623237	goodnight	-0.1586596
-4.067599	google	-0.1897584
-4.623237	googled	-0.1557743
-3.82759	goreway	-0.2710747
-4.623237	gormandev	-0.1436896
-4.267513	gosh	-0.1880619
-3.163996	got	-0.1993818
-4.267513	gotcha	-0.1694124
-4.623237	gotham	-0.1436896
-3.994079	gotta	-0.1657384
-4.156153	gotten	-0.1434259
-4.483365	gourmet	-0.2524697
-4.483365	gr	-0.139317
-4.067599	grab	-0.1632385
-4.623237	grace	-0.1576839
-4.623237	graced	-0.1577183
-4.623237	gracia	-0.156899
-4.417658	graham	-0.1423097
-4.267513	grain	-0.1156247
-4.267513	grams	-0.1804361
-4.623237	granby	-0.1436896
-3.560619	grand	-0.5261697
-4.623237	granddaughter	-0.1577871
-4.623237	grandma	-0.1436896
-4.623237	grandma's	-0.1560092
-4.623237	grandson	-0.1521806
-4.623237	granolas	-0.1392882
-4.156153	grant	-0.1818007
-4.267513	grantbrook	-0.1954877
-4.483365	grantham	-0.143189
-4.267513	grape	-0.2023737
-4.483365	grapes	-0.2386955
-4.623237	grated	-0.1589683
-4.067599	gravenhurst	-0.1592497
-4.267513	gravy	-0.1351143
-4.623237	gray	-0.1577183
-3.304475	great	-0.2494698
-4.623237	greater	-0.1589341
-4.623237	greatly	-0.1590712
-4.623237	gree	-0.1582957
-3.931221	greek	-0.3361877
-3.931221	greely	-0.2536948
-2.728269	green	-0.9391022
-4.623237	greenbush	-0.1587488
-4.417658	greencrest	-0.2200566
-4.417658	greens	-0.2180436
-4.483365	greenville	-0.2044201
-4.623237	greenway	-0.1556677
-4.156153	greenwood	-0.212576
-4.417658	greg	-0.2009682
-4.623237	grenadier	-0.1588586
-4.417658	grenoble	-0.1515682
-4.483365	grey	-0.1436748
-4.623237	greystone	-0.158536
-4.623237	greyton	-0.158536
-4.623237	gri	-0.154889
-4.623237	gril	-0.1559125
-4.623237	grill	-0.1590438
-3.082191	grilled	-0.7314335
-4.483365	grimsby	-0.1360799
-4.623237	gro	-0.1521806
-4.483365	grocery	-0.158691
-4.623237	grou	-0.1588106
-3.163996	ground	-1.209493
-4.067599	grove	-0.2071619
-4.623237	groven	-0.1590095
-4.623237	gst	-0.1521806
-4.483365	guaran	-0.1435516
-3.513421	guarantee	-0.1603669
-3.743985	guaranteed	-0.2386073
-4.623237	guarantees	-0.1583369
-4.623237	guaratee	-0.1571539
-4.623237	guard	-0.1534338
-4.623237	gue	-0.1548129
-3.451039	guelph	-0.386917
-4.267513	guess	-0.03422802
-4.623237	guest	-0.1436896
-4.623237	guests	-0.154889
-4.483365	gulf	-0.1590226
-4.623237	gulo	-0.1436896
-4.623237	gurjot	-0.1588312
-4.156153	guy	-0.1364744
-3.783779	guys	-0.07835987
-4.623237	gwilim	-0.1436896
-4.623237	gwillimbury	-0.1589821
-4.483365	gym	-0.250725
-3.14444	h	-0.3944128
-3.783779	ha	-0.1772345
-4.623237	habanero	-0.1558503
-4.623237	hackberry	-0.1590026
-4.483365	hacking	-0.2536312
-3.470854	had	-0.2108788
-4.483365	haddington	-0.2524903
-4.483365	hadn't	-0.1581456
-4.623237	haircutters	-0.159098
-4.623237	hal	-0.1556776
-4.483365	halal	-0.2529512
-2.739413	half	-0.3516051
-4.156153	halfmoon	-0.4583617
-4.623237	halfs	-0.1436896
-4.267513	halifax	-0.191158
-3.994079	hall	-0.1946852
-4.623237	halla	-0.1590781
-4.623237	hallman	-0.1436896
-4.623237	halved	-0.1589272
-4.267513	halves	-0.1189321
-3.035128	ham	-0.3446706
-4.156153	hamburger	-0.3186558
-3.536379	hamilton	-0.3003415
-4.623237	hammond	-0.158838
-4.623237	hams	-0.1579521
-4.267513	hand	-0.1313124
-4.623237	handball	-0.155719
-4.623237	handheld	-0.1545745
-4.623237	hands	-0.1454955
-4.623237	handy	-0.157904
-4.623237	haneen	-0.1587968
-3.491616	hang	-0.7707306
-4.623237	hanging	-0.1584468
-4.623237	hannah	-0.1577183
-4.623237	hansen	-0.1577183
-4.623237	hanson	-0.1577183
-4.267513	happen	-0.1510347
-4.267513	happened	-0.1352299
-4.483365	happening	-0.151599
-4.483365	happens	-0.2022968
-4.156153	happy	-0.2259909
-4.623237	harbour	-0.1555571
-3.931221	hard	-0.4063422
-4.483365	harder	-0.1538186
-4.483365	hardly	-0.1582653
-4.483365	hargrove	-0.2527243
-3.994079	harmony	-0.229515
-4.623237	harns	-0.1588312
-4.623237	harrow	-0.1580346
-4.483365	harry	-0.1423133
-4.483365	hartsville	-0.2386955
-4.623237	harvey's	-0.1436896
-3.931221	harwood	-0.2904473
-3.050256	has	-0.2420511
-4.623237	hasan	-0.156899
-4.483365	hasn't	-0.1588802
-4.623237	hasnain	-0.156899
-4.483365	hasting	-0.1574677
-4.623237	hasty	-0.1590918
-4.483365	hate	-0.154121
-4.267513	hav	-0.134959
-2.710309	have	-0.1407224
-4.417658	haven't	-0.1727119
-4.623237	havendale	-0.1587145
-3.743985	having	-0.2358137
-4.623237	hawai	-0.1560092
-3.082191	hawaiian	-0.2875895
-4.623237	hawaiian's	-0.1421707
-4.623237	hawaiians	-0.1572297
-4.483365	hawkesbury	-0.1882527
-4.483365	hawkesville	-0.2471865
-4.483365	hawkridge	-0.252793
-4.483365	hazel	-0.2524903
-3.876322	hazeldean	-0.4711769
-4.483365	hazelwood	-0.252793
-2.966507	he	-0.2531189
-4.483365	he'd	-0.2518292
-3.994079	he'll	-0.291356
-3.613579	he's	-0.242326
-4.067599	head	-0.1906122
-4.623237	headquarter	-0.1566233
-4.483365	heads	-0.23801
-4.623237	health	-0.159098
-4.623237	healthier	-0.1436896
-3.642696	hear	-0.2884232
-4.067599	heard	-0.1192102
-3.931221	hearing	-0.2579364
-3.783779	heart	-0.5935211
-4.417658	heartlake	-0.1519447
-4.623237	hearts	-0.1436896
-4.267513	heat	-0.1361461
-4.623237	heatherdale	-0.1577183
-4.417658	heatherington	-0.3327807
-4.417658	heavy	-0.1427662
-4.623237	hebe	-0.1587968
-4.156153	heights	-0.1557252
-4.623237	hel	-0.1584262
-4.483365	helen	-0.1490915
-4.623237	hell	-0.151278
-2.804219	hello	-0.4651033
-4.623237	helm	-0.1436896
-3.536379	help	-0.3582925
-4.483365	helpful	-0.2386955
-4.623237	hemmingford	-0.1587488
-4.623237	hence	-0.154418
-4.156153	henderson	-0.1708878
-4.267513	henry	-0.15434
-4.417658	heping	-0.1413686
-3.363611	her	-0.205893
-4.483365	herb	-0.1514874
-4.623237	herbs	-0.139317
-2.612992	here	-0.327702
-4.267513	here's	-0.1757872
-4.623237	heritage	-0.1590301
-4.623237	heron	-0.1580346
-4.623237	hers	-0.1548129
-3.82759	hespeler	-0.585221
-4.623237	hewitt	-0.1588586
-4.623237	hex	-0.1588998
-3.994079	hey	-0.1592164
-3.413931	hi	-0.1975897
-4.483365	hickory	-0.2386955
-3.783779	high	-0.193982
-4.623237	highest	-0.1590506
-3.642696	highland	-0.3222515
-4.483365	highlands	-0.2386955
-4.623237	highpoint	-0.1436896
-3.396502	highway	-0.4253346
-4.483365	hilary	-0.1433668
-3.743985	hill	-0.1517174
-4.623237	hillcroft	-0.1574844
-4.483365	hillfair	-0.2537548
-4.417658	hills	-0.1316819
-3.586293	him	-0.1538998
-4.623237	hindu	-0.159098
-4.623237	hine	-0.1587968
-3.994079	his	-0.1800707
-4.483365	history	-0.1368528
-4.623237	hit	-0.1589546
-4.623237	hitting	-0.1539019
-4.267513	hm	-0.1732506
-3.673906	hmm	-0.0461471
-4.067599	ho	-0.2149961
-4.623237	hobiland	-0.1586253
-2.98598	hold	-0.5952782
-4.623237	holder	-0.1571206
-4.267513	holding	-0.1452142
-4.156153	holiday	-0.5559755
-3.613579	holland	-0.6617703
-4.156153	hollow	-0.1377767
-4.417658	holly	-0.2178231
-4.623237	holmwood	-0.1577871
-4.483365	holy	-0.2498673
-3.642696	home	-0.1748678
-4.483365	homemade	-0.152303
-4.623237	homer	-0.159098
-4.483365	homestyle	-0.2536861
-4.483365	hon	-0.1567307
-4.483365	honest	-0.1367301
-4.417658	honestly	-0.140947
-2.953995	honey	-0.6346107
-4.417658	hope	-0.1141855
-4.483365	hopedale	-0.1365093
-4.156153	hopefully	-0.1857866
-4.417658	hoping	-0.1489301
-4.623237	horrible	-0.1555601
-4.623237	horse	-0.1521806
-4.417658	horseshoe	-0.1856355
-4.623237	horton	-0.1365093
-4.623237	horton's	-0.1332803
-4.623237	hortons	-0.1560437
-4.417658	hospital	-0.1793749
-2.855142	hot	-0.7272364
-4.623237	hote	-0.1565267
-3.673906	hotel	-0.2118321
-4.623237	hotel's	-0.1586253
-4.623237	hou	-0.1562025
-3.876322	hour	-0.1362497
-4.417658	hours	-0.1500987
-3.205968	house	-0.2714259
-4.623237	housing	-0.1556776
-2.456479	how	-0.8647919
-4.483365	how'd	-0.2500957
-4.483365	how's	-0.151292
-4.417658	howard	-0.1575199
-4.417658	howe	-0.1533684
-3.743985	however	-0.1519957
-4.483365	hu	-0.1577567
-4.623237	huah	-0.1572021
-4.623237	huffman	-0.158536
-4.483365	hughson	-0.1571717
-3.783779	huh	-0.08886863
-4.417658	humberwood	-0.3337769
-4.623237	humongous	-0.1571746
-4.623237	hun	-0.1562025
-3.707533	hundred	-0.172748
-4.156153	hung	-0.5553579
-4.156153	hungry	-0.1499518
-4.156153	hunt	-0.5559481
-4.483365	huntingwood	-0.2471865
-4.067599	huntsville	-0.1753032
-4.623237	hupfield	-0.1548614
-4.417658	hurontario	-0.1483964
-4.483365	hurry	-0.143004
-4.483365	huruntario	-0.2471865
-4.623237	husband	-0.1282779
-4.623237	husband's	-0.1571343
-4.623237	hutton	-0.1587488
-4.483365	hyde	-0.2539126
-4.623237	hypnosis	-0.158886
-2.006917	i	-0.6792188
-4.623237	i'	-0.1575394
-3.134982	i'd	-0.5964785
-4.623237	i'l	-0.1581239
-2.645085	i'll	-0.6500103
-2.350801	i'm	-0.6168234
-3.107785	i've	-0.4887075
-4.623237	ibrahim	-0.1436896
-4.067599	ice	-0.6351705
-3.252435	iced	-0.9716159
-4.623237	ices	-0.1590781
-4.623237	ick	-0.1436896
-4.417658	id	-0.182837
-4.623237	ida	-0.1574844
-4.267513	idea	-0.1705473
-4.623237	idiot	-0.1413216
-4.623237	idris	-0.154418
-2.397856	if	-0.84526
-4.623237	ig	-0.1550898
-4.623237	iglington	-0.1577871
-4.623237	ignore	-0.1579177
-4.623237	ii	-0.1589683
-4.623237	ill	-0.1568301
-4.623237	im	-0.159098
-4.623237	immediately	-0.1436896
-4.267513	important	-0.1502487
-2.109362	in	-0.35062
-4.623237	inasfil	-0.1577183
-4.417658	inaudible	-0.1408898
-4.267513	inch	-0.1804781
-4.267513	inches	-0.1845818
-3.82759	include	-0.1571035
-3.333037	included	-0.2181071
-4.067599	includes	-0.1753987
-3.125726	including	-0.7289908
-4.417658	inconvenience	-0.117708
-4.623237	increase	-0.154418
-4.483365	indeed	-0.1503975
-4.623237	india	-0.1590941
-4.483365	indicate	-0.1540684
-4.483365	individual	-0.1567445
-4.623237	individually	-0.1587351
-3.994079	inform	-0.4399709
-3.613579	information	-0.2070221
-4.483365	informed	-0.249424
-4.623237	informing	-0.1550898
-4.623237	ing	-0.157622
-4.417658	inglewood	-0.1512402
-4.623237	ingram	-0.1436896
-4.623237	ingredient	-0.1557674
-4.417658	ingredients	-0.1361412
-4.623237	ingrid	-0.158282
-4.623237	initially	-0.1589683
-4.483365	initials	-0.1517675
-4.623237	inkerman	-0.1574844
-3.994079	inn	-0.2101835
-4.623237	inner	-0.1577183
-4.156153	innes	-0.5546294
-3.931221	innisfil	-0.219553
-4.623237	inquire	-0.1585429
-4.623237	inquiring	-0.154418
-4.623237	ins	-0.1583094
-4.483365	insert	-0.152108
-3.707533	inside	-0.2333129
-4.623237	inst	-0.1566233
-4.623237	installed	-0.1573674
-4.623237	instance	-0.1573674
-2.885659	instead	-0.7233191
-4.623237	instruction	-0.1557674
-4.483365	instructions	-0.1535409
-4.417658	interac	-0.2046476
-4.417658	intercom	-0.2149187
-4.623237	interest	-0.1550898
-4.067599	interested	-0.3893586
-4.267513	interesting	-0.1838509
-4.623237	international	-0.1588694
-4.623237	internet	-0.1521806
-4.623237	interrupt	-0.1536104
-4.483365	interrupted	-0.2126021
-4.483365	interrupting	-0.1521399
-4.623237	intersec	-0.1548129
-4.623237	intersect	-0.1436896
-3.451039	intersection	-0.2594793
-4.067599	intersections	-0.1583832
-4.623237	intervals	-0.1573261
-3.491616	into	-0.3351981
-4.623237	introduce	-0.1557743
-4.483365	introduced	-0.249895
-4.623237	invalid	-0.1588037
-4.623237	investigate	-0.1557674
-4.623237	investigating	-0.156575
-4.623237	involved	-0.1560437
-4.483365	involves	-0.1514455
-4.623237	iona	-0.1586253
-4.623237	ire	-0.1436896
-4.417658	irene	-0.1436616
-2.089536	is	-0.1920974
-4.417658	isabel	-0.1390555
-4.623237	island	-0.1588517
-4.067599	islington	-0.2166355
-3.642696	isn't	-0.3297608
-4.623237	isnt	-0.1560161
-4.156153	issue	-0.1563604
-4.483365	issued	-0.1542556
-4.067599	issues	-0.1695191
-2.116476	it	-0.3164432
-4.483365	it'	-0.1586979
-3.642696	it'd	-0.6982739
-3.082191	it'll	-0.5668489
-2.175953	it's	-0.3387453
-4.483365	ital	-0.249895
-3.006366	italian	-0.5364125
-3.560619	italiano	-0.5551256
-3.470854	item	-0.2218985
-4.623237	itemize	-0.1557743
-3.642696	items	-0.1688122
-3.379745	its	-0.1604703
-4.623237	its'	-0.1583409
-4.067599	itself	-0.1016521
-4.483365	ivan	-0.1428332
-4.623237	ivy	-0.1431748
-3.363611	j	-0.3880549
-4.623237	ja	-0.1562548
-4.623237	jace	-0.1587625
-4.267513	jack	-0.14194
-4.623237	jackie	-0.1590941
-4.483365	jackson	-0.1434947
-4.623237	jacob	-0.1436896
-4.623237	jade	-0.1589203
-4.623237	jaden	-0.1436896
-4.623237	jal	-0.1588037
-4.623237	jala	-0.1562025
-4.623237	jalape	-0.1575394
-4.623237	jalapen	-0.154889
-3.134982	jalapeno	-0.3448974
-3.994079	jalapenos	-0.2453195
-3.491616	jalapeo	-0.2860316
-3.931221	jalapeos	-0.1607813
-3.783779	james	-0.2958328
-4.417658	jamie	-0.1862359
-4.623237	jan	-0.158282
-3.396502	jane	-0.6539468
-4.483365	janice	-0.1380779
-4.623237	jasmine	-0.1514385
-4.156153	jason	-0.1730549
-4.623237	jasper	-0.1577871
-4.417658	jay	-0.1657813
-4.623237	jean	-0.1576839
-4.483365	jeanne	-0.2538371
-4.623237	jeavons	-0.1577871
-4.623237	jeez	-0.1548129
-3.994079	jeff	-0.1358569
-4.623237	jeffries	-0.1590918
-4.623237	jena	-0.1436896
-4.417658	jennifer	-0.1657813
-4.483365	jenny	-0.2526899
-4.483365	jerri	-0.1392524
-4.417658	jerry	-0.1320342
-4.623237	jerson	-0.156899
-4.623237	jess	-0.1575876
-4.483365	jesse	-0.2020396
-4.483365	jessica	-0.1425769
-4.417658	jessie	-0.1408439
-4.483365	jessy	-0.2510496
-4.417658	jesus	-0.1370512
-4.483365	jill	-0.1429726
-4.623237	jillian	-0.1436896
-4.417658	jim	-0.184848
-4.623237	jimi	-0.1589203
-4.417658	jimmy	-0.1338402
-4.623237	joanna	-0.158282
-4.267513	joanne	-0.1697057
-4.417658	job	-0.2009877
-4.623237	jody	-0.158282
-3.994079	joe	-0.2244201
-4.483365	johan	-0.1563376
-3.613579	john	-0.353038
-4.623237	john's	-0.1577183
-4.623237	johnell	-0.1590301
-4.623237	johnny	-0.1436896
-4.483365	johns	-0.2527243
-4.623237	johnson	-0.1365093
-4.623237	join	-0.1586939
-4.623237	joke	-0.1429329
-4.483365	jordan	-0.2040788
-4.483365	jordanray	-0.1585263
-3.994079	joseph	-0.171719
-4.623237	joseph's	-0.1436896
-4.623237	josh	-0.1413216
-4.623237	joshua	-0.158282
-4.623237	joy	-0.1574844
-4.483365	joyce	-0.1392524
-4.067599	ju	-0.1771125
-4.623237	juan	-0.156899
-4.623237	judd	-0.1589203
-4.483365	judy	-0.142638
-4.623237	juice	-0.1420893
-4.623237	julie	-0.158282
-4.623237	julien	-0.1589203
-4.483365	julio	-0.1415215
-4.483365	july	-0.1424131
-4.156153	june	-0.1896739
-4.417658	jus	-0.1558168
-2.281318	just	-0.3071093
-4.156153	justin	-0.2154243
-4.483365	jut	-0.15631
-3.22858	k	-0.4124271
-3.673906	kalamata	-0.8268332
-4.483365	kam	-0.1563169
-4.067599	kanata	-0.223344
-4.483365	kandivali	-0.2532879
-4.417658	karam	-0.1388113
-4.067599	karen	-0.176161
-4.483365	karla	-0.1428332
-4.623237	karwatki	-0.139238
-4.623237	kashik	-0.1576839
-4.156153	kasia	-0.1708878
-4.267513	kate	-0.1851274
-4.623237	katherine	-0.1576839
-4.623237	kathy	-0.1436896
-4.417658	katrina	-0.1561645
-3.707533	kay	-0.1277053
-4.483365	kayla	-0.1423489
-4.483365	keelan	-0.2541001
-4.483365	keele	-0.1365093
-3.642696	keep	-0.207195
-4.267513	keeps	-0.1537196
-4.417658	kelly	-0.214253
-4.623237	kelsey's	-0.1556776
-4.623237	kem	-0.1590849
-4.623237	kemble	-0.1584811
-4.267513	kempsford	-0.2392255
-4.067599	ken	-0.153015
-4.483365	kendall	-0.154526
-4.483365	kendleton	-0.1425769
-4.623237	kendra	-0.158282
-3.318521	kennedy	-0.4612257
-4.623237	kent	-0.1588517
-4.417658	kept	-0.2198446
-4.623237	kerry	-0.1436896
-3.931221	keswick	-0.1655017
-4.417658	ketchup	-0.1268644
-4.623237	ketchups	-0.1436896
-4.156153	kevin	-0.2349714
-4.623237	key	-0.1589615
-4.623237	keys	-0.1436896
-4.623237	kfc	-0.1521806
-4.623237	khan	-0.1576839
-4.623237	ki	-0.1436896
-4.483365	kid	-0.1400125
-4.623237	kidd	-0.158536
-4.623237	kiddies	-0.1436896
-4.483365	kidding	-0.2533703
-3.876322	kids	-0.1324694
-4.623237	kiki	-0.1436896
-4.623237	kill	-0.1583644
-4.623237	killa	-0.1436896
-4.483365	killamarsh	-0.1425769
-4.623237	kilometer	-0.1590575
-4.623237	kilpatrick	-0.1580346
-4.417658	kim	-0.1849483
-4.623237	kimbercroft	-0.1588655
-4.417658	kimberly	-0.1839299
-3.333037	kind	-0.4741142
-4.156153	kinda	-0.1877904
-4.156153	kindly	-0.1500859
-3.994079	kinds	-0.2918702
-3.432088	king	-0.6119492
-4.623237	king's	-0.1574844
-4.417658	kings	-0.1528082
-4.623237	kingsbury	-0.158536
-3.560619	kingston	-0.3392625
-4.483365	kingsway	-0.2150575
-4.623237	kinknid	-0.1573261
-3.931221	kipling	-0.2245539
-4.623237	kitchen	-0.1580111
-4.417658	kitchener	-0.1319763
-4.623237	kite	-0.1587145
-4.623237	kittens	-0.142125
-4.267513	klondike	-0.2806729
-4.623237	knew	-0.1557743
-4.623237	knife	-0.1560092
-3.931221	knock	-0.2612257
-4.417658	knocked	-0.2136263
-4.623237	knocking	-0.1584331
-3.413931	know	-0.1261639
-4.483365	known	-0.1545675
-4.417658	ksush	-0.2198103
-4.483365	kyle	-0.1410644
-3.058022	l	-0.4098643
-4.623237	l-	-0.1436896
-3.82759	la	-0.1548865
-4.623237	labatte	-0.1577183
-4.623237	labelle	-0.1555601
-4.623237	lacrosse	-0.1557674
-4.483365	lactose	-0.2538028
-4.417658	lady	-0.1555369
-4.417658	lafontaine	-0.1383771
-4.623237	lag	-0.1557743
-4.623237	lagimo	-0.1587145
-4.067599	lake	-0.1299014
-4.623237	lakes	-0.1580346
-3.994079	lakeshore	-0.2956713
-4.623237	lakeside	-0.1580346
-4.483365	lalcazar	-0.152101
-4.623237	lamar	-0.1576839
-4.623237	lambertania	-0.155719
-4.623237	lambs	-0.1566233
-4.483365	lambsdowne	-0.2530406
-4.623237	lamont	-0.1560437
-4.623237	lamstone	-0.1574844
-4.623237	lanark	-0.1590301
-4.417658	lancaster	-0.2028464
-4.156153	landing	-0.155572
-3.642696	lane	-0.3681236
-4.623237	lanes	-0.1587145
-4.623237	laneway	-0.158838
-4.623237	langstaff	-0.1436896
-4.417658	lansdowne	-0.1401527
-4.267513	lar	-0.118042
-4.623237	larcher	-0.1587282
-4.483365	larg	-0.1416786
-2.747004	large	-0.2362736
-4.067599	larger	-0.1667267
-3.783779	larges	-0.2068261
-4.417658	largest	-0.1306949
-4.483365	larry	-0.154519
-3.994079	lasagna	-0.1802232
-4.623237	lasagnas	-0.1436896
-2.935877	last	-0.718863
-4.156153	late	-0.148497
-4.417658	lately	-0.1382074
-3.876322	later	-0.3896938
-4.623237	latesha	-0.1517943
-4.483365	latest	-0.1423204
-4.483365	latham	-0.218381
-4.623237	latter	-0.1586802
-4.417658	lauderdale	-0.2809626
-4.623237	laugh	-0.154889
-4.483365	laughter	-0.1589106
-4.623237	laura	-0.158282
-4.417658	lauren	-0.2020396
-4.483365	laurent	-0.1998194
-4.156153	laurier	-0.2467409
-4.623237	laury	-0.159098
-4.623237	law	-0.157904
-4.623237	law's	-0.1586253
-4.483365	lawn	-0.1406579
-3.743985	lawrence	-0.249394
-4.623237	lawton	-0.1589478
-4.623237	lawyer	-0.1577871
-4.623237	lay	-0.1436896
-3.333037	lay's	-0.387749
-4.623237	layer	-0.138452
-4.623237	layman	-0.1417143
-3.277676	lays	-0.462452
-4.623237	lazy	-0.1563681
-4.623237	lcbo	-0.1521806
-4.483365	le	-0.1564272
-4.623237	leads	-0.1563681
-4.483365	leah	-0.1587179
-4.623237	lease	-0.1589546
-4.417658	least	-0.1281668
-3.743985	leave	-0.3001826
-4.417658	leaves	-0.1505275
-4.623237	leaving	-0.1548614
-4.623237	lebel	-0.1590918
-4.483365	lebovic	-0.2530406
-4.156153	lee	-0.189334
-4.623237	leeda	-0.1560437
-4.623237	leeuwen	-0.143442
-3.613579	left	-0.2143492
-4.623237	leftover	-0.1436896
-4.623237	legion	-0.1577183
-4.623237	leibovich	-0.1577871
-4.623237	leigh	-0.158282
-4.067599	leila	-0.2000417
-4.623237	lemme	-0.1586322
-4.623237	lemonade	-0.1588243
-4.623237	leslie	-0.1436896
-3.432088	less	-0.3205474
-2.77467	let	-0.9597361
-3.154108	let's	-0.589496
-4.623237	lets	-0.1550898
-4.623237	letter	-0.1586116
-4.417658	letters	-0.1746948
-4.156153	letting	-0.2491894
-4.623237	lettuce	-0.1584262
-4.483365	level	-0.2386955
-4.483365	lewis	-0.1542135
-4.623237	lezze	-0.1581554
-4.156153	liberty	-0.2071428
-4.623237	libety	-0.1574844
-4.623237	life	-0.1436896
-4.623237	lifted	-0.1557743
-3.491616	light	-0.2948441
-4.623237	light's	-0.1587076
-3.396502	lightly	-0.6703274
-4.623237	lik	-0.1436896
-2.28001	like	-0.2181133
-4.623237	likely	-0.1570162
-4.623237	likes	-0.1586047
-4.623237	likings	-0.1436896
-4.623237	lilian	-0.158282
-4.623237	lillian	-0.1587282
-4.483365	lima	-0.1590501
-4.623237	limbo	-0.1548267
-4.623237	limerick	-0.1577871
-4.623237	linda	-0.1436896
-4.623237	linden	-0.1577871
-4.483365	linderwood	-0.1425769
-4.623237	lindsay	-0.1436896
-3.451039	line	-0.1436316
-4.623237	line's	-0.1590918
-4.483365	lines	-0.139238
-4.417658	link	-0.2151684
-4.483365	linked	-0.1982121
-4.483365	links	-0.2096473
-4.623237	linsmore	-0.158536
-4.417658	lisa	-0.1854638
-4.623237	lisgar	-0.1521806
-4.623237	lising	-0.156899
-4.623237	lismore	-0.158536
-4.623237	list	-0.1562617
-4.623237	liste	-0.1571677
-4.417658	listed	-0.1389263
-3.783779	listen	-0.2468315
-4.067599	listening	-0.3212825
-4.417658	liter	-0.1388166
-4.267513	literally	-0.1538538
-4.483365	liters	-0.1398088
-4.623237	litrif	-0.1580346
-3.707533	little	-0.1474592
-4.623237	littler	-0.159098
-4.156153	live	-0.1463856
-4.623237	lived	-0.1580483
-4.623237	liverpool	-0.1574844
-4.623237	living	-0.1560092
-4.483365	livingston	-0.2527243
-4.483365	liz	-0.1428332
-4.483365	lo	-0.1561374
-4.623237	load	-0.1553428
-4.483365	loaded	-0.1530545
-3.931221	loading	-0.1819368
-4.623237	lob	-0.1548614
-3.931221	lobby	-0.1939213
-4.417658	loblaws	-0.2009877
-4.156153	local	-0.183256
-3.613579	located	-0.2706333
-4.623237	locating	-0.1557674
-2.98598	location	-0.2848652
-3.876322	locations	-0.1596286
-4.483365	locust	-0.1587047
-4.267513	lodge	-0.1393766
-3.743985	log	-0.6666763
-4.623237	logan	-0.1577871
-4.483365	logged	-0.250725
-4.483365	logging	-0.1529224
-4.623237	lon	-0.1576839
-3.743985	london	-0.3068671
-3.743985	long	-0.1250074
-4.156153	longer	-0.1778563
-4.483365	longsworth	-0.1478297
-3.82759	longworth	-0.2099945
-3.451039	look	-0.1831241
-4.623237	looked	-0.157505
-3.673906	looking	-0.441627
-3.82759	looks	-0.4889255
-4.483365	loren	-0.1403747
-4.623237	lorimar	-0.1580346
-4.623237	lorne	-0.1574844
-4.483365	lose	-0.1545052
-4.067599	lost	-0.1855445
-4.267513	lot	-0.1432313
-3.743985	lots	-0.6460002
-4.267513	loud	-0.1386143
-4.067599	louder	-0.1852479
-4.483365	loudly	-0.2386955
-4.623237	louie	-0.1436896
-4.623237	lounge	-0.1436896
-4.067599	love	-0.1432167
-4.417658	lovely	-0.1513559
-4.483365	lover	-0.1072949
-4.623237	lover's	-0.1385856
-4.623237	lovers	-0.09357966
-4.483365	low	-0.1732134
-4.417658	lowell	-0.2183878
-4.623237	lower	-0.1561443
-4.623237	loy	-0.1575876
-4.483365	loyalist	-0.2540909
-4.156153	loyalty	-0.23425
-4.623237	ls	-0.1436896
-4.623237	luck	-0.1436896
-4.623237	lucky	-0.1585017
-4.623237	luke	-0.1436896
-4.623237	lulud	-0.1576839
-4.623237	luna	-0.1576839
-4.623237	lunch	-0.1562025
-3.994079	lundy's	-0.7020487
-4.623237	luxury	-0.1581691
-4.623237	lying	-0.1563681
-4.623237	lyle	-0.156899
-4.483365	lyn	-0.1517983
-4.483365	lynn	-0.1428332
-2.941833	m	-0.3890468
-3.931221	ma	-0.1436183
-2.515194	ma'am	-0.4019275
-4.623237	mabelle	-0.1577871
-4.417658	mac	-0.1546432
-4.623237	macalister	-0.1582172
-4.623237	macaroni	-0.1521806
-4.267513	macarthur	-0.1306279
-4.067599	maccallum	-0.3276885
-4.417658	machine	-0.1166064
-4.623237	macintosh	-0.1580346
-4.623237	mack	-0.1521806
-4.623237	macken	-0.1589203
-4.483365	mackenzie	-0.1339333
-4.623237	mackinac	-0.158536
-4.417658	macklin	-0.1527038
-4.417658	macpherson	-0.20415
-3.613579	madam	-0.2489362
-4.623237	madame	-0.155719
-4.623237	madden	-0.1587488
-3.470854	made	-0.1679829
-4.623237	mae	-0.1436896
-4.623237	maggie	-0.1572297
-4.623237	magic	-0.1590506
-4.483365	magnolia	-0.1423204
-4.623237	mahir	-0.1586116
-4.623237	mahmoud	-0.1576839
-4.623237	maid	-0.1589958
-4.623237	mail	-0.1436896
-3.432088	main	-0.418656
-4.623237	maine	-0.1521806
-4.623237	mains	-0.1574844
-4.623237	maitland	-0.1577871
-3.290869	major	-0.5811623
-2.953995	make	-0.5167965
-4.067599	makes	-0.2170205
-3.743985	making	-0.2231093
-4.623237	malcolm	-0.158536
-4.623237	male	-0.1558503
-4.623237	males	-0.1579521
-4.483365	malia	-0.1431392
-4.623237	malik	-0.1586116
-3.22858	mall	-0.2787684
-4.483365	mallisa	-0.1433668
-4.156153	malton	-0.1647409
-4.623237	mam	-0.1576839
-4.623237	mama	-0.1573261
-3.707533	man	-0.2758556
-4.267513	manager	-0.1324723
-4.623237	managers	-0.1556776
-4.623237	manchester	-0.1558503
-4.623237	mandeep	-0.1590941
-4.623237	manice	-0.1436896
-4.483365	manitoba	-0.1819001
-4.623237	manly	-0.1574844
-4.267513	mannering	-0.2826209
-4.483365	manny	-0.2002276
-4.267513	manor	-0.1339889
-3.931221	manotick	-0.1827346
-4.483365	manually	-0.1544012
-4.067599	many	-0.08149297
-4.417658	map	-0.15213
-4.623237	mapel	-0.1560437
-3.931221	maple	-0.1296073
-4.483365	maples	-0.1576741
-4.623237	mapping	-0.1379484
-4.623237	mar	-0.1576839
-4.623237	marc	-0.1576839
-4.483365	march	-0.2524903
-4.483365	mareus	-0.1566686
-4.623237	margaret	-0.1584919
-4.623237	margo	-0.1586116
-4.417658	maria	-0.1726729
-4.267513	marie	-0.1880743
-4.417658	marilyn	-0.2005002
-4.623237	marina	-0.1586116
-3.451039	marinara	-0.315407
-4.623237	marinaras	-0.1548653
-4.156153	mario	-0.1567883
-3.513421	mark	-0.2054117
-4.623237	marked	-0.1590941
-4.417658	market	-0.2046476
-4.623237	marketplace	-0.1548614
-3.586293	markham	-0.3182282
-4.623237	marking	-0.1584056
-4.623237	marla	-0.139317
-4.623237	marsh	-0.1586253
-4.623237	marsha	-0.1565169
-4.483365	mart	-0.1375578
-3.994079	martin	-0.5109417
-4.623237	martindale	-0.158536
-4.623237	martins	-0.1569857
-4.483365	marvin	-0.2539674
-3.82759	mary	-0.163271
-4.067599	maryhill	-0.2920143
-4.623237	maryl	-0.1586116
-4.623237	master	-0.1558503
-3.642696	mastercard	-0.2715182
-4.623237	match	-0.1558503
-4.623237	matches	-0.1562025
-4.623237	mathers	-0.1577871
-4.483365	mathew	-0.251581
-4.623237	matt	-0.1436896
-4.417658	matter	-0.1562605
-4.483365	matters	-0.154422
-4.483365	matthew	-0.1590798
-4.483365	maureen	-0.1550107
-4.067599	max	-0.3346339
-4.156153	maximum	-0.1609799
-2.484845	may	-1.034618
-4.623237	maya	-0.1436896
-2.930001	maybe	-0.2366055
-4.267513	mayfield	-0.1685205
-4.623237	mayonnaise	-0.1562025
-4.267513	mc	-0.203902
-3.876322	mcarthur	-0.227939
-4.267513	mccabe	-0.2678396
-4.623237	mccavanagh	-0.1436896
-4.267513	mccowan	-0.2093141
-4.623237	mcdonald	-0.1436896
-4.267513	mcdonald's	-0.1934401
-4.623237	mcdonalds	-0.1521806
-4.623237	mcdonnell	-0.1589135
-4.623237	mcewen	-0.1425769
-4.623237	mcfarlane	-0.1574844
-4.623237	mcgill	-0.1574844
-4.623237	mcglocklin	-0.13574
-4.483365	mcivor	-0.2537205
-4.623237	mckavanagh	-0.1588312
-4.483365	mckenzie	-0.1802883
-4.623237	mcla	-0.1571677
-4.623237	mclaighlin	-0.155719
-4.623237	mclaugh	-0.1586116
-3.673906	mclaughlin	-0.2717233
-4.623237	mcleese	-0.1580346
-4.623237	mclevin	-0.1521806
-4.623237	mcphillip	-0.1579521
-4.417658	mcphillip's	-0.1813804
-4.156153	mcphillips	-0.2917799
-2.766584	me	-0.1470044
-4.483365	meadow	-0.1589792
-4.623237	meadowacres	-0.1580346
-4.623237	meadowland	-0.1580346
-4.483365	meadowvale	-0.2471865
-4.483365	meadowville	-0.1489892
-3.931221	meal	-0.2385826
-4.623237	meals	-0.1586596
-4.067599	mean	-0.05888151
-4.623237	meaning	-0.1573674
-4.156153	means	-0.1193103
-4.417658	meant	-0.1363581
-4.623237	meantime	-0.1547545
-3.174115	meat	-0.4410996
-3.876322	meatball	-0.1889359
-3.673906	meatballs	-0.3221294
-4.623237	meatlover	-0.1436896
-3.931221	meatlovers	-0.2930694
-4.483365	meats	-0.1424914
-4.267513	med	-0.1362184
-4.483365	medhurst	-0.1425769
-4.267513	medi	-0.13375
-4.623237	medical	-0.1589615
-3.707533	mediterranean	-0.3117906
-3.876322	mediterranian	-0.1851891
-4.623237	mediu	-0.154889
-2.770608	medium	-0.2992684
-4.483365	medium's	-0.1542556
-3.994079	mediums	-0.1045533
-4.623237	medley	-0.1545814
-4.623237	medliro	-0.1588655
-3.931221	meet	-0.1962936
-4.483365	meeting	-0.1583958
-3.613579	mega	-0.7691799
-4.483365	mel	-0.1541308
-4.623237	melania	-0.1590849
-4.267513	melanie	-0.1376598
-4.623237	melissa	-0.1568232
-4.623237	melrose	-0.1577871
-4.623237	melt	-0.133142
-4.623237	melton	-0.1436896
-4.483365	men	-0.1433099
-4.623237	mena	-0.1568232
-4.067599	mention	-0.1834619
-3.994079	mentioned	-0.1685669
-4.623237	mentioning	-0.1585429
-3.673906	menu	-0.1978477
-4.623237	mer	-0.156899
-4.483365	mercer	-0.1580386
-4.623237	merchant	-0.1577871
-4.623237	meridene	-0.158536
-4.417658	merivale	-0.218436
-4.417658	merlin	-0.3325468
-4.483365	message	-0.1519686
-4.623237	messed	-0.1584468
-4.623237	messes	-0.1583644
-4.623237	meters	-0.1590575
-4.483365	method	-0.1418427
-4.417658	metro	-0.1572307
-4.623237	mew	-0.1588517
-4.483365	mews	-0.1433709
-4.623237	meyer	-0.1436896
-4.483365	mhm	-0.2386955
-4.483365	mi	-0.1478156
-4.267513	michael	-0.1364755
-4.267513	michelle	-0.1756628
-4.623237	microphone's	-0.1589683
-4.623237	mid	-0.1589546
-4.417658	middle	-0.1270956
-4.067599	midland	-0.2136585
-3.613579	might	-0.3145962
-4.623237	might've	-0.1589683
-4.623237	miguel	-0.1436896
-4.623237	miikan	-0.1590095
-4.067599	mike	-0.3186131
-4.623237	mikhael	-0.158282
-3.14444	mild	-0.45751
-4.623237	milgate	-0.1586116
-4.623237	military	-0.159098
-4.483365	milk	-0.1167801
-4.623237	milks	-0.1365093
-3.994079	mill	-0.2162221
-4.623237	millcroft	-0.1589066
-4.483365	milliliter	-0.1572337
-4.623237	millimeter	-0.1590941
-4.156153	mills	-0.193905
-4.156153	millstone	-0.2385474
-4.623237	millvervue	-0.158536
-4.156153	milton	-0.1926755
-3.994079	mind	-0.1251725
-4.156153	mine	-0.1437983
-4.483365	minet's	-0.2540223
-4.483365	mini	-0.157357
-4.267513	minimum	-0.1781161
-4.623237	minister	-0.1589821
-4.483365	minowan	-0.254104
-4.417658	minus	-0.1495374
-3.707533	minute	-0.1333853
-3.491616	minutes	-0.1904747
-4.483365	minutes'	-0.2535626
-4.417658	miriam	-0.1377972
-4.623237	mis	-0.1568301
-4.623237	mishav	-0.1580483
-4.623237	mishem	-0.1580483
-4.623237	mishiv	-0.1580483
-4.623237	mispronounce	-0.1557743
-3.217127	miss	-0.2843129
-4.417658	missed	-0.1684679
-4.417658	missing	-0.1521677
-4.623237	missisauga	-0.1436896
-4.623237	mississ	-0.1548614
-4.623237	mississa	-0.156575
-3.240344	mississauga	-0.3239537
-4.623237	missy	-0.1586116
-4.623237	mist	-0.156837
-4.483365	mistake	-0.1480858
-4.417658	mistaken	-0.1394216
-4.623237	mistakes	-0.1556776
-4.623237	mister	-0.1548614
-4.623237	misunderstanding	-0.1548267
-4.483365	misunderstood	-0.1507541
-4.623237	mitch	-0.1436896
-4.623237	mitchell	-0.1575876
-4.156153	mix	-0.2127636
-3.931221	mixed	-0.3185244
-4.417658	mixing	-0.2162419
-4.483365	mixture	-0.1852563
-3.050256	mm	-0.4911713
-4.156153	mmm	-0.1316288
-4.623237	mo	-0.154889
-4.483365	mobile	-0.1574
-4.623237	mock	-0.158838
-4.623237	mode	-0.1571815
-4.623237	model	-0.1436896
-4.483365	modified	-0.1365093
-4.623237	modify	-0.151292
-4.417658	mohawk	-0.1687388
-4.483365	mohib	-0.1410644
-4.623237	moira	-0.1569857
-4.623237	molten	-0.1558503
-3.707533	mom	-0.1557393
-4.483365	mom's	-0.1547199
-4.623237	momen	-0.1581239
-3.82759	moment	-0.02712126
-4.623237	moments	-0.1590369
-4.623237	mommy	-0.1555601
-4.623237	mommy's	-0.1586253
-4.483365	moms	-0.1364051
-4.623237	mona	-0.1576839
-4.417658	monaco	-0.2198264
-4.623237	monarch	-0.1589066
-4.623237	monday	-0.1585429
-3.613579	money	-0.2404824
-4.623237	monica	-0.158282
-4.623237	monico	-0.1586116
-4.417658	monique	-0.3333443
-4.623237	monlith	-0.1436896
-4.417658	mono	-0.318752
-4.623237	monoyo	-0.1586253
-4.623237	montego	-0.158536
-4.483365	monterey	-0.253542
-4.483365	month	-0.1360944
-4.267513	months	-0.1674706
-4.067599	montreal	-0.2586126
-4.623237	mood	-0.1589958
-4.623237	moon	-0.130826
-4.623237	moore	-0.1431748
-2.935877	more	-0.1815135
-4.623237	morgan	-0.1580346
-4.417658	morning	-0.1580174
-4.623237	morningside	-0.1521806
-4.483365	mosley	-0.2524903
-3.642696	most	-0.3165345
-4.067599	mostly	-0.1503472
-4.483365	motel	-0.1529224
-4.417658	mother	-0.1364701
-4.623237	mother's	-0.1521806
-4.483365	motherland	-0.1392524
-3.931221	mount	-0.2131193
-3.82759	mountain	-0.1805529
-4.623237	mountainview	-0.1577183
-4.623237	mounty	-0.159098
-4.156153	move	-0.1867719
-4.417658	moved	-0.1382722
-4.623237	moxley	-0.1572199
-4.623237	moz	-0.1436896
-4.623237	mozz	-0.1590781
-3.396502	mozzarella	-0.4483223
-4.623237	mr	-0.1589752
-4.623237	ms	-0.1590941
-4.067599	mu	-0.1405338
-3.613579	much	-0.03520025
-3.82759	mud	-0.8554255
-4.623237	muffling	-0.155719
-4.623237	mug's	-0.158838
-4.623237	mukesh	-0.1436896
-4.623237	mulock	-0.1580346
-4.267513	multi	-0.2356877
-3.707533	multigrain	-0.2870334
-4.483365	multiple	-0.1515711
-4.623237	mum's	-0.1587145
-4.417658	mumtaz	-0.318752
-4.417658	munch	-0.06711601
-4.623237	munser	-0.1586116
-4.623237	muriel	-0.1436896
-4.623237	murphy	-0.1436896
-4.623237	murray	-0.1548614
-4.417658	mush	-0.1379987
-2.935877	mushroom	-0.4504555
-2.890961	mushrooms	-0.4377933
-4.623237	music	-0.1436896
-4.156153	muskoka	-0.3719307
-3.876322	must	-0.4578711
-4.417658	mustard	-0.1261622
-2.562596	my	-0.3999746
-3.743985	myself	-0.1780792
-4.623237	mystic	-0.1577871
-3.058022	n	-0.3716028
-4.156153	na	-0.1499618
-4.067599	nacho	-0.2778428
-4.483365	nachos	-0.1356357
-4.417658	nadia	-0.2182777
-4.483365	nah	-0.2512084
-3.042626	name	-0.2924274
-4.417658	name's	-0.1544057
-4.623237	names	-0.1416786
-4.623237	nan	-0.158282
-3.82759	nancy	-0.1422723
-4.267513	nantes	-0.1890632
-4.483365	nanwood	-0.1308401
-4.067599	napkins	-0.1234376
-4.623237	narrowing	-0.1589066
-4.483365	nash	-0.1422492
-4.267513	natalie	-0.1536587
-4.267513	nate	-0.2811694
-4.623237	national	-0.1590164
-4.483365	native	-0.254084
-4.623237	natural	-0.159098
-4.483365	navaho	-0.2530406
-4.483365	navneet	-0.1436748
-4.623237	navy	-0.139317
-4.483365	naz	-0.1554673
-4.623237	nazir	-0.1558503
-4.623237	nd	-0.1577802
-4.483365	ne	-0.1429542
-3.290869	near	-0.2492399
-4.156153	nearby	-0.1354944
-4.067599	nearest	-0.1729822
-3.470854	need	-0.2098061
-4.156153	needed	-0.2102263
-4.267513	needs	-0.2460687
-4.623237	neighborhood	-0.1436896
-4.623237	nelly	-0.1521806
-4.483365	nelson	-0.1444856
-4.623237	nepean	-0.1436896
-4.623237	nephew	-0.1436896
-4.623237	nes	-0.1521806
-4.267513	ness	-0.1374556
-4.623237	nest	-0.159098
-3.14444	nestea	-0.3890783
-4.267513	nestea's	-0.1705989
-4.156153	nesteas	-0.2184096
-4.483365	nestle	-0.1585263
-3.379745	never	-0.2575608
-3.116663	new	-0.4264803
-4.623237	newcastle	-0.1436896
-4.623237	newly	-0.1590941
-4.067599	newmarket	-0.2296367
-3.333037	next	-0.3042439
-4.483365	neyagawa	-0.152101
-4.067599	ni	-0.1763161
-3.673906	niagara	-0.6294399
-4.623237	niagra	-0.1590781
-3.82759	nice	-0.1690027
-4.483365	nicholas	-0.1571028
-4.623237	nick	-0.1436896
-4.483365	nicole	-0.2386955
-4.623237	nielsen	-0.1568232
-3.931221	night	-0.2445899
-4.623237	nin	-0.1559677
-4.483365	nina	-0.1561926
-4.623237	nina's	-0.1587282
-2.762597	nine	-0.3031478
-2.930001	nineteen	-0.5390307
-3.116663	ninety	-0.6573969
-4.156153	nino	-0.1765913
-4.417658	ninth	-0.2183052
-4.623237	nia	-0.158282
-2.442962	no	-0.2040671
-4.623237	no's	-0.1365093
-4.623237	noah	-0.1548614
-4.267513	noble	-0.250648
-4.417658	nobody	-0.1564996
-4.623237	nobody's	-0.1586322
-4.623237	noel	-0.1587282
-4.483365	noise	-0.1931942
-4.483365	noisy	-0.155951
-3.876322	non	-0.3125554
-4.156153	nondairy	-0.2992812
-4.156153	none	-0.3768787
-3.82759	nope	-0.1771869
-4.483365	nor	-0.1589198
-4.483365	noreen	-0.251905
-4.623237	norika	-0.1587282
-4.483365	norland	-0.1586498
-4.623237	norma	-0.1436896
-3.743985	normal	-0.1370714
-3.642696	normally	-0.1685413
-4.623237	norman	-0.1589341
-3.205968	north	-0.3409634
-4.267513	northbay	-0.1810769
-4.623237	northeast	-0.1586292
-4.623237	northern	-0.1587076
-4.483365	northgate	-0.2536312
-4.623237	northmount	-0.1587282
-3.994079	northwest	-0.250793
-4.267513	northwood	-0.1756915
-4.623237	norton	-0.1566233
-2.660496	not	-0.1406536
-4.623237	nota	-0.1590301
-4.623237	notated	-0.1560161
-4.623237	notation	-0.1560161
-3.931221	note	-0.1649293
-4.623237	noted	-0.1567927
-4.417658	notes	-0.1758411
-4.623237	noth	-0.1590941
-3.363611	nothing	-0.1818494
-4.483365	nothing's	-0.1589335
-4.623237	notification	-0.159098
-4.623237	notify	-0.1550898
-4.483365	nova	-0.250566
-4.623237	november	-0.1587145
-2.567634	now	-0.2944002
-4.623237	nu	-0.1539297
-4.623237	nugget	-0.1513862
-4.483365	nuggets	-0.2508563
-4.483365	num	-0.1529294
-4.623237	numb	-0.1587145
-4.623237	numbe	-0.1571815
-2.855142	number	-0.2249704
-4.483365	number's	-0.1785671
-4.067599	numbers	-0.146608
-4.623237	nuno	-0.1587282
-4.267513	nut	-0.2036693
-4.483365	nutritional	-0.2541001
-4.483365	nuts	-0.1513891
-3.042626	o	-0.3391086
-4.483365	o'	-0.1559441
-4.417658	o'clock	-0.1353506
-4.417658	oak	-0.1479931
-4.623237	oakfield	-0.1590438
-4.623237	oakland	-0.1580346
-4.483365	oakley	-0.2471865
-4.483365	oakridge	-0.1587734
-4.623237	oaks	-0.1588631
-3.743985	oakville	-0.2577519
-4.483365	oakwood	-0.1567376
-4.623237	oaky	-0.1573536
-4.417658	observation	-0.2192405
-4.483365	observatory	-0.143651
-4.067599	obviously	-0.141178
-4.623237	occan	-0.1548129
-4.623237	oesto	-0.1559125
-2.387693	of	-0.2615128
-3.252435	off	-0.18298
-3.432088	offer	-0.2586077
-4.417658	offered	-0.1931801
-4.067599	offering	-0.1362043
-4.483365	offers	-0.1519447
-4.267513	office	-0.1454812
-4.623237	offices	-0.1521806
-4.483365	officially	-0.1570201
-4.623237	often	-0.1586871
-4.483365	ogilvie	-0.1507681
-4.623237	ogilvy	-0.1577183
-2.526569	oh	-0.2225598
-4.067599	oil	-0.103878
-4.623237	oils	-0.1586802
-4.623237	oily	-0.1520034
-3.642696	ok	-0.1902829
-4.623237	oka	-0.1366362
-2.008312	okay	-0.5901824
-4.483365	okey	-0.254104
-4.417658	ol	-0.1513658
-3.560619	old	-0.2813575
-4.623237	olds	-0.1436896
-4.623237	oli	-0.1582957
-3.240344	olive	-0.336647
-4.623237	oliver	-0.1436896
-3.318521	olives	-0.1630826
-4.623237	olsen	-0.1576839
-4.156153	omar	-0.1720883
-2.14808	on	-0.4435036
-3.333037	once	-0.4901554
-2.142333	one	-0.3695312
-3.931221	one's	-0.161398
-3.290869	ones	-0.2646742
-4.623237	ongoing	-0.1587488
-4.623237	oni	-0.1575394
-2.999464	onion	-0.3914945
-3.042626	onions	-0.3365355
-4.623237	onle	-0.1572021
-3.277676	online	-0.2391674
-2.735666	only	-0.2314634
-4.623237	ont	-0.1436896
-2.840651	ontario	-0.4643781
-4.623237	onto	-0.1568232
-4.623237	ooh	-0.1514246
-4.483365	oops	-0.1527705
-3.82759	open	-0.1679407
-4.483365	opened	-0.1552598
-4.623237	opening	-0.1521806
-4.623237	opposed	-0.1563681
-3.994079	opposite	-0.2389273
-3.513421	option	-0.2933267
-3.783779	options	-0.2744422
-2.126451	or	-0.2920893
-3.290869	orange	-0.244665
-4.483365	oranges	-0.1446811
-3.994079	orangeville	-0.3600524
-3.931221	orchard	-0.1485135
-4.623237	ord	-0.1548129
-4.623237	orde	-0.1550898
-2.663645	order	-0.2493293
-4.267513	order's	-0.147822
-3.513421	ordered	-0.1681702
-3.560619	ordering	-0.1930698
-3.491616	orders	-0.2098882
-4.483365	oregano	-0.1365093
-4.623237	oregon	-0.1436896
-4.623237	organized	-0.1574637
-4.623237	origin	-0.1573261
-3.931221	original	-0.2500752
-4.156153	orillia	-0.2381668
-4.623237	orion	-0.1588655
-4.623237	orlean	-0.1587145
-3.707533	orleans	-0.3331971
-4.623237	osborne	-0.1577871
-4.267513	oscar	-0.1723209
-3.82759	oshawa	-0.298135
-4.623237	osman	-0.156899
-4.623237	oth	-0.1560092
-4.623237	othe	-0.1521806
-3.116663	other	-0.2058184
-4.483365	others	-0.136051
-3.536379	otherwise	-0.2515979
-3.560619	ottawa	-0.2676565
-4.483365	ottawasca	-0.1588145
-4.483365	otter	-0.157089
-4.623237	ottowa	-0.1436896
-4.623237	ou	-0.156899
-4.623237	ought	-0.1563681
-4.623237	ould	-0.1548129
-4.623237	ounce	-0.154889
-3.020509	our	-0.1963936
-4.483365	ours	-0.1553151
-3.099085	out	-0.2397564
-4.623237	outport	-0.1574844
-3.876322	outside	-0.2012396
-3.154108	over	-0.2983274
-4.483365	overall	-0.1410644
-4.623237	overhill	-0.1548129
-4.483365	overlea	-0.1360944
-4.623237	override	-0.154418
-4.067599	owen	-0.4572124
-3.994079	own	-0.1573792
-4.483365	owner	-0.1569306
-4.623237	ownership	-0.1579177
-3.050256	p	-0.4516859
-4.267513	p.m	-0.1817558
-4.417658	pa	-0.1529751
-4.623237	pablo	-0.1517873
-3.743985	pack	-0.1899695
-3.82759	package	-0.1751325
-4.483365	packets	-0.252332
-4.417658	packs	-0.2055836
-4.267513	page	-0.1277687
-3.876322	paid	-0.343291
-4.623237	pal	-0.1436896
-4.623237	palace	-0.02520251
-4.623237	palace's	-0.1585566
-4.623237	palomino	-0.1580346
-4.623237	pamela	-0.1580346
-4.623237	pampero	-0.1587214
-3.82759	pan	-0.2020371
-4.623237	panda	-0.1521806
-4.483365	pans	-0.1510057
-4.623237	panz	-0.155719
-4.623237	panzero	-0.1581308
-4.623237	panzerott	-0.1589546
-3.451039	panzerotti	-0.213079
-3.707533	panzerottis	-0.1863662
-4.417658	panzo	-0.1517885
-4.417658	panzos	-0.1854786
-3.876322	paper	-0.6200648
-4.623237	paprika	-0.1521806
-4.623237	par	-0.1436896
-4.623237	paramount	-0.1369755
-4.623237	pard	-0.1588998
-3.318521	pardon	-0.5056881
-3.333037	park	-0.2625872
-4.623237	parkdale	-0.1586253
-4.417658	parkedale	-0.2118132
-4.623237	parker	-0.1436896
-4.156153	parking	-0.3769892
-4.483365	parkland	-0.1575267
-4.623237	parklawn	-0.1436896
-4.623237	parks	-0.1548614
-4.156153	parkside	-0.2468388
-4.267513	parkway	-0.1843332
-3.613579	parkwood	-0.5001683
-4.417658	parkwoods	-0.3339141
-4.067599	parliament	-0.3282609
-4.623237	parmbelle	-0.158536
-3.560619	parmesan	-0.3503658
-3.743985	part	-0.4320941
-4.623237	participate	-0.155719
-4.623237	participated	-0.155719
-4.156153	particular	-0.1866553
-4.623237	particularly	-0.1571677
-4.623237	parties	-0.1436896
-4.483365	parts	-0.1392524
-4.623237	partway	-0.1588655
-3.290869	party	-0.5224198
-3.931221	pass	-0.1920224
-4.623237	passcode	-0.1563681
-4.417658	password	-0.2026609
-4.267513	past	-0.1480037
-4.483365	pasta	-0.1361016
-4.623237	pastas	-0.1436896
-4.417658	patch	-0.1520144
-4.483365	patience	-0.1176326
-4.483365	patient	-0.1525467
-4.623237	patio	-0.1581308
-4.417658	patricia	-0.2675411
-4.267513	patrick	-0.1630417
-4.623237	patsie	-0.1436896
-4.417658	patty	-0.318752
-4.267513	paul	-0.128302
-4.623237	paulette	-0.1436896
-4.623237	pauline	-0.156899
-3.318521	pay	-0.2854193
-3.304475	paying	-0.4011339
-3.783779	payment	-0.1802477
-4.483365	payment's	-0.2541001
-4.483365	payments	-0.1393929
-4.623237	pays	-0.156837
-4.483365	pe	-0.1583409
-4.483365	peach	-0.2540909
-4.483365	peakview	-0.1553082
-4.623237	peanut	-0.1590849
-4.483365	peanuts	-0.2386955
-4.417658	peek	-0.2138211
-4.483365	pembina	-0.25394
-4.483365	pembroke	-0.1568548
-4.623237	pendrith	-0.1574844
-4.623237	pennies	-0.1590369
-3.413931	people	-0.1409958
-3.673906	pep	-0.2336097
-4.623237	peper	-0.1586047
-3.783779	peperoni	-0.224541
-4.623237	pepp	-0.154889
-4.623237	peppe	-0.1566233
-3.195089	pepper	-0.2234729
-3.491616	peppercorn	-0.9110415
-4.417658	peppero	-0.1534755
-4.623237	pepperon	-0.1573536
-2.572731	pepperoni	-0.4665892
-4.483365	pepperoni's	-0.1392882
-3.994079	pepperonis	-0.1548187
-3.432088	peppers	-0.1702116
-4.623237	peps	-0.1568272
-3.586293	pepsi	-0.3243164
-4.483365	pepsis	-0.2386955
-3.707533	per	-0.1955341
-3.876322	percent	-0.1255026
-4.623237	percentage	-0.1548129
-4.623237	percentages	-0.1555601
