
\data\
ngram 1=6529
ngram 2=57494
ngram 3=40573

\1-grams:
-4.617094	'	-0.1469155
-4.617094	'cause	-0.1476643
-4.617094	'd	-0.1467034
-4.617094	'em	-0.1477475
-4.617094	'nduja	-0.146817
-4.617094	'no	-0.1478916
-4.617094	'nono'	-0.1277137
-4.617094	'pie'	-0.1454974
-4.021685	'za	-0.1482221
-3.599173	1	-0.1732256
-4.617094	1a	-0.1277137
-4.617094	1large	-0.1477777
-4.617094	1o	-0.1469306
-4.367036	1pm	-0.1273104
-4.109376	1st	-0.1408807
-4.617094	1topping	-0.1426396
-4.617094	1up	-0.1277137
-3.49317	2	-0.23835
-4.617094	2garlic	-0.1478457
-4.617094	2hr	-0.1476719
-4.021685	2l	-0.2351641
-4.617094	2letier	-0.1477852
-3.886339	2liter	-0.2342325
-4.219372	2liters	-0.2959323
-3.886339	2nd	-0.1313312
-4.617094	2rd	-0.1433348
-4.021685	2topping	-0.2285478
-4.617094	2toppings	-0.1277137
-4.617094	2x1	-0.1478683
-3.57015	3	-0.2580809
-4.617094	3cheese	-0.1478155
-3.831771	3rd	-0.1739108
-4.48062	3topping	-0.1412269
-4.617094	3yearolds	-0.1277137
-3.700083	4	-0.2046573
-3.948761	4th	-0.1454832
-3.663778	5	-0.1406103
-4.48062	5pm	-0.1440025
-4.367036	5th	-0.1630688
-4.367036	6	-0.1440599
-4.617094	6pc	-0.1464231
-4.617094	6pm	-0.1277137
-4.109376	7	-0.1216747
-4.617094	7ocklock	-0.1470971
-4.617094	7oclock	-0.1470971
-4.48062	7pm	-0.1268704
-4.48062	7th	-0.1307548
-4.617094	7up	-0.1277137
-4.021685	8	-0.3005735
-4.48062	8corner	-0.1427966
-4.617094	8piece	-0.1478916
-4.219372	8pm	-0.2511813
-4.617094	8th	-0.1473695
-4.617094	8ths	-0.1451706
-4.48062	9	-0.1275834
-4.48062	9th	-0.1703464
-1.342738	</s>
-99	<s>	-1.078016
-2.12568	a	-0.3562353
-4.617094	a2	-0.1478683
-4.617094	aaron	-0.1477248
-4.617094	abbott	-0.1430105
-4.617094	abby	-0.1433272
-4.617094	abc	-0.1277137
-4.48062	abc's	-0.1229279
-4.617094	abd	-0.146567
-4.617094	abgout	-0.1433272
-4.48062	ability	-0.143728
-3.948761	able	-0.5673673
-4.617094	abll	-0.1433196
-4.617094	abosuolutely	-0.1277137
-4.617094	abother	-0.1463018
-4.617094	abour	-0.1478877
-2.788953	about	-0.2048818
-4.617094	above	-0.1387884
-4.617094	abracadabra	-0.1274805
-3.886339	absolutely	-0.08549549
-4.617094	absolutley	-0.1463397
-4.367036	accept	-0.1249198
-4.48062	acceptable	-0.2385727
-4.617094	accepted	-0.1277137
-4.48062	accepting	-0.258478
-4.48062	accepts	-0.1474869
-4.617094	access	-0.1277137
-4.617094	accompany	-0.1477626
-4.617094	accomplice	-0.1438917
-4.617094	accont	-0.1444631
-4.219372	according	-0.4481239
-3.185946	account	-0.2575059
-4.021685	accurate	-0.3046987
-4.617094	aces	-0.1277137
-4.48062	achovies	-0.1389658
-4.617094	acknowledged	-0.1477777
-4.367036	across	-0.3226206
-4.617094	acted	-0.1478916
-4.617094	acting	-0.1467034
-4.367036	action	-0.125087
-4.617094	actual	-0.1467034
-3.039717	actually	-0.1143386
-4.617094	acv	-0.1472938
-4.617094	ad	-0.1478877
-4.617094	adams	-0.1473695
-2.870492	add	-0.3102162
-2.957058	added	-0.3527152
-3.739702	adding	-0.1858573
-4.219372	addition	-0.1365073
-3.336879	additional	-0.2328569
-4.617094	additionally	-0.1455885
-4.48062	additions	-0.1198731
-4.617094	additives	-0.1438917
-4.617094	additonal	-0.1477928
-4.617094	addons	-0.1277137
-4.617094	addrees	-0.1277137
-3.353604	address	-0.2803393
-4.617094	addresses	-0.1464155
-4.48062	adds	-0.1420775
-4.617094	addwingsandsoda	-0.1477097
-4.617094	adjust	-0.1409891
-4.48062	adjusted	-0.1433007
-4.48062	adjustment	-0.1446955
-4.617094	adress	-0.1461349
-4.617094	adrress	-0.1475358
-4.367036	adults	-0.1268039
-4.617094	advance	-0.1420086
-4.617094	adventurist	-0.1469382
-4.367036	adventurous	-0.1246489
-4.617094	advertised	-0.1277137
-4.617094	advertising	-0.1440137
-4.617094	advised	-0.1459073
-4.617094	aeropostale	-0.1277137
-4.367036	affect	-0.251848
-4.617094	afford	-0.1392936
-4.617094	afloat	-0.1277137
-4.617094	afraid	-0.1343581
-4.617094	afreaid	-0.1446002
-4.617094	afredo	-0.1396013
-3.261734	after	-0.3578686
-4.219372	afterbake	-0.115175
-4.109376	afternoon	-0.1991604
-4.617094	afterwards	-0.1277137
-3.092456	again	-0.3911693
-4.617094	aged	-0.1438917
-4.021685	ago	-0.1841438
-4.367036	agostinos	-0.1896927
-4.617094	agreat	-0.1477248
-4.367036	agree	-0.1734847
-4.617094	agreed	-0.1478608
-4.617094	agreement	-0.1277137
-4.219372	ah	-0.1429512
-4.617094	ah'	-0.1426396
-4.617094	aha	-0.1277137
-3.948761	ahead	-0.1272311
-4.617094	ahhh	-0.1471577
-4.617094	ahhhh	-0.1478916
-4.219372	ahi	-0.199423
-4.617094	ahthey	-0.1478532
-4.48062	ai	-0.1357783
-4.367036	ain't	-0.1465491
-4.617094	air	-0.1478916
-4.617094	akso	-0.1456265
-4.617094	al	-0.1277137
-4.617094	ala	-0.1478916
-4.617094	alamia	-0.1434035
-4.617094	alamitos	-0.1228484
-4.617094	alarm	-0.1434417
-4.617094	alba's	-0.1426396
-4.617094	albania	-0.1426396
-4.617094	albums	-0.1277137
-4.617094	alcohol	-0.1277137
-4.617094	ale	-0.1134732
-4.48062	alert	-0.1468968
-4.367036	alex	-0.1769968
-4.219372	alexa	-0.1442044
-4.48062	alexander	-0.2385727
-4.617094	alexandria	-0.1478381
-4.617094	alfonzos	-0.1426396
-4.367036	alfrado	-0.177657
-3.353604	alfredo	-0.3340125
-4.48062	alfredo's	-0.1212246
-4.48062	alice	-0.1458203
-2.498433	all	-0.3277203
-4.617094	alla	-0.1478683
-4.617094	allen	-0.1478916
-4.617094	allergens	-0.1277137
-4.48062	allergic	-0.1224919
-4.617094	allergies	-0.1277137
-4.367036	allergy	-0.1941904
-4.617094	allesandro's	-0.1475131
-4.617094	alley	-0.1277137
-4.617094	alliance	-0.1478608
-4.617094	allie	-0.1456265
-4.617094	allmeat	-0.1465064
-4.617094	allopenos	-0.1478608
-3.831771	allow	-0.1963923
-4.48062	allowed	-0.2547508
-4.48062	allowing	-0.2578804
-4.367036	allows	-0.2174998
-4.617094	allright	-0.1181939
-4.617094	allsausage	-0.1426396
-4.617094	allston	-0.1473695
-4.617094	allthank	-0.1444631
-4.617094	alma	-0.1478683
-4.617094	almalfi's	-0.1396013
-4.367036	almond	-0.1980827
-3.783302	almost	-0.1889721
-4.617094	aloes	-0.1472484
-4.48062	aloha	-0.1476079
-4.617094	alondra	-0.1478079
-4.109376	alone	-0.2233164
-3.290252	along	-0.7704249
-4.48062	aloo	-0.1395906
-4.617094	alot	-0.1273538
-4.617094	alpha	-0.1478916
-3.290252	already	-0.2057745
-4.617094	alreight	-0.1472863
-3.131547	alright	-0.0650083
-4.617094	alrighty	-0.1335276
-2.678746	also	-0.216428
-4.617094	alteration	-0.1277137
-4.219372	alternative	-0.2233722
-4.367036	alternatives	-0.1978266
-4.617094	although	-0.1466201
-4.48062	altogether	-0.1415873
-4.48062	alu	-0.2587363
-4.617094	alvyn	-0.1478916
-3.663778	always	-0.1190841
-4.367036	am	-0.1606731
-4.617094	amarillo	-0.1277137
-3.886339	amazing	-0.1452385
-4.48062	amazonas	-0.2534986
-3.663778	american	-0.4458032
-4.617094	americano	-0.1476341
-4.219372	amex	-0.1233454
-4.617094	amherst	-0.1473695
-4.617094	amoment	-0.1277137
-4.367036	amore	-0.216127
-3.57015	amount	-0.3565668
-4.48062	amounts	-0.1236995
-4.617094	amy	-0.1432901
-2.637507	an	-0.478315
-4.617094	anaything	-0.1477399
-4.367036	anchovie	-0.1341861
-3.039717	anchovies	-0.3083577
-3.630275	anchovy	-0.2157824
-1.722806	and	-0.3011418
-4.617094	andbbq	-0.1469836
-4.367036	andor	-0.1463856
-4.617094	andrea's	-0.1470971
-4.48062	andrew	-0.1269417
-4.617094	andrews	-0.147256
-4.617094	andy's	-0.1478155
-4.617094	anemic	-0.1476568
-4.367036	angel	-0.327185
-4.617094	angeles	-0.1474753
-4.617094	angelo	-0.1433196
-4.617094	angelos	-0.1277137
-4.48062	angie	-0.1455774
-4.617094	angrea	-0.1474602
-4.617094	anly	-0.1475963
-4.367036	ann	-0.1395253
-4.48062	anne	-0.1253295
-4.617094	annie's	-0.1426396
-4.617094	annoying	-0.1273538
-2.950269	another	-0.2671356
-4.48062	answer	-0.1272033
-4.617094	answering	-0.1452543
-4.367036	anthony's	-0.2547413
-4.617094	anthoy's	-0.1277137
-4.617094	antica	-0.1277137
-4.617094	anticipate	-0.1447219
-4.48062	antico	-0.1249395
-4.021685	antipasto	-0.2657692
-4.617094	antiqua	-0.1277137
-4.48062	antonio	-0.1276783
-4.48062	antonio's	-0.1433923
-4.48062	antonios	-0.146374
-2.654217	any	-0.3101313
-4.617094	anyhting	-0.1477399
-3.700083	anymore	-0.2595592
-4.109376	anyone	-0.1972727
-4.617094	anyplace	-0.147687
-4.617094	anystreet	-0.1478916
-4.617094	anyther	-0.1477399
-4.617094	anythiing	-0.1477399
-4.617094	anythin	-0.1477399
-2.503219	anything	-0.7350242
-4.617094	anythingelse	-0.1277137
-4.367036	anythings	-0.3270333
-4.617094	anythng	-0.1477399
-4.021685	anytime	-0.1587592
-4.617094	anyting	-0.1478457
-4.617094	anytown	-0.1478877
-3.599173	anyway	-0.3596644
-4.367036	anyways	-0.1937187
-4.219372	anywhere	-0.118085
-4.48062	aokay	-0.2385727
-4.617094	apart	-0.1465519
-4.109376	apartment	-0.1733905
-4.617094	aparts	-0.1477626
-4.617094	apiece	-0.1277137
-4.617094	apoligize	-0.1434417
-4.48062	apologies	-0.1557032
-4.48062	apologize	-0.1479037
-3.783302	app	-0.251172
-4.109376	apparently	-0.1294526
-4.617094	appatizers	-0.1277137
-4.617094	appealing	-0.1277137
-4.367036	appear	-0.21401
-4.48062	appears	-0.1109081
-4.617094	appetit	-0.1277137
-4.48062	appetites	-0.1248519
-4.367036	appetizer	-0.15272
-3.886339	appetizers	-0.1376312
-4.617094	appetizing	-0.1277137
-3.831771	apple	-0.3798018
-4.617094	apples	-0.1349454
-4.219372	applewood	-0.2741493
-4.617094	applicable	-0.1478683
-4.48062	applied	-0.1445814
-4.617094	apply	-0.1424295
-3.663778	appreciate	-0.4995021
-4.48062	appreciated	-0.1470633
-4.617094	approaching	-0.1277137
-4.617094	approved	-0.1444631
-4.367036	approx	-0.1472532
-4.617094	approximate	-0.1476492
-3.948761	approximately	-0.2388222
-4.48062	april	-0.1455622
-4.48062	arabian	-0.2534986
-4.617094	arancini	-0.1476719
-4.617094	arden	-0.1477475
-2.466328	are	-0.2173347
-3.663778	area	-0.2382297
-3.700083	aren't	-0.2024141
-4.48062	arent	-0.1463513
-4.617094	arge	-0.146567
-4.617094	argh	-0.1472711
-4.617094	ari's	-0.1478608
-4.617094	aright	-0.1459377
-4.617094	arizmendi	-0.1447067
-4.48062	arizona	-0.1722822
-4.617094	armandos	-0.1426396
-4.617094	armargosa	-0.147687
-4.617094	army	-0.1277137
-4.367036	arnold	-0.2185599
-3.290252	around	-0.2001166
-4.617094	arrabbiata	-0.1475661
-4.617094	arrange	-0.1446002
-4.617094	arrangements	-0.1461349
-4.617094	arrgggh	-0.1454974
-4.617094	arrival	-0.1433196
-3.783302	arrive	-0.2914973
-4.617094	arrived	-0.1277137
-4.48062	arrives	-0.1421811
-4.48062	arriving	-0.1463454
-4.617094	art	-0.1440137
-4.617094	artechokes	-0.1478877
-4.617094	arthor	-0.1475207
-4.617094	arthur's	-0.1475063
-3.517345	artichoke	-0.2591414
-3.542946	artichokes	-0.3443895
-4.617094	arty	-0.1477399
-4.617094	arugla	-0.1473014
-3.700083	arugula	-0.1964215
-2.391393	as	-0.45595
-4.617094	asada	-0.1087386
-3.948761	asap	-0.3785659
-4.617094	ashley	-0.1454974
-3.948761	asiago	-0.156612
-4.367036	asian	-0.3256482
-4.367036	aside	-0.2139566
-4.48062	asilyn	-0.1452051
-3.336879	ask	-0.4391254
-4.617094	ask's	-0.1454974
-4.021685	asked	-0.2212569
-3.831771	asking	-0.1647935
-4.617094	aspaghetti	-0.1478079
-4.219372	asparagus	-0.2980135
-4.617094	aspecial	-0.1477172
-4.617094	aspects	-0.1455657
-4.617094	aspen	-0.1478608
-4.617094	ass	-0.1478381
-4.617094	assembled	-0.1277137
-4.109376	assist	-0.2892266
-4.109376	assistance	-0.1752299
-3.371	assistant	-0.3458957
-4.617094	assisting	-0.1470214
-4.617094	assistnce	-0.1447067
-4.617094	assisty	-0.1444631
-4.219372	associated	-0.2295175
-4.617094	assortment	-0.1455657
-4.48062	assume	-0.1409701
-4.617094	assumed	-0.1444631
-4.48062	assuming	-0.2131313
-4.617094	astoria	-0.1451706
-4.617094	aswell	-0.1277137
-2.374966	at	-0.4765439
-4.367036	ate	-0.1258267
-4.48062	atlanta	-0.2587468
-4.617094	atlantic	-0.1478079
-4.48062	atlas	-0.1189697
-4.617094	atm	-0.1277137
-4.617094	ato	-0.1461349
-4.617094	atop	-0.1446382
-4.48062	attached	-0.2385727
-4.617094	attack	-0.1348016
-4.617094	attempted	-0.1438917
-4.617094	attending	-0.1478079
-4.617094	attention	-0.1446002
-4.617094	auburn	-0.1276546
-4.367036	audio	-0.1456573
-4.48062	auggie's	-0.2583192
-4.109376	aunt	-0.21918
-4.48062	aurelios	-0.1420392
-4.48062	aurora	-0.1276942
-4.48062	austin	-0.1221634
-4.617094	austintown	-0.1472333
-4.617094	authorize	-0.1433272
-4.617094	auto	-0.1478916
-4.617094	autocorrect	-0.1471425
-4.48062	automatic	-0.1394205
-4.367036	automatically	-0.118889
-4.617094	autumn	-0.1478916
-4.48062	avacado	-0.2583117
-4.617094	avaialable	-0.1478834
-4.617094	avaialble	-0.1478916
-4.617094	availabe	-0.1438917
-4.48062	availability	-0.1444748
-2.893516	available	-0.3917544
-4.367036	avaliable	-0.1943182
-4.617094	avalon	-0.1478079
-3.353604	ave	-0.3640447
-3.448518	avenue	-0.289717
-4.021685	average	-0.1184675
-4.617094	averages	-0.1460667
-4.617094	avialable	-0.1433272
-3.700083	avocado	-0.1389792
-4.48062	avoid	-0.1918813
-4.48062	aw	-0.1414739
-4.48062	aware	-0.124254
-3.542946	away	-0.1751221
-3.49317	awesome	-0.1439945
-4.617094	awesomeand	-0.1454974
-4.617094	awesomei	-0.1456265
-4.617094	awesomevery	-0.1478916
-4.617094	awesomeyour	-0.1464231
-4.617094	awful	-0.1469533
-4.617094	aww	-0.1429305
-4.617094	ayour	-0.1476719
-4.617094	az	-0.1277137
-4.617094	azzip	-0.1433196
-4.617094	azzuria	-0.1277137
-4.021685	b	-0.2120649
-4.617094	babina	-0.1475661
-4.617094	babini	-0.1475661
-3.739702	baby	-0.2474389
-4.617094	babysit	-0.1472938
-4.617094	babysitting	-0.1464534
-4.48062	baccon	-0.1190139
-3.248149	back	-0.3870294
-4.48062	backed	-0.1977394
-4.48062	background	-0.1468898
-4.617094	backyard	-0.1277137
-2.770754	bacon	-0.3123665
-4.617094	baconranch	-0.1277137
-4.617094	bacons	-0.1396013
-4.617094	baconwait	-0.1467034
-4.48062	bacopa	-0.2385727
-3.700083	bad	-0.1745182
-4.617094	badokay	-0.1452543
-4.021685	bag	-0.2464873
-4.48062	bags	-0.1250233
-4.617094	baguette	-0.1190139
-4.617094	bahama	-0.1477852
-4.617094	baja	-0.1478916
-3.948761	bake	-0.2767656
-3.275759	baked	-0.3572059
-4.617094	baking	-0.1433348
-4.48062	baklava	-0.1582156
-4.617094	bal	-0.1478916
-4.617094	balance	-0.1447219
-4.021685	ball	-0.1535791
-4.617094	balle	-0.1478155
-4.617094	ballerina's	-0.1277137
-4.48062	balloon	-0.2385727
-4.367036	balls	-0.1900019
-4.367036	balsamic	-0.117252
-4.48062	bamboo	-0.1478773
-3.209769	banana	-1.030464
-4.48062	bananas	-0.1236394
-4.617094	banchie	-0.1426396
-4.617094	band	-0.1477248
-4.617094	bangor	-0.1477899
-4.219372	bank	-0.1449712
-4.617094	bannana	-0.1474073
-4.617094	banquet	-0.1476114
-4.219372	bar	-0.1431681
-4.617094	barbacue	-0.1229999
-2.985329	barbecue	-0.383226
-4.109376	barbecued	-0.2401301
-4.219372	barbecues	-0.1125401
-3.408032	barbeque	-0.2554589
-4.617094	barbequed	-0.146139
-4.617094	barbequwe	-0.1469836
-4.48062	barber	-0.2572139
-4.48062	barbque	-0.1410735
-4.617094	barbra	-0.1478877
-4.617094	barcelona	-0.1277137
-4.617094	barely	-0.1478003
-4.367036	barley	-0.2181128
-4.617094	barlic	-0.1476643
-4.617094	barn	-0.1242184
-4.617094	barqs	-0.1476568
-4.48062	barque	-0.1392279
-4.617094	barrel	-0.1381245
-4.617094	barro's	-0.1478916
-4.367036	barry's	-0.321933
-3.831771	base	-0.1624465
-4.617094	baseball	-0.1478532
-3.886339	based	-0.3887728
-4.617094	basel	-0.1396013
-4.617094	basement	-0.1277137
-4.617094	basic	-0.146817
-4.48062	basically	-0.1471692
-3.427803	basil	-0.2619876
-4.617094	basilis	-0.1446002
-4.617094	basils	-0.1464837
-4.48062	basket	-0.1441625
-4.617094	bath	-0.1472938
-4.48062	battered	-0.1465302
-4.48062	bay	-0.1473508
-4.617094	bbg	-0.1277137
-2.924126	bbq	-0.3471048
-4.617094	bbqsauce	-0.1277137
-2.793625	be	-0.1476801
-4.48062	beach	-0.1236394
-4.617094	beacon	-0.1396013
-4.617094	beacuse	-0.1465898
-3.599173	bean	-0.2989889
-3.49317	beans	-0.3085883
-4.617094	bear	-0.1461349
-4.617094	beat	-0.1475358
-4.48062	beau	-0.2587506
-4.367036	beautiful	-0.1398254
-4.617094	bebe	-0.1426396
-4.617094	becase	-0.1447219
-4.617094	becasue	-0.1434417
-3.275759	because	-0.3260638
-4.48062	becky	-0.1421617
-4.617094	become	-0.1475661
-4.617094	becomes	-0.1476568
-4.48062	bedford	-0.1440446
-2.876135	beef	-0.2441483
-3.408032	been	-0.2449887
-3.831771	beer	-0.2154614
-4.617094	beeradded	-0.1477248
-4.48062	beers	-0.1276942
-4.617094	beersis	-0.1446002
-3.00781	before	-0.441229
-4.617094	beg	-0.1472938
-4.617094	beggars	-0.1210559
-4.367036	begin	-0.1214976
-4.617094	beibg	-0.1446382
-3.389121	being	-0.21553
-4.109376	bela	-0.29841
-4.617094	belaluna	-0.1277137
-4.617094	belarina	-0.1277137
-4.617094	bele	-0.1478155
-4.021685	believe	-0.1474051
-3.101903	bell	-0.9535767
-3.000186	bella	-0.7478345
-4.48062	bella's	-0.1201228
-4.367036	bellagios	-0.1371541
-4.617094	belle	-0.1478916
-4.48062	belleville	-0.2183244
-4.48062	bello	-0.1477968
-4.367036	bellpeppers	-0.118582
-4.48062	belluno	-0.1245251
-4.367036	belly	-0.1174865
-4.48062	bellybuster	-0.1425519
-4.48062	belmont	-0.1380164
-4.617094	bend	-0.1277137
-4.617094	benevento's	-0.1474602
-4.617094	benji's	-0.147823
-4.617094	bennett	-0.1277137
-4.617094	benny	-0.1277137
-3.948761	benny's	-0.2807536
-4.617094	beoh	-0.1476492
-4.617094	beppo	-0.1277137
-4.617094	berbecue	-0.1476643
-4.617094	berkshire	-0.1477777
-4.48062	berry	-0.1475247
-4.617094	berttuccis	-0.1277137
-4.617094	bertucci	-0.1457935
-4.617094	bertucci's	-0.1277137
-4.109376	bertuccis	-0.2213627
-3.886339	besides	-0.1502945
-3.783302	best	-0.117174
-4.617094	bestlets	-0.1452543
-4.367036	bet	-0.1099274
-4.617094	betcha	-0.127235
-4.617094	beto's	-0.1432244
-3.275759	better	-0.2531111
-4.617094	betty	-0.1478916
-3.886339	between	-0.1714408
-4.48062	beverage	-0.1248519
-4.219372	beverages	-0.1763355
-4.617094	beyond	-0.1433272
-4.617094	bf	-0.1396013
-4.617094	bi	-0.1475358
-4.617094	biago's	-0.1447067
-4.367036	bianco	-0.1363082
-4.617094	biased	-0.1440137
-3.305245	big	-0.1058879
-3.831771	bigger	-0.1919982
-4.367036	biggest	-0.1542457
-4.48062	biggie	-0.2385727
-4.617094	bigs	-0.1423913
-3.542946	bill	-0.1749048
-4.48062	bill's	-0.2534986
-4.219372	billed	-0.1753673
-4.617094	billie	-0.1478877
-4.021685	billion	-0.1994059
-4.617094	biography	-0.1478916
-4.617094	biopic	-0.1478759
-4.617094	biopics	-0.1277137
-4.617094	bird	-0.1478683
-4.617094	birmingham	-0.1478916
-3.739702	birthday	-0.2935987
-4.367036	biryani	-0.1110093
-4.617094	biscuit	-0.1277137
-4.617094	biscuits	-0.1277137
-4.617094	bismarck	-0.1277137
-4.617094	bison	-0.1471047
-4.367036	bit	-0.102386
-4.617094	bite	-0.1469306
-4.219372	bites	-0.1813746
-3.948761	bits	-0.236027
-4.48062	bla	-0.2180339
-2.917829	black	-0.7320592
-4.367036	blaine	-0.1795527
-4.617094	blakely	-0.1277137
-4.617094	blanc	-0.1277137
-4.48062	blanco	-0.1476003
-4.617094	blast	-0.138773
-4.617094	blastoff	-0.1277137
-4.021685	blaze	-0.3125494
-4.617094	blech	-0.1396013
-3.700083	blend	-0.1756893
-4.48062	blended	-0.1432015
-4.617094	bless	-0.1444631
-4.617094	bleu	-0.1470517
-4.617094	blk	-0.1477323
-4.617094	block	-0.1477777
-4.617094	blocked	-0.1478532
-4.48062	blocks	-0.2183849
-4.617094	blood	-0.1478877
-4.617094	bloomingdale	-0.1477097
-4.617094	blow	-0.1277137
-4.617094	blows	-0.1468019
-3.739702	blt	-0.246207
-4.617094	blts	-0.1350154
-3.700083	blue	-0.6049195
-4.617094	blueberry	-0.1478916
-3.663778	blvd	-0.1821916
-4.617094	boardman	-0.1277137
-4.219372	boardwalk	-0.4468718
-4.617094	boat	-0.1386959
-4.021685	bob	-0.1305595
-4.48062	bobby	-0.2579107
-4.367036	boerewors	-0.1983571
-4.617094	bogo	-0.147823
-4.48062	bohemian	-0.2587506
-4.617094	boil	-0.1434035
-4.48062	boli’s	-0.1255803
-4.367036	bomb	-0.1983815
-4.617094	bon	-0.1478916
-4.219372	bone	-0.194343
-3.783302	boneless	-0.2336878
-4.48062	bonus	-0.1442692
-4.021685	book	-0.1685106
-4.219372	booked	-0.1714525
-4.48062	booking	-0.1438348
-4.617094	boom	-0.1434417
-4.48062	boring	-0.127528
-4.617094	born	-0.1433196
-4.617094	boro	-0.1277137
-3.353604	boss	-0.2802208
-4.48062	bosses	-0.1387036
-4.367036	boston	-0.1423578
-4.617094	bot	-0.1465519
-2.832923	both	-0.3298436
-4.617094	bother	-0.1399286
-3.470271	bottle	-0.3156399
-4.021685	bottled	-0.1953479
-3.886339	bottles	-0.2827886
-4.617094	bottom	-0.143148
-4.617094	bought	-0.1455885
-4.617094	boulder	-0.1478381
-4.48062	boulevard	-0.1229279
-4.48062	bourbon	-0.2572139
-4.48062	bourdeux	-0.2584856
-4.617094	bout	-0.1452811
-4.617094	boutique	-0.1477399
-3.448518	bowl	-0.2865843
-3.886339	bowls	-0.271713
-4.109376	box	-0.1262487
-4.617094	boxed	-0.1243657
-4.021685	boy	-0.1448487
-4.617094	boyfriend	-0.1470255
-4.617094	boylston	-0.1478079
-4.219372	boys	-0.1318613
-4.617094	br	-0.1477248
-4.617094	bragg	-0.1227523
-4.617094	brambleton	-0.1477475
-4.48062	brand	-0.2385727
-4.617094	branded	-0.1478759
-4.48062	brands	-0.1429036
-4.617094	branson	-0.1473695
-4.617094	brass	-0.1478877
-2.970964	bread	-0.3596217
-4.617094	breadcrumbs	-0.1474602
-4.617094	breaded	-0.1478759
-3.886339	breads	-0.1474727
-4.48062	breadstick	-0.2155645
-3.152496	breadsticks	-0.3605951
-4.219372	break	-0.138403
-3.174507	breakfast	-0.5821859
-4.617094	breaking	-0.1270606
-4.617094	breaksticks	-0.1433348
-4.617094	breast	-0.1478683
-4.48062	breath	-0.1478811
-4.617094	breather	-0.1459377
-4.617094	bredsticks	-0.1463397
-4.617094	brian	-0.1448589
-3.783302	brick	-0.3286037
-4.617094	brickoven	-0.1426396
-4.617094	bridge	-0.1478381
-4.617094	brief	-0.1472106
-4.617094	briefly	-0.1478834
-4.48062	brilliant	-0.1444487
-4.617094	brilliantly	-0.1478916
-3.700083	bring	-0.2277073
-4.021685	bringing	-0.1682067
-4.48062	brings	-0.1377576
-4.617094	brinking	-0.1455885
-4.48062	brioche	-0.2185479
-4.367036	brisket	-0.2063697
-4.617094	british	-0.147823
-4.617094	bro	-0.1455885
-4.367036	broad	-0.1272154
-4.219372	broadway	-0.1854482
-3.336879	broccoli	-0.2238012
-4.48062	broccolionion	-0.1426018
-4.617094	broccolli	-0.1477248
-4.617094	brocholi	-0.1396013
-4.617094	brococlli	-0.1478532
-4.617094	brocolli	-0.1426396
-4.367036	broke	-0.217568
-4.48062	brook	-0.1221881
-3.542946	brooklyn	-0.6217543
-4.367036	brooklyn's	-0.1211363
-4.617094	brooklynstyle	-0.1469306
-4.617094	brother	-0.1349454
-4.021685	brother's	-0.3719868
-4.367036	brothers	-0.2725647
-3.700083	brown	-0.2689074
-4.617094	brown's	-0.1478916
-3.739702	brownie	-0.2305506
-3.886339	brownies	-0.2575761
-4.617094	browns	-0.1032225
-4.617094	browse	-0.1433272
-4.367036	brunos	-0.1564202
-4.367036	brunswick	-0.3271812
-4.021685	bruschetta	-0.2114103
-4.617094	bruschettas	-0.1277137
-4.617094	brush	-0.1472258
-4.617094	brushed	-0.1478457
-4.48062	brussel	-0.2587425
-4.617094	brussels	-0.1478834
-4.617094	brussle	-0.1478834
-4.617094	bu	-0.1433272
-4.617094	buca	-0.1478683
-4.48062	bucket	-0.2564248
-4.617094	buckle	-0.1478759
-3.831771	bucks	-0.1726599
-4.617094	bud	-0.1434417
-4.48062	buddies	-0.1458962
-4.219372	buddy	-0.1162851
-4.48062	budget	-0.2385727
-4.617094	buds	-0.1463018
-4.367036	budweiser	-0.1481568
-4.617094	budweisers	-0.1478916
-2.992694	buffalo	-0.5864845
-4.617094	buffet	-0.1463548
-4.617094	bufflo	-0.1463548
-4.617094	buggers	-0.1434417
-4.617094	bugs	-0.1444631
-3.783302	build	-0.5664225
-4.617094	building	-0.1433348
-4.219372	buildyourown	-0.1406528
-4.617094	built	-0.1396013
-4.617094	bulk	-0.1434035
-4.021685	bummer	-0.1267999
-4.367036	bun	-0.2338589
-4.617094	bunch	-0.112729
-4.617094	bundle	-0.1472192
-4.617094	bunny	-0.1442042
-4.48062	buns	-0.1935907
-3.320774	burger	-0.2902365
-3.353604	burgers	-0.2948388
-4.617094	buritto	-0.1277137
-4.617094	burke	-0.1265611
-4.617094	burn	-0.1447219
-4.48062	burning	-0.1471768
-4.617094	burnt	-0.1277137
-4.367036	burrata	-0.1171249
-3.152496	burrito	-0.3718275
-3.152496	burritos	-0.3576969
-4.617094	burst	-0.1277137
-3.783302	business	-0.1729219
-4.617094	buster	-0.1474148
-3.57015	busy	-0.2349407
-2.434375	but	-0.3175142
-4.617094	butchering	-0.1455657
-4.367036	butchers	-0.3270182
-4.617094	butler	-0.1473695
-3.261734	butter	-0.301409
-4.617094	buttercrust	-0.1277137
-4.48062	buttered	-0.2572139
-4.617094	buttery	-0.1478155
-4.617094	butty	-0.1396013
-3.542946	buy	-0.3353827
-4.109376	buying	-0.1815575
-4.617094	buzzfeed	-0.1477248
-4.617094	bway	-0.1426396
-2.905503	by	-0.2953748
-2.978087	bye	-0.6848693
-3.630275	byebye	-0.5796564
-4.617094	byee	-0.1277137
-4.617094	byeeeee	-0.1277137
-4.617094	byesee	-0.1444631
-4.617094	bypass	-0.1277137
-4.48062	c	-0.140144
-3.886339	ca	-0.4224707
-4.617094	cabbage	-0.1474527
-4.617094	cads	-0.1277137
-3.470271	caesar	-0.6377009
-4.219372	caesar's	-0.1584344
-4.617094	caesars	-0.09879845
-4.109376	cafe	-0.1608264
-4.617094	cafora's	-0.1447067
-4.617094	cah	-0.1471879
-4.617094	cahuenga	-0.1478079
-3.663778	cajun	-0.2150989
-3.886339	cake	-0.207129
-4.48062	cakes	-0.1160939
-4.48062	cal	-0.1377886
-4.48062	calabrese	-0.257676
-4.48062	calabria	-0.1740858
-4.219372	calabrian	-0.2747852
-4.367036	calamari	-0.1941696
-4.48062	calculate	-0.2116678
-4.617094	calculator	-0.1477323
-4.48062	calda	-0.1349454
-4.617094	calendar	-0.1277137
-4.367036	cali	-0.3256482
-3.663778	california	-0.3344365
-4.48062	californian	-0.1213371
-4.48062	californiastyle	-0.192878
-3.320774	call	-0.2755415
-3.320774	called	-0.2132785
-3.783302	calling	-0.1056729
-4.617094	calls	-0.1447219
-4.48062	calm	-0.1474988
-4.48062	calories	-0.1431938
-4.219372	calzone	-0.2500708
-4.219372	calzones	-0.1417952
-4.021685	came	-0.2083315
-4.617094	cameron	-0.1473695
-4.48062	campfire	-0.1425519
-4.617094	camping	-0.1475434
-4.48062	campisis	-0.1442311
-2.281822	can	-0.5035109
-3.57015	can't	-0.2516001
-3.074155	canadian	-1.197298
-4.617094	canale	-0.1277137
-4.617094	canali's	-0.1433348
-4.109376	cancel	-0.3851686
-4.617094	candace	-0.1472106
-4.617094	candian	-0.1471652
-4.617094	candied	-0.1471652
-4.617094	cane	-0.1478079
-4.617094	caneries	-0.1277137
-4.617094	cannelloni	-0.1396013
-4.48062	cannoli	-0.1240189
-4.617094	cannoli's	-0.1471047
-4.367036	cannolis	-0.1896348
-4.021685	cannot	-0.167404
-4.617094	canny	-0.1455657
-4.617094	canolli	-0.1433196
-4.367036	cans	-0.1959446
-4.617094	cant	-0.1478003
-4.617094	canyes	-0.1434417
-4.219372	can’t	-0.2422631
-4.109376	capers	-0.1183405
-4.617094	capicola	-0.1478155
-4.48062	capital	-0.2550632
-4.48062	capozzi's	-0.124254
-4.617094	caprese	-0.1427889
-4.617094	capri's	-0.1277137
-4.48062	capsicum	-0.1418595
-4.48062	capsicums	-0.2385727
-4.617094	captain	-0.1433196
-4.219372	car	-0.1806051
-4.48062	caramalized	-0.2580923
-4.219372	caramel	-0.1996277
-3.831771	caramelized	-0.5005949
-4.617094	carbb	-0.1277137
-4.617094	carbohydrated	-0.1475963
-4.48062	carbohydrates	-0.2584553
-4.617094	carbonara	-0.1277137
-4.48062	carciofi	-0.1342366
-3.209769	card	-0.2744482
-4.617094	cardinfo	-0.1438917
-4.219372	cards	-0.1194222
-3.783302	care	-0.1883016
-4.617094	careful	-0.1229999
-4.48062	carl's	-0.2119057
-4.48062	carlisle	-0.258546
-4.021685	carlos	-0.3025136
-4.48062	carly	-0.1458968
-4.48062	carmalized	-0.258357
-4.367036	carnalicious	-0.141622
-3.886339	carne	-0.7531537
-4.617094	carnitas	-0.1475963
-4.367036	carnivore	-0.215933
-4.617094	carnivores	-0.1455657
-4.48062	carolina	-0.1263865
-4.617094	carp	-0.1426396
-4.109376	carrie	-0.1378147
-4.48062	carries	-0.2159522
-4.617094	carrollton	-0.1478683
-4.617094	carrot	-0.1475963
-4.109376	carrots	-0.1361423
-3.57015	carry	-0.2729826
-4.617094	carrying	-0.1470063
-3.599173	carryout	-0.2540732
-4.617094	carson	-0.1350154
-4.48062	cart	-0.1958412
-4.617094	cartufo	-0.1396013
-4.48062	caruso's	-0.145509
-4.617094	carvan	-0.1447067
-4.617094	carving	-0.1446382
-4.109376	casa	-0.2937205
-4.617094	casalinga	-0.1478683
-4.617094	cascade	-0.1426396
-4.109376	case	-0.1199397
-4.617094	cases	-0.1455657
-4.617094	casey	-0.1478306
-4.021685	casey's	-0.2424378
-3.517345	cash	-0.4062447
-4.367036	cashew	-0.1873657
-4.617094	cashier	-0.1424718
-4.617094	casino	-0.1390275
-4.48062	cassano's	-0.1243657
-4.617094	casso	-0.1396013
-4.48062	cast	-0.2385727
-4.617094	castro	-0.1473695
-4.617094	casual	-0.1476946
-4.617094	catalan	-0.1477399
-4.48062	catch	-0.2581377
-4.617094	catching	-0.1440137
-4.617094	catchup	-0.1396013
-4.617094	cattleman	-0.1478155
-4.617094	caught	-0.1446002
-4.109376	cauliflower	-0.1168902
-4.48062	caviar	-0.2385727
-4.219372	ceasar	-0.2741644
-4.617094	ceasar's	-0.1433196
-4.617094	ceasars	-0.1394051
-4.617094	cedar	-0.1478759
-4.617094	celebrate	-0.1456457
-4.48062	celebrating	-0.1448821
-4.617094	celery	-0.1478079
-4.617094	celiac	-0.1277137
-4.367036	cell	-0.1946447
-4.617094	cellphone	-0.12266
-4.617094	cent	-0.1274646
-4.617094	centennial	-0.1395866
-4.219372	center	-0.135544
-4.617094	central	-0.1277137
-4.617094	centralia	-0.1277137
-4.021685	cents	-0.241973
-4.219372	certain	-0.1399567
-4.109376	certainly	-0.08580473
-4.617094	certainlywould	-0.1444631
-4.617094	cesaer	-0.1477021
-4.48062	cesar	-0.1472833
-4.617094	cesars	-0.1277137
-4.617094	cesears	-0.1277137
-4.617094	ch'i	-0.1277137
-4.617094	cha	-0.1477323
-4.021685	chad	-0.118223
-4.367036	chai	-0.1250594
-4.617094	chain	-0.1478834
-4.617094	chains	-0.1478079
-4.219372	chance	-0.1483608
-4.48062	chandler	-0.1432244
-3.290252	change	-0.4111683
-3.886339	changed	-0.2060082
-3.739702	changes	-0.1962425
-4.617094	channello's	-0.1433196
-4.48062	channellos	-0.2385727
-4.109376	chapel	-0.2296659
-4.617094	chapos	-0.1474602
-4.617094	char	-0.1463018
-4.617094	character	-0.1477928
-4.48062	chardonnay	-0.1190139
-3.174507	charge	-0.4092104
-3.57015	charged	-0.2808219
-3.948761	charges	-0.210566
-4.48062	charging	-0.1452963
-4.617094	charles	-0.1433348
-4.617094	charlies	-0.1426396
-4.367036	charlotte	-0.1795052
-4.617094	charter	-0.1277137
-4.48062	chase	-0.147827
-4.48062	chat	-0.1276877
-4.48062	chatham	-0.1273458
-4.617094	chatterton	-0.1478155
-4.617094	chavez	-0.1476265
-4.367036	cheap	-0.1261805
-3.831771	cheaper	-0.1455605
-4.617094	cheapest	-0.1472938
-3.305245	check	-0.2744345
-4.109376	checked	-0.1597147
-4.617094	checki	-0.1476568
-4.617094	checki'm	-0.1475434
-3.831771	checking	-0.1519238
-4.617094	checkingoh	-0.1475434
-4.617094	checkok	-0.1447219
-4.48062	checkout	-0.1375679
-4.617094	checkyeah	-0.1457935
-3.389121	cheddar	-0.31646
-4.48062	cheddarbacon	-0.2580545
-4.617094	cheddarmozzarella	-0.1478155
-4.617094	cheers	-0.1277137
-4.48062	cheerwine	-0.1229279
-4.617094	chees	-0.1440137
-4.617094	cheesburger	-0.1388964
-2.486692	cheese	-0.2562473
-3.470271	cheeseburger	-0.3791164
-4.021685	cheeseburgers	-0.1802378
-4.367036	cheesecake	-0.1423229
-4.617094	cheesecorrect	-0.1277137
-3.700083	cheeses	-0.1505853
-4.617094	cheesestake	-0.1426396
-4.367036	cheesesteak	-0.1342243
-4.48062	cheesesteaks	-0.1381477
-4.48062	cheesesticks	-0.1438958
-4.617094	cheesewill	-0.1452543
-4.617094	cheeseyou	-0.1446002
-4.617094	cheesteak	-0.1426396
-3.427803	cheesy	-0.4794915
-4.617094	cheesystuffed	-0.1469306
-4.617094	cheetos	-0.1277137
-4.617094	cheeze	-0.1426396
-4.48062	cheezy	-0.1467377
-4.617094	cheezybread	-0.1268625
-4.48062	chef	-0.1509232
-4.367036	chef's	-0.1469159
-4.617094	chelmsford	-0.1478759
-4.617094	chelsea	-0.1478683
-4.617094	cherries	-0.1396013
-3.57015	cherry	-0.3133235
-4.617094	cheryl	-0.1434417
-4.617094	chese	-0.1464685
-4.367036	chesse	-0.1236276
-4.617094	chester	-0.1478608
-4.367036	chestertown	-0.3271618
-4.617094	chestnut	-0.1476265
-4.617094	chewy	-0.1464837
-3.408032	chicago	-0.2500179
-4.617094	chicago's	-0.1448589
-3.886339	chicagostyle	-0.2494511
-4.617094	chicekn	-0.1478683
-4.367036	chick	-0.2100223
-2.448994	chicken	-0.3438848
-4.48062	chickenmeatball	-0.2504603
-4.48062	chickens	-0.1263389
-4.617094	chief	-0.1478834
-4.617094	chika	-0.1433196
-4.617094	chiken	-0.1277137
-4.617094	chiladas	-0.1375952
-4.617094	childhood	-0.1472258
-4.367036	children	-0.1093076
-4.617094	children's	-0.1478877
-4.48062	chile	-0.1217593
-4.617094	chiles	-0.1477399
-3.389121	chili	-0.2908491
-4.617094	chilicheese	-0.1478532
-4.617094	chill	-0.1478683
-3.831771	chilli	-0.1489854
-4.617094	chim	-0.1229279
-4.617094	chimed	-0.1447067
-4.367036	chimichanga	-0.1194501
-4.48062	chimichangas	-0.1896927
-4.617094	chin	-0.1478834
-4.617094	china	-0.1277137
-3.371	chinese	-0.4862703
-4.367036	chino	-0.2181203
-4.367036	chip	-0.1339153
-4.617094	chipotle	-0.1463548
-3.427803	chips	-0.3785533
-4.367036	chives	-0.1174248
-4.617094	chix	-0.1473846
-4.617094	chobbies	-0.1396013
-3.49317	chocolate	-0.3037251
-4.617094	chocolatey	-0.1451706
-4.617094	chocolte	-0.1478457
-4.617094	chocs	-0.1438917
-3.389121	choice	-0.2362728
-3.599173	choices	-0.3020849
-3.739702	choose	-0.1983205
-4.617094	chooses	-0.1277137
-4.48062	choosing	-0.1260612
-4.617094	chop	-0.1478079
-3.700083	chopped	-0.2627496
-4.617094	chops	-0.1396013
-4.48062	chopsticks	-0.2385727
-3.630275	chorizo	-0.2264405
-4.367036	chose	-0.1365771
-4.617094	chosen	-0.1277137
-4.617094	chovy	-0.1277137
-3.831771	chow	-0.3103972
-4.48062	chowder	-0.1108653
-4.617094	chowmein	-0.1396013
-4.219372	chris	-0.1177051
-4.617094	christine's	-0.1478916
-4.617094	christos	-0.1474602
-4.617094	chuck	-0.1252897
-4.48062	chuckle	-0.1272983
-4.617094	chucky	-0.1476946
-4.617094	chunks	-0.1396013
-4.617094	church	-0.1476265
-4.617094	churros	-0.1277137
-4.617094	chutney	-0.1265611
-4.219372	ciabatta	-0.1997069
-4.109376	ciao	-0.2148537
-4.48062	cicero's	-0.1427889
-4.617094	cilanto	-0.1476416
-4.109376	cilantro	-0.1111573
-4.617094	cindy	-0.1434417
-4.617094	cinema	-0.1448589
-4.367036	cinna	-0.2185479
-4.48062	cinnabon	-0.1452203
-4.617094	cinnamin	-0.1478532
-3.700083	cinnamon	-0.2654271
-4.48062	cinnasquares	-0.1261562
-4.617094	circle	-0.1455657
-4.617094	circles	-0.1396013
-4.617094	cisco	-0.1190139
-4.617094	cittrel	-0.1396013
-3.663778	city	-0.2628023
-4.617094	cken	-0.147619
-4.48062	claim	-0.1401132
-4.617094	claire	-0.1456265
-3.700083	clam	-0.6777937
-3.948761	clams	-0.1394813
-4.367036	clare	-0.1404555
-4.367036	clarify	-0.1510935
-4.617094	clarifying	-0.1459377
-4.617094	clarion	-0.1478683
-4.48062	clark	-0.1471768
-4.617094	clarksville	-0.1277137
-3.320774	classic	-0.2518531
-4.617094	classico	-0.1277137
-4.48062	classics	-0.1229999
-4.617094	clean	-0.1464534
-4.617094	cleaners	-0.1477928
-4.617094	cleaning	-0.1478457
-4.367036	clear	-0.127509
-4.48062	clearly	-0.1452355
-4.617094	clever	-0.1277137
-4.617094	clianro	-0.1396013
-4.617094	click	-0.1477777
-4.617094	client	-0.1478916
-4.367036	clients	-0.1371464
-4.48062	cliff	-0.258546
-3.389121	close	-0.3992549
-4.367036	closed	-0.1373517
-3.948761	closer	-0.1876998
-4.367036	closes	-0.1424106
-3.663778	closest	-0.3366826
-4.617094	closet	-0.1442042
-4.617094	closets	-0.1433348
-4.617094	closing	-0.1446002
-4.48062	closter	-0.1478352
-4.617094	cloves	-0.1241226
-3.739702	club	-0.1916747
-4.617094	clue	-0.1454974
-4.617094	clump	-0.1465064
-4.617094	clumps	-0.1277137
-4.617094	cn	-0.1444631
-4.617094	coach	-0.1277137
-4.021685	coal	-0.2497381
-4.48062	coast	-0.1276467
-4.617094	cob	-0.1190139
-4.617094	cobb	-0.1472938
-3.831771	coca	-0.5032048
-3.700083	cocacola	-0.3644023
-4.48062	cocacolas	-0.1896927
-4.617094	cocke	-0.1459984
-4.617094	cocktail	-0.1476643
-4.48062	coco	-0.1229279
-4.367036	coconut	-0.1469729
-4.021685	code	-0.1430522
-4.617094	codes	-0.1277137
-4.617094	coeliac	-0.1459377
-3.542946	coffee	-0.2967972
-3.831771	coffees	-0.2020878
-3.248149	coke	-0.2894013
-3.49317	cokes	-0.2799184
-3.783302	cola	-0.1967294
-4.617094	colas	-0.1176112
-4.109376	cold	-0.1598178
-4.48062	cole	-0.2587123
-3.630275	coleslaw	-0.2495096
-4.367036	collard	-0.3271693
-4.617094	collared	-0.1478759
-4.617094	colleague	-0.1396013
-4.219372	college	-0.1731252
-4.617094	colloquial	-0.1478916
-4.617094	color	-0.1396013
-4.219372	colorado	-0.2133057
-4.617094	colseslaw	-0.1277137
-4.367036	columbia	-0.215184
-4.48062	columbus	-0.1475172
-4.617094	coma	-0.1396013
-3.739702	combination	-0.2427736
-4.617094	combinations	-0.1419397
-4.617094	combined	-0.1471879
-3.57015	combo	-0.2216289
-4.617094	combos	-0.1477172
-3.152496	come	-0.4845978
-4.617094	comeback	-0.1477323
-3.065286	comes	-0.65683
-4.617094	comfortable	-0.1434035
-3.49317	coming	-0.2606686
-4.617094	commerce	-0.1472333
-4.219372	commercial	-0.1980145
-4.617094	communications	-0.1434417
-4.617094	commuting	-0.1478457
-4.219372	company	-0.1456508
-4.617094	company's	-0.1478916
-4.367036	compared	-0.3231851
-4.617094	comparisson	-0.1438917
-4.617094	compete	-0.1455885
-4.617094	competitors	-0.1277137
-4.617094	compile	-0.1465216
-4.617094	complain	-0.1459377
-4.617094	complaining	-0.1471955
-4.367036	complet	-0.1349268
-3.371	complete	-0.3710244
-3.739702	completed	-0.1693592
-4.219372	completely	-0.1866367
-4.367036	completes	-0.2258247
-4.617094	completing	-0.1433272
-4.617094	completion	-0.1471047
-4.617094	complicated	-0.1459377
-4.617094	compliment	-0.1433272
-4.617094	composing	-0.1455885
-4.617094	compromise	-0.1277137
-4.219372	computer	-0.2061233
-4.617094	con	-0.1478877
-4.617094	concludes	-0.1418631
-4.617094	concord	-0.1475509
-4.617094	concretious	-0.1277137
-4.219372	condiments	-0.1639338
-4.617094	conditioning	-0.1277137
-4.109376	coney	-0.269302
-4.367036	conference	-0.1986284
-3.427803	confirm	-0.2821111
-3.49317	confirmation	-0.289736
-3.448518	confirmed	-0.3375405
-4.617094	confirmedthey	-0.1464155
-3.663778	confirming	-0.1911301
-4.48062	conform	-0.2574791
-4.617094	conformation	-0.1476416
-4.48062	confused	-0.1260768
-4.617094	conmtact	-0.1472938
-4.617094	connected	-0.1434035
-4.617094	connecticut	-0.1277137
-4.617094	connection	-0.1478877
-4.617094	connie	-0.1464155
-4.617094	connor	-0.1440137
-4.48062	consider	-0.1401132
-4.367036	considered	-0.2544879
-4.48062	consisting	-0.2564248
-4.617094	consists	-0.1455657
-4.617094	construction	-0.1459377
-4.021685	contact	-0.1181707
-4.48062	contacted	-0.1426288
-4.617094	contacting	-0.1433272
-4.48062	contain	-0.1463361
-4.109376	container	-0.2343838
-4.617094	containers	-0.1466352
-4.48062	containing	-0.1461238
-4.617094	containsroasted	-0.1473014
-4.617094	contamination	-0.1277137
-4.617094	contemplating	-0.1446382
-4.021685	continue	-0.1371769
-4.617094	convection	-0.1478916
-4.367036	convenient	-0.1976443
-4.48062	conversation	-0.1386033
-3.886339	cook	-0.1655742
-3.427803	cooked	-0.2779326
-3.831771	cookie	-0.2848257
-3.886339	cookies	-0.1452289
-4.367036	cooking	-0.1410391
-3.630275	cool	-0.133705
-4.617094	coolyeah	-0.1473619
-4.617094	coop	-0.1426396
-4.617094	cooperation	-0.1277137
-4.617094	cop	-0.1396013
-4.617094	coppola	-0.1221992
-4.219372	copy	-0.2366908
-4.48062	coral	-0.2587425
-3.599173	corn	-0.1575747
-4.617094	corned	-0.1473241
-4.48062	corner	-0.1219795
-4.617094	cornonthecob	-0.1396013
-4.617094	coronas	-0.1387036
-4.48062	corporate	-0.2182791
-2.675156	correct	-0.4241346
-4.617094	correcting	-0.1446002
-4.617094	correction	-0.1277137
-4.021685	correctly	-0.268593
-4.219372	cosaro's	-0.3619972
-4.617094	cosmo's	-0.1440137
-4.617094	cosmopolitan	-0.1277137
-3.261734	cost	-0.2369505
-4.617094	costa	-0.1277137
-3.886339	costco	-0.1237332
-4.617094	costing	-0.1464685
-4.021685	costs	-0.1389571
-4.617094	cotta	-0.1229119
-4.617094	cottage	-0.1277137
-4.617094	couch	-0.1433196
-2.798347	could	-0.5662218
-4.48062	couldn't	-0.1476079
-4.48062	count	-0.1258623
-4.617094	counter	-0.1269655
-4.617094	countries	-0.1426396
-4.48062	country	-0.147759
-4.617094	counts	-0.1461349
-3.948761	couple	-0.1694018
-3.700083	coupon	-0.2479319
-3.948761	coupons	-0.1381552
-4.617094	courgette	-0.1478381
-4.617094	course	-0.02123454
-4.617094	courses	-0.1455657
-4.367036	cover	-0.2716446
-4.021685	covered	-0.2169356
-4.617094	covers	-0.1442692
-4.617094	coversation	-0.1396013
-4.367036	cow	-0.2183169
-4.367036	cowboy	-0.1656789
-4.617094	coworkers	-0.1463018
-4.367036	cpk	-0.1219389
-3.739702	crab	-0.1724455
-4.48062	crabs	-0.1471995
-4.48062	cracked	-0.2581604
-4.48062	cracker	-0.1264579
-3.948761	crackers	-0.197203
-4.617094	crafted	-0.142177
-4.617094	craig	-0.1456265
-4.617094	craig's	-0.147755
-4.617094	cranberries	-0.1396013
-4.367036	cranberry	-0.1974302
-4.617094	cranberry's	-0.1277137
-4.617094	crane	-0.1478916
-4.367036	crap	-0.1234119
-4.617094	crape's	-0.147755
-4.617094	crashed	-0.1277137
-3.783302	craving	-0.1826245
-4.617094	cravings	-0.1478877
-4.617094	crawford’s	-0.1396013
-3.831771	crazy	-0.2931125
-3.470271	cream	-0.1701573
-4.617094	creammedium	-0.1426396
-4.48062	creamy	-0.2580848
-3.739702	create	-0.4705937
-4.617094	createyourown	-0.1426396
-4.617094	creation	-0.1455657
-3.353604	credit	-0.5570428
-4.109376	crepe	-0.1681017
-4.48062	crepe's	-0.144959
-4.219372	crepes	-0.4519871
-4.109376	crest	-0.1592278
-4.617094	crete's	-0.147755
-4.617094	crews	-0.1277137
-4.617094	crib	-0.1478759
-4.617094	cribbs'	-0.147755
-4.617094	cripsy	-0.1277137
-4.48062	crisp	-0.1179755
-4.617094	crisped	-0.1277137
-4.617094	crisper	-0.1469306
-3.739702	crispy	-0.2126575
-4.617094	cross	-0.1478916
-4.617094	crossed	-0.1434035
-4.48062	crossing	-0.1230324
-4.617094	crossings	-0.1478079
-4.617094	crosswalk	-0.1277137
-4.617094	crout	-0.1429494
-4.367036	croutons	-0.1142042
-4.109376	crowd	-0.1261867
-4.617094	cruise	-0.1229279
-4.617094	cruist	-0.1478916
-4.617094	crumb	-0.1478457
-4.617094	crumble	-0.146817
-4.48062	crumbled	-0.1468026
-4.617094	crumbly	-0.1477928
-4.617094	crumbs	-0.1277137
-4.617094	crunch	-0.1277137
-4.617094	crunchier	-0.1469306
-3.783302	crunchy	-0.6681054
-4.617094	crus	-0.1471047
-4.617094	cruse	-0.1465064
-4.109376	crush	-0.1140213
-3.948761	crushed	-0.3531791
-4.617094	crusr	-0.1277137
-2.650823	crust	-0.2751505
-4.219372	crusted	-0.1916883
-4.367036	crustless	-0.1979692
-3.49317	crusts	-0.2611554
-4.617094	crustsbilled	-0.1438917
-4.617094	crusttomato	-0.1478877
-4.021685	crusty	-0.51749
-4.48062	crystal	-0.1270289
-4.617094	crêpe's	-0.147755
-4.617094	cto	-0.1277137
-4.617094	cubes	-0.1472106
-4.617094	cucina	-0.1478877
-3.831771	cucumber	-0.2168582
-4.021685	cucumbers	-0.137155
-4.48062	cues	-0.1190139
-3.886339	cuisine	-0.3339701
-3.948761	cup	-0.1558333
-4.617094	cupcakes	-0.1451706
-3.739702	cups	-0.35048
-4.617094	curious	-0.1464761
-4.617094	curly	-0.1478877
-4.109376	current	-0.1393674
-3.371	currently	-0.2237602
-3.57015	curry	-0.2668898
-4.617094	curry's	-0.1476568
-4.617094	curst	-0.1467261
-4.617094	custard	-0.1277137
-3.739702	custom	-0.2022934
-4.109376	customer	-0.1350589
-4.48062	customers	-0.1230399
-4.48062	customizations	-0.141434
-4.219372	customize	-0.1451475
-4.219372	customized	-0.1712025
-3.353604	cut	-0.2732502
-4.48062	cute	-0.1468059
-3.948761	cuts	-0.1663682
-4.109376	cuz	-0.1818383
-4.617094	cynthia	-0.1273579
-4.617094	d'	-0.1478834
-4.617094	d'angelo's	-0.1440137
-4.48062	dad	-0.1456193
-4.617094	dade	-0.1478877
-4.48062	dads	-0.1453915
-4.48062	daiya	-0.1474869
-4.617094	dakota	-0.1447067
-4.48062	dallas	-0.1230399
-4.617094	damage	-0.1277137
-4.617094	dammit	-0.1472484
-4.617094	damn	-0.1471577
-4.219372	dan	-0.1725316
-4.617094	dan's	-0.1388198
-4.367036	dang	-0.1346624
-4.617094	danny	-0.1456265
-4.617094	dapper	-0.1477701
-4.367036	dark	-0.1150605
-4.48062	darn	-0.1522423
-4.617094	darnestown	-0.1277137
-4.617094	data	-0.1477248
-4.021685	date	-0.1474707
-4.617094	dates	-0.1396013
-4.48062	daughter	-0.1795168
-4.617094	daughter's	-0.147823
-4.617094	daughters	-0.1478457
-4.48062	dauphin	-0.2587198
-4.617094	dave	-0.1277137
-4.48062	davis	-0.1213933
-4.617094	davlo	-0.1470971
-4.617094	dawn	-0.1472636
-3.353604	day	-0.3084414
-4.367036	days	-0.12735
-4.48062	dayton	-0.1475172
-4.617094	dc	-0.1448589
-4.48062	de	-0.1478276
-4.617094	dead	-0.1277137
-3.353604	deal	-0.2324189
-3.739702	deals	-0.2183852
-4.109376	dear	-0.1388422
-3.948761	debit	-0.2515426
-4.617094	debt	-0.1476341
-4.48062	decaf	-0.1357037
-4.48062	decatur	-0.1439074
-4.219372	decide	-0.221008
-4.219372	decided	-0.1762704
-4.48062	deciding	-0.1424219
-4.48062	decision	-0.2385727
-4.617094	decisions	-0.1478003
-4.617094	decrust	-0.1465519
-2.978087	deep	-0.8430967
-4.021685	deepdish	-0.1056609
-4.219372	default	-0.1401988
-4.617094	definately	-0.1474451
-4.617094	definetly	-0.1277137
-3.542946	definitely	-0.1171422
-4.617094	degree	-0.1426396
-4.48062	degrees	-0.1245251
-4.617094	delaney	-0.1473695
-4.617094	delay	-0.1447219
-4.367036	delayed	-0.1968429
-4.617094	delays	-0.1459984
-4.617094	deleiver	-0.1475661
-4.48062	delete	-0.2554592
-4.617094	delfina	-0.1448589
-4.48062	deli	-0.1275913
-4.617094	delicios	-0.1434417
-3.739702	delicious	-0.1344655
-4.48062	deliever	-0.141503
-4.617094	delievered	-0.1438917
-4.367036	delievery	-0.1240348
-3.948761	delight	-0.1813816
-4.617094	delighted	-0.1235116
-4.617094	delite	-0.1260371
-3.371	deliver	-0.2868315
-3.320774	delivered	-0.3620951
-4.617094	deliveries	-0.1260371
-4.021685	delivering	-0.1080475
-4.617094	delivers	-0.1277137
-2.930516	delivery	-0.3476658
-4.617094	deliveryor	-0.1478457
-4.617094	delivery”	-0.1277137
-4.367036	della	-0.1477863
-4.617094	delmonte	-0.1477097
-4.617094	delorenzos	-0.1475509
-4.367036	delux	-0.1362358
-3.57015	deluxe	-0.290763
-4.617094	delvered	-0.1465519
-4.617094	demoines	-0.1478877
-4.617094	demos	-0.1474602
-4.617094	denver	-0.1276863
-4.617094	department	-0.1276467
-4.367036	depends	-0.1812578
-4.617094	deposit	-0.1478155
-4.48062	depot	-0.1421081
-4.48062	derango's	-0.1367745
-4.48062	describe	-0.1394092
-4.617094	describes	-0.1447219
-4.617094	descriptive	-0.1471879
-4.021685	desert	-0.1407711
-4.367036	deserts	-0.1955306
-4.109376	deserve	-0.3654149
-4.48062	desire	-0.1275834
-4.617094	desired	-0.1477633
-4.48062	desires	-0.2385727
-4.617094	desiring	-0.1277137
-4.48062	desk	-0.124254
-3.427803	dessert	-0.3133115
-3.700083	desserts	-0.2108707
-4.617094	detail	-0.1438917
-4.617094	detailed	-0.1464231
-3.371	details	-0.2903315
-4.617094	determine	-0.1473997
-4.617094	detour	-0.1396013
-4.617094	devein	-0.1477399
-4.48062	deveined	-0.1427736
-4.617094	device	-0.0751536
-4.617094	devilry	-0.1277137
-4.219372	dew	-0.1110471
-4.367036	dewey's	-0.2093824
-4.109376	di	-0.1453704
-4.617094	diabetes	-0.1277137
-4.219372	diablo	-0.182698
-4.617094	dialing	-0.146923
-4.617094	diameter	-0.1277137
-4.48062	diana	-0.1372429
-4.48062	diavola	-0.1190139
-3.783302	diced	-0.5861704
-4.617094	dick	-0.1474148
-4.617094	dickson	-0.1473695
-2.637507	did	-0.7755775
-4.617094	didis	-0.1446002
-3.599173	didn't	-0.1770043
-4.617094	didnt	-0.1456837
-4.617094	didn’t	-0.1472484
-4.617094	die	-0.1433196
-4.48062	diedre	-0.2543007
-3.261734	diet	-0.6170043
-4.021685	difference	-0.2417217
-3.305245	different	-0.2373133
-4.617094	digit	-0.1478608
-4.617094	digital	-0.1476719
-4.48062	digitally	-0.2385727
-4.617094	digits	-0.1438917
-4.617094	dijon	-0.1478834
-4.617094	dimley	-0.1478916
-3.886339	dine	-0.5719052
-4.021685	dinein	-0.1727378
-4.617094	diner	-0.1277137
-4.48062	ding	-0.1276987
-3.886339	dining	-0.3058205
-4.48062	diningin	-0.1766224
-3.248149	dinner	-0.3124791
-4.617094	dinners	-0.1277137
-4.367036	dion's	-0.1369372
-4.021685	dip	-0.1855654
-4.48062	dipped	-0.1401747
-4.617094	dippin	-0.1469836
-3.57015	dipping	-0.7048606
-4.48062	dips	-0.1428806
-4.109376	directions	-0.367625
-4.367036	directly	-0.2061919
-4.48062	director	-0.1437128
-4.367036	disappointing	-0.1266525
-4.617094	disappoints	-0.1277137
-4.617094	disaster	-0.1475661
-4.617094	disclosing	-0.1433272
-4.48062	disconnect	-0.1267911
-4.617094	disconnected	-0.1277137
-4.617094	disconnecting	-0.1396013
-4.48062	disconnection	-0.1276704
-4.48062	discontinued	-0.2554592
-3.948761	discount	-0.1065309
-4.48062	discounted	-0.144353
-4.48062	discounts	-0.2569257
-4.48062	discover	-0.1474416
-4.617094	discuss	-0.1455885
-4.617094	discussed	-0.1277137
-4.617094	discussions	-0.1464761
-4.617094	disgh	-0.1396013
-4.617094	disgusting	-0.1277137
-3.408032	dish	-0.09501628
-3.542946	dishes	-0.3074539
-4.617094	disount	-0.1440137
-4.617094	dissolve	-0.1277137
-4.617094	distance	-0.1474829
-4.617094	divine	-0.1469987
-4.617094	divisadero	-0.1476265
-4.617094	divisidero	-0.1277137
-4.367036	division	-0.1787685
-4.617094	dixon	-0.1472333
-2.216213	do	-0.4949878
-4.367036	doable	-0.1230404
-4.617094	dobble	-0.1472787
-4.617094	doc	-0.1448589
-4.617094	dock	-0.147687
-4.48062	doe	-0.1616233
-2.728338	does	-0.6065948
-3.261734	doesn't	-0.3018324
-4.48062	doesnt	-0.146374
-3.517345	dog	-0.2157466
-4.617094	doggone	-0.1447219
-3.948761	dogs	-0.09393723
-3.542946	doing	-0.1376191
-4.617094	doke	-0.1236394
-4.617094	dokey	-0.1277137
-4.617094	dokie	-0.1215699
-3.831771	dollar	-0.1326419
-3.320774	dollars	-0.3322072
-4.617094	dollarsdid	-0.1444631
-4.617094	domain	-0.1451706
-4.617094	domenico's	-0.1277137
-4.617094	dominick's	-0.1434035
-4.617094	dominioes	-0.1396013
-4.617094	dominios	-0.1277137
-4.617094	domino	-0.1221992
-3.290252	domino's	-0.2292456
-3.630275	dominoes	-0.2676095
-3.353604	dominos	-0.1962795
-4.48062	dominoz	-0.1457064
-4.617094	domino’s	-0.1277137
-4.617094	domios	-0.1470593
-4.48062	don	-0.1471735
-3.121439	don't	-0.3083606
-4.617094	donate	-0.1437433
-4.48062	donatello's	-0.2534986
-4.48062	donates	-0.1274963
-4.617094	donating	-0.1438917
-4.617094	donation	-0.1277137
-4.219372	donato's	-0.1622983
-4.109376	donatos	-0.1256047
-3.320774	done	-0.1747177
-4.617094	doneness	-0.1434417
-4.617094	donkey	-0.1471047
-4.109376	donna	-0.1645414
-3.886339	dont	-0.1831518
-4.617094	dont'	-0.1477323
-4.367036	don’t	-0.1448177
-4.219372	door	-0.1693524
-4.617094	dope	-0.1452543
-4.617094	doritos	-0.1396013
-4.48062	dosa	-0.1392896
-3.185946	double	-0.4296415
-4.617094	doublecheck	-0.1444631
-4.617094	doublechecked	-0.1277137
-4.617094	doublecheckyes	-0.1476794
-4.219372	doublecheese	-0.1862906
-4.617094	doublecrust	-0.1473165
-4.617094	doubt	-0.1468019
-3.448518	dough	-0.1403099
-4.617094	doughroom	-0.1229999
-4.617094	doughs	-0.1277137
-4.48062	doughy	-0.1416562
-4.617094	douglas	-0.147687
-4.617094	dover	-0.1277027
-3.048074	down	-0.3130313
-4.617094	downey	-0.1277137
-4.48062	downstairs	-0.1461086
-3.948761	downtown	-0.1364079
-4.109376	dozen	-0.1336801
-3.542946	dr	-0.4292437
-4.617094	drat	-0.1471577
-4.617094	drawer	-0.1455657
-4.617094	dream	-0.1349925
-4.109376	dressed	-0.2212802
-3.517345	dressing	-0.2009234
-4.617094	dressings	-0.1190139
-4.219372	dried	-0.2041391
-3.353604	drink	-0.2732103
-4.617094	drinkdo	-0.1459073
-3.152496	drinks	-0.3510282
-3.427803	drive	-0.2616593
-4.219372	driver	-0.1955176
-4.617094	drivers	-0.1277137
-4.219372	driving	-0.1216785
-4.219372	drizzle	-0.1156879
-4.367036	drizzled	-0.2142466
-4.617094	drizzles	-0.1440137
-4.109376	drop	-0.1569718
-4.617094	dropped	-0.1475358
-4.48062	dropping	-0.144353
-4.617094	drove	-0.1478834
-4.48062	drpeppers	-0.1190139
-4.219372	drunken	-0.2747845
-4.109376	dry	-0.1266781
-4.617094	dryrub	-0.1476114
-4.617094	dryrubbed	-0.1463548
-4.617094	dubuque	-0.1478877
-3.886339	duck	-0.2029732
-4.617094	ducks	-0.1434035
-4.48062	dude	-0.1428195
-3.948761	due	-0.1920102
-4.617094	dummys	-0.1465519
-4.48062	dumpling	-0.2385727
-4.219372	dumplings	-0.1983986
-4.617094	dunan	-0.1478916
-4.617094	duper	-0.1455014
-4.617094	durango	-0.1275438
-4.48062	durham	-0.1276309
-4.367036	during	-0.1374601
-4.48062	duty	-0.1700957
-4.617094	dying	-0.1438917
-4.617094	dylan	-0.1277137
-3.948761	e	-0.1395042
-3.261734	each	-0.2782982
-4.48062	eagan	-0.1276987
-4.617094	eagg	-0.1478155
-4.617094	eagle	-0.1474602
-4.617094	ear	-0.1468019
-4.48062	earbuds	-0.1243657
-3.886339	earlier	-0.1554372
-4.617094	earliest	-0.1447219
-4.617094	earlobes	-0.1277137
-4.219372	early	-0.1177046
-4.617094	earn	-0.1478877
-4.617094	ears	-0.1470063
-4.617094	earth	-0.1478916
-4.617094	ease	-0.1455657
-4.021685	easier	-0.1465049
-4.617094	easiest	-0.1442042
-3.886339	east	-0.1481318
-4.617094	eastman	-0.1476265
-4.48062	eastside	-0.1435413
-3.630275	easy	-0.3083244
-3.448518	eat	-0.1126083
-4.48062	eaten	-0.1468513
-4.617094	eater	-0.1253258
-4.367036	eaters	-0.3070071
-3.700083	eating	-0.1857754
-4.219372	eats	-0.1431714
-4.617094	eb	-0.1476946
-4.617094	echo	-0.1452543
-4.617094	economic	-0.1478916
-4.617094	economical	-0.1277137
-4.367036	edgar	-0.327185
-4.617094	edge	-0.1455657
-4.367036	edit	-0.3238936
-4.617094	edited	-0.1440137
-4.367036	edmond	-0.1981038
-4.617094	eew	-0.1467034
-4.617094	effective	-0.1477475
-4.617094	effort	-0.1277137
-3.275759	egg	-0.3498158
-3.57015	eggplant	-0.2117586
-4.617094	eggroll	-0.1396013
-3.739702	eggs	-0.2659943
-4.617094	eh	-0.1467034
-4.617094	ehh	-0.1474224
-3.056595	eight	-0.4510892
-3.783302	eighteen	-0.3620971
-4.109376	eighty	-0.1979646
-3.305245	either	-0.2289111
-4.367036	el	-0.2180598
-4.48062	elaina	-0.2385727
-4.617094	elarge	-0.1277137
-4.617094	electric	-0.1451706
-4.48062	electronic	-0.1467342
-4.48062	electronically	-0.1276987
-4.021685	eleven	-0.1912804
-4.617094	elgin	-0.1277137
-4.617094	elko	-0.1478759
-4.48062	ella	-0.1263389
-4.617094	eller	-0.1469836
-4.219372	elm	-0.2133012
-4.617094	elona	-0.1277137
-4.48062	elpaso	-0.1276783
-3.427803	else	-0.1456311
-4.617094	elsea	-0.1477097
-4.617094	elton	-0.1477701
-4.617094	elvis	-0.1277137
-3.389121	email	-0.2514151
-4.109376	emailed	-0.444297
-4.617094	emailing	-0.1433272
-4.367036	emily	-0.1896904
-4.617094	emmons	-0.1477097
-4.617094	emoji	-0.1277137
-4.617094	empire	-0.1275992
-4.617094	employee	-0.147691
-4.48062	employees	-0.1257908
-4.48062	emporium	-0.1245251
-4.617094	empty	-0.1277137
-4.021685	enchilada	-0.1931703
-3.831771	enchiladas	-0.2874825
-4.617094	enchollatas	-0.1434035
-4.617094	encinitas	-0.1277137
-4.617094	enclosed	-0.1277137
-4.617094	enclosing	-0.1446382
-4.617094	encrust	-0.1440137
-3.831771	end	-0.1548681
-4.367036	ended	-0.1099181
-4.219372	ending	-0.2381561
-4.367036	ends	-0.2147575
-4.617094	energy	-0.1478457
-4.48062	england	-0.1983017
-4.48062	english	-0.1455014
-4.617094	enhance	-0.1433272
-4.617094	enhancement	-0.1438917
-2.978087	enjoy	-0.7281334
-4.367036	enjoyed	-0.1419667
-4.617094	eno's	-0.1447067
-3.336879	enough	-0.3648912
-4.367036	ensure	-0.1955042
-4.48062	enter	-0.1423071
-4.617094	entered	-0.1433272
-4.48062	entering	-0.1396556
-4.48062	entire	-0.2118213
-4.617094	entirely	-0.1474148
-4.617094	entrance	-0.1433348
-4.48062	entree	-0.1187802
-4.617094	environment	-0.1277137
-4.617094	environmentally	-0.1478834
-4.617094	eola	-0.147687
-4.617094	equal	-0.1451706
-4.617094	er	-0.1447219
-4.617094	eric	-0.1466352
-4.617094	erica	-0.1434417
-4.617094	errand	-0.1272666
-4.48062	errands	-0.1407894
-4.617094	error'sorry	-0.1465898
-4.617094	es	-0.1472787
-4.617094	esle	-0.1452543
-4.109376	especially	-0.1816497
-4.617094	espresso	-0.1478916
-4.617094	essex	-0.1277137
-4.219372	establishment	-0.1775595
-4.367036	estimate	-0.1385075
-3.948761	estimated	-0.2224398
-4.617094	et	-0.1444631
-4.617094	eta	-0.1433196
-4.109376	etc	-0.4281016
-4.617094	eternity	-0.1277137
-4.617094	ethel	-0.147256
-4.367036	eureka	-0.1180726
-4.617094	eureka's	-0.1426396
-4.48062	euro	-0.144132
-4.367036	euros	-0.116894
-4.367036	evan's	-0.1219073
-4.617094	eve	-0.1277137
-3.630275	even	-0.1620115
-3.886339	evening	-0.2032322
-4.617094	evening's	-0.1472484
-4.617094	eveningi	-0.145467
-4.617094	evenings	-0.1277137
-4.021685	event	-0.2461429
-3.948761	ever	-0.1418152
-4.617094	evergreen	-0.1277027
-3.739702	every	-0.2100237
-4.48062	everybody	-0.1454103
-4.617094	everyday	-0.1473543
-3.470271	everyone	-0.2626119
-4.617094	everyoneduh	-0.1476946
-2.985329	everything	-0.272213
-4.617094	everything's	-0.1459498
-4.617094	everything’s	-0.1477323
-4.617094	evidently	-0.1434417
-4.617094	evil	-0.1478916
-4.617094	evoo	-0.1472258
-4.48062	ewallet	-0.1275042
-4.617094	ewww	-0.1277137
-4.617094	ex	-0.1277137
-4.617094	exacly	-0.1471577
-4.367036	exact	-0.1470183
-3.49317	exactly	-0.2462303
-4.617094	exactlyl	-0.1277137
-3.783302	excellent	-0.1488297
-4.109376	except	-0.1332896
-4.109376	exchange	-0.5444694
-4.109376	excited	-0.3062668
-4.617094	excitement	-0.1277137
-4.617094	exciting	-0.1408893
-4.617094	exclude	-0.1433272
-4.617094	excluding	-0.1473543
-4.367036	excuse	-0.3263148
-4.617094	exercise	-0.1277137
-4.617094	exist	-0.1277137
-4.617094	existing	-0.147619
-4.617094	exoists	-0.1478155
-4.617094	exotic	-0.1454974
-3.831771	expect	-0.1623815
-4.48062	expected	-0.2547508
-4.617094	expecting	-0.1478759
-4.617094	expedited	-0.1478834
-4.617094	expense	-0.147619
-4.617094	expenses	-0.1277137
-3.783302	expensive	-0.1793842
-4.617094	experation	-0.1478916
-4.219372	experience	-0.2511813
-4.48062	experiencing	-0.2153064
-4.617094	expired	-0.1478877
-4.219372	express	-0.2266918
-4.617094	extea	-0.1464837
-4.617094	exteme	-0.1461349
-2.482084	extra	-0.4292635
-4.48062	extracheese	-0.1262515
-4.109376	extralarge	-0.1430392
-4.617094	extralong	-0.1477248
-4.109376	extramostbestest	-0.3305666
-4.219372	extras	-0.1870221
-4.48062	extravaganza	-0.122604
-4.48062	extravaganzza	-0.1412729
-4.617094	extravagazza	-0.1478457
-4.617094	extraveganzza	-0.1426396
-4.617094	extre	-0.1464837
-4.48062	extreme	-0.1871936
-4.617094	extremely	-0.1478916
-4.617094	eye	-0.1431098
-4.617094	eyour	-0.1464231
-4.617094	f	-0.1478916
-4.617094	fabian	-0.1277137
-4.617094	fabulous	-0.1468094
-4.617094	face	-0.1478916
-4.617094	facial	-0.1277137
-4.219372	fact	-0.1392515
-4.617094	factors	-0.1471425
-4.617094	facts	-0.1277137
-4.617094	factual	-0.1477928
-4.617094	fails	-0.1438917
-4.617094	faint	-0.1478306
-4.48062	fair	-0.1275042
-4.367036	fairly	-0.2177345
-4.617094	fairview	-0.1477475
-4.617094	faith	-0.1478916
-4.48062	fajita	-0.185253
-4.219372	fajitas	-0.1123231
-4.219372	fake	-0.198022
-4.617094	fakeville	-0.1277137
-4.48062	falafel	-0.1475701
-4.48062	fallon	-0.2587349
-4.617094	fam	-0.1433196
-4.617094	familiar	-0.1434035
-3.320774	family	-0.2552249
-4.617094	family's	-0.1476568
-4.367036	familysize	-0.1157649
-4.219372	famous	-0.1165818
-4.219372	fan	-0.2725495
-4.109376	fancy	-0.1598663
-4.617094	faneuil	-0.1478877
-4.021685	fanta	-0.1401078
-3.470271	fantastic	-0.2679694
-3.886339	far	-0.1479312
-4.617094	farmer's	-0.1478683
-4.48062	farmers	-0.2587274
-4.367036	farmville	-0.1378545
-3.700083	fast	-0.1810151
-3.948761	faster	-0.3704159
-3.948761	fat	-0.1616485
-4.617094	fathom	-0.1461349
-4.617094	fatted	-0.1464837
-4.021685	favor	-0.1510943
-3.700083	favorite	-0.1957629
-4.617094	favorites	-0.1277137
-4.617094	favortie	-0.1476114
-4.617094	favrote	-0.1476114
-4.48062	fazoli's	-0.2587506
-4.367036	feast	-0.1337551
-4.48062	feather	-0.2573427
-4.617094	feature	-0.1440137
-4.617094	february	-0.1456761
-4.617094	fed	-0.1277137
-4.617094	federal	-0.1433196
-4.48062	federici's	-0.1272508
-4.219372	fee	-0.1826894
-3.831771	feed	-0.1804864
-4.617094	feedback	-0.1468094
-4.367036	feeding	-0.1254133
-4.367036	feeds	-0.1422846
-3.831771	feel	-0.3714199
-3.948761	feeling	-0.231303
-4.219372	fees	-0.1900845
-4.48062	fellini’s	-0.1431938
-4.617094	female	-0.1277137
-4.617094	fennel	-0.1472938
-4.367036	fernando's	-0.2093824
-3.209769	feta	-0.4093969
-4.48062	fetch	-0.1401132
-4.617094	fetta	-0.1396013
-3.700083	fettuccine	-0.4188137
-4.48062	fettucine	-0.2585687
-4.021685	few	-0.1454828
-4.617094	field	-0.1478079
-4.617094	fields	-0.1277137
-3.831771	fiery	-0.8038749
-4.48062	fiesta	-0.2582739
-3.542946	fifteen	-0.2238572
-3.336879	fifty	-0.3612242
-4.48062	fiftyfive	-0.2585309
-3.948761	figure	-0.257589
-4.48062	figured	-0.1398517
-4.617094	figures	-0.1476114
-4.617094	fiji	-0.1477475
-4.617094	fil	-0.1277137
-4.109376	file	-0.0768063
-4.48062	filet	-0.2587506
-4.219372	fill	-0.2569828
-4.48062	filling	-0.1260768
-4.617094	fillingi	-0.1476568
-4.48062	fillmore	-0.1221992
-4.617094	fin	-0.1478003
-4.021685	final	-0.3387111
-4.48062	finalize	-0.1371737
-4.617094	finalized	-0.146923
-4.48062	finalizing	-0.1433166
-4.219372	finally	-0.180964
-4.617094	financial	-0.1477172
-4.617094	fincertainly	-0.1472484
-3.49317	find	-0.2600368
-4.109376	finding	-0.2233887
-4.617094	findings	-0.147823
-3.248149	fine	-0.2231808
-4.48062	fineanything	-0.2585989
-4.617094	finewhen	-0.1459984
-4.48062	finger	-0.1225602
-3.886339	finish	-0.1559023
-4.219372	finished	-0.1320807
-4.617094	finishes	-0.1464534
-4.219372	finishing	-0.2379867
-4.617094	fiona	-0.1277137
-4.617094	fior	-0.1478683
-4.617094	fiori's	-0.1276467
-4.617094	fircrest	-0.1471047
-4.021685	fire	-0.1640994
-4.219372	fired	-0.2011095
-4.617094	fires	-0.1396013
-3.248149	first	-0.1438056
-4.617094	firstly	-0.1446382
-3.663778	fish	-0.1471394
-4.48062	fisherman	-0.2579107
-4.617094	fisherman's	-0.1470517
-4.617094	fishtown	-0.1426396
-4.617094	fist	-0.147755
-4.617094	fistful	-0.1455657
-2.827812	five	-0.3747487
-4.617094	fivecheese	-0.1425519
-4.48062	fix	-0.1413956
-4.617094	fixed	-0.1446002
-4.617094	fixings	-0.13814
-4.48062	fl	-0.1276783
-4.48062	flakes	-0.1380047
-4.617094	flan	-0.1396013
-4.109376	flat	-0.1453008
-4.219372	flatbread	-0.1397752
-4.617094	flatter	-0.1470214
-4.617094	flavoed	-0.1396013
-3.599173	flavor	-0.2235227
-3.599173	flavored	-0.4683901
-4.617094	flavorful	-0.1477928
-4.219372	flavoring	-0.1180855
-4.109376	flavors	-0.1745641
-4.617094	flee	-0.1469306
-4.617094	flexibility	-0.1230399
-4.617094	flies	-0.1277137
-4.617094	flint	-0.1478759
-4.617094	flipping	-0.1426396
-4.617094	float	-0.1455885
-4.617094	floats	-0.1455885
-4.617094	floor	-0.1277137
-4.617094	florence	-0.1342366
-4.219372	florentine	-0.1464312
-4.48062	florida	-0.1446118
-4.617094	floridian	-0.1447219
-4.48062	flour	-0.1229119
-4.617094	flower	-0.1478916
-4.617094	floyd	-0.1396013
-4.617094	flushing	-0.1277137
-4.617094	flying	-0.1474678
-4.219372	focaccia	-0.2568766
-4.617094	foind	-0.1470063
-4.48062	folk	-0.1274891
-4.48062	folks	-0.1381245
-4.617094	follow	-0.1474678
-4.617094	followed	-0.1473619
-4.48062	following	-0.1260816
-4.617094	follows	-0.1449162
-4.48062	folsom	-0.1270131
-4.617094	fom	-0.1433272
-4.617094	fond	-0.1455657
-4.617094	fontina	-0.1277137
-3.00781	food	-0.320127
-4.617094	foodcourt	-0.1447067
-4.367036	foods	-0.1250392
-4.617094	fool	-0.1277137
-4.109376	foot	-0.5489047
-4.617094	foothill	-0.1478079
-4.367036	footlong	-0.2411788
-1.978967	for	-0.5671139
-4.617094	forcing	-0.1472938
-4.617094	forever	-0.1459984
-3.700083	forget	-0.2136824
-3.831771	forgot	-0.143406
-4.617094	fork	-0.1470593
-4.617094	forkate	-0.1478877
-4.617094	forks	-0.1277137
-3.886339	form	-0.1457747
-4.617094	forrester	-0.1270369
-4.617094	forsure	-0.1277137
-4.367036	fort	-0.1997416
-4.617094	forth	-0.1442042
-4.109376	fortune	-0.2983949
-3.49317	forty	-0.4870786
-4.367036	forward	-0.2099529
-4.617094	forwarded	-0.1438917
-4.021685	found	-0.1345008
-4.617094	founded	-0.1477172
-4.48062	fountain	-0.2385727
-2.697156	four	-0.4344768
-4.48062	fourcheese	-0.2534986
-4.617094	fourmedium	-0.1474148
-4.617094	fourmediumthin	-0.1469306
-3.542946	fourteen	-0.6482061
-4.021685	fourth	-0.1347812
-4.617094	fourty	-0.147256
-4.617094	frame	-0.1261562
-4.617094	francino	-0.1426396
-4.617094	francisco	-0.1234684
-4.617094	frank	-0.1466352
-4.617094	frank's	-0.1426055
-4.617094	frankenstein's	-0.1433196
-4.48062	frankie	-0.1242939
-4.367036	frankie's	-0.2502641
-4.617094	franklin	-0.1478877
-4.617094	frankly	-0.1459073
-4.367036	franks	-0.1222035
-4.617094	franzones	-0.1277137
-4.617094	frapachino	-0.1448589
-4.617094	frappe	-0.1465519
-4.48062	frappucino	-0.2574109
-4.617094	fratelli	-0.1426396
-4.617094	fred	-0.1464761
-4.48062	freddie	-0.1476841
-4.617094	fredericksburg	-0.1470593
-3.248149	free	-0.1545418
-4.617094	freedom	-0.1477777
-4.617094	freeway	-0.1434417
-4.617094	freind	-0.1463397
-3.49317	french	-0.4801795
-4.617094	frequentpizza	-0.147619
-4.617094	fresca	-0.1430411
-3.174507	fresh	-0.3341696
-4.617094	freshcut	-0.1472333
-4.617094	freshest	-0.1473543
-4.617094	freshly	-0.1476719
-4.48062	fresno	-0.2587047
-4.617094	fretta	-0.1478381
-4.021685	friday	-0.1179884
-4.617094	fridays	-0.1277137
-4.617094	fridge	-0.1476794
-3.209769	fried	-0.4206097
-4.219372	friend	-0.1411816
-4.48062	friend's	-0.1471851
-4.367036	friendly	-0.1228244
-3.700083	friends	-0.2832048
-3.152496	fries	-0.3054181
-4.617094	frisco	-0.1447067
-4.617094	fro	-0.1472711
-2.508059	from	-0.225964
-4.219372	front	-0.2661292
-4.617094	froom	-0.1277137
-4.617094	frost	-0.1277137
-4.617094	frosting	-0.1433196
-4.617094	froze	-0.1277137
-4.48062	frozen	-0.2385727
-3.886339	fruit	-0.3031873
-4.617094	fruita	-0.1245251
-4.48062	fruits	-0.1369022
-4.617094	fruity	-0.1277137
-3.948761	fry	-0.1488424
-4.617094	ft	-0.1478916
-4.617094	fucking	-0.1478306
-4.617094	fudge	-0.1478457
-4.617094	fulbright	-0.1277137
-3.470271	full	-0.1821217
-4.48062	fully	-0.1478773
-4.48062	fultano's	-0.192878
-3.948761	fun	-0.1324124
-4.48062	funghi	-0.1917575
-4.367036	funny	-0.124633
-4.48062	funtastic	-0.2385727
-4.617094	furious	-0.1277137
-4.48062	further	-0.1458547
-4.219372	future	-0.1527993
-4.48062	fyre	-0.2534986
-4.617094	g	-0.1459645
-4.48062	ga	-0.2385727
-4.617094	gai	-0.1474678
-4.617094	gail	-0.1472106
-4.617094	gainesville	-0.1478877
-4.617094	gallatin	-0.1478877
-4.617094	galleria	-0.1277137
-4.617094	gallo	-0.1126712
-4.367036	gallon	-0.1248769
-4.367036	gallons	-0.1418978
-4.617094	gambino's	-0.1447067
-4.219372	game	-0.1953
-4.367036	games	-0.127445
-4.617094	gang	-0.1459984
-4.617094	garbage	-0.1277137
-3.448518	garden	-0.291582
-2.807948	garlic	-0.4186145
-4.617094	garlice	-0.1478834
-4.617094	garlicfree	-0.1477626
-4.48062	garlicrolled	-0.2577896
-4.367036	garlics	-0.1186628
-4.617094	gaspares	-0.1277137
-4.617094	gate	-0.1380859
-4.617094	gather	-0.1464534
-4.367036	gathering	-0.2164915
-4.219372	gave	-0.2071551
-4.617094	gaylord	-0.1478759
-4.48062	gazpacho	-0.2065105
-4.48062	geary	-0.1470936
-4.48062	gee	-0.1411042
-4.617094	geewhat	-0.1476039
-4.617094	geez	-0.138827
-4.367036	gelato	-0.1935907
-4.617094	gelsosomos	-0.1277137
-4.617094	gem	-0.1478834
-4.617094	gencarelli's	-0.1447067
-3.739702	general	-0.3394206
-4.367036	generally	-0.1452623
-4.367036	generous	-0.1959446
-4.617094	generousim	-0.1474148
-4.367036	geno's	-0.1950445
-4.48062	george	-0.2385727
-4.48062	georgia	-0.147555
-4.48062	germantown	-0.2587274
-2.82276	get	-0.254112
-4.617094	get's	-0.1472484
-4.109376	gets	-0.1467389
-4.617094	getta	-0.1426396
-3.305245	getting	-0.2034307
-4.48062	gettogether	-0.1268704
-4.219372	gf	-0.1826241
-4.48062	ghost	-0.2582663
-4.617094	giannis	-0.1277137
-4.367036	giant	-0.1847495
-4.617094	gift	-0.1476341
-4.617094	gifts	-0.1277137
-4.48062	gigante	-0.2534986
-4.617094	giletto	-0.1277137
-4.48062	gimme	-0.2554972
-4.219372	gina's	-0.1908409
-4.021685	ginger	-0.5096995
-3.831771	gino's	-0.1675161
-4.48062	ginos	-0.1747379
-4.48062	gio's	-0.1230921
-4.48062	gionino's	-0.1400902
-4.617094	giordano's	-0.1257192
-4.48062	giordanos	-0.1275559
-4.367036	giorgio's	-0.1692537
-4.617094	giovanna's	-0.1277137
-4.109376	giovanni's	-0.1121924
-4.617094	giovannies	-0.1426396
-4.109376	giovannis	-0.1212948
-4.367036	girl	-0.1313794
-4.617094	girl's	-0.1477248
-4.367036	girlfriend	-0.1167566
-4.617094	girls	-0.1419325
-2.970964	give	-0.6673512
-4.617094	given	-0.1277137
-4.617094	giver	-0.1470214
-4.021685	gives	-0.2135064
-4.021685	giving	-0.2100227
-3.630275	glad	-0.4044443
-4.617094	gladly	-0.1438917
-4.617094	gladys	-0.1434417
-4.617094	glass	-0.1433196
-4.48062	glasses	-0.144132
-4.617094	glaze	-0.1364991
-4.617094	glenmont	-0.1433007
-4.48062	glenstone	-0.1246489
-4.48062	glenwood	-0.1398594
-4.617094	glue	-0.1396013
-4.617094	glued	-0.1447067
-3.02347	gluten	-0.9329057
-3.152496	glutenfree	-0.4761174
-4.617094	glutten	-0.1476568
-4.617094	glutton	-0.1476568
-4.617094	gluttonfree	-0.1396013
-4.617094	gnocchi	-0.1478916
-2.876135	go	-0.4181197
-4.617094	goar	-0.1474602
-3.831771	goat	-0.6631663
-4.48062	god	-0.1937187
-4.617094	godfather	-0.1426396
-4.617094	godzilla	-0.1229279
-4.367036	goes	-0.1274925
-3.000186	going	-0.4819583
-4.617094	gold	-0.1476341
-3.948761	golden	-0.2013209
-4.617094	golooney's	-0.1277137
-4.48062	gone	-0.1476457
-3.739702	gonna	-0.2561646
-4.48062	goo	-0.121342
-2.770754	good	-0.1876895
-3.163363	goodbye	-0.8979108
-4.48062	goodness	-0.1275675
-3.831771	goodnight	-0.5594078
-4.48062	goods	-0.1245251
-4.617094	goodwhat	-0.1474148
-3.700083	google	-0.2777889
-4.617094	googlexa	-0.1277137
-4.617094	goong	-0.1465898
-4.617094	gorgeous	-0.1475131
-4.109376	gorgonzola	-0.1787823
-4.617094	gosh	-0.1472711
-2.779758	got	-0.4231033
-4.617094	gotcha	-0.1426401
-4.48062	gotham	-0.2534986
-4.48062	gotta	-0.1451939
-4.48062	gotten	-0.1437128
-4.48062	gouda	-0.1168091
-4.617094	gound	-0.1473241
-4.109376	gourmet	-0.1826394
-4.48062	gps	-0.1461244
-3.783302	grab	-0.2553568
-4.617094	grabbing	-0.1446382
-4.617094	graciela	-0.1268307
-4.48062	gracious	-0.1425713
-4.617094	graham	-0.1473695
-4.48062	grain	-0.1426859
-4.617094	gram	-0.1277137
-4.617094	grams	-0.1470971
-4.109376	grand	-0.1210334
-4.109376	grande	-0.1212989
-3.831771	grandma	-0.1838378
-4.617094	grandma's	-0.1470517
-4.617094	grandpa	-0.1477777
-4.48062	grandview	-0.1276987
-4.617094	grant	-0.1190139
-4.48062	grape	-0.146772
-4.617094	grass	-0.1433348
-4.109376	grated	-0.1760541
-4.109376	grateful	-0.3053726
-4.617094	gratiot	-0.1277137
-4.48062	gratiuty	-0.1235116
-4.617094	gratuitous	-0.1478916
-4.367036	gravy	-0.1236086
-4.617094	grazie	-0.1468094
-4.48062	greasy	-0.1258623
-3.048074	great	-0.06992002
-4.617094	greatand	-0.1454974
-4.617094	greatcan	-0.1444631
-4.617094	greatest	-0.1277137
-4.617094	greati	-0.145467
-4.617094	greatif	-0.1471879
-4.617094	greatly	-0.1478683
-4.617094	greatthanks	-0.1277137
-4.617094	greatyour	-0.1476039
-4.617094	grecian	-0.1426396
-3.222189	greek	-0.387115
-4.617094	greeklover's	-0.1426396
-4.617094	greekstyle	-0.1426396
-2.82276	green	-0.6440831
-4.617094	greeneville	-0.1277137
-4.617094	greenfield	-0.1277137
-4.617094	greenpeppers	-0.1277137
-4.219372	greens	-0.1315146
-4.367036	greg	-0.1249118
-4.617094	greg's	-0.1277137
-4.617094	grigio	-0.1478877
-4.021685	grill	-0.1604526
-3.470271	grilled	-0.548605
-4.48062	grimaldi's	-0.1271995
-4.617094	grimaldis	-0.1454974
-4.617094	grits	-0.1396013
-4.617094	grocery	-0.1476794
-4.367036	gross	-0.1787447
-4.617094	grotto	-0.1277137
-4.617094	grotto's	-0.1426396
-3.320774	ground	-0.7087885
-4.367036	group	-0.1232606
-4.48062	grove	-0.1276783
-4.617094	grr	-0.1471577
-4.617094	gryo	-0.1396013
-4.617094	gryos	-0.1442042
-4.617094	gte	-0.1447219
-3.517345	guacamole	-0.2827118
-4.48062	guarantee	-0.211852
-4.367036	guess	-0.05577274
-4.617094	guessing	-0.1401055
-4.219372	guests	-0.1155213
-4.48062	guide	-0.1470109
-4.48062	guinevere's	-0.2586065
-4.367036	gumbo	-0.1979216
-4.617094	gun	-0.1478608
-4.367036	guy	-0.1128966
-4.367036	guys	-0.1275003
-4.617094	gwendolyn	-0.1434417
-4.617094	gym	-0.1277137
-3.448518	gyro	-0.3191726
-4.617094	gyro's	-0.1396013
-3.408032	gyros	-0.3269252
-4.617094	h	-0.1434417
-3.886339	ha	-0.2574925
-4.48062	habanero	-0.2587198
-4.617094	habit	-0.1277137
-3.49317	had	-0.1585225
-4.617094	haddock	-0.1475963
-4.617094	haddonfield	-0.147687
-4.617094	hadn't	-0.1478759
-4.617094	hah	-0.146715
-3.831771	haha	-0.2298915
-4.219372	hahaha	-0.2057177
-4.617094	hahahaha	-0.1443606
-4.617094	hair	-0.1186547
-4.617094	halal	-0.1426396
-4.48062	halepenyos	-0.1190139
-4.48062	haley	-0.1230399
-2.84333	half	-0.3405665
-4.48062	halfandhalf	-0.1173357
-4.617094	halfhalf	-0.1451706
-4.617094	halfpint	-0.1478916
-4.367036	halfs	-0.1941904
-4.48062	hall	-0.1476765
-4.617094	hallandale	-0.1478877
-4.367036	halves	-0.1147431
-2.832923	ham	-0.3514334
-4.48062	hamburg	-0.1221992
-3.408032	hamburger	-0.270012
-4.219372	hamburgers	-0.1162701
-4.617094	hamhave	-0.1444631
-4.617094	hami	-0.145467
-4.48062	hams	-0.1464347
-4.617094	hamthat	-0.1476643
-4.48062	hanasaki	-0.1190139
-4.617094	hancock	-0.1476265
-2.978087	hand	-0.9341243
-4.617094	handcut	-0.1475963
-4.617094	handled	-0.1474527
-4.617094	handmade	-0.1474678
-4.617094	handpicked	-0.1478877
-4.367036	handtoss	-0.11993
-3.470271	handtossed	-0.3159342
-3.886339	hang	-0.4981179
-4.617094	hanger	-0.1277137
-4.48062	hangover	-0.1431938
-4.617094	hangovers	-0.1464155
-4.48062	hank	-0.1230399
-4.48062	hankering	-0.2541786
-4.617094	hannah	-0.1277137
-4.617094	hanndtossed	-0.1469306
-4.617094	hansaki	-0.1465367
-4.219372	happen	-0.2072752
-4.48062	happening	-0.126688
-4.48062	happens	-0.1426819
-4.617094	happpend	-0.1459984
-3.542946	happy	-0.3237209
-4.617094	happy's	-0.1426396
-4.48062	happys	-0.1438272
-3.831771	hard	-0.1590023
-4.617094	hardboiled	-0.1476719
-4.617094	hardcrusted	-0.1474375
-4.617094	hardshell	-0.1477852
-4.021685	harrisburg	-0.2776225
-4.617094	harrison	-0.1277137
-2.712467	has	-0.2506214
-4.617094	hasbuffalo	-0.1469836
-3.663778	hash	-0.5349875
-4.617094	hashbrown	-0.147823
-4.48062	hashbrowns	-0.116894
-4.48062	hasn't	-0.1476759
-4.617094	hassle	-0.1277137
-4.48062	hate	-0.1287555
-4.48062	hates	-0.1461238
-2.508059	have	-0.1704918
-4.617094	haveing	-0.1466201
-4.617094	haven	-0.1470517
-4.48062	haven't	-0.1441312
-4.617094	haveone	-0.1467261
-3.371	having	-0.2089652
-4.617094	hawa	-0.1277137
-4.109376	hawaian	-0.3461801
-4.367036	hawaii	-0.1217908
-3.000186	hawaiian	-0.3897529
-4.367036	hawaiians	-0.1142042
-4.617094	hawaiianstyle	-0.1477852
-3.700083	hawaiin	-0.2741095
-4.48062	hawain	-0.1422
-4.367036	hawiaan	-0.1393013
-4.617094	hawian	-0.1426396
-4.617094	hawiann	-0.1426396
-4.48062	hawiian	-0.2087647
-4.617094	hawthorne	-0.1277137
-4.617094	haze	-0.1459377
-3.470271	he	-0.2193055
-4.617094	he'd	-0.1478532
-4.617094	he'll	-0.1465519
-4.219372	he's	-0.1467382
-3.831771	head	-0.2597065
-4.48062	headed	-0.1387272
-4.367036	heading	-0.1463745
-4.219372	headphones	-0.133449
-4.617094	headquarter	-0.1277137
-4.617094	heads	-0.1277137
-4.617094	headset	-0.1451601
-4.48062	healthier	-0.127433
-4.219372	healthy	-0.1397408
-4.617094	heap	-0.1433348
-3.630275	hear	-0.2304298
-4.109376	heard	-0.1431706
-4.48062	hearing	-0.1411732
-3.886339	heart	-0.2181318
-4.48062	heartburn	-0.126918
-4.617094	heartedly	-0.1478834
-4.617094	hearthbaked	-0.146711
-4.617094	hearts	-0.1075461
-4.109376	hearty	-0.3715477
-4.367036	heat	-0.1424642
-4.021685	heavy	-0.2243292
-4.48062	heck	-0.1463705
-4.617094	heights	-0.1477097
-4.48062	heineken	-0.2385727
-4.48062	heirloom	-0.1468362
-4.617094	hell	-0.1465787
-4.617094	hellapenos	-0.1433196
-4.219372	hello	-0.07149476
-4.617094	hellow	-0.1469155
-3.261734	help	-0.274563
-4.367036	helped	-0.1786336
-4.219372	helpful	-0.163173
-4.367036	helping	-0.1183357
-4.617094	helps	-0.1446382
-4.617094	henderson	-0.1227043
-4.367036	henrietta	-0.1432061
-4.617094	heping	-0.1470214
-3.49317	her	-0.1356108
-4.367036	herb	-0.2575513
-4.617094	herbed	-0.1478916
-4.617094	herbs	-0.1190139
-2.82276	here	-0.3112487
-4.219372	here's	-0.1664791
-4.617094	hermes	-0.1477021
-4.021685	hero	-0.1648929
-3.783302	hey	-0.0659866
-4.367036	hfc	-0.321933
-4.021685	hi	-0.08725983
-4.367036	hic	-0.1188082
-4.617094	hickory	-0.1478759
-4.617094	hickorysmoked	-0.1471652
-4.617094	hidden	-0.1478916
-4.48062	hide	-0.2586367
-4.48062	hideaway	-0.1419627
-4.617094	hie	-0.1434417
-4.021685	high	-0.2280082
-4.617094	highest	-0.1478579
-4.48062	highly	-0.1478389
-3.831771	highway	-0.2301925
-4.617094	hihow	-0.144132
-4.617094	hii	-0.1475358
-4.617094	hii'd	-0.1467034
-4.48062	hilary	-0.1447564
-4.021685	hill	-0.2533065
-4.219372	hills	-0.2064095
-4.617094	hills'	-0.1474602
-4.617094	hillsboro	-0.1478079
-3.886339	him	-0.1441989
-4.617094	hippie	-0.1478916
-4.617094	hira	-0.1434417
-4.617094	hire	-0.1433272
-4.617094	hireing	-0.1277137
-3.783302	his	-0.1407012
-4.617094	history	-0.1455657
-4.367036	hit	-0.1391935
-4.617094	hiya	-0.1411425
-4.617094	hiyes	-0.1434417
-4.48062	hm	-0.1471097
-4.109376	hmm	-0.09018918
-4.617094	hmmchicken	-0.1434035
-4.617094	hmmi	-0.1476568
-4.617094	hmmi'm	-0.1471879
-4.617094	hmmlet	-0.1470214
-4.48062	hmmm	-0.1454544
-4.617094	hmmmany	-0.1471652
-4.617094	hmmmhow	-0.1471955
-4.617094	hmmmm	-0.1461011
-4.617094	hmmmpizzas	-0.1464155
-4.617094	hmmmwhat's	-0.1433272
-4.617094	hmmseems	-0.1467034
-4.617094	hoa	-0.1478457
-4.617094	hoagie	-0.1434035
-4.367036	hoagies	-0.2127563
-4.617094	hobnobs	-0.1277137
-4.617094	hoe	-0.147823
-4.617094	hog	-0.1478306
-4.617094	hoisin	-0.1396013
-3.408032	hold	-0.4443897
-4.617094	holder	-0.1277137
-4.617094	holders	-0.1452203
-4.48062	holding	-0.1415873
-4.367036	holiday	-0.3270031
-4.48062	hollywood	-0.2385727
-4.617094	holy	-0.1478916
-4.617094	holywhy	-0.1470895
-3.336879	home	-0.2313387
-4.617094	homecoming	-0.1478916
-4.219372	homemade	-0.1469584
-4.617094	homer	-0.1478916
-4.617094	homestyle	-0.1469306
-4.617094	hometown	-0.1426396
-4.617094	honest	-0.1277137
-3.599173	honey	-0.2471114
-4.617094	honeymustard	-0.1440137
-4.617094	honking	-0.1460667
-3.831771	honolulu	-0.6724449
-4.617094	honor	-0.1455657
-4.617094	hook	-0.1470214
-3.886339	hope	-0.2175863
-4.48062	hopefully	-0.1419054
-3.948761	hoping	-0.4029995
-4.48062	horizon	-0.1762564
-4.617094	horny	-0.1478916
-4.617094	hos	-0.1373244
-4.48062	hospital	-0.2385727
-4.617094	host	-0.1478608
-2.788953	hot	-0.5906357
-4.109376	hotdog	-0.308895
-4.109376	hotdogs	-0.205255
-4.367036	hotel	-0.2349694
-4.617094	hotwings	-0.1442042
-4.48062	hounddog's	-0.1386228
-3.831771	hour	-0.2032983
-4.617094	hourly	-0.1396013
-3.831771	hours	-0.2027649
-3.261734	house	-0.1870906
-4.617094	housemade	-0.1473392
-2.484382	how	-0.7556993
-4.219372	how's	-0.3640941
-4.617094	howdy	-0.1274884
-3.542946	however	-0.1559142
-4.367036	howie	-0.3267309
-4.617094	howie's	-0.1464761
-4.367036	howies	-0.109548
-4.617094	howlin'	-0.1471955
-4.617094	hows	-0.1447219
-4.617094	how’re	-0.1444631
-4.617094	hr	-0.1438917
-4.617094	hrm	-0.1474829
-4.617094	hting	-0.1448589
-4.617094	huaraches	-0.1396013
-4.617094	hubby	-0.1446382
-4.617094	hudson	-0.1277137
-4.219372	huge	-0.1466089
-3.831771	huh	-0.1590848
-4.219372	hula	-0.2928132
-4.617094	hum	-0.1473619
-4.617094	humdinger's	-0.1426396
-4.617094	humm	-0.1473997
-4.021685	hummus	-0.2662348
-4.617094	hun	-0.1472106
-3.831771	hundred	-0.2806343
-4.617094	hung	-0.1472787
-4.617094	hunger	-0.1396013
-3.222189	hungry	-0.3950824
-4.617094	hunt	-0.1396013
-4.617094	huntingdon	-0.1406589
-4.617094	huntley	-0.1277137
-4.617094	huron	-0.1276863
-4.367036	hurricane	-0.1731987
-4.367036	hurry	-0.1780861
-4.48062	husband	-0.1707685
-4.367036	hush	-0.327185
-3.739702	hut	-0.02602273
-4.48062	hut's	-0.1467761
-4.617094	huts	-0.1476381
-4.367036	hwy	-0.142227
-4.617094	hydration	-0.1433348
-1.990637	i	-0.6996962
-4.617094	i''ll	-0.1467034
-2.644114	i'd	-0.7879521
-4.617094	i'dlike	-0.1478916
-4.367036	i'l	-0.1443839
-2.682366	i'll	-0.5933147
-4.617094	i'llorder	-0.1444631
-2.535687	i'm	-0.4932359
-4.617094	i's	-0.1457935
-4.617094	i'tll	-0.1478608
-3.131547	i've	-0.4162262
-4.48062	ia	-0.1227561
-4.617094	iam	-0.1478916
-3.49317	ice	-0.434711
-3.663778	iced	-0.47662
-4.617094	icedtea	-0.1277137
-4.617094	ices	-0.1478457
-4.48062	icing	-0.1437051
-3.831771	id	-0.2074582
-4.021685	idea	-0.101025
-4.617094	ideal	-0.1461349
-4.617094	ideas	-0.1277137
-4.617094	idiappam	-0.1277137
-2.605901	if	-0.6947648
-4.617094	igreat	-0.1396013
-4.021685	il	-0.2008387
-3.886339	ill	-0.1968022
-4.617094	illegald	-0.1277137
-4.367036	illinois	-0.3070071
-3.599173	im	-0.1782837
-4.48062	imagine	-0.144353
-4.617094	imbecile	-0.1467034
-4.48062	immediate	-0.2581302
-3.831771	immediately	-0.2143881
-4.367036	imo's	-0.1333277
-4.48062	imola	-0.1270289
-4.617094	impasto	-0.1277137
-4.617094	impersonal	-0.1396013
-4.021685	important	-0.1957196
-4.617094	imported	-0.1478381
-4.617094	improved	-0.1478306
-2.134857	in	-0.2795593
-4.48062	inbox	-0.1393897
-3.663778	inch	-0.2086985
-3.783302	inches	-0.282172
-4.617094	inclduing	-0.1464534
-3.389121	include	-0.2136061
-3.599173	included	-0.3029003
-4.109376	includes	-0.1900236
-3.663778	including	-0.3812348
-4.617094	inconvenienc	-0.1466352
-4.617094	inconvenience	-0.1277137
-4.617094	inconvenince	-0.1277137
-4.617094	incorrect	-0.1467489
-4.48062	increase	-0.1409891
-4.617094	increased	-0.1438917
-4.48062	indeed	-0.1132366
-3.408032	indian	-0.513028
-4.617094	indiana	-0.1277137
-3.886339	individual	-0.2337172
-4.367036	individually	-0.3070071
-4.617094	individuals	-0.1277137
-4.617094	industry	-0.1277137
-4.617094	inferno	-0.1474602
-4.617094	inflation	-0.1471577
-3.739702	info	-0.231327
-4.367036	inform	-0.2142542
-3.517345	information	-0.2818124
-4.617094	informationokay	-0.1477248
-4.617094	informatoin	-0.1277137
-4.219372	informed	-0.294326
-4.48062	informing	-0.2578804
-4.617094	infront	-0.1455657
-4.48062	ingrediants	-0.1387036
-4.219372	ingredient	-0.3006615
-3.57015	ingredients	-0.2274871
-4.617094	initially	-0.1469003
-4.617094	inner	-0.1472787
-4.617094	inoh	-0.1459073
-4.367036	input	-0.2116678
-4.617094	insalata	-0.1478773
-4.617094	insert	-0.1455885
-3.886339	inside	-0.1297526
-4.48062	inspired	-0.1236681
-4.617094	instea	-0.1455657
-2.661085	instead	-0.9378563
-4.617094	instore	-0.1277137
-4.367036	instruction	-0.2079498
-4.219372	instructions	-0.1222934
-4.617094	int	-0.147755
-4.219372	interest	-0.4486953
-3.739702	interested	-0.5775224
-4.021685	interesting	-0.1277843
-4.617094	intern	-0.1433348
-4.48062	internet	-0.1276863
-4.617094	interrupted	-0.1465519
-4.48062	interrupting	-0.14698
-3.371	into	-0.2825533
-4.617094	intolerant	-0.1396013
-4.617094	investigators	-0.1243657
-4.617094	invited	-0.1474602
-4.617094	invoice	-0.1470593
-4.617094	io	-0.1476946
-4.48062	iowa	-0.1236394
-4.617094	iphone	-0.1444976
-1.980409	is	-0.3785539
-4.617094	isabell's	-0.1474602
-4.367036	island	-0.190648
-4.617094	islands	-0.1277137
-3.542946	isn't	-0.2263908
-4.367036	isnt	-0.1398906
-4.617094	isn’t	-0.1469003
-4.617094	issorry	-0.1470593
-4.48062	issue	-0.1581264
-4.021685	issues	-0.1482058
-2.136922	it	-0.2969764
-4.617094	it'd	-0.147203
-3.065286	it'll	-0.8961191
-2.712467	it's	-0.276124
-4.617094	italaina	-0.146817
-2.893516	italian	-0.4610386
-4.617094	italianstyle	-0.1396013
-4.617094	itallian	-0.146817
-4.617094	italo's	-0.1396013
-4.617094	italos'	-0.146923
-4.48062	italy	-0.1467493
-4.617094	itbye	-0.1478877
-4.617094	itching	-0.1433196
-3.57015	item	-0.3085264
-3.517345	items	-0.2291638
-4.617094	itlalian	-0.1442042
-4.367036	itll	-0.3264965
-3.248149	its	-0.1359547
-4.617094	itsalian	-0.1469306
-4.617094	itsee	-0.1444631
-4.367036	itself	-0.3070071
-4.617094	itwell	-0.1447067
-4.48062	it’ll	-0.2580621
-3.739702	it’s	-0.1505652
-4.617094	ive	-0.1478532
-4.617094	izzas	-0.1277137
-4.109376	i’d	-0.5478456
-3.739702	i’ll	-0.219899
-3.948761	i’m	-0.1417505
-4.367036	i’ve	-0.2177194
-4.48062	j	-0.1178303
-4.617094	jacey	-0.1434417
-4.021685	jack	-0.1869314
-4.617094	jacket	-0.146923
-4.367036	jacks	-0.1238917
-4.109376	jackson	-0.1693509
-4.617094	jacksonville	-0.1472333
-4.617094	jaime	-0.1456265
-4.48062	jairo	-0.1190139
-4.617094	jairos	-0.1442042
-3.448518	jalapeno	-0.2247651
-4.219372	jalapeno's	-0.1582156
-3.163363	jalapenos	-0.2782568
-3.948761	jalapeño	-0.2040574
-3.57015	jalapeños	-0.2960947
-4.617094	jalaplarge	-0.1464837
-3.948761	jalepeno	-0.479512
-4.48062	jalepeno's	-0.1356375
-3.783302	jalepenos	-0.1780707
-4.617094	jalepenyo	-0.1463548
-4.617094	jalepeños	-0.1251624
-4.617094	jalopeno	-0.1434035
-4.48062	jam	-0.1355131
-4.219372	jamie	-0.1241275
-4.48062	jan	-0.1411042
-3.948761	jane	-0.1525007
-4.617094	jane's	-0.1477097
-4.617094	janine	-0.1466352
-4.617094	janna	-0.1456265
-4.617094	jansen's	-0.1434417
-4.48062	japanese	-0.2586291
-4.617094	jar	-0.1455657
-4.617094	jardiniere	-0.1277137
-4.617094	jasmine	-0.1476416
-4.617094	jason	-0.1476643
-4.617094	jaunt	-0.1277137
-4.48062	jaylos	-0.1411279
-4.109376	jeff	-0.2274404
-4.617094	jelly	-0.1396013
-4.48062	jen	-0.145616
-4.617094	jenna	-0.1277137
-4.48062	jennifer	-0.1470709
-4.48062	jenny	-0.1449314
-4.48062	jerry	-0.2385727
-4.617094	jerry’s	-0.1478759
-4.48062	jess	-0.1452811
-4.617094	jessepi	-0.1478916
-4.219372	jessica	-0.1372748
-4.367036	jet	-0.2184762
-3.739702	jet's	-0.1637562
-4.219372	jets	-0.1875241
-4.617094	jhons	-0.1277137
-4.48062	jill's	-0.2579107
-4.219372	jim	-0.1745939
-4.367036	jim's	-0.1979296
-4.617094	jimmy	-0.1434152
-4.219372	jimmy's	-0.4468718
-4.617094	jims	-0.1426396
-4.367036	joan	-0.1960083
-4.219372	job	-0.1937638
-4.367036	joe	-0.1253185
-3.886339	joe's	-0.2416866
-4.219372	joes	-0.1844391
-4.367036	joey's	-0.117259
-4.617094	joey'swhat	-0.1476039
-4.48062	joeys	-0.1277027
-4.617094	joh'ns	-0.1277137
-4.617094	johanson	-0.1277137
-3.517345	john	-0.1668326
-4.021685	john's	-0.0667132
-4.367036	johnathon	-0.1424718
-4.617094	johnlet	-0.1470214
-4.367036	johnny's	-0.1431749
-4.219372	johns	-0.06137537
-4.617094	johns'	-0.147619
-4.617094	johnsdo	-0.1444631
-4.219372	johnson	-0.1787685
-4.617094	john’s	-0.1243657
-4.48062	join	-0.2175452
-4.48062	joining	-0.1434192
-4.109376	joint	-0.1658294
-4.219372	joking	-0.1259025
-4.617094	jolly	-0.1478916
-4.48062	jonathan	-0.1210238
-4.219372	jones	-0.2240248
-4.617094	jordan	-0.1277137
-4.617094	jose	-0.1277137
-4.367036	joseph	-0.1415424
-4.48062	josh	-0.1229119
-4.617094	joy	-0.1440137
-4.367036	joyce	-0.1390547
-4.617094	joyce's	-0.1476794
-4.48062	jp	-0.145616
-4.617094	jude	-0.1277137
-4.617094	judes	-0.1478916
-4.617094	judging	-0.1470214
-4.109376	juice	-0.1373593
-4.367036	juices	-0.1314232
-4.617094	juicy	-0.1476946
-4.617094	julia's	-0.1426396
-4.617094	julianna's	-0.1277137
-4.219372	julie	-0.1725316
-4.367036	jumbo	-0.1462159
-4.617094	jumbosize	-0.1472787
-4.617094	jump	-0.1465519
-4.617094	jumping	-0.1477928
-4.617094	jumps	-0.1470063
-4.617094	junior	-0.1478457
-4.617094	junkies	-0.1257192
-4.617094	junkiez	-0.1275596
-4.617094	jurel	-0.1477323
-2.444767	just	-0.2813311
-4.617094	jut	-0.1477852
-4.48062	k	-0.1409123
-4.617094	kabab	-0.1277137
-4.617094	kababs	-0.1463892
-4.617094	kahala	-0.1478608
-4.219372	kai	-0.233411
-4.617094	kakulya	-0.1277137
-4.109376	kalamata	-0.5484208
-4.367036	kale	-0.1694725
-4.617094	kamehameha	-0.1478834
-4.617094	kansas	-0.1478608
-4.617094	kara	-0.1434417
-4.617094	karma	-0.1442042
-4.48062	kate	-0.1466208
-4.617094	katella	-0.1477097
-4.367036	kathy	-0.1431062
-4.617094	katie	-0.1472484
-4.617094	katlin	-0.1277137
-4.48062	kay	-0.1466966
-4.617094	keany	-0.1396013
-4.48062	kearney	-0.2582285
-4.219372	kebab	-0.2500708
-4.48062	kebabs	-0.1333355
-4.617094	keen	-0.1438917
-3.57015	keep	-0.3529283
-4.48062	keilbasa	-0.1445129
-4.617094	kelly	-0.1477475
-4.48062	ken	-0.1230399
-4.617094	kenneth	-0.1277137
-4.48062	kentucky	-0.2385727
-4.617094	kentwood	-0.1478683
-4.617094	kept	-0.1433272
-3.234975	ketchup	-0.3667765
-4.617094	keto	-0.1469306
-4.48062	kevin	-0.2587506
-4.367036	key	-0.1208191
-4.617094	keying	-0.1434152
-4.367036	khanom	-0.327185
-4.617094	khao	-0.1477323
-4.617094	kick	-0.147823
-4.219372	kid	-0.1453195
-4.021685	kidding	-0.12198
-4.617094	kiddos	-0.1459377
-4.48062	kidney	-0.2586216
-3.630275	kids	-0.1565481
-4.617094	kie	-0.1438917
-4.367036	kim	-0.1221233
-4.617094	kimchi	-0.1478306
-3.163363	kind	-0.438656
-4.367036	kinda	-0.1398213
-4.367036	kindly	-0.1745618
-3.948761	kinds	-0.3155505
-4.109376	king	-0.1071138
-4.48062	kingsbridge	-0.1476841
-4.617094	kingsburg	-0.126688
-4.617094	kingsize	-0.1475963
-4.48062	kingsized	-0.1472903
-4.617094	kins	-0.1455657
-4.617094	kisha	-0.1277137
-4.48062	kitchen	-0.1717957
-4.48062	klamata	-0.2581377
-4.48062	knew	-0.144353
-4.617094	kniw	-0.1454974
-4.617094	knock	-0.1440137
-4.617094	knot	-0.1477928
-4.617094	knots	-0.1042683
-3.408032	know	-0.1594994
-4.617094	knowim	-0.1478916
-4.617094	knowing	-0.1464761
-4.617094	known	-0.1461349
-4.48062	knows	-0.1456041
-4.48062	kobe	-0.2581831
-4.617094	kokomo	-0.1422536
-4.109376	korean	-0.3353107
-4.617094	kosmic	-0.1478916
-4.617094	krau	-0.1478916
-4.48062	kraut	-0.1686617
-4.617094	krebs	-0.147755
-4.617094	krips	-0.1277137
-4.617094	krunked	-0.1463548
-3.948761	kung	-0.4978116
-4.367036	l	-0.1120913
-3.831771	la	-0.2238954
-4.617094	lack	-0.1455657
-4.617094	lacking	-0.1472106
-4.617094	lads	-0.1277137
-4.219372	lady	-0.4319459
-4.48062	lag	-0.1444291
-4.617094	laid	-0.1476568
-4.219372	lake	-0.1439885
-4.48062	lakes	-0.1445433
-4.48062	lakeside	-0.2587198
-4.367036	lakewood	-0.1269142
-3.470271	lamb	-0.2393852
-4.617094	lamp	-0.1478381
-4.48062	lampo	-0.1469952
-4.109376	lancaster	-0.2063856
-4.617094	land	-0.1277137
-4.48062	landmark	-0.1369022
-4.109376	lane	-0.3461801
-4.617094	langosi	-0.1396013
-4.617094	lanie	-0.1434417
-4.617094	laptop	-0.1277137
-4.367036	larb	-0.1705242
-2.567978	large	-0.1504236
-4.617094	largefamily	-0.1478155
-4.219372	larger	-0.1321862
-3.57015	larges	-0.2082995
-4.219372	largest	-0.1769462
-4.617094	largethen	-0.1277137
-4.617094	larosa's	-0.1444139
-4.219372	larry's	-0.4520929
-4.617094	larze	-0.1478155
-4.617094	las	-0.1478916
-3.389121	lasagna	-0.3719478
-4.48062	lasagne	-0.119462
-4.48062	lasalle	-0.1461466
-4.617094	lasange	-0.1396013
-4.617094	lassi	-0.1248519
-3.197694	last	-0.332432
-4.48062	lastly	-0.1324294
-3.700083	late	-0.1591524
-4.617094	lately	-0.1277137
-3.517345	later	-0.2813948
-4.617094	laterokay	-0.1447219
-4.617094	latest	-0.1229119
-4.617094	latta	-0.1465519
-4.021685	latte	-0.1167079
-4.617094	lauderdale	-0.1277137
-4.617094	laughs	-0.1277137
-4.617094	laurel	-0.1478457
-4.617094	lauren	-0.1456265
-4.367036	lava	-0.2749022
-4.48062	law	-0.1433203
-4.617094	lawrence	-0.1477097
-4.617094	lawrenceburg	-0.1478877
-4.617094	lay	-0.1433272
-4.48062	layer	-0.2564248
-4.219372	lb	-0.1413271
-4.617094	lea	-0.1465519
-4.617094	leaf	-0.1477021
-4.219372	lean	-0.1977109
-4.48062	learn	-0.2385727
-4.48062	least	-0.1085611
-3.517345	leave	-0.3351162
-4.367036	leaves	-0.1261445
-4.367036	leaving	-0.1230964
-4.617094	lee	-0.1464155
-4.617094	leehman	-0.147687
-4.617094	leeks	-0.1478916
-3.739702	left	-0.246217
-4.367036	leftover	-0.2086797
-4.109376	leftovers	-0.2444436
-4.617094	legal	-0.1277137
-3.948761	lemon	-0.2479896
-3.783302	lemonade	-0.2059614
-4.367036	lemonades	-0.1450934
-4.617094	lemonpepper	-0.1478381
-4.617094	lemony	-0.1478916
-4.617094	lena	-0.1277137
-4.617094	lenguisa	-0.145467
-4.617094	lenior	-0.1277137
-4.367036	lentil	-0.3267461
-4.617094	lenzini's	-0.1229119
-4.617094	leone's	-0.1426396
-4.48062	lequint	-0.143064
-3.739702	less	-0.1718952
-4.617094	lesser	-0.1474148
-2.832923	let	-0.930795
-2.905503	let's	-0.5876532
-3.320774	lets	-0.3966326
-4.367036	letting	-0.2142542
-3.185946	lettuce	-0.4165417
-4.367036	let’s	-0.1820422
-4.617094	leucadia	-0.1426396
-4.367036	level	-0.1242104
-4.617094	levers	-0.1434035
-4.48062	lexington	-0.1462527
-4.617094	lg	-0.1464837
-4.367036	lia	-0.1419054
-4.617094	liberty	-0.1276987
-4.48062	library	-0.1257908
-4.617094	lie	-0.1459073
-4.617094	liek	-0.1438917
-4.617094	lies	-0.1478457
-4.617094	lieu	-0.1455657
-4.48062	life	-0.143309
-4.617094	life's	-0.1478683
-4.617094	lifesaver	-0.1277137
-3.209769	light	-0.4101644
-4.617094	lighter	-0.1277137
-4.48062	lightly	-0.2587047
-2.559677	like	-0.1221228
-4.109376	liked	-0.1398838
-4.617094	likeit	-0.1476946
-4.617094	likely	-0.1433348
-3.700083	likes	-0.1544846
-4.48062	liketo	-0.1462679
-4.617094	likewise	-0.1468094
-4.617094	liking	-0.1433272
-4.617094	limburg	-0.1478155
-4.48062	lime	-0.1391432
-4.219372	limited	-0.1404827
-4.617094	lina	-0.1476568
-4.48062	lincoln	-0.1274884
-4.219372	linda	-0.1177855
-4.617094	lindburg	-0.1478155
-4.617094	linds	-0.1434417
-4.219372	line	-0.1261376
-4.617094	line's	-0.1476265
-4.617094	lines	-0.1277137
-4.48062	lineup	-0.1275121
-4.109376	linguica	-0.1977433
-4.48062	linguicia	-0.2385727
-3.831771	linguine	-0.3779872
-4.48062	linguini	-0.1142042
-4.367036	linguisa	-0.2122277
-4.367036	linguiça	-0.1189455
-4.219372	linked	-0.2706921
-4.48062	linos	-0.2385727
-4.617094	lion's	-0.1478834
-4.367036	lisa	-0.1248481
-3.700083	list	-0.2825348
-3.783302	listed	-0.2131997
-4.48062	listen	-0.1425672
-4.617094	listening	-0.1277137
-4.617094	lit	-0.1277137
-4.617094	lite	-0.1477626
-4.109376	liter	-0.1584885
-4.617094	literally	-0.1465216
-4.48062	liters	-0.1089248
-4.367036	litre	-0.2046978
-4.617094	litres	-0.1451787
-4.48062	litter	-0.2564248
-3.353604	little	-0.2128663
-4.219372	live	-0.1386233
-4.617094	lives	-0.1433272
-4.48062	living	-0.1267752
-4.617094	liz	-0.1277137
-4.48062	ln	-0.2385727
-4.617094	lne	-0.146567
-4.021685	lo	-0.6282111
-4.617094	load	-0.1447219
-3.948761	loaded	-0.2299754
-4.48062	loaf	-0.2564248
-4.617094	lobby	-0.147755
-4.109376	lobo	-0.5437818
-3.948761	lobster	-0.1428532
-4.617094	loca	-0.1243657
-3.700083	local	-0.2514884
-4.617094	locate	-0.1455885
-3.470271	located	-0.4267708
-2.812829	location	-0.4311473
-3.948761	locations	-0.1302049
-4.617094	locaton	-0.1277137
-4.48062	loco	-0.2587506
-4.617094	locus	-0.147687
-4.617094	locust	-0.147687
-4.219372	log	-0.1421086
-4.367036	logged	-0.2153286
-4.48062	logging	-0.1476608
-4.48062	login	-0.1275913
-4.48062	logo	-0.2385727
-4.617094	logs	-0.1277137
-4.367036	lol	-0.1785781
-4.617094	lola	-0.1269338
-4.617094	lonely	-0.1446002
-3.49317	long	-0.1499809
-3.783302	longer	-0.1523007
-4.617094	longwood	-0.1471541
-3.448518	look	-0.3053845
-4.48062	looked	-0.142873
-3.305245	looking	-0.5938668
-4.617094	lookoh	-0.1478834
-4.617094	lookout	-0.1433196
-3.408032	looks	-0.4889207
-4.617094	lookup	-0.1455885
-4.617094	loop	-0.1477323
-4.617094	lorenzo	-0.1426396
-4.367036	los	-0.274952
-4.48062	lose	-0.1424295
-4.617094	loss	-0.1277137
-4.48062	lost	-0.1242939
-4.367036	lot	-0.1021379
-4.617094	lotal	-0.1478683
-3.739702	lots	-0.8891306
-4.617094	lotsa	-0.1478916
-4.109376	lou	-0.190162
-4.48062	loud	-0.1385801
-4.617094	louie's	-0.1433196
-4.617094	louies	-0.1438577
-4.219372	louis	-0.1786812
-4.617094	louise	-0.1277137
-4.617094	louisstyle	-0.1424219
-3.57015	love	-0.1536611
-4.48062	love's	-0.2534986
-4.48062	loved	-0.1426513
-4.367036	lovely	-0.1432869
-3.948761	lover	-0.1768758
-3.831771	lover's	-0.1372244
-3.517345	lovers	-0.115078
-4.48062	lovers'	-0.1366583
-4.617094	loversextra	-0.1464837
-4.617094	lover’s	-0.1199418
-4.109376	loves	-0.1428747
-3.948761	low	-0.1659564
-4.617094	lower	-0.1433272
-4.48062	lowfat	-0.1462148
-4.617094	lowsodium	-0.1477248
-4.48062	loyalty	-0.2584931
-4.48062	lua	-0.2534986
-4.617094	luce	-0.1470593
-4.617094	luchetti's	-0.1440137
-4.219372	luck	-0.1150779
-4.367036	lucky	-0.1146491
-4.617094	lucky's	-0.1426396
-4.617094	lucy	-0.1459984
-4.48062	luigi	-0.12262
-4.219372	luigi's	-0.1534141
-4.617094	luigis	-0.1440137
-4.617094	luma	-0.1277137
-4.617094	lumaca	-0.1478916
-3.700083	luna	-0.05414202
-4.367036	luna's	-0.1267167
-4.48062	lunas	-0.1097712
-3.320774	lunch	-0.2268632
-4.48062	lunchtime	-0.1453647
-4.617094	lune	-0.1470593
-4.617094	lusad	-0.1442042
-4.617094	lzrge	-0.1426396
-4.367036	m	-0.03732981
-4.219372	ma	-0.1773953
-3.783302	ma'am	-0.1921797
-4.617094	ma'm	-0.1444631
-4.617094	ma'mthats	-0.1469836
-4.617094	maam	-0.145467
-4.617094	maby	-0.1434417
-3.886339	mac	-0.3958654
-3.739702	macaroni	-0.5962172
-4.617094	macedonia	-0.1473695
-4.48062	machine	-0.1433203
-4.48062	macho	-0.2586745
-4.617094	mackin	-0.1464837
-4.617094	macon	-0.1277137
-4.617094	macoronian	-0.1464837
-4.617094	macy	-0.1434417
-4.219372	mad	-0.4520023
-4.219372	madam	-0.1770207
-4.367036	maddy	-0.321933
-3.427803	made	-0.21167
-4.219372	madison	-0.1255808
-4.617094	madisot	-0.1476265
-4.617094	magnificio	-0.1442042
-4.617094	magnifico	-0.1190139
-4.617094	magnolia	-0.1277137
-4.48062	magpie	-0.1274488
-4.617094	magpies	-0.1478683
-4.617094	mahimahi	-0.1277137
-4.617094	maialina	-0.1448589
-4.617094	maiden	-0.1477248
-4.617094	mail	-0.1277137
-3.448518	main	-0.2634871
-4.617094	maine	-0.1277137
-4.617094	mainly	-0.1463397
-4.617094	mainstream	-0.1469382
-4.617094	maize	-0.1229999
-4.48062	major	-0.1476992
-2.757589	make	-0.6313301
-4.617094	maker	-0.1438917
-4.617094	makers	-0.1438917
-3.783302	makes	-0.2178847
-3.663778	making	-0.2057293
-4.367036	malcolm	-0.2159978
-4.48062	male	-0.1248519
-4.021685	mall	-0.2384496
-4.021685	malnati	-0.393364
-4.617094	malnati's	-0.1236283
-4.48062	malnatti's	-0.1113053
-4.48062	mam	-0.1179674
-4.48062	mama	-0.1478691
-4.48062	mama's	-0.1195426
-4.617094	mamit	-0.1476643
-3.700083	man	-0.2239742
-4.617094	manage	-0.1446002
-4.48062	manager	-0.2385727
-4.617094	manati	-0.1277137
-4.617094	mancino's	-0.1277137
-4.48062	mandarins	-0.140517
-4.48062	mando	-0.2385727
-4.617094	mando's	-0.1464458
-4.617094	mandy	-0.1476946
-4.219372	mango	-0.2261755
-4.48062	mangos	-0.1251624
-4.617094	mankato	-0.1478683
-3.739702	many	-0.07901409
-4.617094	map	-0.1478683
-4.48062	maple	-0.2587468
-4.617094	maranara	-0.1469836
-4.48062	maranera	-0.1267514
-4.617094	marbled	-0.1478381
-4.617094	marco	-0.1456265
-3.739702	marco's	-0.2174309
-4.021685	marcos	-0.1626316
-3.831771	margarita	-0.3025723
-4.48062	marge	-0.2534986
-4.48062	margerita	-0.1349376
-4.617094	margeritte's	-0.1277137
-4.617094	margetarita	-0.1426396
-4.617094	margharita	-0.1396013
-3.599173	margherita	-0.2456005
-4.48062	margheritas	-0.1238391
-4.617094	margin	-0.1455657
-4.367036	maria	-0.09650305
-4.617094	mariachi	-0.1423454
-4.617094	mariano	-0.1472711
-4.617094	marie	-0.145467
-4.617094	marietta	-0.1477097
-4.617094	marina	-0.1469836
-3.131547	marinara	-0.4411339
-4.617094	marinara's	-0.1277137
-4.617094	marinare	-0.1277137
-4.617094	marine	-0.1478079
-4.617094	marinera	-0.1277137
-4.617094	mario's	-0.1447067
-4.617094	marios	-0.1426396
-4.617094	mariposa	-0.147687
-4.617094	maritime	-0.1434417
-4.48062	mark	-0.1273062
-4.109376	mark's	-0.1615831
-4.48062	marked	-0.1400209
-4.109376	market	-0.1672001
-4.617094	marketing	-0.1478916
-4.617094	marketplace	-0.1277137
-4.48062	marks	-0.1453495
-4.617094	marky	-0.1478877
-4.617094	marley	-0.1478877
-4.617094	marlton	-0.1478457
-4.617094	marmalade	-0.1478683
-4.617094	marsh	-0.1478877
-4.48062	martha	-0.1269893
-4.617094	martha's	-0.1470971
-4.617094	marvel	-0.1087585
-4.219372	mary	-0.1245857
-4.219372	mary's	-0.266476
-4.617094	marysville	-0.1478759
-4.617094	marzcapon	-0.1464837
-4.48062	marzonnis	-0.1418325
-4.617094	masak	-0.1396013
-4.617094	masaka	-0.1277137
-3.831771	masala	-0.2248229
-4.617094	masami	-0.1473241
-4.617094	mash	-0.1478306
-4.021685	mashed	-0.628154
-4.617094	mashroom	-0.1396013
-4.48062	massachusetts	-0.2385727
-4.617094	massey's	-0.1426396
-4.617094	mastcard	-0.147619
-4.219372	master	-0.2532274
-4.367036	mastercard	-0.173271
-4.617094	masterful	-0.1478532
-4.617094	mastitis	-0.1472938
-4.617094	matar	-0.1442042
-4.617094	matchbox	-0.1277137
-4.617094	matched	-0.1277137
-4.617094	material	-0.1277137
-4.617094	mates	-0.1277137
-4.617094	math	-0.1459377
-4.617094	matsedel	-0.1464837
-4.617094	matt	-0.1396013
-4.617094	mattar	-0.1464685
-4.367036	matter	-0.1208481
-4.617094	matzah	-0.1478608
-4.617094	mau	-0.1477475
-4.219372	maui	-0.4521238
-4.617094	mauro	-0.1464761
-4.219372	max	-0.1587746
-4.617094	maximum	-0.1455657
-4.48062	maximus	-0.1726201
-4.617094	maxiums	-0.1277137
-3.305245	may	-0.3733033
-2.943584	maybe	-0.2364075
-3.831771	mayo	-0.2241624
-3.663778	mayonnaise	-0.2008175
-4.617094	mazzio	-0.1433348
-4.48062	mazzio's	-0.1443225
-4.617094	mazzios	-0.1277137
-4.617094	mcdonald	-0.1477475
-4.617094	mckenzie	-0.1477475
-4.617094	mclendon	-0.1277137
-4.617094	mcuh	-0.1433348
-4.109376	md	-0.2275207
-2.693411	me	-0.1057434
-4.617094	meaballs	-0.1468852
-4.617094	meail	-0.1277137
-3.739702	meal	-0.2217151
-4.367036	meals	-0.1205011
-4.109376	mean	-0.0871039
-4.48062	means	-0.1243816
-4.367036	meant	-0.1161557
-4.617094	meantime	-0.1266642
-4.617094	measurements	-0.1277137
-2.736496	meat	-0.420753
-3.389121	meatball	-0.2824355
-3.290252	meatballs	-0.2855718
-4.617094	meatless	-0.1478608
-4.109376	meatlover	-0.1798896
-4.367036	meatlover's	-0.2351664
-3.448518	meatlovers	-0.2718007
-4.617094	meatlovers'	-0.1465064
-3.599173	meats	-0.1859879
-4.367036	meatsa	-0.2119057
-3.886339	meatzza	-0.1959117
-4.021685	med	-0.1620669
-4.617094	medallions	-0.1396013
-4.617094	medford	-0.1478877
-4.617094	media	-0.1457935
-4.617094	median	-0.1471047
-4.617094	mediant	-0.1277137
-4.617094	mediterannean	-0.1442042
-3.783302	mediterranean	-0.2897623
-4.617094	mediterrannean	-0.1463548
-4.617094	meditterannean	-0.1426396
-2.793625	medium	-0.2718191
-4.617094	medium's	-0.1476568
-4.617094	mediume	-0.1476568
-4.617094	mediumonions	-0.1396013
-3.783302	mediums	-0.2148034
-4.617094	mediumsize	-0.1465064
-4.48062	mediumsized	-0.1398367
-4.617094	mediumwell	-0.1277137
-4.48062	meduim	-0.1272033
-4.617094	meduium	-0.1426396
-3.517345	meeting	-0.2755614
-4.617094	meetlovers	-0.1396013
-4.367036	mega	-0.2184
-4.617094	meim	-0.1477172
-4.48062	mein	-0.1407368
-4.617094	melanzane	-0.1426396
-4.48062	melazane	-0.1380859
-4.617094	melissa	-0.1442042
-4.367036	mellow	-0.3266704
-4.617094	melon	-0.1478759
-4.617094	melt	-0.1434035
-4.48062	melted	-0.2573427
-4.617094	member	-0.1455657
-4.617094	memorable	-0.1277137
-4.48062	memory	-0.1438272
-4.367036	memphis	-0.326678
-4.617094	menards	-0.1446002
-4.617094	meneds	-0.1440137
