
\data\
ngram 1=2304
ngram 2=15735
ngram 3=8142

\1-grams:
-4.082936	'chill'	-0.1340667
-3.774996	'do	-0.379054
-4.082936	'm	-0.1341037
-4.082936	'meeting'	-0.1263238
-4.082936	'morning	-0.1341037
-4.082936	'newdravewav'	-0.1072809
-4.082936	's	-0.1285382
-4.082936	'the	-0.1341037
-3.940135	0	-0.1017172
-4.082936	1g	-0.1338734
-3.169859	1gb	-0.1985754
-4.082936	1mb	-0.1332377
-4.082936	1pm	-0.1072809
-3.774996	1st	-0.3534292
-3.940135	1tb	-0.1261934
-3.940135	2g	-0.1297209
-3.031278	2gb	-0.2483187
-4.082936	2mb	-0.1021821
-4.082936	2pm	-0.1263238
-3.940135	3	-0.1065568
-4.082936	3g's	-0.1299897
-3.313681	3gb	-0.1725996
-4.082936	3pm	-0.1243341
-4.082936	3rd	-0.1072809
-3.530197	4g	-0.1761593
-3.260272	4gb	-0.2661051
-3.635572	4pm	-0.1578305
-3.445463	5	-0.1574876
-4.082936	5g	-0.1327396
-3.169859	5gb	-0.1917064
-3.940135	5mb	-0.1270078
-3.530197	5pm	-0.269423
-3.940135	6	-0.1322786
-3.774996	6am	-0.1888328
-3.940135	6gb	-0.1267091
-3.940135	6pm	-0.1669445
-4.082936	6s	-0.1072809
-3.940135	7am	-0.09896173
-4.082936	7gb	-0.1332377
-3.445463	8	-0.1332759
-3.530197	8am	-0.2504414
-3.374593	8gb	-0.1545805
-3.940135	8pm	-0.09896173
-3.940135	9	-0.1263339
-3.940135	9am	-0.1044932
-3.940135	9gb	-0.123967
-3.940135	9pm	-0.2366627
-1.22206	</s>
-99	<s>	-0.9642718
-2.021814	a	-0.2413729
-4.082936	aalright	-0.1072809
-4.082936	aand	-0.1333484
-4.082936	abilities	-0.1325735
-4.082936	ability	-0.1263238
-3.130853	able	-0.9745321
-4.082936	abou	-0.1341037
-2.577339	about	-0.2934188
-3.940135	absolutely	-0.1107107
-4.082936	accept	-0.1283145
-3.095064	access	-0.3035445
-3.940135	accessed	-0.2586566
-3.774996	accessing	-0.3753849
-4.082936	accident	-0.1072809
-4.082936	according	-0.1263238
-4.082936	accordingly	-0.1072809
-2.926383	account	-0.1654259
-4.082936	accountks	-0.1072809
-3.445463	acct	-0.1232127
-4.082936	accurate	-0.1072809
-4.082936	action	-0.1000379
-3.445463	activate	-0.2654589
-3.260272	activated	-0.2654389
-3.940135	activating	-0.1253211
-4.082936	activation	-0.1337353
-3.635572	active	-0.1002682
-3.062001	actually	-0.07062683
-3.031278	add	-0.2006155
-3.130853	added	-0.2153041
-3.774996	adding	-0.1252568
-3.940135	addition	-0.121114
-3.260272	additional	-0.1184944
-3.774996	address	-0.1819023
-3.445463	adjust	-0.1752003
-3.774996	adjusted	-0.1278868
-3.940135	adjusting	-0.1323617
-3.635572	adjustment	-0.08903461
-4.082936	adjustments	-0.1072809
-4.082936	adult	-0.1341037
-4.082936	advice	-0.1072809
-4.082936	advised	-0.1283145
-4.082936	affair	-0.1302404
-3.940135	affect	-0.131085
-4.082936	affected	-0.1072809
-4.082936	affective	-0.133901
-4.082936	affects	-0.1339563
-3.530197	afraid	-0.1344708
-2.882123	after	-0.1761881
-3.774996	afternoon	-0.3534292
-3.940135	afterwards	-0.09964956
-3.031278	again	-0.2037578
-3.940135	agent	-0.1319458
-4.082936	ah	-0.1276527
-4.082936	ahaed	-0.1072809
-3.635572	ahead	-0.1909564
-3.313681	airplane	-0.6557411
-4.082936	ake	-0.1293204
-4.082936	al	-0.1322409
-4.082936	alaarm	-0.1341037
-4.082936	alamrs	-0.1297109
-2.861577	alarm	-0.2254401
-2.696608	alarms	-0.2964237
-4.082936	album	-0.1322409
-3.940135	alert	-0.1253493
-4.082936	alerts	-0.1072809
-4.082936	alive	-0.1072809
-2.279668	all	-0.4027801
-3.774996	allocated	-0.1253695
-3.774996	allotment	-0.1641119
-3.635572	allotted	-0.1295736
-3.530197	allow	-0.2359765
-3.635572	allowance	-0.2184873
-3.374593	allowed	-0.1607163
-4.082936	allowing	-0.1269697
-3.774996	allows	-0.1689105
-3.635572	almost	-0.1798683
-3.774996	alone	-0.0984549
-3.635572	along	-0.2963628
-3.940135	alot	-0.1032799
-2.975671	already	-0.1360085
-3.374593	alright	-0.01644434
-4.082936	alrighti	-0.1289116
-4.082936	alrighti've	-0.133901
-4.082936	alrighty	-0.1269697
-2.710555	also	-0.1660584
-3.635572	always	-0.1715085
-2.950328	am	-0.1052775
-4.082936	amazeywazy	-0.1311862
-3.940135	amazing	-0.1072428
-4.082936	american	-0.1340667
-2.975671	amount	-0.2635367
-4.082936	amrican	-0.1340667
-2.657269	an	-0.3891315
-1.993721	and	-0.1366578
-3.774996	android	-0.1307152
-4.082936	angela	-0.1072809
-4.082936	angeles	-0.1054967
-3.940135	angie	-0.1251802
-4.082936	animal	-0.133459
-4.082936	ann	-0.1072809
-4.082936	annoying	-0.1340391
-3.031278	another	-0.19802
-4.082936	another's	-0.1341037
-4.082936	ans	-0.1330718
-3.313681	answer	-0.1365671
-3.940135	answered	-0.2367009
-4.082936	answering	-0.1326288
-2.755303	any	-0.2341988
-4.082936	anyhting	-0.1266148
-3.940135	anymore	-0.1330817
-3.530197	anyone	-0.147365
-4.082936	anyrhing	-0.1337906
-4.082936	anythimg	-0.1337906
-2.400004	anything	-0.737294
-4.082936	anythingh	-0.1337906
-3.260272	anytime	-0.101579
-4.082936	anyting	-0.1337906
-3.260272	anyway	-0.3747634
-3.940135	anyways	-0.2367009
-4.082936	anywhere	-0.1269697
-4.082936	aparmsand	-0.1336248
-4.082936	apart	-0.1303796
-4.082936	apologies	-0.1279507
-4.082936	apologize	-0.1251521
-3.212717	app	-0.125395
-3.774996	appear	-0.2110832
-4.082936	appearance	-0.1072809
-3.940135	appears	-0.2029114
-3.940135	apple	-0.1329433
-4.082936	application	-0.1325735
-4.082936	applications	-0.1072809
-3.530197	applied	-0.1639109
-3.530197	apply	-0.1359602
-3.940135	applying	-0.1280727
-3.530197	appreciate	-0.1733909
-3.635572	apps	-0.1226108
-2.459343	are	-0.2174915
-4.082936	areyou	-0.1072809
-4.082936	arnold's	-0.1335419
-3.530197	around	-0.1186347
-2.501021	as	-0.2855973
-4.082936	asap	-0.1072809
-4.082936	aside	-0.1326842
-3.212717	ask	-0.278029
-3.774996	asked	-0.09823435
-3.635572	asking	-0.09594992
-4.082936	asleep	-0.1072809
-4.082936	aspect	-0.1303796
-4.082936	aspects	-0.1303796
-3.313681	assist	-0.2929179
-3.212717	assistance	-0.3426305
-4.082936	assisting	-0.1324626
-4.082936	associated	-0.1316306
-2.279668	at	-0.3375205
-4.082936	audio	-0.1323518
-4.082936	authorize	-0.1196041
-4.082936	authorized	-0.1263238
-3.374593	auto	-0.2636119
-4.082936	autobill	-0.133459
-3.374593	automatically	-0.1419886
-4.082936	autopay	-0.1072809
-3.940135	avail	-0.1214166
-2.841959	available	-0.1582026
-4.082936	availalbe	-0.1332377
-4.082936	avengers	-0.1338458
-4.082936	average	-0.1070565
-3.940135	avoid	-0.1281846
-4.082936	aw	-0.133901
-3.530197	aware	-0.102507
-3.774996	away	-0.1644402
-4.082936	awesme	-0.1072809
-3.445463	awesome	-0.1866038
-4.082936	awesone	-0.1326288
-4.082936	awh	-0.1339563
-4.082936	ay	-0.1072809
-4.082936	ayeo	-0.1072034
-4.082936	b	-0.09815516
-4.082936	baby	-0.1306023
-2.903689	back	-0.34729
-3.445463	background	-0.2008872
-4.082936	backgroynd	-0.1297946
-3.774996	backlight	-0.2149461
-3.940135	backlit	-0.2630171
-3.940135	bad	-0.09075692
-3.940135	bag	-0.2367009
-4.082936	baha	-0.1341037
-3.374593	balance	-0.1610347
-4.082936	bandwidth	-0.1057915
-4.082936	bankrupt	-0.1072809
-3.940135	bar	-0.1268394
-4.082936	barbara	-0.1072809
-4.082936	barbie	-0.1341037
-4.082936	bargain	-0.1334037
-3.940135	bars	-0.1027462
-3.774996	based	-0.3759429
-3.445463	basic	-0.1671929
-3.260272	battery	-0.1133563
-4.082936	bawkbawkwav	-0.1313529
-2.509859	be	-0.1815916
-4.082936	beach	-0.1316306
-3.940135	beam	-0.1274285
-4.082936	beastie	-0.1341037
-4.082936	beatles	-0.1072809
-3.445463	because	-0.1944573
-3.445463	becky	-0.2221661
-4.082936	becky's	-0.1306023
-3.940135	bee	-0.2159323
-3.374593	been	-0.1801991
-3.774996	beep	-0.2110832
-3.260272	before	-0.2246395
-3.940135	beginning	-0.1280727
-4.082936	begins	-0.1340667
-3.635572	being	-0.1286909
-3.940135	believe	-0.1247111
-3.774996	bell	-0.2130328
-4.082936	bells	-0.1341037
-3.940135	below	-0.1315017
-3.635572	best	-0.1563602
-4.082936	bestmobileevercom	-0.1297109
-4.082936	bestphonesevercomaccountlogin	-0.1072809
-3.169859	better	-0.1499359
-3.774996	between	-0.1318725
-3.635572	beyond	-0.2956591
-3.940135	big	-0.1056459
-3.940135	bigger	-0.130946
-3.095064	bill	-0.2274191
-3.940135	billed	-0.1217393
-3.374593	billing	-0.3073212
-3.374593	billion	-0.2373574
-3.940135	bills	-0.1048477
-4.082936	bird	-0.1330718
-3.940135	birds	-0.1072428
-4.082936	bit	-0.09705504
-4.082936	blackouts	-0.1072809
-4.082936	blind	-0.1325735
-3.530197	block	-0.1233138
-3.940135	blocked	-0.1338651
-4.082936	blocks	-0.1318526
-4.082936	blowing	-0.133901
-3.940135	blue	-0.1340678
-3.130853	bluetooth	-0.07958761
-3.374593	bob	-0.2373623
-4.082936	bobby	-0.1341037
-4.082936	bod	-0.1340898
-3.940135	body	-0.1072428
-4.082936	boo	-0.1263238
-4.082936	book	-0.1072809
-4.082936	boop	-0.1021524
-4.082936	booprobot	-0.1341037
-4.082936	boss	-0.129312
-2.805197	bot	-0.3329878
-4.082936	bot's	-0.1340391
-3.374593	both	-0.09455457
-3.635572	bother	-0.1878216
-4.082936	bothered	-0.1328227
-4.082936	bots	-0.1335142
-3.940135	bottom	-0.1174399
-4.082936	botty	-0.1072809
-4.082936	bout	-0.1302404
-4.082936	box	-0.1297946
-4.082936	boxes	-0.1303796
-4.082936	boy	-0.1333207
-4.082936	boys	-0.1072809
-3.940135	brand	-0.1069096
-3.940135	brass	-0.2634867
-4.082936	brighness	-0.1297946
-3.940135	bright	-0.09896173
-3.940135	brighter	-0.1320845
-4.082936	brightnes	-0.1263238
-2.903689	brightness	-0.3127693
-3.940135	bring	-0.1279607
-4.082936	bro	-0.1324626
-4.082936	broken	-0.1072809
-4.082936	bronze	-0.1072809
-4.082936	brother	-0.1341037
-4.082936	browser	-0.1339563
-4.082936	btw	-0.1269697
-4.082936	bucks	-0.1329888
-4.082936	buddy	-0.1072809
-3.940135	budget	-0.2367009
-3.940135	bugwak	-0.104168
-4.082936	bullock	-0.1072809
-4.082936	bummer	-0.1330718
-4.082936	bump	-0.1269697
-4.082936	bumping	-0.1269697
-4.082936	bunch	-0.1032799
-4.082936	business	-0.1341037
-3.774996	busy	-0.1595175
-2.306772	but	-0.3256751
-3.635572	button	-0.09494566
-4.082936	buy	-0.1329888
-4.082936	buying	-0.133901
-2.696608	by	-0.1619718
-3.031278	bye	-0.5006384
-4.082936	byond	-0.1302404
-4.082936	byye	-0.1072809
-4.082936	c	-0.1072809
-4.082936	calculate	-0.1283145
-2.903689	call	-0.1675851
-4.082936	call'	-0.1273343
-3.774996	called	-0.1831842
-4.082936	caller	-0.1311862
-3.095064	calling	-0.1538571
-4.082936	callingi	-0.1317694
-4.082936	callings	-0.1324903
-4.082936	callingtext	-0.1313529
-2.823189	calls	-0.2060365
-4.082936	callsmessages	-0.1320191
-2.173032	can	-0.3461851
-3.530197	can't	-0.1479849
-4.082936	canada	-0.1297109
-3.530197	cancel	-0.2283666
-3.940135	cancelled	-0.122637
-3.635572	cannot	-0.1731255
-4.082936	cant	-0.1004075
-3.774996	cap	-0.2344448
-3.635572	capabilities	-0.09904304
-4.082936	capability	-0.1273343
-4.082936	capable	-0.1303796
-4.082936	car	-0.1340898
-3.260272	card	-0.2058741
-3.940135	care	-0.09130558
-4.082936	careful	-0.1316306
-3.940135	careless	-0.2635237
-3.940135	carrier	-0.1334412
-4.082936	carriers	-0.1340667
-4.082936	carries	-0.1329611
-4.082936	carry	-0.1317694
-3.940135	case	-0.1217495
-3.940135	cat	-0.1047106
-4.082936	cathy	-0.1072809
-4.082936	cats	-0.1040793
-4.082936	cause	-0.1329888
-3.940135	cc	-0.1262496
-4.082936	cease	-0.1292366
-3.374593	cell	-0.2926305
-4.082936	cellphone	-0.1306679
-4.082936	cellular	-0.1319081
-4.082936	cent	-0.1072809
-3.774996	cents	-0.1876559
-3.445463	certain	-0.1503587
-3.635572	certainly	-0.1103691
-2.621198	change	-0.2622315
-4.082936	changea	-0.1072809
-2.926383	changed	-0.2930793
-3.031278	changes	-0.3190358
-3.260272	changing	-0.1636069
-3.031278	charge	-0.1602745
-3.530197	charged	-0.1257422
-3.530197	charges	-0.09102044
-4.082936	charging	-0.1292366
-3.940135	chat	-0.1316683
-4.082936	cheap	-0.132795
-4.082936	cheapeast	-0.1306023
-3.774996	cheaper	-0.1308406
-3.940135	cheapest	-0.1029645
-2.841959	check	-0.3371341
-3.940135	checked	-0.1281287
-3.212717	checking	-0.1683826
-4.082936	checkingg	-0.1072809
-4.082936	checkk	-0.1285382
-3.774996	chicken	-0.2153333
-4.082936	chill	-0.1326842
-4.082936	chime	-0.1283625
-4.082936	chimes	-0.1072809
-4.082936	chirping	-0.1297109
-3.774996	choice	-0.1008241
-3.940135	choices	-0.1013197
-3.445463	choose	-0.1548355
-4.082936	choosing	-0.1285382
-3.940135	chose	-0.1268394
-4.082936	cindy	-0.1326842
-4.082936	circa	-0.1306023
-3.940135	clarify	-0.1300554
-4.082936	classic	-0.1340667
-3.774996	clear	-0.1205937
-3.212717	click	-0.1870031
-4.082936	clicked	-0.1297946
-3.635572	clock	-0.09513544
-3.374593	close	-0.2573077
-3.940135	cloud	-0.1442796
-4.082936	club	-0.1332654
-4.082936	co'z	-0.1279507
-3.940135	code	-0.09964956
-4.082936	cold	-0.131214
-3.940135	collins	-0.09896173
-4.082936	color	-0.1072809
-3.260272	come	-0.4587761
-3.445463	comes	-0.6788089
-4.082936	comfortable	-0.1340678
-4.082936	commands	-0.1324626
-4.082936	company	-0.1340898
-4.082936	compare	-0.1263238
-3.374593	complete	-0.3337654
-4.082936	completed	-0.1311862
-3.940135	completely	-0.133948
-4.082936	computer	-0.1263238
-3.530197	concern	-0.3704079
-4.082936	concerned	-0.1279507
-3.940135	concerning	-0.1252929
-3.530197	concerns	-0.5752779
-4.082936	cone	-0.1334037
-4.082936	configuration	-0.1330994
-3.313681	confirm	-0.1608414
-3.530197	confirmation	-0.3166288
-3.445463	confirmed	-0.122597
-4.082936	confirming	-0.1283145
-3.940135	confused	-0.130807
-4.082936	confusion	-0.1330164
-3.530197	connect	-0.1315426
-3.530197	connected	-0.1765418
-3.774996	connection	-0.1868597
-3.635572	consider	-0.5004074
-4.082936	consideration	-0.1072809
-4.082936	considering	-0.1072809
-4.082936	constantly	-0.1325735
-3.031278	contact	-0.2034384
-3.169859	contacts	-0.1965854
-4.082936	contains	-0.1309182
-3.530197	continue	-0.2350854
-3.530197	contract	-0.330827
-3.635572	control	-0.1392457
-4.082936	controls	-0.1072809
-3.774996	cool	-0.1308105
-4.082936	corner	-0.1303796
-2.950328	correct	-0.4593969
-4.082936	correctly	-0.1297109
-3.095064	cost	-0.1934225
-3.940135	costing	-0.1252648
-3.530197	costs	-0.1944767
-4.082936	coudnt	-0.132795
-2.882123	could	-0.3838479
-4.082936	couldn't	-0.130966
-4.082936	country	-0.1297109
-4.082936	couple	-0.1300554
-4.082936	coupon	-0.1340898
-3.940135	course	-0.1099416
-4.082936	cover	-0.1324626
-3.940135	cow	-0.133423
-4.082936	cpu	-0.1072809
-3.774996	crazy	-0.1041
-4.082936	creat	-0.1299897
-3.940135	create	-0.2594096
-4.082936	created	-0.1326288
-4.082936	creating	-0.1337353
-3.374593	credit	-0.5472554
-4.082936	criteria	-0.1072809
-4.082936	critical	-0.1273343
-4.082936	crocheting	-0.1072809
-4.082936	cup	-0.1297946
-3.940135	curious	-0.1305844
-3.212717	current	-0.2336774
-2.755303	currently	-0.1637879
-4.082936	curretnly	-0.1325735
-4.082936	curt	-0.133459
-3.260272	customer	-0.2394352
-4.082936	customers	-0.1316306
-4.082936	cvc	-0.1340898
-4.082936	cya	-0.1072809
-3.635572	cycle	-0.1258345
-4.082936	d	-0.1322409
-4.082936	da	-0.1341037
-4.082936	dab	-0.1072809
-4.082936	dah	-0.1072809
-4.082936	dail	-0.1325735
-3.774996	daily	-0.13335
-3.940135	dancing	-0.2612726
-3.940135	daniel	-0.1305009
-4.082936	darn	-0.131214
-2.290308	data	-0.2777811
-4.082936	data's	-0.1311307
-4.082936	dataplans	-0.1072809
-4.082936	datat	-0.1072809
-3.260272	date	-0.1699012
-4.082936	daughter	-0.1293483
-4.082936	david	-0.1072809
-4.082936	david's	-0.1338458
-4.082936	davids	-0.1311307
-2.861577	day	-0.2147915
-4.082936	daya	-0.1298782
-4.082936	daylight	-0.1341037
-3.260272	days	-0.2267132
-3.940135	deactivate	-0.1245136
-4.082936	deaf	-0.1325735
-3.031278	deal	-0.1719519
-4.082936	deals	-0.1335142
-3.940135	debit	-0.1320013
-4.082936	debugging	-0.1072809
-4.082936	decision	-0.1072809
-3.635572	decrease	-0.114591
-4.082936	decreased	-0.1263238
-3.635572	default	-0.124307
-3.635572	definitely	-0.1272724
-3.940135	degrees	-0.2367009
-4.082936	delay	-0.120677
-3.095064	delete	-0.1595587
-3.445463	deleted	-0.3251265
-3.774996	deleting	-0.100675
-4.082936	department	-0.1072809
-4.082936	described	-0.1311584
-4.082936	description	-0.1336524
-3.940135	deselect	-0.2579582
-3.774996	designed	-0.1181174
-4.082936	desire	-0.1273343
-4.082936	desired	-0.1337353
-4.082936	detail	-0.1273343
-3.445463	details	-0.1510182
-4.082936	detected	-0.1332654
-4.082936	determine	-0.1285382
-3.940135	developer	-0.2628236
-4.082936	developr	-0.1334037
-3.313681	device	-0.2901131
-4.082936	devices	-0.1279507
-4.082936	devide	-0.1339286
-4.082936	di	-0.1329057
-4.082936	diable	-0.1318526
-4.082936	dial	-0.1311307
-4.082936	diamond	-0.1311862
-2.975671	did	-0.3536619
-3.940135	didn't	-0.1309854
-4.082936	didnt	-0.1319914
-4.082936	dieing	-0.1340391
-4.082936	difference	-0.1340667
-4.082936	differences	-0.1303796
-3.445463	different	-0.1417886
-4.082936	digits	-0.1303796
-3.774996	dim	-0.09288444
-4.082936	dimmer	-0.1072809
-3.774996	direct	-0.1252139
-3.530197	directly	-0.09716453
-4.082936	directvuou	-0.1341037
-3.095064	disable	-0.1877841
-3.313681	disabled	-0.1502014
-3.940135	disables	-0.1269237
-4.082936	disabling	-0.1072809
-4.082936	discomforting	-0.131214
-3.774996	discount	-0.1845216
-3.774996	discounts	-0.1819023
-4.082936	discreet	-0.1072809
-4.082936	discturb	-0.1293483
-4.082936	discussed	-0.1322409
-4.082936	disengage	-0.1072809
-3.774996	display	-0.1040603
-4.082936	displayed	-0.1332654
-4.082936	disruption	-0.1072809
-4.082936	disruptions	-0.1339839
-4.082936	disstrub	-0.1320191
-3.940135	distrub	-0.1612968
-4.082936	distrube	-0.1072809
-4.082936	distrurb	-0.106498
-4.082936	distub	-0.1334037
-4.082936	distube	-0.1339563
-3.212717	disturb	-0.03897431
-4.082936	disturb'	-0.1273544
-3.940135	disturbances	-0.1293304
-4.082936	disturbed	-0.09603176
-4.082936	disturbing	-0.1269697
-4.082936	diturb	-0.1072809
-4.082936	divulging	-0.1283145
-3.445463	dnd	-0.1453234
-2.010358	do	-0.5664187
-4.082936	doe	-0.1072809
-2.882123	does	-0.3996746
-3.445463	doesn't	-0.1698941
-4.082936	doesnt	-0.1337906
-4.082936	dof	-0.1311862
-4.082936	dog	-0.1072809
-3.774996	dogs	-0.1033498
-3.260272	doing	-0.3679596
-4.082936	doiuble	-0.1283145
-4.082936	dolalrs	-0.1299897
-3.940135	dole	-0.1055763
-3.635572	dollar	-0.2564278
-3.260272	dollars	-0.2183444
-4.082936	don	-0.1341037
-2.950328	don't	-0.2534606
-4.082936	donald	-0.1341037
-2.771306	done	-0.3608587
-4.082936	donme	-0.1324072
-3.530197	dont	-0.1620266
-4.082936	doo	-0.1341037
-4.082936	doubl	-0.1285382
-2.739869	double	-0.4817774
-3.635572	doublecheck	-0.2300314
-4.082936	doubled	-0.1292366
-3.940135	doubles	-0.2586566
-3.635572	doubling	-0.2537824
-3.095064	down	-0.1377099
-4.082936	downgrade	-0.1263238
-4.082936	downgraded	-0.1263238
-3.635572	download	-0.1558535
-4.082936	downloaded	-0.1297109
-4.082936	drag	-0.1292366
-4.082936	dramaticially	-0.1313529
-4.082936	dreams	-0.1315196
-4.082936	drop	-0.1293204
-4.082936	dropped	-0.1263238
-4.082936	dsy	-0.1072809
-3.445463	due	-0.1849509
-4.082936	duper	-0.1311862
-4.082936	duration	-0.1072809
-3.445463	during	-0.1601406
-4.082936	dying	-0.1340391
-3.940135	e	-0.1000379
-2.950328	each	-0.5275626
-4.082936	ears	-0.1340898
-4.082936	earth	-0.1072809
-4.082936	easiest	-0.1293483
-3.940135	easy	-0.1056736
-4.082936	edge	-0.1072809
-3.445463	edit	-0.1746175
-4.082936	editing	-0.1332654
-4.082936	edits	-0.1263238
-3.635572	effect	-0.1644937
-3.445463	effective	-0.3606923
-3.940135	eh	-0.1280167
-4.082936	ehh	-0.1333583
-2.577339	eight	-0.5077032
-3.635572	eighteen	-0.2376926
-3.774996	eighty	-0.1773816
-3.260272	either	-0.1507893
-4.082936	eleven	-0.1068802
-3.095064	else	-0.2248235
-4.082936	elsewhere	-0.1334866
-3.374593	email	-0.08266277
-4.082936	en	-0.1341037
-3.313681	enable	-0.1855616
-3.530197	enabled	-0.1294775
-3.940135	enabling	-0.2592982
-4.082936	encured	-0.1331824
-3.212717	end	-0.1571657
-4.082936	ended	-0.1298782
-4.082936	ending	-0.1311307
-3.445463	ends	-0.1650821
-4.082936	energy	-0.1285382
-4.082936	engaged	-0.1072809
-3.260272	enjoy	-0.452437
-3.374593	enough	-0.1993193
-4.082936	enroll	-0.1324626
-4.082936	ensure	-0.1283145
-3.774996	enter	-0.2069038
-4.082936	entered	-0.1293204
-3.940135	entire	-0.1336623
-4.082936	entirely	-0.1330718
-3.774996	equipped	-0.2941353
-4.082936	erase	-0.1285382
-4.082936	erlse	-0.1072809
-3.774996	estimate	-0.09945105
-3.940135	etc	-0.2367009
-3.635572	even	-0.1296115
-3.530197	evening	-0.4520721
-4.082936	eventually	-0.1340898
-4.082936	ever	-0.13214
-4.082936	everthing	-0.1273343
-3.002585	every	-0.5683534
-4.082936	everyday	-0.1326842
-4.082936	everyone	-0.1311862
-3.374593	everything	-0.172013
-4.082936	ex	-0.1341037
-4.082936	exact	-0.1324626
-3.530197	exactly	-0.1355391
-3.940135	exams	-0.1025681
-4.082936	exceed	-0.1285382
-4.082936	exceeded	-0.1285382
-4.082936	exceeding	-0.1283145
-4.082936	excellent	-0.08955713
-3.940135	except	-0.1327727
-4.082936	excess	-0.1072809
-4.082936	exclusive	-0.1323518
-4.082936	exclusively	-0.1325735
-4.082936	exist	-0.1338458
-3.940135	existing	-0.1298882
-4.082936	expect	-0.1335142
-4.082936	expected	-0.1072809
-3.445463	expensive	-0.1742086
-4.082936	expiration	-0.133901
-3.774996	express	-0.1026926
-3.940135	extend	-0.2596604
-3.002585	extra	-0.2032314
-4.082936	extremely	-0.1332931
-4.082936	eye	-0.1072809
-4.082936	faeture	-0.1298782
-3.635572	fair	-0.1907794
-4.082936	fake	-0.133376
-4.082936	fall	-0.1341037
-3.774996	fam	-0.09128376
-3.212717	family	-0.2351546
-4.082936	fancy	-0.1340391
-3.774996	fantastic	-0.1882134
-3.635572	far	-0.1192614
-3.940135	fast	-0.1049067
-3.940135	faster	-0.2367009
-4.082936	favor	-0.1072809
-3.940135	favorites	-0.1242031
-3.374593	feature	-0.1334101
-3.635572	features	-0.08239181
-3.374593	fee	-0.324472
-3.445463	feel	-0.1996214
-3.774996	fees	-0.09972003
-4.082936	fess	-0.1072809
-3.940135	few	-0.1308269
-4.082936	fi	-0.1337906
-3.313681	fifteen	-0.1653242
-4.082936	fifties	-0.1297109
-3.002585	fifty	-0.2229371
-3.635572	figure	-0.3353496
-3.940135	file	-0.09043225
-4.082936	files	-0.1297946
-4.082936	filter	-0.1072809
-3.940135	finalized	-0.1000379
-4.082936	finally	-0.1279507
-3.374593	find	-0.2380249
-3.940135	finding	-0.1276246
-3.062001	fine	-0.2194586
-4.082936	finger	-0.1262215
-3.940135	finish	-0.1033498
-3.940135	finished	-0.13369
-4.082936	finishes	-0.1072809
-4.082936	fire	-0.132334
-2.975671	first	-0.1759041
-3.940135	fit	-0.1092272
-3.940135	fitbit	-0.1318903
-4.082936	fits	-0.1266148
-2.373121	five	-0.5399893
-4.082936	fix	-0.1333207
-3.774996	fixed	-0.10246
-4.082936	flamingo	-0.1072809
-4.082936	flat	-0.1322964
-4.082936	flescher	-0.1326842
-4.082936	flip	-0.1324626
-4.082936	focus	-0.1273343
-3.940135	fog	-0.2635098
-4.082936	following	-0.1324903
-3.940135	font	-0.1278868
-1.808336	for	-0.5507994
-4.082936	foreseeable	-0.1340667
-3.635572	forever	-0.2359758
-4.082936	forget	-0.1263238
-4.082936	forgetting	-0.1072809
-4.082936	forgot	-0.1329888
-3.940135	form	-0.1303293
-3.313681	forty	-0.2402855
-4.082936	forward	-0.1263238
-3.635572	found	-0.1313285
-2.467365	four	-0.5734014
-3.635572	fourteen	-0.1800155
-4.082936	frame	-0.09533593
-4.082936	fre	-0.1317694
-2.509859	free	-0.4979753
-4.082936	freedom	-0.1072809
-4.082936	fresh	-0.1337353
-4.082936	fri	-0.1072809
-3.635572	friday	-0.2596636
-4.082936	friend	-0.1072809
-4.082936	friendly	-0.1324626
-4.082936	fro	-0.1317694
-2.475538	from	-0.2155031
-4.082936	front	-0.1303796
-3.940135	fulfill	-0.1243624
-4.082936	full	-0.1328326
-3.940135	fun	-0.1025681
-3.530197	function	-0.1537208
-4.082936	functions	-0.1072809
-4.082936	funky	-0.1072809
-3.635572	further	-0.2628221
-3.774996	future	-0.1885977
-3.530197	g	-0.2040981
-4.082936	galaxy	-0.1341037
-4.082936	galaxys6	-0.1341037
-4.082936	gallery	-0.1263238
-4.082936	game	-0.1297946
-4.082936	games	-0.1072809
-2.771306	gb	-0.384055
-3.940135	gb's	-0.1322509
-3.313681	gbs	-0.2783302
-4.082936	gega	-0.1273343
-4.082936	general	-0.1297109
-4.082936	generally	-0.1337906
-4.082936	generic	-0.1340898
-4.082936	george	-0.1341037
-2.823189	get	-0.1758968
-3.445463	getting	-0.152045
-4.082936	ghostbusters	-0.1338458
-4.082936	gibs	-0.1273343
-4.082936	gibsbut	-0.1279507
-3.635572	gig	-0.1575797
-3.445463	gigabyte	-0.08120812
-3.212717	gigabytes	-0.3481496
-2.975671	gigs	-0.3272878
-4.082936	girl	-0.1340391
-4.082936	girlfriend	-0.1072809
-3.774996	girls	-0.206628
-3.002585	give	-0.5976134
-3.774996	given	-0.117573
-3.940135	gives	-0.2071292
-4.082936	giving	-0.1315751
-3.212717	glad	-0.4749253
-4.082936	gladly	-0.1315751
-4.082936	glitch	-0.1331824
-4.082936	glorious	-0.1340898
-2.509859	go	-0.4909522
-3.940135	god	-0.1021821
-3.635572	goes	-0.262557
-2.841959	going	-0.4936345
-3.940135	gold	-0.2606062
-4.082936	golf	-0.1341037
-4.082936	golfers	-0.1072809
-4.082936	gomez	-0.1072809
-3.445463	gone	-0.3025419
-4.082936	gonna	-0.132795
-2.823189	good	-0.2313607
-3.212717	goodbye	-0.5443937
-4.082936	google	-0.1283145
-4.082936	goood	-0.1340115
-3.313681	got	-0.1851812
-4.082936	gotcha	-0.1334037
-4.082936	gotten	-0.1302404
-3.940135	gps	-0.1340539
-3.940135	grade	-0.09896173
-4.082936	grammatically	-0.1339839
-3.940135	grandma	-0.09864312
-4.082936	grandma's	-0.1330718
-4.082936	gray	-0.1341037
-3.002585	great	-0.09086059
-4.082936	ground	-0.1072809
-3.774996	guess	-0.09548619
-4.082936	guys	-0.1313351
-4.082936	ha	-0.1072809
-3.530197	had	-0.2169891
-4.082936	hae	-0.1297946
-4.082936	haev	-0.1332377
-4.082936	haha	-0.1072809
-4.082936	hahaha	-0.1072809
-3.940135	half	-0.1028649
-4.082936	halo	-0.1072809
-4.082936	hammer	-0.1340115
-3.774996	happen	-0.1254438
-4.082936	happened	-0.1072809
-4.082936	happening	-0.1072809
-4.082936	happens	-0.1321855
-3.260272	happy	-0.3664205
-4.082936	harassment	-0.1319914
-3.940135	hard	-0.1340678
-2.587896	has	-0.5015607
-3.940135	hate	-0.2587404
-2.279668	have	-0.1556338
-4.082936	havea	-0.1339839
-3.774996	having	-0.129889
-4.082936	hawk	-0.1279507
-4.082936	hazardous	-0.1263238
-4.082936	hd	-0.1340898
-3.940135	head	-0.2367009
-4.082936	headache	-0.1279507
-3.940135	headphones	-0.1051133
-4.082936	headpiece	-0.1335695
-4.082936	heads	-0.132795
-4.082936	health	-0.1072809
-3.940135	hear	-0.0825273
-4.082936	hearing	-0.1329888
-4.082936	heat	-0.132795
-2.926383	hello	-0.5319779
-4.082936	helloi	-0.1318526
-4.082936	hells	-0.1341037
-4.082936	helo	-0.1336248
-2.51888	help	-0.3377664
-3.130853	helpful	-0.2602501
-4.082936	helping	-0.1054967
-4.082936	helpme	-0.1316306
-3.635572	helps	-0.1885094
-4.082936	heo	-0.1072809
-3.260272	her	-0.2344813
-3.002585	here	-0.2098347
-3.635572	hey	-0.1141694
-4.082936	hhey	-0.1072809
-3.940135	hi	-0.1103835
-4.082936	hide	-0.1318526
-3.374593	high	-0.2540813
-3.774996	higher	-0.101122
-3.774996	highest	-0.1929154
-4.082936	highlight	-0.1318526
-4.082936	highspeed	-0.1319081
-4.082936	hills	-0.1326288
-4.082936	him	-0.1072809
-3.940135	his	-0.2629619
-3.530197	hit	-0.1466481
-4.082936	hitting	-0.1302404
-4.082936	hm	-0.1201481
-4.082936	hmm	-0.1207076
-4.082936	hmmm	-0.131585
-4.082936	hmmthat	-0.1341037
-3.530197	hold	-0.254448
-4.082936	holds	-0.1331548
-4.082936	holymoly	-0.1319081
-3.774996	home	-0.1668958
-4.082936	homescreen	-0.1341037
-4.082936	honestly	-0.1279507
-4.082936	honesty	-0.1072809
-4.082936	honor	-0.1072809
-4.082936	hook	-0.132795
-3.313681	hope	-0.2806903
-4.082936	hoping	-0.1263238
-3.940135	horn	-0.1044742
-3.940135	hot	-0.1070271
-4.082936	hotspot	-0.1273343
-3.635572	hour	-0.2329578
-3.130853	hours	-0.2215596
-2.164887	how	-0.7085708
-2.950328	however	-0.3226848
-3.940135	howlin	-0.2632382
-4.082936	hr	-0.1297109
-4.082936	huge	-0.1330739
-3.940135	huh	-0.1041089
-4.082936	hum	-0.1293483
-4.082936	human	-0.1072809
-4.082936	humna	-0.1072809
-3.260272	hundred	-0.3436436
-4.082936	hurry	-0.1072809
-4.082936	husband	-0.1320191
-1.84926	i	-0.5936289
-2.975671	i'd	-0.5017434
-2.771306	i'll	-0.3719466
-2.547127	i'm	-0.2395437
-4.082936	i'ts	-0.1335419
-3.002585	i've	-0.2957747
-4.082936	iam	-0.1337629
-4.082936	ibrate	-0.1339286
-4.082936	ican't	-0.1341037
-3.313681	icon	-0.282643
-4.082936	iconic	-0.1072809
-4.082936	iconic'	-0.1338182
-3.445463	id	-0.2043079
-3.940135	idea	-0.1644106
-4.082936	idk	-0.1315751
-2.347806	if	-0.6666297
-4.082936	iin	-0.1292366
-3.374593	ill	-0.2033125
-3.169859	im	-0.1992183
-3.445463	image	-0.1962021
-3.940135	images	-0.1303434
-4.082936	immediate	-0.1269697
-3.260272	immediately	-0.417208
-4.082936	immiedately	-0.1072809
-3.530197	important	-0.1663464
-4.082936	impossible	-0.1273343
-2.160871	in	-0.4069453
-3.940135	inactive	-0.1069684
-4.082936	inclkuded	-0.1311307
-3.374593	include	-0.1085239
-3.062001	included	-0.2832984
-3.445463	includes	-0.1843105
-3.774996	including	-0.1285024
-3.940135	incoming	-0.132971
-3.940135	inconvenience	-0.1049953
-4.082936	inconvenienced	-0.1330164
-3.313681	increase	-0.261949
-3.774996	increased	-0.1839277
-3.940135	increasing	-0.1277367
-3.635572	indeed	-0.09751425
-3.940135	indefinitely	-0.2367009
-4.082936	individual	-0.1336248
-4.082936	individually	-0.1339563
-2.950328	info	-0.3419849
-3.530197	inform	-0.392541
-2.805197	information	-0.2615832
-4.082936	informing	-0.1324626
-4.082936	infos	-0.1335142
-4.082936	inhave	-0.1072809
-4.082936	initial	-0.13368
-3.940135	initiated	-0.1020633
-4.082936	inquire	-0.1269697
-4.082936	inquiring	-0.1329888
-3.635572	inquiry	-0.1042779
-4.082936	inside	-0.1072809
-4.082936	insignificant	-0.1072809
-3.940135	install	-0.2579582
-4.082936	installed	-0.1072809
-4.082936	installing	-0.1340115
-3.169859	instead	-0.4460089
-3.940135	instructions	-0.1293025
-3.940135	interest	-0.2563897
-3.530197	interested	-0.2400256
-4.082936	interestig	-0.131214
-4.082936	interfer	-0.1316306
-3.530197	internet	-0.3184763
-4.082936	interrupted	-0.1072809
-4.082936	intervals	-0.1072809
-2.975671	into	-0.1649517
-4.082936	iny	-0.1335972
-3.940135	ios	-0.2367009
-3.530197	iphone	-0.1593547
-1.959721	is	-0.2457431
-3.374593	isn't	-0.1286738
-4.082936	isnt	-0.1333207
-4.082936	isp	-0.1044932
-3.774996	issue	-0.1825586
-3.774996	issues	-0.1208865
-1.957213	it	-0.2772623
-4.082936	it'd	-0.132795
-3.774996	it'll	-0.1300196
-2.882123	it's	-0.1307124
-3.095064	its	-0.1368885
-4.082936	itunes	-0.1072809
-4.082936	ive	-0.1340898
-3.940135	jack	-0.1326482
-4.082936	jack's	-0.1324626
-3.940135	jackson	-0.1070859
-4.082936	jane	-0.1341037
-4.082936	jay	-0.1072809
-3.940135	jim	-0.1339064
-3.940135	jitterbug	-0.106086
-3.940135	joe	-0.1234581
-4.082936	johnson	-0.1286601
-4.082936	jorge	-0.1340898
-3.774996	july	-0.1281387
-4.082936	june	-0.1301947
-2.414096	just	-0.1820619
-4.082936	jut	-0.1331824
-3.260272	keep	-0.2143106
-4.082936	keeping	-0.1340898
-3.940135	keeps	-0.2158813
-3.940135	kidding	-0.1316128
-4.082936	kids	-0.1072809
-4.082936	kind	-0.1303796
-4.082936	kindly	-0.1330718
-4.082936	kitty	-0.1341037
-4.082936	knew	-0.1333207
-4.082936	knocks	-0.1072809
-3.095064	know	-0.2055212
-4.082936	knowing	-0.1269697
-4.082936	knows	-0.1285382
-4.082936	l	-0.131214
-4.082936	labeled	-0.1338734
-4.082936	lan	-0.1311862
-4.082936	languages	-0.1072809
-3.940135	large	-0.1305288
-3.774996	largest	-0.128889
-3.169859	last	-0.2775171
-3.940135	lasts	-0.1267552
-3.940135	late	-0.2158953
-4.082936	lately	-0.131214
-3.169859	later	-0.2735272
-4.082936	learn	-0.1333207
-4.082936	learning	-0.1337906
-3.940135	least	-0.106792
-3.774996	leave	-0.1194042
-4.082936	leaving	-0.1292366
-4.082936	lee	-0.1339839
-2.683095	left	-0.3497015
-4.082936	leftover	-0.1311307
-3.940135	length	-0.2597996
-3.635572	less	-0.1066367
-2.950328	let	-0.4945177
-3.130853	let's	-0.2861436
-4.082936	letme	-0.1335142
-3.635572	lets	-0.1876256
-4.082936	letting	-0.1324626
-3.130853	level	-0.1475393
-4.082936	levels	-0.1072809
-3.940135	library	-0.1025681
-3.774996	life	-0.1662977
-3.940135	light	-0.1241365
-3.940135	lighting	-0.1339204
-2.598715	like	-0.2591989
-4.082936	likely	-0.1341037
-4.082936	likewise	-0.1072809
-4.082936	limiit	-0.1072809
-3.212717	limit	-0.2544081
-4.082936	limitations	-0.1336524
-3.774996	limited	-0.1314006
-4.082936	limitless	-0.1340667
-3.940135	limits	-0.09750348
-3.260272	line	-0.4733782
-3.774996	lines	-0.09227699
-3.940135	link	-0.1218143
-4.082936	linked	-0.1263238
-4.082936	lisa	-0.1341037
-3.530197	list	-0.1808182
-3.774996	listed	-0.1635528
-4.082936	listing	-0.1339563
-4.082936	literally	-0.1341037
-3.940135	little	-0.131284
-3.940135	live	-0.1336071
-3.530197	living	-0.6020868
-4.082936	ll	-0.1283145
-3.940135	load	-0.2629342
-4.082936	loaded	-0.1263238
-4.082936	locally	-0.133901
-4.082936	locater	-0.1322964
-3.940135	location	-0.1058209
-3.940135	lock	-0.1290791
-4.082936	lockscreen	-0.1072809
-3.445463	log	-0.2569861
-3.940135	logging	-0.1335794
-4.082936	login	-0.13368
-4.082936	lol	-0.1322409
-3.445463	long	-0.08372033
-3.940135	longer	-0.1058504
-3.031278	look	-0.2553767
-4.082936	looked	-0.132795
-3.313681	looking	-0.4049463
-3.940135	looks	-0.2624641
-4.082936	loop	-0.1341037
-3.940135	lori	-0.1274845
-4.082936	los	-0.1341037
-4.082936	lot	-0.08997416
-4.082936	lots	-0.1303796
-3.095064	loud	-0.196308
-4.082936	loudest	-0.1335695
-3.635572	love	-0.180262
-4.082936	lovely	-0.1334136
-3.212717	low	-0.1774283
-3.635572	lower	-0.2576606
-4.082936	lowered	-0.1338458
-3.774996	lowest	-0.129703
-4.082936	lte	-0.1072809
-4.082936	luck	-0.1072809
-4.082936	m	-0.1263238
-3.313681	made	-0.1804865
-3.940135	main	-0.1338099
-4.082936	mainly	-0.1333484
-3.940135	maintenance	-0.1253774
-3.940135	major	-0.1338928
-2.805197	make	-0.3414686
-3.940135	makes	-0.1339616
-3.635572	making	-0.1689625
-3.774996	man	-0.1053599
-3.260272	manage	-0.3358234
-4.082936	managed	-0.1072809
-4.082936	manager	-0.1273343
-3.940135	manages	-0.1252929
-3.774996	managing	-0.1834882
-4.082936	mange	-0.1302404
-3.635572	manually	-0.1652962
-3.374593	many	-0.1263735
-4.082936	match	-0.1273343
-4.082936	matching	-0.13368
-4.082936	mate	-0.1072809
-3.774996	math	-0.09945105
-3.774996	max	-0.1050649
-3.774996	maximum	-0.1321222
-2.926383	may	-0.3295534
-3.445463	maybe	-0.1542479
-3.374593	mb	-0.281921
-4.082936	mcfarin	-0.1072809
-2.414096	me	-0.160905
-3.635572	mean	-0.1317883
-3.530197	means	-0.1675448
-4.082936	meant	-0.1232883
-3.940135	media	-0.2629895
-3.445463	meeting	-0.2144241
-3.940135	meetings	-0.1025681
-4.082936	mega	-0.1341037
-4.082936	megabyte	-0.1303796
-3.774996	megabytes	-0.09921182
-4.082936	megawega	-0.1311862
-4.082936	member	-0.1339839
-4.082936	men's	-0.1340115
-4.082936	ment	-0.1328504
-3.635572	menu	-0.1854191
-4.082936	menue	-0.1338734
-3.940135	meowing	-0.2635098
-3.635572	message	-0.1260931
-3.635572	messages	-0.1319151
-4.082936	messaging	-0.1322409
-4.082936	metal	-0.1340391
-4.082936	method	-0.1320191
-4.082936	metro	-0.1341037
-3.940135	mexico	-0.1048477
-3.635572	michael	-0.1273833
-4.082936	midnight	-0.1072809
-3.635572	might	-0.2032563
-4.082936	mike	-0.1341037
-3.062001	million	-0.3945211
-4.082936	mills	-0.1072809
-3.635572	mind	-0.09053473
-4.082936	mine	-0.1072809
-4.082936	minimum	-0.13368
-4.082936	minth	-0.1072809
-3.530197	minute	-0.1561796
-3.002585	minutes	-0.191045
-4.082936	missed	-0.1340667
-4.082936	mixer	-0.1072809
-4.082936	mny	-0.1340898
-3.530197	mo	-0.4537002
-4.082936	mobie	-0.1337353
-2.755303	mobile	-0.46408
-4.082936	mobyrav	-0.1072809
-2.771306	mode	-0.2568142
-4.082936	model	-0.1303796
-4.082936	modified	-0.1324072
-4.082936	modify	-0.1279887
-3.940135	mom	-0.1021524
-3.530197	moment	-0.2156362
-3.774996	mon	-0.1808262
-3.445463	monday	-0.2549872
-4.082936	monethly	-0.1319081
-3.635572	money	-0.1665918
-3.774996	monkey	-0.09288669
-4.082936	monrth	-0.1072809
-3.095064	month	-0.1001201
-4.082936	month's	-0.1335064
-2.805197	monthly	-0.2785294
-3.445463	months	-0.1194146
-4.082936	montly	-0.1319081
-4.082936	mood	-0.1273343
-4.082936	mooing	-0.1072809
-4.082936	moon	-0.1341037
-4.082936	moonlight	-0.1341037
-2.577339	more	-0.2627574
-4.082936	moremonth	-0.1072809
-3.530197	morning	-0.1903096
-4.082936	morty	-0.1069684
-3.260272	most	-0.1546155
-4.082936	mother	-0.1334866
-4.082936	motnh	-0.1072809
-4.082936	moto	-0.1341037
-3.940135	move	-0.0911619
-3.635572	movie	-0.1300696
-3.774996	movies	-0.1436478
-4.082936	movile	-0.1337353
-4.082936	moving	-0.1328227
-3.635572	mr	-0.1339542
-4.082936	muc	-0.1068802
-3.062001	much	-0.1219449
-3.940135	multiple	-0.1337959
-3.635572	music	-0.1182192
-3.635572	must	-0.1275807
-3.374593	mute	-0.1246117
-3.635572	muted	-0.1596567
-2.048753	my	-0.4190272
-4.082936	myplan	-0.1072809
-3.774996	myself	-0.164115
-4.082936	mysetting	-0.1072809
-4.082936	n	-0.1341037
-4.082936	nah	-0.1329057
-3.031278	name	-0.2225993
-4.082936	nana	-0.1311307
-3.774996	nap	-0.3534292
-4.082936	nasty	-0.1340898
-4.082936	nationwide	-0.1025681
-4.082936	natural	-0.1322409
-4.082936	nature	-0.1303796
-4.082936	nayway	-0.1072809
-4.082936	neat	-0.1315196
-4.082936	necessary	-0.1319914
-2.739869	need	-0.2406331
-3.635572	needed	-0.1544955
-4.082936	needing	-0.1263238
-3.260272	needs	-0.2353708
-3.940135	netflix	-0.1253211
-3.774996	network	-0.1200375
-3.940135	networks	-0.2367009
-3.530197	never	-0.1696205
-3.095064	new	-0.232228
-4.082936	newer	-0.1332377
-4.082936	news	-0.1279507
-2.975671	next	-0.2135069
-3.940135	nfc	-0.1067626
-4.082936	nfcturned	-0.1332377
-3.445463	nice	-0.2183714
-4.082936	nicely	-0.1072809
-3.374593	night	-0.3791791
-4.082936	nights	-0.1297109
-4.082936	nill	-0.1072809
-2.644909	nine	-0.3153289
-3.940135	nineteen	-0.133137
-3.635572	ninety	-0.1096024
-4.082936	niw	-0.1072809
-4.082936	nme	-0.1072809
-3.940135	nnn	-0.2367009
-2.609811	no	-0.1095932
-4.082936	noise	-0.1316306
-3.530197	noises	-0.1198528
-3.940135	non	-0.1325928
-3.774996	none	-0.2103288
-4.082936	noon	-0.1313529
-4.082936	nope	-0.1012922
-3.530197	normal	-0.164762
-2.547127	not	-0.109793
-4.082936	notches	-0.1072809
-3.940135	note	-0.1253211
-4.082936	noted	-0.1072809
-3.940135	notfications	-0.1070565
-3.445463	nothing	-0.1734103
-4.082936	nothings	-0.132795
-3.774996	notice	-0.1008241
-4.082936	notif	-0.1072809
-4.082936	notifcations	-0.09964956
-4.082936	notifiactions	-0.1072809
-3.313681	notification	-0.1484859
-2.926383	notifications	-0.2170089
-4.082936	notificationsare	-0.1269697
-4.082936	notified	-0.1303796
-3.940135	notify	-0.1263339
-4.082936	november	-0.1306023
-2.329743	now	-0.260603
-4.082936	np	-0.1072809
-4.082936	nth	-0.1072809
-4.082936	ntofications	-0.1072809
-2.861577	number	-0.3908271
-3.940135	numbers	-0.1056736
-4.082936	nvm	-0.1340391
-4.082936	o	-0.1341037
-4.082936	ode	-0.1072809
-2.064474	of	-0.3237514
-3.940135	ofcourse	-0.1006942
-2.683095	off	-0.2125326
-2.926383	offer	-0.2585391
-3.940135	offered	-0.119394
-4.082936	offeres	-0.132795
-3.774996	offering	-0.1157628
-3.095064	offers	-0.1830612
-4.082936	office	-0.1072809
-4.082936	officially	-0.1338182
-4.082936	offre	-0.1303796
-4.082936	offres	-0.132795
-4.082936	often	-0.132795
-3.774996	oh	-0.07823492
-4.082936	ohh	-0.12712
-4.082936	ohly	-0.1306023
-4.082936	ohsure	-0.1279507
-4.082936	oinks	-0.1072809
-2.861577	ok	0.008754784
-4.082936	oka	-0.1072809
-4.082936	okat	-0.1322409
-2.724965	okay	-0.02102109
-4.082936	okaythank	-0.1269697
-4.082936	okaywe	-0.131214
-4.082936	oke	-0.1072809
-4.082936	okthanks	-0.1072809
-3.635572	old	-0.1698421
-4.082936	older	-0.1311862
-4.082936	olease	-0.1072809
-4.082936	oly	-0.1339839
-4.082936	omiscient	-0.1335972
-4.082936	omnipotent	-0.1324626
-4.082936	omniscient	-0.1072809
-2.00196	on	-0.4077068
-3.169859	once	-0.1572045
-2.090874	one	-0.4973092
-3.530197	ones	-0.1966575
-3.635572	online	-0.1319799
-4.082936	onlu	-0.1318526
-2.598715	only	-0.07354409
-4.082936	onth	-0.1072809
-3.635572	onto	-0.5003237
-4.082936	ooooooo	-0.1072809
-4.082936	oops	-0.1279507
-3.313681	open	-0.1962386
-3.635572	opened	-0.1632396
-3.940135	opening	-0.1892193
-4.082936	operator	-0.1263238
-3.095064	option	-0.2808487
-3.130853	options	-0.09568742
-2.360279	or	-0.1737829
-3.940135	order	-0.1032799
-4.082936	ordered	-0.1293204
-4.082936	ot	-0.1338734
-3.169859	other	-0.1650312
-4.082936	ouch	-0.1293483
-2.903689	our	-0.1605271
-2.805197	out	-0.2575216
-4.082936	outstanding	-0.1339563
-4.082936	ouy	-0.1269697
-3.095064	over	-0.1683438
-3.530197	overage	-0.154118
-3.774996	overages	-0.1049763
-3.774996	overall	-0.2116132
-4.082936	overcharged	-0.1273343
-3.940135	owe	-0.09323991
-4.082936	owed	-0.1326565
-3.774996	own	-0.1633751
-4.082936	p	-0.1340898
-3.635572	package	-0.2067163
-4.082936	page	-0.1072809
-3.940135	paid	-0.1257434
-4.082936	pair	-0.1302404
-4.082936	paired	-0.1292366
-3.940135	pan	-0.1233166
-4.082936	panel	-0.1248702
-4.082936	pants	-0.1072809
-4.082936	paper	-0.1330994
-3.940135	part	-0.2597996
-3.940135	particular	-0.1040956
-4.082936	particularly	-0.1338182
-3.774996	pass	-0.1602538
-3.940135	password	-0.1042969
-3.940135	past	-0.1019657
-4.082936	patient	-0.1338458
-3.940135	patrick	-0.2635237
-3.374593	pay	-0.1663746
-3.774996	paying	-0.1270836
-3.445463	payment	-0.127235
-3.940135	payments	-0.1058798
-3.635572	paypal	-0.148493
-4.082936	pcs	-0.1325735
-4.082936	pefect	-0.1072809
-3.940135	pelase	-0.2367009
-4.082936	penalty	-0.1321855
-4.082936	pending	-0.1321855
-3.774996	people	-0.1261107
-2.492359	per	-0.6176457
-3.635572	percent	-0.1627823
-3.260272	perfect	-0.1961095
-4.082936	perform	-0.1311862
-4.082936	perhaps	-0.1279507
-3.774996	period	-0.1425325
-4.082936	permanent	-0.1330994
-3.940135	permission	-0.1262873
-4.082936	person	-0.1072809
-3.940135	personal	-0.1321122
-4.082936	phne	-0.1329057
-4.082936	phoen	-0.1323518
-2.414096	phone	-0.2425377
-3.940135	phone's	-0.1757585
-3.774996	phones	-0.1273561
-3.774996	photo	-0.1216359
-3.774996	photos	-0.163307
-4.082936	pic	-0.1334866
-3.940135	pick	-0.1267372
-4.082936	picked	-0.1285382
-3.940135	pickle	-0.2634315
-3.260272	picture	-0.1661789
-4.082936	pictureplease	-0.1072809
-3.940135	pictures	-0.1224584
-3.940135	pig	-0.1072428
-4.082936	pigs	-0.1072809
-3.940135	pin	-0.164115
-3.530197	place	-0.1396251
-3.635572	placed	-0.1790254
-4.082936	plain	-0.1269697
-2.16894	plan	-0.2828411
-3.774996	plane	-0.1598658
-4.082936	planhow	-0.1337629
-4.082936	planning	-0.1263238
-2.683095	plans	-0.2988979
-4.082936	plany	-0.1327673
-3.260272	play	-0.1753841
-4.082936	playapp	-0.1340667
-4.082936	played	-0.1340391
-4.082936	playing	-0.1299897
-3.774996	playlist	-0.210189
-4.082936	plays	-0.1299897
-2.220785	please	-0.3552564
-4.082936	pleased	-0.1263238
-4.082936	pleasure	-0.1072809
-3.940135	plenty	-0.1290891
-4.082936	plesae	-0.1072809
-3.635572	pls	-0.2078889
-4.082936	plsease	-0.1325735
-4.082936	pluis	-0.1330718
-3.313681	plus	-0.2352542
-3.313681	pm	-0.1943862
-4.082936	pocket	-0.1072809
-4.082936	point	-0.1303796
-3.940135	policy	-0.106645
-3.940135	poor	-0.1279143
-4.082936	popular	-0.1306023
-4.082936	portion	-0.1293483
-3.774996	positive	-0.09801369
-4.082936	possibility	-0.1303796
-3.530197	possible	-0.3732872
-4.082936	possibly	-0.1269697
-4.082936	postdate	-0.1285382
-3.169859	power	-0.3278235
-4.082936	prefer	-0.09575824
-4.082936	preference	-0.1330164
-4.082936	preferred	-0.1289116
-3.774996	premium	-0.1040603
-3.940135	prepaid	-0.1249266
-4.082936	prepay	-0.1072809
-3.774996	press	-0.1775945
-4.082936	pressed	-0.1293204
-4.082936	pressing	-0.1285382
-4.082936	pretend	-0.1279507
-3.774996	pretty	-0.2151674
-3.031278	price	-0.2927701
-4.082936	prices	-0.1072809
-4.082936	pricey	-0.1319914
-4.082936	pricing	-0.1303796
-4.082936	pricy	-0.1072809
-4.082936	primary	-0.1340667
-4.082936	print	-0.1293204
-4.082936	prior	-0.1263238
-3.940135	privacy	-0.2617718
-4.082936	privilege	-0.1263238
-4.082936	pro	-0.1341037
-4.082936	proactively	-0.1335142
-3.530197	probably	-0.1253585
-4.082936	probaly	-0.1338458
-4.082936	proble	-0.1315196
-3.445463	problem	-0.1135159
-4.082936	problems	-0.1072809
-4.082936	probs	-0.1072809
-3.212717	proceed	-0.5375153
-4.082936	proceede	-0.1072809
-3.940135	process	-0.1234581
-3.940135	processing	-0.1281107
-3.774996	profile	-0.1051239
-4.082936	profiles	-0.1273343
-3.940135	programmed	-0.2557438
-4.082936	programming	-0.1340391
-4.082936	project	-0.1341037
-3.940135	promo	-0.1259122
-4.082936	promotion	-0.1321954
-4.082936	promotional	-0.1336248
-4.082936	prompt	-0.1072809
-3.774996	proper	-0.1332852
-4.082936	prorated	-0.1337353
-3.169859	provide	-0.2123186
-3.774996	provided	-0.1223636
-3.445463	provider	-0.196058
-3.940135	provider's	-0.2633762
-3.445463	provides	-0.1134381
-3.445463	pull	-0.4687148
-3.445463	pulled	-0.4074014
-3.635572	pulling	-0.3952369
-4.082936	punch	-0.1340667
-3.635572	purchase	-0.1799489
-4.082936	purchasing	-0.1337906
-4.082936	purposes	-0.1006942
-2.950328	put	-0.387684
-3.940135	putting	-0.1281567
-4.082936	q	-0.1329888
-3.940135	quadrillion	-0.1325834
-4.082936	qualify	-0.1273343
-4.082936	questin	-0.1337629
-3.062001	question	-0.1956386
-4.082936	questiona	-0.1341037
-3.002585	questions	-0.3439328
-3.530197	quick	-0.1371495
-4.082936	quickly	-0.1072809
-4.082936	quiet	-0.1072809
-3.940135	quite	-0.1297209
-4.082936	rainforest	-0.1072809
-4.082936	random	-0.1273343
-3.940135	rang	-0.1275126
-3.940135	range	-0.1052419
-4.082936	rat	-0.1340898
-3.940135	rate	-0.09972003
-4.082936	rated	-0.1273343
-4.082936	rates	-0.1318526
-4.082936	rather	-0.1340115
-3.940135	reach	-0.1280167
-3.940135	reached	-0.1262215
-4.082936	read	-0.1299897
-3.774996	ready	-0.2012584
-4.082936	real	-0.1329057
-4.082936	realize	-0.1220414
-3.031278	really	-0.06732842
-4.082936	reapers	-0.1044932
-4.082936	rearranged	-0.13368
-4.082936	reason	-0.1263238
-3.940135	reasonable	-0.106939
-4.082936	reassurance	-0.1072809
-4.082936	receipt	-0.09896173
-3.313681	receive	-0.1809806
-4.082936	received	-0.1292366
-3.940135	recently	-0.1072428
-4.082936	reception	-0.1341037
-4.082936	recharge	-0.1072809
-4.082936	recheck	-0.1283145
-4.082936	recieve	-0.1337629
-4.082936	recommend	-0.1311862
-3.940135	reconfirm	-0.1325374
-4.082936	recorded	-0.1311307
-3.774996	records	-0.1554841
-4.082936	recurr	-0.1072809
-4.082936	recurring	-0.1318526
-4.082936	reduce	-0.1263238
-4.082936	reenter	-0.1292366
-4.082936	reference	-0.1072809
-4.082936	referring	-0.1263238
-3.940135	reflect	-0.1148714
-3.940135	reflected	-0.2086197
-3.445463	regarding	-0.3389299
-4.082936	regardless	-0.1072809
-3.774996	register	-0.2067064
-3.774996	regular	-0.1321222
-4.082936	regularly	-0.1072809
-3.774996	related	-0.2068474
-4.082936	reliable	-0.1339839
-4.082936	reload	-0.1340391
-3.635572	remain	-0.09741515
-4.082936	remainder	-0.1032799
-3.212717	remaining	-0.2253076
-4.082936	remains	-0.1297946
-4.082936	remaning	-0.1319081
-3.530197	remember	-0.1914901
-3.774996	remind	-0.2546847
-3.940135	reminder	-0.08238066
-4.082936	remix	-0.1072809
-4.082936	remote	-0.1340667
-3.940135	remove	-0.1326482
-4.082936	removes	-0.1285382
-4.082936	renamed	-0.1072809
-3.940135	renew	-0.1041384
-4.082936	rep	-0.1072809
-4.082936	repairs	-0.1072809
-4.082936	replace	-0.1302404
-4.082936	replacement	-0.1324626
-4.082936	representative	-0.1072809
-4.082936	represents	-0.1302404
-3.530197	request	-0.285141
-3.940135	requested	-0.1380422
-4.082936	requests	-0.1269697
-4.082936	require	-0.1072809
-3.940135	required	-0.09896173
-4.082936	requirements	-0.1273343
-3.940135	requires	-0.1282966
-4.082936	research	-0.1338458
-3.445463	reset	-0.1277978
-3.774996	resets	-0.2247755
-4.082936	resources	-0.1000379
-4.082936	response	-0.1072809
-3.774996	rest	-0.09871376
-4.082936	restart	-0.1072809
-4.082936	restarted	-0.1335695
-4.082936	restore	-0.1302404
-4.082936	restricted	-0.1263238
-4.082936	restrictions	-0.1297946
-4.082936	results	-0.1315196
-3.940135	resume	-0.1336071
-4.082936	resuming	-0.1292366
-3.445463	return	-0.2893235
-3.940135	review	-0.1031317
-4.082936	rhelp	-0.131214
-3.530197	rick	-0.2321712
-4.082936	riddance	-0.1072809
-2.51888	right	-0.5235378
-2.861577	ring	-0.3747029
-3.062001	ringer	-0.2185221
-3.940135	ringing	-0.1045144
-4.082936	rings	-0.1259223
-2.609811	ringtone	-0.304619
-3.530197	ringtones	-0.1207646
-4.082936	rip	-0.1332377
-4.082936	road	-0.1341037
-4.082936	role	-0.1072809
-3.774996	roll	-0.3799388
-4.082936	rollover	-0.13368
-3.940135	room	-0.09714881
-3.940135	rooster	-0.1072428
-4.082936	root	-0.1337906
-4.082936	rough	-0.1340667
-4.082936	router	-0.1072809
-3.940135	rule	-0.1041384
-3.940135	rump	-0.2635237
-3.940135	run	-0.1065568
-3.940135	running	-0.1262496
-4.082936	s	-0.1331548
-4.082936	s8	-0.1339286
-3.940135	said	-0.1305844
-3.940135	sally	-0.2635098
-3.774996	same	-0.09722637
-4.082936	samsung	-0.1341037
-4.082936	saturday	-0.1318526
-3.374593	save	-0.1863356
-3.260272	saved	-0.1786162
-4.082936	saver	-0.1334037
-3.940135	saving	-0.1317239
-4.082936	savings	-0.1072809
-3.260272	say	-0.1290177
-3.940135	says	-0.1056736
-3.940135	schedule	-0.1219846
-3.774996	scheduled	-0.1203739
-3.940135	school	-0.1014792
-3.940135	scott	-0.104168
-4.082936	scouts	-0.1341037
-3.774996	screaming	-0.380215
-3.260272	screen	-0.2104201
-4.082936	seasons	-0.1279507
-4.082936	sec	-0.1072809
-3.374593	second	-0.1138415
-3.940135	seconds	-0.1058209
-3.774996	section	-0.2050113
-3.530197	security	-0.1800527
-2.950328	see	-0.2751916
-3.774996	seeing	-0.126344
-4.082936	seem	-0.1263238
-3.530197	seems	-0.1777925
-4.082936	seetings	-0.1323518
-4.082936	seettings	-0.1072809
-3.635572	select	-0.1233652
-4.082936	selena	-0.1341037
-3.445463	send	-0.1595839
-3.940135	sense	-0.1017576
-3.940135	sensitivity	-0.121445
-3.940135	sent	-0.1190226
-3.940135	separate	-0.1324172
-4.082936	serious	-0.1338458
-4.082936	serve	-0.1315196
-3.031278	service	-0.223976
-3.635572	services	-0.087582
-4.082936	session	-0.132795
-2.443731	set	-0.4815681
-4.082936	seting	-0.1329057
-4.082936	settig	-0.1072809
-2.547127	setting	-0.2023164
-2.386354	settings	-0.2846214
-4.082936	settingsscreenbrightness	-0.1072809
-4.082936	settingssoundsdo	-0.1329057
-2.528093	seven	-0.3176721
-3.940135	seventeen	-0.1331094
-3.635572	seventy	-0.2144366
-3.940135	several	-0.1320767
-4.082936	sexy	-0.133901
-4.082936	shaker	-0.1061449
-3.774996	shall	-0.374099
-4.082936	shame	-0.1311862
-4.082936	shaped	-0.1339286
-3.774996	share	-0.1290891
-4.082936	shared	-0.1319081
-4.082936	shares	-0.1339286
-4.082936	sharing	-0.1283145
-4.082936	she	-0.1293483
-4.082936	shirtless	-0.133901
-4.082936	shoot	-0.1340667
-4.082936	shop	-0.1340115
-3.774996	short	-0.1931368
-3.940135	shortly	-0.1048477
-2.975671	should	-0.3068768
-3.313681	show	-0.2731718
-4.082936	showing	-0.1257997
-4.082936	shown	-0.1311584
-4.082936	shows	-0.1283145
-3.940135	shut	-0.1332018
-3.940135	side	-0.1302782
-3.062001	sign	-0.5377093
-4.082936	signaled	-0.1072809
-3.445463	signed	-0.400419
-4.082936	signing	-0.1269697
-3.374593	silence	-0.1472802
-3.774996	silenced	-0.09741338
-3.212717	silent	-0.2417978
-4.082936	similar	-0.1329057
-4.082936	simple	-0.1337077
-3.940135	simply	-0.2620488
-3.635572	since	-0.1239307
-3.635572	single	-0.1321375
-3.940135	siren	-0.1010922
-4.082936	sit	-0.1293483
-2.567033	six	-0.4523392
-3.774996	sixteen	-0.1883624
-4.082936	sixties	-0.1340667
-3.445463	sixty	-0.1762074
-3.635572	size	-0.09562909
-4.082936	skill	-0.1072809
-4.082936	skills	-0.1072809
-4.082936	skynet	-0.1072809
-4.082936	sleep	-0.1319914
-4.082936	sleeping	-0.1313529
-3.940135	slide	-0.2586566
-4.082936	slightly	-0.1297109
-3.774996	slow	-0.1026085
-4.082936	slower	-0.1340667
-3.635572	small	-0.1334523
-4.082936	smart	-0.1339286
-3.940135	smartphone	-0.1053788
-4.082936	smartphone's	-0.1319081
-3.940135	smash	-0.1288557
-3.374593	smith	-0.1921778
-4.082936	smonth	-0.1072809
-4.082936	smooth	-0.1341037
-4.082936	snoop	-0.1072809
-2.443731	so	-0.2788897
-4.082936	soft	-0.1326288
-3.940135	software	-0.2631
-4.082936	solders	-0.1324626
-2.696608	some	-0.3413376
-3.940135	somebody	-0.133137
-3.445463	someone	-0.1868513
-4.082936	somethign	-0.1072809
-2.724965	something	-0.3628392
-4.082936	somethingelse	-0.1072809
-4.082936	sonata	-0.1327673
-3.374593	song	-0.175388
-3.940135	songs	-0.1234864
-3.635572	soon	-0.1615348
-3.062001	sorry	-0.3215883
-4.082936	sorrybut	-0.1311862
-4.082936	sort	-0.1243624
-2.609811	sound	-0.2479163
-4.082936	soundbar	-0.1326288
-4.082936	sounding	-0.1072809
-2.805197	sounds	-0.2027993
-3.940135	source	-0.1235147
-3.940135	space	-0.1260247
-4.082936	speak	-0.1263238
-3.940135	speaker	-0.1412024
-4.082936	speaking	-0.1263238
-3.530197	special	-0.1218196
-4.082936	specials	-0.1328227
-3.774996	specific	-0.1005175
-3.530197	specifically	-0.3101451
-4.082936	specify	-0.1013197
-4.082936	specifying	-0.1279507
-4.082936	specs	-0.1072809
-3.774996	speed	-0.1034784
-4.082936	speeds	-0.1072809
-4.082936	speicfy	-0.1072809
-4.082936	spend	-0.1340667
-4.082936	spending	-0.1072809
-4.082936	spent	-0.1311862
-4.082936	spice	-0.1340667
-4.082936	splendid	-0.1335419
-4.082936	sponge	-0.1338458
-4.082936	sportify	-0.1273343
-3.940135	spotify	-0.2367009
-4.082936	ssn	-0.1000379
-4.082936	ssounds	-0.1334866
-4.082936	st	-0.1317694
-3.940135	stacey's	-0.2629619
-4.082936	stand	-0.133901
-3.940135	standard	-0.2143047
-4.082936	stands	-0.1321023
-4.082936	star	-0.1341037
-4.082936	starry	-0.1339563
-4.082936	stars	-0.1072809
-3.169859	start	-0.2627651
-4.082936	started	-0.133459
-3.313681	starting	-0.1504573
-3.940135	starts	-0.2612726
-4.082936	state	-0.1292366
-4.082936	stated	-0.1330994
-4.082936	statement	-0.1054378
-4.082936	status	-0.1072809
-4.082936	statust	-0.1072809
-3.774996	stay	-0.212588
-4.082936	steep	-0.1340667
-4.082936	steiner	-0.1072809
-4.082936	step	-0.1315196
-4.082936	stick	-0.1237692
-3.031278	still	-0.1821539
-3.774996	stop	-0.1009433
-3.774996	store	-0.1890923
-4.082936	stores	-0.1322409
-4.082936	stranger	-0.1339563
-4.082936	streaming	-0.1341037
-3.940135	student	-0.1303061
-4.082936	study	-0.1273343
-3.635572	stuff	-0.1597463
-4.082936	sture	-0.1269697
-4.082936	subscribe	-0.1324626
-3.940135	subscription	-0.09896173
-4.082936	subtract	-0.1326842
-3.635572	successfully	-0.1928047
-3.774996	such	-0.1013899
-3.940135	sue	-0.1263058
-3.940135	suggest	-0.1331465
-4.082936	suggesting	-0.1324626
-4.082936	suit	-0.1292366
-4.082936	summon	-0.1324626
-4.082936	sun	-0.1339286
-4.082936	sunny	-0.1335419
-4.082936	sunshine	-0.1335419
-3.774996	super	-0.1334329
-4.082936	support	-0.1273343
-3.940135	suppose	-0.1203922
-3.940135	supposed	-0.2557438
-2.710555	sure	-0.09228335
-4.082936	surego	-0.1263238
-4.082936	surelike	-0.1315751
-4.082936	surely	-0.1328227
-4.082936	surewhat	-0.1298782
-4.082936	surf	-0.1273343
-4.082936	surface	-0.1072809
-4.082936	susan	-0.1341037
-4.082936	swayze	-0.1279143
-4.082936	swear	-0.1279507
-3.940135	sweet	-0.104168
-4.082936	swim	-0.1339286
-3.940135	swipe	-0.2068192
-3.313681	switch	-0.3377089
-3.940135	switched	-0.2557438
-4.082936	switching	-0.1335472
-3.445463	system	-0.2323302
-4.082936	t	-0.1340898
-3.774996	tab	-0.09524538
-4.082936	tabs	-0.1297946
-4.082936	tahnk	-0.1269697
-2.903689	take	-0.2737117
-3.374593	talk	-0.1771276
-4.082936	talking	-0.1317694
-3.940135	talktext	-0.1218529
-4.082936	tapped	-0.1293204
-4.082936	task	-0.1224669
-3.940135	technical	-0.1340308
-4.082936	telephone	-0.1311862
-4.082936	telk	-0.1269697
-2.841959	tell	-0.691476
-3.635572	telling	-0.2546847
-4.082936	tellyou	-0.1283145
-4.082936	temp	-0.1311307
-2.644909	ten	-0.415372
-4.082936	terms	-0.1303796
-3.774996	terrible	-0.1867121
-3.031278	text	-0.1966603
-4.082936	textcalls	-0.1297109
-3.374593	texting	-0.2624331
-3.313681	texts	-0.173978
-4.082936	tha's	-0.1318526
-4.082936	tha'ts	-0.1318526
-4.082936	thaen	-0.1325735
-3.313681	than	-0.1152408
-2.459343	thank	-1.100146
-4.082936	thankks	-0.1072809
-2.360279	thanks	-0.5218982
-3.940135	thans	-0.2367009
-1.875389	that	-0.1979936
-3.635572	that'll	-0.3028665
-2.657269	that's	-0.3660927
-3.940135	thatnks	-0.2367009
-3.062001	thats	-0.2374014
-1.892287	the	-0.3093384
-4.082936	theatre	-0.1325735
-3.774996	their	-0.1245136
-2.841959	them	-0.2850966
-3.169859	theme	-0.2205429
-4.082936	themonth	-0.1072809
-2.443731	then	-0.3027756
-2.657269	there	-0.3315378
-3.313681	there's	-0.2123373
-3.635572	these	-0.1231823
-3.031278	they	-0.1987717
-3.940135	they'll	-0.262215
-4.082936	thi	-0.1341037
-4.082936	thiese	-0.1337353
-3.530197	thing	-0.06871004
-3.374593	things	-0.1448692
-3.212717	think	-0.1603433
-3.212717	thirty	-0.1831902
-2.16894	this	-0.3141404
-4.082936	thks	-0.1072809
-3.940135	thnk	-0.2563897
-2.975671	those	-0.1649145
-3.002585	though	-0.3446596
-4.082936	thoughor	-0.1311584
-4.082936	thought	-0.1075872
-3.169859	thousand	-0.4798436
-4.082936	threatened	-0.1263238
-2.443731	three	-0.4944447
-4.082936	throttled	-0.1335695
-4.082936	throttling	-0.1072809
-3.260272	through	-0.08428669
-3.940135	throw	-0.2587404
-4.082936	thtat	-0.1072809
-3.774996	thx	-0.3534292
-4.082936	ti	-0.1326288
-4.082936	tier	-0.126362
-4.082936	tiers	-0.1283145
-3.940135	till	-0.1256972
-2.755303	time	-0.2836436
-3.940135	timed	-0.1325374
-3.530197	timer	-0.1165325
-3.774996	times	-0.1246265
-3.940135	timmy	-0.1045523
-4.082936	tip	-0.1322409
-3.940135	tired	-0.2597996
-4.082936	title	-0.1273343
-3.940135	tmobile	-0.1063215
-4.082936	tmy	-0.1311862
-1.748715	to	-0.3038671
-2.657269	today	-0.4237523
-4.082936	todo	-0.1329057
-4.082936	together	-0.1072809
-4.082936	toggle	-0.1293204
-4.082936	toll	-0.132795
-4.082936	tom	-0.1339563
-3.169859	tomorrow	-0.3027468
-4.082936	ton	-0.1303796
-3.169859	tone	-0.159068
-4.082936	tones	-0.09912208
-4.082936	tonight	-0.1072809
-2.724965	too	-0.3556896
-4.082936	toobye	-0.1072809
-4.082936	toolbar	-0.1297946
-3.940135	top	-0.09106182
-3.095064	total	-0.1846713
-4.082936	tough	-0.1319914
-4.082936	tournament	-0.1297109
-3.774996	track	-0.2120312
-4.082936	tracking	-0.1339839
-4.082936	train	-0.1072809
-4.082936	transfer	-0.1269697
-4.082936	transferring	-0.1318526
-4.082936	tricky	-0.1319914
-4.082936	tried	-0.1335142
-3.940135	trillion	-0.1311128
-4.082936	trip	-0.1072809
-4.082936	triple	-0.1293204
-4.082936	tripper	-0.1072809
-3.940135	trouble	-0.1318025
-4.082936	truly	-0.1324903
-4.082936	trump	-0.1072809
-3.940135	trust	-0.1323894
-3.260272	try	-0.2111442
-3.530197	trying	-0.3731367
-4.082936	tto	-0.1338734
-4.082936	tun	-0.1332377
-2.609811	turn	-0.5461721
-2.950328	turned	-0.4684452
-2.903689	turning	-0.5420665
-3.940135	turns	-0.2626577
-3.313681	twelve	-0.2069103
-2.841959	twenty	-0.4270077
-3.940135	twice	-0.1185468
-3.940135	twitter	-0.1067332
-2.264182	two	-0.5612677
-4.082936	twotime	-0.1329888
-4.082936	txt	-0.1340391
-3.635572	ty	-0.478368
-4.082936	tyour	-0.1336248
-3.940135	type	-0.207861
-3.445463	u	-0.09961294
-4.082936	u2	-0.1072809
-4.082936	uch	-0.133459
-4.082936	ugh	-0.1339839
-4.082936	ughs	-0.1337629
-4.082936	ugly	-0.1331824
-4.082936	uglyman	-0.1311307
-4.082936	uh	-0.1335419
-4.082936	uis	-0.1293204
-4.082936	ulicall	-0.1311862
-4.082936	ultimate	-0.1308348
-4.082936	um	-0.1340667
-4.082936	umm	-0.1332931
-3.445463	unable	-0.6735021
-4.082936	unaware	-0.1279507
-4.082936	unchanged	-0.1072809
-3.031278	under	-0.2402242
-3.774996	understand	-0.1201927
-4.082936	understood	-0.1279507
-4.082936	undisturbed	-0.1273343
-4.082936	undone	-0.1048477
-4.082936	unfortunate	-0.1072809
-3.313681	unfortunately	-0.1632799
-4.082936	unfortunatlly	-0.1329057
-4.082936	unforutnately	-0.1279507
-4.082936	unhelpful	-0.1072809
-4.082936	unique	-0.1263238
-3.635572	unless	-0.2910432
-3.530197	unli	-0.1447804
-4.082936	unlicall	-0.1317694
-2.421317	unlimited	-0.4712596
-4.082936	unlimted	-0.1337906
-4.082936	unsure	-0.13368
-2.882123	until	-0.2139595
-4.082936	untill	-0.1328504
-4.082936	uop	-0.1072809
-2.509859	up	-0.2420512
-4.082936	updat	-0.1263238
-2.975671	update	-0.2147907
-3.260272	updated	-0.166033
-3.940135	updates	-0.1289116
-3.774996	updating	-0.3753849
-2.66999	upgrade	-0.3863483
-4.082936	upgradebot	-0.1072809
-3.130853	upgraded	-0.1945111
-4.082936	upgrader	-0.133459
-3.169859	upgrading	-0.4847627
-4.082936	upload	-0.1285382
-3.940135	upon	-0.2632934
-4.082936	uprgrade	-0.1338458
-3.774996	us	-0.1277467
-3.313681	usage	-0.1392276
-4.082936	usb	-0.1341037
-3.445463	usd	-0.2300609
-3.002585	use	-0.1426155
-2.975671	used	-0.2104009
-4.082936	useful	-0.1332931
-4.082936	useless	-0.1072809
-4.082936	usemountain	-0.1340898
-3.940135	user	-0.1286042
-4.082936	users	-0.1318526
-4.082936	uses	-0.1299897
-3.095064	using	-0.1088055
-4.082936	usual	-0.1072809
-4.082936	vacation	-0.1072809
-4.082936	valued	-0.133376
-4.082936	verification	-0.1072809
-3.940135	verify	-0.1261372
-4.082936	verizon	-0.1322964
-4.082936	verrrry	-0.1337906
-4.082936	version	-0.1281667
-3.002585	very	-0.2399666
-4.082936	veterans	-0.1072809
-3.940135	via	-0.1339662
-2.459343	vibrate	-0.3059042
-4.082936	vibrateare	-0.1269697
-3.774996	vibrates	-0.164115
-4.082936	vibratesd	-0.1340667
-4.082936	vibratethanks	-0.1072809
-3.940135	vibrating	-0.1061449
-3.445463	vibration	-0.08657194
-4.082936	vibrations	-0.1072809
-4.082936	videos	-0.1297109
-4.082936	view	-0.1288278
-4.082936	virbrate	-0.1072809
-4.082936	virgin	-0.133376
-3.635572	visa	-0.1919458
-4.082936	visability	-0.1323518
-4.082936	visible	-0.1072809
-4.082936	visiting	-0.1292366
-3.774996	voice	-0.1275057
-2.882123	volume	-0.1972025
-4.082936	w	-0.1318526
-4.082936	waht	-0.1072809
-3.313681	wait	-0.1225075
-3.635572	waiting	-0.2752138
-3.774996	wake	-0.301479
-4.082936	wakeup	-0.1298782
-4.082936	walk	-0.1285382
-4.082936	wall	-0.1341037
-3.530197	wallpaper	-0.1616195
-4.082936	wally	-0.1331548
-3.940135	wan	-0.1262873
-4.082936	wanna	-0.1322331
-4.082936	wannabe	-0.1332654
-2.861577	want	-0.2409619
-3.774996	wanted	-0.1570799
-4.082936	wanting	-0.1263238
-4.082936	wants	-0.132795
-3.635572	warn	-0.4980567
-4.082936	warned	-0.1337077
-3.635572	warning	-0.258862
-4.082936	wars	-0.1338458
-3.313681	was	-0.0977095
-4.082936	waste	-0.1293204
-3.940135	watch	-0.1234598
-3.940135	watching	-0.2061986
-3.774996	water	-0.1297221
-3.774996	waterfall	-0.1889797
-3.212717	way	-0.2536429
-3.774996	ways	-0.09593911
-2.587896	we	-0.5162676
-3.445463	we're	-0.1633424
-4.082936	we've	-0.1340898
-4.082936	weather	-0.1306023
-3.774996	web	-0.1599059
-3.374593	website	-0.1021494
-4.082936	wee	-0.1269697
-3.774996	week	-0.2075619
-4.082936	weekdays	-0.1072809
-3.940135	weekend	-0.2367009
-4.082936	weekends	-0.132795
-4.082936	weekly	-0.1340115
-3.940135	weeks	-0.09959559
-4.082936	weird	-0.1324626
-4.082936	weith	-0.132795
-4.082936	welcoe	-0.1072809
-3.212717	welcome	-0.2696667
-4.082936	welcomegood	-0.1335419
-4.082936	welcomke	-0.1072809
-3.169859	well	-0.1197385
-4.082936	welomce	-0.1072809
-3.940135	went	-0.1315295
-3.774996	were	-0.173413
-4.082936	west	-0.1341037
-2.230061	what	-0.4650416
-3.260272	what's	-0.4098008
-4.082936	whatever	-0.1269697
-3.635572	whats	-0.2247926
-2.51888	when	-0.3597434
-3.445463	whenever	-0.4733765
-2.975671	where	-0.2173745
-2.805197	which	-0.3591662
-4.082936	whil	-0.1072809
-3.169859	while	-0.1990223
-4.082936	whisper	-0.1040793
-3.260272	who	-0.1899965
-4.082936	whole	-0.13369
-3.260272	why	-0.1898317
-4.082936	wide	-0.1340667
-4.082936	widgets	-0.1330441
-4.082936	wife	-0.133934
-3.313681	wifi	-0.1044806
-4.082936	wig	-0.1329057
-4.082936	wilk	-0.1338458
-2.312402	will	-0.3018779
-3.635572	wind	-0.304434
-4.082936	winter	-0.1341037
-4.082936	wireless	-0.1340399
-3.635572	wish	-0.2845338
-4.082936	wit	-0.1302404
-2.239539	with	-0.2845484
-4.082936	within	-0.1292366
-3.169859	without	-0.1640213
-4.082936	wizard	-0.1302404
-4.082936	wlecome	-0.1072809
-3.635572	won't	-0.2425741
-3.774996	wonderful	-0.1362308
-3.635572	wondering	-0.2336486
-3.774996	wont	-0.2103847
-3.940135	wood	-0.2634591
-3.169859	work	-0.1294838
-3.530197	working	-0.1737687
-3.940135	works	-0.1060772
-4.082936	world	-0.129312
-3.774996	worried	-0.1245418
-4.082936	worries	-0.104168
-3.940135	worry	-0.1316406
-3.940135	worth	-0.1281567
-4.082936	woul	-0.1283145
-2.194089	would	-0.64113
-4.082936	wouldn't	-0.1341037
-4.082936	wouldnt	-0.1340898
-3.774996	wow	-0.126005
-4.082936	write	-0.1299897
-4.082936	written	-0.1337353
-4.082936	wrong	-0.1072809
-4.082936	wuill	-0.1340667
-4.082936	wwwphonecompanythatyouusecomaccount	-0.1072809
-4.082936	x4	-0.1297109
-4.082936	xxtentacion1sd3ad	-0.1072809
-4.082936	y	-0.1072809
-4.082936	ya	-0.1340391
-4.082936	yas	-0.1279507
-4.082936	ye	-0.1292841
-4.082936	yea	-0.1273343
-3.774996	yeah	-0.08222725
-3.940135	year	-0.08602331
-4.082936	yelp	-0.1338734
-3.940135	yep	-0.1020952
-2.975671	yes	0.02816349
-4.082936	yesi	-0.1318526
-4.082936	yesthat	-0.1293483
-4.082936	yesyes	-0.1293204
-3.774996	yet	-0.1281767
-4.082936	yikes	-0.1329057
-4.082936	yiu	-0.1335419
-4.082936	yn	-0.1072809
-4.082936	yo	-0.1335142
-4.082936	yoo	-0.1321023
-1.785851	you	-0.1927833
-3.374593	you'd	-0.408306
-3.635572	you'll	-0.1761777
-2.950328	you're	-0.2009798
-3.212717	you've	-0.3520482
-3.940135	youd	-0.2624641
-4.082936	young	-0.1340667
-1.949774	your	-0.4811113
-4.082936	yourdata	-0.1332377
-4.082936	youre	-0.1338375
-3.635572	yourself	-0.2336994
-4.082936	yourvwelcmoe	-0.1072809
-4.082936	youtube	-0.1295815
-4.082936	youu're	-0.1338734
-4.082936	yoy	-0.1335419
-4.082936	yup	-0.1006942
-4.082936	yw	-0.1072809
-3.940135	yxyz	-0.1070859
-3.095064	zero	-0.2062782
-4.082936	zippity	-0.1341037
-4.082936	zoinks	-0.1326288

\2-grams:
-0.5755721	'chill' playlist
-0.2340285	'do not	-0.5326815
-0.5755721	'm planning
-0.5755721	'meeting' to
-0.5755721	'morning call'
-0.5755721	'newdravewav' </s>
-0.5755721	's the
-0.5755721	'the iconic'
-1.052693	0 </s>
-1.052693	0 fifty
-1.052693	0 is
-0.5755721	1g limit
-1.187139	1gb </s>
-1.187139	1gb a	-0.2138278
-1.187139	1gb and
-1.187139	1gb data	-0.2039437
-1.7217	1gb for
-1.7217	1gb of
-0.9030352	1gb plan	-0.2585856
-1.7217	1gb six
-0.5755721	1mb left
-0.5755721	1pm </s>
-0.2340285	1st </s>
-0.8766021	1tb a	-0.2138278
-0.8766021	1tb of
-0.8766021	2g in
-0.8766021	2g per
-1.118635	2gb </s>
-1.402739	2gb a	-0.2138278
-1.402739	2gb and
-1.402739	2gb data
-1.118635	2gb for
-1.9373	2gb i
-1.9373	2gb left
-1.9373	2gb mobile
-1.118635	2gb of	-0.39296
-1.9373	2gb per
-0.9223603	2gb plan	-0.1578226
-0.8766021	2mb </s>
-0.8766021	2mb is
-0.5755721	2pm to
-0.8766021	3 </s>
-0.8766021	3 which
-0.5755721	3g's a
-1.575572	3gb </s>
-1.575572	3gb a
-1.575572	3gb left
-0.7569072	3gb of	-0.39296
-1.041011	3gb per	0.2068012
-1.575572	3gb with
-1.575572	3gb you
-0.8766021	3pm for
-0.8766021	3pm this
-0.5755721	3rd </s>
-1.274542	4g but
-1.274542	4g lte
-0.7399812	4g network
-1.274542	4g plan
-1.187139	4gb </s>
-1.187139	4gb a	-0.2138278
-1.7217	4gb and
-1.187139	4gb for
-1.7217	4gb of
-0.5720712	4gb per	-0.07563775
-1.7217	4gb plan
-0.6430712	4pm </s>
-1.177632	4pm to
-1.177632	4pm today
-1.353723	5 a
-1.353723	5 extra
-0.8191624	5 more
-1.353723	5 what
-1.353723	5 you
-0.5755721	5g per
-1.187139	5gb </s>
-1.7217	5gb a
-1.7217	5gb cap
-0.9030352	5gb left
-1.187139	5gb of	-0.2680213
-1.187139	5gb plan
-1.7217	5gb shared	-0.1170346
-1.7217	5gb sure
-1.7217	5gb yes
-0.8766021	5mb a
-0.8766021	5mb plan
-0.4057305	5pm </s>
-1.42067	5pm end
-1.42067	5pm thanks
-1.42067	5pm to
-0.8766021	6 gigs
-0.8766021	6 per
-0.5181324	6am </s>
-1.052693	6am tomorrow
-1.052693	6gb data
-1.052693	6gb of	-0.2074311
-1.052693	6gb per
-0.6430712	6pm </s>
-1.177632	6pm mon
-1.177632	6pm monday	-0.1797502
-0.5755721	6s </s>
-0.8766021	7am </s>
-0.8766021	7am to
-0.5755721	7gb left
-0.8191624	8 </s>
-1.353723	8 anything
-1.353723	8 i
-1.353723	8 per	0.2068012
-1.353723	8 would
-0.5350584	8am </s>
-1.353723	8am and
-0.8191624	8am to	-0.2182563
-0.9441012	8gb </s>
-1.478662	8gb changes
-1.478662	8gb data	-0.2039437
-1.478662	8gb for	-0.2386208
-1.478662	8gb left
-0.9441012	8gb per
-0.8766021	8pm </s>
-0.8766021	8pm to
-0.8766021	9 twenty
-0.8766021	9 you
-0.8766021	9am </s>
-0.8766021	9am please
-0.8766021	9gb this
-0.8766021	9gb you
-0.6430712	9pm </s>
-0.6430712	9pm tonight	-0.1170346
-4.612161	<s> 'm
-3.597221	<s> 2gb	-0.1761554
-4.0776	<s> 2mb
-4.612161	<s> 3gb
-3.597221	<s> 5gb	-0.4075184
-4.612161	<s> 8gb
-4.612161	<s> 9gb
-3.793496	<s> a
-4.612161	<s> aalright
-3.462532	<s> about	0.004611602
-3.005172	<s> absolutely	-0.08464756
-4.0776	<s> access	-0.1122185
-4.0776	<s> account
-4.0776	<s> acct
-3.359875	<s> actually	-0.1223708
-4.0776	<s> add
-4.0776	<s> adding
-4.612161	<s> adjusting
-3.793496	<s> ah	-0.08853704
-4.612161	<s> airplane
-4.612161	<s> ake
-3.597221	<s> alarm	-0.07516835
-2.660921	<s> all	-0.3423145
-4.612161	<s> allow
-3.793496	<s> already
-1.900661	<s> alright	-0.303591
-4.0776	<s> alrighti
-4.612161	<s> alrighti've
-4.612161	<s> alrighty
-3.207271	<s> also	-0.08960546
-4.0776	<s> am	-0.2143348
-3.793496	<s> an
-2.699125	<s> and	-0.1070811
-4.612161	<s> android
-4.612161	<s> angie
-3.359875	<s> any	-0.1948979
-4.0776	<s> anyhting
-4.612161	<s> anyrhing
-2.339794	<s> anything	-0.4802718
-2.931071	<s> anytime	-0.3610115
-4.612161	<s> anyway
-4.612161	<s> apple
-4.612161	<s> applying
-4.0776	<s> appreciate	-0.1262173
-2.24595	<s> are	-1.030824
-3.793496	<s> as	-0.1325185
-3.793496	<s> at
-4.612161	<s> aw
-2.719566	<s> awesome	-0.1360647
-4.612161	<s> awesone
-4.612161	<s> awh
-4.0776	<s> ayeo
-4.612161	<s> barbara
-4.612161	<s> based
-4.612161	<s> be
-3.793496	<s> because
-4.612161	<s> becky
-4.0776	<s> bee
-4.612161	<s> before
-4.612161	<s> beyond
-4.612161	<s> bill
-4.612161	<s> bluetooth
-4.612161	<s> bob
-4.612161	<s> bot
-4.0776	<s> both
-4.612161	<s> brass
-3.793496	<s> brightness
-3.793496	<s> budget	-0.04820484
-4.612161	<s> bummer
-2.86779	<s> but	-0.1422952
-3.462532	<s> by	-0.1746913
-2.577948	<s> bye	-0.3800349
-4.612161	<s> byye
-4.0776	<s> call
-1.345729	<s> can	-1.690312
-4.612161	<s> careless
-2.563099	<s> certainly	-0.3882367
-2.812568	<s> change	-0.3500995
-4.0776	<s> changes
-4.0776	<s> changing
-3.793496	<s> check	-0.1254733
-3.047575	<s> checking	-0.08486537
-4.0776	<s> click
-4.612161	<s> collins
-4.612161	<s> complete
-4.612161	<s> confirm
-3.597221	<s> confirmed	-0.1500559
-3.005172	<s> consider	-0.4085978
-4.612161	<s> contact
-3.462532	<s> cool
-3.276905	<s> correct	0.2554101
-2.625808	<s> could	-1.083073
-4.612161	<s> creating
-4.612161	<s> credit
-3.359875	<s> currently	-0.1417074
-4.612161	<s> cvc
-3.597221	<s> cya	-0.3025636
-4.612161	<s> data
-4.612161	<s> day
-4.612161	<s> delete
-4.612161	<s> detail
-3.462532	<s> did	0.09482443
-4.612161	<s> disable
-2.00822	<s> do	-0.8877891
-3.047575	<s> does	-0.05561982
-3.597221	<s> doing	-0.2178467
-4.0776	<s> don't
-4.612161	<s> donald
-2.232107	<s> done	-0.3725103
-4.612161	<s> donme
-4.0776	<s> double	-0.2260878
-4.612161	<s> doublecheck
-4.612161	<s> doubling
-4.0776	<s> due	-0.2048862
-4.612161	<s> each
-4.612161	<s> earth
-4.612161	<s> edit
-4.612161	<s> eh
-4.0776	<s> ehh
-3.09457	<s> eight	-0.07845961
-4.0776	<s> enable	-0.1902126
-4.612161	<s> enabling
-3.597221	<s> enjoy	-0.02576502
-4.612161	<s> even
-3.793496	<s> every	0.2841358
-4.612161	<s> everyday
-4.612161	<s> exactly
-3.09457	<s> excellent	-0.05404597
-4.612161	<s> except
-4.612161	<s> expiration
-4.612161	<s> fair
-4.0776	<s> fam
-4.0776	<s> fantastic
-4.0776	<s> fifteen
-3.359875	<s> fifty	-0.1155496
-4.612161	<s> fine
-3.207271	<s> first
-2.699125	<s> five	-0.2432651
-4.612161	<s> fog
-2.625808	<s> for	-0.05421313
-4.612161	<s> forever
-4.612161	<s> forty
-4.612161	<s> found
-2.719566	<s> four	-0.1254999
-4.0776	<s> fourteen
-3.462532	<s> free	-0.02313994
-4.612161	<s> from
-4.612161	<s> get
-4.612161	<s> gigabyte
-4.612161	<s> gigabytes
-3.793496	<s> give	0.1206269
-2.699125	<s> glad	-0.3319303
-4.612161	<s> gladly
-2.86779	<s> go	-0.1978687
-2.812568	<s> good	-0.2511739
-2.931071	<s> goodbye	0.07018061
-4.612161	<s> goood
-3.005172	<s> got	-0.3204966
-4.612161	<s> gray
-1.784342	<s> great	-0.3603111
-4.612161	<s> guess
-4.612161	<s> ha
-4.612161	<s> haha
-4.612161	<s> hahaha
-4.612161	<s> halo
-3.793496	<s> happy	-0.06623644
-2.055449	<s> have	-1.240741
-4.612161	<s> havea
-1.034963	<s> hello	-1.599199
-4.612161	<s> helloi
-2.534842	<s> help	-1.102053
-4.612161	<s> heo
-4.612161	<s> her
-2.577948	<s> hey	-0.1949839
-4.612161	<s> hhey
-1.923481	<s> hi	-0.8003501
-4.612161	<s> hide
-4.612161	<s> highest
-3.359875	<s> hm
-3.462532	<s> hmm
-4.0776	<s> hmmm
-4.612161	<s> hmmthat
-4.0776	<s> hope	-0.2219895
-1.579085	<s> how	-0.5527037
-4.0776	<s> however
-4.612161	<s> howlin
-4.612161	<s> huh
-4.612161	<s> hum
-0.888372	<s> i	-0.8192173
-2.322677	<s> i'd	-0.701567
-2.86779	<s> i'll	-0.1211835
-2.11882	<s> i'm	-0.3668836
-4.612161	<s> i'ts
-2.741017	<s> i've	-0.155535
-4.612161	<s> iam
-4.612161	<s> id
-4.612161	<s> idk
-2.48331	<s> if	-0.196845
-4.612161	<s> ill
-3.09457	<s> im	-0.190294
-4.0776	<s> in
-4.0776	<s> indeed	-0.2213209
-4.612161	<s> installing
-4.612161	<s> ios
-2.113603	<s> is	-0.8977288
-2.162977	<s> it	-0.489084
-2.548741	<s> it's	-0.1390443
-3.276905	<s> its	-0.05269946
-4.612161	<s> jack
-4.612161	<s> jackson
-4.612161	<s> jorge
-2.199315	<s> just	-0.5520496
-4.612161	<s> keep
-3.793496	<s> kindly	-0.1776248
-4.612161	<s> later
-4.612161	<s> lee
-3.207271	<s> let	-0.2435197
-3.276905	<s> let's	0.01012973
-4.612161	<s> letme
-4.612161	<s> lets
-4.612161	<s> level
-4.612161	<s> likewise
-4.612161	<s> living
-3.793496	<s> look
-4.612161	<s> looking
-4.0776	<s> looks	0.01238535
-4.612161	<s> lori
-4.0776	<s> loud
-4.612161	<s> low
-4.612161	<s> lower
-3.462532	<s> make	-0.2484268
-4.0776	<s> making
-3.793496	<s> manage	-0.193998
-3.793496	<s> managing	-0.2819111
-3.462532	<s> may	-0.3486718
-3.793496	<s> maybe
-4.612161	<s> metro
-4.612161	<s> mike
-4.612161	<s> minutes
-4.0776	<s> mode
-4.612161	<s> money
-4.612161	<s> morning
-2.405651	<s> my	-0.2553891
-4.612161	<s> n
-4.612161	<s> nah
-3.793496	<s> name	-0.07821234
-4.612161	<s> neat
-2.660921	<s> need	-0.5039336
-4.612161	<s> never
-4.612161	<s> new
-4.612161	<s> nfc
-4.612161	<s> nfcturned
-4.612161	<s> nice
-3.462532	<s> nine
-4.612161	<s> nnn
-1.492831	<s> no	-0.7091887
-4.612161	<s> non
-4.612161	<s> none
-2.719566	<s> nope	-0.4483417
-2.898279	<s> not	-0.165621
-4.612161	<s> noted
-2.898279	<s> nothing	-0.3357499
-4.612161	<s> nothings
-3.462532	<s> now	-0.08140691
-3.359875	<s> np	-0.4786548
-4.612161	<s> number
-4.612161	<s> nvm
-2.966543	<s> of	-0.9468423
-4.612161	<s> ofcourse
-4.612161	<s> off
-4.612161	<s> offers
-2.193043	<s> oh	-0.293598
-3.793496	<s> ohh	-0.08853704
-4.612161	<s> ohsure
-1.334374	<s> ok	-0.4789478
-4.612161	<s> oka
-4.612161	<s> okat
-1.24648	<s> okay	-0.5666389
-4.612161	<s> okaythank
-4.612161	<s> okaywe
-4.612161	<s> oke
-4.612161	<s> okthanks
-3.09457	<s> on	-0.1025032
-2.314365	<s> one	-0.1907541
-3.359875	<s> only	-0.05263403
-4.612161	<s> ooooooo
-4.612161	<s> oops
-3.462532	<s> open	-0.1000638
-4.612161	<s> opened
-4.612161	<s> opening
-4.612161	<s> or
-4.612161	<s> ouch
-3.462532	<s> our	-0.2562947
-4.612161	<s> out
-4.612161	<s> paypal
-2.787385	<s> perfect	-0.08239536
-3.207271	<s> phone	-0.04527418
-4.612161	<s> pickle
-3.047575	<s> plan	-0.08659327
-4.612161	<s> plane
-1.996184	<s> please	-0.1419641
-4.612161	<s> pls
-4.612161	<s> plsease
-4.612161	<s> possibly
-4.0776	<s> press
-4.612161	<s> probably
-4.612161	<s> proceed
-4.0776	<s> processing
-3.597221	<s> pull	-0.103459
-4.612161	<s> pulling
-3.597221	<s> put
-4.612161	<s> putting
-4.612161	<s> rainforest
-3.047575	<s> really	-0.141982
-4.0776	<s> remember
-4.612161	<s> rick
-3.462532	<s> right	-0.05525461
-4.0776	<s> ringer	-0.2393935
-4.0776	<s> ringtone
-4.612161	<s> rooster
-4.612161	<s> sally
-4.612161	<s> same
-4.612161	<s> say
-4.612161	<s> second
-4.612161	<s> seems
-4.612161	<s> select
-4.612161	<s> sensitivity
-2.508312	<s> set	-0.375826
-3.207271	<s> setting
-3.597221	<s> settings	-0.09731022
-3.462532	<s> seven	-0.06950065
-4.612161	<s> seventeen
-4.612161	<s> shall
-4.612161	<s> shame
-4.612161	<s> shoot
-4.612161	<s> should
-4.612161	<s> show
-4.612161	<s> sign
-4.612161	<s> silent
-2.966543	<s> six	-0.04110976
-4.612161	<s> smith
-2.521375	<s> so	-0.0852346
-4.0776	<s> something
-2.45967	<s> sorry	-0.2614285
-4.0776	<s> sound
-2.898279	<s> sounds	-0.4579301
-4.612161	<s> specifically
-4.612161	<s> start
-4.612161	<s> successfully
-4.612161	<s> sue
-1.44358	<s> sure	-0.5821821
-4.612161	<s> surelike
-4.612161	<s> surewhat
-4.612161	<s> sweet
-4.612161	<s> tahnk
-4.0776	<s> take
-4.612161	<s> talk
-3.047575	<s> ten	-0.2709643
-4.612161	<s> terrible
-4.612161	<s> texting
-4.612161	<s> tha'ts
-1.801692	<s> thank	-0.6552591
-4.612161	<s> thankks
-1.772361	<s> thanks	-0.2581946
-4.612161	<s> thans
-1.897497	<s> that	-0.8625051
-4.0776	<s> that'll	-0.001254202
-1.951119	<s> that's	-0.408589
-4.612161	<s> thatnks
-2.719566	<s> thats	-0.09611582
-2.322677	<s> the	-0.1484872
-3.047575	<s> then	-0.06409027
-2.699125	<s> there	-0.5860329
-3.793496	<s> there's	-0.05653065
-3.597221	<s> they
-3.359875	<s> thirty
-2.787385	<s> this	-0.292982
-4.612161	<s> thnk
-4.612161	<s> though
-2.966543	<s> three	-0.1355941
-4.0776	<s> thx	0.1291137
-4.0776	<s> till
-4.612161	<s> timer
-4.612161	<s> tmobile
-2.898279	<s> to	-0.1887342
-4.612161	<s> today
-4.612161	<s> tom
-4.612161	<s> toobye
-4.612161	<s> try
-2.521375	<s> turn	-0.300122
-2.534842	<s> turning	-0.3457904
-4.0776	<s> twelve
-3.597221	<s> twenty	-0.08453465
-2.625808	<s> two	-0.01984756
-4.0776	<s> ty	0.2540524
-4.612161	<s> u
-4.612161	<s> u2
-4.612161	<s> ugh
-4.612161	<s> ughs
-4.612161	<s> uh
-4.612161	<s> um
-4.612161	<s> umm
-4.612161	<s> understood
-2.699125	<s> unfortunately	-0.3667238
-4.612161	<s> unfortunatlly
-4.612161	<s> unforutnately
-4.612161	<s> unless
-4.0776	<s> unli
-3.207271	<s> unlimited	-0.148178
-4.0776	<s> until
-4.612161	<s> untill
-4.612161	<s> up
-3.359875	<s> update	-0.1146429
-3.207271	<s> upgrade	-0.2533273
-4.612161	<s> upgradebot
-4.612161	<s> upgraded
-3.597221	<s> upgrading	-0.1004032
-4.612161	<s> upon
-4.612161	<s> verizon
-3.793496	<s> very
-2.660921	<s> vibrate	-0.1416799
-4.612161	<s> vibration
-4.0776	<s> volume	-0.233546
-3.597221	<s> wait	-0.04967659
-4.612161	<s> waiting
-4.612161	<s> wally
-3.462532	<s> want	-0.226756
-4.612161	<s> water
-2.563099	<s> we	-0.2027736
-4.612161	<s> we're
-4.612161	<s> wee
-2.763583	<s> welcome	-0.7423217
-2.521375	<s> well	-0.07267606
-1.700629	<s> what	-0.1538804
-2.787385	<s> what's	-0.2198021
-3.462532	<s> whats	-0.1477054
-2.839302	<s> when	-0.1942912
-4.612161	<s> whenever
-3.793496	<s> where	-0.1446396
-2.563099	<s> which	-0.149229
-3.793496	<s> who
-2.787385	<s> why	-0.2037757
-3.462532	<s> wifi
-2.699125	<s> will	-0.2478754
-3.147275	<s> with	-0.1403298
-3.462532	<s> wonderful	-0.08804591
-4.612161	<s> wood
-2.282621	<s> would	-0.8395306
-2.812568	<s> wow	-0.1040562
-4.612161	<s> yas
-4.0776	<s> ye
-4.612161	<s> yea
-2.763583	<s> yeah	-0.04062638
-3.597221	<s> yep
-1.209381	<s> yes	-0.6873127
-4.612161	<s> yesi
-4.612161	<s> yesthat
-4.612161	<s> yesyes
-4.612161	<s> yikes
-4.612161	<s> yoo
-1.473404	<s> you	-0.7020213
-4.612161	<s> you'll
-1.867061	<s> you're	-1.100378
-3.359875	<s> you've	-0.07683808
-2.024806	<s> your	-0.3926384
-3.276905	<s> youre	-0.3916554
-4.612161	<s> yourvwelcmoe
-4.612161	<s> youu're
-4.0776	<s> yup
-3.597221	<s> yw	-0.3025636
-4.612161	<s> yxyz
-4.0776	<s> zero
-4.612161	<s> zippity
-4.612161	<s> zoinks
-2.406242	a 2gb	-0.2564569
-3.224907	a 4gb
-3.224907	a 5gb
-3.224907	a </s>
-3.224907	a also
-3.224907	a and
-3.224907	a bar
-3.224907	a bargain
-3.224907	a basic	-0.1797502
-3.224907	a beach
-3.224907	a beep
-2.209967	a better	-0.1517076
-2.209967	a big	-0.1260727
-1.820017	a bit	-0.09540648
-3.224907	a blue
-1.972621	a bot	-0.4577436
-3.224907	a bot's
-3.224907	a brand
-2.690346	a bunch
-3.224907	a call
-2.690346	a card
-2.690346	a cell	-0.08843534
-1.972621	a certain	-0.07117863
-3.224907	a change	-0.2816306
-3.224907	a charge
-2.406242	a cheaper
-2.690346	a chicken	-0.09422217
-2.690346	a confirmation	-0.2315017
-2.406242	a contact
-2.690346	a couple
-3.224907	a coupon
-3.224907	a cow
-3.224907	a credit
-2.690346	a current
-3.224907	a customer
-3.224907	a daily
-2.209967	a data	-0.1183982
-3.224907	a day	-0.09768326
-2.406242	a deal
-1.88965	a different
-3.224907	a direct
-3.224907	a discount
-2.406242	a do	-0.2185173
-3.224907	a double
-3.224907	a eighteen
-3.224907	a fair	-0.2213209
-3.224907	a family
-3.224907	a favor	-0.1170346
-3.224907	a fee
-2.406242	a few	-0.1260727
-3.224907	a five
-3.224907	a flat
-3.224907	a fog
-2.406242	a four
-2.406242	a free
-3.224907	a fresh
-3.224907	a g
-3.224907	a galaxy
-3.224907	a game
-3.224907	a gigabyte
-3.224907	a golf
-1.88965	a good	-0.7966111
-1.972621	a great	-0.9364685
-3.224907	a hard
-3.224907	a has
-3.224907	a heads
-3.224907	a help
-3.224907	a helpful
-3.224907	a higher
-2.406242	a huge	-0.05404596
-3.224907	a i
-3.224907	a important
-3.224907	a inquiry
-3.224907	a is
-3.224907	a jitterbug
-3.224907	a last
-3.224907	a late
-3.224907	a later
-3.224907	a level
-3.224907	a limit
-3.224907	a link
-2.075278	a little
-3.224907	a live
-3.224907	a log
-3.224907	a long
-3.224907	a look	-0.2336443
-1.617918	a lot	-0.3601844
-3.224907	a loud
-3.224907	a lovely
-3.224907	a m
-3.224907	a major
-3.224907	a manager
-3.224907	a match
-2.406242	a meeting	-0.07327948
-3.224907	a message
-3.224907	a million
-2.690346	a minute	-0.09801138
-2.406242	a mo	-0.01069187
-2.406242	a mobile	-0.06215641
-2.075278	a mode	-0.09126458
-2.209967	a moment	-0.04005274
-3.224907	a mon
-1.084075	a month	-0.5465515
-3.224907	a monthly
-3.224907	a moon
-3.224907	a more
-3.224907	a moto
-2.075278	a movie	-0.06801459
-3.224907	a movile
-2.690346	a name	-0.2382363
-3.224907	a nap	0.06852347
-3.224907	a nasty
-1.707316	a new	0.01067039
-2.690346	a nice	-1.14759
-2.690346	a notification
-2.406242	a number	-0.2360756
-2.209967	a one	-0.160931
-3.224907	a package
-2.690346	a particular
-3.224907	a permanent
-3.224907	a personal
-1.972621	a phone	-0.2767112
-3.224907	a photo
-2.075278	a picture	-0.3783055
-3.224907	a pig
-1.511025	a plan	-0.5669409
-3.224907	a please	-0.112809
-3.224907	a power
-3.224907	a pretty
-2.690346	a problem	-0.08531713
-3.224907	a promo
-2.690346	a promotion	-0.08853704
-3.224907	a promotional
-3.224907	a proper
-2.209967	a prorated	-0.3994735
-3.224907	a provides
-3.224907	a q	-0.1170346
-2.209967	a question	-0.5901018
-3.224907	a questiona
-3.224907	a questions
-2.690346	a quick
-3.224907	a regular
-2.690346	a reminder
-3.224907	a rep
-3.224907	a replacement
-3.224907	a request	-0.06822532
-1.579289	a ringtone	-0.1598469
-2.690346	a rip	-0.1170346
-3.224907	a rough
-3.224907	a samsung
-3.224907	a schedule
-3.224907	a screaming
-3.224907	a sec
-2.209967	a second	-0.09795147
-3.224907	a separate
-2.690346	a set
-1.972621	a setting	-0.4926402
-3.224907	a seven
-3.224907	a shirtless
-3.224907	a short
-3.224907	a silent
-3.224907	a similar
-2.690346	a single
-3.224907	a six
-3.224907	a slow
-3.224907	a slower
-3.224907	a small
-3.224907	a smart
-2.690346	a sound
-1.972621	a special	-0.064134
-2.690346	a specific	-0.08396009
-3.224907	a splendid
-3.224907	a store
-3.224907	a student
-3.224907	a sunny
-3.224907	a sunshine
-3.224907	a super
-3.224907	a system
-3.224907	a technical
-3.224907	a text
-3.224907	a thirty
-3.224907	a three
-2.209967	a time	-0.1501882
-1.88965	a timer	-0.1277706
-3.224907	a title
-3.224907	a to
-3.224907	a ton
-2.690346	a tone	-0.09514084
-2.209967	a total	-0.3682762
-3.224907	a truly
-3.224907	a turn
-2.690346	a two	-0.1237399
-3.224907	a user
-3.224907	a valued
-2.690346	a very	-0.2309527
-3.224907	a vibrate
-3.224907	a visa
-3.224907	a warning
-2.690346	a way	-0.3256584
-3.224907	a website
-2.690346	a week	0.04210851
-3.224907	a weird
-3.224907	a whil
-3.224907	a wide
-3.224907	a wind
-3.224907	a with
-3.224907	a wizard
-3.224907	a wonderful	-0.6301889
-2.690346	a year
-0.5755721	aalright </s>
-0.5755721	aand need
-0.5755721	abilities so
-0.5755721	ability to
-0.04776387	able to	-0.2711104
-0.5755721	abou tmy
-1.463722	about </s>
-1.944101	about a
-2.478662	about can	-0.1236607
-2.478662	about change
-2.478662	about checking
-1.944101	about data
-2.478662	about dogs
-2.478662	about don't
-2.478662	about doubling
-2.478662	about finding
-2.478662	about for
-2.478662	about from
-1.944101	about going	-0.1671362
-2.478662	about in
-1.329033	about it	-0.4893926
-0.7342915	about my	-0.5930835
-2.478662	about one
-2.478662	about phone
-2.478662	about price
-2.478662	about setting
-2.478662	about something
-2.478662	about ten
-2.478662	about texting
-2.478662	about that
-1.659997	about the
-1.944101	about them	-0.08106811
-2.478662	about three
-1.944101	about to	-0.2050872
-2.478662	about twenty
-1.944101	about two
-2.478662	about unlimited
-1.329033	about upgrading	0.02448849
-1.944101	about what
-2.478662	about why
-0.9140756	about your	-0.1836014
-0.9952537	absolutely </s>
-1.529815	absolutely i
-1.529815	absolutely i'd
-1.529815	absolutely i've
-1.529815	absolutely if
-1.529815	absolutely just
-1.529815	absolutely what	-0.0593508
-1.529815	absolutely you
-0.5755721	accept that
-1.897791	access all
-1.36323	access how	-0.05411529
-1.897791	access information
-1.897791	access it
-1.897791	access my	-0.7801
-1.897791	access plan
-1.36323	access that	-0.0969059
-1.36323	access the
-1.079126	access to	-0.2095522
-0.5625348	access your	-0.08920585
-0.3420412	accessed your	-0.1636422
-0.2340285	accessing your	-0.1177949
-0.5755721	accident </s>
-0.5755721	according to
-0.5755721	accordingly </s>
-1.097648	account </s>
-1.898344	account and	-0.1044096
-2.432905	account at
-2.432905	account before
-1.898344	account but
-2.432905	account comes
-2.432905	account details
-2.432905	account directly
-1.898344	account for	-0.1589007
-2.432905	account from
-2.432905	account go
-1.898344	account has
-2.432905	account have
-2.432905	account here	-0.1541925
-2.432905	account home
-2.432905	account hope
-2.432905	account however
-1.898344	account if	-0.1148423
-2.432905	account in
-2.432905	account info
-1.417965	account information	-0.05991682
-1.898344	account is	-0.03838538
-2.432905	account it
-2.432905	account may
-2.432905	account name
-2.432905	account now	0.02832863
-0.9153135	account number	-0.5667699
-2.432905	account on
-2.432905	account one
-2.432905	account online
-1.898344	account please	-0.1690735
-2.432905	account problem
-2.432905	account pulled	-0.0319055
-2.432905	account says
-1.898344	account settings	-0.04682822
-2.432905	account status
-1.898344	account to
-2.432905	account today
-2.432905	account unfortunately
-1.898344	account up	0.006278476
-2.432905	account what	-0.2572725
-2.432905	account will
-2.432905	account without
-2.432905	account you
-0.5755721	accountks </s>
-1.478662	acct </s>
-1.478662	acct and
-1.478662	acct eighty
-1.478662	acct go	-0.1669338
-1.478662	acct is
-0.9441012	acct number
-1.478662	acct sure
-0.5755721	accurate </s>
-0.8766021	action </s>
-0.8766021	action for
-1.529815	activate do	-0.05720121
-0.7111497	activate it	-0.05738775
-1.529815	activate shortly
-0.7111497	activate the	-0.37352
-1.529815	activate vibrate
-0.5606325	activated </s>
-1.575572	activated do
-1.041011	activated is
-1.575572	activated me
-1.041011	activated the	-0.2380743
-0.8766021	activating that
-0.8766021	activating this
-0.5755721	activation charge
-1.177632	active </s>
-1.177632	active is
-1.177632	active right
-1.177632	active should
-1.854326	actually </s>
-1.854326	actually a
-1.854326	actually can	-0.1842509
-1.854326	actually can't
-1.854326	actually do
-1.854326	actually double
-1.854326	actually have
-1.319765	actually how	-0.05411529
-1.854326	actually i
-1.854326	actually like
-1.854326	actually looking
-1.854326	actually right
-1.854326	actually tell
-1.854326	actually that
-1.854326	actually used
-1.854326	actually what
-1.854326	actually yes
-1.854326	actually you
-2.315935	add 1gb
-2.315935	add 2gb
-1.781374	add </s>
-1.300995	add a
-1.49727	add an	-0.02202937
-1.781374	add another
-2.315935	add daniel	-0.1892629
-2.315935	add data
-1.781374	add five
-2.315935	add for
-2.315935	add four
-2.315935	add free
-1.166306	add it	-0.1525979
-2.315935	add lori
-2.315935	add michael
-2.315935	add moonlight
-1.49727	add more	-0.001962043
-2.315935	add payment
-1.781374	add ringtone
-2.315935	add sound
-2.315935	add sounds
-1.49727	add that	-0.3596887
-1.300995	add the	-0.07747395
-2.315935	add these
-1.49727	add this	-0.1557984
-2.315935	add three
-1.781374	add to
-2.315935	add two
-1.49727	add unlimited	-0.09634776
-2.315935	add vibrate
-1.779692	added 2gb
-0.6300632	added </s>
-1.779692	added charge
-1.779692	added gb
-1.779692	added it
-1.779692	added michael
-1.245131	added that	-0.1555687
-1.245131	added the
-1.779692	added to	-0.2348612
-1.779692	added too
-1.177632	adding a
-1.177632	adding now
-1.177632	adding ten
-1.177632	adding unlimited
-1.052693	addition one
-1.052693	addition three
-1.052693	addition to	-0.1503357
-1.806021	additional 5
-1.806021	additional 8	-0.2315017
-1.806021	additional a
-1.806021	additional dab
-1.27146	additional data
-1.806021	additional five
-1.806021	additional four	-0.1141465
-1.806021	additional information
-1.806021	additional line
-1.806021	additional nine
-1.806021	additional one	-0.6768766
-1.806021	additional plans
-1.806021	additional ten	-0.4747195
-1.806021	additional to
-1.806021	additional twenty
-1.806021	additional two	-0.3318829
-0.5181324	address </s>
-1.052693	address for
-1.217102	adjust </s>
-1.751663	adjust brighness
-1.751663	adjust brightness
-1.217102	adjust my	-0.1456034
-1.751663	adjust on
-1.751663	adjust ringtone
-1.217102	adjust some
-1.751663	adjust the	-0.3029238
-1.751663	adjust who
-0.9329985	adjust your
-1.052693	adjusted by
-1.052693	adjusted those
-1.052693	adjusted your
-0.8766021	adjusting brightness
-0.8766021	adjusting setting
-1.274542	adjustment </s>
-1.274542	adjustment do
-1.274542	adjustment now
-1.274542	adjustment to
-1.274542	adjustment would
-0.5755721	adjustments </s>
-0.5755721	adult swim
-0.5755721	advice </s>
-0.5755721	advised that
-0.5755721	affair my
-0.8766021	affect anything
-0.8766021	affect right
-0.5755721	affected </s>
-0.5755721	affective immediately
-0.5755721	affects everything
-0.9441012	afraid i
-1.478662	afraid i'm
-1.478662	afraid not
-1.478662	afraid of
-1.478662	afraid to
-1.478662	afraid yes
-1.478662	afraid you
-2.006936	after 5pm
-2.006936	after 6pm
-2.006936	after 8
-2.006936	after </s>
-2.006936	after a
-2.006936	after four
-1.472375	after i
-2.006936	after it
-2.006936	after it's
-2.006936	after next
-2.006936	after silent
-2.006936	after ten
-0.857307	after that
-1.472375	after the
-2.006936	after thirty
-2.006936	after twenty
-1.472375	after two	-0.2405739
-1.188271	after your
-0.2340285	afternoon </s>
-0.8766021	afterwards </s>
-0.8766021	afterwards you
-0.6020398	again </s>
-1.854326	again at
-1.854326	again by
-1.854326	again can
-1.854326	again hello
-1.854326	again huh
-1.854326	again i
-1.854326	again i'm
-1.854326	again in
-1.854326	again or
-1.854326	again please
-1.319765	again that	-0.1334014
-1.854326	again tomorrow
-0.8766021	agent if
-0.8766021	agent who
-0.8766021	ah i
-0.8766021	ah well
-0.5755721	ahaed </s>
-1.082404	ahead </s>
-0.7982999	ahead and	-0.2088912
-1.616965	ahead anyway
-1.616965	ahead but
-1.616965	ahead i
-1.082404	ahead please	-0.112809
-1.616965	ahead with
-1.529815	airplane icon
-0.1249245	airplane mode	-0.2411319
-0.5755721	ake it
-0.5755721	al thanks
-0.5755721	alaarm nme
-0.5755721	alamrs and
-2.291575	alarm 'meeting'
-2.291575	alarm 'morning
-1.141947	alarm </s>
-2.291575	alarm after
-2.291575	alarm and
-2.291575	alarm at
-2.291575	alarm by
-2.291575	alarm changed
-2.291575	alarm clock
-1.757015	alarm for	-0.07624143
-2.291575	alarm goes
-2.291575	alarm hot
-2.291575	alarm icon
-1.276636	alarm is	-0.09722145
-2.291575	alarm loud
-2.291575	alarm name
-1.757015	alarm on	-0.1847828
-2.291575	alarm or
-2.291575	alarm please
-2.291575	alarm ringer
-1.141947	alarm set	-0.1127773
-2.291575	alarm setting
-2.291575	alarm settings
-2.291575	alarm sound
-1.472911	alarm sounds
-2.291575	alarm then
-2.291575	alarm time
-0.9563189	alarm to	-0.1380973
-2.291575	alarm tomorrow
-1.757015	alarm volume	-0.1117592
-1.220913	alarms </s>
-0.7593174	alarms and	-1.082899
-2.473199	alarms ans
-2.473199	alarms are
-1.938638	alarms as	-0.1367498
-2.473199	alarms be
-1.938638	alarms do	-0.2713818
-2.473199	alarms etc
-2.473199	alarms going
-2.473199	alarms have
-1.938638	alarms i	-0.2207409
-2.473199	alarms in
-1.654534	alarms is	-0.1372834
-2.473199	alarms monday
-1.654534	alarms on
-2.473199	alarms once
-1.938638	alarms only
-1.32357	alarms or	-0.1246339
-1.938638	alarms please
-1.008313	alarms set	-0.17814
-2.473199	alarms silenced
-2.473199	alarms still
-2.473199	alarms texts
-2.473199	alarms that
-1.938638	alarms then
-1.654534	alarms to
-2.473199	alarms too
-2.473199	alarms until
-1.938638	alarms vibrate	-0.2101894
-2.473199	alarms while
-1.654534	alarms will	-0.09479976
-2.473199	alarms would
-2.473199	alarms you
-0.5755721	album or
-0.8766021	alert for
-0.8766021	alert if
-0.5755721	alerts </s>
-0.5755721	alive </s>
-1.351235	all </s>
-2.816121	all access
-2.28156	all alamrs	-0.1170346
-2.28156	all alarm	-0.2489493
-1.043263	all alarms	-0.5588529
-2.816121	all alerts
-2.816121	all aparmsand
-2.816121	all awesome
-2.816121	all better
-2.816121	all bye
-2.28156	all calls
-2.816121	all contacts
-1.801182	all current	-0.674593
-1.997456	all currently	-1.488385
-2.816121	all curretnly
-2.816121	all day
-1.480865	all done	-0.04479943
-2.816121	all double
-2.816121	all fine
-1.666492	all for	-1.019885
-2.816121	all functions
-2.816121	all goodbye	0.2344027
-1.411231	all i	-0.5367848
-2.816121	all incoming
-2.816121	all messages
-2.816121	all mobile
-1.801182	all my	-0.09356192
-2.28156	all networks	-0.04820484
-2.816121	all night	0.07470188
-2.816121	all notfications
-2.28156	all notification	-0.1931745
-1.666492	all notifications	-0.07405317
-1.170503	all of	-0.2314341
-2.28156	all on
-2.816121	all other
-2.28156	all right	-0.04276282
-1.251535	all set	-0.2867721
-2.816121	all settings
-2.816121	all sound
-1.563836	all sounds	-0.1254399
-1.666492	all thank	-0.09238624
-1.666492	all thanks	-0.230325
-2.816121	all thans
-1.997456	all that
-2.816121	all thatnks
-1.135032	all the	-0.258007
-2.816121	all this
-2.816121	all to
-2.816121	all today	0.02363898
-2.816121	all used
-2.28156	all videos	-0.1170346
-2.28156	all you	-0.2220176
-2.28156	all you've	-0.2167804
-1.411231	all your	-0.3236414
-1.177632	allocated 2gb
-1.177632	allocated data
-1.177632	allocated each
-1.177632	allocated the
-1.274542	allotment and
-0.7399812	allotment for	-0.2386208
-1.274542	allotment now
-1.274542	allotment of
-1.177632	allotted amount
-1.177632	allotted data
-1.177632	allotted gigs
-1.177632	allotted per
-1.353723	allow calls
-0.5350584	allow me	-0.1169988
-1.353723	allow remote
-1.353723	allow unlimited
-0.7111497	allowance </s>
-1.529815	allowance do
-0.9952537	allowance for
-0.9952537	allowance is
-1.529815	allowance then
-1.041011	allowed </s>
-1.575572	allowed amount
-1.041011	allowed each	0.2154516
-1.041011	allowed on	-0.1847828
-1.575572	allowed one
-1.575572	allowed per
-1.575572	allowed to
-0.5755721	allowing you
-1.478662	allows an
-1.478662	allows and
-0.9441012	allows for
-0.9441012	allows me	-0.2177246
-1.478662	allows one
-1.478662	allows you
-1.274542	almost any
-1.274542	almost blind
-1.274542	almost deaf
-0.7399812	almost out
-1.274542	alone </s>
-1.274542	alone or
-1.274542	alone plan
-1.274542	alone please
-1.274542	alone time
-1.177632	along the
-0.3589672	along with	-0.1430154
-0.8766021	alot </s>
-0.8766021	alot of
-1.154847	already </s>
-1.973512	already a
-1.973512	already as
-1.973512	already available
-1.973512	already connected
-1.973512	already did
-1.973512	already done
-1.973512	already for
-1.973512	already had
-1.973512	already has
-1.973512	already have	-0.3020676
-1.973512	already includes
-1.973512	already know	-0.1869132
-1.973512	already okay
-1.973512	already on
-1.438951	already set
-1.973512	already successfully
-1.973512	already take
-1.973512	already upgraded
-1.154847	already used	-0.04689584
-1.316507	alright </s>
-2.331447	alright all
-2.331447	alright also
-1.796886	alright and
-2.331447	alright anything
-2.331447	alright are
-2.331447	alright but
-2.331447	alright bye
-2.331447	alright can
-2.331447	alright checking
-2.331447	alright did	0.003120161
-2.331447	alright do	-0.05720121
-2.331447	alright done	-0.09038159
-2.331447	alright edit
-2.331447	alright fair
-2.331447	alright glad
-2.331447	alright go
-2.331447	alright goodbye
-2.331447	alright great
-2.331447	alright have	-0.4814151
-2.331447	alright how	0.03758897
-2.331447	alright i	-0.1763422
-1.796886	alright i'll	-0.03776426
-2.331447	alright i'm
-2.331447	alright i've	-0.04351661
-2.331447	alright it
-2.331447	alright just
-2.331447	alright no
-2.331447	alright processing
-2.331447	alright remember
-2.331447	alright set
-2.331447	alright shall
-2.331447	alright thank	0.6065838
-2.331447	alright thanks	-0.1124012
-2.331447	alright that
-2.331447	alright the
-1.796886	alright then
-2.331447	alright there
-2.331447	alright this
-2.331447	alright to
-2.331447	alright turning
-2.331447	alright we	-0.084172
-2.331447	alright welcome
-2.331447	alright what	-0.02400259
-2.331447	alright whatever
-2.331447	alright when
-2.331447	alright which
-2.331447	alright with
-2.331447	alright would
-2.331447	alright you	-0.07851974
-2.331447	alright your	-0.2587114
-0.8766021	alrighti can
-0.8766021	alrighti have
-0.5755721	alrighti've activated
-0.5755721	alrighty you
-1.429864	also </s>
-2.444804	also almost
-2.444804	also apply
-2.444804	also are
-2.444804	also be
-2.444804	also block
-2.444804	also call
-2.444804	also can
-1.626139	also change	-0.2374339
-2.444804	also choose
-2.444804	also could
-2.444804	also delete
-1.626139	also disable	-0.1367378
-1.910243	also double
-2.444804	also features
-1.910243	also get
-2.444804	also gives
-1.910243	also have
-2.444804	also hello
-2.444804	also help
-2.444804	also how
-2.444804	also i
-2.444804	also include
-1.910243	also includes
-2.444804	also just
-1.626139	also like	-0.4172425
-1.429864	also make	-0.07692204
-2.444804	also muted
-1.910243	also need
-2.444804	also offer
-2.444804	also offers
-2.444804	also on
-2.444804	also one
-2.444804	also play
-2.444804	also please
-2.444804	also put
-2.444804	also schedule
-2.444804	also see
-1.192518	also set	-0.1115416
-2.444804	also silence	-0.236504
-2.444804	also the
-2.444804	also to
-1.429864	also turn	0.0239122
-2.444804	also updat
-1.626139	also want	-0.226756
-2.444804	also wanted
-2.444804	also what
-1.353723	always asking
-1.353723	always close
-1.353723	always come
-0.8191624	always here	-0.1321045
-1.353723	always make
-1.242364	am </s>
-2.49465	am a	-0.1907839
-2.49465	am able	0.3695534
-2.49465	am accessing
-2.49465	am afraid
-2.49465	am allocated
-2.49465	am allowed
-2.49465	am always	-0.07902431
-2.49465	am and
-2.49465	am anything
-2.49465	am at	-0.0943604
-2.49465	am aware
-2.49465	am cathy
-2.49465	am clock
-2.49465	am concerned
-2.49465	am confirming
-2.49465	am curious
-2.49465	am currently
-2.49465	am daily
-2.49465	am designed	-0.2108956
-2.49465	am do
-2.49465	am done
-2.49465	am extremely
-2.49465	am fine	-0.2816095
-2.49465	am from
-2.49465	am getting
-2.49465	am glad
-2.49465	am going	-0.4182142
-2.49465	am good	-0.09101073
-2.49465	am happy	-0.06191078
-2.49465	am having
-2.49465	am here	-0.3682762
-1.08976	am i	-0.1377545
-2.49465	am in
-2.49465	am interested
-2.49465	am learning
-2.49465	am looking
-2.49465	am monday
-2.49465	am not	-0.4858567
-2.49465	am okay
-2.49465	am omiscient
-2.49465	am one
-2.49465	am only	-0.1065545
-2.49465	am onth
-1.675985	am please	-0.1733992
-2.49465	am pleased
-2.49465	am positive
-2.49465	am pulling	0.1963817
-2.49465	am required
-2.49465	am setting
-2.49465	am signing
-2.49465	am sorry	-0.1173082
-2.49465	am sure	-0.4630075
-2.49465	am thanks
-2.49465	am the
-2.49465	am tired
-1.960089	am to
-1.960089	am tomorrow	-0.118359
-2.49465	am trying	-0.103459
-2.49465	am turning
-2.49465	am unable	-0.7867938
-2.49465	am unfortunately
-2.49465	am upgrade
-2.49465	am using
-2.49465	am waiting
-2.49465	am when
-2.49465	am wondering
-0.5755721	amazeywazy plan
-0.8766021	amazing </s>
-0.8766021	amazing deals
-0.5755721	american express
-1.162692	amount </s>
-2.177632	amount and
-2.177632	amount but
-2.177632	amount by
-0.9253462	amount for	-0.4578084
-2.177632	amount hello
-2.177632	amount in
-1.643071	amount included	-0.05422657
-1.358967	amount is
-0.772742	amount of	-0.7969681
-2.177632	amount okay
-2.177632	amount on
-2.177632	amount one
-2.177632	amount per
-2.177632	amount remaining
-2.177632	amount so
-2.177632	amount that
-2.177632	amount though
-1.358967	amount to	-0.1454361
-2.177632	amount your
-0.5755721	amrican express
-2.456386	an 8gb	-0.236504
-2.456386	an account
-2.456386	an activation
-2.456386	an added
-1.921825	an addition
-0.9387946	an additional	-0.5220411
