
\data\
ngram 1=1480
ngram 2=9530
ngram 3=4882

\1-grams:
-3.890944	'm	-0.1327781
-3.890944	's	-0.1270197
-3.890944	0	-0.1321619
-3.890944	1g	-0.1324357
-2.94831	1gb	-0.2006879
-3.890944	1mb	-0.1315681
-3.542212	1st	-0.3433656
-3.718448	1tb	-0.1234146
-3.718448	2g	-0.1280468
-2.810757	2gb	-0.2391365
-3.890944	2mb	-0.1019843
-3.890944	3	-0.1071269
-3.890944	3g's	-0.1278502
-3.09066	3gb	-0.1686107
-3.890944	3rd	-0.1071269
-3.406858	4g	-0.1939126
-3.037854	4gb	-0.267626
-3.303817	5	-0.1701116
-3.890944	5g	-0.1305157
-2.94831	5gb	-0.1936861
-3.718448	5mb	-0.122902
-3.718448	6	-0.1297483
-3.718448	6gb	-0.1223545
-3.890944	7gb	-0.1315681
-3.890944	8	-0.1305157
-3.150786	8gb	-0.1585052
-3.890944	9	-0.1238211
-3.718448	9gb	-0.1207519
-1.240523	</s>
-99	<s>	-0.8744247
-1.942725	a	-0.2560092
-3.890944	abilities	-0.1310194
-2.990778	able	-0.8841931
-3.890944	abou	-0.1327781
-2.36913	about	-0.3412959
-3.718448	absolutely	-0.1399254
-3.890944	accept	-0.126095
-3.037854	access	-0.2633035
-3.718448	accessing	-0.2769904
-3.890944	according	-0.1250756
-3.890944	accordingly	-0.1071269
-2.70645	account	-0.1678761
-3.890944	accountks	-0.1071269
-3.220596	acct	-0.1267433
-3.890944	accurate	-0.1071269
-3.718448	activate	-0.1285954
-3.890944	activated	-0.1071269
-3.890944	activation	-0.1321619
-2.94831	actually	-0.1181969
-2.84128	add	-0.1993324
-2.990778	added	-0.1565814
-3.542212	adding	-0.1236131
-3.718448	addition	-0.117708
-3.037854	additional	-0.1094666
-3.718448	address	-0.09859518
-3.890944	adjust	-0.1289552
-3.890944	advice	-0.1071269
-3.890944	affair	-0.1289552
-3.890944	affect	-0.1312938
-3.890944	affective	-0.1324357
-3.718448	afraid	-0.1101045
-3.406858	after	-0.1808577
-3.150786	again	-0.1709611
-3.718448	agent	-0.1306653
-3.890944	ah	-0.1250415
-3.406858	ahead	-0.2593792
-3.718448	alert	-0.1227621
-2.491467	all	-0.349016
-3.542212	allocated	-0.1218063
-3.542212	allotment	-0.1677382
-3.406858	allotted	-0.125298
-3.406858	allow	-0.2921446
-3.406858	allowance	-0.2244343
-3.150786	allowed	-0.1683258
-3.890944	allowing	-0.1238211
-3.542212	allows	-0.1707011
-3.718448	almost	-0.2814888
-3.890944	alone	-0.1279424
-3.542212	along	-0.366296
-2.909628	already	-0.159497
-3.220596	alright	-0.06568736
-3.890944	alrighti	-0.1295984
-2.810757	also	-0.1276089
-3.718448	always	-0.1320827
-2.990778	am	-0.1230849
-3.890944	amazeywazy	-0.1279424
-3.890944	amazing	-0.1327781
-3.890944	american	-0.1327508
-2.782239	amount	-0.2434728
-3.890944	amrican	-0.1327508
-2.520689	an	-0.4305215
-1.998024	and	-0.1299692
-2.990778	another	-0.2769783
-3.890944	another's	-0.1327781
-3.09066	answer	-0.1395993
-3.718448	answered	-0.2566821
-3.890944	answering	-0.1312481
-2.84128	any	-0.1677969
-3.718448	anyone	-0.1251806
-3.890944	anyrhing	-0.1325269
-2.477561	anything	-0.6771646
-3.150786	anytime	-0.09330511
-3.890944	anyting	-0.1325269
-3.406858	anyway	-0.1925586
-3.890944	anywhere	-0.1238211
-3.890944	apart	-0.1284491
-3.890944	apologies	-0.1253538
-3.890944	apologize	-0.1224355
-3.406858	app	-0.1218655
-3.890944	appear	-0.1287252
-3.718448	appears	-0.2107229
-3.890944	application	-0.1310194
-3.718448	applied	-0.1235077
-3.542212	apply	-0.1061845
-3.890944	applying	-0.1270197
-3.718448	appreciate	-0.1638622
-2.438332	are	-0.1602418
-3.890944	areyou	-0.1071269
-3.718448	around	-0.1274474
-2.662399	as	-0.3625603
-3.890944	asap	-0.1071269
-3.890944	aside	-0.1322075
-3.220596	ask	-0.2085605
-3.718448	asked	-0.1064267
-3.542212	asking	-0.0930004
-3.890944	aspect	-0.1284491
-3.890944	aspects	-0.1284491
-3.220596	assist	-0.2454915
-3.150786	assistance	-0.3728437
-3.890944	assisting	-0.1307905
-3.890944	associated	-0.1300573
-2.536072	at	-0.2870224
-3.890944	authorize	-0.1170941
-3.890944	authorized	-0.1250756
-3.890944	auto	-0.1323901
-3.890944	autobill	-0.1318423
-3.718448	automatically	-0.1319001
-3.890944	autopay	-0.1071269
-3.718448	avail	-0.1179314
-2.683867	available	-0.1564089
-3.890944	availalbe	-0.1313853
-3.890944	average	-0.1068495
-3.890944	avoid	-0.1326181
-3.890944	aw	-0.1324357
-3.718448	away	-0.1990816
-3.890944	awesme	-0.1071269
-3.303817	awesome	-0.1390346
-3.890944	awesone	-0.1311109
-3.890944	awh	-0.1325725
-3.890944	b	-0.09754837
-3.220596	back	-0.1393852
-3.718448	bad	-0.09665775
-3.150786	balance	-0.1689751
-3.890944	bandwidth	-0.1046669
-3.890944	bankrupt	-0.1071269
-3.890944	bargain	-0.1319793
-3.718448	based	-0.2782804
-3.303817	basic	-0.1778532
-2.477561	be	-0.1729969
-3.718448	beam	-0.1244844
-3.406858	because	-0.1642631
-3.150786	been	-0.1755708
-3.150786	before	-0.1143438
-3.718448	beginning	-0.1271705
-3.890944	begins	-0.1327093
-3.406858	being	-0.1258982
-3.890944	believe	-0.1303782
-3.890944	below	-0.1298279
-3.542212	best	-0.1408246
-3.890944	bestmobileevercom	-0.1284491
-3.890944	bestphonesevercomaccountlogin	-0.1071269
-3.09066	better	-0.1403882
-3.718448	between	-0.1303904
-3.890944	beyond	-0.1289552
-3.718448	big	-0.1053114
-2.94831	bill	-0.2414439
-3.718448	billed	-0.1204831
-3.150786	billing	-0.3091128
-3.150786	billion	-0.2357016
-3.718448	bills	-0.1036933
-3.890944	bit	-0.09787001
-3.890944	blackouts	-0.1071269
-3.890944	blowing	-0.1327093
-3.406858	bob	-0.256594
-3.890944	bod	-0.1327508
-3.890944	boo	-0.1250756
-2.730273	bot	-0.3005008
-3.890944	both	-0.1327781
-3.890944	bots	-0.1319793
-3.890944	bout	-0.1289552
-3.890944	boy	-0.1317052
-3.718448	brand	-0.1067044
-3.890944	bring	-0.1286792
-3.890944	bro	-0.1314767
-3.890944	bronze	-0.1071269
-3.890944	brother	-0.1327781
-3.890944	btw	-0.1238211
-3.890944	bucks	-0.1310651
-3.890944	buddy	-0.1071269
-3.718448	budget	-0.2566821
-3.718448	bugwak	-0.1037421
-3.890944	bullock	-0.1071269
-3.890944	bummer	-0.132025
-3.890944	bump	-0.1238211
-3.890944	bumping	-0.1238211
-3.890944	bunch	-0.1284491
-3.890944	business	-0.1327781
-3.890944	busy	-0.1071269
-2.273789	but	-0.3332062
-3.890944	buy	-0.1310651
-3.890944	buying	-0.1324357
-2.84128	by	-0.1210846
-3.09066	bye	-0.3191209
-3.890944	byye	-0.1071269
-2.87411	call	-0.1692841
-3.718448	called	-0.2765749
-3.890944	caller	-0.1279424
-2.87411	calling	-0.1446811
-3.890944	callingi	-0.1292769
-3.890944	callings	-0.1301031
-3.890944	callingtext	-0.1305615
-2.909628	calls	-0.1437875
-2.135645	can	-0.3108832
-3.303817	can't	-0.1558964
-3.890944	canada	-0.1284491
-3.406858	cancel	-0.2730629
-3.542212	cannot	-0.195279
-3.890944	cant	-0.102135
-3.542212	cap	-0.2546109
-3.718448	capabilities	-0.1317174
-3.890944	capability	-0.1247971
-3.890944	capable	-0.1284491
-3.037854	card	-0.1999765
-3.718448	care	-0.09181327
-3.890944	careful	-0.1300573
-3.718448	carrier	-0.1318544
-3.890944	carriers	-0.1327508
-3.890944	carries	-0.1312481
-3.890944	carry	-0.1292769
-3.890944	case	-0.1286332
-3.890944	cathy	-0.1071269
-3.890944	cause	-0.1309736
-3.718448	cc	-0.124252
-3.150786	cell	-0.3447338
-3.890944	cellphone	-0.1270781
-3.890944	cellular	-0.1291391
-3.542212	cents	-0.19845
-3.718448	certain	-0.127886
-3.718448	certainly	-0.1020852
-2.87411	change	-0.2050376
-3.542212	changed	-0.118145
-2.94831	changes	-0.2581543
-3.718448	changing	-0.1240196
-2.810757	charge	-0.161986
-3.406858	charged	-0.1347475
-3.303817	charges	-0.08941586
-3.890944	charging	-0.1274352
-3.890944	chat	-0.1292769
-3.890944	cheap	-0.1313853
-3.890944	cheapeast	-0.1279424
-3.542212	cheaper	-0.133422
-3.718448	cheapest	-0.1010176
-2.641943	check	-0.3174697
-3.890944	checked	-0.1284491
-2.990778	checking	-0.1790774
-3.890944	checkingg	-0.1071269
-3.890944	checkk	-0.1270197
-3.718448	choice	-0.1024733
-3.718448	choices	-0.1009556
-3.718448	choose	-0.1200015
-3.890944	choosing	-0.1270197
-3.890944	chose	-0.1322075
-3.890944	clear	-0.1326181
-3.406858	click	-0.126283
-3.150786	close	-0.2512069
-3.718448	code	-0.09755845
-3.718448	come	-0.1322653
-3.220596	comes	-0.667326
-3.890944	comfortable	-0.1327222
-3.890944	company	-0.1327508
-3.890944	compare	-0.1250756
-3.890944	completed	-0.1298279
-3.890944	completely	-0.1327781
-3.890944	computer	-0.1250756
-3.406858	concern	-0.2671083
-3.890944	concerned	-0.1253538
-3.890944	concerning	-0.1289552
-3.406858	concerns	-0.4683043
-3.542212	confirm	-0.1775499
-3.303817	confirmation	-0.2325153
-3.718448	confirmed	-0.09755845
-3.718448	confused	-0.1289214
-3.890944	confusion	-0.1311109
-3.718448	connect	-0.1217348
-3.718448	connected	-0.1070388
-3.718448	consider	-0.2782344
-3.890944	consideration	-0.1071269
-3.890944	considering	-0.1071269
-3.890944	constantly	-0.1310194
-3.406858	contact	-0.1188169
-3.890944	contains	-0.129886
-3.890944	continue	-0.1071269
-3.303817	contract	-0.3269389
-3.542212	cool	-0.1428515
-2.990778	correct	-0.2763958
-3.890944	correctly	-0.1284491
-2.87411	cost	-0.1838286
-3.718448	costing	-0.1217348
-3.303817	costs	-0.1991665
-3.890944	coudnt	-0.1313853
-2.909628	could	-0.2574373
-3.890944	couldn't	-0.13054
-3.890944	country	-0.1284491
-3.890944	couple	-0.1280929
-3.890944	coupon	-0.1327508
-3.890944	course	-0.09130192
-3.890944	cover	-0.1307905
-3.890944	crazy	-0.1298279
-3.150786	credit	-0.5394883
-3.890944	criteria	-0.1071269
-3.890944	cup	-0.1287252
-3.890944	curious	-0.1323444
-3.150786	current	-0.2406962
-2.683867	currently	-0.1483688
-3.037854	customer	-0.26761
-3.890944	customers	-0.1300573
-3.890944	cvc	-0.1327508
-3.890944	cya	-0.1071269
-3.406858	cycle	-0.1290633
-3.890944	dab	-0.1071269
-3.890944	dail	-0.1305157
-3.890944	darn	-0.1296443
-2.072034	data	-0.2427557
-3.890944	data's	-0.1303782
-3.890944	dataplans	-0.1071269
-3.890944	datat	-0.1071269
-3.150786	date	-0.1283154
-2.782239	day	-0.2358945
-3.890944	daya	-0.1297361
-3.037854	days	-0.2210466
-2.84128	deal	-0.1835877
-3.890944	deals	-0.132025
-3.718448	debit	-0.1310773
-3.542212	decrease	-0.1192624
-3.890944	decreased	-0.1250756
-3.718448	definitely	-0.1324022
-3.890944	delay	-0.1238211
-3.890944	department	-0.1071269
-3.890944	described	-0.1286332
-3.890944	description	-0.1322988
-3.718448	designed	-0.1233214
-3.890944	desire	-0.1247971
-3.890944	detail	-0.1247971
-3.220596	details	-0.1298327
-3.890944	determine	-0.1270197
-3.718448	device	-0.09414771
-3.890944	diamond	-0.1279424
-3.150786	did	-0.3449098
-3.890944	didn't	-0.1322885
-3.890944	difference	-0.1327508
-3.890944	differences	-0.1284491
-3.220596	different	-0.1507607
-3.890944	digits	-0.1284491
-3.542212	direct	-0.1216496
-3.303817	directly	-0.09868374
-3.890944	directvuou	-0.1327781
-3.542212	discount	-0.1965494
-3.542212	discounts	-0.1923782
-3.890944	discussed	-0.1314767
-3.890944	divulging	-0.126095
-2.148283	do	-0.4243115
-3.890944	doe	-0.1071269
-2.75548	does	-0.3668016
-3.406858	doesn't	-0.1976687
-3.890944	dof	-0.1298279
-3.890944	doing	-0.126095
-3.890944	doiuble	-0.126095
-3.890944	dolalrs	-0.1278502
-3.718448	dole	-0.1046073
-3.406858	dollar	-0.2724572
-3.037854	dollars	-0.207736
-2.94831	don't	-0.2844712
-2.990778	done	-0.2450305
-3.542212	dont	-0.1542529
-3.890944	doubl	-0.1270197
-2.552021	double	-0.4852383
-3.406858	doublecheck	-0.228868
-3.890944	doubled	-0.1274352
-3.718448	doubles	-0.2769904
-3.406858	doubling	-0.2727834
-3.303817	down	-0.131909
-3.890944	downgrade	-0.1250756
-3.890944	downgraded	-0.1250756
-3.718448	download	-0.2765749
-3.890944	dsy	-0.1071269
-3.220596	due	-0.188335
-3.890944	duper	-0.1279424
-3.890944	duration	-0.1071269
-3.890944	during	-0.1270197
-3.890944	e	-0.1071269
-2.75548	each	-0.5585528
-3.890944	edit	-0.1274352
-3.542212	effect	-0.1488687
-3.220596	effective	-0.3561125
-3.890944	eh	-0.1325269
-3.890944	ehh	-0.1319458
-2.426005	eight	-0.5032495
-3.406858	eighteen	-0.2710924
-3.542212	eighty	-0.1789687
-3.220596	either	-0.1404776
-3.890944	eleven	-0.1065107
-3.150786	else	-0.2118227
-3.890944	elsewhere	-0.131888
-3.220596	email	-0.08737293
-3.890944	en	-0.1327781
-3.890944	encured	-0.1315224
-3.09066	end	-0.160919
-3.890944	ending	-0.1303782
-3.303817	ends	-0.192848
-3.09066	enjoy	-0.5248698
-3.220596	enough	-0.2250235
-3.890944	enroll	-0.1307905
-3.718448	enter	-0.2769904
-3.890944	entered	-0.1286792
-3.890944	entire	-0.1324813
-3.718448	equipped	-0.2160318
-3.542212	estimate	-0.09826296
-3.718448	even	-0.1291175
-3.718448	evening	-0.2566821
-3.890944	ever	-0.1306653
-3.890944	everthing	-0.1247971
-2.84128	every	-0.6267347
-3.890944	everyone	-0.1279424
-3.406858	everything	-0.1855964
-3.303817	exactly	-0.175475
-3.890944	exceed	-0.1270197
-3.890944	exceeded	-0.1270197
-3.890944	exceeding	-0.126095
-3.890944	excellent	-0.1249951
-3.890944	excess	-0.1071269
-3.718448	existing	-0.1261998
-3.890944	expect	-0.1326181
-3.890944	expected	-0.1071269
-3.220596	expensive	-0.1837376
-3.890944	expiration	-0.1325269
-3.718448	express	-0.1038395
-3.718448	extend	-0.2785104
-2.87411	extra	-0.2122544
-3.718448	fair	-0.1283692
-3.890944	fake	-0.1317052
-3.09066	family	-0.1578264
-3.890944	fancy	-0.1327508
-3.542212	fantastic	-0.2191956
-3.542212	far	-0.125062
-3.890944	fast	-0.1291391
-3.890944	faster	-0.1071269
-3.718448	feature	-0.0947451
-3.406858	features	-0.1073716
-3.150786	fee	-0.3271604
-3.303817	feel	-0.1824454
-3.542212	fees	-0.09841098
-3.890944	fess	-0.1071269
-3.718448	few	-0.1308942
-3.890944	fi	-0.1322988
-3.09066	fifteen	-0.1617262
-2.810757	fifty	-0.2003822
-3.406858	figure	-0.2930191
-3.890944	file	-0.08942926
-3.890944	finalized	-0.1247971
-3.220596	find	-0.2007191
-3.718448	finding	-0.1251806
-3.037854	fine	-0.2427433
-3.718448	finish	-0.10356
-3.718448	finished	-0.1321284
-3.890944	finishes	-0.1071269
-3.037854	first	-0.1507487
-3.718448	fit	-0.1040731
-3.890944	fits	-0.123368
-2.181586	five	-0.5203029
-3.718448	fixed	-0.1283927
-3.890944	flat	-0.1299655
-3.890944	following	-0.1301031
-1.736714	for	-0.4855526
-3.718448	forever	-0.1041694
-3.890944	forgetting	-0.1071269
-3.890944	forgot	-0.1309736
-3.890944	form	-0.1284491
-3.150786	forty	-0.2152153
-3.890944	forward	-0.1250756
-3.542212	found	-0.1178967
-2.291256	four	-0.569851
-3.406858	fourteen	-0.1843611
-3.890944	fre	-0.1292769
-2.30026	free	-0.4937607
-3.890944	freedom	-0.1071269
-3.890944	fresh	-0.1322075
-3.890944	friendly	-0.1314767
-3.890944	fro	-0.1292769
-2.84128	from	-0.1495628
-3.890944	front	-0.1284491
-3.890944	function	-0.1303324
-3.542212	further	-0.1744591
-3.303817	g	-0.1979034
-3.890944	games	-0.1071269
-2.552021	gb	-0.3614874
-3.718448	gb's	-0.1300695
-3.09066	gbs	-0.2760534
-3.890944	gega	-0.1247971
-3.890944	general	-0.1284491
-3.890944	generally	-0.1322988
-2.782239	get	-0.1542561
-3.303817	getting	-0.1139418
-3.890944	gibs	-0.1247971
-3.890944	gibsbut	-0.1253538
-3.406858	gig	-0.1490899
-3.220596	gigabyte	-0.07553682
-2.990778	gigabytes	-0.3432427
-2.75548	gigs	-0.3188023
-2.810757	give	-0.5936106
-3.718448	given	-0.1227155
-3.718448	gives	-0.2155178
-3.890944	giving	-0.1298279
-3.037854	glad	-0.4033821
-2.477561	go	-0.4145279
-3.890944	god	-0.1279885
-2.730273	going	-0.5693606
-3.718448	gold	-0.2774976
-3.406858	gone	-0.3316843
-2.662399	good	-0.1917751
-3.406858	goodbye	-0.270816
-3.150786	got	-0.1451752
-3.890944	gotten	-0.1289552
-3.890944	gps	-0.1327781
-3.718448	grade	-0.09889094
-3.890944	gray	-0.1327781
-2.84128	great	-0.1403482
-3.542212	guess	-0.105177
-3.890944	guys	-0.1287374
-3.718448	had	-0.1970065
-3.890944	hae	-0.1287252
-3.890944	haev	-0.1315681
-3.890944	haha	-0.1071269
-3.890944	half	-0.1278502
-3.890944	halo	-0.1071269
-3.718448	happen	-0.1245308
-3.890944	happening	-0.1071269
-3.890944	happens	-0.1308363
-3.150786	happy	-0.3050758
-3.890944	hard	-0.1327781
-2.683867	has	-0.3651887
-2.129462	have	-0.1348777
-3.718448	having	-0.1327222
-3.890944	hawk	-0.1253538
-3.890944	hd	-0.1327508
-3.890944	head	-0.1071269
-3.890944	headache	-0.1253538
-3.890944	hear	-0.1216537
-3.890944	hearing	-0.1309736
-2.990778	hello	-0.3754571
-3.890944	helloi	-0.1295984
-3.890944	helo	-0.1323901
-2.491467	help	-0.3480469
-2.990778	helpful	-0.3174385
-3.890944	helping	-0.1049586
-3.890944	helpme	-0.1300573
-3.718448	helps	-0.1707111
-3.890944	heo	-0.1071269
-3.890944	her	-0.1327781
-3.09066	here	-0.114626
-3.542212	hey	-0.1349901
-3.890944	hhey	-0.1071269
-3.718448	hi	-0.1004588
-3.406858	high	-0.1660913
-3.542212	higher	-0.09796678
-3.718448	highest	-0.1319001
-3.890944	highspeed	-0.1291391
-3.890944	hitting	-0.1289552
-3.890944	hm	-0.1227278
-3.890944	hmm	-0.1252857
-3.890944	hmmm	-0.1308363
-3.890944	hmmthat	-0.1327781
-3.718448	hold	-0.1285073
-3.890944	holds	-0.1313853
-3.890944	holymoly	-0.1291391
-3.890944	home	-0.1327781
-3.890944	honestly	-0.1253538
-3.890944	honesty	-0.1071269
-3.890944	hook	-0.1314767
-3.09066	hope	-0.2762892
-3.890944	hotspot	-0.1247971
-3.542212	hours	-0.09272715
-2.01656	how	-0.726576
-2.909628	however	-0.4871156
-3.890944	huge	-0.1313638
-3.718448	huh	-0.1026687
-3.890944	hum	-0.1279885
-3.890944	human	-0.1071269
-3.037854	hundred	-0.3428589
-3.890944	hurry	-0.1071269
-1.767613	i	-0.5672738
-2.94831	i'd	-0.4671872
-2.70645	i'll	-0.3970502
-2.477561	i'm	-0.2251658
-2.94831	i've	-0.2287263
-3.890944	iam	-0.1322532
-3.890944	ican't	-0.1327781
-3.220596	id	-0.1992417
-3.890944	idea	-0.1071269
-3.890944	idk	-0.1298279
-2.338269	if	-0.6161072
-3.890944	iin	-0.1274352
-3.150786	ill	-0.1994348
-3.150786	im	-0.1855559
-3.890944	immediate	-0.1238211
-3.037854	immediately	-0.4136944
-3.890944	immiedately	-0.1071269
-3.718448	important	-0.1168925
-2.248839	in	-0.3349991
-3.890944	inclkuded	-0.1303782
-3.150786	include	-0.1182367
-2.84128	included	-0.2828531
-3.220596	includes	-0.1826993
-3.890944	including	-0.1306531
-3.718448	inconvenience	-0.1046669
-3.890944	inconvenienced	-0.1311109
-3.150786	increase	-0.1988259
-3.718448	increased	-0.2769904
-3.890944	increasing	-0.126095
-3.718448	indeed	-0.1027175
-3.890944	individual	-0.1319793
-2.75548	info	-0.355972
-3.406858	inform	-0.4849986
-2.641943	information	-0.25145
-3.890944	informing	-0.1307905
-3.890944	inhave	-0.1071269
-3.890944	initial	-0.1321163
-3.890944	initiated	-0.1274352
-3.890944	inquiring	-0.1309736
-3.542212	inquiry	-0.1289796
-3.890944	insignificant	-0.1071269
-3.890944	install	-0.1270197
-3.150786	instead	-0.384858
-3.718448	interest	-0.2733763
-3.303817	interested	-0.2341471
-3.890944	interestig	-0.1296443
-3.542212	internet	-0.209089
-2.990778	into	-0.1431687
-3.890944	iny	-0.1319336
-1.954876	is	-0.167867
-3.220596	isn't	-0.1271272
-3.890944	isnt	-0.132025
-3.890944	isp	-0.1048614
-3.542212	issue	-0.1929695
-3.542212	issues	-0.1180382
-2.02132	it	-0.2486097
-3.890944	it'd	-0.1313853
-3.890944	it'll	-0.1322532
-2.94831	it's	-0.132049
-2.990778	its	-0.1267348
-3.890944	jack	-0.1327781
-3.890944	jackson	-0.1326181
-3.890944	jane	-0.1327781
-3.890944	jim	-0.1327508
-3.718448	jitterbug	-0.1052986
-3.718448	joe	-0.1208925
-3.890944	jorge	-0.1327508
-3.542212	july	-0.1242179
-3.890944	june	-0.1269396
-2.505832	just	-0.1294765
-3.890944	jut	-0.1315224
-3.542212	keep	-0.1209899
-3.890944	keeping	-0.1327781
-3.890944	keeps	-0.1327093
-3.890944	kidding	-0.1326181
-3.890944	kind	-0.1284491
-3.890944	kitty	-0.1327781
-3.890944	knew	-0.1317052
-3.890944	knocks	-0.1071269
-2.94831	know	-0.1722093
-3.890944	l	-0.1296443
-3.890944	lan	-0.1279424
-3.890944	languages	-0.1071269
-3.890944	large	-0.1291391
-3.718448	largest	-0.1242055
-3.150786	last	-0.2734906
-3.890944	lasts	-0.1247971
-3.718448	late	-0.2264365
-3.890944	lately	-0.1296443
-3.542212	later	-0.2005842
-3.890944	learning	-0.1324357
-3.890944	least	-0.1071269
-3.890944	lee	-0.1326181
-2.536072	left	-0.3757252
-3.890944	leftover	-0.1303782
-3.542212	less	-0.1066688
-2.909628	let	-0.5493218
-3.150786	let's	-0.4141484
-3.890944	letme	-0.1318423
-3.406858	lets	-0.1954157
-3.890944	letting	-0.1307905
-3.890944	level	-0.127886
-3.890944	life	-0.1071269
-2.603713	like	-0.2679656
-3.890944	likely	-0.1327781
-3.890944	likewise	-0.1071269
-3.890944	limiit	-0.1071269
-3.037854	limit	-0.2428365
-3.890944	limitations	-0.1323444
-3.542212	limited	-0.1298064
-3.890944	limitless	-0.1327781
-3.718448	limits	-0.09757155
-3.037854	line	-0.4748934
-3.542212	lines	-0.08883474
-3.718448	link	-0.1206113
-3.890944	linked	-0.1250756
-3.890944	listed	-0.1324357
-3.890944	little	-0.132471
-3.718448	live	-0.132174
-3.890944	locater	-0.1299655
-3.406858	log	-0.2557038
-3.718448	logging	-0.1322197
-3.542212	long	-0.13054
-2.909628	look	-0.2689176
-3.890944	looked	-0.1314767
-3.09066	looking	-0.4335644
-3.718448	looks	-0.2813061
-3.890944	lot	-0.0872211
-3.542212	love	-0.2188018
-3.542212	low	-0.116574
-3.718448	lowest	-0.1272628
-3.150786	made	-0.1808093
-3.890944	mainly	-0.1319793
-3.890944	maintenance	-0.1286792
-3.890944	major	-0.1327781
-2.990778	make	-0.2127081
-3.890944	makes	-0.1327781
-3.890944	making	-0.1327508
-3.890944	man	-0.1311109
-3.718448	manage	-0.2785104
-3.890944	manager	-0.1247971
-3.303817	many	-0.1420884
-3.890944	match	-0.1247971
-3.542212	math	-0.09826296
-3.890944	max	-0.1071269
-2.782239	may	-0.3350967
-3.303817	maybe	-0.1376416
-3.150786	mb	-0.2818418
-2.32845	me	-0.1651493
-3.718448	mean	-0.1308004
-3.890944	means	-0.132025
-3.890944	meant	-0.1286332
-3.890944	mega	-0.1327781
-3.890944	megabyte	-0.1284491
-3.542212	megabytes	-0.09762097
-3.890944	megawega	-0.1279424
-3.890944	member	-0.1326181
-3.890944	menu	-0.1287252
-3.890944	messages	-0.1038037
-3.890944	messaging	-0.1314767
-3.890944	method	-0.1308821
-3.890944	metro	-0.1327781
-3.718448	mexico	-0.1056383
-3.890944	michael	-0.1327508
-3.890944	midnight	-0.1071269
-3.406858	might	-0.2549689
-3.890944	mike	-0.1327781
-2.87411	million	-0.4170064
-3.718448	mind	-0.1044724
-3.890944	mine	-0.1071269
-3.890944	minimum	-0.1321163
-3.890944	minth	-0.1071269
-3.406858	minute	-0.1387881
-2.94831	minutes	-0.1440721
-3.890944	mny	-0.1327508
-3.303817	mo	-0.4472567
-3.890944	mobie	-0.1321619
-2.585789	mobile	-0.4357274
-3.890944	mom	-0.1071269
-3.303817	moment	-0.1474376
-3.890944	mon	-0.1071269
-3.890944	monday	-0.1071269
-3.890944	monethly	-0.1291391
-3.406858	money	-0.1746045
-3.890944	monrth	-0.1071269
-2.87411	month	-0.07947344
-3.890944	month's	-0.1318665
-2.585789	monthly	-0.2662745
-3.220596	months	-0.1213769
-3.890944	montly	-0.1291391
-2.390995	more	-0.2541751
-3.890944	moremonth	-0.1071269
-3.890944	morning	-0.1071269
-3.406858	most	-0.2002797
-3.890944	motnh	-0.1071269
-3.890944	move	-0.1236939
-3.718448	movie	-0.122902
-3.718448	movies	-0.1047155
-3.890944	movile	-0.1321619
-3.406858	mr	-0.1325288
-3.890944	muc	-0.1071269
-2.909628	much	-0.1220626
-3.890944	multiple	-0.1327508
-3.718448	must	-0.1312145
-2.051033	my	-0.5052127
-3.890944	myplan	-0.1071269
-3.890944	myself	-0.1053957
-3.890944	n	-0.1327781
-3.890944	nah	-0.1313853
-3.037854	name	-0.1874996
-3.890944	nana	-0.1303782
-3.890944	nasty	-0.1327508
-3.890944	nationwide	-0.1024733
-3.890944	nayway	-0.1071269
-3.890944	necessary	-0.1305157
-2.70645	need	-0.2090774
-3.406858	needed	-0.1734702
-3.890944	needing	-0.1250756
-3.150786	needs	-0.234951
-3.718448	netflix	-0.1242985
-3.890944	network	-0.1325806
-3.718448	networks	-0.2566821
-3.890944	never	-0.1327508
-3.037854	new	-0.304551
-3.890944	newer	-0.1313853
-3.890944	news	-0.1253538
-2.909628	next	-0.2753676
-3.406858	nice	-0.1270687
-3.406858	night	-0.1975314
-3.890944	nights	-0.1284491
-3.890944	nill	-0.1071269
-2.451018	nine	-0.3025227
-3.718448	nineteen	-0.1312145
-3.542212	ninety	-0.108151
-3.890944	niw	-0.1071269
-2.730273	no	-0.09580941
-3.718448	none	-0.1259221
-3.890944	nope	-0.09976698
-2.520689	not	-0.09928013
-3.406858	nothing	-0.1360413
-3.890944	nothings	-0.1306531
-3.890944	notice	-0.126095
-3.890944	november	-0.1279424
-2.379925	now	-0.259783
-3.890944	np	-0.1071269
-3.890944	nth	-0.1071269
-2.84128	number	-0.3546118
-3.890944	numbers	-0.1312481
-3.890944	o	-0.1327781
-1.998024	of	-0.3213995
-3.890944	ofcourse	-0.1071269
-3.303817	off	-0.1171327
-2.70645	offer	-0.2432397
-3.718448	offered	-0.1168925
-3.890944	offeres	-0.1306531
-3.542212	offering	-0.1104278
-2.909628	offers	-0.1703042
-3.890944	office	-0.1071269
-3.890944	officially	-0.1322988
-3.890944	offre	-0.1284491
-3.890944	offres	-0.1306531
-3.890944	often	-0.1313853
-3.542212	oh	-0.0833014
-3.890944	ohh	-0.1242055
-3.890944	ohly	-0.1279424
-2.84128	ok	-0.02030701
-2.585789	okay	-0.05984005
-3.890944	okaywe	-0.1296443
-3.890944	okthanks	-0.1071269
-3.890944	older	-0.1279424
-2.026133	on	-0.4766703
-1.950788	one	-0.4999214
-3.718448	ones	-0.2756502
-3.406858	online	-0.1362917
-3.890944	onlu	-0.1295984
-2.585789	only	-0.1240591
-3.890944	onth	-0.1071269
-3.406858	onto	-0.4886126
-3.890944	open	-0.1298279
-3.303817	option	-0.1143438
-3.09066	options	-0.08364934
-2.505832	or	-0.09416842
-3.890944	order	-0.1071269
-3.890944	ordered	-0.1286792
-3.09066	other	-0.1590643
-3.890944	ouch	-0.1279885
-2.683867	our	-0.1445777
-2.683867	out	-0.2658272
-3.890944	outstanding	-0.1325269
-3.890944	ouy	-0.1238211
-2.990778	over	-0.1425407
-3.303817	overage	-0.1602485
-3.542212	overages	-0.1046312
-3.542212	overall	-0.220584
-3.890944	overcharged	-0.1247971
-3.718448	owe	-0.09122515
-3.890944	owed	-0.1306073
-3.890944	own	-0.1286332
-3.890944	p	-0.1327781
-3.406858	package	-0.2217112
-3.890944	page	-0.1071269
-3.718448	paid	-0.1229486
-3.718448	pan	-0.1200954
-3.890944	pants	-0.1071269
-3.718448	part	-0.2780043
-3.890944	particular	-0.1071269
-3.890944	particularly	-0.1323901
-3.542212	pass	-0.168653
-3.890944	password	-0.1314767
-3.718448	past	-0.09901562
-3.890944	patient	-0.1326637
-3.150786	pay	-0.1587683
-3.542212	paying	-0.1246132
-3.220596	payment	-0.1307127
-3.718448	payments	-0.1054927
-3.406858	paypal	-0.1548646
-3.890944	pcs	-0.1305157
-3.890944	pefect	-0.1071269
-3.890944	pelase	-0.1071269
-3.890944	penalty	-0.1308363
-3.718448	people	-0.1257264
-2.273789	per	-0.6538892
-3.890944	percent	-0.1310651
-3.542212	perfect	-0.1054475
-3.890944	period	-0.09717596
-3.890944	permission	-0.1250756
-3.890944	person	-0.1071269
-2.75548	phone	-0.2515336
-3.890944	phone's	-0.1323901
-3.890944	photos	-0.1238211
-3.890944	picked	-0.1270197
-3.890944	pin	-0.1057838
-3.890944	plain	-0.1238211
-1.950788	plan	-0.2415508
-3.542212	plane	-0.1661407
-3.890944	planhow	-0.1322988
-3.890944	planning	-0.1250756
-2.477561	plans	-0.2995138
-3.890944	plany	-0.131888
-3.542212	play	-0.1236131
-3.890944	playapp	-0.1327093
-2.309455	please	-0.3752419
-3.890944	pleased	-0.1250756
-3.718448	plenty	-0.1253321
-3.542212	pls	-0.1704666
-3.890944	plus	-0.1279424
-3.890944	pm	-0.1314767
-3.718448	policy	-0.1064623
-3.718448	poor	-0.125297
-3.890944	portion	-0.1279885
-3.406858	possible	-0.1647552
-3.890944	possibly	-0.1238211
-3.890944	postdate	-0.1270197
-3.890944	prefer	-0.09889094
-3.890944	preferred	-0.1320706
-3.542212	premium	-0.1032186
-3.718448	prepaid	-0.1241126
-3.890944	prepay	-0.1071269
-3.542212	pretty	-0.2253633
-2.810757	price	-0.287225
-3.890944	prices	-0.1071269
-3.890944	pricey	-0.1305157
-3.890944	pricing	-0.1284491
-3.890944	pricy	-0.1071269
-3.890944	primary	-0.1327508
-3.890944	prior	-0.1250756
-3.890944	privacy	-0.1323901
-3.890944	privilege	-0.1250756
-3.890944	pro	-0.1327781
-3.890944	proactively	-0.1318423
-3.303817	probably	-0.1269742
-3.406858	problem	-0.1058329
-3.890944	probs	-0.1071269
-3.890944	proceed	-0.1071269
-3.890944	process	-0.126095
-3.890944	processing	-0.1301031
-3.890944	programmed	-0.1250756
-3.890944	programming	-0.1327508
-3.890944	project	-0.1327781
-3.718448	promo	-0.1243915
-3.890944	promotion	-0.1303904
-3.890944	promotional	-0.1319793
-3.890944	prompt	-0.1071269
-3.718448	proper	-0.1323525
-3.890944	prorated	-0.1321619
-2.94831	provide	-0.2157559
-3.718448	provided	-0.1270781
-3.220596	provider	-0.1930581
-3.718448	provider's	-0.2821277
-3.220596	provides	-0.1083584
-3.220596	pull	-0.4703092
-3.303817	pulled	-0.4059753
-3.542212	pulling	-0.3677154
-3.718448	purchase	-0.1015077
-3.890944	purchasing	-0.1322988
-3.890944	purposes	-0.1253538
-3.406858	put	-0.1821928
-3.890944	q	-0.1309736
-3.718448	quadrillion	-0.130482
-3.890944	qualify	-0.1247971
-3.890944	questin	-0.1323444
-2.94831	question	-0.1836894
-3.890944	questiona	-0.1327781
-2.810757	questions	-0.3149029
-3.718448	quick	-0.1302762
-3.890944	quickly	-0.1071269
-3.718448	quite	-0.1274474
-3.718448	range	-0.1058937
-3.718448	rate	-0.09826296
-3.890944	rated	-0.1247971
-3.890944	rates	-0.1315681
-3.890944	rather	-0.1326637
-3.718448	reached	-0.1257369
-3.890944	ready	-0.1250756
-3.890944	realize	-0.1184969
-3.09066	really	-0.09606444
-3.890944	reason	-0.1250756
-3.718448	reasonable	-0.1068012
-3.890944	reassurance	-0.1071269
-3.890944	receipt	-0.09889094
-3.406858	receive	-0.09120162
-3.890944	received	-0.1274352
-3.890944	reception	-0.1327781
-3.890944	recharge	-0.1071269
-3.890944	recieve	-0.1322532
-3.890944	recommend	-0.1298279
-3.890944	reconfirm	-0.1312024
-3.890944	recorded	-0.1303782
-3.542212	records	-0.1611721
-3.890944	reenter	-0.1274352
-3.890944	reference	-0.1071269
-3.890944	referring	-0.1250756
-3.890944	reflect	-0.1227278
-3.718448	reflected	-0.2200292
-3.220596	regarding	-0.3039092
-3.890944	regardless	-0.1071269
-3.542212	register	-0.2170579
-3.890944	regular	-0.1321619
-3.890944	regularly	-0.1071269
-3.890944	related	-0.1250756
-3.890944	reliable	-0.1325725
-3.890944	reload	-0.1327508
-3.718448	remain	-0.1269631
-3.890944	remainder	-0.1024733
-3.037854	remaining	-0.1824188
-3.890944	remains	-0.1287252
-3.890944	remaning	-0.1291391
-3.542212	remember	-0.1126295
-3.890944	remind	-0.1307905
-3.718448	renew	-0.1039369
-3.890944	rep	-0.1071269
-3.890944	repairs	-0.1071269
-3.890944	replacement	-0.1320706
-3.890944	representative	-0.1071269
-3.890944	represents	-0.1289552
-3.542212	request	-0.3433656
-3.890944	requested	-0.1270197
-3.890944	requests	-0.1238211
-3.718448	required	-0.09889094
-3.890944	requirements	-0.1247971
-3.718448	requires	-0.1257832
-3.890944	research	-0.1324813
-3.406858	reset	-0.1532677
-3.542212	resets	-0.2203898
-3.890944	resources	-0.1247971
-3.890944	rest	-0.1264312
-3.890944	restart	-0.1071269
-3.890944	restricted	-0.1250756
-3.890944	restrictions	-0.1287252
-3.718448	review	-0.1030105
-3.890944	rick	-0.1327781
-3.890944	riddance	-0.1071269
-2.451018	right	-0.581713
-3.890944	rip	-0.1326181
-3.890944	road	-0.1327781
-3.542212	roll	-0.3686288
-3.890944	rollover	-0.1323901
-3.890944	rough	-0.1327093
-3.718448	run	-0.1061717
-3.718448	running	-0.1249487
-3.890944	s	-0.1313853
-3.718448	same	-0.09797989
-3.718448	save	-0.2125154
-3.890944	saved	-0.1305615
-3.890944	saving	-0.1307905
-3.406858	say	-0.171671
-3.890944	says	-0.1071269
-3.890944	school	-0.1284491
-3.718448	scott	-0.1037421
-3.890944	seasons	-0.1253538
-3.220596	second	-0.1668928
-3.718448	security	-0.1322885
-2.810757	see	-0.232139
-3.542212	seeing	-0.1230967
-3.890944	seem	-0.1250756
-3.718448	seems	-0.1167369
-3.303817	send	-0.1586798
-3.890944	sense	-0.1279086
-3.890944	sent	-0.1238211
-3.890944	serve	-0.1306989
-2.810757	service	-0.2251012
-3.406858	services	-0.08540538
-3.890944	session	-0.1314767
-2.94831	set	-0.1486529
-3.890944	setting	-0.1297361
-2.990778	settings	-0.2897217
-2.402354	seven	-0.2580905
-3.890944	seventeen	-0.1325725
-3.542212	seventy	-0.1672172
-3.890944	several	-0.1318087
-3.718448	shall	-0.274909
-3.890944	shame	-0.1298279
-3.542212	share	-0.1253784
-3.890944	shared	-0.1291391
-3.890944	shares	-0.1324813
-3.890944	sharing	-0.126095
-3.890944	shop	-0.1327508
-3.718448	shortly	-0.1036933
-2.990778	should	-0.2917218
-3.303817	show	-0.2355828
-3.890944	showing	-0.1221553
-3.890944	shown	-0.1286332
-3.890944	shows	-0.126095
-2.87411	sign	-0.5784299
-3.220596	signed	-0.4010814
-3.890944	signing	-0.1238211
-3.890944	simple	-0.1321619
-3.406858	since	-0.1211514
-3.718448	single	-0.1322613
-2.438332	six	-0.4723164
-3.542212	sixteen	-0.1996154
-3.303817	sixty	-0.1578938
-3.718448	size	-0.1261073
-3.542212	slow	-0.1007233
-3.890944	slower	-0.1327093
-3.718448	small	-0.1318544
-3.890944	smartphone	-0.1323901
-3.890944	smartphone's	-0.1291391
-3.303817	smith	-0.1507011
-3.890944	smonth	-0.1071269
-2.379925	so	-0.2885952
-3.890944	solders	-0.1314767
-2.70645	some	-0.3556204
-3.542212	someone	-0.1048256
-3.890944	somethign	-0.1071269
-2.641943	something	-0.3609983
-3.890944	soon	-0.1071269
-2.87411	sorry	-0.3102595
-3.890944	sorrybut	-0.1298279
-3.303817	sound	-0.229026
-3.890944	sounding	-0.1071269
-3.09066	sounds	-0.2936125
-3.718448	source	-0.12033
-3.890944	speak	-0.1250756
-3.890944	speaking	-0.1250756
-3.406858	special	-0.1262823
-3.890944	specials	-0.1312938
-3.718448	specific	-0.1242055
-3.890944	specifically	-0.1071269
-3.890944	specify	-0.1071269
-3.890944	specifying	-0.1253538
-3.890944	specs	-0.1071269
-3.542212	speed	-0.1018754
-3.890944	speeds	-0.1071269
-3.890944	spend	-0.1327508
-3.890944	spending	-0.1071269
-3.890944	spent	-0.1298279
-3.890944	sponge	-0.1325269
-3.890944	ssn	-0.1071269
-3.890944	ssounds	-0.131888
-3.890944	st	-0.1292769
-3.718448	standard	-0.2238026
-3.890944	stands	-0.1310194
-3.890944	stars	-0.1071269
-3.09066	start	-0.1980079
-3.890944	started	-0.1319336
-3.303817	starting	-0.1272195
-3.718448	starts	-0.2811234
-3.890944	state	-0.1274352
-3.890944	statement	-0.1055898
-3.890944	status	-0.1071269
-3.542212	stay	-0.2236232
-3.890944	steep	-0.1327093
-3.890944	steiner	-0.1071269
-3.890944	stick	-0.1250756
-3.037854	still	-0.1631912
-3.542212	store	-0.2008218
-3.890944	stores	-0.1314767
-3.890944	stranger	-0.1326637
-3.890944	streaming	-0.1327781
-3.718448	student	-0.1283232
-3.718448	stuff	-0.1048614
-3.890944	subscribe	-0.1307905
-3.890944	subscription	-0.1071269
-3.890944	subtract	-0.1322075
-3.890944	successfully	-0.1325269
-3.718448	suggest	-0.1314664
-3.890944	suggesting	-0.1307905
-3.890944	suit	-0.1274352
-3.890944	summon	-0.1307905
-3.542212	super	-0.1320268
-3.890944	support	-0.1247971
-3.890944	suppose	-0.126095
-3.890944	supposed	-0.1250756
-2.683867	sure	-0.1028671
-3.890944	surego	-0.1250756
-3.890944	surf	-0.1247971
-3.890944	swear	-0.1253538
-3.890944	sweet	-0.1296443
-3.303817	switch	-0.3280627
-3.890944	switched	-0.1250756
-3.303817	system	-0.2518777
-3.890944	t	-0.1327508
-3.890944	tab	-0.1071269
-3.890944	tabs	-0.1287252
-3.890944	tahnk	-0.1238211
-2.87411	take	-0.2019885
-3.220596	talk	-0.1887513
-3.890944	talking	-0.1292769
-3.718448	talktext	-0.1185565
-3.890944	task	-0.1247971
-3.890944	technical	-0.1327093
-3.890944	telephone	-0.1279424
-3.890944	telk	-0.1238211
-2.70645	tell	-0.6187084
-3.718448	telling	-0.2733763
-3.890944	tellyou	-0.126095
-2.477561	ten	-0.4727683
-3.890944	terms	-0.1284491
-3.542212	terrible	-0.1995669
-2.990778	text	-0.1598172
-3.890944	textcalls	-0.1284491
-3.150786	texting	-0.2636312
-3.220596	texts	-0.1311474
-3.890944	tha's	-0.131431
-3.890944	tha'ts	-0.131431
-3.220596	than	-0.07413021
-2.402354	thank	-1.269285
-2.240832	thanks	-0.5190681
-3.890944	thans	-0.1071269
-1.812561	that	-0.2034273
-3.542212	that'll	-0.367624
-2.552021	that's	-0.3285872
-3.718448	thatnks	-0.2566821
-3.037854	thats	-0.1791715
-1.876198	the	-0.3055639
-3.718448	their	-0.1288754
-3.303817	them	-0.151097
-3.890944	themonth	-0.1071269
-2.426005	then	-0.3228011
-2.568577	there	-0.2605766
-3.150786	there's	-0.2486729
-3.542212	these	-0.1230035
-3.037854	they	-0.1098683
-3.718448	they'll	-0.2809405
-3.890944	thi	-0.1327781
-3.890944	thiese	-0.1323444
-3.718448	thing	-0.07342879
-3.406858	things	-0.1970525
-2.990778	think	-0.1806372
-3.037854	thirty	-0.1882464
-2.161299	this	-0.2921285
-3.890944	thks	-0.1071269
-3.890944	thnk	-0.1238211
-3.542212	those	-0.1053491
-2.990778	though	-0.267753
-3.890944	thoughor	-0.1286332
-3.890944	thought	-0.1035859
-2.94831	thousand	-0.4464746
-2.273789	three	-0.5066165
-3.890944	throttled	-0.1326637
-3.890944	throttling	-0.1071269
-3.542212	through	-0.1184623
-3.890944	thtat	-0.1071269
-3.718448	thx	-0.2566821
-3.890944	tier	-0.1235543
-3.890944	tiers	-0.126095
-3.037854	time	-0.108457
-3.890944	times	-0.1327508
-3.890944	tip	-0.1303324
-3.718448	tired	-0.2780043
-3.718448	tmobile	-0.1055898
-3.890944	tmy	-0.1279424
-1.751889	to	-0.3181702
-2.641943	today	-0.4689883
-3.890944	toll	-0.1306531
-3.890944	tom	-0.1326181
-3.303817	tomorrow	-0.2710857
-3.890944	ton	-0.1284491
-2.730273	too	-0.291968
-3.718448	top	-0.1024733
-2.87411	total	-0.1782724
-3.890944	tough	-0.1305157
-3.542212	track	-0.221922
-3.890944	tracking	-0.1326181
-3.890944	transfer	-0.1238211
-3.718448	trillion	-0.1283692
-3.890944	trip	-0.1071269
-3.890944	triple	-0.1286792
-3.890944	tripper	-0.1071269
-3.890944	trouble	-0.1327508
-3.890944	truly	-0.1301031
-3.718448	trust	-0.1306653
-3.303817	try	-0.2055172
-3.718448	trying	-0.1658936
-3.890944	tto	-0.1325725
-3.890944	turned	-0.1326181
-3.220596	twelve	-0.2160658
-2.683867	twenty	-0.3953494
-3.718448	twice	-0.1155794
-2.088479	two	-0.5907311
-3.542212	ty	-0.3433656
-3.890944	tyour	-0.1319793
-3.890944	type	-0.1242985
-3.890944	u	-0.1071269
-3.890944	uch	-0.1317052
-3.890944	ugh	-0.1326181
-3.890944	uh	-0.1322075
-3.890944	uis	-0.1286792
-3.890944	ulicall	-0.1279424
-3.890944	ultimate	-0.1273551
-3.890944	um	-0.1327508
-3.890944	umm	-0.1319336
-3.220596	unable	-0.6623443
-3.890944	unaware	-0.1253538
-3.890944	unchanged	-0.1071269
-3.037854	under	-0.1647134
-3.542212	understand	-0.1029029
-3.890944	unfortunate	-0.1071269
-3.150786	unfortunately	-0.166738
-3.890944	unfortunatlly	-0.1313853
-3.890944	unforutnately	-0.1253538
-3.890944	unhelpful	-0.1071269
-3.406858	unless	-0.2802806
-3.303817	unli	-0.1500666
-3.890944	unlicall	-0.1292769
-2.202868	unlimited	-0.453266
-3.890944	unlimted	-0.1322532
-3.406858	until	-0.2432264
-3.890944	uop	-0.1071269
-2.505832	up	-0.2568661
-3.890944	updat	-0.1250756
-2.990778	update	-0.2495017
-3.150786	updated	-0.1549984
-3.542212	updating	-0.3636739
-2.451018	upgrade	-0.3742714
-3.890944	upgradebot	-0.1071269
-2.909628	upgraded	-0.1905102
-3.890944	upgrader	-0.132025
-2.94831	upgrading	-0.4791551
-3.718448	upon	-0.2819453
-3.890944	uprgrade	-0.1325269
-3.542212	us	-0.1264897
-3.150786	usage	-0.1495735
-3.220596	usd	-0.2295508
-2.909628	use	-0.1158836
-2.87411	used	-0.1968638
-3.890944	useful	-0.1319336
-3.890944	useless	-0.1071269
-3.718448	user	-0.1273551
-3.890944	users	-0.1295984
-3.890944	uses	-0.1278502
-2.909628	using	-0.1185248
-3.890944	vacation	-0.1071269
-3.890944	valued	-0.1317052
-3.890944	verification	-0.1071269
-3.890944	verify	-0.1305157
-3.890944	verizon	-0.1299655
-3.890944	verrrry	-0.1323901
-2.990778	very	-0.2077236
-3.890944	veterans	-0.1071269
-3.890944	via	-0.1326637
-3.890944	view	-0.1269858
-3.890944	virgin	-0.1317052
-3.406858	visa	-0.1991405
-3.890944	visiting	-0.1274352
-3.718448	voice	-0.1356403
-3.890944	w	-0.1295984
-3.890944	waht	-0.1071269
-3.220596	wait	-0.09199661
-3.406858	waiting	-0.2697361
-3.890944	wally	-0.1312938
-3.718448	wan	-0.1250187
-3.890944	wanna	-0.1298064
-2.94831	want	-0.1999169
-3.542212	wanted	-0.2160785
-3.890944	wanting	-0.1250756
-3.890944	wants	-0.1306531
-3.150786	was	-0.1054376
-3.890944	waste	-0.1286792
-3.718448	watch	-0.1210348
-3.890944	watching	-0.1219685
-3.037854	way	-0.2285195
-3.890944	ways	-0.1305615
-2.402354	we	-0.5522035
-3.303817	we're	-0.1759383
-3.890944	we've	-0.1327781
-3.890944	web	-0.09859518
-3.220596	website	-0.0785571
-3.890944	wee	-0.1238211
-3.718448	week	-0.1705644
-3.890944	weekend	-0.1071269
-3.890944	weekends	-0.1306531
-3.890944	weekly	-0.1326181
-3.890944	weeks	-0.09755845
-3.890944	weith	-0.1306531
-3.890944	welcoe	-0.1071269
-3.037854	welcome	-0.2685207
-3.890944	welcomke	-0.1071269
-3.150786	well	-0.1117476
-3.890944	welomce	-0.1071269
-3.718448	went	-0.129886
-3.718448	were	-0.1233109
-2.161299	what	-0.4553097
-3.09066	what's	-0.4626424
-3.890944	whatever	-0.1238211
-3.406858	whats	-0.218979
-2.94831	when	-0.3628507
-2.909628	where	-0.1983025
-2.909628	which	-0.3171067
-3.406858	while	-0.1927525
-3.406858	who	-0.196845
-3.890944	whole	-0.132174
-3.037854	why	-0.2018265
-3.890944	wide	-0.1327508
-3.890944	wife	-0.1325806
-3.890944	wifi	-0.1323444
-3.890944	wilk	-0.1325725
-2.348314	will	-0.2876441
-3.890944	wireless	-0.1327508
-3.542212	wish	-0.3613143
-3.890944	wit	-0.1289552
-2.195657	with	-0.2536288
-3.890944	within	-0.1274352
-3.220596	without	-0.1639772
-3.542212	won't	-0.1965647
-3.718448	wonderful	-0.09678002
-3.406858	wondering	-0.2265737
-3.890944	wont	-0.1297361
-3.220596	work	-0.1207797
-3.542212	working	-0.2221983
-3.890944	world	-0.1279321
-3.542212	worried	-0.1204362
-3.890944	worries	-0.1037421
-3.890944	worry	-0.1309736
-3.718448	worth	-0.126801
-3.890944	woul	-0.126095
-2.282435	would	-0.5134819
-3.890944	wouldnt	-0.1327508
-3.542212	wow	-0.1246135
-3.890944	write	-0.1278502
-3.890944	wuill	-0.1327508
-3.890944	wwwphonecompanythatyouusecomaccount	-0.1071269
-3.890944	xxtentacion1sd3ad	-0.1071269
-3.890944	ya	-0.1326637
-3.890944	yea	-0.1247971
-3.718448	yeah	-0.1033145
-3.718448	year	-0.08246078
-3.718448	yep	-0.1016676
-2.94831	yes	-0.006757539
-3.890944	yesi	-0.1295984
-3.890944	yesthat	-0.1279885
-3.718448	yet	-0.1268132
-3.890944	yikes	-0.1313853
-3.890944	yiu	-0.1323444
-3.890944	yo	-0.1319793
-3.890944	yoo	-0.1310194
-1.687425	you	-0.1562375
-3.406858	you'd	-0.1984073
-3.890944	you'll	-0.1321619
-2.84128	you're	-0.2129416
-3.037854	you've	-0.3688109
-1.908189	your	-0.488186
-3.890944	yourdata	-0.1315681
-3.890944	youre	-0.1324357
-3.890944	yourself	-0.1314767
-3.890944	youtube	-0.126801
-3.890944	yup	-0.1253538
-3.718448	yxyz	-0.1068495
-2.87411	zero	-0.2241493
-3.890944	zoinks	-0.1312481

\2-grams:
-0.5792008	'm planning
-0.5792008	's the
-0.5792008	0 fifty
-0.5792008	1g limit
-1.165605	1gb </s>
-1.165605	1gb a	-0.1732504
-1.165605	1gb and
-1.165605	1gb data	-0.19049
-1.725329	1gb for
-1.725329	1gb of
-0.9112248	1gb plan	-0.2735714
-1.725329	1gb six
-0.5792008	1mb left
-0.242218	1st </s>
-0.8802308	1tb a	-0.1732504
-0.8802308	1tb of
-0.8802308	2g in
-0.8802308	2g per
-1.126825	2gb </s>
-1.381205	2gb a	-0.1732504
-1.381205	2gb and
-1.381205	2gb data
-1.126825	2gb for
-1.940929	2gb i
-1.940929	2gb left
-1.940929	2gb mobile
-1.126825	2gb of	-0.3842137
-1.940929	2gb per
-0.9275541	2gb plan	-0.159725
-0.8802308	2mb </s>
-0.8802308	2mb is
-0.5792008	3 </s>
-0.5792008	3g's a
-1.579201	3gb </s>
-1.579201	3gb a
-1.579201	3gb left
-0.7650967	3gb of	-0.3842137
-1.019477	3gb per	0.2476655
-1.579201	3gb with
-1.579201	3gb you
-0.5792008	3rd </s>
-1.181261	4g but
-0.621537	4g network
-1.181261	4g plan
-1.165605	4gb </s>
-1.165605	4gb a	-0.1732504
-1.725329	4gb and
-1.165605	4gb for
-1.725329	4gb of
-0.575874	4gb per	-0.06287181
-1.725329	4gb plan
-1.278171	5 a
-1.278171	5 extra
-0.718447	5 more
-1.278171	5 you
-0.5792008	5g per
-1.165605	5gb </s>
-1.725329	5gb a
-1.725329	5gb cap
-0.9112248	5gb left
-1.165605	5gb of	-0.259275
-1.165605	5gb plan
-1.725329	5gb shared	-0.1051898
-1.725329	5gb sure
-1.725329	5gb yes
-0.8802308	5mb a
-0.8802308	5mb plan
-0.8802308	6 gigs
-0.8802308	6 per
-1.056322	6gb data
-1.056322	6gb of	-0.1705864
-1.056322	6gb per
-0.5792008	7gb left
-0.5792008	8 per	0.2476655
-0.922567	8gb </s>
-1.482291	8gb changes
-1.482291	8gb data	-0.19049
-1.482291	8gb for	-0.219486
-1.482291	8gb left
-0.922567	8gb per
-0.5792008	9 you
-0.8802308	9gb this
-0.8802308	9gb you
-4.324978	<s> 'm
-3.311604	<s> 2gb	-0.1856407
-3.765254	<s> 2mb
-4.324978	<s> 3gb
-3.311604	<s> 5gb	-0.420929
-4.324978	<s> 8gb
-4.324978	<s> 9gb
-3.765254	<s> a
-3.175523	<s> about	0.02060417
-3.175523	<s> absolutely	0.01189324
-4.324978	<s> access
-3.765254	<s> account
-3.765254	<s> acct
-3.765254	<s> actually
-4.324978	<s> add
-4.324978	<s> adding
-3.510874	<s> ah	-0.0820885
-2.758222	<s> all	-0.238179
-4.324978	<s> allow
-4.324978	<s> already
-1.90871	<s> alright	-0.1958718
-4.324978	<s> alrighti
-3.765254	<s> am	-0.1816916
-3.510874	<s> an
-2.858299	<s> and	-0.1219324
-3.510874	<s> any
-4.324978	<s> anyrhing
-2.577942	<s> anything	-0.5263318
-3.311604	<s> anytime	-0.2064408
-4.324978	<s> anyway
-4.324978	<s> applying
-4.324978	<s> appreciate
-2.408967	<s> are	-0.6385574
-4.324978	<s> as
-3.765254	<s> at
-4.324978	<s> aw
-2.858299	<s> awesome	-0.136592
-4.324978	<s> awesone
-4.324978	<s> awh
-4.324978	<s> based
-3.510874	<s> because
-4.324978	<s> bob
-3.510874	<s> budget	-0.0443232
-4.324978	<s> bummer
-2.676941	<s> but	-0.08257596
-4.324978	<s> by
-2.805384	<s> bye	-0.1768172
-4.324978	<s> byye
-1.405894	<s> can	-1.549019
-2.641375	<s> certainly	-0.3931153
-4.324978	<s> changes
-4.324978	<s> changing
-3.510874	<s> check	-0.1170504
-2.918568	<s> checking	-0.07573195
-3.765254	<s> click
-4.324978	<s> confirmed
-3.175523	<s> consider	-0.266172
-3.311604	<s> cool
-4.324978	<s> correct
-2.988569	<s> could	-0.5993202
-4.324978	<s> credit
-3.175523	<s> currently	-0.1666375
-4.324978	<s> cvc
-3.311604	<s> cya	-0.3188172
-4.324978	<s> data
-4.324978	<s> detail
-4.324978	<s> did
-2.192896	<s> do	-0.6868007
-3.072063	<s> does	-0.06148975
-4.324978	<s> don't
-2.497374	<s> done	-0.2033702
-3.765254	<s> double	-0.2121578
-4.324978	<s> doublecheck
-4.324978	<s> doubling
-3.765254	<s> due	-0.1892456
-4.324978	<s> each
-3.765254	<s> ehh
-3.175523	<s> eight	-0.1481988
-3.510874	<s> enjoy	-0.03192903
-3.510874	<s> every	0.40095
-4.324978	<s> exactly
-3.510874	<s> excellent	-0.0820885
-4.324978	<s> expiration
-4.324978	<s> fantastic
-3.765254	<s> fifteen
-3.072063	<s> fifty	-0.1187716
-3.175523	<s> first
-2.408967	<s> five	-0.2415072
-2.577942	<s> for	-0.103705
-4.324978	<s> forty
-2.450925	<s> four	-0.1399614
-3.765254	<s> fourteen
-3.175523	<s> free	-0.01897201
-4.324978	<s> gigabyte
-4.324978	<s> gigabytes
-3.765254	<s> give
-2.758222	<s> glad	-0.2079969
-2.988569	<s> go	-0.1946552
-3.311604	<s> good	-0.07312141
-2.988569	<s> goodbye	0.01312461
-3.510874	<s> got	-0.1073861
-4.324978	<s> gray
-1.802691	<s> great	-0.2359029
-4.324978	<s> guess
-4.324978	<s> haha
-4.324978	<s> halo
-2.146795	<s> have	-1.177112
-1.03001	<s> hello	-1.469149
-4.324978	<s> helloi
-2.641375	<s> help	-0.957576
-4.324978	<s> heo
-2.497374	<s> hey	-0.09435775
-4.324978	<s> hhey
-1.878206	<s> hi	-0.6371059
-3.510874	<s> hm
-3.510874	<s> hmm
-4.324978	<s> hmmm
-4.324978	<s> hmmthat
-3.765254	<s> hope	-0.2019632
-1.386478	<s> how	-0.5913541
-4.324978	<s> however
-4.324978	<s> huh
-4.324978	<s> hum
-0.905221	<s> i	-0.6522849
-2.389416	<s> i'd	-0.5908887
-2.608501	<s> i'll	-0.1086216
-1.941518	<s> i'm	-0.3691461
-2.918568	<s> i've	-0.08118342
-4.324978	<s> iam
-4.324978	<s> id
-4.324978	<s> idk
-2.522605	<s> if	-0.3197723
-4.324978	<s> ill
-2.988569	<s> im	-0.2291865
-4.324978	<s> in
-4.324978	<s> indeed
-2.105122	<s> is	-0.7519614
-2.180904	<s> it	-0.3912681
-2.522605	<s> it's	-0.1208763
-3.311604	<s> its
-4.324978	<s> jack
-4.324978	<s> jorge
-2.988569	<s> just
-4.324978	<s> later
-4.324978	<s> lee
-3.072063	<s> let	-0.2713984
-3.311604	<s> let's	0.05781618
-4.324978	<s> letme
-4.324978	<s> lets
-4.324978	<s> likewise
-3.765254	<s> look
-4.324978	<s> looking
-3.765254	<s> looks	0.04436537
-3.175523	<s> may	-0.3453081
-3.765254	<s> maybe
-4.324978	<s> metro
-4.324978	<s> mike
-4.324978	<s> minutes
-4.324978	<s> money
-2.230997	<s> my	-0.2511129
-4.324978	<s> n
-4.324978	<s> nah
-3.765254	<s> name
-2.473529	<s> need	-0.4154259
-4.324978	<s> never
-4.324978	<s> nice
-3.311604	<s> nine
-1.559054	<s> no	-0.610823
-4.324978	<s> none
-2.805384	<s> nope	-0.2057717
-2.715683	<s> not	-0.151959
-2.918568	<s> nothing	-0.2802203
-4.324978	<s> nothings
-4.324978	<s> now
-3.510874	<s> np	-0.1938784
-2.858299	<s> of	-0.8010748
-4.324978	<s> offers
-2.023822	<s> oh	-0.2909644
-3.510874	<s> ohh	-0.0820885
-1.357112	<s> ok	-0.3950537
-1.235611	<s> okay	-0.4620511
-4.324978	<s> okaywe
-4.324978	<s> okthanks
-3.072063	<s> on	-0.05413946
-2.049268	<s> one	-0.1644991
-3.311604	<s> only
-4.324978	<s> ouch
-3.175523	<s> our	-0.258308
-4.324978	<s> out
-4.324978	<s> paypal
-2.758222	<s> perfect	-0.1058666
-2.758222	<s> plan	-0.08561601
-4.324978	<s> plane
-2.169234	<s> please	-0.2482255
-4.324978	<s> pls
-4.324978	<s> possibly
-4.324978	<s> probably
-3.311604	<s> pull	-0.1227543
-4.324978	<s> pulling
-2.858299	<s> really	-0.1728681
-4.324978	<s> remember
-4.324978	<s> rick
-4.324978	<s> right
-4.324978	<s> second
-4.324978	<s> set
-3.510874	<s> seven
-4.324978	<s> seventeen
-4.324978	<s> shall
-4.324978	<s> shame
-4.324978	<s> show
-4.324978	<s> sign
-2.715683	<s> six	-0.03516939
-4.324978	<s> smith
-2.641375	<s> so	-0.07590132
-4.324978	<s> something
-2.335548	<s> sorry	-0.3257839
-4.324978	<s> sound
-2.676941	<s> sounds	-0.3848583
-1.441034	<s> sure	-0.4356319
-4.324978	<s> sweet
-4.324978	<s> tahnk
-2.858299	<s> ten	-0.4296898
-4.324978	<s> terrible
-4.324978	<s> texting
-4.324978	<s> tha'ts
-1.849706	<s> thank	-0.5200223
-1.872355	<s> thanks	-0.158842
-1.884138	<s> that	-0.636263
-3.765254	<s> that'll	0.1310489
-2.067099	<s> that's	-0.2240532
-4.324978	<s> thatnks
-2.641375	<s> thats	-0.05344959
-2.217921	<s> the	-0.1980225
-3.072063	<s> then	-0.06343672
-2.522605	<s> there	-0.5250407
-3.765254	<s> there's	-0.1157631
-3.765254	<s> they
-3.510874	<s> thirty
-3.175523	<s> this	-0.0478076
-4.324978	<s> though
-2.758222	<s> three	-0.1489274
-4.324978	<s> thx
-4.324978	<s> tmobile
-4.324978	<s> to
-4.324978	<s> today
-4.324978	<s> tom
-3.765254	<s> twelve
-3.311604	<s> twenty	-0.08740938
-2.370708	<s> two	-0.01287295
-4.324978	<s> ty
-4.324978	<s> ugh
-4.324978	<s> uh
-4.324978	<s> um
-4.324978	<s> umm
-2.429439	<s> unfortunately	-0.3614241
-4.324978	<s> unfortunatlly
-4.324978	<s> unforutnately
-4.324978	<s> unless
-3.765254	<s> unli
-2.918568	<s> unlimited	-0.1522329
-4.324978	<s> update
-2.918568	<s> upgrade	-0.2555087
-4.324978	<s> upgradebot
-4.324978	<s> upgraded
-3.311604	<s> upgrading	-0.09569311
-4.324978	<s> upon
-4.324978	<s> verizon
-4.324978	<s> very
-4.324978	<s> wait
-4.324978	<s> waiting
-4.324978	<s> wally
-4.324978	<s> want
-2.28763	<s> we	-0.2224415
-4.324978	<s> we're
-4.324978	<s> wee
-2.608501	<s> welcome	-0.6177716
-2.352772	<s> well	-0.0961566
-1.664007	<s> what	-0.1183621
-2.608501	<s> what's	-0.1151695
-3.175523	<s> whats	-0.1389183
-2.715683	<s> when	-0.0588114
-3.765254	<s> where
-2.918568	<s> which	-0.2010107
-4.324978	<s> who
-2.577942	<s> why	-0.1808265
-2.988569	<s> will	-0.1589823
-3.175523	<s> with	-0.07748512
-3.765254	<s> wonderful
-2.389416	<s> would	-0.7518682
-2.549393	<s> wow	-0.1086841
-4.324978	<s> yea
-2.676941	<s> yeah	-0.02025442
-3.510874	<s> yep
-1.280815	<s> yes	-0.5485032
-4.324978	<s> yesi
-4.324978	<s> yesthat
-4.324978	<s> yikes
-4.324978	<s> yoo
-1.346593	<s> you	-0.6841162
-1.921537	<s> you're	-0.8328904
-3.175523	<s> you've	-0.01944364
-1.844223	<s> your	-0.448355
-3.311604	<s> youre	-0.3188172
-4.324978	<s> yup
-4.324978	<s> yxyz
-4.324978	<s> zero
-4.324978	<s> zoinks
-2.188343	a 2gb	-0.2721054
-3.002447	a 4gb
-3.002447	a 5gb
-3.002447	a </s>
-3.002447	a also
-3.002447	a and
-3.002447	a bargain
-3.002447	a basic	-0.1458495
-1.989072	a better	-0.1551928
-2.442723	a big
-1.852992	a bit	-0.04231399
-1.989072	a bot	-0.214342
-3.002447	a brand
-3.002447	a bunch
-2.442723	a card
-3.002447	a cell
-3.002447	a certain
-3.002447	a charge
-2.188343	a cheaper
-2.442723	a confirmation	-0.2145102
-2.442723	a couple
-3.002447	a coupon
-3.002447	a credit
-2.442723	a current
-3.002447	a customer
-1.989072	a data	-0.1220486
-3.002447	a day	-0.08663312
-2.188343	a deal
-1.989072	a different
-3.002447	a direct
-3.002447	a discount
-3.002447	a double
-3.002447	a eighteen
-3.002447	a family
-3.002447	a fee
-3.002447	a few
-3.002447	a five
-3.002447	a flat
-2.188343	a four
-2.188343	a free
-3.002447	a fresh
-3.002447	a g
-3.002447	a gigabyte
-1.749532	a good	-0.6712458
-1.749532	a great	-0.782763
-3.002447	a has
-3.002447	a higher
-2.442723	a huge	-0.06297767
-3.002447	a i
-3.002447	a inquiry
-3.002447	a is
-3.002447	a jitterbug
-3.002447	a late
-3.002447	a limit
-3.002447	a link
-2.442723	a little
-3.002447	a live
-3.002447	a look
-1.43569	a lot	-0.1918711
-3.002447	a major
-3.002447	a manager
-3.002447	a match
-2.442723	a minute	-0.2185186
-2.188343	a mo	-0.03190568
-2.188343	a mobile	-0.04959266
-2.188343	a moment	-0.1169451
-3.002447	a mon
-0.8583724	a month	-0.5540321
-3.002447	a monthly
-3.002447	a more
-3.002447	a movile
-3.002447	a nasty
-1.852992	a new	0.06594554
-3.002447	a nice	-0.9396341
-2.188343	a number	-0.2170403
-1.989072	a one	-0.1579982
-3.002447	a package
-3.002447	a phone
-1.28597	a plan	-0.5697455
-3.002447	a please	-0.08923557
-3.002447	a pretty
-2.442723	a problem	-0.1130299
-3.002447	a promo
-2.442723	a promotion	-0.0820885
-3.002447	a promotional
-3.002447	a proper
-1.989072	a prorated	-0.4157272
-3.002447	a provides
-3.002447	a q	-0.1051898
-1.989072	a question	-0.6171671
-3.002447	a questiona
-3.002447	a questions
-3.002447	a quick
-3.002447	a rep
-3.002447	a replacement
-3.002447	a request	0.1310489
-2.442723	a rip	-0.1051898
-3.002447	a rough
-3.002447	a second
-3.002447	a seven
-3.002447	a single
-3.002447	a slow
-3.002447	a slower
-1.852992	a special	-0.07366723
-3.002447	a specific
-3.002447	a store
-3.002447	a student
-3.002447	a super
-3.002447	a thirty
-3.002447	a to
-3.002447	a ton
-1.989072	a total	-0.3761403
-3.002447	a truly
-2.442723	a two	-0.1131689
-3.002447	a user
-3.002447	a valued
-2.442723	a very	-0.2274933
-3.002447	a visa
-2.442723	a way
-2.442723	a week	0.01573052
-3.002447	a wide
-3.002447	a with
-3.002447	a wonderful	-0.5086335
-2.442723	a year
-0.5792008	abilities so
-0.05960676	able to	-0.2943265
-0.5792008	abou tmy
-1.417085	about </s>
-1.870735	about a
-2.430459	about checking
-1.870735	about data
-2.430459	about doubling
-2.430459	about finding
-2.430459	about for
-1.870735	about going	-0.1275248
-1.281004	about it	-0.3990701
-0.6834235	about my	-0.4451551
-2.430459	about one
-2.430459	about phone
-2.430459	about price
-2.430459	about something
-2.430459	about texting
-2.430459	about that
-1.870735	about the
-1.870735	about them	-0.1458495
-2.430459	about three
-1.870735	about to
-2.430459	about twenty
-1.870735	about two
-2.430459	about unlimited
-1.281004	about upgrading	0.01838376
-1.870735	about what
-2.430459	about why
-0.8637027	about your	-0.1467401
-0.718447	absolutely </s>
-1.278171	absolutely i
-1.278171	absolutely what
-1.278171	absolutely you
-0.5792008	accept that
-1.098658	access how	0.04866813
-1.658382	access information
-1.658382	access plan
-1.658382	access that	-0.221297
-1.658382	access the
-1.658382	access to	-0.2060165
-0.5089272	access your	-0.1233976
-0.320507	accessing your	-0.1839985
-0.5792008	according to
-0.5792008	accordingly </s>
-1.100124	account </s>
-1.876809	account and	-0.09738094
-2.436533	account at
-2.436533	account before
-1.876809	account but
-2.436533	account comes
-2.436533	account details
-2.436533	account directly
-1.876809	account for	-0.1520467
-2.436533	account from
-2.436533	account go
-1.876809	account has
-2.436533	account have
-2.436533	account here	-0.1560802
-2.436533	account home
-2.436533	account hope
-2.436533	account however
-1.876809	account if	-0.09618457
-2.436533	account in
-2.436533	account info
-1.423159	account information	-0.05412903
-1.876809	account is	-0.03578622
-2.436533	account it
-2.436533	account may
-2.436533	account name
-2.436533	account now	0.03798228
-0.9169393	account number	-0.6191849
-2.436533	account on
-2.436533	account one
-2.436533	account online
-1.876809	account please	-0.1674683
-2.436533	account problem
-2.436533	account pulled	-0.05531707
-2.436533	account says
-1.876809	account settings	-0.01975963
-2.436533	account status
-1.876809	account to
-2.436533	account today
-2.436533	account unfortunately
-1.876809	account up	0.01598062
-2.436533	account what	-0.2663054
-2.436533	account will
-2.436533	account without
-2.436533	account you
-0.5792008	accountks </s>
-1.482291	acct </s>
-1.482291	acct and
-1.482291	acct eighty
-1.482291	acct go	-0.1845647
-1.482291	acct is
-0.922567	acct number
-1.482291	acct sure
-0.5792008	accurate </s>
-0.8802308	activate it
-0.8802308	activate shortly
-0.5792008	activated </s>
-0.5792008	activation charge
-1.693144	actually a
-1.693144	actually can't
-1.693144	actually double
-1.693144	actually have
-1.13342	actually how	0.04866813
-1.693144	actually looking
-1.693144	actually right
-1.693144	actually tell
-1.693144	actually that
-1.693144	actually used
-1.693144	actually yes
-1.693144	actually you
-2.181261	add 1gb
-2.181261	add 2gb
-1.621537	add </s>
-2.181261	add a
-1.367157	add an	-0.04089391
-1.621537	add another
-2.181261	add data
-1.621537	add five
-2.181261	add four
-2.181261	add free
-1.167886	add it	-0.1651478
-1.367157	add more	-0.005474302
-2.181261	add payment
-1.367157	add that	-0.3669969
-1.367157	add the	-0.09034625
-2.181261	add these
-1.367157	add this	-0.1357322
-2.181261	add three
-1.621537	add to
-2.181261	add two
-1.367157	add unlimited	-0.1027135
-1.620593	added 2gb
-1.06087	added </s>
-1.620593	added charge
-1.620593	added gb
-1.06087	added that	-0.2165001
-1.06087	added the
-1.620593	added to
-1.620593	added too
-1.056322	adding a
-1.056322	adding ten
-1.056322	adding unlimited
-1.056322	addition one
-1.056322	addition three
-1.056322	addition to
-1.80965	additional 5
-1.80965	additional 8	-0.1051898
-1.80965	additional a
-1.80965	additional dab
-1.249926	additional data
-1.80965	additional five
-1.80965	additional four	-0.1119714
-1.80965	additional information
-1.80965	additional line
-1.80965	additional nine
-1.80965	additional one	-0.6765082
-1.80965	additional plans
-1.80965	additional ten	-0.4803788
-1.80965	additional to
-1.80965	additional twenty
-1.80965	additional two	-0.3240822
-0.8802308	address </s>
-0.8802308	address for
-0.5792008	adjust my	-0.2017314
-0.5792008	advice </s>
-0.5792008	affair my
-0.5792008	affect right
-0.5792008	affective immediately
-1.181261	afraid i
-1.181261	afraid i'm
-1.181261	afraid of
-1.181261	afraid you
-1.181261	after i
-1.181261	after that
-0.621537	after the
-0.6681867	again </s>
-1.482291	again by
-1.482291	again huh
-1.482291	again i
-1.482291	again i'm
-1.482291	again tomorrow
-0.8802308	agent if
-0.8802308	agent who
-0.8802308	ah i
-0.8802308	ah well
-0.7976283	ahead </s>
-0.543248	ahead and	-0.1152619
-1.357352	ahead please
-0.8802308	alert for
-0.8802308	alert if
-0.9581205	all </s>
-2.364531	all access
-2.364531	all bye
-2.364531	all day
-1.550427	all done	-0.09767197
-1.215076	all for	-0.573849
-1.215076	all i	-0.3905304
-2.364531	all mobile
-1.804807	all networks	-0.0443232
-1.550427	all of
-2.364531	all right	-0.100105
-0.9581205	all set	-0.1018267
-1.351156	all thank	0.341675
-1.351156	all thanks	-0.208495
-2.364531	all thans
-2.364531	all that
-2.364531	all thatnks
-1.215076	all the	-0.2893309
-2.364531	all this
-2.364531	all today
-2.364531	all used
-2.364531	all you've	-0.136178
-1.804807	all your
-1.181261	allocated 2gb
-1.181261	allocated data
-1.181261	allocated each
-1.181261	allocated the
-1.278171	allotment and
-0.718447	allotment for	-0.219486
-1.278171	allotment now
-1.278171	allotment of
-1.181261	allotted amount
-1.181261	allotted data
-1.181261	allotted gigs
-1.181261	allotted per
-0.3671567	allow me	-0.09882346
-1.181261	allow unlimited
-0.7193393	allowance </s>
-1.533443	allowance do
-0.9737195	allowance for
-0.9737195	allowance is
-1.533443	allowance then
-1.019477	allowed </s>
-1.579201	allowed amount
-1.019477	allowed each	0.2405939
-1.019477	allowed on	-0.1648161
-1.579201	allowed one
-1.579201	allowed per
-1.579201	allowed to
-0.5792008	allowing you
-1.482291	allows an
-1.482291	allows and
-0.922567	allows for
-0.922567	allows me	-0.1934007
-1.482291	allows one
-1.482291	allows you
-0.320507	almost out
-0.5792008	alone plan
-0.242218	along with	-0.1324735
-0.9692167	already </s>
-1.783321	already as
-1.783321	already for
-1.783321	already had
-1.783321	already has
-1.783321	already have	-0.3147899
-1.783321	already includes
-1.783321	already know	-0.1825789
-1.783321	already okay
-1.783321	already on
-1.783321	already upgraded
-0.9692167	already used	-0.04517321
-1.333298	alright </s>
-1.587679	alright and
-2.147403	alright anything
-2.147403	alright can
-2.147403	alright checking
-2.147403	alright did
-2.147403	alright fair
-2.147403	alright glad
-2.147403	alright go
-2.147403	alright great
-2.147403	alright have	-0.2737545
-2.147403	alright how	0.1209686
-2.147403	alright i	-0.03798144
-1.587679	alright i'll
-2.147403	alright i'm
-2.147403	alright i've
-2.147403	alright no
-2.147403	alright processing
-2.147403	alright shall
-2.147403	alright thank	0.9059464
-2.147403	alright thanks	0.07432535
-2.147403	alright that
-1.587679	alright then
-2.147403	alright there
-2.147403	alright this
-2.147403	alright we	-0.06498862
-2.147403	alright welcome
-2.147403	alright what
-2.147403	alright whatever
-2.147403	alright when
-2.147403	alright you
-2.147403	alright your
-0.5792008	alrighti have
-1.959412	also </s>
-1.959412	also are
-1.959412	also call
-1.959412	also choose
-1.399688	also double
-1.959412	also features
-1.399688	also get
-1.959412	also gives
-1.399688	also have
-1.959412	also help
-1.959412	also include
-1.399688	also includes
-1.959412	also like
-1.959412	also offer
-1.959412	also offers
-1.959412	also on
-1.959412	also one
-1.959412	also see
-1.959412	also updat
-1.959412	also wanted
-0.8802308	always close
-0.8802308	always make
-1.691575	am </s>
-2.251299	am a
-2.251299	am able	0.3433903
-2.251299	am allocated
-2.251299	am allowed
-2.251299	am always
-2.251299	am cathy
-2.251299	am concerned
-2.251299	am currently
-2.251299	am fine	-0.202722
-2.251299	am from
-2.251299	am getting
-2.251299	am glad
-2.251299	am going
-2.251299	am good
-2.251299	am happy	-0.03909382
-2.251299	am having
-2.251299	am here	-0.3170692
-0.9148898	am i	-0.1539829
-2.251299	am interested
-2.251299	am learning
-2.251299	am looking
-2.251299	am not	-0.3384883
-2.251299	am okay
-2.251299	am only	-0.1008568
-2.251299	am onth
-2.251299	am pleased
-2.251299	am pulling	0.1310489
-2.251299	am required
-2.251299	am signing
-2.251299	am sorry	-0.05070169
-2.251299	am sure	-0.1132048
-2.251299	am thanks
-2.251299	am tired
-2.251299	am to
-2.251299	am unable	-0.7815484
-2.251299	am upgrade
-2.251299	am using
-2.251299	am waiting
-2.251299	am wondering
-0.5792008	amazeywazy plan
-0.5792008	amazing deals
-0.5792008	american express
-1.156891	amount </s>
-2.170265	amount and
-2.170265	amount but
-2.170265	amount by
-0.9173503	amount for	-0.4459725
-2.170265	amount hello
-2.170265	amount in
-1.610542	amount included	-0.04200616
-1.356161	amount is
-0.8338565	amount of	-0.911577
-2.170265	amount okay
-2.170265	amount on
-2.170265	amount one
-2.170265	amount per
-2.170265	amount remaining
-2.170265	amount so
-2.170265	amount that
-2.170265	amount though
-1.356161	amount to	-0.1392364
-2.170265	amount your
-0.5792008	amrican express
-2.342629	an 8gb	-0.2234776
-2.342629	an account
-2.342629	an activation
-2.342629	an added
-1.782905	an addition
-0.8230348	an additional	-0.5295274
-2.342629	an alert
-2.342629	an allotment
-1.782905	an answer
-2.342629	an email
-2.342629	an estimate
-2.342629	an existing
-0.8759499	an extra	-0.5392731
-1.782905	an increase
-2.342629	an issue
-1.528525	an offer
-2.342629	an older
-2.342629	an outstanding
-2.342629	an overage
-2.342629	an unable
-1.089714	an unlimited	-0.008014101
-0.8759499	an upgrade	-0.05254569
-2.342629	an you
-2.911639	and 1tb
-2.911639	and 2gb
-2.911639	and 5gb
-2.911639	and a
-2.911639	and account	-0.4063354
-2.911639	and add
-2.911639	and added
-2.911639	and additional
-2.351916	and also
-2.911639	and are
-2.911639	and ask
-2.911639	and automatically
-2.911639	and avoid
-2.911639	and bob
-2.351916	and calling	-0.1229677
-2.351916	and can
-2.911639	and cell
-2.911639	and change
-2.351916	and charge
-2.911639	and charged
-1.898265	and check
-2.911639	and click
-2.911639	and come
-2.911639	and confirmation
-1.658724	and data	-0.1029203
-2.351916	and do	-0.1580492
-2.911639	and done
-2.911639	and dont
-2.097535	and double
-2.911639	and eighteen
-2.911639	and eighty	-0.1169358
-2.911639	and eleven
-2.911639	and fantastic
-2.911639	and fifteen	-0.2145102
-2.911639	and fifty	-0.2756381
-2.911639	and find
-2.097535	and five
-2.911639	and forty	-0.3636045
-2.911639	and four	-0.1186385
-2.351916	and free
-2.097535	and get
-2.911639	and go
-2.911639	and got
-2.911639	and has
-1.658724	and have	-0.3168855
-1.57523	and how	-0.05787497
-1.57523	and i	-0.04115915
-2.911639	and i'd
-2.911639	and i'll
-2.911639	and im
-2.911639	and increased
-2.911639	and is
-1.57523	and it	-0.08416522
-2.911639	and its
-2.911639	and last
-2.911639	and less
-2.911639	and let
-2.911639	and made
-2.911639	and make
-2.911639	and mexico
-2.911639	and minutes
-2.911639	and mobile
-2.911639	and my
-2.911639	and nine	-0.2144012
-2.911639	and ninety	-0.2421069
-2.351916	and not	-0.2215479
-2.911639	and number
-2.911639	and offers
-2.097535	and one	-0.01599898
-2.911639	and pay
-2.911639	and paying
-1.898265	and phone	-0.0952889
-1.762185	and plan	-0.1629242
-2.911639	and provide
-2.911639	and ready
-2.911639	and register
-2.351916	and see	-0.09645442
-2.351916	and send
-2.911639	and set	-0.1137661
-2.351916	and seven
-2.911639	and seventy	-0.08162961
-2.911639	and share
-2.911639	and sixteen
-2.911639	and sixty	-0.2293149
-2.911639	and subtract
-2.911639	and talk
-2.911639	and ten
-1.898265	and text	-0.2217073
-2.351916	and texting	-0.1259546
-1.898265	and texts	-0.06975058
-2.911639	and that
-2.351916	and the	-0.2254647
-2.097535	and then
-2.351916	and there's	-0.2213593
-2.097535	and they
-2.911639	and think
-2.911639	and thirty	-0.1521262
-2.097535	and three	-0.09083646
-2.351916	and to
-2.351916	and twelve	-0.3017104
-2.351916	and twenty	-0.1917244
-2.911639	and two	-0.1857911
-2.911639	and unli
-1.658724	and unlimited	-0.1784843
-2.911639	and update
-2.351916	and upgrade
-2.911639	and upgraded	-0.1917685
-1.762185	and we
-2.351916	and web	-0.0820885
-2.911639	and weekends
-1.762185	and what	-0.03042427
-2.351916	and when	-0.1346899
-2.911639	and will
-1.505229	and you	-0.07151807
-2.351916	and you've	-0.09174413
-2.351916	and your
-1.755292	another bot
-1.755292	another five
-1.755292	another line
-0.941188	another one	-0.07881697
-0.7419176	another plan	-0.1662056
-1.195568	another two
-1.195568	another way
-1.755292	another website
-0.5792008	another's languages
-0.9692167	answer </s>
-1.783321	answer a	-0.3222357
-1.783321	answer any
-1.783321	answer how
-1.783321	answer it
-1.783321	answer many
-1.783321	answer questions
-1.783321	answer simple
-1.783321	answer so
-0.9692167	answer that	-0.1101325
-1.783321	answer you
-1.783321	answer your
-0.320507	answered </s>
-0.5792008	answering are
-1.994174	any account
-1.994174	any available
-1.994174	any better
-1.994174	any changes
-1.994174	any charges
-1.994174	any data
-1.43445	any further
-1.994174	any information
-1.994174	any mobile
-1.994174	any more
-1.994174	any networks
-1.994174	any options
-1.18007	any other	-0.1250796
-1.994174	any overages
-1.994174	any plan
-1.994174	any questions
-1.994174	any requirements
-1.43445	any special
-1.994174	any specials
-1.43445	any time
-1.994174	any way	-0.05664114
-0.8802308	anyone i
-0.8802308	anyone who
-0.5792008	anyrhing else
-1.34488	anything </s>
-1.599261	anything cheaper
-2.158984	anything customer
-0.1529874	anything else	-0.809941
-2.158984	anything i
-2.158984	anything if
-2.158984	anything like
-2.158984	anything more
-1.533443	anytime </s>
-1.533443	anytime calls
-1.533443	anytime day
-1.533443	anytime hope
-1.533443	anytime just
-1.533443	anytime of
-1.533443	anytime plan
-1.533443	anytime prior
-1.533443	anytime take
-0.5792008	anyting else
-0.543248	anyway </s>
-1.357352	anyway i
-1.357352	anyway though
-1.357352	anyway to
-0.5792008	anywhere you
-0.5792008	apart of
-0.5792008	apologies i
-0.8802308	apologize but
-0.8802308	apologize for
-1.278171	app for
-1.278171	app from	-0.2094189
-1.278171	app onto	0.2559876
-1.278171	app store
-1.278171	app will
-0.5792008	appear on
-0.4965983	appears that
-1.056322	appears you
-0.5792008	application so
-0.8802308	applied right
-0.8802308	applied to
-1.056322	apply </s>
-1.056322	apply changes
-1.056322	apply new
-0.5792008	applying the
-1.181261	appreciate </s>
-0.621537	appreciate it	-0.1703406
-1.181261	appreciate that
-2.50348	are </s>
-2.50348	are a
-2.50348	are able
-2.50348	are about
-2.50348	are all	-0.4009809
-2.50348	are allocated
-2.50348	are allowed
-2.50348	are almost
-2.50348	are any
-2.50348	are correct
-1.943756	are currently	-0.6727719
-2.50348	are data
-2.50348	are family
-2.50348	are finished
-2.50348	are given
-2.50348	are going
-2.50348	are in
-2.50348	are inquiring
-2.50348	are interested	0.03680608
-1.943756	are looking	-0.04224046
-2.50348	are made
-2.50348	are most	-0.2080765
-2.50348	are my	-0.2375056
-2.50348	are no
-2.50348	are now	-0.1015074
-2.50348	are offer
-2.50348	are offering
-2.50348	are officially
-2.50348	are on	-0.1349336
-2.50348	are over
-2.50348	are plans
-2.50348	are quite
-2.50348	are signed
-2.50348	are six
-2.50348	are some
-2.50348	are sorry
-2.50348	are spending
-2.50348	are super
-2.50348	are sure
-2.50348	are ten
-1.943756	are the	-0.1431421
-1.490106	are there	-0.3634371
-1.943756	are they
-2.50348	are three	-0.1402156
-2.50348	are twelve
-2.50348	are two
-2.50348	are unlimited
-2.50348	are upgrading
-2.50348	are using
-2.50348	are verrrry
-2.50348	are very	-0.3559455
-2.50348	are we
-2.50348	are welcome	-0.4057792
-2.50348	are wondering
-1.943756	are working	-0.07135294
-0.6758762	are you	-0.4708564
-1.943756	are your
-0.5792008	areyou </s>
-0.8802308	around a
-0.8802308	around first
-1.940929	as an
-1.126825	as i	-0.1021697
-1.381205	as it
-1.940929	as much
-1.126825	as of	-0.1266828
-1.940929	as per
-1.940929	as though
-0.4742498	as well	-0.1893981
-1.940929	as what
-1.940929	as your
-0.5792008	asap </s>
-0.5792008	aside from
-1.098658	ask </s>
-1.098658	ask about	-0.2258271
-1.658382	ask away
-0.844278	ask for
-1.098658	ask me
-1.658382	ask something
-1.658382	ask you
-1.056322	asked </s>
-1.056322	asked before
-1.056322	asked here
-1.056322	asking </s>
-1.056322	asking how
-1.056322	asking you
-0.5792008	aspect of
-0.5792008	aspects of
-1.098658	assist </s>
-1.658382	assist in
-1.098658	assist me	-0.05907939
-1.658382	assist what
-0.844278	assist with	-0.1150366
-0.844278	assist you	-0.4896273
-0.2748441	assistance </s>
-1.424299	assistance can
-1.424299	assistance with	-0.2270507
-0.5792008	assisting me
-0.5792008	associated with	-0.6015595
-2.181261	at a
-1.367157	at all
-2.181261	at any
-2.181261	at anytime
-2.181261	at bestphonesevercomaccountlogin
-2.181261	at different
-2.181261	at eight
-2.181261	at eighteen
-2.181261	at fifty
-2.181261	at least
-2.181261	at math
-2.181261	at midnight
-2.181261	at my
-1.167886	at one	-0.2760849
-1.621537	at six
-2.181261	at that
-0.7748507	at the	-0.1627104
-1.031806	at this	-0.3944908
-2.181261	at two
-2.181261	at work
-1.367157	at your	-0.04739162
-1.056322	authorize that
-1.056322	authorize the
-1.056322	authorize this
-0.5792008	authorized to
-0.5792008	auto update
-0.5792008	autobill information
-0.8802308	automatically add
-0.8802308	automatically made
-0.5792008	autopay </s>
-0.8802308	avail for
-0.8802308	avail that
-1.90142	available </s>
-1.90142	available a
-1.341696	available data
-1.90142	available each
-1.90142	available free
-1.90142	available it
-1.90142	available now
-1.90142	available on
-1.90142	available plans
-1.90142	available seven
-1.341696	available that	-0.2234615
-1.90142	available this
-0.7519653	available to	-0.07246888
-1.90142	available what
-1.90142	available would
-0.5792008	availalbe plans
-0.8802308	average </s>
-0.8802308	average twelve
-0.5792008	avoid overage
-0.5792008	aw why
-0.4965983	away </s>
-1.056322	away thank
-0.5792008	awesme </s>
-0.8064894	awesome </s>
-1.620593	awesome better
-1.620593	awesome can
-1.620593	awesome data
-1.620593	awesome i
-1.620593	awesome ill
-1.620593	awesome thank
-1.620593	awesome thanks	-0.03126811
-1.620593	awesome ya
-0.5792008	awesone thank
-0.5792008	awh alright
-1.278171	b </s>
-1.278171	b costs
-1.278171	b is
-1.278171	b only
-1.278171	b with
-1.357352	back </s>
-1.357352	back if
-1.357352	back to
-0.7976283	back tomorrow
-1.357352	back up
-1.278171	bad </s>
-1.278171	bad can
-1.278171	bad is
-1.278171	bad ok
-1.278171	bad okay
-0.8645751	balance </s>
-1.424299	balance i
-0.8645751	balance of
-1.424299	balance on
-1.424299	balance owed
-0.8802308	bandwidth </s>
-0.8802308	bandwidth per
-0.5792008	bankrupt </s>
-0.5792008	bargain i'll
-0.320507	based on
-1.278171	basic after
-1.278171	basic good
-0.718447	basic plan
-1.278171	basic unlimited
-2.686411	be 5
-1.536956	be </s>
-1.673036	be a	-0.04393523
-1.166817	be able	-0.1337309
-2.686411	be activated
-2.686411	be added
-2.686411	be affective
-1.536956	be all	-0.1589396
-2.126687	be an	-0.04048137
-2.686411	be another
-2.686411	be anything
-2.686411	be awesme
-2.686411	be awesome
-2.686411	be back
-2.686411	be be
-2.686411	be best
-2.126687	be billed
-2.686411	be calling
-2.686411	be careful
-1.872307	be charged	-0.004765506
-2.686411	be clear
-2.686411	be connected
-2.686411	be double
-1.872307	be effective	0.105672
-2.126687	be enough	-0.1742399
-2.686411	be fifty
-1.872307	be fine
-2.126687	be five
-2.686411	be fixed
-2.686411	be forty
-2.126687	be four
-2.126687	be glad	-0.2529834
-2.126687	be good	-0.1967446
-2.126687	be great
-1.872307	be happy	-0.7832818
-2.686411	be helpful
-2.686411	be in
-2.686411	be included
-1.872307	be interested	-0.3401238
-2.126687	be it
-2.686411	be more
-2.686411	be most
-2.686411	be necessary
-2.686411	be nice
-2.126687	be nine	-0.1364844
-2.686411	be now
-1.350002	be of	-0.4588624
-1.872307	be okay	-0.1004094
-1.872307	be on	-0.2574926
-2.686411	be one
-2.686411	be over
-2.686411	be patient
-2.686411	be pro
-2.686411	be reached
-2.686411	be reflected	-0.0624204
-2.686411	be six
-2.686411	be starting
-2.686411	be sure
-2.686411	be ten
-2.686411	be than
-2.686411	be thirty
-2.686411	be three
-2.686411	be to
-2.126687	be two
-2.126687	be under
-2.686411	be unlimited
-2.686411	be useful
-2.126687	be using
-2.126687	be very	-0.1985316
-2.686411	be waiting
-2.686411	be working	-0.1980961
-2.686411	be worth
-2.126687	be your
-0.8802308	beam account
-0.8802308	beam i
-1.357352	because after
-0.7976283	because i
-1.357352	because it
-1.357352	because thats
-1.357352	because you're
-1.880231	been a	-0.1356456
-1.880231	been added
-1.880231	been applied
-1.880231	been billed
-1.880231	been downgraded
-1.320507	been going	-0.03294764
-1.880231	been high
-1.320507	been made
-1.880231	been saved
-1.880231	been set
-1.880231	been so
-1.880231	been streaming
-1.320507	been upgraded	-0.07310756
-1.880231	been used	-0.06168074
-1.320507	been very	-0.4121589
-1.880231	been watching
-1.424299	before </s>
-0.8645751	before and
-1.424299	before i
-1.424299	before seven
-1.424299	before you
-1.424299	before your
-0.8802308	beginning at
-0.8802308	beginning of
-0.5792008	begins july
-1.357352	being a
-1.357352	being able
-1.357352	being finalized
-1.357352	being helpful
-1.357352	being offered
-1.357352	being our
-0.5792008	believe in
-0.5792008	below what
-1.357352	best </s>
-1.357352	best deal
-1.357352	best for
-1.357352	best mobile
-0.7976283	best option	-0.1267821
-0.5792008	bestmobileevercom and
-0.5792008	bestphonesevercomaccountlogin </s>
-1.620593	better be
-1.620593	better deal
-1.620593	better fit
-1.620593	better let's
-1.620593	better one
-1.06087	better options
-1.620593	better plan
-1.620593	better plans
-1.620593	better than
-1.620593	better upgrade
-0.8802308	between four
-0.8802308	between them
-0.5792008	beyond my
-1.056322	big </s>
-1.056322	big fee
-1.056322	big help
-0.6199487	bill </s>
-2.026359	bill as
-2.026359	bill at
-2.026359	bill be
-2.026359	bill being
-2.026359	bill change
-2.026359	bill cost
-2.026359	bill due
-2.026359	bill each
-2.026359	bill every
-2.026359	bill for
-2.026359	bill has
-1.012984	bill is	-0.1004034
-2.026359	bill what
-1.466635	bill will
-2.026359	bill would
-2.026359	bill your
-1.056322	billed and
-1.056322	billed overages
-1.056322	billed to
-0.8064894	billing cycle	-0.2400227
-1.06087	billing date
-0.8064894	billing period	-0.06297767
-1.620593	billing since
-1.06087	billing statement
-1.579201	billion five
-0.7650967	billion four	-0.4334093
-1.579201	billion nine
-1.019477	billion one	-0.2013856
-1.019477	billion three	-0.2183354
-1.579201	billion two
-0.8802308	bills </s>
-0.8802308	bills have
-1.278171	bit </s>
-1.278171	bit crazy
-1.278171	bit low	-0.1980961
-1.278171	bit of
-1.278171	bit on
-0.5792008	blackouts </s>
-0.5792008	blowing through
-0.621537	bob </s>
-0.621537	bob dole
-0.5792008	bod dole
-0.5792008	boo to
-0.4213346	bot </s>
-1.940929	bot buddy
-1.940929	bot customer
-1.940929	bot does
-1.381205	bot for
-1.940929	bot how
-1.381205	bot i
-1.940929	bot just
-1.940929	bot oh
-1.940929	bot that	-0.1384934
-1.940929	bot unable
-1.940929	bot what
-0.5792008	both seasons
-0.5792008	bots tell
-0.5792008	bout my
-0.5792008	boy okay
-0.8802308	brand </s>
-0.8802308	brand new
-0.5792008	bring it
-0.5792008	bro just
-0.5792008	bronze </s>
-0.5792008	brother uses
-0.5792008	btw you
-0.5792008	bucks more
-0.5792008	buddy </s>
-0.320507	budget </s>
-0.8802308	bugwak </s>
-0.8802308	bugwak can
-0.5792008	bullock </s>
-0.5792008	bummer no
-0.5792008	bump you
-0.5792008	bumping you
-0.5792008	bunch of
-0.5792008	business elsewhere
-0.5792008	busy </s>
-2.513699	but a
-2.513699	but also
-2.513699	but before
-2.513699	but can
-2.513699	but cannot
-2.513699	but first
-1.953975	but for
-2.513699	but good
-2.513699	but how
-0.559429	but i	-0.5757904
-1.699595	but i'm	-0.1623464
-2.513699	but ican't
-2.513699	but if
-2.513699	but im
-2.513699	but in
-1.953975	but is
-1.500325	but it	-0.1976038
-2.513699	but its
-2.513699	but not
-2.513699	but only
-2.513699	but second
-1.953975	but thank	0.994635
-1.500325	but thanks	0.08517306
-1.953975	but that
-2.513699	but that's
-2.513699	but the
-1.953975	but there
-1.953975	but there's	-0.1742399
-2.513699	but they
-1.699595	but we	-0.1536772
-2.513699	but where
-2.513699	but why
-2.513699	but with
-2.513699	but would
-0.9469427	but you	-0.2246714
-2.513699	but your
-0.5792008	buy more
-0.5792008	buying additional
-1.783321	by </s>
-1.783321	by accessing
-1.783321	by adding
-1.783321	by bumping
-1.783321	by how
-1.783321	by just
-1.783321	by logging
-1.783321	by one
-1.783321	by paying
-1.783321	by speaking
-1.783321	by text
-1.223597	by the	-0.2369179
-1.223597	by tomorrow	-0.2213593
-1.783321	by visiting
-0.4711387	bye </s>
-1.620593	bye bot
-1.06087	bye for	-0.2279544
-1.620593	bye human
-1.06087	bye now	-0.3107635
-0.5792008	byye </s>
-0.9971901	call </s>
-2.010565	call a
-1.19646	call and	-0.09738094
-1.450841	call back	-0.1626352
-2.010565	call everyone
-2.010565	call for
-2.010565	call in
-2.010565	call included
-2.010565	call me
-2.010565	call my
-1.450841	call people
-2.010565	call plan
-2.010565	call someone
-2.010565	call them
-2.010565	call toll
-2.010565	call two	-0.1566881
-2.010565	call us
-1.19646	call your	-0.1199461
-0.320507	called the
-0.5792008	caller plan
-1.336678	calling </s>
-2.350053	calling all	-0.1161385
-2.350053	calling along
-1.336678	calling and	-0.2086926
-1.790329	calling are	-0.2237414
-2.350053	calling available
-2.350053	calling before
-1.790329	calling but
-2.350053	calling by
-2.350053	calling capabilities
-2.350053	calling five
-1.336678	calling for	-0.07097199
-2.350053	calling free	-0.7479901
-2.350053	calling helo
-2.350053	calling if
-2.350053	calling in
-2.350053	calling is
-1.790329	calling it	-0.1217039
-2.350053	calling no
-2.350053	calling none
-2.350053	calling one
-2.350053	calling or
-1.200598	calling plan	-0.1312285
-2.350053	calling plans
-2.350053	calling please
-2.350053	calling ten
-2.350053	calling thanks
-2.350053	calling that's
-1.535949	calling to	-0.1162175
-2.350053	calling twenty	-0.1940595
-1.336678	calling two	-1.504434
-2.350053	calling we
-2.350053	calling what
-1.790329	calling will	-0.1687782
-2.350053	calling with
-2.350053	calling would
-2.350053	calling yes
-0.5792008	callingi two
-0.5792008	callings unlimited
-0.5792008	callingtext would
-1.08434	calls </s>
-1.283611	calls and	-0.4362123
-2.097715	calls anytime
-2.097715	calls at
-2.097715	calls but
-2.097715	calls does
-0.9482599	calls for
-2.097715	calls i
-2.097715	calls in
-2.097715	calls is
-2.097715	calls no
-2.097715	calls on
-2.097715	calls one
-2.097715	calls plan
-2.097715	calls right
-2.097715	calls texts
-2.097715	calls that
-2.097715	calls to
-2.097715	calls twenty
-1.283611	calls two	-1.047009
-2.097715	calls unlimited	-0.2268223
-2.097715	calls with
-2.03461	can </s>
-2.848714	can access
-2.848714	can actually
-1.835339	can add	-0.1550298
-2.848714	can also
-2.848714	can always
-2.848714	can and
-2.03461	can answer
-2.848714	can apply
-2.848714	can ask
-2.848714	can assist	-0.2706015
-2.848714	can be
-2.848714	can bring
-2.28899	can bump	-0.1051898
-2.03461	can call	-0.07930559
-2.848714	can cancel
-2.848714	can change
-2.28899	can check	0.004467792
-2.848714	can chose
-2.848714	can connect	-0.1766657
-2.848714	can definitely
-2.848714	can direct
-2.848714	can directly
-2.03461	can do	-0.4726486
-2.848714	can doiuble
-2.848714	can doubl
-2.03461	can double	-0.6854088
-2.848714	can download
-2.848714	can edit
-2.848714	can either
-2.848714	can estimate
-2.848714	can figure
-2.28899	can find	-0.1164067
-2.848714	can for
-2.28899	can get	-0.05899495
-2.28899	can give	-0.01145301
-2.28899	can go	-0.08998751
-2.848714	can have
-1.835339	can help	-0.8039286
-2.848714	can how
-2.848714	can however	-0.6188487
-0.8267585	can i	-0.6501477
-2.848714	can increase
-2.848714	can inform
-2.848714	can install	-0.1051898
-2.848714	can just
-2.848714	can let
-2.848714	can log	-0.119933
-2.848714	can look	-0.1898998
-2.848714	can make	-0.1044515
-2.848714	can may	-0.03477078
-2.848714	can not	-0.1641527
-2.28899	can now	-0.1383528
-2.03461	can offer	-0.09341933
-2.848714	can only	-0.5349129
-2.28899	can pay
-2.848714	can postdate
-2.848714	can proper
-2.848714	can provide	-0.0699078
-2.848714	can pull
-2.848714	can reload
-2.28899	can see	-0.07004574
-2.28899	can set	-0.07322484
-2.848714	can share
-2.28899	can sign
-2.848714	can take
-2.848714	can talk
-2.28899	can tell	-1.055327
-2.848714	can they
-2.848714	can transfer
-2.848714	can try	-0.2185186
-2.848714	can update
-2.03461	can upgrade	-0.336615
-2.28899	can use
-2.848714	can wait
-2.848714	can watch
-2.848714	can we
-2.28899	can what	-0.1220512
-2.848714	can would	0.007605673
-0.6288574	can you	-0.7517532
-1.834473	can't but
-1.27475	can't check	-0.2663328
-1.834473	can't do
-1.834473	can't figure
-1.834473	can't go
-1.27475	can't help
-1.834473	can't live
-1.834473	can't look
-1.834473	can't process
-1.834473	can't see
-1.834473	can't seem
-1.27475	can't tell	-0.3274076
-1.834473	can't track
-1.834473	can't yet
-1.834473	can't you
-0.5792008	canada and
-0.621537	cancel my
-0.621537	cancel your
-1.06087	cannot check	-0.195804
-1.620593	cannot help	-0.2067983
-1.620593	cannot i
-1.620593	cannot look
-1.620593	cannot provide	-0.1990287
-1.620593	cannot say
-1.06087	cannot see	-0.4046589
-1.06087	cannot tell	-0.3631898
-1.357352	cant </s>
-1.357352	cant check
-1.357352	cant do
-1.357352	cant provide
-1.357352	cant telk
-1.357352	cant tellyou
-0.621537	cap </s>
-0.621537	cap will
-0.8802308	capabilities as
-0.8802308	capabilities because
-0.5792008	capability for
-0.5792008	capable of	-0.2185879
-1.087316	card </s>
-1.90142	card by
-1.341696	card ending	-0.1051898
-1.90142	card ends
-1.90142	card for
-1.90142	card have
-1.90142	card i
-1.90142	card info
-1.90142	card now
-1.087316	card number	-0.02916406
-1.90142	card of
-0.8880456	card on	-0.5400481
-1.90142	card you're
-1.181261	care </s>
-1.181261	care about
-1.181261	care for
-1.181261	care of
-0.5792008	careful with
-0.8802308	carrier directly
-0.8802308	carrier does
-0.5792008	carriers thx
-0.5792008	carries six
-0.5792008	carry two
-0.5792008	case how
-0.5792008	cathy </s>
-0.5792008	cause about
-0.8802308	cc now
-0.8802308	cc that
-1.620593	cell data
-1.06087	cell number
-0.4711387	cell phone	-0.2389663
-1.06087	cell plan	-0.5746014
-1.620593	cell plans	-0.2207315
-0.8802308	cellphone account
-0.8802308	cellphone plan
-0.5792008	cellular data
-1.056322	cents </s>
-0.4965983	cents per	-0.449707
-0.8802308	certain aspects
-0.8802308	certain plan
-1.357352	certainly can
-1.357352	certainly i	-0.4208099
-1.357352	certainly that
-1.357352	certainly upgrading
-1.357352	certainly what
-1.357352	certainly you
-1.19646	change </s>
-2.010565	change about
-2.010565	change be
-1.450841	change for	-0.1975899
-2.010565	change go
-2.010565	change has
-2.010565	change in
-2.010565	change is
-2.010565	change it
-2.010565	change me
-0.9971901	change my	-0.1335721
-2.010565	change or
-1.450841	change to	-0.07567628
-2.010565	change will
-2.010565	change wuill
-0.8611098	change your	-0.4930474
-1.181261	changed about
-1.181261	changed anything
-1.181261	changed the
-1.181261	changed your	-0.08793289
-1.80965	changes </s>
-1.80965	changes are
-1.80965	changes for
-1.249926	changes have	-0.2338628
-1.80965	changes it
-0.6601949	changes to	-0.2872881
-0.7962753	changes will
-1.80965	changes would	0.007605673
-1.80965	changes you
-0.8802308	changing my
-0.8802308	changing plan
-1.3619	charge </s>
-1.3619	charge a
-1.3619	charge for
-1.921623	charge if
-1.921623	charge is
-1.3619	charge it	-0.2298339
-1.921623	charge my
-1.921623	charge next
-0.908249	charge of	-0.1195472
-1.921623	charge on
-1.921623	charge right
-1.921623	charge starting
-1.3619	charge that	-0.2351774
-1.921623	charge you
-1.579201	charged </s>
-1.579201	charged accordingly
-1.579201	charged any
-1.579201	charged do
-1.019477	charged for	-0.1011425
-1.579201	charged if
-1.579201	charged one
-1.019477	charged your
-1.278171	charges </s>
-1.278171	charges are
-1.278171	charges for
-1.278171	charges in
-1.278171	charges of
-0.5792008	charging your
-0.5792008	chat two
-0.5792008	cheap go
-0.5792008	cheapeast one
-0.8645751	cheaper </s>
-1.424299	cheaper and
-1.424299	cheaper don't
-1.424299	cheaper one
-1.424299	cheaper price
-1.424299	cheaper provider
-1.056322	cheapest </s>
-1.056322	cheapest offer
-1.056322	cheapest one
-1.332836	check </s>
-2.482291	check again
-2.482291	check and	-0.236088
-2.482291	check around
-2.482291	check by
-2.482291	check data
-1.668187	check for	-0.4298945
-0.8729954	check how	-1.077688
-2.482291	check if
-2.482291	check in
-1.468916	check it	-0.06564875
-1.229376	check my	-0.244902
-2.482291	check okay
-1.468916	check on	-0.06772873
-2.482291	check or
-2.482291	check out
-1.468916	check some
-1.668187	check something	-0.1958142
-2.482291	check thanks
-1.668187	check that	-0.2267537
-1.668187	check the	-0.2610886
-1.922567	check this
-1.468916	check to	-0.5371168
-2.482291	check two
-2.482291	check under
-2.482291	check up
-2.482291	check using
-2.482291	check what	-0.2293499
-0.9626967	check your	-0.134537
-2.482291	check yourdata
-0.5792008	checked and
-1.341696	checking </s>
-1.90142	checking and
-1.90142	checking back
-1.90142	checking for
-1.90142	checking how
-1.90142	checking on
-1.90142	checking our
-1.90142	checking resources
-1.341696	checking that
-1.90142	checking to
-1.90142	checking tyour
-1.90142	checking yes
-1.90142	checking you
-0.648505	checking your	-0.02927643
-0.5792008	checkingg </s>
-0.5792008	checkk the
-0.8802308	choice </s>
-0.8802308	choice of
-0.8802308	choices </s>
-0.8802308	choices the
-0.8802308	choose a
-0.8802308	choose to
-0.5792008	choosing the
-0.5792008	chose from
-0.5792008	clear we're
-1.278171	click end
-1.278171	click mobile
-1.278171	click next
-1.278171	click on
-1.278171	click under
-1.482291	close i
-1.482291	close my
-1.482291	close ok
-0.4689163	close to
-1.482291	close your
-0.8802308	code </s>
-0.8802308	code you
-0.8802308	come again
-0.8802308	come back
-0.104437	comes with	-0.09729539
-0.8802308	comfortable divulging
-0.8802308	comfortable sharing
-0.5792008	company policy
-0.5792008	compare to
-0.5792008	completed this
-0.5792008	completely forgot
-0.5792008	computer to
-0.3671567	concern </s>
-1.181261	concern my
-0.5792008	concerned i
-0.5792008	concerning my
-0.1678863	concerns </s>
-1.181261	confirm i
-1.181261	confirm that
-0.621537	confirm you	-0.1345982
-0.4640667	confirmation </s>
-1.278171	confirmation email	-0.2213593
-1.278171	confirmation id
-0.8802308	confirmed </s>
-0.8802308	confirmed you
-0.8802308	confused okay
-0.8802308	confused with
-0.5792008	confusion we
-0.8802308	connect me
-0.8802308	connect you
-0.8802308	connected </s>
-0.8802308	connected shortly
-0.320507	consider it	-0.393346
-0.5792008	consideration </s>
-0.5792008	considering </s>
-0.5792008	constantly so
-1.278171	contact customer	-0.08191193
-1.278171	contact number	-0.1237413
-1.278171	contact the
-1.278171	contact then
-1.278171	contact your
-0.8802308	contains fifty
-0.8802308	contains would
-0.5792008	continue </s>
-0.332836	contract </s>
-1.482291	contract if
-1.482291	contract is
-1.482291	contract renew
-1.357352	cool </s>
-0.7976283	cool how	0.04866813
-1.357352	cool i'll
-1.357352	cool let
-1.357352	cool thanks
-0.405467	correct </s>
-1.658382	correct data
-1.658382	correct department
-1.658382	correct hello
-1.658382	correct how
-1.658382	correct please
-1.658382	correct you
-0.5792008	correctly and
-1.145308	cost </s>
-1.959412	cost an	-0.245521
-1.959412	cost extra
-1.959412	cost fifteen
-1.399688	cost five	-0.1750715
-1.959412	cost for
-1.959412	cost is
-1.145308	cost me	-0.3626832
-1.399688	cost one	-0.4616548
-1.959412	cost per
-1.959412	cost ten
-1.145308	cost to	-0.1300176
-1.959412	cost will
-1.145308	cost you	-0.2234802
-0.8802308	costing me
-0.8802308	costing you
-1.424299	costs 5
-1.424299	costs eight
-1.424299	costs one
-0.8645751	costs three
-0.8645751	costs two	-0.1857911
-0.5792008	coudnt be
-2.041599	could also
-1.481875	could be	-0.1236008
-2.041599	could do
-2.041599	could double
-2.041599	could get
-2.041599	could give
-2.041599	could go
-1.481875	could help	-0.1837711
-1.227495	could i	-0.1093035
-2.041599	could not
-2.041599	could see
-2.041599	could swear
-1.481875	could tell	-0.008536675
-1.481875	could upgrade	-0.09368584
-2.041599	could use
-2.041599	could work
-0.7051899	could you	-0.1547391
-1.056322	couldn't answer
-1.056322	couldn't be
-1.056322	couldn't provide
-0.5792008	country and
-0.8802308	couple of
-0.8802308	couple options
-0.5792008	coupon code
-1.424299	course </s>
-1.424299	course have
-1.424299	course how
-1.424299	course please
-1.424299	course we
-1.424299	course what
-1.424299	course why
-0.5792008	cover me
-0.5792008	crazy this
-0.1713838	credit card	0.004393992
-1.424299	credit debit
-0.5792008	criteria </s>
-0.5792008	cup on
-0.5792008	curious it's
-2.026359	current amount
-2.026359	current autobill
-2.026359	current balance
-2.026359	current bill
-2.026359	current billing
-2.026359	current calling
-2.026359	current concerns
-1.012984	current data	-0.5044754
-2.026359	current deal
-2.026359	current five
-2.026359	current have
-1.466635	current mobile	-0.1753658
-2.026359	current moment
-1.466635	current monthly	-0.05018998
-2.026359	current offer
-1.466635	current phone	-0.2596833
-0.876904	current plan	-0.1623781
-2.026359	current plany
-1.408549	currently </s>
-2.222653	currently a
-2.222653	currently allowed
-2.222653	currently allows
-2.222653	currently available
-2.222653	currently bronze
-2.222653	currently carries
-2.222653	currently do
-2.222653	currently down	-0.1239414
-2.222653	currently get
-2.222653	currently has
-1.209279	currently have	-0.1253987
-2.222653	currently holds
-2.222653	currently i
-2.222653	currently is
-2.222653	currently offering
-0.9697384	currently on	-0.3450151
-2.222653	currently our
-2.222653	currently over
-2.222653	currently owe
-2.222653	currently provides
-2.222653	currently seeing
-2.222653	currently so
-2.222653	currently spent
-2.222653	currently the
-2.222653	currently there
-2.222653	currently use
-2.222653	currently used
-1.408549	currently using	-0.1148417
-1.66293	currently you
-2.222653	currently your
-0.9737195	customer </s>
-1.533443	customer friendly
-1.533443	customer have
-0.5200688	customer service	-0.07761138
-1.533443	customer support
-0.5792008	customers with
-0.5792008	cvc code
-0.5792008	cya </s>
-1.098658	cycle </s>
-1.658382	cycle end	-0.1330645
-1.658382	cycle finishes
-1.658382	cycle if
-1.658382	cycle is
-1.658382	cycle start
-1.658382	cycle then
-1.658382	cycle which
-1.098658	cycle will
-1.658382	cycle you
-0.5792008	dab </s>
-0.5792008	dail three
-0.5792008	darn can
-3.021681	data 1gb
-0.9843327	data </s>
-2.207577	data a	-0.863999
-3.021681	data alert
-2.461957	data allotment
-2.008306	data allowance	0.01168255
-2.461957	data am	-0.3953189
-1.872226	data amount	-0.009835033
-2.008306	data and
-3.021681	data app	-0.2145102
-2.207577	data as	0.03408763
-3.021681	data at
-3.021681	data available
-3.021681	data balance
-2.207577	data but
-3.021681	data by
-3.021681	data calls	-0.2148109
-3.021681	data can
-2.008306	data cap	-0.1976207
-3.021681	data comes
-3.021681	data cool
-3.021681	data correctly
-3.021681	data currently
-1.768765	data do	-1.319386
-2.461957	data does	-0.102209
-3.021681	data double
-2.461957	data each	0.1436839
-3.021681	data five
-1.219308	data for	-0.2256439
-3.021681	data four
-3.021681	data has	-0.5439865
-3.021681	data have	-0.3866365
-2.461957	data how	-0.04002044
-1.685272	data i	-1.14194
-3.021681	data i'm
-2.207577	data in	0.01118959
-3.021681	data include
-2.207577	data included	0.02643528
-2.461957	data info
-1.61527	data is	-0.747879
-3.021681	data issues
-3.021681	data just
-3.021681	data lately
-1.872226	data left	-0.03157023
-1.768765	data limit	-0.06067009
-2.461957	data limits
-3.021681	data maybe
-3.021681	data monthly
-3.021681	data my	-0.2796043
-2.461957	data of	-0.2029433
-1.768765	data on	-0.1318577
-3.021681	data one
-3.021681	data only
-3.021681	data or
-3.021681	data over
-3.021681	data package
-3.021681	data pan
-2.207577	data per	-0.6229589
-0.9843327	data plan	-0.3681339
-2.461957	data plans
-2.207577	data please	-0.3997729
-3.021681	data provided
-3.021681	data question
-3.021681	data remains
-3.021681	data reset
-3.021681	data right
-2.461957	data settings
-3.021681	data speeds
-3.021681	data thanks
-2.008306	data that	-0.2251294
-2.461957	data the
-2.207577	data then	-0.08135483
-3.021681	data there
-2.207577	data this	-0.2259472
-1.768765	data to	-0.08823139
-3.021681	data total
-3.021681	data tracking
-3.021681	data twenty
-3.021681	data two
-3.021681	data under	-0.1985316
-1.373644	data usage	-0.250241
-3.021681	data used
-3.021681	data users
-3.021681	data was
-3.021681	data we
-3.021681	data what
-2.207577	data will	-0.08289959
-2.461957	data with
-1.768765	data would	0.0007249055
-3.021681	data yes
-1.685272	data you	-0.6029227
-2.461957	data you've	-0.7828717
-3.021681	data your	-0.6971674
-0.5792008	data's in
-0.5792008	dataplans </s>
-0.5792008	datat </s>
-0.9112248	date </s>
-1.725329	date at
-1.725329	date day
-1.725329	date do	-0.184532
-1.165605	date is
-1.725329	date my
-1.725329	date of
-1.725329	date that
-1.725329	date will
-1.725329	date you
-1.725329	date you've
-0.587764	day </s>
-1.994174	day all
-1.994174	day before
-1.994174	day come
-1.994174	day for
-1.994174	day included
-1.43445	day is	-0.1989643
-1.994174	day of
-1.43445	day or	-0.2348331
-1.43445	day seven	-0.3224102
-1.994174	day thanks
-1.43445	day then	0.007333745
-1.994174	day to
-1.994174	day too
-1.994174	day your
-0.5792008	daya do
-0.6797697	days </s>
-1.693144	days a	-0.3251425
-1.693144	days do
-1.693144	days is
-0.8790401	days left	-0.006599869
-1.693144	days of
-1.693144	days per
-1.693144	days remaining
-0.7734438	deal </s>
-2.026359	deal available
-2.026359	deal being
-2.026359	deal can
-2.026359	deal could
-2.026359	deal do
-2.026359	deal ends
-1.466635	deal for
-2.026359	deal i
-1.466635	deal i'll	-0.02349064
-1.466635	deal if
-2.026359	deal is
-2.026359	deal or
-1.466635	deal please
-2.026359	deal sign	0.07578857
-2.026359	deal then
-2.026359	deal to
-1.466635	deal we
-0.5792008	deals going
-0.8802308	debit card
-0.8802308	debit or
-1.056322	decrease it
-1.056322	decrease my
-1.056322	decrease your
-0.5792008	decreased to
-0.8802308	definitely assist
-0.8802308	definitely gone
-0.5792008	delay you
-0.5792008	department </s>
-0.5792008	described how
-0.5792008	description however
-0.8802308	designed for
-0.8802308	designed i'm
-0.5792008	desire for
-0.5792008	detail for
-1.579201	details </s>
-1.579201	details and
-0.7650967	details of
-1.579201	details on
-1.579201	details please
-1.579201	details that
-1.579201	details to
-1.579201	details what
-0.5792008	determine the
-1.056322	device </s>
-1.056322	device and
-1.056322	device to
-0.5792008	diamond plan
-1.482291	did it
-1.482291	did know
-1.482291	did not
-0.332836	did you	-0.07447353
-0.8802308	didn't know
-0.8802308	didn't realize
-0.5792008	difference between
-0.5792008	differences of
-1.579201	different bot
-1.579201	different country
-1.579201	different duration
-1.579201	different one
-1.019477	different plans
-1.579201	different price
-1.579201	different prices
-1.579201	different rates
-1.579201	different times
-0.5792008	digits of
-1.056322	direct me
-1.056322	direct source
-1.056322	direct you
-1.278171	directly </s>
-1.278171	directly contact
-1.278171	directly on
-1.278171	directly or
-1.278171	directly would
-0.5792008	directvuou niw
-0.4965983	discount </s>
-1.056322	discount on
-0.4965983	discounts </s>
-1.056322	discounts for
-0.5792008	discussed or
-0.5792008	divulging that
-1.276594	do </s>
-2.683005	do a
-2.123281	do and
-2.683005	do anything
-2.683005	do feel
-2.123281	do for	-1.083107
-2.123281	do have
-2.683005	do how
-0.9359689	do i	-0.9279398
-2.683005	do inhave
-2.683005	do is
-1.346596	do it	-0.3533126
-2.683005	do know
-2.683005	do need
-1.53355	do not	-0.04384179
-2.683005	do notice
-2.123281	do now
-2.683005	do offer
-2.683005	do one
-2.683005	do qualify
-2.683005	do roll
-2.683005	do see
-2.123281	do so	-0.230928
-2.683005	do something
-2.683005	do tell
-2.683005	do thanks
-0.8806317	do that	-0.3228687
-2.123281	do the
-2.123281	do then	0.007333745
-2.683005	do they
-2.683005	do things
-2.123281	do this	-0.06654666
-2.683005	do to
-2.683005	do unfortunately
-2.683005	do what
-2.683005	do yiu
-0.6025044	do you	-0.7084799
-2.683005	do your
-0.5792008	doe </s>
-2.056322	does </s>
-2.056322	does have
-0.9068673	does it	-0.04981878
-1.042948	does my	-0.15891
-2.056322	does next
-1.242218	does not	-0.07871047
-2.056322	does sound
-0.6499119	does that	-0.1176367
-1.496598	does the
-1.242218	does this	-0.1424997
-2.056322	does your
-1.181261	doesn't exactly
-0.621537	doesn't have
-1.181261	doesn't trust
-0.5792008	dof this
-0.5792008	doing that
-0.5792008	doiuble that
-0.5792008	dolalrs a
-1.056322	dole </s>
-1.056322	dole three
-1.056322	dole wants
-0.621537	dollar a	-0.1732504
-0.621537	dollar plan	-0.09030566
-0.9637663	dollars </s>
-0.7242257	dollars a	-1.303332
-1.977141	dollars am
-1.977141	dollars amount
-1.977141	dollars are
-1.977141	dollars extra
-1.977141	dollars for
-1.417417	dollars i
-1.977141	dollars monthly
-1.417417	dollars more	-0.1508795
-1.977141	dollars per	-0.06287181
-1.977141	dollars plan
-1.977141	dollars to
-1.977141	dollars upgrade
-1.977141	dollars you
-1.940929	don't allow
-1.940929	don't believe
-1.940929	don't care
-1.940929	don't go	-0.1583852
-0.9275541	don't have	-0.1155475
-1.381205	don't know	-0.1181354
-1.940929	don't need
-1.940929	don't really
-1.940929	don't remember
-1.940929	don't switch
-1.940929	don't think
-1.940929	don't understand
-1.940929	don't use
-0.6880136	don't want	-0.8436774
-0.6687084	done </s>
-1.921623	done already
-1.3619	done anything	-0.02118182
-1.3619	done can	-0.1679436
-1.921623	done have	-0.185066
-1.921623	done hey
-1.921623	done i'll
-1.921623	done i've
-1.3619	done is	-0.2005506
-1.3619	done that
-1.921623	done thiese
-1.3619	done you
-1.533443	dont could
-1.533443	dont go
-0.9737195	dont have
-1.533443	dont need
-1.533443	dont think
-1.533443	dont use
-1.533443	dont want
-1.533443	dont waste
-0.5792008	doubl the
-2.251299	double amount
-2.251299	double available
-1.237924	double check	-0.2651548
-2.251299	double deal
-2.251299	double for
-2.251299	double isn't
-0.8448885	double it	-0.5128159
-1.237924	double my	-0.1765971
