
\data\
ngram 1=1504
ngram 2=8527
ngram 3=3568

\1-grams:
-3.791107	'chill'	-0.1288104
-3.528769	'do	-0.2994362
-3.791107	'meeting'	-0.1192814
-3.791107	'morning	-0.1288687
-3.791107	'newdravewav'	-0.09760618
-3.791107	'the	-0.1288687
-3.791107	0	-0.09262225
-3.791107	1pm	-0.09760618
-3.791107	2pm	-0.1192814
-3.791107	3	-0.1281475
-3.791107	3pm	-0.1201386
-3.791107	4g	-0.1288687
-3.383805	4pm	-0.1495753
-3.791107	5	-0.1261018
-3.275308	5pm	-0.2295673
-3.528769	6am	-0.1840719
-3.684777	6pm	-0.1606596
-3.791107	6s	-0.09760618
-3.684777	7am	-0.08721749
-3.275308	8	-0.1338503
-3.275308	8am	-0.2097506
-3.684777	8pm	-0.08721749
-3.791107	9	-0.1286575
-3.684777	9am	-0.09389398
-3.684777	9pm	-0.235189
-1.157358	</s>
-99	<s>	-0.7848384
-2.0303	a	-0.2374583
-3.791107	aalright	-0.09760618
-3.791107	aand	-0.1280455
-3.791107	ability	-0.1192814
-3.116306	able	-0.6592617
-3.188571	about	-0.09706987
-3.791107	absolutely	-0.1207842
-3.000171	access	-0.1863599
-3.684777	accessed	-0.2612923
-3.791107	accessing	-0.123634
-3.791107	accident	-0.09760618
-3.791107	action	-0.09145784
-3.275308	activate	-0.2288855
-3.054368	activated	-0.1905093
-3.684777	activating	-0.1196186
-3.383805	active	-0.09084404
-3.275308	actually	-0.07613895
-3.000171	add	-0.1353361
-3.383805	added	-0.1383425
-3.791107	adding	-0.1264605
-3.791107	addition	-0.1192814
-3.791107	address	-0.09760618
-3.188571	adjust	-0.1528225
-3.528769	adjusted	-0.1218751
-3.684777	adjusting	-0.1256646
-3.383805	adjustment	-0.07438255
-3.791107	adjustments	-0.09760618
-3.791107	adult	-0.1288687
-3.791107	advised	-0.122705
-3.791107	affect	-0.1264092
-3.791107	affected	-0.09760618
-3.791107	affects	-0.1287594
-3.528769	afraid	-0.1105191
-2.71269	after	-0.1316032
-3.528769	afternoon	-0.2696097
-3.684777	afterwards	-0.09067982
-3.000171	again	-0.1758245
-3.791107	ahaed	-0.09760618
-3.528769	ahead	-0.107686
-3.054368	airplane	-0.6015932
-3.791107	ake	-0.1222914
-3.791107	al	-0.127177
-3.791107	alaarm	-0.1288687
-3.791107	alamrs	-0.1246125
-2.597881	alarm	-0.1848681
-2.43216	alarms	-0.2508199
-3.791107	album	-0.1268701
-3.791107	alerts	-0.09760618
-3.791107	alive	-0.09760618
-2.088664	all	-0.3380386
-3.684777	allow	-0.1281792
-3.528769	almost	-0.1277515
-3.684777	alone	-0.09045466
-3.791107	along	-0.122188
-3.684777	alot	-0.09444575
-3.116306	already	-0.1459755
-3.528769	alright	-0.009434915
-3.791107	alrighti	-0.1257427
-3.791107	alrighti've	-0.1285556
-3.791107	alrighty	-0.1224983
-2.578158	also	-0.1684358
-3.383805	always	-0.1914991
-3.000171	am	-0.05812177
-3.791107	amazing	-0.09760618
-3.791107	amount	-0.1259992
-2.799703	an	-0.252236
-2.003818	and	-0.08159335
-3.528769	android	-0.1257477
-3.791107	angela	-0.09760618
-3.791107	angeles	-0.09477648
-3.684777	angie	-0.1180547
-3.791107	animal	-0.1279944
-3.791107	ann	-0.09760618
-3.791107	annoying	-0.1287594
-3.275308	another	-0.08663251
-3.791107	ans	-0.127637
-3.684777	answer	-0.1154356
-2.618542	any	-0.2277167
-3.791107	anyhting	-0.1219539
-3.684777	anymore	-0.1278146
-3.528769	anyone	-0.09700102
-3.791107	anythimg	-0.1284026
-2.235984	anything	-0.7469807
-3.791107	anythingh	-0.1284026
-3.528769	anytime	-0.1225235
-3.188571	anyway	-0.3940677
-3.684777	anyways	-0.2352645
-3.791107	aparmsand	-0.1279944
-3.188571	app	-0.1689641
-3.684777	appear	-0.1236586
-3.791107	appearance	-0.09760618
-3.684777	apple	-0.1269456
-3.791107	applications	-0.09760618
-3.528769	applied	-0.2062827
-3.528769	apply	-0.2048229
-3.791107	applying	-0.1282496
-3.275308	appreciate	-0.1809891
-3.383805	apps	-0.1164028
-2.475591	are	-0.2872232
-3.791107	arnold's	-0.1283516
-3.528769	around	-0.1178955
-2.43216	as	-0.1771105
-3.116306	ask	-0.1520023
-3.791107	asked	-0.1192814
-3.791107	asking	-0.1288492
-3.791107	asleep	-0.09760618
-3.188571	assist	-0.2915707
-3.116306	assistance	-0.1938796
-2.141754	at	-0.224127
-3.791107	audio	-0.1257941
-3.188571	auto	-0.2557372
-3.275308	automatically	-0.14335
-3.383805	available	-0.1143283
-3.791107	avengers	-0.1284026
-3.791107	avoid	-0.122705
-3.275308	aware	-0.09317035
-3.791107	away	-0.1269724
-3.528769	awesome	-0.1333669
-3.791107	ay	-0.09760618
-3.791107	ayeo	-0.09746801
-3.791107	baby	-0.1266653
-2.71269	back	-0.3793222
-3.188571	background	-0.1754751
-3.791107	backgroynd	-0.1245096
-3.528769	backlight	-0.2144295
-3.684777	backlit	-0.2656017
-3.791107	bad	-0.1222397
-3.684777	bag	-0.2352645
-3.791107	baha	-0.1288687
-3.684777	bar	-0.1206061
-3.791107	barbara	-0.09760618
-3.791107	barbie	-0.1288687
-3.684777	bars	-0.09151336
-3.791107	based	-0.1245096
-3.791107	basic	-0.1288492
-3.000171	battery	-0.1031177
-3.791107	bawkbawkwav	-0.1255375
-2.43216	be	-0.1601215
-3.791107	beach	-0.1267165
-3.791107	beastie	-0.1288687
-3.791107	beatles	-0.09760618
-3.684777	because	-0.117898
-3.188571	becky	-0.1979159
-3.791107	becky's	-0.1266653
-3.684777	bee	-0.2155666
-3.383805	been	-0.1762102
-3.528769	beep	-0.210839
-3.528769	before	-0.2942432
-3.791107	believe	-0.1223678
-3.528769	bell	-0.2118679
-3.791107	bells	-0.1288687
-3.791107	below	-0.1288687
-3.684777	best	-0.1809933
-3.383805	better	-0.187699
-3.791107	between	-0.1287085
-3.383805	beyond	-0.2415155
-3.791107	big	-0.1271576
-3.684777	bigger	-0.1253052
-3.684777	bill	-0.1277709
-3.791107	bird	-0.127177
-3.684777	birds	-0.09753066
-3.791107	bit	-0.09631654
-3.791107	blind	-0.1276881
-3.275308	block	-0.1114732
-3.684777	blocked	-0.1284852
-3.791107	blocks	-0.1253835
-3.684777	blue	-0.1287984
-2.869206	bluetooth	-0.06141482
-3.528769	bob	-0.09745514
-3.791107	bobby	-0.1288687
-3.684777	body	-0.09753066
-3.791107	book	-0.09760618
-3.791107	boop	-0.09045728
-3.791107	booprobot	-0.1288687
-3.791107	boss	-0.1242327
-2.799703	bot	-0.31632
-3.791107	bot's	-0.1287594
-3.188571	both	-0.07943226
-3.383805	bother	-0.1854797
-3.791107	bothered	-0.1278923
-3.684777	bottom	-0.113854
-3.791107	botty	-0.09760618
-3.791107	box	-0.1245096
-3.791107	boxes	-0.1259992
-3.791107	boys	-0.09760618
-3.684777	brass	-0.2664687
-3.791107	brighness	-0.1245096
-3.684777	bright	-0.08721749
-3.684777	brighter	-0.1265873
-3.791107	brightnes	-0.1192814
-2.640235	brightness	-0.2767653
-3.791107	bring	-0.1275348
-3.791107	broken	-0.09760618
-3.791107	browser	-0.1287085
-3.791107	bunch	-0.09760618
-3.684777	busy	-0.0906031
-2.405445	but	-0.2706211
-3.383805	button	-0.08445612
-2.618542	by	-0.1868411
-2.951993	bye	-0.4667944
-3.791107	byond	-0.1246639
-3.791107	c	-0.09760618
-3.791107	calculate	-0.122705
-3.116306	call	-0.1224536
-3.791107	call'	-0.1232214
-3.791107	called	-0.09760618
-2.799703	calls	-0.188113
-3.791107	callsmessages	-0.1266141
-2.134752	can	-0.3510758
-3.684777	can't	-0.1218999
-3.528769	cancel	-0.1134847
-3.684777	cancelled	-0.1158557
-3.684777	cannot	-0.1216433
-3.791107	cant	-0.1276468
-3.684777	capabilities	-0.09040163
-3.791107	car	-0.1288492
-3.684777	care	-0.08659767
-3.684777	careless	-0.266527
-3.684777	case	-0.1182362
-3.684777	cat	-0.09397549
-3.791107	cats	-0.09383877
-3.791107	cease	-0.123634
-3.684777	cell	-0.09477648
-3.791107	cent	-0.09760618
-3.275308	certain	-0.1535457
-3.383805	certainly	-0.1189916
-2.418597	change	-0.2229555
-3.791107	changea	-0.09760618
-2.687172	changed	-0.2850298
-3.000171	changes	-0.2265684
-3.000171	changing	-0.1341229
-3.791107	charged	-0.1288492
-3.791107	chat	-0.1287594
-3.383805	check	-0.1377753
-3.791107	checked	-0.1274837
-3.791107	checking	-0.1276298
-3.528769	chicken	-0.2151441
-3.791107	chill	-0.1268701
-3.791107	chime	-0.121668
-3.791107	chimes	-0.09760618
-3.791107	chirping	-0.1246125
-3.791107	choice	-0.1253835
-3.275308	choose	-0.1248847
-3.791107	chose	-0.122705
-3.791107	cindy	-0.1268701
-3.791107	circa	-0.1266653
-3.684777	clarify	-0.1245856
-3.791107	classic	-0.1288104
-3.528769	clear	-0.1156432
-3.116306	click	-0.2002225
-3.791107	clicked	-0.1245096
-3.383805	clock	-0.08490997
-3.684777	cloud	-0.1369332
-3.791107	club	-0.1278923
-3.791107	co'z	-0.1222397
-3.791107	cold	-0.1257427
-3.684777	collins	-0.08721749
-3.791107	color	-0.09760618
-3.116306	come	-0.4307685
-3.791107	commands	-0.1267165
-3.116306	complete	-0.3004937
-3.791107	completely	-0.1286575
-3.528769	concern	-0.2696097
-3.791107	concerning	-0.123634
-3.791107	concerns	-0.09760618
-3.791107	cone	-0.127637
-3.791107	configuration	-0.1272793
-3.054368	confirm	-0.1423852
-3.791107	confirmation	-0.09760618
-3.275308	confirmed	-0.1270584
-3.791107	confirming	-0.122705
-3.528769	connect	-0.1430708
-3.528769	connected	-0.1459068
-3.528769	connection	-0.1825353
-3.528769	consider	-0.294295
-2.869206	contact	-0.2281122
-2.90863	contacts	-0.17403
-3.275308	continue	-0.1899814
-3.383805	control	-0.1313283
-3.791107	controls	-0.09760618
-3.791107	cool	-0.1257427
-3.791107	corner	-0.1259992
-2.90863	correct	-0.5360842
-2.833066	could	-0.4370783
-3.791107	couldn't	-0.1272281
-3.684777	course	-0.08631684
-3.684777	cow	-0.127924
-3.791107	cpu	-0.09760618
-3.684777	crazy	-0.09753066
-3.791107	creat	-0.1248696
-3.684777	create	-0.2625279
-3.791107	created	-0.1270747
-3.791107	creating	-0.1283516
-3.791107	critical	-0.1232214
-3.791107	crocheting	-0.09760618
-3.791107	curious	-0.1270747
-3.275308	current	-0.2001645
-2.768721	currently	-0.2307819
-3.791107	curretnly	-0.1261018
-3.791107	curt	-0.1282496
-3.791107	customer	-0.1192814
-3.791107	d	-0.1268701
-3.791107	da	-0.1288687
-3.791107	dah	-0.09760618
-3.528769	daily	-0.1275398
-3.684777	dancing	-0.2630418
-3.684777	daniel	-0.1255106
-3.791107	data	-0.08662706
-3.684777	date	-0.09444575
-3.791107	daughter	-0.1243037
-3.791107	david	-0.09760618
-3.791107	david's	-0.1286575
-3.791107	davids	-0.1254348
-2.869206	day	-0.2937039
-3.791107	daylight	-0.1288687
-3.684777	deactivate	-0.1160906
-3.791107	deaf	-0.1276881
-3.791107	deal	-0.1267165
-3.791107	debugging	-0.09760618
-3.791107	decision	-0.09760618
-3.791107	decrease	-0.122188
-3.383805	default	-0.1140352
-3.528769	definitely	-0.1204479
-3.684777	degrees	-0.2352645
-3.791107	delay	-0.1222397
-2.833066	delete	-0.129789
-3.188571	deleted	-0.2858402
-3.528769	deleting	-0.09053943
-3.684777	deselect	-0.2598463
-3.791107	designed	-0.1192814
-3.791107	desired	-0.1285046
-3.791107	details	-0.09760618
-3.791107	detected	-0.1278923
-3.684777	developer	-0.2652442
-3.791107	developr	-0.1275859
-3.116306	device	-0.2543966
-3.791107	devices	-0.1222397
-3.791107	devide	-0.1286065
-3.791107	di	-0.1274326
-3.791107	diable	-0.1253835
-3.791107	dial	-0.1254348
-2.833066	did	-0.2831571
-3.684777	didn't	-0.1254568
-3.791107	didnt	-0.1272281
-3.791107	dieing	-0.1288104
-3.684777	different	-0.1241199
-3.791107	digits	-0.1259992
-3.528769	dim	-0.07978
-3.791107	dimmer	-0.09760618
-2.833066	disable	-0.1548634
-3.054368	disabled	-0.1304512
-3.684777	disables	-0.1200347
-3.791107	disabling	-0.09760618
-3.791107	discomforting	-0.1257427
-3.791107	discreet	-0.09760618
-3.791107	discturb	-0.1243037
-3.791107	disengage	-0.09760618
-3.528769	display	-0.09380986
-3.791107	displayed	-0.1278923
-3.791107	disruption	-0.09760618
-3.791107	disruptions	-0.1287085
-3.791107	disstrub	-0.1266141
-3.684777	distrub	-0.1545487
-3.791107	distrube	-0.09760618
-3.791107	distrurb	-0.09615179
-3.791107	distub	-0.1275859
-3.791107	distube	-0.1286575
-2.951993	disturb	-0.002528823
-3.791107	disturb'	-0.1206309
-3.684777	disturbances	-0.1235555
-3.791107	disturbed	-0.08434325
-3.791107	disturbing	-0.1224983
-3.791107	diturb	-0.09760618
-3.188571	dnd	-0.1187331
-1.887341	do	-0.609972
-3.054368	does	-0.2330057
-3.684777	doesn't	-0.1277124
-3.791107	doesnt	-0.1283006
-3.791107	dog	-0.09760618
-3.528769	dogs	-0.09342313
-3.054368	doing	-0.3151046
-3.791107	don	-0.1288687
-2.951993	don't	-0.153547
-3.791107	donald	-0.1288687
-2.523854	done	-0.3539594
-3.791107	donme	-0.1264092
-3.528769	dont	-0.1263678
-3.791107	doo	-0.1288687
-3.528769	double	-0.2150931
-3.000171	down	-0.1008174
-3.684777	download	-0.114381
-3.791107	downloaded	-0.1246125
-3.791107	drag	-0.123634
-3.791107	dramaticially	-0.1255375
-3.791107	dreams	-0.1254861
-3.791107	drop	-0.1222914
-3.791107	dropped	-0.1192814
-3.275308	during	-0.1143409
-3.791107	dying	-0.1288104
-3.791107	e	-0.1232214
-3.791107	each	-0.1266653
-3.791107	ears	-0.1288687
-3.791107	earth	-0.09760618
-3.791107	easiest	-0.1243037
-3.684777	easy	-0.09560219
-3.791107	edge	-0.09760618
-3.275308	edit	-0.1635126
-3.791107	editing	-0.1273304
-3.791107	edits	-0.1192814
-3.684777	effect	-0.09670071
-3.791107	eh	-0.122705
-2.71269	eight	-0.2475211
-3.791107	eighteen	-0.1288687
-3.791107	eighty	-0.1260481
-3.528769	either	-0.09687829
-2.90863	else	-0.155695
-3.684777	email	-0.1221684
-3.054368	enable	-0.1629214
-3.275308	enabled	-0.1186532
-3.684777	enabling	-0.2609313
-3.383805	end	-0.07834907
-3.791107	ended	-0.123273
-3.791107	ends	-0.1257941
-3.791107	energy	-0.122188
-3.791107	engaged	-0.09760618
-3.383805	enjoy	-0.2163767
-3.684777	enough	-0.1174798
-3.791107	ensure	-0.122705
-3.791107	enter	-0.1248696
-3.791107	entire	-0.1286065
-3.791107	entirely	-0.127637
-3.684777	equipped	-0.2569397
-3.791107	erase	-0.122188
-3.791107	erlse	-0.09760618
-3.684777	etc	-0.2352645
-3.684777	even	-0.127547
-3.275308	evening	-0.3943425
-3.791107	eventually	-0.1288492
-3.684777	every	-0.2654996
-3.791107	everyday	-0.1268701
-3.383805	everything	-0.1363853
-3.791107	ex	-0.1288687
-3.791107	exact	-0.1263068
-3.791107	exactly	-0.09760618
-3.684777	exams	-0.09295437
-3.791107	excellent	-0.08693175
-3.684777	except	-0.1267799
-3.791107	exclusive	-0.1257941
-3.791107	exclusively	-0.1261018
-3.791107	exist	-0.1287085
-3.791107	express	-0.1288687
-3.528769	extra	-0.1268239
-3.791107	extremely	-0.1278413
-3.791107	eye	-0.09760618
-3.791107	faeture	-0.123273
-3.684777	fair	-0.1286696
-3.791107	fall	-0.1288687
-3.528769	fam	-0.08128748
-3.684777	family	-0.2352645
-3.791107	fantastic	-0.1280455
-3.791107	far	-0.1286575
-3.791107	fast	-0.09760618
-3.791107	faster	-0.09760618
-3.791107	favor	-0.09760618
-3.684777	favorites	-0.1195393
-3.188571	feature	-0.1193734
-3.791107	features	-0.09510695
-3.791107	feel	-0.1288104
-3.791107	few	-0.1256646
-3.791107	fifties	-0.1246125
-3.528769	fifty	-0.1252833
-3.528769	figure	-0.2086704
-3.791107	file	-0.1273304
-3.791107	files	-0.1245096
-3.791107	filter	-0.09760618
-3.791107	finalized	-0.09760618
-3.791107	finally	-0.1222397
-3.275308	find	-0.1734807
-2.90863	fine	-0.1729592
-3.791107	finger	-0.1192096
-3.791107	fire	-0.1271502
-2.951993	first	-0.1280914
-3.684777	fitbit	-0.1261262
-2.640235	five	-0.2712091
-3.791107	fix	-0.1282496
-3.791107	fixed	-0.09760618
-3.791107	flamingo	-0.09760618
-3.791107	flescher	-0.1268701
-3.791107	flip	-0.1263068
-3.791107	focus	-0.1232214
-3.684777	fog	-0.2665075
-3.684777	font	-0.1212016
-1.883429	for	-0.4234111
-3.791107	foreseeable	-0.1288104
-3.684777	forever	-0.2352645
-3.791107	forget	-0.1192814
-3.791107	form	-0.1288687
-3.684777	forty	-0.2656017
-3.528769	found	-0.1478977
-2.618542	four	-0.2281974
-3.791107	frame	-0.08662706
-3.528769	free	-0.08711869
-3.791107	fri	-0.09760618
-3.383805	friday	-0.2197806
-3.791107	friend	-0.09760618
-2.323088	from	-0.1675957
-3.684777	fulfill	-0.1169042
-3.791107	full	-0.1267409
-3.684777	fun	-0.09295437
-3.275308	function	-0.1422289
-3.791107	functions	-0.09760618
-3.791107	funky	-0.09760618
-3.684777	further	-0.09724892
-3.528769	future	-0.1833592
-3.791107	galaxy	-0.1288687
-3.791107	galaxys6	-0.1288687
-3.791107	gallery	-0.1192814
-3.791107	game	-0.1245096
-3.791107	gb	-0.09760618
-3.791107	generic	-0.1288492
-3.791107	george	-0.1288687
-2.833066	get	-0.1359755
-3.684777	getting	-0.124779
-3.791107	ghostbusters	-0.1284026
-3.791107	girl	-0.1287594
-3.791107	girlfriend	-0.09760618
-3.528769	girls	-0.202922
-3.054368	give	-0.4181799
-3.791107	given	-0.1224983
-3.275308	glad	-0.2550458
-3.791107	gladly	-0.1261018
-3.791107	glitch	-0.1280455
-3.791107	glorious	-0.1288492
-2.507163	go	-0.5403266
-3.791107	god	-0.09760618
-3.383805	goes	-0.2649108
-3.054368	going	-0.2911796
-3.791107	golf	-0.1288687
-3.791107	golfers	-0.09760618
-3.791107	gomez	-0.09760618
-3.383805	gone	-0.2607494
-3.791107	gonna	-0.1273304
-2.869206	good	-0.1965577
-3.116306	goodbye	-0.4440541
-3.791107	google	-0.122705
-3.791107	goood	-0.1287085
-3.275308	got	-0.2639683
-3.791107	gotcha	-0.1280455
-3.791107	gps	-0.1288492
-3.791107	grammatically	-0.1288492
-3.684777	grandma	-0.0869638
-3.791107	grandma's	-0.1269724
-3.054368	great	-0.02948484
-3.791107	ground	-0.09760618
-3.791107	guess	-0.1203193
-3.791107	ha	-0.09760618
-3.383805	had	-0.2122092
-3.791107	hahaha	-0.09760618
-3.791107	half	-0.09760618
-3.791107	hammer	-0.1287085
-3.791107	happen	-0.1285046
-3.791107	happened	-0.09760618
-3.791107	happens	-0.1269212
-3.383805	happy	-0.3373306
-3.791107	harassment	-0.1272281
-3.791107	hard	-0.1288687
-2.559292	has	-0.6959347
-3.684777	hate	-0.2599497
-2.345069	have	-0.1390062
-3.791107	havea	-0.1288104
-3.791107	having	-0.1248696
-3.791107	hazardous	-0.1192814
-3.791107	head	-0.09760618
-3.684777	headphones	-0.09494174
-3.791107	headpiece	-0.1278923
-3.791107	heads	-0.1275348
-3.791107	health	-0.09760618
-3.684777	hear	-0.07949204
-3.791107	heat	-0.1275348
-2.90863	hello	-0.451152
-3.791107	hells	-0.1288687
-2.405445	help	-0.3373428
-3.383805	helpful	-0.1437923
-3.791107	helping	-0.09582212
-3.528769	helps	-0.1581453
-3.054368	her	-0.2247492
-3.000171	here	-0.2120945
-3.528769	hey	-0.1307832
-3.684777	hi	-0.1044411
-3.791107	hide	-0.1253835
-3.383805	high	-0.1956724
-3.684777	highest	-0.2660609
-3.791107	highlight	-0.1253835
-3.791107	hills	-0.1274837
-3.791107	him	-0.09760618
-3.684777	his	-0.2660099
-3.275308	hit	-0.1383468
-3.791107	hm	-0.1216162
-3.791107	hmm	-0.1212287
-3.791107	hmmm	-0.1283516
-3.528769	hold	-0.2059182
-3.684777	home	-0.1839075
-3.791107	homescreen	-0.1288687
-3.791107	honor	-0.09760618
-3.791107	hope	-0.1095362
-3.791107	hoping	-0.1192814
-3.684777	horn	-0.09242709
-3.684777	hot	-0.09750971
-3.383805	hour	-0.1875653
-2.90863	hours	-0.2357288
-2.368222	how	-0.4064478
-3.054368	however	-0.1146702
-3.684777	howlin	-0.2660609
-3.791107	hr	-0.1246125
-3.791107	huge	-0.1287085
-3.791107	humna	-0.09760618
-3.116306	hundred	-0.6645928
-3.791107	husband	-0.1266141
-1.815107	i	-0.4765197
-2.951993	i'd	-0.3246022
-2.687172	i'll	-0.2204372
-2.618542	i'm	-0.1842234
-3.791107	i'ts	-0.1283516
-2.90863	i've	-0.2663604
-3.791107	ibrate	-0.1285556
-3.054368	icon	-0.2498485
-3.791107	iconic	-0.09760618
-3.791107	iconic'	-0.1283516
-3.684777	idea	-0.09540837
-2.333939	if	-0.5447259
-3.275308	im	-0.200381
-3.188571	image	-0.1599076
-3.684777	images	-0.1259285
-3.528769	important	-0.2152971
-3.791107	impossible	-0.1232214
-2.094956	in	-0.3668661
-3.684777	inactive	-0.09702972
-3.684777	include	-0.1234007
-3.684777	including	-0.1239678
-3.684777	incoming	-0.1273036
-3.528769	increase	-0.2022038
-3.684777	increased	-0.09190179
-3.791107	increasing	-0.1278923
-3.528769	indeed	-0.1168244
-3.684777	indefinitely	-0.2352645
-3.791107	individually	-0.1286065
-3.684777	info	-0.08841995
-3.528769	inform	-0.207582
-3.275308	information	-0.1077446
-3.791107	infos	-0.1287594
-3.791107	initiated	-0.09760618
-3.791107	inquire	-0.1224983
-3.791107	inquiry	-0.09760618
-3.791107	inside	-0.09760618
-3.791107	install	-0.122188
-3.791107	installed	-0.09760618
-3.791107	installing	-0.1287594
-3.383805	instead	-0.1556031
-3.684777	instructions	-0.1241223
-3.791107	interested	-0.1254348
-3.791107	interfer	-0.1267165
-3.684777	internet	-0.2352645
-3.791107	interrupted	-0.09760618
-3.791107	intervals	-0.09760618
-3.000171	into	-0.1380871
-3.684777	ios	-0.2352645
-3.275308	iphone	-0.1357429
-1.974034	is	-0.2338173
-3.684777	isn't	-0.1281792
-3.791107	issue	-0.09760618
-1.818447	it	-0.2451664
-3.684777	it'll	-0.1239923
-2.869206	it's	-0.1165948
-3.383805	its	-0.1238231
-3.791107	itunes	-0.09760618
-3.791107	ive	-0.1288492
-3.791107	jack	-0.1268701
-3.791107	jack's	-0.1263068
-3.791107	jackson	-0.09760618
-3.791107	jay	-0.09760618
-3.791107	jim	-0.1288492
-3.791107	johnson	-0.1235039
-2.292071	just	-0.202013
-3.000171	keep	-0.2293874
-3.684777	keeps	-0.2665075
-3.791107	kidding	-0.1253835
-3.791107	kids	-0.09760618
-3.791107	kind	-0.1259992
-3.791107	kindly	-0.1269724
-3.000171	know	-0.1553429
-3.791107	knowing	-0.1224983
-3.791107	knows	-0.122188
-3.791107	labeled	-0.1288492
-3.791107	large	-0.1273304
-3.791107	largest	-0.1288492
-3.188571	last	-0.1349728
-3.791107	lasts	-0.1280965
-3.000171	later	-0.2269759
-3.791107	learn	-0.1282496
-3.791107	least	-0.1287085
-3.528769	leave	-0.1112372
-3.791107	leaving	-0.123634
-3.116306	left	-0.1162259
-3.684777	length	-0.2636575
-3.791107	less	-0.1284026
-2.869206	let	-0.3773472
-3.116306	let's	-0.1876428
-3.791107	letting	-0.1272793
-2.90863	level	-0.1392377
-3.791107	levels	-0.09760618
-3.684777	library	-0.09295437
-3.684777	life	-0.09689927
-3.684777	light	-0.1176889
-3.684777	lighting	-0.1285362
-2.559292	like	-0.1584891
-3.791107	limit	-0.09538215
-3.791107	lisa	-0.1288687
-3.275308	list	-0.1481997
-3.684777	listed	-0.180607
-3.791107	listing	-0.1287594
-3.791107	literally	-0.1288687
-3.684777	little	-0.1265802
-3.275308	living	-0.5227014
-3.791107	ll	-0.122705
-3.684777	load	-0.2657038
-3.791107	loaded	-0.1192814
-3.791107	locally	-0.1288104
-3.684777	location	-0.09587708
-3.684777	lock	-0.1218504
-3.791107	lockscreen	-0.09760618
-3.684777	log	-0.1224712
-3.791107	login	-0.1284536
-3.791107	lol	-0.127177
-3.383805	long	-0.07639364
-3.684777	longer	-0.09587708
-3.116306	look	-0.147576
-3.791107	looking	-0.1075612
-3.791107	looks	-0.1277392
-3.791107	loop	-0.1288687
-3.684777	lori	-0.1232975
-3.791107	los	-0.1288687
-3.791107	lot	-0.0936994
-3.791107	lots	-0.1259992
-2.833066	loud	-0.1730651
-3.791107	loudest	-0.1278923
-3.684777	love	-0.1129063
-3.791107	lovely	-0.1281208
-3.054368	low	-0.1970869
-3.383805	lower	-0.2593016
-3.791107	lowered	-0.1284026
-3.791107	lowest	-0.127177
-3.791107	lte	-0.09760618
-3.791107	luck	-0.09760618
-3.791107	m	-0.1192814
-3.383805	made	-0.1411159
-3.684777	main	-0.1283323
-3.791107	maintenance	-0.1246639
-3.791107	major	-0.1288492
-2.618542	make	-0.2654584
-3.684777	makes	-0.1286187
-3.528769	making	-0.1781221
-3.684777	man	-0.09702972
-3.054368	manage	-0.2634452
-3.791107	managed	-0.09760618
-3.684777	manages	-0.1193062
-3.528769	managing	-0.1800125
-3.791107	mange	-0.1246639
-3.383805	manually	-0.1576491
-3.383805	many	-0.1133641
-3.791107	matching	-0.1282496
-3.791107	mate	-0.09760618
-3.684777	max	-0.1252538
-3.528769	maximum	-0.1254324
-3.188571	may	-0.1924844
-3.684777	maybe	-0.1258185
-3.791107	mcfarin	-0.09760618
-2.418597	me	-0.09774949
-3.383805	mean	-0.1145432
-3.383805	means	-0.1151703
-3.791107	meant	-0.1192814
-3.684777	media	-0.2655507
-3.188571	meeting	-0.1920906
-3.684777	meetings	-0.09295437
-3.791107	men's	-0.1287085
-3.791107	ment	-0.1281475
-3.383805	menu	-0.1688857
-3.791107	menue	-0.1286065
-3.684777	meowing	-0.2665075
-3.383805	message	-0.1194575
-3.383805	messages	-0.09060831
-3.791107	metal	-0.1287594
-3.528769	michael	-0.1224318
-3.684777	might	-0.1251242
-3.528769	million	-0.09546338
-3.791107	mills	-0.09760618
-3.383805	mind	-0.0795464
-3.684777	minute	-0.09389398
-3.275308	minutes	-0.1374223
-3.791107	missed	-0.1288492
-3.791107	mixer	-0.09760618
-3.275308	mobile	-0.2205064
-3.791107	mobyrav	-0.09760618
-2.507163	mode	-0.2072909
-3.791107	model	-0.1259992
-3.791107	modified	-0.1264092
-3.791107	modify	-0.1213324
-3.791107	mom	-0.1222914
-3.528769	moment	-0.2036778
-3.684777	mon	-0.2569397
-3.275308	monday	-0.2768794
-3.528769	monkey	-0.07871949
-3.791107	mood	-0.1232214
-3.791107	mooing	-0.09760618
-3.791107	moon	-0.1288687
-3.791107	moonlight	-0.1288687
-3.000171	more	-0.153513
-3.275308	morning	-0.1313202
-3.791107	morty	-0.09702972
-3.188571	most	-0.1250386
-3.791107	mother	-0.1282496
-3.791107	moto	-0.1288687
-3.684777	move	-0.09090226
-3.684777	movie	-0.1462231
-3.791107	movies	-0.08948099
-3.791107	moving	-0.1268701
-3.791107	muc	-0.1286065
-3.116306	much	-0.1915137
-3.791107	multiple	-0.1284026
-3.383805	music	-0.1135501
-3.528769	must	-0.1234744
-3.116306	mute	-0.1142637
-3.383805	muted	-0.153436
-2.008987	my	-0.3502035
-3.684777	myself	-0.09538215
-3.791107	mysetting	-0.09760618
-2.869206	name	-0.1268062
-3.528769	nap	-0.2696097
-3.791107	natural	-0.1268701
-3.791107	nature	-0.1259992
-3.791107	neat	-0.1254861
-2.687172	need	-0.1418282
-3.791107	needed	-0.07492943
-3.528769	needs	-0.08533384
-3.684777	network	-0.1156982
-3.383805	never	-0.1236292
-3.054368	new	-0.15374
-3.054368	next	-0.1555401
-3.684777	nfc	-0.09664585
-3.791107	nfcturned	-0.1274326
-3.528769	nice	-0.3003551
-3.791107	nicely	-0.09760618
-3.383805	night	-0.3945484
-2.66307	nine	-0.1761078
-3.684777	ninety	-0.1271502
-3.791107	nme	-0.09760618
-3.684777	nnn	-0.2352645
-2.523854	no	-0.09805255
-3.791107	noise	-0.1267165
-3.275308	noises	-0.1140373
-3.684777	non	-0.1270041
-3.791107	none	-0.1259992
-3.791107	noon	-0.1255375
-3.791107	nope	-0.09273037
-3.275308	normal	-0.1325174
-2.460626	not	-0.1494375
-3.791107	notches	-0.09760618
-3.684777	note	-0.1196186
-3.791107	noted	-0.09760618
-3.684777	notfications	-0.09719413
-3.383805	nothing	-0.1325117
-3.684777	notice	-0.09713933
-3.791107	notif	-0.09760618
-3.791107	notifcations	-0.09067982
-3.791107	notifiactions	-0.09760618
-3.054368	notification	-0.1218918
-2.66307	notifications	-0.1816636
-3.791107	notificationsare	-0.1224983
-3.791107	notified	-0.1259992
-3.684777	notify	-0.1215915
-2.244843	now	-0.1736702
-3.791107	np	-0.09760618
-3.791107	ntofications	-0.09760618
-2.869206	number	-0.2897971
-3.791107	numbers	-0.09760618
-3.791107	nvm	-0.1288492
-3.791107	ode	-0.09760618
-2.17095	of	-0.2595808
-3.791107	ofcourse	-0.1222397
-2.460626	off	-0.1971821
-3.791107	offers	-0.1232214
-3.791107	oh	-0.1147021
-3.791107	ohsure	-0.1222397
-3.791107	oinks	-0.09760618
-2.869206	ok	0.03913994
-3.791107	oka	-0.09760618
-3.791107	okat	-0.127177
-2.799703	okay	0.03960231
-3.791107	okaythank	-0.1224983
-3.791107	oke	-0.09760618
-3.383805	old	-0.1671271
-3.791107	olease	-0.09760618
-3.791107	oly	-0.1287085
-3.791107	omiscient	-0.1286065
-3.791107	omnipotent	-0.1267165
-3.791107	omniscient	-0.09760618
-1.993661	on	-0.3215269
-2.90863	once	-0.130973
-2.282206	one	-0.2486524
-3.528769	ones	-0.1796119
-2.559292	only	-0.09457385
-3.791107	ooooooo	-0.09760618
-3.791107	oops	-0.1222397
-3.116306	open	-0.1510896
-3.383805	opened	-0.155483
-3.684777	opening	-0.1851174
-3.791107	operator	-0.1192814
-2.951993	option	-0.2548605
-3.275308	options	-0.1513399
-2.323088	or	-0.1812977
-3.791107	order	-0.1259992
-3.791107	ot	-0.1284536
-3.116306	other	-0.16768
-3.791107	our	-0.1288104
-3.054368	out	-0.106294
-3.528769	over	-0.08137407
-3.528769	own	-0.1831945
-3.791107	pair	-0.1246639
-3.791107	paired	-0.123634
-3.791107	panel	-0.1199307
-3.791107	paper	-0.1272793
-3.684777	particular	-0.0935468
-3.791107	password	-0.09631654
-3.684777	patrick	-0.266527
-3.791107	pelase	-0.09760618
-3.791107	pending	-0.1269212
-3.791107	people	-0.1268701
-3.791107	per	-0.1235629
-3.528769	percent	-0.1823704
-3.054368	perfect	-0.1787004
-3.791107	perform	-0.1258966
-3.791107	perhaps	-0.1222397
-3.684777	period	-0.2636575
-3.791107	permanent	-0.1272793
-3.791107	permission	-0.1288687
-3.684777	personal	-0.1253566
-3.791107	phne	-0.1266653
-3.791107	phoen	-0.1257941
-2.21879	phone	-0.2155384
-3.684777	phone's	-0.1688431
-3.528769	phones	-0.118763
-3.528769	photo	-0.1170588
-3.684777	photos	-0.1787006
-3.791107	pic	-0.1283516
-3.684777	pick	-0.1190185
-3.684777	pickle	-0.2664177
-3.000171	picture	-0.1404117
-3.791107	pictureplease	-0.09760618
-3.684777	pictures	-0.1162031
-3.684777	pig	-0.09753066
-3.791107	pigs	-0.09760618
-3.684777	pin	-0.2660099
-3.275308	place	-0.1307317
-3.383805	placed	-0.1756416
-3.791107	plans	-0.1272793
-3.116306	play	-0.1895601
-3.791107	played	-0.1287594
-3.791107	playing	-0.1248696
-3.528769	playlist	-0.2091877
-3.791107	plays	-0.1248696
-2.101341	please	-0.3058042
-3.791107	pleasure	-0.09760618
-3.791107	plesae	-0.09760618
-3.684777	pls	-0.1822604
-3.791107	plsease	-0.1261018
-3.791107	pluis	-0.1269724
-3.054368	plus	-0.2245168
-3.116306	pm	-0.1789062
-3.791107	pocket	-0.09760618
-3.791107	point	-0.1259992
-3.791107	popular	-0.1266653
-3.528769	positive	-0.08763647
-3.791107	possibility	-0.1259992
-3.383805	possible	-0.3063368
-2.90863	power	-0.2852571
-3.791107	prefer	-0.09433545
-3.791107	preference	-0.1287085
-3.791107	preferred	-0.1266653
-3.528769	press	-0.1724009
-3.791107	pressed	-0.1222914
-3.791107	pressing	-0.122188
-3.791107	pretend	-0.1222397
-3.791107	print	-0.1222914
-3.791107	privacy	-0.1257941
-3.791107	probably	-0.1248696
-3.791107	probaly	-0.1287594
-3.791107	proble	-0.1254861
-3.383805	problem	-0.08589789
-3.791107	problems	-0.09760618
-2.951993	proceed	-0.4964361
-3.791107	proceede	-0.09760618
-3.791107	process	-0.1243037
-3.791107	processing	-0.1230911
-3.528769	profile	-0.09375463
-3.791107	profiles	-0.1232214
-3.791107	programmed	-0.1192814
-3.791107	proper	-0.1284536
-3.791107	provide	-0.1278413
-3.791107	provided	-0.1222397
-3.791107	pull	-0.1275348
-3.684777	pulled	-0.2139184
-3.684777	pulling	-0.1208657
-3.791107	punch	-0.1288492
-3.528769	purchase	-0.1772255
-3.791107	purposes	-0.09760618
-2.687172	put	-0.3874649
-3.684777	putting	-0.1218504
-3.275308	question	-0.141545
-3.684777	questions	-0.2352645
-3.383805	quick	-0.146278
-3.791107	quiet	-0.09760618
-3.791107	rainforest	-0.09760618
-3.791107	random	-0.1232214
-3.684777	rang	-0.1219539
-3.791107	rat	-0.1288492
-3.684777	reach	-0.1214879
-3.791107	read	-0.1248696
-3.684777	ready	-0.1134344
-3.791107	real	-0.1278923
-2.951993	really	-0.1046086
-3.791107	reapers	-0.09389398
-3.791107	rearranged	-0.1282496
-3.116306	receive	-0.2154393
-3.684777	recently	-0.09753066
-3.791107	recheck	-0.122705
-3.791107	reconfirm	-0.1288687
-3.791107	recurr	-0.09760618
-3.791107	recurring	-0.1257941
-3.791107	reduce	-0.1192814
-3.791107	referring	-0.1192814
-3.791107	reflect	-0.1189143
-3.791107	regarding	-0.123634
-3.684777	regular	-0.1259724
-3.684777	related	-0.1175321
-3.528769	remain	-0.09292539
-3.791107	remaining	-0.09760618
-3.528769	remember	-0.2026764
-3.684777	remind	-0.207582
-3.684777	reminder	-0.06765939
-3.791107	remix	-0.09760618
-3.791107	remote	-0.1288104
-3.684777	remove	-0.1267995
-3.791107	removes	-0.122188
-3.791107	renamed	-0.09760618
-3.791107	replace	-0.1246639
-3.383805	request	-0.1919557
-3.684777	requested	-0.1502492
-3.791107	require	-0.09760618
-3.684777	reset	-0.1244312
-3.791107	resources	-0.09760618
-3.791107	response	-0.09760618
-3.684777	rest	-0.09422513
-3.791107	restarted	-0.1280965
-3.791107	restore	-0.1246639
-3.791107	results	-0.1254861
-3.684777	resume	-0.1282739
-3.791107	resuming	-0.123634
-3.188571	return	-0.2318774
-3.791107	rhelp	-0.1257427
-3.383805	rick	-0.2164257
-2.618542	right	-0.358261
-2.597881	ring	-0.3215188
-2.799703	ringer	-0.1761252
-3.684777	ringing	-0.09411217
-3.791107	rings	-0.120579
-2.345069	ringtone	-0.2509952
-3.275308	ringtones	-0.1127704
-3.791107	role	-0.09760618
-3.684777	room	-0.08759379
-3.684777	rooster	-0.09753066
-3.791107	root	-0.1285046
-3.791107	router	-0.09760618
-3.684777	rule	-0.09433545
-3.684777	rump	-0.266527
-3.791107	s8	-0.1285556
-3.684777	said	-0.1245856
-3.684777	sally	-0.2665075
-3.684777	same	-0.1272331
-3.791107	samsung	-0.1288687
-3.791107	saturday	-0.1257941
-3.275308	save	-0.2022551
-3.000171	saved	-0.1524092
-3.791107	saver	-0.1275859
-3.791107	saving	-0.1275859
-3.791107	savings	-0.09760618
-3.188571	say	-0.116625
-3.791107	says	-0.126153
-3.684777	schedule	-0.1134872
-3.528769	scheduled	-0.1139871
-3.791107	school	-0.09477648
-3.791107	scouts	-0.1288687
-3.528769	screaming	-0.3008139
-3.000171	screen	-0.1752242
-3.791107	sec	-0.09760618
-3.684777	second	-0.08679546
-3.684777	seconds	-0.09587708
-3.528769	section	-0.2062827
-3.383805	security	-0.191295
-2.951993	see	-0.1959985
-3.791107	seem	-0.1192814
-3.383805	seems	-0.1114215
-3.791107	seetings	-0.1257941
-3.791107	seettings	-0.09760618
-3.383805	select	-0.1172681
-3.791107	selena	-0.1288687
-3.791107	send	-0.1287085
-3.684777	sense	-0.09664585
-3.684777	sensitivity	-0.1145415
-3.791107	sent	-0.1192814
-3.684777	separate	-0.1265873
-3.791107	serious	-0.1286575
-3.528769	service	-0.1828101
-2.186318	set	-0.4154061
-3.791107	seting	-0.1266653
-3.791107	settig	-0.09760618
-2.282206	setting	-0.14527
-2.141754	settings	-0.221741
-3.791107	settingsscreenbrightness	-0.09760618
-3.791107	settingssoundsdo	-0.1274326
-2.739803	seven	-0.2146316
-3.791107	seventeen	-0.1273304
-3.791107	seventy	-0.1256646
-3.684777	several	-0.1270991
-3.791107	sexy	-0.1285046
-3.791107	shaker	-0.09549218
-3.791107	shall	-0.1222397
-3.791107	shaped	-0.1285556
-3.791107	she	-0.1243037
-3.791107	shirtless	-0.1285046
-3.791107	shoot	-0.1288104
-3.528769	short	-0.1910201
-2.869206	should	-0.2381734
-3.528769	show	-0.125689
-3.684777	shut	-0.1273621
-3.684777	side	-0.1259089
-3.791107	sign	-0.1246125
-3.791107	signaled	-0.09760618
-3.116306	silence	-0.1404468
-3.528769	silenced	-0.08791645
-2.951993	silent	-0.20245
-3.791107	similar	-0.1266653
-3.684777	simply	-0.2638113
-3.791107	since	-0.1222397
-3.528769	single	-0.1283492
-3.684777	siren	-0.0912066
-3.791107	sit	-0.1243037
-2.71269	six	-0.183137
-3.791107	sixties	-0.1288104
-3.684777	sixty	-0.1263044
-3.528769	size	-0.08609205
-3.791107	skill	-0.09760618
-3.791107	skills	-0.09760618
-3.791107	skynet	-0.09760618
-3.791107	sleep	-0.1272281
-3.791107	sleeping	-0.1255375
-3.684777	slide	-0.2612923
-3.791107	slightly	-0.1246125
-3.684777	small	-0.1287984
-3.791107	smart	-0.1286065
-3.791107	smartphone	-0.09760618
-3.684777	smash	-0.1218504
-3.684777	smith	-0.08693442
-3.791107	smooth	-0.1288687
-3.791107	snoop	-0.09760618
-2.541211	so	-0.2038569
-3.791107	soft	-0.126153
-3.684777	software	-0.2661119
-2.597881	some	-0.2708374
-3.684777	somebody	-0.1277124
-3.528769	someone	-0.2144806
-2.799703	something	-0.1388905
-3.791107	somethingelse	-0.09760618
-3.791107	sonata	-0.1273304
-3.116306	song	-0.1447126
-3.684777	songs	-0.1158032
-3.528769	soon	-0.2103236
-3.275308	sorry	-0.2280315
-3.791107	sort	-0.1183679
-2.39268	sound	-0.2072154
-3.791107	soundbar	-0.1274837
-2.66307	sounds	-0.1779506
-3.684777	space	-0.1201386
-3.684777	speaker	-0.1311867
-3.528769	special	-0.1262019
-3.684777	specific	-0.09535334
-3.383805	specifically	-0.1854564
-3.791107	specify	-0.09034596
-3.791107	speicfy	-0.09760618
-3.791107	spice	-0.1288104
-3.791107	splendid	-0.1283516
-3.791107	sportify	-0.1232214
-3.684777	spotify	-0.2352645
-3.791107	ssn	-0.1232214
-3.684777	stacey's	-0.2660099
-3.791107	stand	-0.1285556
-3.791107	star	-0.1288687
-3.791107	starry	-0.1287594
-3.383805	start	-0.1355982
-3.528769	starting	-0.2100657
-3.791107	stated	-0.1272793
-3.791107	statust	-0.09760618
-3.791107	step	-0.1254861
-3.791107	stick	-0.1267165
-3.054368	still	-0.1761646
-3.528769	stop	-0.08970403
-3.791107	study	-0.1232214
-3.684777	stuff	-0.09284369
-3.791107	sture	-0.1224983
-3.791107	subscription	-0.1192814
-3.528769	successfully	-0.2139184
-3.528769	such	-0.09148429
-3.684777	sue	-0.1207619
-3.791107	sun	-0.1285556
-3.791107	sunny	-0.1283516
-3.791107	sunshine	-0.1283516
-3.791107	suppose	-0.1192814
-3.791107	supposed	-0.1192814
-2.597881	sure	-0.0711496
-3.791107	surelike	-0.1261018
-3.791107	surely	-0.1272281
-3.791107	surewhat	-0.123273
-3.791107	surface	-0.09760618
-3.791107	susan	-0.1288687
-3.791107	swayze	-0.1221684
-3.791107	sweet	-0.09760618
-3.791107	swim	-0.1288104
-3.684777	swipe	-0.2046139
-3.275308	switch	-0.1939266
-3.791107	switched	-0.1192814
-3.791107	switching	-0.1278535
-3.791107	system	-0.1284536
-3.684777	tab	-0.1188373
-2.833066	take	-0.2224181
-3.791107	talk	-0.1285046
-3.791107	tapped	-0.1222914
-3.791107	task	-0.1243037
-3.791107	technical	-0.1288687
-3.188571	tell	-0.2928173
-3.684777	telling	-0.2649376
-3.791107	temp	-0.1254348
-3.116306	ten	-0.2030211
-3.791107	terrible	-0.1257941
-3.275308	text	-0.1279013
-3.528769	texts	-0.1864101
-3.791107	thaen	-0.1274837
-3.684777	than	-0.2352645
-2.368222	thank	-0.9809176
-3.791107	thankks	-0.09760618
-2.39268	thanks	-0.3924918
-3.791107	thans	-0.09760618
-1.846135	that	-0.1026145
-3.684777	that'll	-0.1270479
-2.687172	that's	-0.2999405
-3.000171	thats	-0.2035903
-1.811792	the	-0.2833334
-3.791107	theatre	-0.1276881
-3.791107	their	-0.1224983
-2.687172	them	-0.2181885
-2.90863	theme	-0.1967144
-2.475591	then	-0.208965
-2.687172	there	-0.2567179
-3.684777	there's	-0.1242327
-3.684777	these	-0.1272599
-3.116306	they	-0.2016118
-3.275308	thing	-0.06470558
-3.528769	things	-0.1151177
-3.684777	think	-0.08089712
-3.383805	thirty	-0.1736358
-2.156107	this	-0.2544464
-3.791107	thnk	-0.1224983
-2.799703	those	-0.1998444
-3.188571	though	-0.264248
-3.383805	thousand	-0.118676
-3.791107	threatened	-0.1192814
-2.578158	three	-0.2525029
-3.116306	through	-0.08387008
-3.684777	throw	-0.2599497
-3.684777	thx	-0.2352645
-3.791107	ti	-0.126153
-3.684777	till	-0.1190185
-2.597881	time	-0.29706
-3.684777	timed	-0.1276176
-3.275308	timer	-0.1030961
-3.684777	times	-0.1192021
-3.684777	timmy	-0.09455603
-3.791107	title	-0.1232214
-1.65774	to	-0.1951693
-2.66307	today	-0.382434
-3.791107	todo	-0.1274326
-3.791107	together	-0.09760618
-3.791107	toggle	-0.1222914
-3.188571	tomorrow	-0.1564467
-2.90863	tone	-0.1382893
-3.791107	tones	-0.09020547
-3.791107	tonight	-0.09760618
-2.739803	too	-0.329106
-3.791107	toobye	-0.09760618
-3.791107	toolbar	-0.1245096
-3.791107	top	-0.1189912
-3.791107	tournament	-0.1246125
-3.791107	train	-0.09760618
-3.791107	transferring	-0.1253835
-3.791107	tricky	-0.1272281
-3.791107	tried	-0.1285556
-3.791107	trouble	-0.1257941
-3.791107	trump	-0.09760618
-3.188571	try	-0.1181368
-3.383805	trying	-0.4162237
-3.791107	tun	-0.1274326
-2.345069	turn	-0.4845989
-2.687172	turned	-0.4310918
-2.640235	turning	-0.4988736
-3.684777	turns	-0.2650909
-3.528769	twelve	-0.2146338
-3.188571	twenty	-0.2999368
-3.684777	twitter	-0.09659098
-2.597881	two	-0.2179844
-3.791107	twotime	-0.1280965
-3.791107	txt	-0.1287594
-3.684777	ty	-0.2352645
-3.684777	type	-0.2636575
-3.275308	u	-0.1202724
-3.791107	u2	-0.09760618
-3.791107	ughs	-0.1285046
-3.791107	ugly	-0.1282496
-3.791107	uglyman	-0.1254348
-3.791107	unable	-0.1192814
-3.116306	under	-0.1788345
-3.684777	understand	-0.1141101
-3.791107	understood	-0.1222397
-3.791107	undisturbed	-0.1232214
-3.791107	undone	-0.09422513
-3.791107	unfortunate	-0.09760618
-3.684777	unfortunately	-0.1211769
-3.791107	unique	-0.1192814
-3.791107	unsure	-0.1285556
-2.71269	until	-0.1828766
-3.791107	untill	-0.1281475
-2.49109	up	-0.227897
-2.951993	update	-0.1747929
-3.528769	updated	-0.1183664
-3.684777	updates	-0.1239163
-3.791107	upload	-0.122188
-3.791107	usage	-0.1246125
-3.791107	usb	-0.1288687
-3.116306	use	-0.1170799
-3.275308	used	-0.1280489
-3.791107	usemountain	-0.1288492
-3.383805	using	-0.1248282
-3.791107	usual	-0.09760618
-3.791107	verify	-0.122705
-3.791107	version	-0.1236831
-2.90863	very	-0.2015817
-3.791107	via	-0.1288492
-2.194211	vibrate	-0.2445514
-3.791107	vibrateare	-0.1224983
-3.528769	vibrates	-0.1572075
-3.791107	vibratesd	-0.1288104
-3.791107	vibratethanks	-0.09760618
-3.684777	vibrating	-0.09549218
-3.188571	vibration	-0.07357614
-3.791107	vibrations	-0.09760618
-3.791107	videos	-0.1246125
-3.791107	virbrate	-0.09760618
-3.791107	visability	-0.1257941
-3.791107	visible	-0.09760618
-3.791107	voice	-0.1288687
-2.618542	volume	-0.1624769
-3.275308	wait	-0.1972617
-3.528769	wake	-0.2480791
-3.791107	wakeup	-0.123273
-3.791107	walk	-0.122188
-3.791107	wall	-0.1288687
-3.275308	wallpaper	-0.1290883
-3.791107	wan	-0.1192814
-3.791107	wannabe	-0.1278923
-2.66307	want	-0.2233769
-3.684777	wanted	-0.1739857
-3.383805	warn	-0.4194405
-3.791107	warned	-0.1286575
-3.383805	warning	-0.2161666
-3.791107	wars	-0.1284026
-3.383805	was	-0.09372601
-3.791107	watching	-0.1248696
-3.528769	water	-0.1243676
-3.528769	waterfall	-0.1840719
-3.188571	way	-0.1670135
-3.684777	ways	-0.08721749
-3.275308	we	-0.1241004
-3.684777	we're	-0.125293
-3.791107	weather	-0.1266653
-3.684777	web	-0.09753066
-3.791107	website	-0.09760618
-3.791107	week	-0.09702972
-3.791107	weekdays	-0.09760618
-3.791107	weekend	-0.09760618
-3.791107	weeks	-0.1288492
-3.791107	weird	-0.1263068
-3.054368	welcome	-0.2288192
-3.791107	welcomegood	-0.1283516
-3.116306	well	-0.07891998
-3.684777	were	-0.1219539
-3.791107	west	-0.1288687
-2.186318	what	-0.3894934
-3.528769	what's	-0.1479424
-2.323088	when	-0.2966162
-3.188571	whenever	-0.4207077
-3.054368	where	-0.08338006
-2.739803	which	-0.3192737
-3.791107	whil	-0.09760618
-3.054368	while	-0.149523
-3.791107	whisper	-0.09383877
-3.116306	who	-0.1723108
-3.791107	why	-0.1216556
-3.791107	widgets	-0.1277392
-3.116306	wifi	-0.09386849
-3.791107	wig	-0.1266653
-2.272559	will	-0.2101478
-3.383805	wind	-0.2510077
-3.791107	winter	-0.1288687
-3.791107	wireless	-0.1288492
-3.383805	wish	-0.1810971
-2.292071	with	-0.2394118
-3.275308	without	-0.1323308
-3.791107	wizard	-0.1246639
-3.791107	wlecome	-0.09760618
-3.528769	won't	-0.2328398
-3.528769	wonderful	-0.1446749
-3.791107	wondering	-0.1250483
-3.684777	wont	-0.2649887
-3.684777	wood	-0.2664177
-3.188571	work	-0.07252515
-3.684777	working	-0.1261774
-3.684777	works	-0.0962408
-3.791107	worry	-0.1273304
-2.10782	would	-0.7288432
-3.791107	wouldn't	-0.1288687
-3.791107	wow	-0.1288687
-3.791107	written	-0.1286065
-3.791107	wrong	-0.09760618
-3.791107	x4	-0.1246125
-3.791107	y	-0.09760618
-3.791107	yas	-0.1222397
-3.791107	ye	-0.1222201
-3.684777	yeah	-0.09762449
-3.791107	yelp	-0.1286575
-3.791107	yep	-0.1280455
-3.116306	yes	0.05466712
-3.791107	yesyes	-0.1222914
-3.791107	yet	-0.1283006
-3.791107	yn	-0.09760618
-1.832071	you	-0.1067885
-3.275308	you'd	-0.5215914
-3.528769	you'll	-0.1228821
-3.116306	you're	-0.1374912
-3.528769	you've	-0.1272257
-3.684777	youd	-0.2653975
-3.791107	young	-0.1288492
-1.915757	your	-0.3907629
-3.791107	youre	-0.1284852
-3.528769	yourself	-0.2176465
-3.791107	yourvwelcmoe	-0.09760618
-3.791107	youu're	-0.1285556
-3.791107	yoy	-0.1279944
-3.791107	yup	-0.09760618
-3.791107	yw	-0.09760618
-2.90863	zero	-0.2032371
-3.791107	zippity	-0.1288687

\2-grams:
-0.5902759	'chill' playlist
-0.3011176	'do not	-0.4987816
-0.5902759	'meeting' to
-0.5902759	'morning call'
-0.5902759	'newdravewav' </s>
-0.5902759	'the iconic'
-0.8913059	0 </s>
-0.8913059	0 is
-0.5902759	1pm </s>
-0.5902759	2pm to
-0.5902759	3 which
-0.8913059	3pm for
-0.8913059	3pm this
-0.5902759	4g lte
-0.6394597	4pm </s>
-1.192336	4pm to
-1.192336	4pm today
-0.5902759	5 what
-0.4472106	5pm </s>
-1.435374	5pm end
-1.435374	5pm thanks
-1.435374	5pm to
-0.5145209	6am </s>
-1.067397	6am tomorrow
-0.6394597	6pm </s>
-1.192336	6pm mon
-1.192336	6pm monday	-0.1866838
-0.5902759	6s </s>
-0.8913059	7am </s>
-0.8913059	7am to
-0.7363697	8 </s>
-1.289246	8 anything
-1.289246	8 i
-1.289246	8 would
-0.6021476	8am </s>
-1.368427	8am and
-0.8155509	8am to	-0.211633
-0.8913059	8pm </s>
-0.8913059	8pm to
-0.5902759	9 twenty
-0.8913059	9am </s>
-0.8913059	9am please
-0.6394597	9pm </s>
-0.6394597	9pm tonight	-0.1457874
-4.315371	<s> a
-4.315371	<s> aalright
-2.984756	<s> absolutely	-0.07563523
-4.315371	<s> access
-3.327207	<s> actually	-0.1716036
-4.315371	<s> add
-4.315371	<s> adding
-4.315371	<s> adjusting
-4.315371	<s> airplane
-4.315371	<s> ake
-3.327207	<s> alarm	-0.08573375
-2.628195	<s> all	-0.1967431
-3.762494	<s> already
-1.902275	<s> alright	-0.2570565
-4.315371	<s> alrighti
-4.315371	<s> alrighti've
-4.315371	<s> alrighty
-2.912201	<s> also	-0.09186061
-2.628195	<s> and	-0.05788591
-4.315371	<s> android
-4.315371	<s> angie
-3.549091	<s> any	-0.2224216
-3.762494	<s> anyhting
-2.200054	<s> anything	-0.224423
-2.795691	<s> anytime	-0.1924277
-4.315371	<s> apple
-4.315371	<s> appreciate
-2.139637	<s> are	-1.229522
-3.762494	<s> as	-0.2504607
-4.315371	<s> at
-2.664408	<s> awesome	-0.06951245
-3.762494	<s> ayeo
-4.315371	<s> barbara
-4.315371	<s> be
-4.315371	<s> becky
-3.762494	<s> bee
-4.315371	<s> before
-4.315371	<s> beyond
-4.315371	<s> bill
-4.315371	<s> bluetooth
-4.315371	<s> bot
-3.762494	<s> both
-4.315371	<s> brass
-3.549091	<s> brightness
-3.549091	<s> but
-3.327207	<s> by	-0.2519653
-2.45793	<s> bye	-0.2537881
-3.762494	<s> call
-1.292928	<s> can	-1.451993
-4.315371	<s> careless
-2.534771	<s> certainly	-0.2391571
-2.507618	<s> change	-0.3330001
-4.315371	<s> changes
-4.315371	<s> changing
-3.549091	<s> checking
-4.315371	<s> collins
-4.315371	<s> complete
-4.315371	<s> confirm
-3.549091	<s> confirmed	-0.09066746
-2.984756	<s> consider	-0.3457703
-4.315371	<s> contact
-4.315371	<s> cool
-3.071911	<s> correct	0.3556711
-2.45793	<s> could	-0.8016302
-4.315371	<s> creating
-4.315371	<s> currently
-4.315371	<s> day
-4.315371	<s> delete
-3.327207	<s> did	0.1103899
-4.315371	<s> disable
-1.883112	<s> do	-0.7807416
-3.181064	<s> does	0.04602269
-3.327207	<s> doing	-0.1752156
-4.315371	<s> don't
-4.315371	<s> donald
-2.076737	<s> done	-0.3597239
-4.315371	<s> donme
-4.315371	<s> earth
-4.315371	<s> edit
-4.315371	<s> eh
-3.181064	<s> eight
-3.762494	<s> enable	-0.2196858
-4.315371	<s> enabling
-4.315371	<s> enjoy
-4.315371	<s> even
-4.315371	<s> everyday
-2.984756	<s> excellent	-0.04344762
-4.315371	<s> except
-4.315371	<s> fair
-3.762494	<s> fam
-4.315371	<s> fantastic
-4.315371	<s> fine
-3.549091	<s> first
-4.315371	<s> fog
-2.747385	<s> for	-0.03760635
-4.315371	<s> forever
-4.315371	<s> found
-4.315371	<s> four
-4.315371	<s> from
-4.315371	<s> get
-4.315371	<s> give
-2.703918	<s> glad	-0.217322
-4.315371	<s> gladly
-2.850051	<s> go	0.1040717
-2.628195	<s> good	-0.2502773
-2.984756	<s> goodbye	0.118802
-4.315371	<s> goood
-2.850051	<s> got	-0.1883912
-1.773273	<s> great	-0.3002629
-4.315371	<s> ha
-4.315371	<s> hahaha
-3.549091	<s> happy	0.02224148
-1.9887	<s> have	-1.050456
-4.315371	<s> havea
-1.041597	<s> hello	-1.47783
-2.482064	<s> help	-0.8424785
-4.315371	<s> her
-2.747385	<s> hey	-0.08760068
-1.9887	<s> hi	-0.6820265
-4.315371	<s> hide
-4.315371	<s> highest
-3.549091	<s> hm
-3.762494	<s> hmm
-4.315371	<s> hmmm
-1.973048	<s> how	-0.3290063
-4.315371	<s> however
-4.315371	<s> howlin
-0.8723099	<s> i	-0.8421633
-2.285767	<s> i'd	-0.7045324
-4.315371	<s> i'll
-2.482064	<s> i'm	-0.1574652
-4.315371	<s> i'ts
-2.664408	<s> i've	-0.1398439
-2.482064	<s> if	-0.1876469
-3.549091	<s> im
-4.315371	<s> in
-4.315371	<s> indeed
-4.315371	<s> installing
-4.315371	<s> ios
-2.139637	<s> is	-0.6128018
-2.162805	<s> it	-0.4595874
-2.628195	<s> it's	-0.07072335
-3.549091	<s> its	-0.1398347
-4.315371	<s> jackson
-1.936222	<s> just	-0.613013
-4.315371	<s> keep
-3.549091	<s> kindly	-0.1497971
-3.762494	<s> let
-3.549091	<s> let's
-4.315371	<s> level
-4.315371	<s> living
-4.315371	<s> look
-4.315371	<s> lori
-3.762494	<s> loud
-4.315371	<s> low
-4.315371	<s> lower
-3.181064	<s> make	-0.2184388
-3.762494	<s> making
-3.549091	<s> manage	-0.1903225
-3.549091	<s> managing	-0.2499101
-4.315371	<s> maybe
-3.762494	<s> mode
-4.315371	<s> morning
-2.795691	<s> my	-0.1244287
-4.315371	<s> name
-4.315371	<s> neat
-3.181064	<s> need	-0.4565196
-4.315371	<s> new
-4.315371	<s> nfc
-4.315371	<s> nfcturned
-4.315371	<s> nine
-4.315371	<s> nnn
-1.436176	<s> no	-0.5980549
-4.315371	<s> non
-2.703918	<s> nope	-0.3069962
-3.549091	<s> not
-4.315371	<s> noted
-2.984756	<s> nothing	-0.1137607
-3.327207	<s> now	-0.1114923
-3.549091	<s> np	-0.1497971
-4.315371	<s> number
-4.315371	<s> nvm
-3.327207	<s> of	-0.3990166
-4.315371	<s> ofcourse
-4.315371	<s> off
-2.534771	<s> oh	-0.0803765
-4.315371	<s> ohsure
-1.314318	<s> ok	-0.3570624
-4.315371	<s> oka
-4.315371	<s> okat
-1.260456	<s> okay	-0.4274913
-4.315371	<s> okaythank
-4.315371	<s> oke
-3.327207	<s> on	-0.2042591
-3.549091	<s> one	-0.1357112
-3.762494	<s> only	-0.2425445
-4.315371	<s> ooooooo
-4.315371	<s> oops
-3.181064	<s> open	-0.1202449
-4.315371	<s> opened
-4.315371	<s> opening
-4.315371	<s> or
-2.912201	<s> perfect
-2.912201	<s> phone	-0.03510701
-4.315371	<s> pickle
-1.876907	<s> please	-0.129332
-4.315371	<s> plsease
-3.762494	<s> press
-4.315371	<s> proceed
-3.762494	<s> processing
-3.327207	<s> put
-4.315371	<s> putting
-4.315371	<s> rainforest
-3.762494	<s> really
-4.315371	<s> remember
-3.327207	<s> right	0.02326514
-3.762494	<s> ringer	-0.2628458
-3.762494	<s> ringtone
-4.315371	<s> rooster
-4.315371	<s> sally
-4.315371	<s> same
-4.315371	<s> say
-4.315371	<s> seems
-4.315371	<s> select
-4.315371	<s> sensitivity
-2.213215	<s> set	-0.3878432
-2.912201	<s> setting
-3.327207	<s> settings	-0.1057399
-3.762494	<s> seven
-4.315371	<s> shoot
-4.315371	<s> should
-4.315371	<s> silent
-4.315371	<s> six
-2.45793	<s> so	-0.1101144
-4.315371	<s> something
-2.703918	<s> sorry	-0.06548841
-4.315371	<s> sound
-3.762494	<s> sounds
-4.315371	<s> specifically
-4.315371	<s> start
-4.315371	<s> successfully
-4.315371	<s> sue
-1.449784	<s> sure	-0.6141906
-4.315371	<s> surelike
-4.315371	<s> surewhat
-3.762494	<s> take
-4.315371	<s> talk
-3.762494	<s> ten
-1.763675	<s> thank	-0.4768969
-4.315371	<s> thankks
-1.693687	<s> thanks	-0.3295311
-4.315371	<s> thans
-1.922323	<s> that	-0.7041379
-1.864758	<s> that's	-0.4375957
-2.912201	<s> thats	-0.1395482
-2.507618	<s> the	-0.04903741
-3.181064	<s> then
-3.181064	<s> there	-0.1571643
-4.315371	<s> there's
-3.762494	<s> they
-3.549091	<s> thirty
-2.628195	<s> this	-0.3491945
-4.315371	<s> thnk
-3.762494	<s> three
-4.315371	<s> thx
-3.762494	<s> till
-4.315371	<s> timer
-2.628195	<s> to	-0.2038832
-4.315371	<s> toobye
-4.315371	<s> try
-2.213215	<s> turn	-0.2904482
-2.226788	<s> turning	-0.3530757
-3.762494	<s> two
-4.315371	<s> ty
-4.315371	<s> u
-4.315371	<s> u2
-4.315371	<s> ughs
-4.315371	<s> understood
-4.315371	<s> unfortunately
-3.762494	<s> until
-4.315371	<s> untill
-4.315371	<s> up
-3.181064	<s> update	-0.1248125
-3.762494	<s> very
-2.354032	<s> vibrate	-0.1380523
-4.315371	<s> vibration
-3.762494	<s> volume	-0.2596656
-3.549091	<s> wait	-0.03783074
-3.327207	<s> want	-0.1138675
-4.315371	<s> water
-4.315371	<s> we
-3.181064	<s> welcome	-0.3875523
-2.912201	<s> well
-1.749664	<s> what	-0.1246379
-3.327207	<s> what's	-0.07745153
-3.181064	<s> when	-0.1139673
-4.315371	<s> whenever
-4.315371	<s> where
-2.392662	<s> which	-0.08017765
-3.762494	<s> who
-3.549091	<s> why
-3.181064	<s> wifi
-2.563735	<s> will	-0.198821
-3.327207	<s> with	-0.111949
-3.549091	<s> wonderful	-0.07469776
-4.315371	<s> wood
-2.213215	<s> would	-0.5584002
-4.315371	<s> wow
-4.315371	<s> yas
-3.762494	<s> ye
-2.984756	<s> yeah
-4.315371	<s> yep
-1.147029	<s> yes	-0.6091042
-4.315371	<s> yesyes
-1.6701	<s> you	-0.4969818
-4.315371	<s> you'll
-1.824729	<s> you're	-1.222588
-4.315371	<s> you've
-2.392662	<s> your	-0.2079221
-3.549091	<s> youre	-0.1030385
-4.315371	<s> yourvwelcmoe
-4.315371	<s> youu're
-4.315371	<s> yup
-3.327207	<s> yw	-0.2747358
-4.315371	<s> zero
-4.315371	<s> zippity
-2.893472	a bar
-2.893472	a beach
-2.893472	a beep
-2.127192	a big	-0.1030385
-2.127192	a bit	-0.1030385
-2.893472	a blue
-1.905309	a bot	-0.3618203
-2.893472	a bot's
-2.893472	a bunch
-2.893472	a call
-2.893472	a cell
-1.759166	a certain	-0.09379341
-2.893472	a change	-0.2634453
-2.340596	a chicken	-0.1161926
-2.127192	a contact
-2.893472	a cow
-2.893472	a daily
-2.127192	a different
-2.127192	a do	-0.1402875
-2.893472	a fair	-0.2150245
-2.893472	a favor	-0.1457874
-2.340596	a few	-0.1457874
-2.893472	a fog
-2.893472	a galaxy
-2.893472	a game
-2.893472	a golf
-2.127192	a good	-0.7596089
-2.893472	a great	-0.942827
-2.893472	a hard
-2.893472	a heads
-2.893472	a help
-2.893472	a helpful
-2.893472	a huge
-2.893472	a important
-2.893472	a last
-2.893472	a later
-2.893472	a level
-2.127192	a little
-2.893472	a log
-2.893472	a long
-2.893472	a look
-2.340596	a lot	-0.3113913
-2.893472	a loud
-2.893472	a lovely
-2.893472	a m
-2.127192	a meeting	-0.07992112
-2.893472	a message
-2.893472	a million
-2.893472	a minute
-1.759166	a mode	-0.1041385
-2.340596	a moment	-0.03682891
-2.893472	a moon
-2.893472	a moto
-1.759166	a movie	-0.02933699
-2.340596	a name	-0.2681139
-2.893472	a nap	0.02220648
-1.562857	a new
-2.340596	a nice	-0.9156456
-2.340596	a notification
-2.340596	a particular
-2.893472	a permanent
-2.893472	a personal
-1.650013	a phone	-0.3379779
-2.893472	a photo
-1.759166	a picture	-0.3699895
-2.893472	a pig
-2.893472	a power
-2.893472	a problem
-2.893472	a question	-0.04958509
-2.340596	a quick
-2.893472	a regular
-2.340596	a reminder
-1.24251	a ringtone	-0.1544975
-2.893472	a samsung
-2.893472	a schedule
-2.893472	a screaming
-2.893472	a sec
-2.127192	a second	-0.1238644
-2.893472	a separate
-2.340596	a set
-1.650013	a setting	-0.4898922
-2.893472	a shirtless
-2.893472	a short
-2.893472	a silent
-2.893472	a similar
-2.893472	a single
-2.893472	a six
-2.893472	a small
-2.893472	a smart
-2.340596	a sound
-2.893472	a special
-2.340596	a specific	-0.1238644
-2.893472	a splendid
-2.893472	a sunny
-2.893472	a sunshine
-2.893472	a system
-2.893472	a technical
-2.893472	a text
-2.893472	a three
-1.905309	a time	-0.1428255
-1.562857	a timer	-0.1230575
-2.893472	a title
-2.340596	a tone	-0.1127727
-2.893472	a turn
-2.893472	a vibrate
-2.893472	a warning
-2.893472	a way	-0.3331091
-2.893472	a website
-2.893472	a weird
-2.893472	a whil
-2.893472	a wind
-2.893472	a wizard
-2.893472	a wonderful	-0.3437924
-0.5902759	aalright </s>
-0.5902759	aand need
-0.5902759	ability to
-0.1047592	able to	-0.05409092
-1.736404	about can	-0.1206576
-1.736404	about change
-1.736404	about dogs
-1.736404	about don't
-1.736404	about for
-1.736404	about from
-1.736404	about in
-1.736404	about it	-0.2315268
-1.183528	about my	-0.1050918
-1.736404	about setting
-1.736404	about ten
-1.736404	about the
-1.736404	about to	-0.2679986
-1.289246	absolutely i'd
-1.289246	absolutely i've
-1.289246	absolutely if
-1.289246	absolutely just
-1.289246	absolutely what	-0.09948502
-1.669457	access all
-1.669457	access it
-1.669457	access my	-0.7160998
-1.116581	access that
-1.669457	access the
-0.9031776	access to
-0.9031776	access your	-0.06319237
-0.3384297	accessed your	-0.0910588
-0.5902759	accessing your
-0.5902759	accident </s>
-0.8913059	action </s>
-0.8913059	action for
-1.493366	activate do	-0.02429182
-0.7270863	activate it	-0.1195408
-0.7270863	activate the	-0.3409148
-1.493366	activate vibrate
-0.7782388	activated </s>
-1.544518	activated do
-0.9916422	activated is
-1.544518	activated me
-0.9916422	activated the	-0.2489432
-0.8913059	activating that
-0.8913059	activating this
-1.192336	active </s>
-1.192336	active is
-1.192336	active right
-1.192336	active should
-1.368427	actually </s>
-1.368427	actually can	-0.1246672
-1.368427	actually do
-1.368427	actually i
-1.368427	actually like
-1.368427	actually what
-1.10275	add a
-1.86903	add an
-1.86903	add daniel	-0.2150245
-1.86903	add for
-1.316153	add it	-0.2547981
-1.86903	add lori
-1.86903	add michael
-1.86903	add moonlight
-1.86903	add more
-1.316153	add ringtone
-1.86903	add sound
-1.86903	add sounds
-1.86903	add the
-1.86903	add to
-1.86903	add vibrate
-0.6690944	added </s>
-1.435374	added it
-1.435374	added michael
-1.435374	added that
-1.435374	added to
-0.5902759	adding now
-0.5902759	addition to	-0.2745457
-0.5902759	address </s>
-1.213491	adjust </s>
-1.766367	adjust brighness
-1.766367	adjust brightness
-1.213491	adjust my	-0.1130354
-1.766367	adjust on
-1.766367	adjust ringtone
-1.213491	adjust some
-1.766367	adjust the	-0.2615167
-1.766367	adjust who
-1.000088	adjust your
-1.067397	adjusted by
-1.067397	adjusted those
-1.067397	adjusted your
-0.8913059	adjusting brightness
-0.8913059	adjusting setting
-1.289246	adjustment </s>
-1.289246	adjustment do
-1.289246	adjustment now
-1.289246	adjustment to
-1.289246	adjustment would
-0.5902759	adjustments </s>
-0.5902759	adult swim
-0.5902759	advised that
-0.5902759	affect anything
-0.5902759	affected </s>
-0.5902759	affects everything
-1.192336	afraid i
-1.192336	afraid not
-1.192336	afraid to
-1.192336	afraid yes
-1.952004	after 5pm
-1.952004	after 6pm
-1.952004	after 8
-1.952004	after </s>
-1.952004	after a
-1.952004	after four
-1.952004	after i
-1.952004	after it
-1.952004	after it's
-1.952004	after next
-1.952004	after silent
-1.952004	after ten
-0.9638404	after that
-1.952004	after thirty
-1.952004	after twenty
-1.399127	after two	-0.2303112
-1.185724	after your
-0.3011176	afternoon </s>
-0.8913059	afterwards </s>
-0.8913059	afterwards you
-0.6812938	again </s>
-1.669457	again at
-1.669457	again can
-1.669457	again hello
-1.669457	again in
-1.669457	again or
-1.669457	again please
-1.116581	again that	-0.1415897
-0.5902759	ahaed </s>
-1.493366	ahead </s>
-0.9404896	ahead and	-0.2118768
-1.493366	ahead anyway
-1.493366	ahead but
-1.493366	ahead i
-1.493366	ahead please
-1.493366	ahead with
-1.544518	airplane icon
-0.1413494	airplane mode	-0.223808
-0.5902759	ake it
-0.5902759	al thanks
-0.5902759	alaarm nme
-0.5902759	alamrs and
-2.306279	alarm 'meeting'
-2.306279	alarm 'morning
-1.171973	alarm </s>
-2.306279	alarm after
-2.306279	alarm and
-2.306279	alarm at
-2.306279	alarm by
-2.306279	alarm changed
-2.306279	alarm clock
-1.753403	alarm for	-0.06235644
-2.306279	alarm goes
-2.306279	alarm hot
-2.306279	alarm icon
-1.318116	alarm is	-0.09578986
-2.306279	alarm loud
-2.306279	alarm name
-1.753403	alarm on	-0.2164616
-2.306279	alarm or
-2.306279	alarm please
-2.306279	alarm ringer
-1.171973	alarm set	-0.1006499
-2.306279	alarm setting
-2.306279	alarm settings
-2.306279	alarm sound
-1.54	alarm sounds
-2.306279	alarm then
-2.306279	alarm time
-0.9756646	alarm to	-0.1241392
-2.306279	alarm tomorrow
-1.753403	alarm volume	-0.1267459
-1.244444	alarms </s>
-0.767303	alarms and	-1.064521
-2.487903	alarms ans
-2.487903	alarms are
-1.935027	alarms as	-0.1974326
-2.487903	alarms be
-1.935027	alarms do	-0.2621412
-2.487903	alarms etc
-2.487903	alarms going
-2.487903	alarms have
-1.935027	alarms i	-0.2421022
-2.487903	alarms in
-1.721623	alarms is	-0.1445026
-2.487903	alarms monday
-1.721623	alarms on
-2.487903	alarms once
-1.935027	alarms only
-1.353597	alarms or	-0.1113913
-1.935027	alarms please
-1.022583	alarms set	-0.1717413
-2.487903	alarms silenced
-2.487903	alarms still
-2.487903	alarms texts
-2.487903	alarms that
-1.935027	alarms then
-1.721623	alarms to
-2.487903	alarms too
-2.487903	alarms until
-1.935027	alarms vibrate	-0.2343838
-2.487903	alarms while
-1.721623	alarms will	-0.1190638
-2.487903	alarms would
-2.487903	alarms you
-0.5902759	album or
-0.5902759	alerts </s>
-0.5902759	alive </s>
-1.342443	all </s>
-2.192736	all alamrs	-0.1457874
-2.192736	all alarm	-0.2725756
-0.9650128	all alarms	-0.5584728
-2.745612	all alerts
-2.745612	all aparmsand
-2.745612	all awesome
-2.745612	all better
-2.192736	all calls
-2.745612	all contacts
-1.757449	all current	-0.5463122
-1.979332	all currently	-1.358282
-2.745612	all curretnly
-1.611305	all done	0.0445999
-2.745612	all double
-2.745612	all fine
-1.757449	all for	-0.7929707
-2.745612	all functions
-2.745612	all goodbye	0.1354106
-1.502153	all i	-0.433253
-2.745612	all incoming
-2.745612	all messages
-1.757449	all my	-0.08861911
-2.745612	all night	0.1511549
-2.745612	all notfications
-2.192736	all notification	-0.2255188
-1.611305	all notifications	-0.07371502
-1.225933	all of	-0.2672361
-2.192736	all on
-2.745612	all other
-2.192736	all right
-1.342443	all set	-0.3628133
-2.745612	all settings
-2.745612	all sound
-1.502153	all sounds	-0.1130674
-1.757449	all thank	0.1819657
-1.757449	all thanks	-0.1306137
-2.192736	all that
-1.225933	all the	-0.1776401
-2.745612	all to
-2.745612	all today	0.04477571
-2.192736	all videos	-0.1457874
-2.192736	all you	-0.2571501
-2.745612	all you've
-1.414997	all your	-0.3432189
-0.8913059	allow calls
-0.8913059	allow remote
-1.067397	almost any
-1.067397	almost blind
-1.067397	almost deaf
-1.192336	alone </s>
-1.192336	alone or
-1.192336	alone please
-1.192336	alone time
-0.5902759	along the
-0.8913059	alot </s>
-0.8913059	alot of
-1.544518	already a
-1.544518	already available
-1.544518	already connected
-1.544518	already did
-1.544518	already done
-0.9916422	already set
-1.544518	already successfully
-1.544518	already take
-1.528761	alright </s>
-2.081638	alright all
-2.081638	alright also
-2.081638	alright are
-2.081638	alright but
-2.081638	alright bye
-2.081638	alright did
-2.081638	alright do	-0.02429182
-2.081638	alright done	-0.0964787
-2.081638	alright edit
-2.081638	alright goodbye
-2.081638	alright have	-0.1970037
-2.081638	alright i	-0.214239
-2.081638	alright i'll
-2.081638	alright i've	-0.1308428
-2.081638	alright it
-2.081638	alright just
-2.081638	alright remember
-2.081638	alright set
-2.081638	alright thank
-2.081638	alright thanks	-0.1095278
-2.081638	alright the
-2.081638	alright to
-2.081638	alright turning
-2.081638	alright what	-0.03257984
-2.081638	alright which
-2.081638	alright with
-2.081638	alright would
-2.081638	alright you
-2.081638	alright your	-0.4010368
-0.5902759	alrighti can
-0.5902759	alrighti've activated
-0.5902759	alrighty you
-1.531567	also </s>
-2.297846	also almost
-2.297846	also apply
-2.297846	also be
-2.297846	also block
-2.297846	also can
-1.531567	also change	-0.2227729
-2.297846	also could
-2.297846	also delete
-1.531567	also disable	-0.1221557
-2.297846	also hello
-2.297846	also how
-2.297846	also i
-2.297846	also just
-1.531567	also like	-0.3440788
-1.309683	also make	-0.08440448
-2.297846	also muted
-1.74497	also need
-2.297846	also play
-2.297846	also please
-2.297846	also put
-2.297846	also schedule
-1.054387	also set	-0.1004857
-2.297846	also silence	-0.2605525
-2.297846	also the
-2.297846	also to
-1.309683	also turn	0.01523048
-1.531567	also want	-0.2107776
-2.297846	also what
-1.192336	always asking
-1.192336	always come
-0.6394597	always here	-0.1249164
-1.180245	am </s>
-2.314552	am a	-0.1851718
-2.314552	am able
-2.314552	am accessing
-2.314552	am afraid
-2.314552	am always	-0.1615711
-2.314552	am and
-2.314552	am anything
-2.314552	am at	-0.1253869
-2.314552	am aware
-2.314552	am clock
-2.314552	am confirming
-2.314552	am curious
-2.314552	am daily
-2.314552	am designed	-0.1457874
-2.314552	am do
-2.314552	am done
-2.314552	am extremely
-2.314552	am fine
-2.314552	am getting
-2.314552	am glad
-2.314552	am going	-0.2867288
-2.314552	am good	-0.08270805
-2.314552	am happy
-2.314552	am here	-0.1249164
-2.314552	am i
-2.314552	am in
-2.314552	am monday
-2.314552	am not	-0.5249167
-2.314552	am omiscient
-2.314552	am one
-1.548272	am please	-0.1273413
-2.314552	am positive
-2.314552	am pulling
-2.314552	am setting
-2.314552	am sorry
-2.314552	am sure	-0.4372442
-2.314552	am the
-2.314552	am to
-1.761676	am tomorrow	-0.1995722
-2.314552	am trying	0.02220645
-2.314552	am turning
-2.314552	am unable	-0.1497971
-2.314552	am unfortunately
-2.314552	am using
-2.314552	am when
-0.5902759	amazing </s>
-0.5902759	amount of
-1.845548	an adjustment
-1.292672	an alarm	-0.3281448
-1.845548	an app
-1.845548	an email
-1.845548	an end
-1.845548	an from
-1.292672	an hour
-1.845548	an image
-1.292672	an important	-0.1161926
-0.711242	an iphone	0.008114917
-1.845548	an update
-2.262709	and a
-2.815585	and add
-2.815585	and alarms
-2.262709	and all
-2.815585	and also
-2.815585	and another
-2.815585	and any
-2.815585	and applied
-2.815585	and at
-2.815585	and back
-2.815585	and blocked
-2.815585	and bring
-2.815585	and bye
-2.815585	and callsmessages
-2.049306	and can	-0.346516
-2.049306	and change	-0.08739723
-2.815585	and changed
-2.815585	and choose
-2.049306	and click	-0.1098376
-2.815585	and could
-2.815585	and currently
-2.815585	and disable
-2.815585	and display
-1.827422	and do	0.0006256492
-2.262709	and don't
-2.815585	and done
-2.815585	and eighteen
-2.815585	and eighty
-2.262709	and enable
-2.815585	and enter
-2.815585	and erase	-0.1457874
-2.815585	and everything
-2.815585	and feel
-2.262709	and fifty
-2.815585	and finally
-2.815585	and forty
-2.815585	and funky
-2.049306	and have	-0.1497764
-2.815585	and hit
-2.815585	and how
-1.247599	and i	-0.1018879
-2.815585	and i'll
-2.815585	and in
-1.681279	and it	-0.2101036
-2.262709	and keep
-2.815585	and last
-2.815585	and look
-2.815585	and make
-2.815585	and model	-0.1457874
-2.815585	and morty	-0.1030385
-2.815585	and mute
-2.815585	and muted
-2.815585	and my
-1.827422	and need	-0.1044131
-2.815585	and next
-2.815585	and ninety	-0.2190342
-2.815585	and no
-2.262709	and not	-0.8426754
-2.815585	and notfications
-2.815585	and notif
-2.815585	and notifcations	-0.2278149
-2.815585	and notifiactions
-2.262709	and notification
-1.681279	and notifications	-0.5192663
-2.815585	and notificationsare
-2.815585	and now
-2.815585	and ntofications
-2.815585	and once
-2.815585	and one
-2.815585	and other
-2.815585	and pair
-2.815585	and pictures
-2.815585	and play	-0.1667777
-2.262709	and please
-2.815585	and remove
-2.815585	and ring	-0.3673152
-2.815585	and ringtone	-0.1417115
-2.815585	and saturday
-2.815585	and saved
-2.815585	and select
-1.827422	and set	-0.174969
-2.815585	and settings
-2.815585	and sixties
-2.815585	and sixty
-2.815585	and sound
-2.815585	and such
-2.815585	and texts
-2.815585	and that
-2.049306	and the
-1.681279	and then	-0.04575371
-2.815585	and there
-2.815585	and three
-2.815585	and to
-1.827422	and turn	0.03851566
-2.815585	and turned	-0.0828466
-2.815585	and twenty
-2.815585	and txt
-2.815585	and under
-2.815585	and up
-1.572126	and vibrate	-0.1387415
-2.049306	and what	-0.08195164
-2.815585	and which
-2.262709	and will
-2.815585	and you
-2.262709	and you'll
-2.815585	and your
-1.067397	android devide
-1.067397	android four
-1.067397	android or
-0.5902759	angela </s>
-0.8913059	angeles </s>
-0.8913059	angeles phone
-0.8913059	angie has
-0.8913059	angie to
-0.5902759	animal sounds
-0.5902759	ann </s>
-0.5902759	annoying always
-1.289246	another </s>
-1.289246	another chat
-1.289246	another for
-1.289246	another from
-1.289246	another setting
-0.5902759	ans no
-0.8913059	answer it
-0.8913059	answer the
-2.158478	any active
-1.392198	any alarms
-2.158478	any and
-1.605601	any calls	-0.2618078
-2.158478	any disturbances
-2.158478	any extra
-2.158478	any further
-2.158478	any images
-1.392198	any more
-2.158478	any noise
-2.158478	any noises
-1.605601	any notifications
-0.9150184	any other	-0.1760939
-2.158478	any pictures
-2.158478	any problems
-2.158478	any setting
-2.158478	any sound
-2.158478	any sounds
-2.158478	any special
-2.158478	any specific
-1.605601	any thing	-0.2721235
-1.392198	any way	-0.04542702
-2.158478	any ways
-0.8913059	anyhting else
-0.8913059	anyhting you
-0.8913059	anymore calls
-0.8913059	anymore changes
-1.067397	anyone </s>
-1.067397	anyone who
-1.067397	anyone without
-0.5902759	anythimg else
-1.110245	anything </s>
-0.1350422	anything else	-0.9504483
-2.353704	anything erlse
-2.353704	anything further
-2.353704	anything i
-2.353704	anything listed
-2.353704	anything more
-2.353704	anything that
-2.353704	anything to
-2.353704	anything you
-0.5902759	anythingh else
-0.8824977	anytime </s>
-1.435374	anytime for
-1.435374	anytime have
-1.435374	anytime remember
-1.435374	anytime take
-1.435374	anytime want
-0.2341207	anyway </s>
-1.368427	anyway but
-0.3384297	anyways </s>
-0.5902759	aparmsand notifications
-0.8155509	app </s>
-1.368427	app can
-1.368427	app go
-0.8155509	app to
-0.8913059	appear after
-0.8913059	appear on
-0.5902759	appearance </s>
-0.8913059	apple iphone
-0.8913059	apple sound
-0.5902759	applications </s>
-1.067397	applied at
-0.5145209	applied that
-1.067397	apply only
-0.5145209	apply to	-0.2745457
-0.5902759	applying those
-0.6021476	appreciate it	-0.1474072
-1.368427	appreciate that
-1.368427	appreciate the
-1.368427	appreciate your
-1.289246	apps are	-0.2727296
-1.289246	apps by
-1.289246	apps on
-1.289246	apps or
-1.289246	apps would
-2.338464	are a
-2.338464	are alive
-2.338464	are all	-0.2545239
-2.338464	are already
-2.338464	are as
-2.338464	are birds
-2.338464	are busy
-1.785588	are currently	-0.02921189
-2.338464	are deleted
-2.338464	are disabled
-2.338464	are do
-2.338464	are extra
-2.338464	are great
-2.338464	are listed
-2.338464	are most	-0.2597329
-2.338464	are not
-1.785588	are now	-0.1147373
-2.338464	are open
-2.338464	are ready	-0.2150245
-2.338464	are some
-2.338464	are supposed
-1.572184	are the
-1.785588	are there
-2.338464	are two
-2.338464	are u
-2.338464	are using
-2.338464	are very	-0.1309542
-1.785588	are welcome	-0.5043668
-2.338464	are welcomegood
-0.4810234	are you	-0.6340917
-2.338464	are your
-0.5902759	arnold's number
-1.192336	around my
-1.192336	around on
-1.192336	around some
-1.192336	around three
-2.253034	as </s>
-1.700158	as a
-2.253034	as chicken
-2.253034	as i
-2.253034	as is
-2.253034	as it
-2.253034	as large
-1.26487	as long	-0.4880088
-1.700158	as loud	-0.2681139
-1.486754	as my
-2.253034	as notifications
-2.253034	as of
-1.700158	as per
-1.700158	as possible	0.02625116
-2.253034	as requested
-2.253034	as rooster
-2.253034	as that
-1.700158	as the	-0.1609906
-2.253034	as they
-2.253034	as this
-2.253034	as time
-2.253034	as vibrate
-2.253034	as wallpaper
-0.7877141	as well	-0.4179887
-1.700158	as you	-0.2737674
-1.700158	as your	-0.2561603
-1.0374	ask </s>
-1.590276	ask again
-1.590276	ask any
-1.590276	ask for
-0.8239963	ask me	-0.01993581
-1.590276	ask something
-1.590276	ask you
-0.5902759	asked to
-0.5902759	asking questions
-0.5902759	asleep </s>
-1.544518	assist me
-1.544518	assist through
-0.7782388	assist with	-0.09717752
-0.5563551	assist you	-0.624432
-0.6690944	assistance </s>
-1.435374	assistance today
-0.8824977	assistance with	-0.06998123
-1.435374	assistance you
-2.549317	at 1pm
-1.996441	at 3pm
-2.549317	at 4pm
-2.549317	at 5
-1.561154	at 5pm	0.07586369
-2.549317	at 6am	-0.1161926
-2.549317	at 7am
-2.549317	at 8
-1.996441	at 8am
-2.549317	at 8pm
-2.549317	at 9am
-1.783038	at 9pm	-0.04958509
-1.996441	at </s>
-1.561154	at a	-0.08255494
-1.415011	at all	-0.3291245
-2.549317	at around
-1.561154	at eight	-0.3144494
-1.783038	at five	-0.2465553
-2.549317	at four
-2.549317	at home
-2.549317	at i
-2.549317	at it
-2.549317	at level
-2.549317	at like
-2.549317	at max
-2.549317	at meetings
-2.549317	at night
-2.549317	at ninety
-2.549317	at once
-1.218703	at one	-0.2562632
-2.549317	at phones
-1.561154	at seven	-0.05633206
-1.783038	at six	-0.1573951
-2.549317	at sixty
-1.996441	at that
-1.083998	at the	-0.04245575
-1.783038	at this	-0.2682718
-2.549317	at three
-1.561154	at two	-0.1047808
-1.783038	at what	-0.1561508
-1.783038	at work
-2.549317	at your
-0.5902759	audio settings
-0.6021476	auto adjust
-0.8155509	auto dim	-0.2358504
-1.368427	auto updates
-1.544518	automatically </s>
-0.9916422	automatically at
-1.544518	automatically in
-1.544518	automatically later
-1.544518	automatically restore
-1.544518	automatically save
-0.9916422	automatically turn
-1.192336	available in
-1.192336	available list
-1.192336	available ring
-1.192336	available to
-0.5902759	avengers theme
-0.5902759	avoid that
-1.544518	aware </s>
-1.544518	aware i
-1.544518	aware of
-0.9916422	aware that	-0.2709683
-1.544518	aware this
-1.544518	aware turning
-1.544518	aware when
-1.544518	aware you
-0.5902759	away ringtone
-0.7782388	awesome </s>
-1.544518	awesome could
-1.544518	awesome how
-1.544518	awesome i	-0.1386559
-1.544518	awesome next
-1.544518	awesome thank	0.6630966
-1.544518	awesome thanks	-0.02994982
-0.5902759	ay </s>
-0.8913059	ayeo </s>
-0.8913059	ayeo fam
-0.5902759	baby one
-2.081638	back anytime
-2.081638	back at
-2.081638	back for
-2.081638	back if
-2.081638	back in
-2.081638	back later
-2.081638	back lighting
-0.6784685	back off	-0.07945018
-0.7510229	back on	-0.1606628
-2.081638	back once
-2.081638	back them
-0.8381784	back to	-0.2583007
-2.081638	back when
-0.865389	background </s>
-1.631669	background first
-1.631669	background image
-1.631669	background picture
-1.078792	background theme
-1.078792	background to	-0.2694237
-1.631669	background wallpaper
-0.5902759	backgroynd on
-0.5145209	backlight brightness	-0.1900855
-1.067397	backlight may
-0.3384297	backlit brightness	-0.1900855
-0.5902759	bad i
-0.3384297	bag </s>
-0.5902759	baha men's
-0.8913059	bar from
-0.8913059	bar that
-0.5902759	barbara </s>
-0.5902759	barbie girl
-0.8913059	bars </s>
-0.8913059	bars do
-0.5902759	based on
-0.5902759	basic capabilities
-1.631669	battery </s>
-1.631669	battery charged
-1.631669	battery do
-1.631669	battery is
-1.631669	battery left
-1.078792	battery life
-1.631669	battery mode
-1.631669	battery saver
-1.631669	battery usage
-1.631669	battery what
-0.5902759	bawkbawkwav would
-2.0374	be </s>
-2.0374	be a
-1.346817	be able	0.08915321
-2.590276	be adjusted
-1.823996	be advised	-0.1497971
-2.590276	be affected
-2.590276	be afraid
-1.455969	be all	-0.3984639
-2.590276	be applied
-2.590276	be at
-2.0374	be aware	-0.1160441
-2.590276	be back
-2.590276	be bothered
-2.590276	be brass
-2.590276	be clear
-2.590276	be disable
-2.0374	be disabled	-0.07901379
-2.590276	be discreet
-2.590276	be disturb
-1.602113	be disturbed	-0.2020135
-2.590276	be disturbing
-2.590276	be doing
-2.0374	be fine	-0.08021151
-2.590276	be glad
-2.590276	be gone
-2.0374	be good	-0.05484162
-2.0374	be great	-0.1673798
-1.455969	be happy	-0.2875693
-2.590276	be hazardous
-2.590276	be helpful
-2.590276	be here
-1.823996	be in	-0.0378453
-1.823996	be it	-0.181126
-2.590276	be just
-2.590276	be left
-2.590276	be loud
-2.590276	be meeting
-2.590276	be muted
-2.590276	be no
-2.590276	be normal
-2.590276	be notified
-2.590276	be now
-1.823996	be of	-0.2015349
-2.590276	be okay
-1.602113	be on	-0.05406259
-2.590276	be perfect
-2.590276	be playing
-2.590276	be restarted
-2.590276	be screaming
-2.590276	be sent
-2.0374	be set	-0.2761183
-2.590276	be shut
-2.590276	be silenced	-0.2358504
-2.0374	be silent	-0.07732151
-2.590276	be sure
-1.823996	be turned	-0.07096533
-2.590276	be under
-2.0374	be undone	-0.1030385
-2.590276	be visible
-2.590276	be warned
-2.590276	be wonderful
-0.5902759	beach with
-0.5902759	beastie boys
-0.5902759	beatles </s>
-0.8913059	because i
-0.8913059	because my
-1.544518	becky anything
-1.544518	becky from
-1.544518	becky i
-0.9916422	becky johnson
-1.544518	becky she
-0.7782388	becky smith
-0.5902759	becky's one
-0.5145209	bee boop
-1.067397	bee booprobot
-1.912495	been a
-1.359619	been activated	-0.2875342
-1.912495	been added
-1.912495	been change
-1.359619	been changed	-0.09928104
-1.912495	been enabled
-1.912495	been finalized
-1.912495	been increased
-1.359619	been made	-0.09975573
-1.912495	been modified
-1.912495	been really
-1.912495	been saved
-1.912495	been set	-0.4887591
-1.912495	been silenced
-1.359619	been turned	-0.1574472
-1.359619	been updated	-0.1262038
-0.5145209	beep and	-0.2695934
-1.067397	beep correct
-0.3011176	before i	-0.1505715
-0.8913059	believe call
-0.8913059	believe that
-1.067397	bell or
-0.5145209	bell sound	-0.1253479
-0.5902759	bells lol
-0.5902759	below lowest
-0.5145209	best </s>
-1.067397	best settings
-1.192336	better get
-0.6394597	better not
-1.192336	better now
-0.5902759	between certain
-0.4260563	beyond my
-1.192336	beyond your
-0.8913059	big flamingo	-0.1457874
-0.8913059	big help
-0.8913059	bigger text
-0.8913059	bigger would
-0.8913059	bill sure
-0.8913059	bill twotime
-0.5902759	bird sound
-0.8913059	birds </s>
-0.8913059	birds chirping
-0.8913059	bit </s>
-0.8913059	bit like
-0.5902759	blind so
-0.9404896	block </s>
-1.493366	block a
-1.493366	block all
-1.493366	block it
-1.493366	block people
-1.493366	block them
-1.493366	block uglyman
-0.8913059	blocked her
-0.8913059	blocked ugly
-0.5902759	blocks all
-0.8913059	blue filter
-0.8913059	blue jay
-1.820725	bluetooth </s>
-1.820725	bluetooth alright
-1.820725	bluetooth and
-1.820725	bluetooth device
-1.820725	bluetooth devices
-1.820725	bluetooth done
-1.820725	bluetooth headphones
-1.820725	bluetooth living
-1.820725	bluetooth now
-1.820725	bluetooth off
-1.820725	bluetooth on
-1.820725	bluetooth option
-1.820725	bluetooth setting
-1.820725	bluetooth settings
-1.820725	bluetooth snoop
-1.820725	bluetooth to
-1.820725	bluetooth turn
-1.067397	bob </s>
-1.067397	bob c
-1.067397	bob d
-0.5902759	bobby mcfarin
-0.8913059	body </s>
-0.8913059	body moving
-0.5902759	book </s>
-0.8913059	boop </s>
-0.8913059	boop it
-0.5902759	booprobot broken
-0.8913059	boss is
-0.8913059	boss threatened
-0.4323244	bot </s>
-1.952004	bot bye
-1.399127	bot can	-0.1206576
-1.399127	bot i
-1.952004	bot thanks
-1.952004	bot that	-0.08979023
-1.399127	bot to
-1.952004	bot whenever
-1.952004	bot with
-1.399127	bot you're
-0.5902759	bot's mind
-1.435374	both </s>
-1.435374	both alarms
-1.435374	both contacts
-1.435374	both off
-1.435374	both please
-1.435374	both the
-1.435374	both vibrate
-0.6394597	bother me
-1.192336	bother my
-1.192336	bother them
-0.5902759	bothered right
-1.192336	bottom and
-1.192336	bottom has
-1.192336	bottom of
-1.192336	bottom you
-0.5902759	botty </s>
-0.5902759	box on
-0.5902759	boxes of
-0.5902759	boys </s>
-0.3384297	brass monkey
-0.5902759	brighness on
-0.8913059	bright </s>
-0.8913059	bright to
-0.8913059	brighter background
-0.8913059	brighter or
-0.5902759	brightnes to
-0.8683481	brightness </s>
-1.718641	brightness and
-2.271517	brightness at
-2.271517	brightness battery
-2.271517	brightness by
-2.271517	brightness can
-1.028058	brightness down	-0.6210665
-2.271517	brightness five
-2.271517	brightness has
-2.271517	brightness i
-2.271517	brightness if
-1.505238	brightness is	-0.09775499
-2.271517	brightness level
-2.271517	brightness levels
-2.271517	brightness of	-0.05432056
-1.718641	brightness on	-0.1044756
-2.271517	brightness option
-1.718641	brightness set	-0.2109252
-2.271517	brightness settings
-0.7518378	brightness to	-0.3423263
-2.271517	brightness turned
-2.271517	brightness with
-0.5902759	bring up
-0.5902759	broken </s>
-0.5902759	browser you'd
-0.5902759	bunch </s>
-1.067397	busy </s>
-1.067397	busy crocheting
-1.067397	busy you
-1.687319	but all	-0.1129155
-2.453599	but also
-2.453599	but before
-1.465435	but can	-0.249606
-1.465435	but doing	0.0378524
-1.900723	but don't
-2.453599	but first
-0.7019639	but i	-0.1555325
-2.453599	but i'm
-1.900723	but if
-1.319292	but it	-0.2568836
-1.900723	but let	-0.0358617
-2.453599	but make
-2.453599	but my
-2.453599	but no
-2.453599	but not
-2.453599	but once
-2.453599	but please
-2.453599	but pressing
-1.900723	but set	-0.2253071
-1.900723	but still
-2.453599	but sure
-2.453599	but that's
-2.453599	but then
-2.453599	but there
-1.900723	but this	-0.2283597
-2.453599	but to
-1.465435	but turning	-0.06730517
-2.453599	but unsure
-2.453599	but until
-2.453599	but use
-2.453599	but warning
-1.465435	but you
-2.453599	but your
-1.368427	button </s>
-1.368427	button instead
-1.368427	button into
-1.368427	button on
-1.368427	button that
-1.368427	button until
-1.952004	by a
-1.952004	by any
-1.952004	by anyone
-1.952004	by bobby
-1.952004	by doing	-0.04626717
-1.952004	by fifty
-1.952004	by going
-1.952004	by me	-0.2044789
-1.952004	by most
-1.952004	by myself
-1.952004	by one
-0.8176973	by the	-0.07349232
-1.952004	by three
-1.399127	by turning	-0.003267575
-1.952004	by two
-1.399127	by your
-1.952004	by yourself
-0.2041375	bye </s>
-1.669457	bye bye	0.1512132
-1.669457	bye for
-1.669457	bye now	-0.134898
-0.5902759	byond my
-0.5902759	c </s>
-0.5902759	calculate that
-1.0374	call </s>
-1.590276	call by
-1.590276	call i
-1.590276	call it
-1.590276	call me
-1.590276	call no
-1.0374	call settings
-1.590276	call will
-0.5902759	call' for
-0.5902759	called </s>
-0.8361807	calls </s>
-1.204208	calls and
-1.417611	calls but
-1.970487	calls come
-1.970487	calls during
-1.970487	calls from
-1.970487	calls in
-1.417611	calls me	-0.1575344
-1.970487	calls mute
-1.970487	calls only
-1.417611	calls or
-1.970487	calls though
-1.417611	calls to
-1.970487	calls you
-0.5902759	callsmessages will
-1.775299	can </s>
-2.210586	can access
-2.763462	can actually
-2.763462	can adjust
-2.763462	can also
-2.763462	can always
-2.763462	can and
-2.763462	can ask	-0.2041607
-2.763462	can assist	-0.3914928
-2.210586	can be
-1.997183	can but
-2.763462	can certainly
-2.210586	can change	-0.08586468
-2.763462	can choose
-2.763462	can complete
-2.763462	can definitely	-0.1339145
-2.763462	can disturb
-1.629156	can do	-0.917963
-2.763462	can drag
-2.763462	can enable
-2.763462	can figure
-2.763462	can find
-2.763462	can give
-2.763462	can go
-2.763462	can have
-1.997183	can help	-0.8524272
-0.7840255	can i	-0.6566458
-2.763462	can increase
-2.763462	can indeed
-2.763462	can just
-2.763462	can keep
-2.763462	can leave
-2.763462	can look
-2.210586	can make	-0.1322446
-2.763462	can manage
-2.763462	can manually
-2.763462	can now
-2.763462	can one
-2.763462	can only
-2.763462	can open
-2.763462	can perform
-2.763462	can pull
-2.763462	can put	-0.05077167
-2.763462	can reach
-2.763462	can reset
-2.763462	can see
-2.763462	can select
-2.210586	can set	-0.1431307
-2.763462	can sure
-2.763462	can surely
-2.763462	can switch	-0.2026535
-2.763462	can take
-2.763462	can toggle
-2.210586	can turn	-0.1196619
-2.210586	can u	-0.2518207
-2.763462	can under
-2.763462	can use
-2.763462	can vibrate
-2.210586	can what	-0.02692796
-0.5248292	can you	-0.7284138
-1.368427	can't figure
-1.368427	can't find
-1.368427	can't hear
-1.368427	can't seem
-1.368427	can't stand
-1.368427	can't you
-1.192336	cancel all
-1.192336	cancel my
-1.192336	cancel the
-1.192336	cancel those
-0.8913059	cancelled that
-0.8913059	cancelled the
-0.8913059	cannot be	-0.2707233
-0.8913059	cannot do
-1.192336	cant access
-1.192336	cant connect
-1.192336	cant fulfill
-1.192336	cant get
-0.8913059	capabilities </s>
-0.8913059	capabilities i
-0.5902759	car horn
-1.192336	care </s>
-1.192336	care for
-1.192336	care now
-1.192336	care turn
-0.3384297	careless whisper
-1.067397	case don't
-1.067397	case i
-1.067397	case please
-1.067397	cat </s>
-1.067397	cat at
-1.067397	cat noises
-0.8913059	cats </s>
-0.8913059	cats in
-0.5902759	cease your
-0.8913059	cell </s>
-0.8913059	cell phone
-0.5902759	cent </s>
-1.493366	certain hours
-1.493366	certain mode
-1.493366	certain ones
-0.9404896	certain period	-0.01213873
-1.493366	certain phone
-1.493366	certain time
-1.493366	certain widgets
-1.704219	certainly adjusting
-1.704219	certainly applying
-1.151343	certainly can
-1.704219	certainly changing
-1.704219	certainly do
-1.704219	certainly help
-1.704219	certainly i	-0.4630043
-1.704219	certainly try
-1.704219	certainly turning
-1.704219	certainly what	-0.08195164
-1.704219	certainly will
-1.704219	certainly would
-1.268261	change </s>
-1.46457	change a	-0.7378528
-2.598876	change almost
-2.598876	change already
-2.598876	change angie
-2.598876	change another
-2.598876	change any	-0.106426
-2.598876	change anything
-2.598876	change around
-2.598876	change background
-2.046	change brightness	-0.09955031
-2.598876	change can
-2.598876	change connection
-2.598876	change dramaticially
-1.46457	change for	-0.4645858
-2.598876	change george
-2.598876	change grandma's
-2.598876	change has
-2.598876	change his	-0.008129059
-2.598876	change however
-2.598876	change i
-2.598876	change in
-2.046	change is
-1.195707	change it	-0.4054133
-1.195707	change my	-0.5971263
-2.598876	change mysetting
-2.598876	change on	-0.2480989
-2.598876	change one	-0.2517069
-1.610713	change phone	-0.2255703
-2.598876	change privacy
-2.598876	change ring
-2.598876	change ringtone
-2.598876	change setting
-1.832597	change settings	-0.0397298
-1.832597	change some	-0.3616036
-2.046	change that
-1.268261	change the	-0.183943
-2.598876	change them
-2.598876	change this	-0.2380657
-1.268261	change to	-0.1410178
-2.598876	change today
-2.598876	change up
-2.598876	change wifi
-2.598876	change yn
-1.195707	change your	-0.3224276
-0.5902759	changea </s>
-0.5619583	changed </s>
-2.081638	changed all
-2.081638	changed for
-2.081638	changed his
-1.528761	changed it
-2.081638	changed my
-2.081638	changed recently
-2.081638	changed setting
-2.081638	changed that	-0.26153
-1.528761	changed the	-0.2635222
-2.081638	changed then
-2.081638	changed this
-0.8381784	changed to	-0.1291568
-1.528761	changed your	-0.2235575
-0.6478467	changes </s>
-1.891306	changes anything
-1.891306	changes confirmed
-1.891306	changes do
-1.125026	changes for
-1.891306	changes have
-1.891306	changes now
-1.125026	changes to	-0.4240528
-1.891306	changes with
-1.33843	changes you
-1.736404	changing </s>
-1.736404	changing backlight
-1.736404	changing it
-1.736404	changing my
-1.736404	changing phoen
-1.183528	changing phone
-1.183528	changing settings
-1.736404	changing the
-1.736404	changing those
-0.9701244	changing your
-0.5902759	charged longer
-0.5902759	chat message
-1.435374	check first
-0.8824977	check if
-1.435374	check on
-1.435374	check that
-1.435374	check to
-1.435374	check what
-0.5902759	checked then
-1.067397	checking daniel
-1.067397	checking resources
-1.067397	checking three
-0.5145209	chicken call	-0.2369419
-1.067397	chicken noises
-0.5902759	chill from
-1.067397	chime or
-1.067397	chime sound	-0.1253479
-1.067397	chime would
-0.5902759	chimes </s>
-0.5902759	chirping and
-0.5902759	choice all
-0.9916422	choose a	-0.2491401
-1.544518	choose another
-1.544518	choose bluetooth
-1.544518	choose delete
-1.544518	choose from
-1.544518	choose that
-1.544518	choose the
-1.544518	choose to
-0.5902759	chose that
-0.5902759	cindy from
-0.5902759	circa one
-0.8913059	clarify if
-0.8913059	clarify will
-0.5902759	classic bell
-1.192336	clear my
-1.192336	clear water
-1.192336	clear will
-1.192336	clear you
-1.493366	click clock
-1.493366	click do
-0.9404896	click on
-1.493366	click settings
-0.7270863	click the
-0.5902759	clicked on
-1.192336	clock </s>
-1.192336	clock click
-1.192336	clock do
-1.192336	clock for
-0.7363697	cloud </s>
-1.289246	cloud every
-1.289246	cloud i
-1.289246	cloud this
-0.5902759	club by
-0.5902759	co'z i
-0.5902759	cold can
-0.8913059	collins </s>
-0.8913059	collins to
-0.5902759	color </s>
-0.3010592	come back	-0.04926865
-1.544518	come out
-0.9916422	come through	-0.2584894
-0.5902759	commands just
-0.410212	complete </s>
-1.544518	complete have
-1.544518	complete is
-0.9916422	complete your	-0.2699174
-0.5902759	completely deleted
-0.3011176	concern </s>
-0.5902759	concerning your
-0.5902759	concerns </s>
-0.5902759	cone done
-0.5902759	configuration change
-1.399127	confirm </s>
-1.952004	confirm again	-0.2401833
-1.952004	confirm all
-1.952004	confirm change
-1.952004	confirm delete
-1.952004	confirm do
-1.952004	confirm if
-1.952004	confirm once
-1.185724	confirm that	-0.1694561
-0.9638404	confirm this
-1.952004	confirm to
-1.952004	confirm will	-0.2706871
-1.952004	confirm would
-1.399127	confirm you	-0.296317
-1.399127	confirm you'd	0.2480649
-0.5902759	confirmation </s>
-0.8155509	confirmed </s>
-1.368427	confirmed anything
-1.368427	confirmed are
-1.368427	confirmed loud
-1.368427	confirmed that
-0.5902759	confirming that
-1.368427	connect bluetooth
-1.368427	connect it
-1.368427	connect my
-1.368427	connect to	-0.1064007
-0.8155509	connect your
-1.192336	connected </s>
-1.192336	connected my
-0.6394597	connected to
-0.5145209	connection </s>
-1.067397	connection but
-0.3011176	consider it	-0.7545314
-0.669036	contact </s>
-1.912495	contact and
-1.912495	contact anyone
-1.912495	contact book
-1.912495	contact created
-1.912495	contact david
-1.146216	contact for
-1.359619	contact from
-1.912495	contact has
-1.359619	contact list	-0.04049545
-1.912495	contact me
-1.912495	contact mom
-0.6600895	contacts </s>
-1.794396	contacts are
-1.794396	contacts at
-1.794396	contacts deselect
-1.794396	contacts do
-1.794396	contacts is
-1.794396	contacts labeled
-1.794396	contacts list
-1.794396	contacts name
-1.794396	contacts that
-1.24152	contacts you
-0.5229663	continue </s>
-1.289246	continue anyways
-1.289246	continue with
-1.368427	control </s>
-1.368427	control i
-1.368427	control itunes
-1.368427	control over
-0.8155509	control panel
-0.5902759	controls </s>
-0.5902759	cool can
-0.5902759	corner of
-0.1684183	correct </s>
-1.736404	correct no
-1.736404	correct please
-1.736404	correct thanks
-1.267849	could be	-0.2681639
-1.820725	could do
-1.267849	could help	-0.09372605
-1.820725	could i
-1.820725	could use
-0.3010454	could you	-0.2500276
-0.5902759	couldn't help
-1.192336	course </s>
-1.192336	course i	-0.1493945
-1.192336	course i'll
-1.192336	course what
-0.8913059	cow mooing
-0.8913059	cow sounds
-0.5902759	cpu </s>
-0.8913059	crazy </s>
-0.8913059	crazy train
-0.5902759	creat a
-0.3384297	create a
-0.5902759	created thank
-0.5902759	creating contact
-0.5902759	critical for
-0.5902759	crocheting </s>
-0.5902759	curious how
-0.7782388	current alarms	-1.081959
-1.544518	current notifications
-1.544518	current ringer
-0.9916422	current set	-0.491657
-1.544518	current settings
-1.544518	current temp
-1.820725	currently at
-1.820725	currently disable
-1.820725	currently do
-1.820725	currently have
-1.820725	currently it
-1.820725	currently my
-1.267849	currently on
-0.5772656	currently set	-0.9072521
-1.820725	currently turned
-1.820725	currently want
-1.820725	currently watching
-0.5902759	curretnly set
-0.5902759	curt bot
-0.5902759	customer to
-0.5902759	d or
-0.5902759	da club
-0.5902759	dah </s>
-1.067397	daily alarm
-1.067397	daily intervals
-1.067397	daily monday
-0.3384297	dancing all	-0.2739455
-0.8913059	daniel has
-0.8913059	daniel with	-0.2499041
-1.067397	data </s>
-1.067397	data for
-1.067397	data on
-0.8913059	date </s>
-0.8913059	date of
-0.5902759	daughter is
-0.5902759	david </s>
-0.5902759	david's last
-0.5902759	davids in
-0.3716265	day </s>
-1.891306	day and
-1.891306	day glad
-1.891306	day hello
-1.891306	day humna
-1.891306	day mills
-1.891306	day now
-1.891306	day on
-1.891306	day too
-1.891306	day would
-1.891306	day you
-0.5902759	daylight savings
-1.067397	deactivate all
-1.067397	deactivate do
-1.067397	deactivate in
-0.5902759	deaf so
-0.5902759	deal with	-0.2405136
-0.5902759	debugging </s>
-0.5902759	decision </s>
-0.5902759	decrease the
-1.435374	default </s>
-1.435374	default for
-0.8824977	default ringtone
-1.435374	default settings
-1.435374	default what
-1.435374	default would
-1.192336	definitely bother
-1.192336	definitely do
-1.192336	definitely help
-1.192336	definitely need
-0.3384297	degrees </s>
-0.5902759	delay i
-1.912495	delete </s>
-1.912495	delete a
-1.359619	delete all
-1.146216	delete becky	-0.1501644
-1.912495	delete bob
-1.912495	delete contact
-1.912495	delete inactive
-1.146216	delete it
-1.912495	delete jim
-1.912495	delete multiple
-1.912495	delete my
-1.912495	delete susan
-1.912495	delete that
-1.359619	delete them
-1.912495	delete your
-0.4472106	deleted </s>
-0.8824977	deleted becky
-1.435374	deleted your
-1.067397	deleting </s>
-1.067397	deleting a
-1.067397	deleting now
-0.3384297	deselect the
-0.5902759	designed to	-0.2694237
-0.5902759	desired changes
-0.5902759	details </s>
-0.5902759	detected by
-0.3384297	developer mode
-0.5902759	developr mode
-0.46076	device </s>
-1.704219	device anything
-1.704219	device i
-1.704219	device is
-1.704219	device may
-1.704219	device now
-1.151343	device to	-0.1422358
-0.5902759	devices i
-0.5902759	devide device
-0.5902759	di not
-0.5902759	diable all
-0.5902759	dial in
-1.794396	did </s>
-1.794396	did i
-1.24152	did it
-1.794396	did thank
-1.794396	did that
-1.794396	did the
-1.794396	did what
-0.3912268	did you	-0.1474762
-1.192336	didn't ask
-1.192336	didn't know	-0.2425483
-1.192336	didn't thanks
-1.192336	didn't want
-0.5902759	didnt but
-0.5902759	dieing soon
-1.192336	different options
-1.192336	different ringtone
-1.192336	different setting
-1.192336	different wifi
-0.5902759	digits of
-1.067397	dim </s>
-1.067397	dim the
-1.067397	dim to	-0.2729661
-0.5902759	dimmer </s>
-1.970487	disable </s>
-1.970487	disable alarms	-0.1973522
-0.8361807	disable all	-0.7475505
-1.970487	disable any
-1.970487	disable currently
-1.970487	disable if
-1.970487	disable it
-1.970487	disable my
-1.970487	disable set
-1.970487	disable some
-1.204208	disable the
-1.417611	disable them
-1.970487	disable these
-1.970487	disable this
-1.970487	disable wifi
-1.417611	disable your
-1.213491	disabled </s>
-1.766367	disabled are	-0.1045827
-1.766367	disabled current
-1.000088	disabled do	-0.1522853
-1.766367	disabled during
-1.766367	disabled for
-1.766367	disabled in
-1.766367	disabled is
-1.766367	disabled mobile
-1.766367	disabled not
-1.213491	disabled your
-0.8913059	disables all
-0.8913059	disables your
-0.5902759	disabling </s>
-0.5902759	discomforting can
-0.5902759	discreet </s>
-0.5902759	discturb is
-0.5902759	disengage </s>
-1.067397	display </s>
-1.067397	display from
-1.067397	display then
-0.5902759	displayed by
-0.5902759	disruption </s>
-0.5902759	disruptions during
-0.5902759	disstrub will
-0.6394597	distrub </s>
-1.192336	distrub is
-1.192336	distrub mode
-0.5902759	distrube </s>
-0.8913059	distrurb </s>
-0.8913059	distrurb mode
-0.5902759	distub mode
-0.5902759	distube feature
-1.793275	disturb </s>
-2.346151	disturb activated
-2.346151	disturb all
-2.346151	disturb and	-0.1068501
-2.346151	disturb as
-2.346151	disturb at
-2.346151	disturb but
-2.346151	disturb can	-0.08472443
-2.346151	disturb correct
-2.346151	disturb disables
-2.346151	disturb do
-2.346151	disturb feature	-0.3014044
-2.346151	disturb for	-0.02866388
-2.346151	disturb from
-2.346151	disturb function	-0.2802387
-2.346151	disturb has	0.1809889
-1.793275	disturb however
-2.346151	disturb i
-2.346151	disturb i'm
-2.346151	disturb in
-1.793275	disturb is	-0.2539138
-2.346151	disturb it	-0.5491328
-2.346151	disturb knowing
-1.793275	disturb me
-1.102692	disturb mode	-0.4256047
-2.346151	disturb my
-2.346151	disturb now	-0.05077847
-2.346151	disturb ode
-2.346151	disturb off	-0.2081923
-2.346151	disturb on	-0.1411129
-2.346151	disturb option
-2.346151	disturb put
-2.346151	disturb setting	-0.1593487
-2.346151	disturb settings
-2.346151	disturb should
-2.346151	disturb that	-0.2503527
-2.346151	disturb the
-2.346151	disturb then
-2.346151	disturb this
-2.346151	disturb those
-2.346151	disturb to
-2.346151	disturb turn
-2.346151	disturb until
-1.793275	disturb when
-2.346151	disturb will	-0.9461364
-1.793275	disturb you
-1.067397	disturb' is
-1.067397	disturb' mode	-0.09477904
-1.067397	disturb' setting
-0.8913059	disturbances at
-0.8913059	disturbances with
-1.368427	disturbed </s>
-1.368427	disturbed at	-0.2576945
-1.368427	disturbed by
-1.368427	disturbed from
-1.368427	disturbed is	-0.2044775
-1.368427	disturbed no
-0.5902759	disturbing you
-0.5902759	diturb </s>
-1.590276	dnd </s>
-1.590276	dnd back
-1.590276	dnd for
-1.590276	dnd is
-0.8239963	dnd mode	-0.02222198
-1.590276	dnd on
-1.590276	dnd setting
-1.590276	dnd will	-0.5477883
-1.723141	do </s>
-2.857448	do a
-2.857448	do all
-2.091168	do anything	0.06467256
-2.857448	do but
-2.091168	do for	-0.9748724
-2.857448	do how
-1.245995	do i	-0.261653
-2.857448	do in	-0.2736824
-2.857448	do is
-1.392128	do it	-0.2298786
-2.857448	do me	-0.2695204
-2.304571	do no	-0.2685525
-0.5638829	do not	-1.404902
-2.304571	do on
-2.857448	do please
-2.091168	do so	-0.1373228
-2.857448	do some
-2.304571	do something
-2.857448	do specifically
-1.170272	do that	-0.4614767
-2.857448	do the
-1.723141	do this	-0.3546126
-2.857448	do though
-2.857448	do today
-2.304571	do turn	-0.194797
-2.857448	do vibrate
-2.091168	do want	-0.3269355
-2.304571	do with
-2.857448	do without
-0.5725692	do you	-0.9438822
-1.151343	does </s>
-1.151343	does it
-1.704219	does michael
-0.5699129	does that	-0.07339852
-1.704219	does the
-1.704219	does this
-1.704219	does with
-0.8913059	doesn't bother
-0.8913059	doesn't make
-0.5902759	doesnt delete
-0.5902759	dog </s>
-1.067397	dogs </s>
-1.067397	dogs in
-1.067397	dogs out	-0.1209463
-1.631669	doing </s>
-0.3882094	doing so	-0.7227975
-1.631669	doing some
-1.078792	doing that
-1.631669	doing this
-0.5902759	don ot
-1.86903	don't be
-1.86903	don't block
-1.86903	don't care
-1.86903	don't forget
-1.316153	don't have	-0.08096332
-1.86903	don't install
-1.86903	don't know	-0.0838147
-1.86903	don't like
-1.86903	don't need
-1.86903	don't notify
-1.86903	don't sound
-1.86903	don't think
-1.86903	don't turn
-1.86903	don't understand
-1.10275	don't want	-0.2787785
-1.86903	don't worry
-0.5902759	donald trump
-0.5067999	done </s>
-2.314552	done all
-0.8492321	done anything	-0.5507462
-2.314552	done can
-2.314552	done do
-1.761676	done for
-2.314552	done have
-2.314552	done i've
-1.326388	done is	-0.120358
-1.761676	done it
-2.314552	done one
-2.314552	done phone
-1.326388	done that	-0.2849901
-2.314552	done what
-2.314552	done will
-2.314552	done with
-2.314552	done would
-1.761676	done you
-2.314552	done your	-0.179188
-0.5902759	donme anything
-1.192336	dont distrub
-1.192336	dont like
-1.192336	dont want
-1.192336	dont yes
-0.5902759	doo dah
-1.067397	double check
-0.5145209	double saved
-1.24152	down </s>
-1.794396	down a
-1.794396	down at
-1.794396	down button
-1.794396	down by
-1.794396	down five
-1.794396	down from
-1.794396	down instead
-1.794396	down my	-0.2757788
-1.794396	down the
-1.24152	down to	-0.1830179
-1.794396	down volume
-1.24152	down your	-0.1579314
-1.192336	download a
-1.192336	download all
-1.192336	download it
-1.192336	download things
-0.5902759	downloaded and
-0.5902759	drag your
-0.5902759	dramaticially would
-0.5902759	dreams please
-0.5902759	drop it
-0.5902759	dropped to
-1.289246	during my
-1.289246	during the
-1.289246	during this
-1.289246	during work
-1.289246	during working
-0.5902759	dying soon
-0.5902759	e for
-0.5902759	each one
-0.5902759	ears checked
-0.5902759	earth </s>
-0.5902759	easiest is
-0.8913059	easy </s>
-0.8913059	easy thank
-0.5902759	edge </s>
-1.669457	edit </s>
-1.669457	edit afterwards
-1.669457	edit double
-1.669457	edit in
-0.9031776	edit my	-0.7952811
-1.116581	edit phone	-0.2129713
-1.116581	edit settings	-0.1723545
-1.669457	edit some
-0.5902759	editing alarms
-0.5902759	edits to
-0.8913059	effect </s>
-0.8913059	effect until
-0.5902759	eh that
-1.514521	eight </s>
-2.067397	eight a
-1.079234	eight am	-0.06887278
-2.067397	eight degrees
-0.9330907	eight eight	-0.339914
-1.079234	eight five	-0.2006962
-1.301118	eight hours	-0.3712422
-2.067397	eight hundred
-2.067397	eight nine
-2.067397	eight pm
-2.067397	eight seven
-1.514521	eight this	-0.2682718
-2.067397	eight three
-2.067397	eight two
-1.514521	eight zero	-0.09499191
-0.5902759	eighteen remix
-1.067397	eighty nine
-1.067397	eighty seven
-1.067397	eighty three
-1.067397	either </s>
-1.067397	either contact
-1.067397	either swipe
-0.9031276	else </s>
-2.037434	else can	-0.2007201
-2.037434	else changed
-2.037434	else does
-2.037434	else done
-2.037434	else for	-0.2089791
-2.037434	else from
-0.9031276	else i	-1.32247
-2.037434	else in
-2.037434	else may	-0.2137112
-2.037434	else please
-2.037434	else thank
-2.037434	else that	-0.2430129
-2.037434	else this
-2.037434	else today	0.04477571
-2.037434	else would
-1.484558	else you	-0.3878275
-2.037434	else you'd
-2.037434	else youd
-0.8913059	email address
-0.8913059	email i
-1.912495	enable 'do
-1.359619	enable </s>
-1.912495	enable a
-1.912495	enable after
-1.912495	enable at
-1.912495	enable auto
-1.359619	enable bluetooth
-0.9243318	enable do	-0.7423475
-1.359619	enable it
-1.359619	enable that
-1.359619	enable the	-0.2489432
-1.912495	enable usb
-1.912495	enable your
-1.368427	enabled </s>
-1.368427	enabled as
-0.8155509	enabled do	-0.2652262
-1.368427	enabled on
-1.368427	enabled the
-0.3384297	enabling do	-0.1362778
-1.289246	end </s>
-1.289246	end at
-1.289246	end it
-1.289246	end the
-1.289246	end time
-0.5902759	ended do
-0.5902759	ends at
-0.5902759	energy the
-0.5902759	engaged </s>
-1.289246	enjoy it
-0.7363697	enjoy the	-0.1624411
-0.7363697	enjoy your
-0.8913059	enough thanks
-0.8913059	enough to
-0.5902759	ensure that
-0.5902759	enter a
-0.5902759	entire device
-0.5902759	entirely no
-0.3384297	equipped to	-0.3707236
-0.5902759	erase the	-0.2744271
-0.5902759	erlse </s>
-0.3384297	etc </s>
-0.8913059	even no
-0.8913059	even notice
-0.2341207	evening </s>
-1.368427	evening then
-0.5902759	eventually hate
-0.3384297	every time
-0.5902759	everyday from
-0.7363697	everything </s>
