
\data\
ngram 1=4490
ngram 2=26351
ngram 3=4239

\1-grams:
-4.264913	's	-0.1129147
-1.201411	</s>
-99	<s>	-0.4236744
-2.098073	a	-0.1249583
-4.264913	ab	-0.08518695
-4.264913	ability	-0.1083701
-3.909691	able	-0.4200591
-2.37452	about	-0.2045321
-4.069737	above	-0.1053708
-4.264913	abrasive	-0.1133733
-3.454928	absolute	-0.3785649
-3.625321	absolutely	-0.08372042
-4.264913	absoluteness	-0.1093194
-4.264913	abuse	-0.1099844
-4.264913	abuser	-0.1133733
-4.264913	acceptable	-0.08518695
-4.264913	access	-0.1009841
-4.114597	accidentally	-0.11139
-4.264913	according	-0.1083701
-4.264913	accounting	-0.1133635
-4.264913	accumulated	-0.1082367
-4.264913	accused	-0.1120393
-4.264913	acid	-0.1083701
-4.264913	acquire	-0.1108307
-3.701118	across	-0.2844659
-4.264913	acrost	-0.1077695
-4.069737	act	-0.07813935
-4.264913	acted	-0.1082367
-4.264913	acting	-0.1102335
-4.264913	action	-0.08518695
-4.114597	active	-0.08514749
-4.264913	actress	-0.1103331
-3.909691	actual	-0.142885
-4.264913	actualizing	-0.1125845
-3.114497	actually	-0.0670333
-4.069737	add	-0.1030779
-4.264913	addict	-0.1106152
-4.264913	addicted	-0.1083701
-4.264913	addition	-0.1083701
-4.069737	address	-0.09917859
-4.264913	adidas	-0.113294
-4.264913	admit	-0.08518695
-4.114597	admitted	-0.1060926
-4.264913	adult	-0.113228
-4.264913	adulthood	-0.1082367
-3.793002	adults	-0.08303639
-4.264913	advance	-0.1083701
-4.264913	advantage	-0.1093194
-4.264913	advise	-0.1129477
-4.114597	affect	-0.1073144
-4.264913	affections	-0.08518695
-4.069737	afford	-0.09355243
-4.264913	afraid	-0.1128156
-4.069737	africa	-0.06460957
-4.264913	african	-0.08518695
-4.114597	africanamerican	-0.1116714
-4.069737	africanamericans	-0.08279751
-3.073581	after	-0.1421166
-4.114597	afternoon	-0.07628994
-4.264913	afterwards	-0.08518695
-3.036189	again	-0.3523888
-3.504649	against	-0.1907028
-3.793002	age	-0.1071182
-4.114597	agent	-0.0842319
-4.069737	agents	-0.08079849
-4.114597	ages	-0.2242742
-3.504649	ago	-0.1724232
-3.701118	agree	-0.3562464
-4.264913	agreed	-0.1083701
-4.114597	agreement	-0.1061764
-3.909691	ah	-0.07161739
-4.069737	ahead	-0.1321251
-3.909691	ain't	-0.1106528
-3.793002	air	-0.141687
-4.264913	aisle	-0.1131951
-4.264913	aisles	-0.09829214
-3.909691	al	-0.1416626
-4.264913	alarm's	-0.1127826
-4.264913	algebra	-0.08518695
-4.264913	alice	-0.1074855
-4.264913	alin	-0.1117582
-3.701118	alina	-0.09877426
-4.264913	alina's	-0.1129642
-4.114597	alive	-0.1114231
-2.362963	all	-0.2154072
-4.264913	alla	-0.08518695
-4.114597	allen	-0.2348857
-4.114597	allergic	-0.2298959
-4.264913	allergy	-0.1132775
-3.909691	allowed	-0.1352548
-4.264913	allying	-0.1110794
-4.264913	almond	-0.1027484
-3.701118	almost	-0.1294804
-4.114597	alone	-0.083469
-3.560807	along	-0.1196858
-4.264913	alps	-0.1066996
-3.136497	already	-0.1144177
-2.88621	alright	-0.1524612
-3.210099	also	-0.08176303
-4.114597	alterations	-0.1018651
-4.264913	altruistic	-0.1117582
-3.036189	always	-0.1383364
-3.237693	am	-0.1072837
-4.114597	amanda	-0.1102792
-4.069737	amazed	-0.156951
-3.909691	amazing	-0.09679664
-4.114597	ambiguous	-0.1133101
-4.264913	amelia	-0.1133733
-4.069737	america	-0.1589052
-3.625321	american	-0.144217
-4.114597	americans	-0.106729
-4.264913	among	-0.1133635
-4.114597	amounts	-0.104245
-2.849739	an	-0.1163084
-4.114597	analysis	-0.105774
-4.264913	analyz	-0.1110296
-1.61581	and	-0.1985833
-4.264913	and	-0.1066996
-4.264913	angela	-0.08518695
-4.264913	angeles	-0.0967365
-4.264913	animal	-0.1133733
-4.264913	animation	-0.1133635
-4.264913	animists	-0.08518695
-4.114597	anir	-0.2067128
-4.264913	ankles	-0.1127166
-3.909691	annalisa	-0.1413348
-4.264913	announced	-0.1083034
-4.264913	annoy	-0.112122
-4.264913	annoying	-0.07919269
-4.264913	annual	-0.1133599
-3.036189	another	-0.148742
-4.264913	ans	-0.1106152
-3.909691	answer	-0.1223584
-4.114597	answered	-0.1076485
-4.069737	answers	-0.07842483
-4.264913	anticipating	-0.112568
-4.069737	antonio	-0.07137912
-4.264913	anvil	-0.1027484
-4.069737	anxiety	-0.3001236
-2.985523	any	-0.08253653
-3.410319	anybody	-0.1175146
-4.264913	anybody's	-0.113294
-3.454928	anymore	-0.10526
-3.909691	anyone	-0.1094071
-3.036189	anything	-0.117745
-4.264913	anytime	-0.1082367
-3.369869	anyway	-0.1797283
-4.264913	anyways	-0.1126506
-4.069737	anywhere	-0.1611329
-4.114597	apart	-0.08460189
-3.701118	apartment	-0.3238029
-4.264913	apartment's	-0.1129972
-4.264913	apartments	-0.1127661
-4.264913	apathy	-0.08343801
-4.264913	apologize	-0.1131786
-4.264913	apologized	-0.1105654
-4.264913	app	-0.113228
-4.114597	apparent	-0.1130756
-3.454928	apparently	-0.07336029
-4.114597	appease	-0.2292953
-4.264913	apple	-0.08518695
-4.069737	applebaums	-0.2719372
-4.069737	application	-0.07071172
-4.264913	appointee	-0.07142028
-4.264913	appointees	-0.08518695
-4.264913	appointment	-0.1085494
-4.264913	appreciate	-0.1074855
-4.264913	approach	-0.1123864
-4.264913	approve	-0.1093194
-4.264913	approximately	-0.1133733
-4.264913	ar	-0.112535
-4.264913	archipelago	-0.1082493
-4.264913	architecture	-0.1082367
-2.485067	are	-0.1374174
-3.909691	area	-0.1635459
-4.069737	areas	-0.159047
-3.410319	aren't	-0.1586242
-4.114597	argument	-0.1121179
-4.264913	arguments	-0.1130796
-4.114597	arm	-0.1101464
-4.114597	arms	-0.105992
-4.264913	army	-0.1133635
-3.793002	arnold	-0.5113475
-4.264913	aro	-0.1083701
-2.702759	around	-0.1312564
-4.264913	arousal	-0.08518695
-4.264913	arrangements	-0.1105654
-4.264913	arrest	-0.1131951
-3.909691	art	-0.1086949
-4.114597	article	-0.1098973
-4.114597	articles	-0.103588
-4.264913	arvela	-0.1133105
-2.640882	as	-0.2271105
-4.264913	asam	-0.08518695
-4.114597	ash	-0.1082994
-4.264913	ashby	-0.08518695
-4.114597	ashes	-0.1083327
-4.264913	ashtray	-0.1103331
-4.264913	asia	-0.08518695
-4.264913	asianamerican	-0.1027484
-4.264913	aside	-0.1027484
-3.332867	ask	-0.2092887
-3.369869	asked	-0.231249
-4.114597	asking	-0.08216476
-4.264913	asleep	-0.107899
-4.264913	aspects	-0.112122
-4.114597	ass	-0.07913484
-4.264913	assembly	-0.1105654
-4.264913	assertive	-0.113327
-4.264913	assertiveness	-0.08518695
-4.264913	asshole	-0.1126836
-4.264913	assign	-0.1129147
-4.264913	assignment	-0.08518695
-3.909691	assistant	-0.1266279
-4.264913	assistants	-0.111907
-4.069737	associate	-0.3001236
-4.264913	associating	-0.1126506
-4.114597	assume	-0.1074146
-4.114597	assumed	-0.09668931
-4.114597	asthma	-0.09974021
-2.340733	at	-0.3507436
-4.264913	ate	-0.1099179
-4.264913	athletes	-0.1127166
-4.264913	atlanta	-0.1133635
-4.264913	atomic	-0.1133733
-4.114597	attached	-0.2298959
-4.114597	attack	-0.08244802
-4.264913	attacks	-0.0836322
-3.793002	attention	-0.1804534
-4.264913	attic	-0.1106152
-3.909691	attitude	-0.08865574
-4.069737	attitudes	-0.162225
-3.701118	attorney	-0.07428059
-4.264913	attractive	-0.113261
-4.264913	atypical	-0.1133434
-4.264913	audacity	-0.1083701
-4.264913	audience	-0.1105488
-4.069737	aught	-0.1415718
-4.069737	august	-0.1012211
-4.114597	auntie	-0.112792
-4.264913	australia	-0.1106152
-4.114597	australian	-0.112957
-4.264913	auto	-0.1133599
-4.264913	autopsy	-0.1131456
-4.264913	available	-0.08518695
-4.264913	aw	-0.08364553
-4.069737	aware	-0.1804822
-3.267159	away	-0.1996844
-4.264913	awesome	-0.08518695
-3.909691	awful	-0.1394119
-4.264913	awfully	-0.1113041
-4.264913	ay	-0.03111443
-3.184154	b	-0.05782066
-4.264913	babe	-0.1125845
-4.069737	babies	-0.1622816
-3.793002	baby	-0.1673547
-4.264913	babysitting	-0.1132775
-2.765234	back	-0.2013979
-4.264913	background	-0.1133733
-4.114597	backing	-0.08349098
-4.264913	backrubs	-0.08518695
-4.264913	backs	-0.1093194
-4.264913	backward	-0.08518695
-4.114597	backwards	-0.1066453
-4.264913	backyard	-0.08518695
-4.264913	back	-0.1027484
-3.159672	bad	-0.1641818
-4.264913	badgered	-0.1120393
-3.332867	bag	-0.08043545
-4.264913	baggier	-0.1124524
-4.069737	bags	-0.07753117
-4.114597	bahia	-0.1199723
-4.069737	bake	-0.3001102
-4.264913	bakersfield	-0.1133635
-4.069737	baking	-0.113121
-4.264913	balancing	-0.1133733
-4.264913	balcony	-0.07663525
-4.264913	balding	-0.1099844
-4.114597	ball	-0.1117541
-4.114597	balloon	-0.1095981
-4.264913	balloons	-0.1082795
-4.264913	ballroom	-0.1126176
-4.264913	balls	-0.1027484
-3.504649	band	-0.1795273
-4.264913	band's	-0.1129972
-4.264913	bang	-0.1125845
-4.264913	banging	-0.1125845
-4.264913	bango	-0.08518695
-4.264913	banker	-0.08518695
-3.909691	bar	-0.1183468
-4.069737	barbara	-0.07831806
-4.264913	barbarian	-0.1083034
-4.264913	barbies	-0.1111953
-4.264913	barely	-0.1127001
-4.264913	barging	-0.1082367
-4.264913	barr	-0.1027484
-4.264913	bars	-0.1082367
-4.264913	bart	-0.1133064
-4.264913	baseball	-0.1133635
-4.264913	based	-0.1102335
-4.069737	basic	-0.09584883
-3.625321	basically	-0.09407427
-4.264913	basics	-0.08518695
-4.114597	basil	-0.08338028
-4.264913	basis	-0.08074128
-4.264913	bastion	-0.1093194
-4.264913	batak	-0.1027484
-4.264913	bath	-0.08497156
-4.264913	bathroom	-0.1126671
-4.264913	bathtub	-0.1119401
-4.264913	bay	-0.1133434
-2.686444	be	-0.08531106
-4.264913	beacon	-0.1093194
-4.069737	beads	-0.08198328
-4.264913	bean	-0.1132775
-3.793002	beans	-0.2390034
-4.264913	bear	-0.08518695
-3.909691	beard	-0.07932662
-4.264913	bears	-0.1118739
-4.114597	beat	-0.1106443
-4.114597	beating	-0.1037861
-4.069737	beautiful	-0.1131216
-4.114597	became	-0.1098843
-2.53859	because	-0.1594737
-4.114597	becky's	-0.1131782
-4.069737	become	-0.1097998
-4.114597	becomes	-0.109648
-4.264913	becoming	-0.08518695
-3.793002	bed	-0.1045106
-4.114597	bedroom	-0.08454905
-4.264913	bedtime	-0.1105654
-3.001764	been	-0.0724712
-4.264913	beetlejuice	-0.1077695
-3.018636	before	-0.1040493
-4.264913	beg	-0.112155
-4.264913	begin	-0.1110794
-3.909691	beginning	-0.09407009
-4.264913	begins	-0.1110794
-4.114597	begun	-0.1083462
-4.264913	behaved	-0.1116423
-4.114597	behavior	-0.1081993
-4.114597	behind	-0.1026092
-4.264913	beholden	-0.1027484
-4.264913	beige	-0.1133434
-3.093557	being	-0.1517437
-4.264913	beings	-0.1102003
-4.264913	belief	-0.1082367
-3.332867	believe	-0.2239985
-4.264913	believed	-0.1077695
-4.264913	believes	-0.1112119
-4.264913	believing	-0.1082367
-4.264913	belong	-0.1083701
-4.069737	below	-0.1834574
-4.114597	belt	-0.1509447
-4.264913	bend	-0.112568
-4.069737	benefit	-0.07753117
-4.264913	benefits	-0.08518695
-4.069737	bent	-0.1876252
-4.264913	berry	-0.1127991
-4.264913	beside	-0.1124855
-3.909691	besides	-0.09679664
-4.114597	best	-0.07581462
-4.069737	bet	-0.1393235
-4.264913	betrayal	-0.08518695
-4.264913	bette	-0.1133599
-3.410319	better	-0.2019233
-4.069737	betty	-0.3001102
-3.701118	between	-0.1050527
-4.264913	beverly	-0.1133733
-4.114597	beyond	-0.08456666
-4.114597	bicycling	-0.08271342
-4.264913	bien	-0.08518695
-3.184154	big	-0.07347642
-4.069737	bigger	-0.1891655
-4.264913	biggest	-0.1132445
-4.264913	biggies	-0.1114106
-4.264913	bighare	-0.08518695
-4.069737	bill	-0.1027
-4.264913	billboards	-0.1115099
-4.069737	billings	-0.0797095
-4.264913	billy	-0.1133733
-4.264913	birds	-0.1126176
-4.264913	birth	-0.1093194
-4.069737	birthday	-0.1142522
-4.264913	birthdays	-0.08518695
-3.625321	bit	-0.0969854
-4.069737	bitch	-0.08171743
-4.264913	bitches	-0.1027484
-4.264913	bitching	-0.112535
-4.264913	bite	-0.07926401
-4.069737	bizarre	-0.1609389
-3.454928	black	-0.1669419
-3.909691	blacks	-0.1409617
-4.264913	blacksmithing	-0.1027484
-4.114597	blah	-0.1902095
-4.069737	blame	-0.1844112
-4.264913	blames	-0.1083034
-4.264913	blanks	-0.1129477
-4.264913	blaring	-0.1106152
-4.264913	bless	-0.1066996
-3.625321	blew	-0.09446196
-4.264913	block	-0.1083034
-4.264913	blond	-0.1133635
-4.114597	blood	-0.08458427
-4.264913	bloodwork	-0.08518695
-4.264913	blouse	-0.08518695
-4.069737	blow	-0.1031581
-4.114597	blowing	-0.1109593
-4.264913	blown	-0.1131621
-4.264913	blows	-0.08518695
-3.909691	blue	-0.1490541
-4.264913	bluejeans	-0.08518695
-4.114597	bluh	-0.1622816
-4.264913	blush	-0.1113278
-3.332867	board	-0.09190826
-4.264913	boat	-0.08518695
-3.793002	body	-0.1110115
-4.264913	body's	-0.113261
-4.264913	boiled	-0.1133599
-4.264913	bomb	-0.08518695
-4.264913	bombardment	-0.1093194
-4.114597	bone	-0.07967824
-3.793002	bones	-0.07152034
-4.114597	boo	-0.07803646
-3.410319	book	-0.06073029
-4.264913	bookkeeper	-0.08518695
-3.909691	books	-0.1243755
-4.264913	boom	-0.1133635
-4.264913	boots's	-0.1128652
-4.264913	border	-0.1128322
-4.114597	bored	-0.07381441
-3.909691	boring	-0.1387218
-4.114597	born	-0.0788716
-4.264913	borrow	-0.1133635
-4.264913	bot	-0.1074855
-3.560807	both	-0.1364717
-4.069737	bother	-0.1005558
-4.114597	bothers	-0.1054048
-4.264913	bottle	-0.08518695
-4.264913	bottled	-0.1132775
-4.264913	bottles	-0.08518695
-4.069737	bottom	-0.09920018
-4.264913	bottoms	-0.1074855
-3.560807	bought	-0.1607552
-4.264913	bounce	-0.1125845
-4.114597	bow	-0.2348991
-4.069737	bowl	-0.08114976
-4.264913	bowtie	-0.1099844
-4.114597	box	-0.0835616
-4.264913	boxes	-0.08518695
-3.504649	boy	-0.1269382
-4.264913	boyfriend	-0.08518695
-4.069737	boys	-0.104325
-4.114597	brad	-0.0842319
-4.114597	brain	-0.2348991
-4.264913	bran	-0.1131126
-4.114597	branch	-0.08432002
-4.114597	brand	-0.08470754
-4.114597	brat	-0.1025923
-4.114597	brazil	-0.110163
-3.909691	brazilian	-0.1131233
-4.114597	brazilians	-0.1117045
-4.114597	bread	-0.06834985
-4.264913	breaded	-0.08518695
-3.454928	break	-0.1916328
-4.264913	breakfast	-0.1027484
-4.264913	breaking	-0.1113609
-3.793002	breaks	-0.1196484
-4.114597	breath	-0.08177496
-4.114597	breathe	-0.08317305
-4.069737	breathing	-0.1282729
-4.264913	breed	-0.1098973
-4.264913	breeding	-0.1133733
-4.264913	brian's	-0.1133599
-4.264913	bridge	-0.1110296
-4.264913	bridges	-0.1115596
-4.264913	briefly	-0.1133599
-4.069737	bright	-0.1797394
-4.264913	brilliant	-0.1123864
-3.454928	bring	-0.1443224
-4.264913	brings	-0.1128487
-4.264913	britain	-0.1082367
-4.264913	brittle	-0.08518695
-4.264913	bro	-0.08518695
-3.701118	broke	-0.1019658
-4.069737	broken	-0.1005893
-4.114597	brother	-0.07649173
-3.504649	brought	-0.1058558
-4.264913	brown	-0.113327
-4.264913	brr	-0.1099844
-4.264913	brushoff	-0.1118739
-4.264913	buck	-0.1027484
-4.264913	buckets	-0.08518695
-3.793002	bucks	-0.08977708
-4.264913	bud	-0.08518695
-4.264913	bud's	-0.08518695
-4.069737	buddy	-0.1597906
-4.264913	budgeted	-0.08518695
-4.114597	bug	-0.2067128
-4.264913	bugging	-0.1133434
-4.069737	buh	-0.1416164
-3.909691	building	-0.1224658
-4.264913	builds	-0.1118078
-4.069737	built	-0.07871097
-4.114597	bulgaria	-0.08454905
-4.264913	bulging	-0.113261
-3.909691	bullshit	-0.1160327
-4.264913	bummed	-0.08518695
-4.264913	bummer	-0.1105488
-4.264913	bumped	-0.1099179
-4.264913	bumper	-0.1093194
-4.264913	bunches	-0.1093194
-4.264913	burden	-0.1102003
-4.114597	bureaucracy	-0.09989741
-4.264913	burn	-0.1083701
-4.264913	burned	-0.1113609
-4.264913	burners	-0.1066996
-4.069737	burning	-0.07715511
-4.264913	burns	-0.1118739
-4.264913	burped	-0.1113609
-4.264913	buses	-0.1083701
-4.114597	bush	-0.1568085
-3.909691	business	-0.07741167
-4.264913	bust	-0.1077695
-4.264913	busy	-0.1123864
-2.184653	but	-0.1709673
-4.069737	butt	-0.1261526
-3.909691	butter	-0.1279193
-4.069737	butterball	-0.07809924
-4.264913	butterfly	-0.1066996
-4.114597	button	-0.2317593
-3.625321	buy	-0.120028
-4.264913	buying	-0.08518695
-2.626698	by	-0.1854226
-4.264913	bye	-0.1126671
-4.264913	bylaws	-0.1132115
-3.625321	c	-0.0664869
-4.114597	ca	-0.08266035
-4.264913	cabinet	-0.1133434
-4.264913	caesar's	-0.1027484
-4.264913	cafeteria	-0.1027484
-4.114597	cajun	-0.11334
-3.298772	cake	-0.2519904
-3.909691	cakes	-0.2100521
-4.264913	cal	-0.113327
-4.069737	calcium	-0.07964218
-4.264913	calf	-0.08518695
-4.264913	california	-0.08518695
-3.114497	call	-0.2022566
-3.093557	called	-0.112531
-3.701118	calling	-0.1360948
-4.069737	calls	-0.1099264
-3.073581	came	-0.2816907
-4.114597	campbell's	-0.2314437
-2.774941	can	-0.1657255
-2.926028	can't	-0.1485282
-4.114597	canada	-0.1027105
-4.264913	cancel	-0.1110296
-4.264913	candle	-0.1027484
-4.114597	candles	-0.2067128
-3.793002	candy	-0.1222332
-4.264913	canned	-0.07381441
-4.264913	canneries	-0.1066996
-4.264913	cannery	-0.1110296
-3.793002	cannot	-0.1005305
-4.069737	cans	-0.1613445
-4.264913	capability	-0.1111953
-4.264913	capable	-0.1093194
-4.069737	capacity	-0.106457
-4.264913	capitalism	-0.1119732
-4.264913	capsule	-0.1027484
-4.264913	capsules	-0.1027484
-3.298772	car	-0.1824889
-4.264913	carbon	-0.1133635
-4.264913	carbonated	-0.1132775
-4.264913	cardazam	-0.1102003
-4.264913	cardiac	-0.1133733
-4.114597	cards	-0.08191674
-3.625321	care	-0.1159784
-4.069737	careful	-0.1215705
-4.114597	carefully	-0.1008145
-4.264913	cares	-0.08518695
-4.264913	carlton	-0.1113609
-4.264913	carmela	-0.1027484
-4.264913	carried	-0.1123864
-4.264913	carries	-0.112535
-4.264913	carrot's	-0.1127826
-4.114597	carry	-0.2317593
-4.114597	carrying	-0.1090491
-4.069737	cars	-0.08832838
-4.069737	cartilage	-0.09951904
-4.114597	cartoon	-0.08303168
-3.504649	case	-0.07364243
-4.114597	cases	-0.07744166
-4.264913	cash	-0.1083701
-4.264913	casino	-0.1133105
-3.560807	cassandra	-0.0648906
-4.264913	castro	-0.1133733
-3.909691	cat	-0.1035635
-4.069737	catalog	-0.09925957
-3.909691	catch	-0.06769615
-4.264913	catching	-0.1133599
-4.264913	categories	-0.1132115
-4.264913	categorizing	-0.1117582
-4.264913	category	-0.1093194
-4.264913	catholic	-0.1130136
-3.504649	cathy	-0.133275
-4.264913	catpee	-0.1132004
-4.264913	cattle	-0.1133733
-4.069737	caught	-0.1009727
-2.527345	cause	-0.1305881
-4.114597	caused	-0.1007425
-4.264913	cebu	-0.08518695
-4.264913	cebuano	-0.08518695
-4.264913	cedar	-0.08518695
-4.114597	ceiling	-0.1078656
-4.264913	celebrating	-0.1027484
-4.264913	celebration	-0.1131786
-4.114597	cemetery	-0.07381441
-4.264913	cent	-0.1093194
-4.114597	center	-0.08306703
-4.264913	central	-0.1133733
-4.114597	cents	-0.1081659
-4.264913	century	-0.1133599
-3.793002	certain	-0.1072859
-4.264913	certainly	-0.1128817
-4.264913	certification	-0.1027484
-4.264913	certified	-0.1018651
-4.264913	cesar	-0.1133733
-4.264913	cetera	-0.1001707
-4.264913	ceviche	-0.1110794
-4.114597	ch	-0.1068963
-3.909691	chair	-0.1516829
-4.264913	chairperson	-0.1093194
-4.069737	chairs	-0.08343368
-4.069737	chalk	-0.1401186
-4.264913	chalkboard	-0.07381441
-4.264913	challenged	-0.1123698
-4.264913	challenging	-0.112122
-4.264913	chance	-0.1062099
-4.114597	change	-0.1129106
-3.909691	changed	-0.1556535
-4.264913	changing	-0.1133733
-4.114597	chapter	-0.1098807
-4.264913	character	-0.1103331
-4.264913	characteristics	-0.1133635
-3.909691	charge	-0.1000081
-4.264913	charged	-0.1110794
-4.264913	chart	-0.1133733
-4.264913	chavez	-0.113327
-4.264913	cheap	-0.1133599
-3.701118	check	-0.1444525
-4.114597	checked	-0.1079323
-4.264913	checking	-0.1105654
-4.264913	cheddar	-0.1102335
-4.264913	cheering	-0.1027484
-4.264913	chef	-0.1133733
-4.114597	chemical	-0.2348991
-4.264913	chemicals	-0.1027484
-3.793002	chest	-0.0986013
-4.114597	chew	-0.1051026
-4.114597	chic	-0.07803646
-4.069737	chicano	-0.113015
-4.264913	chicanolatino	-0.1133599
-3.701118	chicanos	-0.1239898
-4.264913	chick	-0.08518695
-3.909691	chicken	-0.1416626
-4.264913	chickens	-0.08518695
-4.114597	child	-0.09740388
-4.264913	childhood	-0.1119401
-4.114597	children	-0.1103456
-4.114597	chill	-0.08298868
-4.264913	chocolate	-0.1133733
-3.793002	choice	-0.09164213
-4.264913	choices	-0.1105654
-4.264913	choke	-0.1133635
-4.264913	chokes	-0.112122
-4.264913	choose	-0.1077695
-4.264913	chop	-0.1133599
-4.264913	chris	-0.1102003
-4.114597	christmas	-0.08515136
-4.264913	chrysler	-0.1133599
-3.793002	church	-0.09940863
-4.114597	chutney	-0.1622777
-4.114597	cigarette	-0.1112907
-4.069737	cigarettes	-0.1390405
-4.264913	circle	-0.1027484
-4.264913	circumstances	-0.1027484
-4.264913	circus	-0.08518695
-4.264913	cities	-0.112535
-4.264913	citizen	-0.1027484
-4.264913	citizenry	-0.1102003
-3.909691	city	-0.09847245
-4.114597	civic	-0.113257
-4.264913	civilized	-0.08518695
-4.114597	claim	-0.1074616
-4.069737	claims	-0.09801903
-4.264913	clapping	-0.112535
-3.454928	class	-0.08098971
-4.069737	classes	-0.07793832
-3.909691	classroom	-0.09322031
-4.264913	claus	-0.05275381
-4.264913	claus's	-0.1133599
-4.264913	clay	-0.1102003
-4.264913	claypit	-0.1124855
-3.909691	clean	-0.06498767
-4.264913	cleaner	-0.08518695
-4.069737	cleaning	-0.1563095
-4.069737	clear	-0.1781144
-4.264913	clearly	-0.08518695
-4.264913	clerk	-0.1025247
-4.264913	clever	-0.1133635
-4.264913	clients	-0.1128322
-4.264913	climbing	-0.1133635
-4.264913	clinton	-0.1103331
-4.264913	clipped	-0.1126506
-4.264913	clippings	-0.08216476
-4.264913	clods	-0.1093194
-3.410319	close	-0.2478696
-4.264913	closed	-0.08518695
-4.264913	closedminded	-0.1115596
-4.264913	closer	-0.1083701
-4.264913	closet	-0.1106609
-4.264913	closing	-0.1133733
-4.264913	cloth	-0.1103331
-3.625321	clothes	-0.3801154
-4.264913	clothing	-0.08518695
-4.069737	club	-0.09755775
-3.793002	clue	-0.1786986
-4.114597	clues	-0.08463711
-4.264913	clydesdales	-0.1133733
-4.264913	coalition	-0.1133434
-4.264913	coalitions	-0.1110556
-4.264913	coals	-0.1066996
-4.264913	coast	-0.1093194
-4.264913	coat	-0.1119401
-4.264913	cocaine	-0.1133497
-4.264913	cocktail	-0.1103331
-4.264913	code	-0.1103331
-4.264913	coexist	-0.1110794
-4.114597	colander	-0.07287015
-3.909691	cold	-0.1408593
-4.264913	cole	-0.08518695
-4.069737	collections	-0.1622601
-4.264913	collective	-0.1066996
-3.909691	college	-0.1776559
-4.114597	cologne	-0.08184151
-4.069737	color	-0.159047
-4.264913	colored	-0.1133635
-4.114597	colors	-0.1095815
-4.264913	colosseum	-0.1115596
-4.264913	columbia	-0.08518695
-4.264913	column	-0.1102335
-4.069737	combining	-0.1892812
-4.264913	combust	-0.1066996
-2.899081	come	-0.2717189
-3.332867	comes	-0.1394571
-4.264913	comfortable	-0.1110794
-3.184154	coming	-0.1785895
-4.264913	command	-0.1093194
-4.069737	comments	-0.1093778
-4.264913	commit	-0.1083701
-4.264913	commitment	-0.1093194
-3.909691	committee	-0.1818985
-3.909691	committees	-0.09884659
-3.909691	common	-0.2137221
-4.114597	communist	-0.1131947
-4.069737	community	-0.1023008
-4.264913	comp	-0.1082367
-4.114597	company	-0.09678787
-4.114597	compared	-0.2298959
-4.114597	comparison	-0.1083364
-4.264913	compartment	-0.1082367
-4.264913	competition	-0.1133733
-4.114597	complain	-0.1115225
-4.264913	complaining	-0.1115596
-4.114597	complaint	-0.1114728
-4.114597	complaints	-0.07161993
-3.793002	completely	-0.1128434
-4.069737	complex	-0.1293418
-4.264913	complicated	-0.1133599
-3.701118	compost	-0.3319274
-4.264913	compounds	-0.1074855
-4.114597	computers	-0.08154446
-4.069737	con	-0.1027
-3.909691	concept	-0.1287176
-4.114597	concepts	-0.1116875
-4.264913	conceptual	-0.1133599
-4.264913	conceptually	-0.1027484
-4.264913	concern	-0.1115596
-4.069737	concerned	-0.1112535
-4.114597	concerns	-0.07887597
-4.264913	concisely	-0.08518695
-4.264913	condition	-0.08518695
-4.264913	conditioned	-0.1115596
-4.264913	conditioner	-0.1112244
-4.264913	conditions	-0.1129477
-4.264913	condo	-0.1131786
-4.264913	condoms	-0.08518695
-4.069737	conduct	-0.1102057
-4.264913	conducta	-0.1115596
-4.264913	confess	-0.08518695
-4.264913	conflict	-0.1027484
-4.264913	confrontation	-0.1123698
-4.264913	congratulations	-0.08518695
-4.264913	congregate	-0.08518695
-4.264913	congregation	-0.08518695
-4.114597	congress	-0.1081659
-4.264913	congressional	-0.1133733
-4.264913	congressmen	-0.1132115
-4.264913	connected	-0.1115596
-4.264913	connection	-0.1132115
-4.069737	consider	-0.1062393
-4.264913	consistent	-0.1133733
-4.114597	constant	-0.1094318
-4.264913	constitution	-0.1111084
-4.264913	constructed	-0.113228
-4.264913	construction	-0.1110794
-4.264913	consultant	-0.1130796
-4.114597	containers	-0.2067128
-4.264913	continue	-0.1108307
-4.264913	continued	-0.1102335
-4.264913	continuously	-0.08518695
-4.264913	contracting	-0.1131951
-4.264913	contradict	-0.1074855
-4.264913	contrary	-0.08518695
-4.114597	contributing	-0.2298959
-4.264913	contributors	-0.1083701
-3.909691	control	-0.135344
-4.114597	convenience	-0.08216476
-4.264913	convenient	-0.1125515
-4.114597	conversation	-0.09965516
-4.264913	convicted	-0.08518695
-4.264913	conviction	-0.1114272
-4.264913	convinced	-0.112502
-3.793002	cook	-0.09831794
-3.701118	cookie	-0.07354055
-4.069737	cookies	-0.2166175
-4.264913	cooking	-0.1082367
-3.793002	cool	-0.1179929
-4.264913	cooler	-0.1074855
-4.069737	coop	-0.105363
-4.264913	cooper	-0.1133635
-4.264913	cooperate	-0.1102003
-4.264913	cooperation	-0.08518695
-4.264913	copies	-0.1093194
-4.114597	copy	-0.1579647
-4.264913	cord	-0.1102335
-4.264913	cork	-0.08456666
-4.264913	corner	-0.1115556
-4.264913	corners	-0.1110296
-4.264913	corporate	-0.1103331
-4.069737	corporation	-0.06668837
-4.114597	correct	-0.105069
-4.264913	corrected	-0.1099844
-4.264913	corrupt	-0.1130301
-4.264913	corruption	-0.1116423
-4.069737	cost	-0.2065853
-4.069737	costs	-0.09745101
-4.069737	cotton	-0.1124315
-4.264913	cou	-0.113327
-3.793002	couch	-0.3124699
-4.264913	cough	-0.1133733
-2.969868	could	-0.1577856
-4.114597	could've	-0.1131086
-3.298772	couldn't	-0.1942668
-4.264913	council	-0.1126176
-4.264913	counselor	-0.08518695
-4.264913	count	-0.1133105
-4.264913	countries	-0.1102003
-4.114597	country	-0.105279
-4.069737	county	-0.08511574
-4.264913	coup	-0.1082367
-3.454928	couple	-0.2166236
-3.701118	course	-0.06749594
-4.069737	court	-0.08300635
-4.264913	courtroom	-0.07277968
-4.264913	courtroom's	-0.1099844
-4.069737	cover	-0.07869269
-4.264913	coverage	-0.1027484
-4.114597	covered	-0.1079156
-4.264913	covers	-0.1074855
-3.701118	cow	-0.3124699
-4.264913	cracked	-0.1103331
-4.264913	cradle	-0.1093194
-4.264913	cramp	-0.08518695
-4.264913	cramped	-0.08518695
-4.264913	cranky	-0.1099844
-4.264913	crass	-0.113261
-4.264913	cratos	-0.110777
-4.264913	craving	-0.1133635
-4.264913	crawl	-0.112535
-4.264913	crawling	-0.1110794
-3.909691	crazy	-0.1366449
-3.793002	cream	-0.1562203
-4.264913	cream's	-0.1126176
-4.114597	create	-0.1116714
-4.264913	created	-0.08518695
-4.264913	creating	-0.1108307
-4.264913	creole	-0.1133635
-4.264913	crimes	-0.1027484
-4.264913	cripple	-0.1118078
-4.264913	criticism	-0.1074855
-4.114597	cross	-0.1082795
-4.264913	crouched	-0.112568
-3.909691	crow	-0.0774731
-4.264913	crude	-0.1105488
-4.264913	crumbed	-0.1027484
-4.264913	crumbs	-0.113294
-4.264913	cruz	-0.08518695
-4.114597	crying	-0.07967824
-4.264913	cultivate	-0.1083701
-4.114597	cultural	-0.1132704
-3.793002	culture	-0.08919456
-4.264913	cup	-0.1102003
-4.264913	cupboards	-0.08518695
-4.264913	current	-0.1133733
-4.264913	currents	-0.1093194
-4.264913	custommade	-0.1105654
-3.267159	cut	-0.103901
-4.114597	cute	-0.08181041
-4.264913	cuts	-0.113327
-4.264913	cutting	-0.1083034
-4.114597	cuz	-0.1098474
-4.069737	cycle	-0.08193012
-4.114597	cycles	-0.1026936
-4.114597	cyst	-0.08181041
-3.073581	d	-0.08210886
-3.625321	dad	-0.1288216
-4.264913	dad's	-0.08154446
-4.069737	daddy	-0.1068086
-4.264913	daddy's	-0.1129642
-4.264913	daly	-0.1133434
-3.909691	damn	-0.1080879
-4.264913	damon	-0.1131951
-4.264913	danae	-0.1129477
-3.504649	dance	-0.1852476
-4.114597	danced	-0.1106775
-4.069737	dancer	-0.08406892
-4.264913	dancers	-0.1103331
-4.264913	dances	-0.08518695
-3.504649	dancing	-0.202629
-3.909691	dang	-0.1785897
-4.264913	dangerous	-0.1113609
-3.909691	dark	-0.08198139
-3.793002	darn	-0.0760162
-4.264913	darryl	-0.08518695
-4.264913	dart	-0.1113609
-4.114597	date	-0.2067128
-4.114597	daughter	-0.08403365
-4.264913	david	-0.1133733
-4.069737	davis	-0.08289498
-4.264913	dawns	-0.1102335
-3.237693	day	-0.1376516
-4.264913	day's	-0.1099844
-4.264913	dayak	-0.1027484
-3.625321	days	-0.1256793
-4.264913	daze	-0.08518695
-3.625321	dead	-0.1473002
-4.264913	deaf	-0.1133733
-3.454928	deal	-0.3042991
-4.264913	dealer	-0.1118739
-4.069737	dealing	-0.2978296
-4.264913	deals	-0.1110794
-3.560807	dear	-0.1955869
-3.504649	death	-0.1695277
-4.264913	deathly	-0.1133635
-4.264913	deb	-0.1114106
-4.069737	debby	-0.1390051
-4.264913	debunk	-0.08518695
-4.264913	decadent	-0.07381441
-4.114597	deceased	-0.08512989
-4.264913	decent	-0.1131456
-4.264913	deci	-0.1112119
-4.069737	decide	-0.0795583
-4.114597	decided	-0.09519245
-4.264913	deciding	-0.1112119
-4.264913	decision	-0.1131126
-4.264913	decisions	-0.1102335
-4.264913	declining	-0.1133434
-4.264913	decomposing	-0.1103331
-4.264913	decorate	-0.1077695
-4.264913	decorating	-0.1116423
-4.114597	deep	-0.1132606
-4.264913	defeats	-0.1077695
-4.264913	defendant	-0.1021697
-4.264913	defender's	-0.1133599
-4.264913	defense	-0.1133105
-4.264913	defined	-0.1116423
-3.332867	definitely	-0.1195598
-4.114597	definition	-0.05967192
-4.114597	degree	-0.1014587
-4.264913	del	-0.113294
-4.264913	deliberately	-0.112568
-4.114597	delicious	-0.2067128
-4.264913	demands	-0.113327
-3.504649	democracy	-0.1312393
-4.069737	democratic	-0.1005558
-4.264913	demonstrated	-0.1131291
-4.114597	demos	-0.2348991
-4.264913	denied	-0.1083034
-4.114597	dennis	-0.09919562
-4.264913	denom	-0.1131126
-4.069737	denominator	-0.06548485
-4.069737	dense	-0.07787114
-4.264913	denying	-0.112568
-4.114597	deon	-0.1022204
-4.114597	department	-0.08504194
-4.114597	depend	-0.1099803
-4.114597	depends	-0.185713
-4.264913	deposit	-0.1133599
-4.114597	deposits	-0.1061764
-4.114597	depressing	-0.08500675
-4.264913	deprived	-0.1093194
-4.069737	describe	-0.1062017
-4.264913	described	-0.1128322
-4.264913	deserve	-0.1108307
-4.264913	design	-0.1133635
-4.264913	designs	-0.1082367
-4.264913	desire	-0.08518695
-4.264913	desk	-0.1027484
-4.114597	dessert	-0.1131617
-4.264913	destruction	-0.08518695
-4.264913	detail	-0.1074855
-4.264913	detectives	-0.1130466
-4.264913	determines	-0.112535
-4.264913	develop	-0.1127331
-4.264913	developing	-0.1099179
-4.264913	development	-0.1093194
-4.264913	developments	-0.1082367
-4.114597	deven	-0.08361455
-4.264913	deven's	-0.113327
-4.264913	device	-0.1130961
-4.114597	di	-0.08477796
-4.264913	diagram	-0.1093194
-4.264913	diamond	-0.1133733
-4.264913	diaper	-0.1001184
-4.264913	diapers	-0.1102335
-4.114597	diarrhetic	-0.1097145
-4.264913	dickens	-0.1131951
-4.264913	dictates	-0.1125845
-2.67851	did	-0.3267794
-4.264913	diddly	-0.08518695
-2.873709	didn't	-0.2290811
-4.264913	die	-0.1027484
-3.560807	died	-0.1087109
-4.264913	diet	-0.1027484
-4.264913	dietetic	-0.1133733
-3.793002	difference	-0.1566395
-3.114497	different	-0.1233501
-4.114597	differently	-0.1078656
-3.701118	difficult	-0.1863522
-4.264913	dig	-0.1083034
-4.264913	digging	-0.1083034
-4.069737	dillards	-0.06764613
-4.264913	dime	-0.1074855
-4.264913	dining	-0.113228
-4.069737	dinner	-0.1001992
-4.264913	dip	-0.1124855
-4.114597	direct	-0.1133497
-4.264913	direction	-0.08518695
-4.264913	directly	-0.1133733
-4.264913	director	-0.09982941
-4.264913	dirt	-0.1103331
-3.701118	dirty	-0.1131048
-4.264913	disagree	-0.1114106
-4.264913	disapproving	-0.08518695
-4.264913	disciplined	-0.1131456
-4.264913	disclosure	-0.113294
-4.264913	discrepancies	-0.1099844
-4.114597	discuss	-0.1061387
-4.264913	discussed	-0.1130796
-3.793002	discussion	-0.1326844
-4.264913	disdain	-0.1106152
-4.114597	disease	-0.08504194
-4.264913	disgruntled	-0.1133733
-4.114597	disgusted	-0.0749459
-4.114597	disgusting	-0.08514749
-4.069737	dishes	-0.1560062
-4.264913	dishwasher	-0.1082367
-4.264913	disinterested	-0.08518695
-4.264913	disney	-0.08518695
-4.114597	dispense	-0.2326051
-4.264913	display	-0.1114106
-4.264913	disproportionately	-0.113261
-4.264913	disputing	-0.1133635
-4.264913	dissuade	-0.1120393
-4.264913	distant	-0.1103331
-4.264913	distill	-0.112568
-4.264913	distinctly	-0.1133105
-4.264913	distinguish	-0.1077695
-4.264913	distorted	-0.1110296
-4.264913	distribute	-0.1130136
-4.264913	distributor	-0.1133599
-4.264913	district	-0.08518695
-4.264913	ditch	-0.07381441
-4.069737	divide	-0.2392798
-4.264913	divided	-0.1123698
-4.264913	divorce	-0.1108307
-4.264913	divorced	-0.08518695
-2.465378	do	-0.3052234
-3.560807	doctor	-0.0650853
-4.264913	doctor's	-0.1082367
-4.114597	document	-0.1017805
-4.264913	dodo	-0.08518695
-3.136497	does	-0.2016217
-3.298772	doesn't	-0.1310301
-4.069737	dog	-0.1121965
-2.719711	doing	-0.263051
-3.909691	dollar	-0.1111703
-3.410319	dollars	-0.09786315
-4.069737	dolores	-0.1079585
-4.264913	dolphin	-0.08515136
-4.264913	domestic	-0.1133434
-4.264913	don	-0.1113278
-2.411159	don't	-0.4002503
-3.237693	done	-0.1280269
-4.264913	donna	-0.08518695
-4.264913	donna's	-0.1133599
-4.264913	doodoodoo	-0.08518695
-4.264913	doodoodoodoo	-0.1133733
-3.701118	door	-0.1042975
-4.069737	doors	-0.08231977
-4.264913	dope	-0.08306703
-4.264913	doris	-0.1130796
-4.264913	dorks	-0.08518695
-4.264913	dorsen's	-0.113327
-3.909691	double	-0.1444319
-4.069737	doubleaught	-0.09856093
-4.264913	doublebed	-0.1133635
-4.114597	doubt	-0.1298844
-2.719711	down	-0.2324728
-4.114597	downstairs	-0.08515136
-4.264913	downtown	-0.1027484
-4.264913	draft	-0.1099179
-4.114597	drafted	-0.08446097
-4.264913	drag	-0.112155
-4.264913	drain	-0.08518695
-4.264913	drakkar	-0.1103331
-4.264913	dramatic	-0.1133599
-4.114597	draw	-0.1105613
-4.114597	drawing	-0.110163
-4.114597	dream	-0.1078155
-3.909691	dreaming	-0.1325689
-4.264913	dreams	-0.08518695
-4.264913	dreamt	-0.1115596
-4.264913	dressed	-0.1082367
-4.264913	dresser	-0.1118739
-4.264913	drew	-0.1083034
-4.264913	dried	-0.1103331
-4.069737	drink	-0.1089451
-4.264913	dripping	-0.1111953
-4.264913	drips	-0.1077695
-4.069737	drive	-0.1054511
-4.264913	driveway	-0.08518695
-4.114597	driving	-0.1109427
-4.264913	drop	-0.1083034
-3.793002	dropped	-0.140026
-4.264913	dropping	-0.1133733
-4.069737	drought	-0.1017086
-4.264913	drug	-0.1093194
-3.560807	dry	-0.09462114
-4.264913	dualistic	-0.113294
-4.264913	duck	-0.1105654
-4.264913	dude	-0.08518695
-4.114597	duffel	-0.2347209
-4.264913	duffle	-0.1131951
-4.264913	dufus	-0.1105488
-4.264913	dug	-0.1113609
-4.069737	dumb	-0.08494965
-4.114597	dump	-0.07917923
-3.454928	during	-0.4514043
-3.909691	dust	-0.1014102
-4.069737	duties	-0.07636611
-3.793002	duty	-0.1043451
-4.114597	duvall	-0.1064946
-3.909691	dying	-0.1373749
-4.114597	e	-0.1045605
-3.267159	each	-0.4134779
-4.264913	eager	-0.1083701
-4.264913	ear	-0.1074855
-3.909691	earlier	-0.07822435
-3.560807	early	-0.07455354
-4.264913	earns	-0.1132775
-4.114597	earth	-0.2067128
-4.114597	easier	-0.1081826
-4.114597	easily	-0.07381441
-4.264913	east	-0.1026599
-3.560807	easy	-0.1149256
-3.410319	eat	-0.1347041
-3.701118	eating	-0.1090386
-4.264913	economic	-0.1132115
-4.264913	economies	-0.1133635
-4.264913	ed	-0.1133733
-4.264913	ed's	-0.1077695
-4.264913	edges	-0.1093194
-4.264913	edit	-0.1027484
-4.069737	editor	-0.08077682
-3.793002	editorial	-0.06490451
-3.793002	edna	-0.3135627
-4.264913	edna's	-0.1131951
-4.069737	educated	-0.08409043
-3.909691	education	-0.08245707
-4.264913	educational	-0.1133733
-4.264913	eek	-0.08518695
-4.114597	effect	-0.08181041
-4.264913	effects	-0.1091823
-4.264913	efficiency	-0.08518695
-3.909691	effort	-0.09484018
-3.793002	egg	-0.1270031
-4.069737	eggs	-0.08302735
-4.264913	eh	-0.1133434
-3.210099	eight	-0.1309597
-4.114597	eighteen	-0.1112038
-4.264913	eightounce	-0.1133733
-4.069737	eighty	-0.08494965
-3.159672	either	-0.1989298
-4.114597	el	-0.1103093
-4.264913	elderly	-0.113327
-4.264913	elected	-0.1128322
-4.264913	electric	-0.1130136
-4.264913	electrically	-0.113294
-4.264913	electricity	-0.113327
-4.264913	electronics	-0.1027484
-4.069737	eli	-0.1111381
-4.264913	eli's	-0.1132775
-4.264913	eligible	-0.1083701
-4.264913	elite	-0.113327
-4.264913	ellen	-0.1111953
-3.504649	else	-0.09862032
-4.264913	elusive	-0.1119236
-2.633732	em	-0.1771681
-4.264913	emanate	-0.1119401
-4.264913	embarcadero	-0.1112119
-4.264913	embarrass	-0.1120393
-4.114597	embarrassed	-0.1016958
-4.264913	eme	-0.1105654
-4.264913	emmy	-0.1133733
-4.114597	empire	-0.1099929
-3.793002	empowerment	-0.1318845
-4.114597	empty	-0.08514749
-4.264913	en	-0.1133733
-3.625321	end	-0.08395221
-3.909691	ended	-0.2381752
-4.264913	ends	-0.1115099
-4.069737	endtables	-0.07881807
-4.264913	engine	-0.06830529
-4.114597	engineer	-0.08380867
-3.793002	english	-0.1110632
-4.264913	engrain	-0.1082367
-4.264913	enhance	-0.1133599
-4.264913	enlarging	-0.1083034
-4.264913	enlightening	-0.1126506
-4.264913	enormous	-0.08518695
-3.237693	enough	-0.108436
-4.264913	entendres	-0.1066996
-4.069737	entire	-0.1125565
-4.264913	entirely	-0.08518695
-4.264913	entity	-0.108203
-4.114597	entrance	-0.1034869
-4.264913	entrusted	-0.1110794
-4.114597	environment	-0.1026936
-4.114597	environmental	-0.1127162
-4.114597	equal	-0.2298959
-3.793002	equals	-0.1412055
-4.114597	equipment	-0.08150464
-4.264913	er	-0.1127661
-4.264913	era	-0.1093194
-4.069737	es	-0.1904702
-3.701118	especially	-0.0959484
-4.069737	essence	-0.07847884
-4.114597	essentially	-0.07881807
-4.264913	establish	-0.1133599
-4.264913	estate	-0.1082367
-4.264913	esteemed	-0.113327
-4.264913	estoy	-0.1133733
-3.701118	et	-0.6011536
-4.264913	europe	-0.1027484
-4.264913	european	-0.1133733
-4.114597	eve	-0.08500675
-2.912345	even	-0.1165048
-3.909691	evening	-0.2066733
-4.264913	evenly	-0.1027484
-4.264913	event	-0.1027484
-4.264913	events	-0.1127661
-4.264913	eventually	-0.08518695
-3.159672	ever	-0.1200982
-4.264913	everest	-0.08518695
-3.018636	every	-0.1907443
-3.267159	everybody	-0.08694019
-4.069737	everybody's	-0.08436856
-4.114597	everyone	-0.08283722
-4.264913	everyone's	-0.1131786
-3.073581	everything	-0.1382784
-4.264913	everything'll	-0.1133733
-3.909691	everywhere	-0.1630134
-4.114597	evil	-0.2348893
-4.114597	ew	-0.08392783
-3.114497	ex	-0.2547524
-4.114597	exact	-0.113257
-3.701118	exactly	-0.1032117
-4.264913	examine	-0.08518695
-4.264913	examiner	-0.1133635
-4.069737	example	-0.1002556
-4.069737	examples	-0.07972731
-4.114597	exboyfriend	-0.1104784
-4.114597	excellent	-0.0828549
-3.793002	except	-0.1053539
-4.264913	exception	-0.1093194
-4.264913	exceptional	-0.1117085
-4.264913	excessive	-0.1123368
-4.114597	excited	-0.1008654
-4.069737	excuse	-0.2988722
-4.114597	exelente	-0.1133497
-4.264913	exelentes	-0.08518695
-4.264913	exertion	-0.08518695
-4.114597	exhausted	-0.08311571
-4.114597	exhibition	-0.08449621
-4.264913	exhusband	-0.1119236
-4.114597	exist	-0.1119857
-4.264913	exit	-0.1124029
-4.114597	expand	-0.1044091
-4.264913	expanded	-0.1027484
-4.069737	expect	-0.08274446
-4.264913	expected	-0.08518695
-4.264913	expects	-0.112122
-4.264913	expedient	-0.1105488
-4.114597	expedition	-0.1091656
-4.264913	expensive	-0.1130961
-4.114597	experience	-0.1096979
-4.069737	experienced	-0.1129066
-4.264913	experiment	-0.08518695
-4.114597	expert	-0.1042786
-4.264913	expiration	-0.1133635
-3.701118	explain	-0.1374464
-4.114597	explained	-0.105774
-4.264913	explains	-0.1074855
-4.264913	explanation	-0.08518695
-4.264913	explorer	-0.08518695
-4.264913	exponentials	-0.08518695
-4.264913	expose	-0.1133105
-4.114597	exposed	-0.2298959
-4.264913	exposes	-0.1133105
-4.264913	expotentials	-0.08518695
-4.264913	extent	-0.1066996
-4.264913	extinction	-0.1093194
-4.114597	extra	-0.1133497
-4.114597	eyeballs	-0.08468993
-4.264913	eyeopening	-0.1083701
-3.504649	eyes	-0.1356098
-3.184154	f	-0.103537
-4.114597	fabulous	-0.1133229
-3.909691	face	-0.111085
-4.114597	faces	-0.1072642
-4.114597	facilitator	-0.07967824
-4.114597	facing	-0.07887597
-4.069737	fact	-0.05396541
-3.793002	factor	-0.06329876
-4.114597	factors	-0.1074481
-4.114597	factory	-0.1022839
-4.114597	failed	-0.08412613
-4.069737	fair	-0.126983
-4.114597	fairly	-0.08502434
-4.264913	faith	-0.1082367
-4.264913	faithbased	-0.1133733
-3.909691	fall	-0.1177304
-4.114597	falling	-0.1113072
-4.114597	falls	-0.1101796
-4.264913	families	-0.08518695
-3.701118	family	-0.1470973
-4.114597	famous	-0.113191
-3.793002	far	-0.1672527
-4.264913	farms	-0.08518695
-4.114597	farrier	-0.08177496
-4.264913	farriers	-0.112535
-4.264913	fascinated	-0.1110794
-4.114597	fascinating	-0.08516177
-4.264913	fashion	-0.1133733
-3.701118	fast	-0.1161112
-4.264913	faster	-0.1130301
-3.909691	fat	-0.1220866
-3.701118	father	-0.1006177
-4.264913	father's	-0.113261
-4.264913	faucet	-0.08518695
-4.069737	fault	-0.1103582
-4.264913	faults	-0.1124524
-4.114597	favorite	-0.08376475
-4.264913	fe	-0.08518695
-4.069737	fear	-0.3000772
-4.264913	features	-0.1112119
-4.264913	february	-0.1106152
-4.069737	fee	-0.07344875
-4.114597	feed	-0.1120022
-3.114497	feel	-0.3041017
-3.793002	feeling	-0.07362058
-4.114597	feelings	-0.09668931
-4.069737	feels	-0.1099264
-4.069737	feet	-0.09959582
-4.264913	fell	-0.1118078
-4.264913	fellow	-0.1133599
-4.264913	fellows	-0.1082367
-4.264913	felony	-0.08518695
-3.410319	felt	-0.08921838
-4.264913	female	-0.08518695
-4.264913	feminine	-0.1121054
-4.264913	ferocious	-0.1132775
-3.793002	ferrier	-0.08294372
-4.114597	few	-0.1475038
-4.264913	fi	-0.1124524
-4.264913	fiction	-0.1103331
-4.264913	fields	-0.08518695
-3.560807	fifteen	-0.1512504
-3.793002	fifth	-0.157051
-4.264913	fifthgrade	-0.113327
-4.264913	fifthgraders	-0.1113609
-4.264913	fifties	-0.1113609
-3.504649	fifty	-0.1304702
-4.264913	fiftyone	-0.1110296
-4.264913	fightin'	-0.113327
-4.264913	fighting	-0.1105654
-3.625321	figure	-0.1209264
-3.793002	figured	-0.1128533
-4.264913	figures	-0.1074855
-4.069737	file	-0.09957881
-3.793002	fill	-0.09539324
-4.069737	filled	-0.1861627
-4.114597	fills	-0.2292953
-4.264913	filly	-0.08518695
-4.264913	film	-0.1133733
-4.114597	filter	-0.07974949
-4.069737	filters	-0.1607977
-4.264913	filthy	-0.1027484
-4.264913	final	-0.1133363
-3.625321	finally	-0.09970246
-4.264913	finance	-0.1083034
-4.264913	financial	-0.113228
-3.237693	find	-0.250998
-4.264913	finding	-0.1099179
-4.264913	finds	-0.1131291
-3.560807	fine	-0.1867898
-4.264913	fingerprint	-0.1133599
-3.909691	finish	-0.09560054
-4.069737	finished	-0.1607625
-3.560807	fire	-0.1867094
-3.909691	fired	-0.1012471
-4.264913	firemen	-0.1027484
-4.264913	fires	-0.08191674
-3.054483	first	-0.08110878
-3.410319	fish	-0.2096499
-4.264913	fishing	-0.1099844
-4.114597	fishy	-0.1074146
-3.909691	fit	-0.1057826
-3.114497	five	-0.1523405
-4.264913	fivecar	-0.1133599
-3.793002	fixed	-0.1730052
-4.264913	fl	-0.08518695
-4.264913	flag	-0.112122
-4.264913	flaky	-0.1132115
-4.114597	flare	-0.07381441
-4.114597	flat	-0.2348857
-4.264913	flavor	-0.08518695
-4.264913	flavors	-0.1093194
-3.625321	fletcher	-0.1216136
-4.264913	fletcher'll	-0.1128322
-4.114597	fletcher's	-0.1130395
-4.264913	flexibility	-0.1121054
-4.114597	flinn	-0.1302818
-3.909691	flip	-0.136502
-4.114597	flipped	-0.07887597
-4.069737	floor	-0.1618202
-4.264913	floor's	-0.1124689
-4.264913	flow	-0.1093194
-4.264913	fluent	-0.1133733
-4.264913	fluffy	-0.1133635
-4.114597	fluid	-0.2297625
-4.264913	flushed	-0.1083034
-4.264913	fo	-0.1123698
-4.264913	focus	-0.1095649
-4.264913	folder	-0.1110794
-3.909691	folks	-0.08291697
-4.264913	follow	-0.1132775
-4.114597	followed	-0.112184
-4.264913	following	-0.1132115
-3.504649	food	-0.1813795
-4.114597	fool	-0.0828549
-4.264913	foolish	-0.08518695
-4.069737	foot	-0.06997146
-4.264913	football	-0.1027484
-4.264913	footrest	-0.07353909
-2.187181	for	-0.2908056
-4.264913	forbid	-0.1108307
-4.264913	force	-0.112535
-4.264913	foreign	-0.1133635
-4.069737	forever	-0.2036905
-3.625321	forget	-0.1353524
-3.701118	forgot	-0.1360852
-4.264913	fork	-0.08518695
-3.560807	form	-0.05830434
-4.114597	formal	-0.07381441
-4.264913	formalize	-0.1083034
-4.264913	formalizing	-0.1083034
-4.264913	formed	-0.1099179
-4.264913	former	-0.1131786
-4.264913	forming	-0.1133733
-4.114597	forms	-0.08398075
-4.264913	forth	-0.081274
-4.069737	forty	-0.1128901
-4.264913	fortyeight	-0.1119401
-4.264913	fortythousand	-0.1126176
-4.264913	forward	-0.1099179
-4.264913	foster	-0.1133434
-3.625321	found	-0.1555015
-3.159672	four	-0.1223891
-4.114597	fourteen	-0.2348857
-3.909691	fourth	-0.1266883
-4.264913	fourthgrade	-0.1132115
-4.264913	fourthgrader	-0.1126671
-3.560807	fourthgraders	-0.1019906
-4.264913	fowl	-0.1027484
-4.114597	fraction	-0.2347703
-4.114597	fractions	-0.1022369
-4.114597	france	-0.07967824
-4.264913	francisco	-0.08155352
-4.264913	frankly	-0.1113775
-4.264913	freak	-0.08518695
-4.069737	freaked	-0.1102586
-3.560807	free	-0.1661479
-4.264913	freedom	-0.1093194
-4.264913	freeway	-0.08518695
-4.264913	freeze	-0.1123864
-4.114597	freezer	-0.2067128
-4.114597	french	-0.2067128
-3.625321	friday	-0.1751257
-4.264913	fridge	-0.08488357
-4.264913	fried	-0.1115099
-3.410319	friend	-0.1447174
-3.332867	friends	-0.1812552
-4.114597	fringe	-0.1133363
-2.475111	from	-0.195524
-3.909691	front	-0.1015074
-4.114597	frost	-0.1112575
-4.069737	frosting	-0.2719372
-3.793002	frozen	-0.1871004
-4.264913	frustrates	-0.112122
-4.114597	fry	-0.1057069
-4.114597	fuck	-0.1009841
-4.114597	fucked	-0.08349098
-4.069737	fucking	-0.1119155
-4.114597	fucks	-0.1094817
-4.069737	fuel	-0.1622777
-4.069737	full	-0.1120474
-3.410319	fun	-0.2652094
-4.114597	function	-0.08515136
-4.264913	fund	-0.1133733
-4.264913	funds	-0.1110296
-4.264913	funnest	-0.1127496
-3.454928	funny	-0.1862846
-4.264913	furniture	-0.1132115
-4.264913	further	-0.1130301
-4.264913	future	-0.1074855
-3.454928	g	-0.09665481
-4.264913	gad	-0.1133733
-4.264913	gaia	-0.1027484
-4.114597	gail	-0.08177496
-4.264913	galore	-0.08518695
-4.114597	game	-0.08277982
-4.264913	ganache	-0.1133599
-4.264913	gap	-0.08322605
-4.264913	gar	-0.1133635
-4.114597	garage	-0.08504194
-4.264913	garbage	-0.1102003
-4.114597	garden	-0.1131581
-3.560807	garlic	-0.2905252
-3.909691	gary	-0.1003787
-4.264913	gas	-0.1082367
-4.114597	gasket	-0.08231545
-4.264913	gasps	-0.1099844
-4.264913	gate	-0.1103331
-4.264913	gato	-0.08518695
-3.560807	gave	-0.1217017
-4.114597	gay	-0.112531
-4.114597	geared	-0.2348991
-4.264913	gearing	-0.1108307
-3.909691	gee	-0.1199364
-4.114597	geek	-0.232141
-4.264913	geeky	-0.1123864
-4.114597	geez	-0.08479556
-4.264913	geezh	-0.1133635
-4.264913	gelatin	-0.1118739
-4.069737	gender	-0.1302999
-4.264913	genera	-0.08518695
-3.504649	general	-0.1073284
-4.114597	generalities	-0.1073979
-3.909691	generation	-0.1602775
-4.264913	generic	-0.1133733
-4.264913	genes	-0.1133599
-4.069737	genetic	-0.1904702
-4.114597	genetta	-0.1102792
-4.264913	gentle	-0.08518695
-4.114597	georgia	-0.1027243
-4.264913	german	-0.1123864
-4.114597	germany	-0.1051361
-2.67851	get	-0.1629592
-3.454928	gets	-0.1324616
-3.073581	getting	-0.1104179
-4.264913	gi	-0.08518695
-4.114597	giant	-0.1133163
-4.264913	gift	-0.1126176
-4.264913	gifts	-0.1118078
-4.114597	giggle	-0.1098973
-4.264913	giggles	-0.1099844
-3.504649	girl	-0.06764492
-4.114597	girl's	-0.1122171
-3.909691	girls	-0.07378752
-4.264913	gish	-0.1027484
-3.054483	give	-0.2683485
-3.701118	given	-0.1109602
-4.114597	gives	-0.2336478
-3.909691	giving	-0.1844572
-3.909691	glad	-0.0969549
-4.264913	gladys	-0.08518695
-4.114597	gladys's	-0.08498915
-4.264913	glanced	-0.1114106
-4.264913	glen	-0.1102003
-4.114597	globe	-0.08216476
-4.264913	glop	-0.1093194
-2.702759	go	-0.2137092
-3.267159	god	-0.1649814
-4.264913	godx	-0.08518695
-4.264913	god	-0.1124855
-3.237693	goes	-0.09747789
-2.873709	going	-0.3090798
-3.793002	gold	-0.1171255
-3.410319	gone	-0.08347842
-2.849739	gonna	-0.235985
-4.264913	gonzalez	-0.1120724
-2.849739	good	-0.1327772
-4.264913	goodgod	-0.1132115
-4.069737	goodies	-0.1837421
-4.264913	goodman	-0.112535
-4.264913	goodness	-0.1133733
-4.264913	goodwill	-0.113261
-4.114597	goofball	-0.2067128
-3.793002	goofy	-0.186311
-4.114597	gosh	-0.1189998
-4.264913	gossip	-0.08518695
-2.746449	got	-0.1777678
-3.625321	gotta	-0.113422
-4.069737	gotten	-0.104691
-4.264913	govern	-0.1103331
-4.114597	governed	-0.106729
-4.114597	government	-0.1020398
-4.264913	governor	-0.1133635
-4.069737	grab	-0.1676635
-4.114597	grabbed	-0.1105573
-3.625321	grade	-0.1696802
-4.264913	graded	-0.08518695
-4.264913	grades	-0.1074855
-4.114597	graduate	-0.1052201
-4.114597	graduated	-0.1084494
-4.264913	graft	-0.113327
-4.264913	grand	-0.08518695
-3.701118	grandma	-0.07939751
-4.114597	grandma's	-0.1105116
-4.264913	grandmother	-0.1027484
-4.114597	granola	-0.2347868
-4.264913	granted	-0.07584531
-4.069737	grape	-0.109095
-4.264913	grapenuts	-0.08518695
-4.264913	grass	-0.1133733
-3.793002	gray	-0.5218765
-4.264913	gre	-0.1132445
-3.114497	great	-0.1398095
-3.909691	greater	-0.4247192
-4.264913	greek	-0.1132775
-4.264913	greeks	-0.1127166
-3.454928	green	-0.1194323
-4.264913	greenish	-0.1133599
-4.264913	gregory	-0.1133733
-4.264913	gretchen	-0.1132775
-4.264913	grew	-0.1118078
-4.264913	grips	-0.1110794
-4.264913	grizzly	-0.1133733
-4.114597	grody	-0.2067128
-4.264913	groove	-0.08518695
-3.625321	gross	-0.2502636
-4.264913	grossest	-0.1086661
-4.264913	ground	-0.1027484
-4.264913	grounded	-0.1105488
-4.264913	grounds	-0.1116423
-3.793002	group	-0.08050156
-4.264913	groupies	-0.08518695
-4.114597	groups	-0.1114066
-3.909691	grow	-0.1068045
-4.069737	growing	-0.07207333
-4.264913	grown	-0.1083034
-4.264913	growth	-0.08518695
-4.264913	grumpy	-0.1105654
-4.264913	gstrings	-0.1119732
-4.264913	guard	-0.1066996
-2.969868	guess	-0.1676947
-4.264913	guessed	-0.1115099
-4.264913	guests	-0.08518695
-4.264913	guide	-0.1093194
-4.264913	guilt	-0.112122
-4.264913	guitar	-0.1103954
-4.264913	gum	-0.08518695
-4.114597	gun	-0.2067128
-4.264913	gung	-0.1133105
-4.264913	gutter	-0.1106152
-3.018636	guy	-0.202375
-4.069737	guy's	-0.1118989
-3.332867	guys	-0.09910283
-4.264913	guys'll	-0.112502
-4.264913	gwen	-0.1111953
-3.793002	h	-0.07437414
-3.504649	ha	-0.1687208
-4.264913	habit	-0.1083701
-2.612963	had	-0.2291485
-4.069737	hadn't	-0.1051824
-4.264913	haggle	-0.1115596
-3.504649	hair	-0.0773122
-4.264913	hair's	-0.1133105
-4.114597	hairs	-0.2067128
-4.264913	hairshirt	-0.08518695
-3.298772	half	-0.2177294
-4.264913	halfway	-0.1131786
-4.264913	hall	-0.1027484
-4.264913	halloween	-0.113228
-4.264913	halve	-0.1114106
-4.264913	halves	-0.1102003
-3.701118	hand	-0.07454515
-4.264913	handbook	-0.1105654
-4.264913	handbooks	-0.1066996
-4.114597	handle	-0.1057069
-3.793002	hands	-0.09170027
-4.264913	handwash	-0.1130301
-4.114597	hang	-0.2317593
-4.264913	hanukkah	-0.1027484
-4.264913	hap	-0.08361455
-4.264913	happ	-0.1027484
-3.701118	happen	-0.09027719
-3.625321	happened	-0.0926071
-4.264913	happened	-0.08518695
-4.114597	happening	-0.2067128
-3.909691	happens	-0.05405176
-3.454928	happy	-0.1910806
-3.237693	hard	-0.132523
-4.114597	hardin	-0.1006788
-3.909691	hardly	-0.08335442
-4.264913	harlan's	-0.1133599
-4.264913	harmonica	-0.1074855
-4.069737	harold	-0.1551667
-4.264913	harold's	-0.1082367
-4.264913	harsh	-0.08518695
-4.264913	harvard	-0.1129807
-2.88621	has	-0.155565
-4.114597	hasn't	-0.1122997
-4.264913	hat	-0.08518695
-4.264913	hatchet	-0.1130301
-3.909691	hate	-0.2402649
-4.264913	hated	-0.1083034
-4.264913	hauled	-0.112535
-2.441959	have	-0.2550847
-3.504649	haven't	-0.152077
-3.114497	having	-0.1905685
-4.264913	haw	-0.112535
-4.264913	hawaii	-0.1119401
-4.264913	hay	-0.1113609
-4.264913	hazy	-0.1027484
-2.29942	he	-0.2614228
-3.410319	he'd	-0.1202869
-3.625321	he'll	-0.1409137
-2.633732	he's	-0.1514609
-3.909691	head	-0.1294866
-4.264913	headlight	-0.08518695
-4.114597	heads	-0.1100095
-4.264913	healed	-0.1128982
-3.504649	hear	-0.185462
-3.454928	heard	-0.1101415
-4.114597	hearing	-0.08444336
-3.701118	heart	-0.1320025
-4.264913	heartlessly	-0.08516177
-3.909691	heaven	-0.1586207
-4.264913	heavenly	-0.1133105
-4.264913	heavens	-0.1083034
-4.264913	heavy	-0.113327
-3.454928	hector	-0.06739056
-3.793002	hector's	-0.1078912
-4.114597	hee	-0.1283541
-4.264913	hei	-0.08518695
-4.264913	heinie	-0.1126836
-4.264913	held	-0.1063941
-4.264913	helicopter	-0.1083701
-4.264913	helium	-0.1133733
-3.560807	hell	-0.1240609
-4.114597	hellish	-0.08412613
-3.909691	hello	-0.1026046
-3.625321	help	-0.1284984
-4.264913	helped	-0.1110794
-4.264913	helpful	-0.08518695
-4.264913	helping	-0.1120393
-4.114597	helps	-0.07803646
-4.264913	hem	-0.1027484
-2.505692	her	-0.1336324
-4.114597	herb	-0.08083446
-2.663066	here	-0.2120806
-4.264913	here's	-0.1133599
-4.264913	hereditary	-0.1133105
-4.264913	hermit	-0.1117085
-3.793002	herself	-0.1737905
-3.793002	hey	-0.07420887
-4.264913	hhxhhxhhxhhxhhx	-0.08518695
-4.114597	hi	-0.08427285
-4.264913	hibiscus	-0.1133733
-4.264913	hiccups	-0.1112119
-4.264913	hicky	-0.1124524
-4.264913	hide	-0.1130301
-3.504649	high	-0.2104453
-3.909691	higher	-0.1557669
-4.264913	highest	-0.1133635
-4.264913	highpoint	-0.1093194
-4.069737	hilarious	-0.1606918
-2.633732	him	-0.1992843
-4.264913	himsel	-0.1112119
-3.701118	himself	-0.1034289
-4.114597	hind	-0.2348198
-4.264913	hines	-0.112502
-4.264913	hint	-0.1074855
-4.114597	hip	-0.101899
-4.114597	hips	-0.1057658
-4.114597	hired	-0.2339122
-4.264913	hires	-0.112122
-2.765234	his	-0.1381823
-4.264913	historian	-0.1074855
-4.114597	historical	-0.1133497
-4.264913	historically	-0.1133599
-3.701118	history	-0.09679247
-4.069737	hit	-0.1605311
-4.264913	hitting	-0.1077695
-4.264913	hle	-0.1027484
-3.410319	hm	-0.1165683
-4.114597	hmm	-0.07599341
-3.701118	ho	-0.2007085
-4.069737	hold	-0.0804569
-4.264913	holden	-0.1027484
-4.069737	holy	-0.1904074
-3.454928	home	-0.1461154
-4.264913	homemade	-0.1066996
-4.114597	homework	-0.1059752
-4.264913	homosexual	-0.113327
-4.264913	homosexuals	-0.1129642
-4.264913	honda	-0.1124689
-4.264913	honest	-0.1131951
-4.264913	honesty	-0.08518695
-4.069737	honey	-0.1050312
-4.114597	hoo	-0.08479512
-4.114597	hood	-0.1027243
-3.701118	hoof	-0.1402762
-3.909691	hooves	-0.09617922
-3.909691	hope	-0.1454558
-4.264913	hopefully	-0.1113278
-4.264913	hopes	-0.1093194
-4.264913	hoping	-0.08303168
-4.264913	hormones	-0.08518695
-4.264913	horns	-0.1133733
-4.264913	horowitz	-0.1102003
-3.793002	horrible	-0.1853402
-4.114597	horrific	-0.1117247
-3.237693	horse	-0.112755
-3.793002	horse's	-0.2417108
-4.264913	horsehair	-0.1131456
-4.264913	horsehooves	-0.1082367
-3.332867	horses	-0.07928959
-4.114597	horseshoe	-0.1081492
-4.114597	horseshoer	-0.09984641
-4.264913	horseshoes	-0.08518695
-4.264913	hospital	-0.07763856
-4.114597	host	-0.2340938
-3.504649	hot	-0.1645485
-4.069737	hour	-0.09714314
-4.069737	hours	-0.116867
-3.369869	house	-0.2211088
-4.264913	household	-0.1133733
-4.264913	houston	-0.113228
-2.728442	how	-0.194372
-4.264913	how's	-0.106189
-4.264913	however	-0.1131126
-3.793002	huge	-0.08204997
-4.114597	huh	-0.2067128
-4.264913	hum	-0.1133733
-4.069737	human	-0.1062959
-4.264913	humble	-0.1124029
-4.264913	humor	-0.1117582
-3.560807	hundred	-0.1421558
-4.264913	hundreds	-0.1027484
-3.454928	hunh	-0.5854585
-4.264913	hunhunh	-0.08518695
-4.264913	hunk	-0.1093194
-4.264913	hunkydory	-0.1125515
-4.264913	hunt	-0.1129147
-4.069737	hurt	-0.1826526
-4.264913	hurts	-0.08518695
-3.909691	husband	-0.09234466
-4.114597	hush	-0.1132112
-4.114597	hx	-0.08380867
-4.264913	hyeah	-0.08518695
-4.264913	hypothetical	-0.1125845
-4.264913	hysterical	-0.1111953
-3.184154	i	-0.1035011
-3.036189	i'd	-0.1894356
-2.899081	i'll	-0.2252583
-2.527345	i'm	-0.2965004
-2.954757	i've	-0.2732809
-3.560807	ice	-0.3476033
-4.069737	icing	-0.2719372
-4.114597	icky	-0.08331438
-4.264913	id'ed	-0.1123864
-4.114597	idaho	-0.1509447
-3.625321	idea	-0.1263437
-4.114597	ideal	-0.08516177
-4.264913	ideally	-0.1129972
-4.069737	ideas	-0.08166424
-3.909691	identical	-0.08371182
-4.264913	identification	-0.08518695
-4.114597	identity	-0.1069632
-4.114597	idiot	-0.1106443
-4.069737	idiots	-0.1045773
-2.437423	if	-0.300295
-4.264913	ignition	-0.1027484
-4.264913	ignore	-0.112568
-4.264913	illegal	-0.08518695
-4.114597	illusionary	-0.08467232
-4.114597	illusions	-0.08083446
-4.114597	illusive	-0.08500675
-4.264913	ilocano's	-0.1082367
-4.264913	imaginate	-0.113327
-3.793002	imagine	-0.1278153
-4.264913	imagining	-0.1112119
-4.114597	imitation	-0.112105
-3.701118	immediately	-0.1520344
-4.069737	impact	-0.1063692
-4.114597	impacted	-0.1124979
-4.114597	imperative	-0.1038198
-4.264913	impervious	-0.1083701
-4.264913	impetus	-0.08518695
-4.264913	implicit	-0.1102003
-3.625321	important	-0.08482783
-4.264913	imports	-0.08518695
-4.114597	impossible	-0.1069465
-4.114597	impressed	-0.08380867
-4.264913	improvement	-0.112535
-4.264913	impulse	-0.1105488
-1.927696	in	-0.3103088
-4.264913	incapable	-0.1116423
-4.264913	incentive	-0.08518695
-4.264913	incidences	-0.1124855
-4.264913	incident	-0.08518695
-4.264913	include	-0.1133635
-4.264913	includes	-0.1115099
-4.114597	including	-0.1132771
-4.114597	incredible	-0.1105251
-4.264913	incredibly	-0.1133635
-4.264913	inculcating	-0.1074855
-4.264913	independent	-0.113228
-4.264913	india	-0.1124689
-4.264913	indicates	-0.1074855
-4.264913	individual	-0.1133434
-4.264913	individually	-0.1112119
-4.264913	indo	-0.1133599
-3.909691	indonesia	-0.1141588
-4.114597	indonesian	-0.1019497
-4.069737	indonesians	-0.1606389
-4.264913	indulgence	-0.1122377
-4.264913	industrial	-0.1133733
-4.264913	inequality	-0.1110794
-4.264913	infamous	-0.1105654
-4.069737	infected	-0.2719372
-4.264913	infection	-0.1133635
-4.264913	infectious	-0.1133635
-4.264913	infinitive	-0.08518695
-4.264913	inflexible	-0.08518695
-4.069737	influence	-0.1132962
-4.264913	influenced	-0.1123698
-4.264913	influences	-0.113327
-4.264913	influencing	-0.113327
-4.069737	information	-0.09993691
-4.069737	ingredients	-0.09694196
-4.114597	initially	-0.07381441
-4.264913	innocent	-0.08518695
-4.114597	insane	-0.08497156
-3.410319	inside	-0.3277662
-4.264913	insists	-0.1102335
-4.264913	install	-0.1123864
-3.560807	instead	-0.7220384
-4.114597	institutionalized	-0.1077988
-4.264913	institutions	-0.1116423
-4.069737	instructor	-0.1603563
-4.264913	instruments	-0.08518695
-4.264913	insulted	-0.1123698
-4.264913	insurance	-0.113327
-4.264913	intelligence	-0.1074855
-4.264913	intelligent	-0.1066996
-4.264913	intent	-0.07838953
-4.264913	intentions	-0.1127166
-4.264913	intercom	-0.1132115
-4.264913	interest	-0.1082367
-3.560807	interested	-0.3744854
-4.264913	interesti	-0.08518695
-3.625321	interesting	-0.1182037
-4.264913	interests	-0.1133599
-4.264913	interfacing	-0.1110794
-4.114597	interior	-0.1089492
-4.264913	interject	-0.1129972
-4.264913	interjecting	-0.1124689
-4.114597	intermediate	-0.08516177
-4.264913	internally	-0.08518695
-4.264913	international	-0.1133635
-4.264913	interruption	-0.08518695
-4.264913	intimidate	-0.113294
-4.264913	intimidated	-0.1123698
-2.899081	into	-0.3102367
-4.264913	introduce	-0.1077695
-4.264913	introducing	-0.1077695
-4.264913	introduction	-0.1083701
-4.264913	introverted	-0.1106152
-4.264913	invented	-0.08518695
-4.264913	inventory	-0.1130136
-4.114597	invisible	-0.08516177
-4.114597	invite	-0.1113322
-4.114597	invited	-0.1124979
-4.069737	involved	-0.07341261
-4.264913	iowa	-0.1027484
-4.264913	iron	-0.1066996
-4.264913	irrespective	-0.1093194
-4.264913	irritated	-0.112122
-2.134691	is	-0.1873925
-3.793002	island	-0.1486484
-3.267159	isn't	-0.1670069
-4.264913	isolated	-0.08518695
-4.069737	issue	-0.08226234
-4.264913	is	-0.1074855
-1.933313	it	-0.227803
-3.793002	it'd	-0.213808
-3.701118	it'll	-0.4873864
-2.32304	it's	-0.1973314
-4.264913	italian	-0.08518695
-3.909691	italy	-0.09717736
-3.560807	its	-0.1107305
-4.114597	itself	-0.08331438
-4.069737	j	-0.1122791
-4.264913	jack	-0.07381441
-4.114597	jack's	-0.1132044
-3.909691	jacket	-0.1279463
-4.264913	jackson	-0.1086161
-4.114597	jail	-0.1099139
-4.114597	jakarta	-0.0841085
-3.909691	jake	-0.1076904
-4.114597	jamie	-0.104531
-4.264913	jamming	-0.1102335
-4.114597	jan	-0.1129271
-4.114597	january	-0.08515136
-4.264913	jar	-0.08518695
-4.114597	jawahar	-0.08185923
-4.264913	jawahar's	-0.1099179
-4.264913	jay's	-0.1122872
-3.909691	jazz	-0.1574039
-4.264913	jeans	-0.1027484
-4.114597	jeesh	-0.2067128
-4.069737	jeez	-0.08138046
-4.069737	jeff	-0.179807
-4.264913	jeopardy	-0.1118739
-4.264913	jerk	-0.103782
-4.264913	jersey	-0.08518695
-4.114597	jesse	-0.2348991
-4.264913	jesus	-0.1074855
-4.114597	jewelry	-0.1082128
-4.264913	jezebel	-0.1113775
-4.264913	ji	-0.1133105
-3.701118	jim	-0.1262135
-4.264913	jim's	-0.08518695
-3.701118	job	-0.146469
-4.264913	joe's	-0.1133733
-4.264913	john	-0.1130301
-4.114597	join	-0.1119361
-4.264913	jolly	-0.1133733
-4.264913	jolt	-0.08518695
-3.793002	jonathan	-0.1083958
-4.264913	jonathan's	-0.1133733
-4.114597	jorgensen's	-0.1094485
-4.264913	jovial	-0.1027484
-4.069737	joy	-0.1066914
-4.264913	joy's	-0.1133105
-4.114597	ju	-0.08214705
-4.264913	judge	-0.07005218
-4.264913	judging	-0.1066996
-4.069737	juice	-0.1074462
-4.264913	july	-0.08518695
-4.069737	jump	-0.1589113
-4.114597	jumping	-0.188073
-4.264913	jumps	-0.1102335
-3.701118	june	-0.1472294
-4.264913	jungle	-0.1133733
-4.114597	junk	-0.1120187
-4.264913	juror	-0.1133635
-4.264913	jurors	-0.1074855
-3.793002	jury	-0.1262686
-2.34436	just	-0.03623275
-4.264913	justice	-0.1027484
-3.369869	k	-0.07994761
-4.264913	karate	-0.1132445
-4.264913	kashen	-0.1128322
-4.264913	kathy	-0.1119732
-3.701118	kay	-0.1067833
-4.264913	ke	-0.1123864
-3.369869	keep	-0.158243
-4.264913	keeping	-0.1128982
-4.069737	keeps	-0.1130221
-4.264913	keith	-0.1027484
-3.909691	kelly	-0.09869284
-3.909691	ken	-0.07621037
-3.701118	kendie	-0.1422541
-3.793002	kendra	-0.1803104
-4.114597	kenneth	-0.2340278
-3.298772	kept	-0.1656961
-4.264913	kettle	-0.113261
-3.701118	kevin	-0.1508382
-3.701118	kevin's	-0.2406744
-4.264913	key	-0.1102335
-4.264913	ki	-0.1066996
-4.069737	kick	-0.07054359
-4.114597	kicked	-0.1087786
-3.454928	kid	-0.1501735
-4.069737	kidding	-0.2117651
-3.184154	kids	-0.147142
-4.264913	kids'	-0.113327
-4.264913	kill	-0.1077695
-4.264913	killer	-0.1102335
-4.264913	kim	-0.1077695
-2.88621	kind	-0.8701113
-2.954757	kinda	-0.1355914
-4.264913	kindergarten	-0.1083701
-4.264913	kinds	-0.1093194
-4.069737	king	-0.1415603
-4.264913	kingdom	-0.1133434
-4.264913	kings	-0.08518695
-4.264913	kingsize	-0.113327
-4.264913	kiss	-0.08518695
-4.114597	kissing	-0.1130756
-4.264913	kit	-0.08518695
-4.114597	kitchen	-0.1622777
-4.264913	kitchen's	-0.1122872
-4.114597	kitten	-0.07887597
-4.264913	kittykitties	-0.1133733
-4.264913	klana	-0.1128322
-4.114597	knees	-0.07967824
-3.237693	knew	-0.1622928
-4.069737	knife	-0.0706891
-4.264913	knocked	-0.112122
-2.79503	know	0.06983709
-4.114597	knowing	-0.1009841
-3.909691	knowledge	-0.2128501
-4.069737	known	-0.109095
-3.793002	knows	-0.1757426
-4.264913	kook	-0.08518695
-4.264913	kyle	-0.1128322
-4.264913	kyu	-0.1128982
-3.298772	l	-0.06622078
-3.793002	la	-0.1449765
-4.264913	lab	-0.1027484
-3.560807	labor	-0.1642156
-4.114597	labored	-0.1891325
-4.264913	ladder	-0.1113609
-4.069737	lady	-0.1146639
-4.264913	laguna	-0.1105654
-4.264913	laid	-0.1083034
-4.264913	lakes	-0.1103331
-4.114597	lala	-0.08515136
-4.264913	lam	-0.1133105
-3.701118	lambada	-0.08268236
-4.264913	lambada's	-0.1131951
-4.069737	lame	-0.1060717
-4.264913	laminating	-0.113327
-4.069737	land	-0.1568085
-4.264913	landscape	-0.1127496
-4.264913	language	-0.1121385
-4.264913	languages	-0.08518695
-4.264913	lap	-0.08518695
-4.264913	laps	-0.08518695
-4.069737	large	-0.1121438
-4.264913	largely	-0.1133733
-4.069737	larger	-0.109727
-4.114597	las	-0.1133497
-3.114497	last	-0.2375596
-4.264913	lastima	-0.08518695
-4.264913	lasts	-0.1120724
-3.701118	late	-0.09319276
-4.264913	lately	-0.08518695
-3.267159	later	-0.1384848
-4.114597	latino	-0.1096812
-4.114597	latinos	-0.1116549
-4.114597	laugh	-0.1046656
-4.114597	laughed	-0.0828549
-4.069737	laughing	-0.08008336
-4.264913	laundromat	-0.0665966
-4.264913	laundry's	-0.1077695
-4.069737	law	-0.1075776
-4.114597	lawn	-0.08114542
-4.264913	lawns	-0.08518695
-4.264913	laws	-0.1074855
-4.114597	lawyer	-0.09524401
-4.114597	lay	-0.08409087
-4.114597	laying	-0.1072141
-4.264913	lays	-0.1099844
-4.264913	lazex	-0.1103331
-4.264913	lazik	-0.08518695
-4.264913	lazix	-0.08214705
-3.793002	lazy	-0.08994492
-4.114597	leaders	-0.07881764
-4.264913	league	-0.08516177
-4.069737	leah	-0.1608154
-4.069737	leaking	-0.1601443
-3.504649	learn	-0.08059825
-3.701118	learned	-0.132606
-4.264913	learning	-0.08518695
-4.114597	least	-0.05445906
-4.114597	leather	-0.113257
-3.560807	leave	-0.1111706
-3.793002	leaving	-0.1204218
-4.264913	lecture	-0.1125515
-4.264913	lee	-0.08368515
-4.264913	lee's	-0.1127826
-3.332867	left	-0.1482714
-4.264913	leftover	-0.1110794
-4.264913	leftovers	-0.0828549
-3.909691	leg	-0.07290192
-4.114597	legal	-0.1132869
-4.264913	legally	-0.1066996
-4.264913	legend	-0.1027484
-4.264913	legislation	-0.1133434
-4.264913	legislative	-0.1132775
-3.909691	legs	-0.07317322
-3.909691	lemon	-0.1009758
-3.909691	lemons	-0.06294674
-3.369869	less	-0.2817783
-4.264913	lesser	-0.1133733
-4.114597	lesson	-0.08216476
-4.264913	lessons	-0.08518695
-3.054483	let	-0.4607191
-3.410319	let's	-0.1868524
-4.264913	letras	-0.1133733
-4.264913	lets	-0.1083034
-4.114597	letter	-0.07382362
-4.264913	letters	-0.1074855
-4.114597	lettuce	-0.1102097
-4.114597	level	-0.09856927
-4.264913	levels	-0.1132115
-4.264913	lewd	-0.1133733
-4.264913	liberty	-0.1133733
-4.264913	lied	-0.1124689
-3.410319	life	-0.08887741
-4.264913	lifestyle	-0.08483077
-4.114597	lifetime	-0.1096646
-4.114597	lifted	-0.1061596
-4.114597	lifting	-0.2333336
-4.264913	ligament	-0.1027484
-4.114597	ligaments	-0.1794183
-3.701118	light	-0.09976202
-4.264913	lightly	-0.08518695
-4.114597	lights	-0.1093279
-2.106415	like	-0.1469178
-4.114597	liked	-0.1111084
-4.264913	likely	-0.08518695
-4.114597	likes	-0.113224
-4.264913	lilian	-0.1133733
-4.264913	limitation	-0.08518695
-3.909691	lina	-0.1028036
-4.264913	lina's	-0.1124524
-4.264913	linda	-0.1117085
-4.264913	lindberg	-0.112535
-3.909691	line	-0.09758886
-4.264913	lines	-0.1102335
-4.264913	lip	-0.08518695
-4.069737	lisabeth	-0.05869641
-4.264913	lisabeth's	-0.1128156
-4.264913	list	-0.1093194
-3.701118	listen	-0.07180576
-4.114597	listening	-0.2298959
-4.264913	lit	-0.1099179
-4.264913	literary	-0.1133105
-4.264913	literature	-0.1079824
-2.912345	little	-0.1293132
-4.264913	littlebitty	-0.113327
-3.701118	live	-0.1155217
-4.114597	lived	-0.1080158
-4.264913	livers	-0.1102335
-3.793002	lives	-0.1027123
-4.264913	livestock	-0.08518695
-3.793002	living	-0.09450863
-3.625321	liza	-0.2081062
-4.114597	llenar	-0.2317261
-4.264913	lobster	-0.08518695
-4.114597	local	-0.1015942
-4.264913	lock	-0.1031495
-4.264913	lonely	-0.1119401
-3.184154	long	-0.05656157
-4.114597	longer	-0.1128941
-2.784869	look	-0.2870865
-3.298772	looked	-0.2427784
-3.267159	looking	-0.349077
-4.264913	lookit	-0.113327
-3.298772	looks	-0.2250041
-4.264913	loose	-0.08518695
-4.114597	lord	-0.1077153
-4.264913	loren's	-0.1133635
-4.069737	lorimar	-0.08189135
-4.264913	los	-0.1133733
-4.069737	lose	-0.1070428
-4.114597	losing	-0.1073812
-4.264913	loss	-0.1093194
-3.793002	lost	-0.1524211
-3.701118	lot	-0.148474
-4.114597	lots	-0.2308452
-4.264913	lotta	-0.1126176
-4.114597	loud	-0.1133266
-3.504649	love	-0.1464576
-3.909691	loved	-0.1058161
-4.114597	lovely	-0.1103954
-4.264913	loves	-0.112122
-4.114597	low	-0.1027243
-4.264913	lowest	-0.1133434
-4.114597	luck	-0.08271342
-4.264913	lucked	-0.1113609
-4.069737	lucky	-0.08288592
-4.264913	ludicrous	-0.1027484
-4.264913	lump	-0.1133733
-4.264913	lun	-0.1117582
-3.454928	lunch	-0.08263768
-4.264913	lunches	-0.1131951
-4.264913	lunchtime	-0.1124855
-4.264913	lure	-0.1129477
-4.264913	luther	-0.1133599
-4.264913	ly	-0.1110296
-4.264913	lying	-0.08518695
-4.264913	lynch	-0.1133635
-4.264913	lynne	-0.08216476
-3.237693	m	-0.102949
-4.264913	ma	-0.08518695
-3.793002	machine	-0.1127384
-4.264913	machines	-0.1027484
-4.264913	macley	-0.1027484
-3.504649	mad	-0.2573167
-3.159672	made	-0.1254769
-3.909691	mae	-0.2171774
-4.264913	maid	-0.08495396
-4.264913	mail	-0.1066996
-4.264913	main	-0.1133733
-4.114597	mainly	-0.08516177
-4.264913	mainstream	-0.1115596
-4.264913	maintaining	-0.1074815
-3.701118	major	-0.1333179
-4.264913	majority	-0.1093194
-4.264913	majorleague	-0.1133733
-2.926028	make	-0.1873347
-3.298772	makes	-0.14259
-4.114597	makeup	-0.1102887
-3.184154	making	-0.1273372
-4.264913	makings	-0.1105654
-4.264913	mako	-0.08518695
-4.114597	mal	-0.2067128
-4.264913	male	-0.1133733
-3.793002	males	-0.1048844
-4.264913	malibu	-0.1027484
-4.114597	mall	-0.09698039
-4.264913	mama	-0.1133733
-4.264913	mammals	-0.1082367
-3.073581	man	-0.1312179
-4.114597	manager	-0.1087827
-4.114597	managerial	-0.1132704
-4.264913	managers	-0.1133105
-4.114597	mandatory	-0.1054216
-3.909691	mandy	-0.1102582
-4.264913	mandy's	-0.1103331
-4.264913	mango	-0.1133599
-4.264913	manifest	-0.1122872
-4.264913	manifestation	-0.1093194
-4.264913	manifesting	-0.1131291
-4.069737	mankind	-0.112788
-4.264913	manner	-0.1105488
-4.264913	manners	-0.1093194
-4.264913	manure	-0.08518695
-3.454928	many	-0.1249578
-4.264913	man	-0.08518695
-3.625321	mar	-0.06954685
-4.069737	march	-0.1033647
-4.264913	marching	-0.1102335
-4.069737	marci	-0.2719372
-4.264913	marcia	-0.1027484
-3.909691	market	-0.07577299
-4.114597	marketing	-0.1133302
-3.701118	marriage	-0.1665857
-3.369869	married	-0.1976832
-4.264913	marrying	-0.1128487
-4.264913	marshmallow	-0.1133599
-4.114597	martin	-0.2348991
-4.069737	mary	-0.1021655
-4.264913	mary's	-0.1114272
-4.264913	mas	-0.1133434
-4.264913	masculine	-0.1103331
-4.114597	masks	-0.1095316
-4.264913	masturbated	-0.1027484
-4.264913	masturbating	-0.08518695
-4.264913	match	-0.1083701
-4.114597	matching	-0.08497156
-4.264913	matchstrikework	-0.08518695
-4.114597	math	-0.08426715
-4.264913	matinee	-0.1077695
-3.625321	matter	-0.1233588
-3.298772	may	-0.2381553
-4.264913	mayb	-0.1066996
-3.054483	maybe	-0.1794123
-4.114597	mayonnaise	-0.09950621
-4.264913	mbrad	-0.1124855
-4.264913	mccoy	-0.08518695
-4.264913	mckibben	-0.08518695
-4.264913	mcmann	-0.1133599
-4.264913	mcnuggets	-0.08518695
-2.532931	me	-0.1361334
-2.394492	mean	-0.1336114
-4.264913	meaning	-0.1130631
-3.793002	means	-0.08663183
-4.069737	meant	-0.105904
-4.069737	meanwhile	-0.1626448
-4.114597	measure	-0.1096107
-4.264913	measured	-0.1123698
-4.264913	measurement	-0.1093194
-4.264913	measuring	-0.1133733
-4.264913	meat	-0.1027484
-4.069737	mechanism	-0.09591369
-4.264913	media	-0.1124814
-4.264913	medicine	-0.08518695
-3.625321	meet	-0.09442673
-4.069737	meeting	-0.1047997
-4.114597	meetings	-0.1031495
-4.264913	mega	-0.1132115
-4.264913	melrose	-0.1106152
-4.114597	member	-0.07735214
-3.909691	members	-0.1217353
-4.264913	memorized	-0.1118078
-3.701118	men	-0.1337507
-4.069737	men's	-0.1622074
-4.264913	menos	-0.08322605
-4.264913	mensa	-0.1083701
-4.264913	menstrual	-0.1132445
-4.264913	mention	-0.1083034
-3.701118	mentioned	-0.1376911
-4.264913	merrill	-0.1133733
-3.909691	mess	-0.07450472
-4.264913	messages	-0.1132445
-3.909691	met	-0.137285
-4.264913	metal	-0.1106152
-4.264913	metallic	-0.1133733
-4.264913	metaphysical	-0.113294
-4.264913	methods	-0.08518695
-4.264913	mexican	-0.1027484
-4.114597	mexico	-0.1026261
-4.264913	mexico's	-0.1133105
-3.332867	mhm	-0.1585129
-4.264913	miaow	-0.08518695
-4.264913	michael	-0.08518695
-4.069737	microwavable	-0.08494635
-4.114597	microwave	-0.1125016
-4.264913	middle	-0.07855508
-4.264913	midnight	-0.1113278
-3.332867	might	-0.1397425
-3.793002	mike	-0.1885583
-4.264913	mile	-0.1027484
-4.264913	mileage	-0.1131456
-3.793002	miles	-0.07549497
-4.114597	military	-0.1111706
-4.264913	milk	-0.08518695
-4.069737	million	-0.1122916
-4.069737	millions	-0.1835746
-3.560807	mind	-0.129351
-4.114597	mine	-0.2067128
-4.264913	minnesota	-0.1113278
-4.114597	minorities	-0.1095316
-4.264913	minority	-0.1133105
-3.701118	minus	-0.1736856
-4.069737	minute	-0.07941718
-3.625321	minutes	-0.1944324
-4.264913	miracle	-0.1124029
-4.264913	mirror	-0.08515136
-4.264913	miserable	-0.08518695
-3.909691	miss	-0.217167
-3.793002	missed	-0.1443189
-4.264913	missis	-0.1133733
-4.264913	mistake	-0.08083446
-4.264913	mistakes	-0.1102003
-3.625321	mister	-0.3616281
-4.114597	mix	-0.08410418
-4.114597	mixer	-0.0828549
-3.701118	mm	-0.1631879
-4.264913	mn	-0.112122
-4.264913	mo	-0.1133733
-4.264913	mobile	-0.1133599
-4.114597	mobilization	-0.1105416
-4.264913	mobilize	-0.1133599
-4.069737	mobilized	-0.1079418
-4.264913	mobilizing	-0.1132775
-4.114597	moist	-0.07381441
-4.069737	mold	-0.1611858
-4.264913	molded	-0.1077695
-4.264913	moldy	-0.1027484
-3.114497	mom	-0.1787715
-4.114597	mom's	-0.1115349
-4.264913	momma	-0.1128156
-4.264913	moms	-0.1123864
-4.264913	monarchy	-0.07887597
-4.069737	monday	-0.1796718
-3.410319	money	-0.1627691
-4.264913	monsoon	-0.1133635
-4.069737	monster	-0.1416378
-4.264913	montgomery	-0.1133733
-4.069737	month	-0.07366552
-3.625321	months	-0.1561678
-4.264913	montoya	-0.1127496
-4.264913	moon	-0.08518695
-4.264913	moratorium	-0.113261
-4.264913	morbid	-0.08518695
-2.816094	more	-0.1394032
-3.701118	morning	-0.1577115
-4.114597	morsels	-0.07967824
-4.264913	moslems	-0.08518695
-3.369869	most	-0.1473966
-4.069737	mostly	-0.1102721
-3.701118	mother	-0.07491614
-4.264913	mothers	-0.1110794
-4.264913	motifs	-0.1093194
-4.264913	motives	-0.113228
-4.114597	motors	-0.0793801
-4.264913	mount	-0.1133733
-4.114597	mountain	-0.2348991
-4.264913	mountains	-0.1054343
-4.264913	mousse	-0.1110794
-4.069737	mouth	-0.06333079
-3.701118	move	-0.1272962
-3.701118	moved	-0.06093531
-4.264913	movement	-0.1128322
-4.264913	moves	-0.1083034
-4.069737	movie	-0.07662649
-4.264913	movies	-0.08518695
-3.504649	moving	-0.1378622
-4.264913	mow	-0.1125845
-3.210099	much	-0.105725
-4.264913	muffin	-0.1130466
-4.264913	muffins	-0.08518695
-4.264913	mulholland	-0.1103331
-4.114597	multiple	-0.1133034
-3.793002	multiply	-0.1775121
-4.264913	multiplying	-0.111907
-4.264913	munson	-0.1119897
-4.264913	murphy's	-0.1133599
-4.264913	muscle	-0.1055391
-4.114597	muscles	-0.1076819
-4.114597	museum	-0.1109925
-4.264913	museums	-0.1129312
-4.264913	mushy	-0.1133733
-4.264913	music	-0.1066996
-4.264913	musicians	-0.1082367
-3.410319	must	-0.2668452
-4.264913	must've	-0.1133434
-4.264913	mustache	-0.1027484
-4.264913	mustaches	-0.08518695
-4.264913	mutate	-0.1128487
-4.264913	mutual	-0.113228
-4.069737	muumuu	-0.08325706
-4.264913	muumuus	-0.08421427
-2.574187	my	-0.1572163
-4.264913	myeah	-0.08518695
-4.264913	myra	-0.08518695
-4.264913	myra's	-0.112155
-3.625321	myself	-0.1319455
-3.073581	n	-0.1603325
-4.114597	na	-0.1049976
-4.264913	nah	-0.08518695
-4.264913	namby	-0.1133733
-3.625321	name	-0.0706865
-4.264913	name's	-0.1099844
-4.264913	named	-0.1131621
-4.114597	names	-0.07381441
-3.701118	nancy	-0.06124988
-4.264913	nanna	-0.08518695
-4.264913	nap	-0.1027484
-4.264913	nasty	-0.08518695
-4.264913	natalie	-0.1132115
-4.114597	nathan	-0.2067128
-4.264913	national	-0.08511186
-4.114597	natural	-0.2348198
-4.264913	naturally	-0.08518695
-3.504649	nature	-0.1112969
-4.264913	nbreakable	-0.1131126
-4.264913	ne	-0.08518695
-4.069737	near	-0.1063063
-3.454928	neat	-0.2179373
-3.909691	necessarily	-0.1618931
-4.264913	neck	-0.08518695
-4.264913	nee	-0.08518695
-3.332867	need	-0.3207951
-3.909691	needed	-0.1486852
-4.114597	needing	-0.1083462
-4.264913	needle	-0.111907
-3.560807	needs	-0.2364008
-4.264913	nega	-0.1114272
-3.332867	negative	-0.2268716
-4.264913	negatively	-0.1133635
-4.114597	negatives	-0.0840556
-4.264913	nei	-0.1130136
-4.069737	neighbor	-0.160374
-4.264913	neighborhood	-0.1127496
-4.264913	neither	-0.1124855
-4.114597	nepal	-0.07381441
-4.264913	nerves	-0.1119401
-3.909691	nervous	-0.09427639
-4.264913	nestle	-0.1133635
-4.264913	neurotic	-0.1119401
-4.264913	neurotics	-0.1119732
-3.054483	never	-0.1088678
-2.985523	new	-0.1618536
-4.264913	newly	-0.1132115
-4.114597	news	-0.1011198
-4.069737	newspaper	-0.09368621
-3.298772	next	-0.2391174
-3.267159	nice	-0.1421757
-4.264913	nickie	-0.1130961
-4.114597	nicky	-0.1026092
-3.332867	night	-0.2465869
-4.114597	nightmare	-0.1080325
-3.410319	nine	-0.157567
-3.909691	nineteen	-0.1578431
-4.114597	nineteenninetythree	-0.1115717
-4.264913	nineteenseventies	-0.1027484
-4.264913	nineteenseventy	-0.1132445
-4.264913	nineteenseventytwo	-0.1103331
-4.114597	nineteensixtyeight	-0.111903
-4.069737	nineteensixtythree	-0.1080202
-3.701118	ninety	-0.07252667
-4.114597	ninetyeight	-0.08515136
-4.264913	ninetyeights	-0.1027484
-4.264913	ninetysixes	-0.1127661
-4.264913	nip	-0.08518695
-4.114597	nix	-0.1082697
-3.793002	nixon	-0.3117805
-4.114597	nkay	-0.08361455
-4.264913	nn	-0.08518695
-2.633732	no	-0.1218354
-3.625321	nobody	-0.1025502
-4.264913	nodding	-0.112155
-4.264913	nods	-0.1120393
-4.114597	noises	-0.1071765
-4.264913	nomination	-0.112535
-4.114597	none	-0.08083446
-4.264913	noon	-0.08518695
-4.114597	nope	-0.08421427
-4.114597	normal	-0.08514749
-4.114597	normally	-0.1098101
-3.909691	north	-0.1118293
-4.264913	nose	-0.1083701
-4.069737	noses	-0.09804901
-2.593142	not	-0.06422883
-4.264913	note	-0.1105654
-4.069737	notes	-0.07299679
-3.332867	nothing	-0.04821826
-4.264913	nothing's	-0.112568
-4.264913	notice	-0.1067457
-3.909691	noticed	-0.1198464
-4.264913	noticing	-0.1077695
-4.114597	notion	-0.2308452
-4.264913	noun	-0.08177496
-4.114597	november	-0.08463711
-2.655545	now	-0.2253183
-4.264913	nuisance	-0.1083701
-3.369869	number	-0.1595897
-3.560807	numbers	-0.08060326
-4.264913	nutrasweet	-0.1130631
-4.264913	nuts	-0.1102335
-4.264913	nutty	-0.1133733
-4.069737	nya	-0.1302999
-4.069737	nyah	-0.2171631
-4.264913	nyeah	-0.08518695
-4.264913	nyes	-0.1119236
-4.264913	nyou	-0.1127001
-4.264913	nyow	-0.08518695
-3.909691	o	-0.07846243
-3.701118	o'clock	-0.2559512
-4.069737	oakland	-0.1754025
-4.264913	oasis	-0.08518695
-3.625321	oba	-0.2361784
-4.264913	objecting	-0.1083701
-4.264913	objective	-0.1099844
-4.264913	objectively	-0.1133733
-4.264913	objectives	-0.1119732
-4.264913	obligated	-0.1083701
-4.264913	oblique	-0.1133733
-4.264913	obsessed	-0.08518695
-4.114597	obvious	-0.1065114
-4.114597	obviously	-0.1081993
-4.264913	ocean	-0.08518695
-4.069737	october	-0.1863957
-4.264913	octopus	-0.1103331
-2.029431	of	-0.1647374
-2.728442	off	-0.2103246
-4.264913	offense	-0.1105488
-4.114597	offering	-0.08147351
-4.069737	office	-0.06410689
-4.264913	official	-0.1133599
-4.264913	oficina	-0.1066996
-4.264913	often	-0.1119897
-2.702759	oh	-0.05177576
-4.114597	oho	-0.08515136
-4.264913	oh	-0.1077695
-3.625321	oil	-0.09776001
-4.264913	ointment	-0.1102335
-2.746449	okay	-0.1860884
-4.114597	ola	-0.1133302
-3.114497	old	-0.1029979
-4.069737	older	-0.1058161
-4.114597	olive	-0.2348198
-4.264913	olympics	-0.08191674
-2.139209	on	-0.2961277
-4.264913	on's	-0.1122872
-3.454928	once	-0.2681458
-2.378441	one	-0.157037
-4.264913	one'll	-0.1133434
-3.793002	one's	-0.1008869
-4.069737	onehalf	-0.1082452
-3.332867	ones	-0.1006242
-3.793002	onion	-0.4214371
-4.264913	onions	-0.1082367
-3.114497	only	-0.09771232
-4.264913	ontario	-0.08518695
-4.264913	onto	-0.1077695
-4.114597	oo	-0.0840027
-3.793002	oops	-0.0830364
-3.454928	open	-0.1241513
-3.909691	opened	-0.08160672
-4.264913	opening	-0.1027484
-4.264913	opens	-0.1126506
-4.069737	opinion	-0.1055014
-4.264913	opinionated	-0.1082367
-4.264913	opposed	-0.1083701
-4.264913	opposite	-0.1120393
-4.264913	opposites	-0.1129972
-2.153053	or	-0.2289499
-4.264913	orange	-0.1133599
-3.909691	order	-0.08702584
-4.264913	ordered	-0.1128156
-4.264913	ordering	-0.1133599
-4.264913	orders	-0.1027484
-3.793002	oregano	-0.2487228
-4.264913	oregon	-0.08518695
-4.264913	organization	-0.112502
-4.114597	organizations	-0.1060255
-4.264913	organized	-0.1027484
-4.264913	original	-0.08518695
-4.114597	originally	-0.09918276
-4.264913	ornaments	-0.1102335
-4.114597	ornery	-0.1048337
-4.264913	orville	-0.1027484
-4.264913	oscar	-0.1115596
-4.264913	oth	-0.1129312
-3.054483	other	-0.07861906
-4.114597	other's	-0.1077456
-4.264913	others	-0.08518695
-3.793002	otherwise	-0.1065158
-4.114597	ouch	-0.1123988
-4.114597	ought	-0.2298959
-4.069737	oughta	-0.1114191
-4.264913	ounce	-0.1027484
-2.873709	our	-0.1003544
-4.114597	ours	-0.08509471
-4.114597	ourselves	-0.107097
-2.330031	out	-0.2999232
-4.114597	outfit	-0.08177496
-3.410319	outside	-0.1392385
-4.264913	outside's	-0.1132775
-4.264913	outspoken	-0.1115596
-4.264913	ovary	-0.1027484
-4.114597	oven	-0.1606212
-2.702759	over	-0.2444784
-4.264913	overachievers	-0.08518695
-4.264913	overarching	-0.1133733
-4.264913	overbite	-0.1124689
-4.264913	overcast	-0.1119236
-4.264913	ow	-0.08518695
-4.264913	owe	-0.1127991
-3.909691	own	-0.08679321
-4.264913	owned	-0.08518695
-4.264913	owner	-0.1103331
-4.264913	owners	-0.1133733
-3.454928	p	-0.1209557
-4.264913	packed	-0.1110794
-4.069737	paddlers	-0.1000039
-4.264913	paid	-0.1133635
-4.069737	paint	-0.1568085
-4.114597	painting	-0.1107935
-4.069737	pair	-0.2305849
-4.264913	pairs	-0.1093194
-4.114597	pajamas	-0.1008824
-4.264913	pamby	-0.1066996
-4.114597	pamela	-0.07803646
-4.264913	pan	-0.08518695
-4.264913	pandas	-0.08518695
-4.264913	panel	-0.08518695
-3.701118	pants	-0.1743278
-4.069737	paper	-0.08250365
-4.069737	papers	-0.1606212
-4.264913	para	-0.1133635
-4.264913	parade	-0.1115099
-3.909691	paradox	-0.1209467
-4.264913	parallels	-0.08518695
-4.264913	parasitic	-0.1133599
-4.264913	pardon	-0.08518695
-3.560807	parents	-0.1278136
-4.069737	park	-0.1037019
-4.069737	parking	-0.08477364
-3.114497	part	-0.668818
-3.793002	participate	-0.1648603
-4.264913	participating	-0.1082367
-3.625321	participation	-0.1354318
-4.264913	particles	-0.1115099
-4.264913	particular	-0.1120724
-4.114597	particularly	-0.1133497
-3.701118	parties	-0.0907359
-4.264913	partner	-0.08518695
-4.264913	partners	-0.08518695
-4.069737	parts	-0.0752699
-3.410319	party	-0.1227349
-4.114597	pass	-0.1014418
-4.264913	passed	-0.1123698
-4.114597	passes	-0.1082827
-4.264913	passing	-0.112568
-4.264913	passionate	-0.1115596
-4.114597	past	-0.1060341
-4.114597	pastries	-0.1067625
-3.625321	pat	-0.1111234
-3.909691	pat's	-0.1108517
-4.264913	patently	-0.1133635
-4.264913	patience	-0.08518695
-4.264913	patricia	-0.1027484
-4.264913	patrick's	-0.1131786
-4.264913	paul's	-0.1117582
-3.454928	pay	-0.1238621
-4.264913	pays	-0.1125845
-4.264913	pe	-0.07803646
-4.264913	pebbles	-0.1103331
-4.264913	pecan	-0.1133635
-4.264913	peg	-0.1083034
-4.069737	peggy	-0.162137
-4.264913	pelvic	-0.113327
-4.264913	penalize	-0.1131291
-4.264913	pencil	-0.08518695
-4.264913	pending	-0.1082367
-4.264913	penny	-0.113327
-2.746449	people	-0.09255754
-4.069737	people's	-0.113085
-4.264913	peoples'	-0.113294
-4.069737	pepper	-0.081274
-4.069737	peppers	-0.2719372
-3.909691	per	-0.1698387
-4.264913	perc	-0.1083034
-4.264913	perceived	-0.1083034
-3.701118	percent	-0.1692322
-4.264913	percentage	-0.1027484
-4.264913	perception	-0.1102003
-3.909691	perfect	-0.1415284
-4.069737	perhaps	-0.08315105
-3.909691	period	-0.06791626
-4.264913	periods	-0.1119401
-4.264913	peripheral	-0.1133733
-4.264913	permanent	-0.1133434
-4.264913	permission	-0.08518695
-4.264913	pero	-0.1133599
-4.264913	perot	-0.08518695
-4.264913	perrizo	-0.1082367
-4.264913	perry	-0.1115761
-3.369869	person	-0.08629776
-4.114597	personal	-0.1123583
-4.264913	personality	-0.08518695
-4.264913	persp	-0.1131291
-4.114597	perspective	-0.09856927
-4.114597	perspire	-0.08154446
-4.264913	pertain	-0.1083701
-4.264913	pervert	-0.0830847
-4.069737	pesticides	-0.1579647
-4.264913	pet	-0.1133599
-4.264913	pete	-0.08518695
-4.264913	pete's	-0.1133105
-4.069737	peter	-0.2719372
-4.264913	ph	-0.1133599
-4.264913	pharmacy	-0.08308037
-4.114597	phase	-0.1087494
-4.264913	phenomena	-0.1131291
-3.909691	phil	-0.1337527
-4.264913	philanthropist	-0.1103331
-4.264913	philippine	-0.1133733
-4.264913	philippines	-0.08223125
-4.264913	phoebe	-0.1132775
-4.264913	phoenix	-0.08518695
-4.264913	phone	-0.06569577
-4.264913	phoned	-0.1120393
-4.114597	phones	-0.08502434
-4.264913	phrase	-0.1082367
-4.114597	pi	-0.08343801
-3.793002	pick	-0.1862509
-4.069737	picked	-0.077491
-4.264913	picking	-0.1102335
-4.264913	pickles	-0.08518695
-3.793002	pickup	-0.1084467
-4.264913	pico	-0.1027484
-4.264913	picture	-0.1092488
-4.264913	pictures	-0.1093194
-4.114597	pie	-0.111009
-4.069737	piece	-0.1258718
-4.114597	pieces	-0.08083446
-4.114597	pier	-0.2331019
-4.069737	pile	-0.114646
-4.069737	pill	-0.1066418
-4.264913	pillow	-0.1133733
-4.264913	pillows	-0.08518695
-4.264913	pink	-0.1083701
-4.264913	pinks	-0.1027484
-4.264913	pins	-0.1119401
-4.264913	pipe's	-0.113228
-4.264913	piss	-0.1133635
-4.264913	pissed	-0.112122
-4.264913	pits	-0.1105488
-4.264913	pity	-0.08518695
-3.298772	place	-0.1016955
-4.264913	placed	-0.1083034
-4.069737	places	-0.09398771
-4.114597	plain	-0.1130395
-4.264913	plainfeather	-0.1117582
-4.264913	planning	-0.1102335
-4.114597	plans	-0.1090491
-4.264913	plant	-0.1083034
-4.264913	plants	-0.1102003
-3.560807	plastic	-0.2501542
-4.264913	plates	-0.1119732
-3.793002	play	-0.09223088
-4.069737	played	-0.1084286
-4.114597	playing	-0.08181041
-3.701118	please	-0.07466207
-4.264913	plenty	-0.1093194
-3.560807	plus	-0.09100942
-4.264913	pocketbook	-0.08458427
-3.298772	point	-0.1086939
-4.264913	pointed	-0.1108307
-4.264913	pointing	-0.1108307
-4.264913	polar	-0.1133733
-4.114597	pole	-0.1013063
-4.069737	police	-0.07110713
-4.264913	policies	-0.1077695
-4.114597	policy	-0.1608154
-4.114597	polite	-0.100963
-3.410319	political	-0.222149
-4.264913	politically	-0.1133105
-4.264913	politician	-0.08518695
-3.909691	politics	-0.09939257
-4.264913	pollution	-0.1102335
-4.264913	pollyanna	-0.08518695
-4.264913	poner	-0.1133635
-4.264913	ponies	-0.1118739
-4.264913	pony	-0.1133635
-4.264913	ponytail	-0.08518695
-4.264913	poofed	-0.1118078
-4.264913	pools	-0.1102335
-4.114597	poor	-0.1123742
-4.264913	poorly	-0.1131456
-4.069737	popcorn	-0.2719372
-4.264913	poppy	-0.1133635
-4.114597	popular	-0.1101796
-4.264913	population	-0.1131786
-3.701118	position	-0.1334469
-3.909691	positive	-0.06707957
-4.264913	possibility	-0.1048841
-4.069737	possibly	-0.1007044
-4.114597	postage	-0.1098304
-4.264913	postal	-0.1133635
-4.114597	poster	-0.08306703
-4.264913	potassium	-0.1130631
-4.069737	potatoes	-0.1607977
-4.264913	potent	-0.113261
-3.909691	potential	-0.1100589
-4.264913	pounds	-0.1116423
-4.264913	poverty	-0.1027484
-4.114597	powder	-0.1115438
-3.001764	power	-0.1828687
-4.069737	powerful	-0.08327472
-4.264913	powers	-0.08518695
-4.264913	pr	-0.1127126
-4.264913	practical	-0.1133733
-4.069737	practice	-0.1067208
-4.114597	pragmatic	-0.1086661
-4.114597	praline	-0.2067128
-4.264913	pralines	-0.1027484
-4.264913	prayed	-0.1105654
-4.264913	prebreaded	-0.113261
-4.264913	precisely	-0.08518695
-4.264913	prefacing	-0.1130301
-4.264913	prefer	-0.1074855
-4.264913	pregnancy	-0.1133733
-3.410319	pregnant	-0.3038122
-4.114597	premise	-0.09947217
-4.264913	prep	-0.08518695
-4.264913	prepared	-0.1055055
-3.909691	present	-0.1289255
-4.264913	presents	-0.08518695
-4.264913	presidency	-0.1113775
-4.114597	president	-0.2308452
-4.264913	presplit	-0.08518695
-4.264913	presumptuous	-0.1127496
-4.264913	prettier	-0.1124359
-3.036189	pretty	-0.1455175
-4.264913	priest	-0.08518695
-4.264913	primary	-0.1133635
-4.114597	principal	-0.1006407
-4.264913	principal's	-0.1133599
-4.069737	principle	-0.1563095
-4.264913	principles	-0.1027484
-4.069737	prior	-0.1854666
-4.264913	pristine	-0.1133599
-4.264913	privacy	-0.1133363
-4.264913	private	-0.113228
-4.264913	privilege	-0.1074855
-4.264913	privileges	-0.1099844
-4.264913	probab	-0.08518695
-4.264913	probable	-0.1066996
-2.912345	probably	-0.1098068
-3.793002	problem	-0.2048779
-3.625321	problems	-0.0914777
-3.625321	process	-0.0775655
-4.114597	processing	-0.1111784
-4.264913	processor	-0.1027484
-4.264913	producer	-0.106909
-4.114597	product	-0.08083446
-4.264913	production	-0.1129807
-4.114597	products	-0.1847955
-4.264913	professional	-0.1133733
-4.264913	professor	-0.08518695
-4.264913	profound	-0.08518695
-4.264913	prohibitionist	-0.113228
-3.909691	project	-0.2100521
-4.114597	properly	-0.08504194
-4.264913	propor	-0.1120724
-4.264913	proposal	-0.08518695
-4.264913	proposed	-0.1133434
-4.264913	protect	-0.1065114
-4.264913	protection	-0.1027484
-4.264913	protective	-0.1130136
-4.264913	protects	-0.1133733
-4.069737	proud	-0.137285
-4.114597	prove	-0.09809567
-4.264913	proven	-0.1027484
-4.264913	proves	-0.1074855
-4.264913	ps	-0.07850584
-4.264913	pso	-0.1133434
-4.264913	psychology	-0.08518695
-4.114597	psychotherapist	-0.1074982
-4.069737	pub	-0.1356473
-3.909691	public	-0.1692186
-4.114597	publications	-0.1127786
-4.264913	publish	-0.08518695
-4.264913	pudding	-0.1130961
-4.114597	puedo	-0.1119857
-4.264913	puked	-0.1102335
-3.701118	pull	-0.09761363
-3.625321	pulled	-0.1585237
-4.069737	pulling	-0.1108226
-4.069737	pump	-0.09359997
-4.264913	punched	-0.08518695
-4.114597	purple	-0.2348893
-4.264913	purples	-0.1027484
-4.264913	purpose	-0.1093194
-4.264913	pursue	-0.1099179
-4.264913	pursuing	-0.1074855
-4.114597	push	-0.1057069
-2.838232	put	-0.2309034
-4.114597	puts	-0.1076652
-4.264913	putski	-0.112535
-4.069737	putting	-0.1060717
-4.114597	quart	-0.1082322
-4.264913	quarter	-0.1093194
-4.114597	quarterly	-0.1034531
-4.264913	quarts	-0.1082367
-4.264913	quasi	-0.1133733
-4.264913	que	-0.1133363
-3.625321	question	-0.1088579
-3.701118	questions	-0.1023658
-4.069737	quick	-0.2719372
-4.114597	quickly	-0.1122402
-4.264913	quiet	-0.1127661
-4.114597	quilt	-0.09984641
-4.264913	quinn	-0.1131621
-3.909691	quit	-0.1109481
-3.909691	quite	-0.2419098
-3.410319	r	-0.07251485
-4.069737	race	-0.1067543
-4.264913	racial	-0.113327
-4.264913	rack	-0.1027484
-4.114597	radiator	-0.08515136
-4.264913	radiator's	-0.1077695
-3.625321	radio	-0.09670342
-4.264913	radios	-0.1113278
-4.264913	rag	-0.1027484
-4.264913	raging	-0.1133635
-4.264913	rai	-0.1133635
-4.264913	rained	-0.1132445
-4.264913	rains	-0.1099179
-4.264913	rainy	-0.1133599
-4.069737	raise	-0.1113488
-4.114597	raised	-0.1082128
-4.264913	raising	-0.1124689
-4.069737	rana	-0.19048
-4.264913	ranchers	-0.08518695
-4.114597	random	-0.2345065
-4.114597	rar	-0.1622816
-4.264913	rare	-0.1119236
-4.114597	rate	-0.0840027
-3.909691	rather	-0.16938
-4.264913	ratio	-0.1093194
-4.264913	rationale	-0.1074855
-4.264913	rattling	-0.1133599
-4.114597	ray	-0.09759613
-4.264913	ray's	-0.1133434
-4.264913	raymond	-0.1133733
-4.114597	re	-0.1106443
-4.114597	reach	-0.08516177
-4.264913	reaction	-0.1102003
-3.114497	read	-0.1639792
-3.793002	reading	-0.1923348
-4.264913	reads	-0.1123864
-3.410319	ready	-0.1798098
-4.264913	reagan	-0.1111953
-3.036189	real	-0.08577086
-4.264913	realistically	-0.08518695
-4.264913	realities	-0.1093194
-3.625321	realize	-0.1609578
-4.069737	realized	-0.1001992
-4.264913	realizing	-0.1108307
-2.532931	really	-0.09287369
-4.264913	rear	-0.1093194
-4.264913	rearended	-0.1123864
-3.909691	reason	-0.08964796
-4.264913	reasons	-0.1129312
-4.264913	rebuilt	-0.08518695
-4.264913	recall	-0.1102335
-4.264913	receive	-0.1119732
-4.264913	received	-0.1133599
-4.264913	recent	-0.1133733
-3.793002	recently	-0.08296197
-4.264913	recess	-0.0836322
-4.264913	recliner	-0.08518695
-4.264913	recognition	-0.1130136
-4.264913	recognized	-0.07189202
-4.264913	recommended	-0.1133733
-4.264913	recorder	-0.1124689
-4.264913	recreation	-0.1110794
-4.264913	recycle	-0.1103331
-4.264913	recycled	-0.08518695
-3.504649	red	-0.1047239
-4.264913	redhaired	-0.113261
-4.264913	redoing	-0.1077695
-4.264913	reds	-0.1027484
-4.264913	redundant	-0.08518695
-4.114597	reeding	-0.1133266
-4.264913	reflection	-0.08518695
-4.264913	refrigerator	-0.1120724
-4.264913	refuse	-0.08518695
-4.264913	reg	-0.1133733
-4.264913	regard	-0.113294
-4.069737	regina	-0.1062058
-4.069737	regular	-0.08482216
-4.264913	reimbursement	-0.08518695
-4.264913	reinforcing	-0.1077695
-4.264913	reiterating	-0.1129312
-4.069737	relate	-0.100229
-4.069737	related	-0.10157
-4.114597	relational	-0.112151
-4.114597	relations	-0.1027243
-4.069737	relationship	-0.1831558
-4.114597	relative	-0.110329
-4.069737	relatives	-0.1071734
-4.264913	relaxing	-0.1133434
-4.264913	relevant	-0.1130301
-4.264913	reliable	-0.08518695
-4.264913	relief	-0.1127991
-4.264913	relieved	-0.1121054
-4.264913	relightable	-0.08518695
-4.264913	religious	-0.1133733
-4.264913	relinquishing	-0.1130796
-4.264913	rely	-0.1102335
-4.264913	remain	-0.08147351
-4.264913	remanar	-0.1099179
-4.264913	remarked	-0.1115596
-4.264913	remarks	-0.1099844
-3.093557	remember	-0.1747403
-4.114597	remembered	-0.1064611
-4.264913	remembering	-0.1130466
-4.264913	remembers	-0.1133733
-4.264913	renditions	-0.1093194
-4.264913	rental	-0.1131786
-4.264913	rep	-0.08518695
-4.264913	replace	-0.1131951
-4.069737	replaced	-0.08093235
-4.264913	replacement	-0.1074855
-3.625321	report	-0.148944
-4.114597	reported	-0.2298292
-4.264913	reporter	-0.08518695
-4.264913	represent	-0.113261
-4.264913	representation	-0.1077695
-4.264913	representatives	-0.1117085
-4.114597	represented	-0.1089492
-4.264913	republican	-0.1133105
-4.264913	reputable	-0.1133434
-4.264913	resenting	-0.08244802
-4.114597	residual	-0.111903
-4.264913	resigned	-0.08518695
-4.264913	resolution	-0.1074855
-4.264913	resolve	-0.1133635
-4.069737	respect	-0.07071172
-4.264913	respond	-0.1083701
-4.264913	responsibilities	-0.1116423
-4.069737	responsibility	-0.1039546
-3.793002	responsible	-0.1740217
-4.264913	responsive	-0.1082367
-4.114597	rest	-0.1088326
-3.909691	restaurant	-0.08050256
-4.264913	results	-0.1105654
-4.264913	retarded	-0.08518695
-4.264913	retired	-0.08518695
-4.264913	retirement	-0.113294
-3.909691	retreat	-0.1186699
-4.264913	reuseable	-0.1133635
-4.114597	review	-0.1846117
-4.264913	revived	-0.1131126
-4.264913	rewards	-0.08518695
-4.264913	rewind	-0.1083034
-4.264913	rhodes	-0.08518695
-4.114597	rice	-0.1131251
-4.114597	rich	-0.1023726
-4.264913	rickety	-0.1027484
-4.114597	rickie	-0.1416378
-4.264913	rid	-0.1093194
-3.909691	ride	-0.09339713
-4.264913	ridiculous	-0.08518695
-4.069737	riding	-0.1057028
-2.37452	right	-0.2631145
-4.264913	ring	-0.1102335
-4.264913	rinse	-0.112568
-4.069737	ripped	-0.1846117
-4.264913	risk	-0.1093194
-4.114597	rita	-0.07306913
-4.264913	ritz	-0.1133733
-4.264913	ritzy	-0.1133434
-4.114597	rivalry	-0.2067128
-4.114597	rivers	-0.08181041
-4.114597	road	-0.08849923
-4.264913	rocks	-0.1082367
-4.264913	role	-0.1105488
-4.264913	rolling	-0.1082367
-4.069737	rollins	-0.07847884
-4.114597	rolls	-0.111721
-4.264913	romig	-0.1118078
-3.454928	ron	-0.1095509
-4.264913	ronald	-0.1133733
-4.264913	ronsteen	-0.1133733
-4.264913	ronstone	-0.1121054
-3.410319	room	-0.2826028
-4.264913	roommate	-0.1130631
-4.264913	root	-0.1084161
-4.264913	rooted	-0.08518695
-4.264913	roots	-0.1099844
-4.264913	rosa's	-0.1113609
-4.264913	rosenblum	-0.08518695
-4.264913	rosenblum's	-0.1122832
-4.264913	rotten	-0.1133635
-4.264913	rotus	-0.1130301
-3.793002	round	-0.07481104
-4.114597	roundup	-0.08276214
-4.264913	row	-0.1106609
-4.264913	rows	-0.1093194
-4.114597	roy	-0.0840556
-4.264913	roy's	-0.1115596
-4.264913	royal	-0.1133635
-4.264913	royalty	-0.08191674
-4.264913	rplant	-0.08518695
-4.264913	rth	-0.1103331
-4.264913	rub	-0.1128982
-4.114597	rubber	-0.08452381
-4.264913	rubbers	-0.1083327
-4.114597	ruben	-0.1132735
-4.069737	rude	-0.162292
-4.114597	rule	-0.08348665
-4.264913	ruler	-0.08518695
-3.793002	rules	-0.09582926
-3.625321	run	-0.08015504
-3.504649	running	-0.08502997
-4.264913	runoff	-0.08518695
-4.069737	runs	-0.1044723
-4.264913	rural	-0.1133599
-2.985523	s	-0.1081376
-4.069737	sa	-0.1131705
-4.264913	sad	-0.1127496
-4.264913	safety	-0.1093194
-2.686444	said	-0.1082807
-4.264913	saint	-0.1133733
-4.264913	sak's	-0.113327
-4.264913	sake	-0.08518695
-4.264913	sakes	-0.1121054
-3.560807	salad	-0.1316148
-4.264913	salads	-0.1126506
-4.114597	salary	-0.09979122
-4.264913	salinas	-0.08518695
-4.114597	sally	-0.1126631
-4.069737	salmon	-0.1745896
-4.069737	salsa	-0.08313338
-4.114597	salt	-0.1096812
-4.264913	salty	-0.1133105
-4.264913	salvador	-0.08518695
-4.264913	salvation	-0.08518695
-4.114597	sam	-0.09991024
-4.264913	sam's	-0.1133599
-3.701118	same	-0.09607936
-4.069737	samuel	-0.1127622
-3.793002	san	-0.5219724
-4.264913	sanitaire	-0.08518695
-3.504649	santa	-0.4185648
-4.114597	sarah	-0.07381441
-3.701118	sat	-0.1624869
-4.264913	satisfied	-0.1120393
-4.069737	saturday	-0.1059879
-4.069737	sauce	-0.1375159
-3.909691	save	-0.1003649
-4.069737	saving	-0.1832396
-3.184154	saw	-0.172914
-2.827022	say	-0.1013843
-3.136497	saying	-0.2104986
-3.625321	says	-0.06749375
-4.264913	sc	-0.1121385
-4.264913	scandal	-0.1133733
-4.264913	scare	-0.1066996
-3.625321	scared	-0.1052211
-4.264913	scares	-0.112122
-4.264913	scarf	-0.1118739
-4.264913	scarfing	-0.08518695
-3.793002	scary	-0.1671959
-4.114597	schmuck	-0.0842419
-3.410319	school	-0.1097318
-4.069737	schools	-0.1055182
-4.114597	science	-0.1018568
-4.264913	scientist	-0.1133434
-4.264913	score	-0.112535
-4.264913	scoring	-0.1077695
-4.114597	scott's	-0.1074815
-4.114597	scraped	-0.1072809
-4.069737	scream	-0.09777991
-4.264913	screaming	-0.1114106
-4.264913	screen	-0.1133733
-4.264913	screw	-0.1066996
-4.114597	screwed	-0.2333336
-4.264913	screwy	-0.08518695
-4.264913	script	-0.1132445
-4.264913	scruffy	-0.1131621
-4.264913	scumbag	-0.08518695
-4.264913	se	-0.1121385
-4.114597	seafood	-0.08516177
-4.264913	seam	-0.08518695
-4.264913	search	-0.1122377
-4.264913	sears	-0.1115761
-4.069737	season	-0.1279281
-4.114597	seasonal	-0.2347868
-4.264913	seasoned	-0.1133733
-4.264913	seasoning	-0.08518695
-4.264913	seasons	-0.1066996
-3.454928	seat	-0.1905681
-3.793002	seated	-0.1085932
-4.069737	seats	-0.07994097
-4.069737	second	-0.1052513
-4.264913	secretary	-0.1101765
-4.264913	sector	-0.1102003
-4.264913	secured	-0.111907
-4.264913	sedate	-0.1027484
-2.79503	see	-0.1439428
-4.114597	seed	-0.2067128
-4.264913	seedpods	-0.1074855
-4.264913	seeds	-0.08518695
-4.264913	seeing	-0.1129972
-4.114597	seem	-0.182048
-4.264913	seemed	-0.1083701
-4.114597	seemingly	-0.08512228
-3.909691	seems	-0.2063708
-3.267159	seen	-0.1669594
-4.264913	selection	-0.1093194
-4.114597	self	-0.1133034
-4.264913	selfsufficient	-0.1133599
-4.114597	sell	-0.1012298
-4.114597	selling	-0.2343415
-4.114597	sells	-0.08516177
-4.264913	semana	-0.1133733
-4.114597	semi	-0.1027243
-3.701118	send	-0.1022377
-4.069737	sending	-0.1082421
-4.264913	senorita	-0.1133635
-4.264913	sensation	-0.1133733
-3.410319	sense	-0.3152592
-4.264913	sensitive	-0.1132115
-3.909691	sent	-0.1065702
-4.069737	sentences	-0.1101226
-4.264913	separate	-0.08518695
-4.264913	seppie	-0.1113278
-4.264913	seppie's	-0.1133599
-4.114597	serious	-0.08515136
-4.114597	seriously	-0.08512989
-4.264913	serves	-0.1133105
-4.264913	sesame	-0.1103331
-3.332867	set	-0.1682391
-4.069737	seven	-0.1129035
-4.264913	sevenhalves	-0.1027484
-3.909691	seventeen	-0.08397644
-4.264913	seventh	-0.113294
-4.114597	seventies	-0.1105945
-4.069737	seventy	-0.1410355
-4.264913	seventyfive	-0.08518695
-4.069737	several	-0.1898593
-4.264913	severe	-0.1133635
-4.114597	sewed	-0.2330854
-4.114597	sewing	-0.1132936
-4.114597	sex	-0.08271342
-4.114597	sexual	-0.1133363
-3.909691	sh	-0.1045019
-4.264913	shake	-0.1083034
-4.114597	shakes	-0.1019836
-4.264913	shall	-0.1098807
-3.909691	shape	-0.09064019
-4.264913	shaped	-0.1130631
-4.264913	share	-0.1064611
-4.264913	shark	-0.1027484
-4.114597	sharon	-0.08509471
-4.264913	sharp	-0.1102335
-2.490132	she	-0.250138
-3.793002	she'd	-0.109349
-3.793002	she'll	-0.1110256
-2.838232	she's	-0.1515688
-4.264913	shedding	-0.1113278
-4.264913	sheep	-0.1133599
-4.264913	sheet	-0.1129807
-4.264913	sheik	-0.1102003
-4.114597	sherry	-0.08283722
-4.264913	shipment	-0.1103331
-4.264913	shires	-0.1118739
-3.625321	shirt	-0.1551674
-3.298772	shit	-0.1581586
-4.264913	shittiest	-0.1133599
-4.264913	shitting	-0.1082367
-4.264913	shitty	-0.1127496
-4.264913	sho	-0.1099179
-4.264913	shock	-0.08518695
-4.264913	shocked	-0.1106152
-4.069737	shod	-0.1082619
-3.701118	shoe	-0.08213115
-4.264913	shoe's	-0.1099844
-4.114597	shoer	-0.1074616
-3.701118	shoes	-0.07311016
-3.909691	shoot	-0.08212067
-4.069737	shop	-0.0953429
-4.069737	shopping	-0.1872601
-3.625321	short	-0.06906234
-4.114597	shots	-0.1119195
-3.136497	should	-0.1206428
-4.114597	should've	-0.110246
-4.264913	shoulder	-0.112568
-3.560807	shouldn't	-0.1515976
-4.264913	shouldn't've	-0.1129642
-4.264913	shoveling	-0.1122377
-3.410319	show	-0.1778491
-4.264913	show's	-0.1114272
-4.114597	showed	-0.1105282
-4.114597	shower	-0.1103618
-4.264913	showers	-0.1129312
-4.069737	showing	-0.1109718
-4.114597	shown	-0.08359258
-3.909691	shows	-0.104506
-4.264913	shrimp	-0.1131786
-4.264913	shtick	-0.1105488
-4.264913	shush	-0.08518695
-4.069737	shut	-0.1048968
